9916 20
. 4.4465766 0.323646 -0.016824443 -1.4310651 -1.2430091 -0.4379006 1.1493852 -2.1001225 -0.09856802 -2.792994 1.3355212 -0.6369736 0.71735555 0.8328952 2.6913075 -2.305791 -2.8422558 1.6219037 0.81893677 1.4099991
of 6.174634 0.4353934 0.010835258 -1.9985819 -1.643857 -0.5497725 1.6022612 -2.9227428 -0.1400077 -3.8596582 1.838345 -0.8905188 1.016573 1.0909816 3.770658 -3.1879191 -3.9261804 2.203109 1.124023 1.9405318
and 6.8158464 0.47420698 -0.0068447837 -2.2001348 -1.8578738 -0.61838865 1.7758516 -3.2284715 -0.110322274 -4.28859 2.0278354 -1.0241549 1.0806754 1.2042896 4.147294 -3.5624382 -4.3585124 2.4307392 1.274778 2.156612
in 10.615945 0.7288432 -0.019154869 -3.481443 -2.9111626 -0.98592687 2.737215 -5.0547185 -0.20104602 -6.6814165 3.1986263 -1.587549 1.701701 1.8834047 6.507039 -5.5470366 -6.83469 3.8206081 1.9621756 3.355738
the 5.889646 0.39156127 0.010454273 -1.9339913 -1.6230906 -0.54737794 1.5155762 -2.790602 -0.09810595 -3.7088149 1.7663294 -0.8553385 0.92476416 1.0344481 3.5852106 -3.0642667 -3.783197 2.1003354 1.0729809 1.8712015
, 4.4361424 0.31548828 0.005249274 -1.4458241 -1.1934407 -0.40378356 1.1200879 -2.0716546 -0.06192775 -2.772368 1.3112433 -0.69125354 0.7530286 0.7812712 2.7051945 -2.260502 -2.8453975 1.6240429 0.83731663 1.3782377
a 3.7146478 0.20392239 -0.019499265 -1.2498999 -1.0029446 -0.35532302 0.97643095 -1.7686679 -0.090035416 -2.3798385 1.0983045 -0.5047995 0.5891644 0.62997115 2.2738624 -1.9663932 -2.3953753 1.3143518 0.7238089 1.2044369
: 4.190919 0.24758074 -0.02447968 -1.3636453 -1.1650623 -0.425093 1.070684 -1.9860634 -0.074338555 -2.66574 1.2432032 -0.61379915 0.68604994 0.72434527 2.5222096 -2.144567 -2.7178767 1.5066359 0.79909587 1.3323305
( 4.3727365 0.30370522 0.011230098 -1.3905208 -1.198453 -0.43600142 1.105375 -2.0816863 -0.07435986 -2.7664337 1.2890925 -0.62960374 0.72553736 0.7919578 2.6968875 -2.2498684 -2.7861156 1.5476114 0.81325424 1.4039135
) 4.3313932 0.27352616 0.01288028 -1.4230316 -1.1896969 -0.4083595 1.1344266 -2.0260253 -0.094973914 -2.7152855 1.3091087 -0.70080316 0.7281527 0.8068538 2.708275 -2.2251644 -2.816286 1.533015 0.822714 1.3838047
by 3.447098 0.24230227 -0.006525516 -1.1170703 -0.91797113 -0.31191003 0.9022086 -1.6343658 -0.054782093 -2.1659799 1.0253586 -0.49613124 0.5529257 0.5833155 2.0816646 -1.8169744 -2.2274046 1.2507602 0.6535636 1.0860778
with 3.6403632 0.25652602 -0.01138509 -1.1706482 -0.9940313 -0.34046572 0.93405175 -1.7022748 -0.06783927 -2.2834518 1.0849179 -0.54553646 0.5737364 0.6565118 2.2173667 -1.9011372 -2.3378618 1.2960938 0.67197865 1.1516188
for 4.447661 0.31593457 0.0005055485 -1.4398922 -1.2040025 -0.40537786 1.1616098 -2.1174664 -0.06487686 -2.778959 1.3214139 -0.6428438 0.69727916 0.7961953 2.749851 -2.302719 -2.8557305 1.593971 0.8204468 1.4282331
on 7.1642528 0.4819438 0.012975765 -2.3461924 -1.9685103 -0.6609195 1.8809698 -3.4130647 -0.12992078 -4.522528 2.140957 -1.0732832 1.1280354 1.2436411 4.390997 -3.741277 -4.6203856 2.5724716 1.2868986 2.2608652
to 3.827754 0.2759592 0.0025400673 -1.2572882 -1.0574263 -0.31513944 1.0146842 -1.8060422 -0.09526847 -2.3993902 1.1655362 -0.5689099 0.59233385 0.6559777 2.3338332 -2.024549 -2.4574142 1.3813314 0.724664 1.2232573
receptor 4.532838 0.3007252 0.0059239455 -1.4783078 -1.2410972 -0.40295067 1.1729428 -2.1520374 -0.092095956 -2.8397932 1.3489112 -0.68859434 0.72357094 0.7965572 2.7705295 -2.3500726 -2.8995187 1.6221522 0.83577245 1.4248449
cells 3.1473773 0.22202149 -0.009264362 -1.0328915 -0.8695195 -0.31859934 0.82755 -1.5013638 -0.07039217 -1.9943079 0.95947033 -0.4776212 0.51999384 0.56720537 1.9463029 -1.6567711 -2.0202353 1.1526519 0.59305376 0.9907101
human 2.9000196 0.19458614 -0.0002961596 -0.9365019 -0.78688616 -0.27381894 0.75319904 -1.3687721 -0.077379756 -1.8329298 0.87844986 -0.43684524 0.46966514 0.52189183 1.7823485 -1.5040344 -1.8651768 1.044726 0.54011494 0.9175082
expression 3.9396832 0.24395551 0.009205791 -1.3097793 -1.086591 -0.35408905 1.020047 -1.8724047 -0.0802398 -2.5018559 1.174921 -0.60030466 0.6185465 0.68637604 2.4075441 -2.0711496 -2.5323842 1.4165058 0.72085124 1.2390414
activity 4.317636 0.2946414 0.010558899 -1.4106741 -1.1976128 -0.40010607 1.1283562 -2.0550046 -0.085303396 -2.7122316 1.3022788 -0.6422761 0.6830945 0.7499025 2.6403196 -2.2498753 -2.7661927 1.539378 0.8047753 1.3648752
The 2.2487667 0.14714919 -0.013707273 -0.7361892 -0.61237615 -0.20701745 0.57649547 -1.0545657 -0.04362161 -1.4151907 0.6588229 -0.33193707 0.3402141 0.40088624 1.3562841 -1.1414822 -1.4220326 0.8111138 0.4234256 0.7193839
as 3.3659906 0.23207718 -0.0013477416 -1.1279947 -0.9003013 -0.3009016 0.86680603 -1.6021962 -0.06903537 -2.1027708 1.002844 -0.50461435 0.5507251 0.5719743 2.066255 -1.7217909 -2.1453698 1.2009999 0.63048565 1.0871764
effects 3.7217147 0.25365663 -0.004479987 -1.2118388 -1.0243329 -0.33873326 0.9784116 -1.764476 -0.07075553 -2.3474035 1.1060008 -0.556489 0.5845475 0.64204305 2.2658632 -1.9308476 -2.3946443 1.320345 0.6792628 1.1790612
A 2.157018 0.1453982 -0.010261683 -0.7226422 -0.5695239 -0.201231 0.5952763 -1.0085084 -0.05870507 -1.339014 0.6825851 -0.3452102 0.35858542 0.37463447 1.3194058 -1.1573367 -1.3611461 0.7645377 0.38865754 0.6611443
from 3.434642 0.2475039 0.000731797 -1.1116804 -0.9080885 -0.30566192 0.8934402 -1.6531773 -0.06643119 -2.1417778 1.0215148 -0.4923012 0.54119813 0.6035602 2.0860624 -1.7752827 -2.1987236 1.2202568 0.62491935 1.0686758
rat 3.3409665 0.23379512 -0.014945941 -1.0973041 -0.9050337 -0.2804602 0.8712861 -1.5842537 -0.087603286 -2.095974 1.0194311 -0.5061976 0.5110585 0.56757754 2.0293517 -1.7379628 -2.1351838 1.1958888 0.6192191 1.0640323
cell 3.3417199 0.22379388 -0.008229149 -1.0988189 -0.9156736 -0.3441608 0.8724862 -1.604021 -0.0637474 -2.1228704 1.0368748 -0.5078898 0.555749 0.6023953 2.0823023 -1.7580864 -2.1510246 1.214099 0.6259484 1.0440257
rats 3.342927 0.23361573 -0.009221765 -1.095235 -0.92263967 -0.31279886 0.87177753 -1.584283 -0.07986254 -2.1030161 1.0077702 -0.51591593 0.5334296 0.5807154 2.0433967 -1.7522678 -2.148733 1.2018737 0.62766594 1.0482478
inhibitors 4.037167 0.26532286 0.004390907 -1.3222678 -1.1127983 -0.36471763 1.041971 -1.9227337 -0.0685025 -2.543509 1.2096322 -0.6089836 0.6429831 0.7010911 2.467157 -2.1060443 -2.5978587 1.4417343 0.74917126 1.2778906
is 4.385455 0.28247774 0.020489424 -1.4644979 -1.1643652 -0.4143711 1.1623185 -2.094046 -0.10483424 -2.7512736 1.320749 -0.64968765 0.6938175 0.7870792 2.6720786 -2.3003778 -2.822228 1.5494225 0.8152591 1.3742145
novel 2.8561523 0.20482329 0.004596079 -0.9382813 -0.7788574 -0.272602 0.73382074 -1.36014 -0.03830366 -1.8047115 0.8532196 -0.41331673 0.44857582 0.50172937 1.7160535 -1.4703658 -1.8280784 1.0067587 0.5471706 0.9038279
mice 2.630597 0.18333417 -0.025432674 -0.8690848 -0.7152698 -0.24815594 0.69292134 -1.2509829 -0.07059456 -1.6449658 0.79194087 -0.40162182 0.44551972 0.46659943 1.6201462 -1.3822623 -1.7010258 0.9293174 0.49328154 0.8383764
cancer 2.9110382 0.19529751 -0.0050819768 -0.95368594 -0.80847067 -0.28975892 0.75095034 -1.3759484 -0.047593918 -1.8431928 0.8805445 -0.44957933 0.48284325 0.5165498 1.800881 -1.5350376 -1.8683745 1.0539862 0.5474261 0.9292283
gene 4.199535 0.2839243 -0.020312374 -1.3810298 -1.1310933 -0.37023383 1.0890446 -2.0042117 -0.08468035 -2.6458242 1.2673943 -0.62255967 0.66596687 0.7345406 2.5667336 -2.1667924 -2.7042928 1.5029877 0.79182416 1.3312064
an 6.2284846 0.42997557 0.0074662287 -2.017872 -1.7019143 -0.57779646 1.6266431 -2.9298255 -0.12573504 -3.9067922 1.8587096 -0.9321047 1.0138608 1.0862973 3.8086748 -3.2590353 -4.002581 2.240696 1.1473162 1.9556365
protein 4.451786 0.3153921 -0.01869179 -1.4554536 -1.2040861 -0.4030471 1.1598024 -2.1175802 -0.081309006 -2.794487 1.3376867 -0.6763016 0.72633016 0.7909113 2.718416 -2.318004 -2.8608282 1.6071825 0.8239468 1.4146425
binding 4.003305 0.268242 0.0065280963 -1.3052601 -1.0890303 -0.36566806 1.0415506 -1.9026088 -0.07958663 -2.5164423 1.2072121 -0.59044176 0.63844454 0.7021446 2.449723 -2.090275 -2.5673122 1.4339739 0.7518792 1.2647797
receptors 3.9475904 0.25611392 0.0054796 -1.2906693 -1.0864505 -0.34901664 1.0255016 -1.882315 -0.07437155 -2.4693928 1.1781957 -0.599659 0.6351142 0.6936164 2.4192905 -2.0551097 -2.532454 1.412909 0.72805285 1.2417669
[ 2.3845382 0.19151612 -0.014252323 -0.7763136 -0.6606041 -0.23120849 0.65485394 -1.1555779 -0.018257719 -1.4826881 0.7346811 -0.36890125 0.429865 0.41786525 1.4895979 -1.2858067 -1.5443591 0.82743514 0.45361707 0.7358917
] 2.4166162 0.17374814 -0.0059508104 -0.78439987 -0.67105246 -0.25448123 0.6526958 -1.1374223 -0.07484961 -1.5014122 0.7253903 -0.3410593 0.3880344 0.43213534 1.4474087 -1.2221092 -1.5753806 0.83202034 0.4235508 0.79392236
acid 2.8936737 0.1928998 0.0112647405 -0.92779297 -0.7875137 -0.27096832 0.76079947 -1.373288 -0.06542461 -1.8217807 0.8793776 -0.43237284 0.47740087 0.51438534 1.7729474 -1.5149513 -1.867711 1.036608 0.55168587 0.9195633
factor 3.4782457 0.23785724 -0.0029321865 -1.1293298 -0.9478468 -0.32015353 0.8875433 -1.6506822 -0.070617855 -2.1808662 1.0463698 -0.5129935 0.5637452 0.6153853 2.1076272 -1.781622 -2.2263606 1.2306651 0.6384281 1.099177
inhibition 5.475445 0.35749546 0.009442151 -1.7899456 -1.5166239 -0.49468502 1.4103307 -2.612724 -0.0924649 -3.4613662 1.6454487 -0.8286807 0.85837024 0.945356 3.3397317 -2.858574 -3.5170822 1.9662037 0.9971271 1.7267979
inhibitor 4.467578 0.29812303 0.0027381596 -1.4588577 -1.2251228 -0.4030559 1.1515977 -2.1205142 -0.08026316 -2.8106506 1.332153 -0.6733752 0.71064675 0.77250546 2.7264435 -2.3259797 -2.8700821 1.592975 0.8250243 1.4125175
activation 5.980506 0.3948525 0.01823141 -1.9671444 -1.6616749 -0.53847855 1.548387 -2.8496644 -0.104559064 -3.7724342 1.7977055 -0.89346457 0.9261147 1.04839 3.6468241 -3.1282973 -3.824706 2.142096 1.1024396 1.8856207
signaling 3.32114 0.22672644 0.0052764127 -1.0783719 -0.89906377 -0.2937788 0.8521278 -1.5716985 -0.065373205 -2.0882237 0.9966449 -0.48954448 0.53627586 0.58813024 2.0349002 -1.7312359 -2.129294 1.1857494 0.6098643 1.0527531
effect 3.1800573 0.22258186 -0.0032139474 -1.0325301 -0.8744109 -0.2877848 0.83639586 -1.5060275 -0.06348071 -2.009888 0.94591653 -0.47334796 0.49366593 0.54165363 1.9291183 -1.6485173 -2.045388 1.129377 0.57451326 1.0065584
treatment 2.8665488 0.18452732 0.0073219338 -0.9471085 -0.78250456 -0.25613302 0.742776 -1.3682663 -0.057347797 -1.7920291 0.8648363 -0.43272564 0.45059222 0.4972939 1.7499546 -1.4929472 -1.8360692 1.0135243 0.5363699 0.9042747
2 1.0793127 0.091232166 0.024576327 -0.29167998 -0.29484355 -0.14389914 0.28084397 -0.50104886 0.00083454326 -0.6462396 0.30246368 -0.15044524 0.15575522 0.18061276 0.6402152 -0.5429431 -0.65330076 0.3928221 0.18086883 0.3565287
via 2.1965504 0.15314163 0.00018155148 -0.7063246 -0.59680617 -0.1976254 0.5718642 -1.0427215 -0.0324701 -1.3789215 0.657626 -0.3262786 0.3629935 0.40338656 1.3476154 -1.1311002 -1.4239718 0.8023346 0.41506508 0.7074243
patients 3.6148028 0.24512471 0.0073427884 -1.1834459 -0.98044723 -0.334531 0.9485561 -1.7258561 -0.07604229 -2.2691462 1.0842452 -0.53109294 0.5721092 0.6447735 2.221748 -1.8807708 -2.3248518 1.2940122 0.67080194 1.1419373
through 2.0439985 0.13271563 0.003086605 -0.6621274 -0.5568035 -0.19263211 0.5353871 -0.968438 -0.043967325 -1.2813238 0.6087604 -0.31449458 0.32436505 0.36035392 1.2494323 -1.0714306 -1.3045601 0.72551215 0.38633132 0.6520319
its 3.1185246 0.21810934 -0.011025237 -1.0121055 -0.8565044 -0.28576952 0.8206681 -1.4932975 -0.031734116 -1.9535179 0.92473924 -0.449326 0.50473356 0.562187 1.9100662 -1.6359895 -1.9890715 1.1297687 0.5780445 1.0006167
vitro 1.6094875 0.08376578 -0.0011474225 -0.52096856 -0.4453516 -0.15949713 0.4127427 -0.7566221 -0.033848893 -0.9957784 0.46540514 -0.24409005 0.26877195 0.28092667 0.98794585 -0.83216643 -1.0244666 0.57371384 0.3128645 0.5140669
vivo 1.0801212 0.08178591 0.0061241817 -0.3611511 -0.3152791 -0.098335646 0.27383593 -0.5114446 -0.016978543 -0.66545546 0.3266753 -0.16229422 0.18963651 0.19603166 0.6702929 -0.56857353 -0.7000001 0.38272792 0.21153106 0.33697096
apoptosis 2.039928 0.1505129 -0.00770233 -0.6712232 -0.55380946 -0.18892294 0.53686917 -0.9751095 -0.049120877 -1.2953182 0.620806 -0.309529 0.32435778 0.37228295 1.2559448 -1.0663711 -1.3236214 0.72798616 0.38360476 0.6484618
antagonist 2.8131268 0.18865466 -0.004159883 -0.91453475 -0.77202046 -0.26109526 0.7241811 -1.3428924 -0.03272324 -1.7729405 0.8328829 -0.4223662 0.44976372 0.49365535 1.7162443 -1.4687626 -1.7993609 1.0042661 0.5254474 0.89189374
1 1.084518 0.07937679 0.0052454313 -0.35546494 -0.29020673 -0.09084241 0.31079072 -0.49774814 -0.019143008 -0.695456 0.3218905 -0.13188608 0.21613315 0.16914599 0.6519068 -0.5740824 -0.72275347 0.41529042 0.22911112 0.34512728
brain 2.6889303 0.18529056 -0.002334326 -0.89215827 -0.74398255 -0.24549267 0.70252186 -1.2684093 -0.056186687 -1.6907836 0.7965751 -0.402411 0.41978282 0.46618202 1.646442 -1.4040018 -1.7246869 0.9820369 0.4904311 0.8450138
Effects 3.2323627 0.22184722 -0.0011190092 -1.0516226 -0.89681536 -0.2979308 0.85102755 -1.5368545 -0.063533284 -2.0364594 0.96138513 -0.483838 0.50951326 0.56254804 1.9746953 -1.6768255 -2.084471 1.1493745 0.59440404 1.0226352
transporter 2.8791242 0.19644532 0.0037606931 -0.9411497 -0.7874072 -0.26977882 0.74573505 -1.3623008 -0.050118387 -1.8051196 0.8669058 -0.4228289 0.4556183 0.5083531 1.7615147 -1.5011588 -1.8591502 1.0412928 0.5418249 0.91524494
induced 5.3252354 0.3733659 -0.00015658261 -1.7423381 -1.4578663 -0.4899874 1.3886158 -2.5347788 -0.114918336 -3.334475 1.603828 -0.7874317 0.8575991 0.94630456 3.2602437 -2.782964 -3.4209516 1.9173697 0.97542226 1.6743448
against 1.9176357 0.12414723 -0.0064467103 -0.6181549 -0.5159663 -0.16454613 0.51007515 -0.9034668 -0.03270768 -1.2072272 0.57052606 -0.2788031 0.31155878 0.34140372 1.1781666 -1.0060865 -1.2245635 0.6862812 0.36500743 0.61542475
growth 1.4984202 0.08747139 -0.011738457 -0.49450454 -0.4049622 -0.13656415 0.3800322 -0.71627474 -0.025327377 -0.9599455 0.44882753 -0.22178484 0.23668762 0.2668605 0.9190612 -0.7841195 -0.9783623 0.5400916 0.2757493 0.47253123
kinase 3.6481922 0.25493565 0.007384716 -1.1969084 -0.9830518 -0.33036146 0.95634943 -1.7378223 -0.07581498 -2.302479 1.0928227 -0.53590405 0.5886449 0.65073353 2.238001 -1.9125487 -2.3302288 1.3328623 0.6854239 1.1541811
mouse 2.327317 0.1461955 0.008891407 -0.7435524 -0.62896055 -0.20971522 0.5987848 -1.1032007 -0.05186027 -1.4492372 0.6974176 -0.347942 0.37067586 0.398327 1.4111388 -1.2069582 -1.4836242 0.82976973 0.43806013 0.7216742
pathway 1.9056481 0.12513438 0.003402898 -0.6268876 -0.5129523 -0.17761713 0.50571996 -0.90671223 -0.035232786 -1.2034792 0.5640509 -0.2884943 0.29915586 0.32967764 1.1761558 -0.9944283 -1.2287241 0.6950605 0.3574621 0.5970873
new 1.5992386 0.101820804 -0.0030448234 -0.53470147 -0.43568283 -0.1457323 0.42196655 -0.7401923 -0.025665784 -0.99617845 0.46354386 -0.23816772 0.2372605 0.25666115 0.95804894 -0.81652874 -1.0070733 0.5673812 0.30213407 0.51083165
Effect 2.6177273 0.1858552 0.0022901911 -0.8528089 -0.7252019 -0.23608637 0.68747765 -1.241946 -0.053576563 -1.6500182 0.78031 -0.3881115 0.4074851 0.45327157 1.5903003 -1.3552182 -1.6847994 0.934543 0.47577593 0.8209348
drug 1.467797 0.10234762 -0.013392562 -0.466905 -0.39940163 -0.13459985 0.385765 -0.71458083 -0.028732598 -0.9057938 0.43964547 -0.22367564 0.24724221 0.25532815 0.900333 -0.7575653 -0.9499071 0.5230305 0.28562924 0.46184367
at 2.2958927 0.15445772 0.008055689 -0.75346154 -0.6294872 -0.20010361 0.59449786 -1.0790086 -0.07908129 -1.4556844 0.68739176 -0.33119157 0.3663548 0.4018058 1.3548585 -1.1773455 -1.4644997 0.8312428 0.41202277 0.70928925
Synthesis 2.2577963 0.163175 0.014631312 -0.7512308 -0.6151355 -0.21015033 0.58558583 -1.0672616 -0.033289447 -1.4150581 0.6584467 -0.3205773 0.36016777 0.40598837 1.3843579 -1.1780723 -1.445281 0.8006175 0.41137403 0.7174992
selective 3.382001 0.23232065 0.009570838 -1.0957906 -0.9256725 -0.31094307 0.8789732 -1.6075741 -0.062225256 -2.1382775 1.0169094 -0.5033099 0.5377279 0.58884543 2.0674033 -1.7620676 -2.1647563 1.2028453 0.6402634 1.0698372
inhibits 4.07293 0.2767011 0.0044677947 -1.3274469 -1.1186553 -0.36609247 1.0528358 -1.9431177 -0.070820644 -2.564243 1.209385 -0.6135778 0.6452466 0.7032225 2.482459 -2.1225543 -2.6149142 1.4582697 0.74999094 1.2843964
type 1.980085 0.122060746 -0.0142351305 -0.62275565 -0.52732617 -0.18843006 0.5321141 -0.9231125 -0.04599037 -1.234976 0.59190416 -0.29950812 0.3049489 0.35649183 1.219157 -1.0424489 -1.257697 0.70800155 0.36108384 0.6150772
study 1.5820459 0.11654999 -0.0140793165 -0.52236897 -0.4427967 -0.15091428 0.4083595 -0.74528253 -0.02647224 -1.0067456 0.48074055 -0.23636998 0.263836 0.28894392 0.98849356 -0.8329716 -1.0231922 0.5696384 0.29559264 0.49913514
model 1.9990852 0.13133827 0.009634767 -0.63737524 -0.53703594 -0.17823581 0.50985 -0.9536732 -0.038833313 -1.251844 0.60914665 -0.2955457 0.3158061 0.36537257 1.2221127 -1.0276787 -1.282448 0.7114865 0.3563334 0.6287262
potential 3.2599318 0.20617343 0.0044692685 -1.06527 -0.881386 -0.29863042 0.84675956 -1.5407869 -0.05768405 -2.0403104 0.9750267 -0.47191826 0.5132355 0.5712601 1.9817064 -1.6979697 -2.0796561 1.168716 0.6068301 1.0358739
stress 2.4133682 0.15962748 0.0041042864 -0.7983538 -0.66720235 -0.20507716 0.6304541 -1.1560746 -0.04670526 -1.5114839 0.7354693 -0.37675992 0.37408096 0.4150544 1.4717348 -1.2577528 -1.5568721 0.8682028 0.43144807 0.76820314
metabolism 2.1086786 0.14054148 -0.0070017325 -0.6844359 -0.570107 -0.18454497 0.5415155 -0.99913484 -0.03608819 -1.3166505 0.6257281 -0.30914655 0.33785805 0.37374234 1.2816486 -1.1011448 -1.345075 0.7581344 0.3895341 0.66281974
function 4.6685004 0.3055962 0.0050283354 -1.5377374 -1.2989136 -0.41526553 1.2000542 -2.215688 -0.08046913 -2.9431727 1.4022447 -0.7046321 0.7210416 0.8184509 2.8548715 -2.4552195 -2.9820096 1.6823595 0.8513287 1.460518
role 2.1448631 0.1507992 -0.004055925 -0.69677246 -0.5816811 -0.17317665 0.55019176 -1.0025674 -0.040550902 -1.3469311 0.62488693 -0.33166885 0.33648852 0.37298787 1.3150212 -1.1051074 -1.368603 0.76120853 0.4054898 0.67299795
II 0.8671221 0.04365158 -0.0048015094 -0.28128213 -0.23099376 -0.07166923 0.2180194 -0.39741254 -0.022432191 -0.5394704 0.2510152 -0.13318864 0.131928 0.16567743 0.52865297 -0.45984948 -0.5638684 0.29947215 0.1754506 0.26207417
disease 2.8865418 0.20288812 -0.0025862462 -0.9421634 -0.77883893 -0.27036735 0.7522961 -1.3776911 -0.06312546 -1.8080529 0.86483216 -0.4225129 0.4455235 0.51173264 1.7676967 -1.5007113 -1.8552929 1.0447334 0.5356279 0.90971357
properties 2.7487135 0.1912574 -0.00033157627 -0.90715796 -0.7413267 -0.25430736 0.7124291 -1.3040472 -0.047403958 -1.7297465 0.828167 -0.4059358 0.43334517 0.4861566 1.6667069 -1.4271677 -1.7668577 0.9900976 0.50169533 0.87513757
liver 2.3288589 0.15900801 -0.0066446257 -0.7507572 -0.6316713 -0.21446489 0.60029286 -1.0990502 -0.04451835 -1.4587407 0.70219517 -0.3393016 0.35444525 0.39525172 1.4207884 -1.2220947 -1.4887494 0.8260464 0.4388272 0.7296783
dopamine 3.1772537 0.22423966 0.006647865 -1.0273226 -0.86322045 -0.28261876 0.81942105 -1.5095261 -0.05951097 -1.9931489 0.9437988 -0.48439506 0.51948553 0.55619127 1.9378123 -1.6535372 -2.0371573 1.1431037 0.59777033 1.0083709
's 0.9032428 0.047695685 -0.014464783 -0.3154714 -0.2470931 -0.07190192 0.25933596 -0.40473685 -0.01700795 -0.5556264 0.27505562 -0.15329804 0.17716771 0.14135377 0.56504667 -0.4577474 -0.5828639 0.29884952 0.1305068 0.2599144
alpha 1.5761828 0.11542279 -0.0100413915 -0.5179307 -0.4222592 -0.15167253 0.40085584 -0.74690354 -0.03847827 -0.98552746 0.47048417 -0.2273713 0.24642548 0.28348094 0.970025 -0.8114933 -1.016552 0.5668287 0.28677517 0.49433973
using 4.190908 0.28558654 -0.001099517 -1.3834764 -1.1317984 -0.39175528 1.0909802 -1.9745926 -0.07623739 -2.630824 1.259688 -0.6266044 0.67673963 0.7259423 2.5682282 -2.1984518 -2.6856291 1.505606 0.77255005 1.3290958
drugs 1.218581 0.08495651 -0.0073458035 -0.39320314 -0.33444965 -0.10111829 0.31189758 -0.59588265 -0.020580795 -0.7587148 0.35320792 -0.17888945 0.2010451 0.20326747 0.7336787 -0.6177733 -0.78921527 0.44109643 0.22661181 0.38379803
response 2.776958 0.19030373 0.0050234264 -0.9141247 -0.7569695 -0.25087786 0.720149 -1.3148623 -0.05394637 -1.7527022 0.84480053 -0.42298797 0.43388495 0.49473116 1.6928653 -1.4494783 -1.7793496 0.9953369 0.51832795 0.8762242
molecular 2.2059834 0.14084324 0.012691038 -0.7138963 -0.5935168 -0.18797924 0.5670528 -1.0416377 -0.043626297 -1.3833586 0.64421093 -0.32746592 0.34386104 0.38808665 1.3475939 -1.1467576 -1.4185866 0.7963014 0.41047958 0.6988926
associated 3.1859725 0.21683137 -0.0014829544 -1.044536 -0.866847 -0.2868671 0.82857513 -1.5180845 -0.064873815 -2.0032146 0.94595534 -0.47323275 0.51132214 0.56252915 1.9540082 -1.6612657 -2.0480149 1.1488521 0.58855146 1.0043648
potent 3.6059577 0.22098659 0.006382892 -1.1745915 -0.97759646 -0.33333525 0.9340351 -1.704018 -0.06564131 -2.2553196 1.0756196 -0.509295 0.56856245 0.6216362 2.1929514 -1.8632495 -2.3000689 1.2870889 0.6751879 1.1470746
characterization 3.5071614 0.22900233 0.008680546 -1.1534348 -0.9746046 -0.31738204 0.9056396 -1.6714152 -0.06208612 -2.2155726 1.0527368 -0.5263016 0.53947896 0.6145732 2.1380184 -1.8341384 -2.2446773 1.2556928 0.643013 1.0986811
synthesis 2.6950283 0.1875295 0.015953524 -0.89800936 -0.7340534 -0.25375417 0.6965389 -1.2779311 -0.044792376 -1.6868842 0.7939134 -0.38726348 0.42620832 0.47952926 1.6467547 -1.4063909 -1.7296633 0.9608277 0.49552417 0.8550255
are 1.59169 0.11048633 0.0061958795 -0.51805365 -0.42807487 -0.14475377 0.4165401 -0.7607664 -0.038927946 -0.9819092 0.45747373 -0.2369291 0.25988302 0.26953828 0.94177824 -0.8293533 -1.0042524 0.5790386 0.29721266 0.49951318
between 1.4855882 0.1250941 0.013678531 -0.47192782 -0.39500982 -0.13091911 0.38507992 -0.70157874 -0.02850502 -0.9090964 0.44404444 -0.22168118 0.23661555 0.26136917 0.89390504 -0.7771115 -0.9350061 0.5244723 0.28026038 0.46276167
high 1.6860732 0.11205246 0.017026808 -0.5492798 -0.47115442 -0.15072185 0.44085732 -0.796942 -0.03205676 -1.0668559 0.4993994 -0.2524455 0.28408858 0.3006112 1.0369773 -0.87261814 -1.1050696 0.6150472 0.30188328 0.53366196
regulation 5.5119467 0.36796767 0.01128417 -1.8196955 -1.5334138 -0.49574846 1.4233303 -2.6272075 -0.099824354 -3.4783852 1.6594337 -0.82726645 0.85710114 0.9588873 3.3686697 -2.8822246 -3.5352492 1.9843336 1.0116571 1.7328205
DNA 0.81202406 0.054720856 -5.9418646e-05 -0.24299918 -0.23413691 -0.078817375 0.21913946 -0.37551585 -0.01922799 -0.49452278 0.23431356 -0.09935962 0.11350856 0.12120528 0.4937458 -0.40091604 -0.51194555 0.2712992 0.14427134 0.25001037
Inhibition 4.4428444 0.2908813 0.011940393 -1.4572465 -1.2384411 -0.403583 1.144701 -2.1210299 -0.07429208 -2.8031573 1.339477 -0.6689531 0.68957216 0.7679202 2.705762 -2.3252945 -2.855152 1.5978352 0.80919605 1.4012557
breast 1.6111501 0.11386178 0.010379486 -0.52831215 -0.43918288 -0.14475773 0.41898894 -0.7704106 -0.03473521 -1.0217438 0.49504873 -0.23801929 0.26842368 0.29339093 0.9943472 -0.8463006 -1.0368428 0.5896545 0.28922403 0.51790446
agents 3.3222334 0.21183997 -0.006427626 -1.07814 -0.9001632 -0.29909673 0.8579282 -1.5822996 -0.063525334 -2.0826323 1.0011821 -0.49655303 0.5219841 0.5884811 2.036642 -1.7309203 -2.1287167 1.1836787 0.6238875 1.0559713
during 3.4169865 0.22409993 0.008228517 -1.1297333 -0.92814344 -0.31105176 0.8918743 -1.6199064 -0.068171084 -2.163331 1.0344954 -0.5087101 0.5509268 0.5935656 2.0881083 -1.7821336 -2.1926856 1.2291461 0.6288826 1.0951706
derivatives 3.0625205 0.20811935 0.015012791 -0.9929349 -0.83710164 -0.28200063 0.78857195 -1.4514605 -0.056160152 -1.909014 0.92545825 -0.44793412 0.48014694 0.5352553 1.8624634 -1.5769079 -1.95143 1.090582 0.572524 0.9697281
not 1.6059695 0.11968734 -0.0032127188 -0.52660173 -0.41836396 -0.13582145 0.40804908 -0.77132165 -0.062266756 -1.0196948 0.48482555 -0.22909781 0.24770331 0.29887724 0.96831983 -0.8407975 -1.0222268 0.5743216 0.3160917 0.5152294
production 4.695862 0.31440648 0.009779675 -1.5442336 -1.3044796 -0.42222673 1.2132646 -2.238353 -0.08358704 -2.9640656 1.4052442 -0.69844043 0.7409891 0.8186131 2.8736386 -2.4610605 -3.020359 1.6889921 0.85320604 1.4827683
mechanism 1.8592348 0.12922126 -0.005586657 -0.60527486 -0.50659287 -0.1710127 0.48077205 -0.88325435 -0.030673824 -1.1695088 0.5389864 -0.26886985 0.2932517 0.32715946 1.1312975 -0.9750486 -1.1991788 0.6703475 0.35132617 0.5812472
induces 4.5282965 0.31085685 -0.001183593 -1.4894141 -1.2377574 -0.4275073 1.1866511 -2.161414 -0.09784322 -2.8376527 1.3692547 -0.6631718 0.7271057 0.8055392 2.7864242 -2.3596878 -2.9088051 1.6330059 0.8306474 1.4309715
oxidative 3.035216 0.1885895 0.0007502371 -0.9767348 -0.8420016 -0.27193627 0.789696 -1.4396715 -0.07046887 -1.894937 0.9287573 -0.4454481 0.48631087 0.5324585 1.8560716 -1.5785803 -1.9468539 1.0910962 0.5645431 0.95586526
levels 1.7261411 0.13391054 0.0014418412 -0.56553084 -0.4735759 -0.15375412 0.46109128 -0.8156132 -0.03559894 -1.0765601 0.5213164 -0.26443848 0.28263286 0.30091676 1.0576435 -0.89574903 -1.0941476 0.6232017 0.3225731 0.5552769
synthase 2.7652647 0.18331756 0.009657831 -0.8974185 -0.7462585 -0.2454169 0.70208687 -1.3176109 -0.058045458 -1.7271053 0.82084453 -0.40476516 0.4348707 0.48629916 1.6791209 -1.4328063 -1.7773117 0.99128467 0.51627666 0.86855096
muscle 1.3724241 0.09383627 -0.01765498 -0.4502039 -0.36478245 -0.130175 0.36300814 -0.66869575 -0.035594963 -0.8626456 0.40795198 -0.20036954 0.22038728 0.251692 0.84697914 -0.7051993 -0.88669145 0.49299708 0.25706112 0.4348595
their 2.1234298 0.14068358 -0.0006569626 -0.7002404 -0.57866555 -0.20357887 0.54272884 -1.0008341 -0.045521244 -1.3439674 0.6585295 -0.31751972 0.34339187 0.36208197 1.2824683 -1.1139446 -1.3716378 0.7701823 0.38816875 0.6675436
exposure 1.3958215 0.09130726 -0.00805959 -0.44353402 -0.3941363 -0.13074309 0.3708557 -0.65514106 -0.024729565 -0.87410474 0.41326633 -0.20576105 0.22764371 0.23948269 0.84629965 -0.72942084 -0.8990205 0.5091624 0.27066424 0.44538206
use 2.9152675 0.20997003 0.012319414 -0.9471914 -0.7548927 -0.27581272 0.7527865 -1.391638 -0.059895784 -1.8229755 0.8615703 -0.42006895 0.47136298 0.5035032 1.7515544 -1.5285575 -1.8713624 1.0398674 0.55135053 0.9146498
interaction 4.9654746 0.32945442 0.009265315 -1.6229999 -1.3659848 -0.44701165 1.2810582 -2.357137 -0.08528103 -3.128686 1.483278 -0.74082726 0.7744443 0.8669075 3.0350635 -2.5869277 -3.1838372 1.781717 0.90969044 1.5635766
proteins 3.4128785 0.24703875 -0.014275497 -1.1229273 -0.92167574 -0.30957198 0.8905146 -1.6176679 -0.058428105 -2.1451864 1.0264996 -0.5246032 0.55795765 0.60796547 2.0861974 -1.7779658 -2.1973524 1.233254 0.6319087 1.083519
antagonists 2.7433362 0.18625219 -0.008605837 -0.8927573 -0.7554265 -0.25368047 0.7064787 -1.3074924 -0.03963312 -1.7283922 0.81210566 -0.41134512 0.4357355 0.47953606 1.6729118 -1.4338795 -1.7554697 0.97527635 0.5136246 0.869638
endothelial 2.0717165 0.14543971 0.007431877 -0.67947817 -0.5571303 -0.19445173 0.53638625 -0.9819419 -0.039617117 -1.3032718 0.6300383 -0.30069736 0.3312057 0.36660442 1.2683958 -1.0844843 -1.3330243 0.7397895 0.38608724 0.6589732
insulin 2.7365704 0.18577895 -0.004634726 -0.8925372 -0.7408614 -0.24714014 0.7002042 -1.2985423 -0.05918627 -1.7088047 0.8215499 -0.4060409 0.43972367 0.482311 1.6682256 -1.4225615 -1.7503657 0.9766525 0.50057983 0.8619771
channel 1.8461624 0.112581015 0.0009242946 -0.60454726 -0.5174063 -0.1567678 0.4730161 -0.8777814 -0.03219139 -1.1693393 0.54861754 -0.27958187 0.28729388 0.3196989 1.1329459 -0.9698425 -1.1837844 0.6607441 0.34753147 0.5771166
evaluation 3.9850307 0.25097764 0.008594048 -1.3202822 -1.1059984 -0.3532329 1.0355035 -1.9085962 -0.063578084 -2.5231688 1.190402 -0.6033309 0.61419076 0.6932893 2.4474897 -2.090396 -2.5533397 1.4376277 0.7254499 1.2660567
studies 2.2199366 0.15651375 -0.01236567 -0.72957087 -0.6104853 -0.21059732 0.5675647 -1.0548271 -0.043825667 -1.3947287 0.66944385 -0.3362015 0.35078228 0.39697394 1.3635566 -1.1655437 -1.4206687 0.79084206 0.4039987 0.69611627
therapy 2.2376647 0.1474853 0.004777503 -0.7435389 -0.6058258 -0.20659295 0.58800054 -1.0642015 -0.03840498 -1.409603 0.6801209 -0.3312745 0.36376357 0.38977966 1.3638529 -1.1665397 -1.4361513 0.80705225 0.41311845 0.70371485
action 7.280622 0.48113602 0.026065066 -2.3914444 -2.0220587 -0.64714783 1.8745888 -3.4592326 -0.12538582 -4.5899396 2.1791296 -1.0900898 1.1229792 1.2616827 4.438077 -3.8218536 -4.657031 2.6161795 1.3287132 2.2924476
release 3.3478272 0.22897111 0.004241236 -1.1071876 -0.8988024 -0.31476718 0.8667041 -1.5936058 -0.07587787 -2.1117706 0.9887596 -0.49985003 0.5444274 0.5959156 2.0646324 -1.7338978 -2.1506684 1.1974666 0.62572527 1.0483593
genes 3.5769293 0.24246326 -0.0062320414 -1.1743087 -0.9580735 -0.3302435 0.9286995 -1.7039859 -0.07280677 -2.2420108 1.073391 -0.5426511 0.5633706 0.61305463 2.1931005 -1.8573681 -2.3046796 1.2833527 0.66468465 1.1180466
hormone 2.1139143 0.14547324 -0.0019824526 -0.6888817 -0.5715263 -0.19868341 0.54609793 -1.0059366 -0.04407207 -1.3250341 0.626615 -0.3080816 0.33036903 0.38107175 1.2840164 -1.0908297 -1.3488845 0.76261604 0.38651985 0.6744324
target 1.2694657 0.0789831 0.0058686365 -0.4121964 -0.33160785 -0.10777152 0.31369698 -0.6030924 -0.011520243 -0.7946749 0.3748458 -0.1860249 0.20150004 0.22652318 0.770576 -0.64818764 -0.798989 0.4360602 0.22812414 0.38847178
system 1.2057563 0.08071752 -0.00012945945 -0.39993632 -0.33702117 -0.11773571 0.30858082 -0.57699186 -0.027270233 -0.7636612 0.36288026 -0.18503228 0.18969071 0.20896965 0.735242 -0.642303 -0.77660435 0.42247316 0.22222441 0.39102563
tumor 1.6704448 0.11158078 -0.0025262902 -0.5387479 -0.4501813 -0.1562159 0.43507978 -0.80983794 -0.029745717 -1.0526557 0.50073767 -0.2458633 0.2686188 0.29692894 1.026654 -0.8684256 -1.0792196 0.6036823 0.30744073 0.52400243
In 1.1549287 0.07103939 0.011861451 -0.34749582 -0.3084823 -0.09835626 0.29149473 -0.5170623 -0.002768063 -0.70885026 0.34222293 -0.16383377 0.16306382 0.2086661 0.6982599 -0.60055345 -0.7356465 0.42709327 0.20251137 0.38196626
beta 1.9269834 0.12564866 -0.005920935 -0.6449705 -0.52098185 -0.17468005 0.49990958 -0.90550464 -0.039336395 -1.1963413 0.570385 -0.28568676 0.32049915 0.3477086 1.1701146 -0.993129 -1.2231776 0.6780074 0.3660137 0.6102383
Characterization 3.314215 0.21664587 0.007178831 -1.0884634 -0.9192471 -0.2982797 0.85713094 -1.5796003 -0.053634252 -2.0930974 0.9967738 -0.49684134 0.5104136 0.58253014 2.0195513 -1.7291745 -2.1221766 1.187627 0.6091203 1.040467
changes 2.3750465 0.14429489 0.0049343742 -0.7675527 -0.65153253 -0.2119918 0.60612684 -1.1165875 -0.043366898 -1.4853889 0.70804083 -0.34784076 0.37439674 0.40699792 1.4497832 -1.2335439 -1.5144556 0.84904563 0.4353039 0.7356147
epithelial 1.8087215 0.12291892 0.0072773295 -0.5867532 -0.48966953 -0.16686785 0.47069576 -0.8635635 -0.028459061 -1.1357412 0.5480388 -0.2741646 0.28301287 0.3187475 1.1076703 -0.94389004 -1.1578127 0.6483138 0.3345728 0.57350504
analysis 2.4019656 0.16797984 -0.0071999473 -0.79291797 -0.6505765 -0.23115666 0.6225493 -1.1362517 -0.045720395 -1.5051478 0.7136056 -0.35223782 0.38583988 0.42065892 1.4700911 -1.2442602 -1.5424836 0.8588788 0.4524273 0.7603629
after 2.2649546 0.14604163 0.0121241445 -0.73342055 -0.6172255 -0.20721342 0.5826207 -1.0683434 -0.04276786 -1.4138638 0.6608428 -0.33626842 0.355605 0.39586103 1.3867719 -1.1697848 -1.4515241 0.8193098 0.4160899 0.7081887
agonist 2.345143 0.15524682 -0.0034231648 -0.7690858 -0.63754416 -0.21384986 0.60531497 -1.1166382 -0.028110681 -1.4794139 0.690592 -0.34699523 0.3807679 0.41243437 1.4290092 -1.2207323 -1.5000517 0.8325019 0.4380726 0.74119014
channels 1.7241701 0.11017722 0.004058251 -0.5661756 -0.47682935 -0.14587796 0.43965757 -0.8254353 -0.028242601 -1.0798438 0.5118976 -0.2647389 0.26809227 0.2967771 1.0513511 -0.90625924 -1.1026564 0.6250073 0.32092327 0.5391936
acute 1.4751222 0.11520917 -0.00881211 -0.4837739 -0.421377 -0.14530513 0.38996062 -0.7079687 -0.028197657 -0.9374434 0.45735103 -0.22186397 0.22835988 0.25373727 0.8967348 -0.7727173 -0.9449675 0.5262294 0.26791593 0.4691458
serotonin 1.8967179 0.1265297 -0.0023610084 -0.6187299 -0.51560426 -0.17810632 0.49027658 -0.8987577 -0.039450902 -1.1930097 0.56696665 -0.2772056 0.3073033 0.33269387 1.1509062 -0.9734281 -1.2152033 0.6829544 0.34287685 0.6023132
modulation 5.157038 0.33663797 0.0050424896 -1.694932 -1.4351407 -0.4588065 1.3226303 -2.4523773 -0.09739857 -3.2498248 1.5504001 -0.77335334 0.7972718 0.89843524 3.144058 -2.6970417 -3.3072355 1.8493087 0.9414226 1.6249433
anti-inflammatory 1.9946462 0.1388817 0.005365722 -0.65017444 -0.5526604 -0.18780921 0.51722544 -0.9354201 -0.0362548 -1.254196 0.5947794 -0.2941009 0.3209701 0.3514965 1.220977 -1.0386614 -1.2822484 0.7102687 0.37287882 0.6258344
histamine 3.139618 0.21767844 0.01360106 -1.0241873 -0.8570137 -0.2792124 0.80871767 -1.4921607 -0.050756115 -1.9622234 0.9255381 -0.4659705 0.49964756 0.5495919 1.9183971 -1.6301721 -2.0131993 1.1210763 0.5781201 0.9988174
toxicity 2.3199656 0.16340525 -0.0079786945 -0.7554821 -0.63171506 -0.21966992 0.5990703 -1.1013079 -0.0535525 -1.4563397 0.69738173 -0.34299445 0.38381332 0.41769147 1.4277102 -1.2152272 -1.4869847 0.82215333 0.42604622 0.72789073
clinical 2.8565745 0.1954346 0.009575892 -0.9258941 -0.776793 -0.2644873 0.74361265 -1.348078 -0.054823305 -1.7915002 0.8630421 -0.4176247 0.4526358 0.50309557 1.7377833 -1.4863439 -1.8325468 1.0047641 0.53292274 0.89989686
lung 1.8604001 0.12214554 -0.010147327 -0.6078124 -0.5034325 -0.18032233 0.4757684 -0.88483447 -0.013662054 -1.1728337 0.5619036 -0.2832186 0.2965624 0.32102567 1.1526603 -0.9788261 -1.2064207 0.68038106 0.34213126 0.5867219
functional 3.5734894 0.23642537 -0.0029235517 -1.176969 -0.98092693 -0.3193973 0.9153604 -1.6984419 -0.061410945 -2.2353146 1.0769094 -0.53105766 0.5565193 0.6243373 2.1860635 -1.8725863 -2.2855847 1.2816058 0.6615202 1.1203247
male 1.7598065 0.12629174 0.0011852556 -0.5825595 -0.47561806 -0.15700057 0.4513292 -0.81771123 -0.04088845 -1.1096432 0.52496964 -0.25507388 0.2826688 0.32204112 1.0860919 -0.91680163 -1.1184853 0.6294746 0.33230898 0.5606708
Identification 3.7220023 0.24494426 0.010178297 -1.2221195 -1.0300895 -0.32957214 0.9584447 -1.7688957 -0.07084373 -2.3459852 1.1128465 -0.558947 0.5738409 0.64557874 2.2626634 -1.9556316 -2.3769088 1.3245933 0.68319696 1.1740909
sodium 1.2040324 0.07065517 -0.00798467 -0.3912262 -0.33125466 -0.116672 0.3132727 -0.58310443 -0.017738324 -0.76338685 0.35779336 -0.18819141 0.19222854 0.21214892 0.73530585 -0.62647897 -0.77794 0.4258527 0.22262727 0.38726676
control 2.1617887 0.14593402 -0.00013828128 -0.6977897 -0.5924236 -0.18624863 0.55492604 -1.0240666 -0.03773579 -1.3497254 0.6486083 -0.32346067 0.3433045 0.38371065 1.3249466 -1.1249163 -1.3930287 0.7726387 0.4011269 0.6793457
activities 3.5684755 0.24164815 0.0061113723 -1.1689302 -0.98766994 -0.32997525 0.9372649 -1.6935825 -0.068200536 -2.2334125 1.0721008 -0.5260147 0.56205386 0.6228984 2.1781716 -1.8582075 -2.280207 1.2760569 0.6689701 1.1270872
that 1.9288555 0.13563174 -0.0017343982 -0.62094474 -0.5289368 -0.17492567 0.4912072 -0.9080341 -0.051888324 -1.204144 0.57299626 -0.28116593 0.3150281 0.33152762 1.1883994 -1.0227885 -1.2333384 0.6778452 0.34110877 0.60201573
diabetes 2.4232972 0.1657073 0.0014861715 -0.79399794 -0.65774995 -0.23178945 0.62955743 -1.1526365 -0.044524647 -1.5162344 0.7288386 -0.36930543 0.38790914 0.43769395 1.4758695 -1.2600721 -1.5659982 0.8699806 0.4500027 0.76443124
renal 3.6733358 0.2496093 -0.010133733 -1.1927593 -0.991513 -0.33059052 0.9447157 -1.7371585 -0.07036603 -2.300935 1.0916144 -0.548313 0.5721689 0.6565071 2.2405121 -1.911749 -2.3567817 1.3094707 0.69210684 1.1538048
mechanisms 1.6635563 0.11623971 -0.00427144 -0.53863615 -0.45521337 -0.150777 0.42795643 -0.7881237 -0.029999783 -1.0466433 0.47974283 -0.2400905 0.26423448 0.29241288 1.0212206 -0.8704551 -1.0694782 0.59871453 0.31498602 0.5202238
secretion 3.6859963 0.24508335 0.0024164517 -1.2107399 -1.0217271 -0.33167446 0.942368 -1.7542601 -0.06632021 -2.321277 1.1085418 -0.5501926 0.5738312 0.6418918 2.2520971 -1.9249331 -2.357623 1.325493 0.67099214 1.1473886
primary 1.3584397 0.09287119 -0.0058804913 -0.44442707 -0.36628205 -0.1122085 0.35625234 -0.64754087 -0.022293238 -0.8592008 0.41489312 -0.1984342 0.20992883 0.24503475 0.83485115 -0.7023606 -0.87056124 0.48995313 0.25568756 0.4347676
inflammatory 2.0704195 0.13948764 0.005874472 -0.6785867 -0.57211 -0.19769014 0.5406018 -0.970059 -0.04111248 -1.302262 0.6199045 -0.31204563 0.3397434 0.37070328 1.2655056 -1.0748216 -1.3397301 0.73211193 0.38301167 0.64533865
thyroid 1.5953959 0.09588226 0.0055428892 -0.51857024 -0.4298888 -0.14795998 0.40872598 -0.7523302 -0.038919635 -1.013532 0.48777556 -0.23730744 0.25768772 0.2817943 0.9849739 -0.84093535 -1.0375072 0.5636185 0.29044893 0.49500826
Novel 1.7516564 0.11576775 0.008033674 -0.565792 -0.48278382 -0.1646027 0.45512983 -0.8326762 -0.028391568 -1.1064113 0.50887007 -0.2501226 0.26659715 0.31187508 1.0606248 -0.90388554 -1.1105632 0.6337915 0.342142 0.54560715
resistance 2.680083 0.18861051 0.0024543589 -0.8771076 -0.73270994 -0.2545456 0.6965141 -1.2608827 -0.049517877 -1.6867521 0.8028284 -0.3911588 0.4220624 0.48079523 1.6457348 -1.3983821 -1.7282794 0.9534278 0.49832705 0.85389805
calcium 1.4130526 0.094637536 0.010433611 -0.45882916 -0.38037267 -0.13423406 0.36967015 -0.6797109 -0.029027708 -0.88595545 0.42890963 -0.21478276 0.2314494 0.25643888 0.87326556 -0.73934233 -0.9107655 0.5007326 0.26442948 0.43778172
mediated 4.1306033 0.27285188 0.0035619196 -1.3424346 -1.1177143 -0.36798045 1.0752103 -1.9641993 -0.08048115 -2.597969 1.2279578 -0.6196208 0.668034 0.7404943 2.5181992 -2.155266 -2.6534977 1.4841261 0.77257484 1.2921394
comparison 1.9274342 0.121536374 -0.0007323159 -0.6250633 -0.52818084 -0.17443585 0.5061452 -0.9067423 -0.031942584 -1.2109389 0.56469595 -0.27814817 0.30432716 0.33837017 1.1773573 -1.0040557 -1.2274784 0.68845683 0.3550211 0.61085355
- 0.45101243 -0.008170277 0.008090851 -0.16271514 -0.11904447 -0.04759457 0.14386438 -0.2221646 -0.011461904 -0.30191922 0.14857662 -0.027862962 0.08932449 0.11762217 0.3071091 -0.21499579 -0.31625703 0.1371116 0.06498979 0.13067693
damage 0.91956884 0.07258091 -0.0054583787 -0.30261332 -0.25079945 -0.085295275 0.24539973 -0.438408 -0.01979235 -0.58092576 0.28957126 -0.13894367 0.15207121 0.17457451 0.56498075 -0.47870475 -0.593702 0.32794476 0.17371178 0.29782638
plasma 1.271993 0.08386746 0.006587422 -0.41288102 -0.3439457 -0.108379476 0.34306183 -0.5900784 -0.011296101 -0.8015634 0.3816978 -0.1925724 0.19857378 0.23458338 0.773444 -0.66286486 -0.83161145 0.47064605 0.23469664 0.39782214
blood 0.95010746 0.06560717 -0.002669331 -0.3200117 -0.25002402 -0.085650794 0.24621448 -0.4413653 -0.0035476366 -0.58376503 0.28688523 -0.13627878 0.15326709 0.173108 0.57465786 -0.4800677 -0.60663664 0.34495276 0.16005448 0.29669902
? 0.4288273 0.030818928 -0.019307535 -0.11621855 -0.1131638 -0.0111680655 0.11386187 -0.22511718 0.02741477 -0.2906375 0.12493947 -0.05850901 0.10142482 0.070450984 0.24842691 -0.2439917 -0.25721315 0.18162185 0.052130103 0.12344326
involved 2.1136796 0.14915513 0.0017087599 -0.6924377 -0.5744981 -0.19117005 0.5498517 -0.9985616 -0.040692694 -1.317917 0.61922765 -0.3277792 0.33670068 0.3656107 1.2834756 -1.0943401 -1.3578492 0.75397444 0.39378163 0.6698393
attenuates 2.2164066 0.15603465 -0.0024156212 -0.7183953 -0.6052079 -0.19942522 0.5722509 -1.0453663 -0.040503975 -1.38615 0.6638704 -0.32920694 0.3583388 0.39063853 1.3498566 -1.1494132 -1.424588 0.7926255 0.40997717 0.70038164
biological 2.303515 0.15222153 0.0070395446 -0.74285555 -0.623446 -0.21283922 0.603409 -1.0798197 -0.0519792 -1.4301904 0.68536717 -0.33432123 0.36612973 0.4004583 1.4096355 -1.1978077 -1.4755983 0.81844026 0.43902567 0.73025715
hepatic 3.1689374 0.2286985 0.0056869597 -1.0316604 -0.8650309 -0.29164556 0.820538 -1.5145905 -0.057060648 -1.9831662 0.94825023 -0.45577028 0.50145143 0.56594497 1.935274 -1.6497022 -2.0311162 1.1432462 0.58573 0.9993219
syndrome 1.4208544 0.096797004 0.0036238134 -0.47267246 -0.38986087 -0.12930173 0.36607558 -0.6785333 -0.037686702 -0.8816742 0.42972696 -0.22114083 0.22270148 0.25436723 0.86726713 -0.74678355 -0.92097515 0.5065676 0.25993398 0.45547548
enzymes 2.0988686 0.1407431 0.004392089 -0.68961966 -0.5789759 -0.1904644 0.5487128 -1.003424 -0.046837345 -1.3237903 0.62495553 -0.31884202 0.32204446 0.37392598 1.2819254 -1.1066482 -1.3453345 0.7502035 0.38509008 0.67309415
injury 1.5109192 0.10898245 -0.0089406865 -0.49696696 -0.40211806 -0.13759704 0.3959906 -0.7172053 -0.044141382 -0.9562924 0.46597615 -0.21668749 0.24902831 0.2647952 0.9248509 -0.7916252 -0.97736126 0.5432888 0.29115304 0.49042642
mutation 5.44111 0.34993026 0.023954676 -1.7962617 -1.4985931 -0.48438036 1.4045516 -2.590209 -0.098566145 -3.4409213 1.6166627 -0.81552655 0.84084946 0.949276 3.3163478 -2.8507166 -3.4729705 1.9444411 0.98653996 1.7085073
oxidase 2.7570553 0.1749746 -0.011875728 -0.896975 -0.74557257 -0.24885868 0.7111911 -1.314146 -0.059187282 -1.740894 0.82457656 -0.4057137 0.437934 0.47557914 1.6899372 -1.4453532 -1.7696415 0.98870975 0.50905377 0.8735515
enhances 2.6927822 0.1726882 -0.0047430075 -0.8767161 -0.74182457 -0.25323546 0.69373715 -1.2804831 -0.054774165 -1.6857367 0.8240132 -0.39733437 0.4396908 0.4743791 1.6597295 -1.4000592 -1.7282901 0.97719216 0.5104964 0.8532887
chronic 2.394442 0.1611535 -0.0001881121 -0.779961 -0.66011983 -0.22097519 0.62239575 -1.1314694 -0.044071246 -1.4949646 0.7161049 -0.3499435 0.38286984 0.41834718 1.4541122 -1.2399004 -1.5247977 0.8525745 0.45416325 0.7474556
isolated 3.6306925 0.23705246 0.008094841 -1.1891273 -0.9883179 -0.31642318 0.9483609 -1.7224953 -0.06831681 -2.2858517 1.0876925 -0.5322873 0.57107973 0.64650345 2.2187612 -1.8807025 -2.322074 1.295484 0.668266 1.1345891
administration 3.7158284 0.24344723 0.012074804 -1.2182624 -1.0222775 -0.33047876 0.9469784 -1.7651948 -0.06557768 -2.3434162 1.1119876 -0.555964 0.58007014 0.6534957 2.2684867 -1.9374818 -2.3833323 1.3307638 0.6809508 1.170426
+ 0.33454865 0.02203359 0.028728668 -0.10380507 -0.08546786 -0.060993187 0.06460885 -0.17139739 -0.010804718 -0.24671948 0.06962466 -0.029995864 0.037102066 0.03648312 0.1934621 -0.17411208 -0.18860604 0.14779955 0.056787 0.14111298
protects 3.618762 0.25958306 -0.0035142114 -1.1833996 -0.9772654 -0.3344998 0.94384307 -1.7242644 -0.066110834 -2.284913 1.0895262 -0.5497212 0.58507025 0.6393037 2.212591 -1.884551 -2.331034 1.3104886 0.6733876 1.1541702
I 0.35810035 0.0642737 0.029546812 -0.1337159 -0.05592085 -0.038119722 0.087119214 -0.19851649 -0.01596368 -0.23623264 0.102485605 -0.05408403 0.0929478 0.10034142 0.24126151 -0.19369279 -0.20547134 0.11697778 0.033010222 0.12655216
structure 1.7799246 0.12933137 0.0015450497 -0.58142424 -0.4853743 -0.1645883 0.4637531 -0.83812195 -0.025599906 -1.1097709 0.52858406 -0.2633509 0.2725179 0.29887977 1.0876701 -0.9226661 -1.129615 0.64375204 0.3280169 0.5612251
reduces 3.2016628 0.21749438 0.0051416974 -1.0454259 -0.8715534 -0.2953121 0.8356372 -1.5238165 -0.08126139 -2.0065527 0.95844907 -0.47595647 0.5118583 0.56781816 1.9714284 -1.6686212 -2.0538223 1.149971 0.5920679 1.0109718
amino 2.3363104 0.16516335 0.0124744 -0.74901545 -0.6344672 -0.21819691 0.5931092 -1.0926844 -0.043405313 -1.4441829 0.6864316 -0.34555954 0.3615668 0.4099962 1.4254612 -1.196626 -1.4861819 0.8538812 0.4306933 0.745817
responses 2.810279 0.19537358 0.0021815642 -0.92212784 -0.76542705 -0.2593905 0.73019904 -1.3302798 -0.055944566 -1.7710369 0.84853125 -0.42641887 0.44051063 0.5011653 1.7146466 -1.471783 -1.7950995 1.0087309 0.5190092 0.8904408
interactions 3.9573028 0.26740494 0.00810076 -1.2914964 -1.0869703 -0.35640565 1.0224835 -1.8790206 -0.068968296 -2.4898303 1.1887687 -0.5869747 0.6228728 0.68961036 2.4204798 -2.060575 -2.5384781 1.4195049 0.73197204 1.24644
or 3.3615174 0.22868513 0.021827284 -1.0746254 -0.94260216 -0.3011979 0.8619798 -1.5894767 -0.054981846 -2.1031344 0.9887475 -0.5015279 0.5334876 0.5953173 2.0556622 -1.778291 -2.1520193 1.2351272 0.6125868 1.0559217
transcription 3.2647352 0.2066096 0.00029050608 -1.0738258 -0.8973258 -0.2989794 0.8452104 -1.552235 -0.053725842 -2.0663362 0.9786704 -0.48840016 0.5082472 0.57318974 2.0009873 -1.7095672 -2.0969589 1.1745385 0.6001529 1.0293356
but 0.786341 0.057415854 0.003374942 -0.26122478 -0.21695423 -0.081472956 0.19239129 -0.3660396 0.003862483 -0.4845559 0.22491603 -0.10268414 0.12059579 0.13048203 0.47763792 -0.41947728 -0.49574438 0.26258293 0.13515668 0.24677229
development 2.1704786 0.14523174 -0.0018664795 -0.71434915 -0.5919086 -0.20445655 0.56909573 -1.0287468 -0.045906 -1.3514153 0.651203 -0.3235391 0.34469038 0.37693134 1.3299116 -1.1176847 -1.385237 0.7769457 0.40731546 0.6887972
C 0.28032097 0.03874743 0.006349827 -0.13619916 -0.04059687 -0.02480939 0.04668648 -0.13443413 -0.001956412 -0.18005186 0.098466404 -0.07709863 0.059142847 0.03200978 0.14877412 -0.15441686 -0.15244046 0.11309733 0.044400755 0.040080737
allosteric 2.2257247 0.1553326 -0.007711129 -0.7166014 -0.60926235 -0.20774381 0.57805794 -1.0517958 -0.043776494 -1.3914489 0.6654146 -0.33163258 0.35478225 0.3928413 1.355607 -1.1555461 -1.4222529 0.790201 0.4142817 0.69321674
complex 1.637187 0.10141871 -0.0043333606 -0.5331213 -0.43564937 -0.14892831 0.439914 -0.77494764 -0.030165644 -1.0349594 0.4861519 -0.25398406 0.26421195 0.28406364 1.0116769 -0.8603478 -1.0592285 0.5920895 0.3009967 0.52538705
inhibitory 3.8417406 0.2549292 0.0018622775 -1.2550853 -1.0567567 -0.34736618 0.9881352 -1.8225218 -0.06595185 -2.419549 1.1515391 -0.5784385 0.6156306 0.66398174 2.346646 -1.99712 -2.472211 1.3691188 0.7105209 1.2196814
profile 2.0794256 0.14039658 -0.013517486 -0.6858985 -0.563639 -0.19407055 0.5469793 -0.99989104 -0.054865476 -1.319971 0.6301273 -0.30848756 0.34018105 0.37361687 1.2836508 -1.0893524 -1.3404638 0.7631075 0.3762347 0.6756143
Pharmacological 2.0353708 0.13277909 0.010633446 -0.6630704 -0.5550744 -0.18753552 0.5302438 -0.96128154 -0.04286784 -1.2706271 0.6025841 -0.30132595 0.32236826 0.35228515 1.2427628 -1.0567409 -1.305087 0.7251062 0.38509864 0.65131885
monoamine 2.8511512 0.20505884 0.0005579832 -0.92772543 -0.77507603 -0.25879523 0.73321384 -1.3557692 -0.053487796 -1.7905725 0.84773093 -0.42251784 0.45335317 0.49687514 1.7312126 -1.4782166 -1.8332497 1.0180782 0.5274328 0.9049369
oxide 2.1913245 0.14083059 0.0031185811 -0.7141135 -0.603115 -0.1965354 0.5641395 -1.0459449 -0.039839532 -1.3787199 0.6567162 -0.32644132 0.36481908 0.38750422 1.3618001 -1.1606609 -1.429391 0.78661275 0.4116012 0.70172745
pharmacology 1.5735223 0.10429439 0.0075527695 -0.51930803 -0.43773162 -0.14165378 0.41317976 -0.7459982 -0.030884594 -0.9864015 0.4690428 -0.23771782 0.25199902 0.27074364 0.9643219 -0.82243985 -1.0122662 0.5681495 0.2998969 0.50309974
Comparison 1.4963439 0.094838984 -0.002292217 -0.48760077 -0.41363135 -0.14054564 0.38704854 -0.7057035 -0.026589137 -0.9444509 0.43866408 -0.21858373 0.2379037 0.2677765 0.91421235 -0.78684837 -0.9594027 0.5312446 0.2753643 0.47632965
recombinant 1.9042315 0.12829064 -0.001973416 -0.6236451 -0.5199261 -0.17572038 0.4957856 -0.9073019 -0.0338078 -1.2009685 0.5640159 -0.2727016 0.31053057 0.33004332 1.1730088 -0.98561233 -1.2230006 0.68270814 0.35468027 0.600355
Molecular 1.8885951 0.12537263 -0.0003202825 -0.6073819 -0.50570947 -0.16104826 0.4855862 -0.89012885 -0.036804777 -1.1814162 0.54903364 -0.28023818 0.2957806 0.32863706 1.1490775 -0.9781165 -1.2020524 0.67940795 0.34556094 0.59875184
domain 2.2567348 0.16058724 0.006860268 -0.73317164 -0.61486554 -0.21091504 0.58208543 -1.0702307 -0.036835756 -1.4164332 0.666549 -0.33024627 0.3631392 0.40376753 1.3866305 -1.1709999 -1.4470073 0.8130116 0.4100883 0.7110562
agonists 2.3274035 0.15443058 -0.00499626 -0.76675534 -0.6360145 -0.2115944 0.60004777 -1.1089728 -0.035702318 -1.4683341 0.6856006 -0.34521964 0.37474057 0.40749532 1.4240707 -1.2151816 -1.4907178 0.82555956 0.4385862 0.73685634
norepinephrine 1.8537906 0.12694821 -0.0052426322 -0.6003003 -0.5041941 -0.17490287 0.48342124 -0.88915235 -0.025957309 -1.1678748 0.5509731 -0.2825653 0.30688965 0.32894415 1.1370124 -0.9691904 -1.1893936 0.66445017 0.3450399 0.58755046
Human 1.8848624 0.1242685 -0.00028385423 -0.6163428 -0.5108218 -0.17368978 0.48408383 -0.88979554 -0.04111127 -1.2060046 0.57638323 -0.28673556 0.31927338 0.33656624 1.1807306 -0.9806013 -1.2175034 0.681121 0.35549912 0.59912133
antioxidant 2.6532035 0.17682937 -0.0027670478 -0.8567262 -0.7393855 -0.23814526 0.681397 -1.2610437 -0.0531161 -1.6661884 0.79675674 -0.39965984 0.42047182 0.45657578 1.6177481 -1.3829869 -1.7058594 0.9465652 0.48931733 0.8405565
inhibit 3.9585137 0.26360774 0.00024080179 -1.2909269 -1.0899689 -0.36048007 1.0153496 -1.8859369 -0.071540646 -2.49473 1.1814767 -0.59456027 0.6287931 0.6815965 2.4074192 -2.0591834 -2.5490546 1.4142447 0.7270099 1.2509047
analogues 2.0206788 0.14755 -0.0038456407 -0.6560281 -0.5484175 -0.1917256 0.5115627 -0.95678586 -0.036196314 -1.2645603 0.5906092 -0.29732293 0.32369223 0.35222867 1.2381326 -1.0382963 -1.2873465 0.7166972 0.38316855 0.6359239
neurons 1.8685029 0.1212933 -0.00427445 -0.6013832 -0.5113417 -0.16853593 0.4958341 -0.888145 -0.03936145 -1.1768833 0.5659052 -0.2681996 0.3028985 0.32496077 1.149302 -0.9796253 -1.1992487 0.67532367 0.34625015 0.5831607
acetylcholinesterase 2.1840742 0.15212288 -0.0025687607 -0.71484333 -0.5872623 -0.21001498 0.567992 -1.0376167 -0.037050102 -1.3693095 0.6507521 -0.31898507 0.34717643 0.3843661 1.3362969 -1.1353811 -1.3970366 0.78365743 0.40891182 0.68857175
bone 2.7613635 0.18802552 -0.0027595668 -0.8919354 -0.745381 -0.25073653 0.70308137 -1.3039094 -0.0635263 -1.7251159 0.817059 -0.39607632 0.42943725 0.48381063 1.6855018 -1.4450629 -1.778067 1.0036498 0.48684567 0.8788422
formation 5.1998434 0.3438318 0.012081367 -1.7124141 -1.4485118 -0.46776292 1.3397931 -2.4774702 -0.09009235 -3.2750027 1.5600805 -0.7677487 0.80106175 0.9043568 3.1826053 -2.7125 -3.3296115 1.8615861 0.947716 1.6327568
Evaluation 3.9594047 0.25656018 0.01425961 -1.3066312 -1.1001335 -0.34704024 1.0254908 -1.8881563 -0.065250374 -2.5007591 1.1831188 -0.59116304 0.6160615 0.6897811 2.4167533 -2.0726619 -2.5368762 1.4283757 0.7200919 1.2532951
nitric 2.1539533 0.1500559 -0.010461003 -0.6797868 -0.6002259 -0.21046397 0.5491726 -1.0172462 -0.047156133 -1.3427757 0.64068365 -0.3037124 0.34039402 0.3752076 1.2929244 -1.1207056 -1.3719231 0.7615061 0.40173414 0.66986346
suppression 3.361253 0.22056188 0.005032719 -1.1214907 -0.92730975 -0.30355707 0.8688596 -1.5982206 -0.06551874 -2.132134 1.0053556 -0.5038288 0.5245161 0.58789665 2.0575569 -1.7733887 -2.1693683 1.2094332 0.616692 1.0600911
serum 1.0977467 0.071743 -0.00050393865 -0.35684597 -0.3107624 -0.09272198 0.27669975 -0.51226014 -0.023332924 -0.6921753 0.32557946 -0.16129105 0.19093563 0.20394091 0.6721228 -0.577881 -0.71497244 0.39649764 0.19384256 0.35154298
humans 2.0243127 0.13655345 0.0047282255 -0.6590673 -0.5566418 -0.19083557 0.5209342 -0.9583424 -0.037361354 -1.2761217 0.6155966 -0.30751762 0.32919666 0.36787814 1.2372984 -1.0487179 -1.300671 0.7404375 0.3872532 0.63709277
-- 0.51958454 0.04068205 0.00054714666 -0.19386777 -0.14444669 -0.022485163 0.1202597 -0.24023694 -0.020422561 -0.3405623 0.13897875 -0.06462131 0.12047532 0.103842 0.30375564 -0.26653105 -0.34918863 0.18834579 0.10841948 0.15210038
enzyme 1.3139647 0.087596655 -0.001939669 -0.42237628 -0.36568448 -0.11297861 0.34722444 -0.6271613 -0.027159892 -0.8239847 0.39627877 -0.20036185 0.20366554 0.23894255 0.7936689 -0.6884861 -0.8475905 0.47023597 0.24177666 0.42929444
into 2.6225982 0.18570462 -0.0056077302 -0.86042875 -0.7217885 -0.23776196 0.6758227 -1.2465578 -0.05693479 -1.6607026 0.7929462 -0.4058752 0.42123854 0.44501206 1.6126813 -1.3609589 -1.6888611 0.947991 0.47261178 0.8371035
induction 5.5703897 0.37101635 0.008520941 -1.8326948 -1.5441388 -0.50113523 1.4436022 -2.6522267 -0.099683695 -3.510519 1.6692883 -0.8286475 0.8818827 0.9723337 3.4132047 -2.923839 -3.5756526 2.0041685 1.0129464 1.755038
death 1.4904888 0.09370715 0.016322734 -0.49394113 -0.4106235 -0.12997408 0.37532187 -0.71543986 -0.031156434 -0.92112726 0.43165174 -0.21830472 0.23824415 0.2626232 0.9133737 -0.77699316 -0.95534444 0.5382999 0.2805784 0.46267074
pathways 1.5110551 0.095634684 0.006773316 -0.49737498 -0.41397488 -0.1378671 0.4025965 -0.7204448 -0.032156743 -0.9576544 0.45417923 -0.23482765 0.23970687 0.26133963 0.9271949 -0.7983835 -0.9831468 0.5546893 0.27900788 0.47554755
two 0.49947318 0.042231675 -0.01051603 -0.1551803 -0.13369015 -0.032508675 0.12262017 -0.24962187 -0.0088965325 -0.3067084 0.14080158 -0.07633169 0.082708366 0.08466501 0.30518517 -0.25944322 -0.33595106 0.17006002 0.08667799 0.15404794
3 0.41816595 0.039109457 0.018213004 -0.1233119 -0.12592894 -0.01457076 0.11601345 -0.21584916 -0.009578324 -0.20632847 0.11496182 -0.08523316 0.03647586 0.027982138 0.2307541 -0.17284012 -0.23559658 0.16230232 0.046978064 0.13308081
compounds 1.3694785 0.09507141 -0.0012686923 -0.45041355 -0.36819834 -0.121687524 0.35487667 -0.6451611 -0.03009404 -0.853979 0.4005778 -0.1984205 0.21663575 0.23955388 0.83334905 -0.7014149 -0.8604246 0.48100725 0.25411215 0.43407455
prostate 3.0264478 0.2151703 0.011570138 -0.9943364 -0.821552 -0.27919677 0.79127324 -1.438469 -0.062248833 -1.907632 0.9122073 -0.4537624 0.49378926 0.52774 1.8569192 -1.57851 -1.9416701 1.0988898 0.55209696 0.9610324
Differential 2.3565774 0.1543223 -0.00045042398 -0.7704731 -0.6307606 -0.21560283 0.617649 -1.1093912 -0.0416765 -1.47305 0.6998968 -0.34623912 0.36980736 0.41921198 1.4358425 -1.2299366 -1.5062994 0.85209584 0.42893508 0.7409406
modulates 3.4759295 0.23587699 -0.0003879813 -1.1380088 -0.9554108 -0.31290385 0.8921268 -1.6402485 -0.06827208 -2.1776226 1.043701 -0.5189513 0.553846 0.6081865 2.12073 -1.8101773 -2.2425401 1.2458836 0.63974005 1.090597
therapeutic 2.2783916 0.157043 0.004219022 -0.752147 -0.61339283 -0.20015097 0.5884609 -1.0817903 -0.036337417 -1.4291794 0.68549174 -0.33467028 0.36086592 0.39572206 1.3967242 -1.1999452 -1.4653661 0.8189437 0.4264028 0.7239865
suppresses 2.4525328 0.17365928 -0.002462751 -0.8129748 -0.6704577 -0.23231103 0.63209647 -1.159055 -0.047456168 -1.5557122 0.74240917 -0.37083176 0.3814592 0.4354628 1.5079732 -1.2931113 -1.5884482 0.885738 0.4518258 0.7740188
healthy 0.8966119 0.062604226 0.004568881 -0.29002976 -0.23621395 -0.07688462 0.22566107 -0.41493967 -0.026684642 -0.5647727 0.26057604 -0.14227755 0.13874407 0.15467675 0.54914075 -0.46814844 -0.5712966 0.32611448 0.1763168 0.27572623
cortex 1.3758402 0.08398999 0.004534829 -0.44208124 -0.38080418 -0.11503276 0.35625938 -0.64466953 -0.030100103 -0.85528815 0.4125499 -0.20420551 0.2218267 0.24036752 0.8322172 -0.71814936 -0.8647421 0.47668657 0.25501278 0.4317867
implications 3.0411332 0.20222996 0.011141865 -0.99479586 -0.8420697 -0.27091816 0.78641164 -1.4381742 -0.04887063 -1.9231415 0.91312814 -0.45501307 0.47681415 0.5291625 1.8485737 -1.5972122 -1.9476877 1.0906405 0.5667428 0.9565697
increase 3.252533 0.2273799 -0.0038278264 -1.0636796 -0.86897135 -0.31209338 0.8421178 -1.5524507 -0.07426185 -2.038384 0.9692072 -0.47980726 0.5088477 0.56954867 1.9895462 -1.6885911 -2.0882566 1.1665826 0.6157721 1.0247298
mRNA 0.6807441 0.043816123 -0.0050910506 -0.23371705 -0.17291164 -0.061719034 0.176414 -0.31405577 -0.015388329 -0.4179208 0.2044089 -0.11141665 0.104835935 0.11567855 0.4186425 -0.35181254 -0.4308162 0.23883392 0.13442446 0.21685104
vascular 1.8565094 0.11508196 0.0077920128 -0.59843814 -0.50797987 -0.17068164 0.47966027 -0.87797666 -0.03818852 -1.1592634 0.54240674 -0.27618343 0.293888 0.32701996 1.1395422 -0.9678392 -1.184607 0.65803367 0.3427216 0.5894113
active 5.0895677 0.33883205 0.008800196 -1.6552705 -1.400431 -0.4642741 1.3271679 -2.408112 -0.0962963 -3.1938922 1.538544 -0.7541647 0.80611265 0.889953 3.1005867 -2.645641 -3.2574112 1.8174353 0.9514257 1.6164447
risk 0.5797117 0.044313453 -0.006495848 -0.18833585 -0.16177583 -0.04651065 0.15149003 -0.27834728 -0.014204086 -0.3637768 0.16237395 -0.07944235 0.09783576 0.11820082 0.3535982 -0.29359543 -0.36234373 0.20888825 0.10209059 0.18525104
cardiac 1.3236797 0.08475877 0.006012432 -0.42618316 -0.35678282 -0.11495812 0.33997902 -0.6263528 -0.02180701 -0.81442136 0.39945742 -0.19771728 0.21581508 0.2444068 0.79673743 -0.69544476 -0.84852684 0.46592256 0.23925406 0.40320206
cytochrome 1.4744292 0.098603845 -0.0053556613 -0.48098275 -0.3964931 -0.13706979 0.38059077 -0.7051311 -0.034377728 -0.9237897 0.45018914 -0.21880469 0.24166252 0.2674899 0.89818543 -0.7669153 -0.94494474 0.5295142 0.2733532 0.471284
weight 0.7585112 0.06275374 0.005252327 -0.24429063 -0.19801737 -0.07007485 0.20496151 -0.36885232 -0.00535931 -0.4717763 0.23820975 -0.113695785 0.124960884 0.12962654 0.47809115 -0.39827105 -0.48935312 0.27347368 0.14925669 0.24732545
peptide 2.083 0.1466201 0.0052523417 -0.68704134 -0.57831293 -0.19038539 0.5425095 -0.9799455 -0.032660205 -1.3013325 0.6229557 -0.3161621 0.32410783 0.3570826 1.2735678 -1.0850908 -1.3438282 0.7504211 0.39182323 0.66681206
cycle 1.639685 0.118615516 -0.002478672 -0.54761565 -0.4527863 -0.14283405 0.43628234 -0.7765552 -0.020787707 -1.0311903 0.5034726 -0.24134013 0.25884473 0.299192 1.004174 -0.84545505 -1.0520481 0.57811654 0.3141737 0.51142913
differentiation 3.812799 0.25142676 0.009190313 -1.2556772 -1.0451256 -0.3411902 0.9888281 -1.8111222 -0.0741153 -2.4010904 1.1428443 -0.5719404 0.59154344 0.66729665 2.3234103 -1.9972254 -2.4399953 1.3683064 0.69642836 1.1979864
4 0.294703 0.003109558 0.0032440284 -0.08238682 -0.05730342 -0.013621561 0.07964263 -0.1366395 0.012802341 -0.17319155 0.10337472 -0.06689557 0.020320863 0.05340378 0.21555221 -0.18385026 -0.21265367 0.1316942 0.05667149 0.06745773
transport 2.573921 0.17118488 0.00026614062 -0.8438732 -0.69956887 -0.24389416 0.6697582 -1.2224468 -0.04643512 -1.6216482 0.7769453 -0.37974447 0.40894178 0.45708743 1.5708163 -1.3410232 -1.6673694 0.9312691 0.48497814 0.8186786
specific 1.858703 0.13448727 0.008800609 -0.6077472 -0.5104602 -0.16944866 0.4817147 -0.8824467 -0.032813974 -1.1692559 0.56169474 -0.28288847 0.30558637 0.33593723 1.1301057 -0.9838456 -1.1961362 0.6669298 0.33822826 0.5840738
diabetic 2.764701 0.1898647 0.001842124 -0.89763284 -0.75608665 -0.2655242 0.7126473 -1.3181001 -0.043589264 -1.7298653 0.83461267 -0.4148573 0.44177982 0.4931221 1.6828547 -1.4422537 -1.7715987 0.9794286 0.51988065 0.8755736
agent 3.6588435 0.23038572 0.00042149398 -1.1940092 -0.9982087 -0.3318771 0.94004285 -1.748148 -0.07002847 -2.2939389 1.1067905 -0.5525772 0.5773074 0.6394119 2.244635 -1.9060818 -2.3460147 1.3016258 0.6996518 1.1693904
Discovery 1.0957711 0.07708417 0.0020524631 -0.3507127 -0.29276243 -0.09816615 0.28589272 -0.51193404 -0.009619269 -0.6937847 0.32826138 -0.15212654 0.16521427 0.19622754 0.67032635 -0.5749421 -0.69889987 0.39070287 0.20362742 0.3444647
murine 3.147353 0.2169743 0.005446706 -1.0417907 -0.8575441 -0.2785184 0.8256936 -1.4971737 -0.056088924 -1.9929695 0.942341 -0.47576392 0.5126846 0.5457055 1.9235051 -1.639951 -2.0224922 1.1356814 0.5834439 0.98725057
5-HT 0.53909373 0.049975716 0.008763443 -0.1793739 -0.15495263 -0.0669012 0.14990167 -0.25638783 -0.0045127184 -0.33495018 0.16339825 -0.0881954 0.09016877 0.09974184 0.32995656 -0.28525096 -0.35274446 0.18972354 0.11408136 0.17394595
surface 1.1115599 0.07573176 0.007589488 -0.36436698 -0.29992774 -0.103265606 0.2945639 -0.5379281 -0.02242723 -0.7116642 0.32544047 -0.16380027 0.18022797 0.19732206 0.6889101 -0.5890946 -0.7340523 0.3848487 0.20601808 0.35869405
D 0.19297542 0.0068919687 0.036484253 -0.060895123 -0.03199888 -0.014304796 0.06269378 -0.07851593 -0.01722005 -0.12947498 0.07956746 -0.03879832 0.03137389 0.030578263 0.15319104 -0.13253018 -0.12911324 0.071602665 0.018244699 0.037168663
synthetase 2.7417839 0.18520708 0.0037000992 -0.9035841 -0.74009585 -0.25075874 0.7066411 -1.3089508 -0.05408568 -1.7298752 0.8161468 -0.3925849 0.4379385 0.48414 1.6861082 -1.4208148 -1.7671877 0.9856087 0.5109795 0.86258703
sites 2.9408402 0.20469661 0.0101396935 -0.97464556 -0.7964861 -0.2719789 0.7584774 -1.3913028 -0.053550053 -1.8502986 0.8793354 -0.4333203 0.48704508 0.5194137 1.788039 -1.5321487 -1.8921098 1.0635468 0.5406845 0.92588043
Selective 3.0973885 0.21020767 0.011613173 -1.0125152 -0.8499434 -0.28242669 0.80534804 -1.4726486 -0.054955795 -1.955288 0.93389153 -0.46039078 0.49616066 0.5350403 1.8885306 -1.6117603 -1.9822501 1.1040647 0.58253753 0.9833463
regulatory 2.710987 0.19007297 0.001603481 -0.8920762 -0.7499013 -0.247475 0.69995594 -1.284549 -0.051731713 -1.7123985 0.8183646 -0.40773436 0.43791786 0.4760696 1.6686997 -1.4070735 -1.7505487 0.9804452 0.50563294 0.8535756
heart 1.0382826 0.06966089 0.0012153689 -0.326824 -0.27866465 -0.09766228 0.25679785 -0.4867373 -0.02279363 -0.6248608 0.30622372 -0.14705536 0.16776644 0.18216321 0.6114475 -0.5332244 -0.64843285 0.3751939 0.18854904 0.31939963
reductase 2.6653981 0.17654145 0.005152612 -0.8663564 -0.7217894 -0.24255215 0.6913121 -1.2728274 -0.06088153 -1.6763958 0.7946948 -0.3948521 0.4293992 0.46606407 1.6396782 -1.3945976 -1.7093748 0.9615923 0.49670574 0.83958054
improves 2.0886128 0.14810143 -0.0013285587 -0.67754453 -0.56452656 -0.19340856 0.5404516 -0.98354065 -0.033372283 -1.3043604 0.6157374 -0.30691668 0.32717207 0.3682333 1.2800074 -1.0823755 -1.3489963 0.7511131 0.38869956 0.6569884
regulates 3.8558557 0.27195644 0.0063271197 -1.2704026 -1.0578315 -0.34918252 1.000703 -1.8275194 -0.07052637 -2.4237473 1.1586283 -0.58080894 0.62203664 0.67664796 2.3609574 -2.0086002 -2.4832811 1.3914058 0.7191626 1.2082515
cholesterol 2.1127467 0.14188196 0.0040533096 -0.68333775 -0.5653588 -0.1911527 0.545037 -0.9925595 -0.037654 -1.3075888 0.62971944 -0.30713874 0.3311511 0.36491725 1.282157 -1.081182 -1.3429581 0.75572795 0.4014794 0.6675332
dehydrogenase 2.491797 0.17040366 0.0017964379 -0.8154871 -0.6733068 -0.22840124 0.6449677 -1.1827043 -0.055951346 -1.5608962 0.747446 -0.36913544 0.3990519 0.44181687 1.5246981 -1.2964865 -1.5909814 0.89419013 0.46395978 0.78164583
Role 1.3697225 0.09380556 -0.002568373 -0.45278957 -0.351419 -0.11113617 0.3568838 -0.6400703 -0.010979999 -0.85101295 0.41076586 -0.21104002 0.21328902 0.23783636 0.84003824 -0.7175001 -0.88667035 0.4906929 0.25008246 0.44356832
lipid 1.0140755 0.06968449 -0.0020584664 -0.32365912 -0.2593656 -0.0955156 0.2623011 -0.4688039 -0.025964255 -0.63186127 0.29303443 -0.1519817 0.15795225 0.16877007 0.5962732 -0.5197711 -0.6453017 0.3495924 0.1886668 0.30209002
fatty 1.0990936 0.08204064 -0.0030562358 -0.34677175 -0.31425375 -0.09764207 0.29454657 -0.5162632 -0.021156015 -0.6836511 0.3252714 -0.16143407 0.16389278 0.2017812 0.67845535 -0.56343895 -0.7012805 0.40926552 0.21444151 0.34062988
carcinoma 1.4144957 0.09113808 0.002711385 -0.4611799 -0.39030203 -0.13961294 0.3691421 -0.6710168 -0.017362943 -0.8899231 0.42234647 -0.21068351 0.22646567 0.25627992 0.85677207 -0.7423653 -0.90034527 0.50510067 0.25584006 0.4474305
anticancer 3.0741138 0.20736338 0.0001640687 -1.0038081 -0.8476192 -0.29365686 0.79147696 -1.4557197 -0.049875945 -1.9341526 0.91711414 -0.45704845 0.49788207 0.5404968 1.8872757 -1.6072661 -1.9669542 1.1021345 0.5787348 0.9795555
T 0.3015831 0.009495188 0.035491824 -0.13086084 -0.059357204 -0.04449685 0.07618751 -0.1478655 0.00012609884 -0.21410131 0.060378373 -0.050959915 0.074157365 0.0707108 0.19231993 -0.16224381 -0.2362098 0.114958785 0.06446952 0.11685275
Receptor 3.4320517 0.2241765 0.009479345 -1.1223208 -0.9397288 -0.30147743 0.8874972 -1.6278145 -0.07361317 -2.1549382 1.0204177 -0.5300438 0.54451364 0.6069695 2.1020644 -1.7821953 -2.1916642 1.2351366 0.6337695 1.0787474
dysfunction 3.2807045 0.20647286 0.005417882 -1.0851818 -0.9111519 -0.29622003 0.8472241 -1.5518397 -0.06056703 -2.0681062 0.9851312 -0.49406004 0.51415473 0.57804936 2.0021987 -1.7239667 -2.094933 1.1826924 0.6001257 1.0300266
phosphorylation 3.4620197 0.22038053 0.007851642 -1.13048 -0.95957595 -0.31566268 0.8959905 -1.6360022 -0.06076045 -2.1766627 1.0383221 -0.51162815 0.53525716 0.59680647 2.1162527 -1.8107858 -2.2134945 1.2340876 0.6303655 1.0901648
proliferation 4.165796 0.2746574 0.0050691804 -1.369274 -1.1484926 -0.375759 1.0768797 -1.9775001 -0.07830233 -2.6231978 1.2492566 -0.62441486 0.6512108 0.7293572 2.5477324 -2.1688478 -2.6649904 1.4946259 0.75942504 1.3127615
glucose 1.8439991 0.12447709 -0.006062748 -0.59798896 -0.5079119 -0.15919082 0.47078654 -0.88097894 -0.047126796 -1.1614376 0.5522904 -0.27142206 0.28852725 0.31600627 1.1222141 -0.9676821 -1.1788507 0.68227226 0.3490053 0.5761285
neuronal 2.4765244 0.16419563 -0.0026709856 -0.79889226 -0.6702544 -0.22879998 0.6435816 -1.1696881 -0.049891498 -1.5503205 0.7436267 -0.35797304 0.38885677 0.433095 1.505295 -1.2925804 -1.5947042 0.889851 0.45889413 0.78326535
increases 3.0310152 0.21275958 -0.003600731 -0.9932291 -0.80795926 -0.2896204 0.7866101 -1.4466187 -0.06968938 -1.9018201 0.90597886 -0.45305246 0.4751257 0.5352746 1.8562622 -1.57983 -1.9448526 1.087943 0.5652707 0.95675546
Design 0.848547 0.058180496 0.0056459527 -0.27672914 -0.23324445 -0.07802781 0.23237081 -0.39399981 -0.010571301 -0.53535855 0.24947734 -0.12115612 0.13495225 0.14913559 0.5267742 -0.43562528 -0.52416825 0.30675757 0.1535501 0.26451662
site 1.7733384 0.12194534 0.012417487 -0.58257794 -0.4708502 -0.1629064 0.45833445 -0.83399194 -0.024111193 -1.1235465 0.5305484 -0.24328136 0.29281527 0.3037872 1.0877631 -0.92100245 -1.1399977 0.63034064 0.3292661 0.537893
Binding 3.4742348 0.23553884 -0.0011662027 -1.1308078 -0.94336814 -0.30778828 0.9046296 -1.6541198 -0.067009665 -2.1905222 1.0491041 -0.520704 0.5615807 0.6154076 2.124812 -1.8090918 -2.2255716 1.2423939 0.6573201 1.0956545
subjects 1.7752992 0.12485318 -0.0009260484 -0.58495414 -0.48891127 -0.16583088 0.46393296 -0.85380846 -0.04508086 -1.1241632 0.54001623 -0.2626703 0.28004286 0.30405122 1.0789521 -0.92928416 -1.1582444 0.6306779 0.32852572 0.55659723
tissue 0.53061044 0.03379286 0.0074703717 -0.16987526 -0.1456052 -0.05520295 0.13677742 -0.24904417 -0.020445475 -0.3461358 0.17102437 -0.08328346 0.08347369 0.098377965 0.32377902 -0.27974102 -0.32535475 0.19012384 0.09343561 0.16876213
An 0.62879986 0.04272386 -0.0109140305 -0.21380994 -0.19095519 -0.07983986 0.16412199 -0.31213003 -0.0037606638 -0.40804532 0.20003717 -0.10308268 0.110669866 0.12636738 0.39365304 -0.34249836 -0.4010231 0.23759031 0.12883136 0.18675585
D2 0.19263592 0.00089492975 0.0010842395 -0.058448978 -0.029273687 -0.015245157 0.054115884 -0.09409011 -0.0035232962 -0.12752065 0.0722742 -0.040037334 0.028281305 0.051720288 0.1233816 -0.09424701 -0.12329838 0.05682399 0.05436712 0.07127194
Protective 3.080899 0.2053368 0.010785034 -0.9921912 -0.8399274 -0.28413025 0.8072922 -1.4642489 -0.06127709 -1.9418259 0.9291654 -0.45371017 0.49442837 0.5361211 1.8724142 -1.6029739 -1.975643 1.1063839 0.5773271 0.977395
P450 0.49398234 0.036196414 0.004297169 -0.14912967 -0.13092145 -0.029782087 0.12685461 -0.2269857 -0.016107816 -0.30204552 0.12749158 -0.08347806 0.0723399 0.090479404 0.291036 -0.24600083 -0.30705324 0.17789875 0.07076504 0.14809181
Alzheimer 0.8121052 0.046190113 -0.0022481887 -0.26229355 -0.21895945 -0.090057656 0.20817153 -0.38323754 -0.015466438 -0.5017845 0.24657418 -0.10993883 0.13984896 0.13747394 0.4957523 -0.41774026 -0.517855 0.2930023 0.16052559 0.26165435
identification 3.9013815 0.2579065 0.009733284 -1.2782357 -1.0773076 -0.3473458 1.0042934 -1.8525375 -0.07038154 -2.4580193 1.1636051 -0.5799774 0.6008611 0.67505556 2.3703454 -2.0437906 -2.4923368 1.3851582 0.7199073 1.2366633
polymorphisms 1.3231332 0.09311171 -0.00032710616 -0.4230884 -0.3575183 -0.11394896 0.33910352 -0.62150735 -0.02924561 -0.8231136 0.38779774 -0.1888095 0.21140738 0.23373543 0.80668575 -0.68443227 -0.8426658 0.47522548 0.24239591 0.42334884
inflammation 4.1416855 0.26947066 0.015176787 -1.3649505 -1.1495911 -0.37750718 1.0712129 -1.9660133 -0.07533053 -2.6062086 1.2409916 -0.61987084 0.65042084 0.7273205 2.5235848 -2.1574724 -2.6562407 1.4788231 0.75393915 1.289886
targets 1.5356641 0.093368344 0.0046772007 -0.49883378 -0.41588774 -0.13735966 0.38862398 -0.7369467 -0.017625945 -0.96036446 0.45713827 -0.22614944 0.24422327 0.27361193 0.9355719 -0.7855363 -0.9788017 0.5397673 0.28059262 0.47272626
polymorphism 1.4171085 0.09795707 -0.0027356264 -0.4558864 -0.3814294 -0.12062924 0.36623144 -0.664383 -0.031184763 -0.8842728 0.4132084 -0.20253623 0.22660752 0.24980858 0.8618871 -0.7331943 -0.9025563 0.5068964 0.25859445 0.45178357
E 0.36518085 -0.015004633 -0.030621884 -0.13623925 -0.10757557 -0.050593987 0.08776976 -0.17904805 -0.015687643 -0.20758285 0.13658679 -0.052885503 0.029567057 0.021908674 0.2626155 -0.2095196 -0.20857333 0.102835916 0.112654835 0.14109413
prostaglandin 2.0492485 0.14137883 0.00019285911 -0.6689184 -0.55662805 -0.18331179 0.52917004 -0.9770277 -0.036160268 -1.2894418 0.610461 -0.30659544 0.33468655 0.36531472 1.2547706 -1.0707949 -1.3170075 0.7374079 0.38089958 0.64667994
treated 4.0755982 0.27037945 0.020918021 -1.3266612 -1.1125029 -0.37071368 1.0589012 -1.93339 -0.085318275 -2.5683675 1.2154235 -0.61507696 0.65349054 0.7194843 2.494124 -2.12836 -2.6272645 1.4576057 0.7638653 1.2862309
Type 1.1045018 0.06194166 -0.008124253 -0.36246833 -0.2990823 -0.10486336 0.3019326 -0.5091091 -0.022974141 -0.6771024 0.3285373 -0.16260093 0.15755849 0.1902865 0.6804232 -0.5770323 -0.70602167 0.4017045 0.17940922 0.32930905
mutations 3.8990214 0.2545005 0.020385686 -1.283574 -1.0703794 -0.3418092 1.0091047 -1.8497403 -0.07452021 -2.4604802 1.162409 -0.5833218 0.6080936 0.67825437 2.3773735 -2.0438848 -2.4868848 1.3920038 0.7167941 1.2232534
affinity 1.5290908 0.09758871 0.0029356214 -0.4928087 -0.4190268 -0.14039674 0.3933901 -0.732381 -0.02753722 -0.96368563 0.45610195 -0.2219885 0.25037906 0.27380228 0.9430465 -0.7994176 -0.99226826 0.54896647 0.28851178 0.47465473
design 1.3374637 0.0937705 0.00394424 -0.43822128 -0.3571117 -0.117972724 0.341583 -0.62200296 -0.023360291 -0.8344107 0.40241498 -0.18757515 0.20819138 0.2411349 0.81478125 -0.688039 -0.85297304 0.4835446 0.24643512 0.42141432
genetic 3.298176 0.21803512 -0.001204133 -1.0792437 -0.89340055 -0.30102614 0.85418546 -1.5688442 -0.056177706 -2.0736022 0.98896307 -0.49053544 0.51711637 0.58249164 2.0153975 -1.7284558 -2.1076586 1.1807882 0.62394637 1.0486392
based 3.5575528 0.23083608 6.6930006e-05 -1.1514534 -0.9716148 -0.31935003 0.9206034 -1.6724925 -0.078904904 -2.2337155 1.0625387 -0.53964865 0.56538486 0.6360401 2.1829305 -1.8439506 -2.268926 1.2670875 0.6675351 1.1304044
extract 2.0654545 0.13748178 0.0028072263 -0.6760962 -0.5596031 -0.19248514 0.5378236 -0.9755342 -0.03962534 -1.3054154 0.6198372 -0.30796963 0.32546505 0.36767992 1.2756991 -1.0749598 -1.341526 0.7484295 0.38575763 0.6516576
low 0.8585614 0.06431685 0.007295812 -0.3086742 -0.21704797 -0.07226562 0.23670395 -0.40536994 -0.023053717 -0.57261956 0.26798633 -0.104477234 0.13689627 0.16409132 0.53329664 -0.4736707 -0.5637073 0.322289 0.16560969 0.26187444
transporters 2.6532917 0.18128715 0.0024312467 -0.8670549 -0.7276143 -0.24307427 0.69042265 -1.2611274 -0.046158917 -1.6661754 0.7969388 -0.38907105 0.42075747 0.4706248 1.6256855 -1.3859353 -1.7175856 0.9579168 0.4985954 0.8486855
different 2.5094392 0.1692289 -0.0067109154 -0.81770337 -0.6769832 -0.22306548 0.6571825 -1.1854175 -0.054288764 -1.5697271 0.75544614 -0.3727124 0.39177507 0.44207674 1.5320672 -1.3022828 -1.604914 0.8970129 0.46038935 0.78524977
cyclooxygenase-2 1.3918897 0.09481944 -0.0022797743 -0.45486805 -0.372211 -0.12056221 0.3658386 -0.66397846 -0.028100466 -0.87054235 0.40928137 -0.20395853 0.2154084 0.24595033 0.8482474 -0.72249264 -0.88553554 0.502086 0.26186812 0.43831202
review 1.0831401 0.07427897 0.010778112 -0.36288476 -0.29356432 -0.1043365 0.28709486 -0.5309918 -0.012030009 -0.6858834 0.32785454 -0.15763979 0.17078826 0.19374827 0.68147033 -0.56979626 -0.6999907 0.37965173 0.20859605 0.3517302
extracellular 1.9242828 0.13273148 0.0014016326 -0.61927485 -0.52538085 -0.18623614 0.501646 -0.9162882 -0.035546586 -1.2179164 0.5779548 -0.2931111 0.3091776 0.34534386 1.1987326 -1.0111339 -1.2449133 0.7026098 0.35950774 0.61557204
accumulation 4.0032754 0.2620033 0.0017204377 -1.3184388 -1.1133386 -0.363881 1.0330434 -1.901851 -0.07827576 -2.5327327 1.2069013 -0.59877795 0.61328053 0.69155616 2.4457726 -2.0974271 -2.571527 1.4384985 0.7332738 1.2554225
mitochondrial 1.5006777 0.09581164 -0.0015102773 -0.481905 -0.41173115 -0.14196526 0.38823298 -0.7077144 -0.032703087 -0.92997557 0.445877 -0.21742669 0.2407215 0.2605947 0.91716206 -0.76965934 -0.9645796 0.5288162 0.28097472 0.47340876
membrane 1.8024344 0.13198204 -0.0017138821 -0.5994952 -0.4935936 -0.1706991 0.46083072 -0.86130387 -0.032919448 -1.1386762 0.53544664 -0.27081525 0.29026875 0.32191098 1.1026726 -0.9415028 -1.157778 0.6479847 0.33536413 0.5733782
peripheral 1.8239728 0.126606 -0.0031342464 -0.5977368 -0.49718127 -0.16520949 0.47252163 -0.863307 -0.030746447 -1.1413274 0.53852797 -0.27598524 0.2845934 0.31970352 1.1121621 -0.94460154 -1.1721821 0.6616741 0.3428033 0.5742604
experimental 2.2683098 0.15309598 -0.002164077 -0.73480237 -0.61324525 -0.2139612 0.58758533 -1.0840985 -0.043074485 -1.4164343 0.67414325 -0.32514352 0.36306617 0.39671814 1.3746259 -1.1837504 -1.4543864 0.8212976 0.42111832 0.7142434
anhydrase 2.3395507 0.16775246 -0.0023029407 -0.7637935 -0.62121767 -0.2046646 0.6117601 -1.1117994 -0.055358224 -1.4685175 0.693657 -0.3425818 0.37324727 0.41395313 1.433104 -1.2185249 -1.4963368 0.8364608 0.43932456 0.74497
antagonism 2.51182 0.17478314 -0.004425337 -0.81784993 -0.69479454 -0.2317597 0.64577544 -1.2008718 -0.038747 -1.579561 0.7448198 -0.37439546 0.3992481 0.4407445 1.5257977 -1.31078 -1.6046662 0.90009105 0.46587518 0.792181
sensitivity 2.5627258 0.17513326 -0.00042317645 -0.83507156 -0.706227 -0.23185048 0.66400063 -1.2170079 -0.044742372 -1.6080954 0.7738205 -0.38863748 0.41568467 0.4518927 1.5781165 -1.3369913 -1.6414096 0.9155875 0.47799727 0.8041158
pancreatic 2.5002298 0.17389715 0.0014235318 -0.8118679 -0.6848962 -0.24021824 0.63855195 -1.1941916 -0.044891633 -1.574699 0.75185674 -0.3678463 0.4018419 0.43663496 1.525567 -1.299991 -1.6026057 0.9077153 0.46721283 0.79026
mediates 3.5426111 0.23618634 0.0077528474 -1.1596715 -0.9616988 -0.3259863 0.92172474 -1.6804534 -0.06896604 -2.219262 1.0526552 -0.5296449 0.57858014 0.63003767 2.157424 -1.846817 -2.2776139 1.2749777 0.6604942 1.1072204
metabolites 2.4489615 0.16387388 -0.004131865 -0.7997883 -0.6610457 -0.22062394 0.635102 -1.1564118 -0.04508793 -1.5343652 0.7277975 -0.36236498 0.3974221 0.43121767 1.4893566 -1.2767673 -1.5696365 0.8851784 0.45386246 0.7746184
other 2.0717525 0.14541712 0.003761466 -0.6767922 -0.5797062 -0.18149115 0.542588 -0.98465645 -0.0348469 -1.292474 0.62446266 -0.3029099 0.32801768 0.36633003 1.265999 -1.0827965 -1.3229682 0.74352556 0.39018884 0.6528028
essential 2.6613963 0.1726225 -0.0021308272 -0.86539817 -0.7273972 -0.23578018 0.6961973 -1.2567956 -0.05456286 -1.6694896 0.80219305 -0.40085608 0.4151642 0.47579068 1.6174141 -1.3884256 -1.7051415 0.9510342 0.4963044 0.83666044
glutathione 2.1045928 0.13597819 0.0053562233 -0.69003284 -0.58167416 -0.19080101 0.54623836 -1.0063169 -0.037301198 -1.3182659 0.6325709 -0.3192676 0.33353186 0.36278707 1.2825928 -1.0943711 -1.3527652 0.7487255 0.3849443 0.66036993
required 1.8227662 0.12923932 -0.0038940206 -0.5945226 -0.49756166 -0.16456556 0.4723921 -0.8680665 -0.03680019 -1.1409045 0.54525644 -0.27407604 0.2916136 0.32082042 1.1039878 -0.9465983 -1.1732929 0.6457104 0.34596035 0.5714913
chemical 2.8791041 0.19969879 -0.0018107303 -0.9431584 -0.77216864 -0.26688516 0.75197613 -1.3633194 -0.06517932 -1.796369 0.8599665 -0.42605898 0.45866686 0.5097414 1.7545935 -1.4814171 -1.8527732 1.0200771 0.54669404 0.90680164
acids 1.7379249 0.11344768 0.017387858 -0.5566178 -0.46994323 -0.16502865 0.4536053 -0.82461494 -0.03394312 -1.0920923 0.5236763 -0.25497225 0.27559605 0.31027633 1.0632954 -0.9096737 -1.1139367 0.6268441 0.3296318 0.5500253
block 1.076503 0.07345724 -0.011117346 -0.34979525 -0.28798896 -0.09849216 0.28207466 -0.5104688 -0.029484153 -0.6703711 0.31241152 -0.15972969 0.1771903 0.1997128 0.65470225 -0.55793464 -0.6880371 0.39259723 0.2002636 0.33040655
Structural 1.6788195 0.12373852 -0.0008259814 -0.5460688 -0.45840088 -0.15542768 0.44439808 -0.7951393 -0.03208455 -1.0519288 0.49357393 -0.25336906 0.25523353 0.28580427 1.0214224 -0.87660605 -1.0650529 0.6069424 0.31093812 0.53412795
structural 2.0259013 0.1433059 -0.00071053015 -0.66167825 -0.5523675 -0.18699765 0.53307503 -0.9539774 -0.030416373 -1.265438 0.60061234 -0.30063626 0.312478 0.34458542 1.2374897 -1.056543 -1.2894144 0.7280316 0.3726973 0.6478361
relationship 3.0810504 0.20545915 0.006433189 -1.0093545 -0.85193163 -0.27802366 0.7857295 -1.4649101 -0.058183365 -1.9400362 0.9274754 -0.46009555 0.47579703 0.5382484 1.8922195 -1.6080824 -1.9746791 1.1043173 0.567644 0.96439266
assessment 2.2498996 0.15385349 -0.004563011 -0.7331124 -0.60943854 -0.20744143 0.57988554 -1.0617771 -0.052425776 -1.4048157 0.67556524 -0.33746117 0.35200152 0.39209387 1.3652688 -1.1609596 -1.4390749 0.7942523 0.40470362 0.7132218
Activation 5.1029773 0.33035186 0.011256959 -1.680708 -1.4213119 -0.45946398 1.3162451 -2.430277 -0.093560964 -3.2243164 1.5287676 -0.7635797 0.78599644 0.89491385 3.1134715 -2.6775692 -3.264549 1.8304352 0.9354999 1.6136214
gastric 2.03697 0.13642004 -0.011392315 -0.65984136 -0.5550152 -0.1950273 0.5257902 -0.96549225 -0.044192765 -1.2794152 0.61046785 -0.2951431 0.32380596 0.35888404 1.244387 -1.0624102 -1.2999843 0.7240837 0.38470396 0.64205503
Cells 1.6125693 0.09956524 -0.007136799 -0.51892376 -0.44117928 -0.15733027 0.43091768 -0.77128303 -0.026450345 -1.0070479 0.49261338 -0.24249412 0.25709245 0.28314966 0.9934797 -0.8577185 -1.0505459 0.58994514 0.3021447 0.51155925
Protein 2.9423172 0.20568836 -0.008807918 -0.95342314 -0.80002004 -0.26355904 0.7692596 -1.4022963 -0.06029212 -1.8435962 0.8800879 -0.44171217 0.4793752 0.51558095 1.7909414 -1.5363584 -1.8926159 1.0604317 0.5492483 0.93327147
phase 3.5411477 0.2320306 -0.0097978255 -1.15425 -0.95832336 -0.314526 0.9111563 -1.6890517 -0.076084144 -2.221949 1.0612341 -0.5174485 0.56141895 0.6234052 2.165673 -1.8426931 -2.2677383 1.27799 0.6518774 1.1075089
cardiovascular 1.4924312 0.097103745 0.0059625437 -0.48209915 -0.4013154 -0.13534726 0.38519087 -0.70673937 -0.031316437 -0.93116343 0.43915635 -0.22375324 0.24343665 0.270308 0.90767103 -0.7741817 -0.9500946 0.5325337 0.2727691 0.4677915
activator 3.6067262 0.24500254 0.011048132 -1.1725088 -0.9878328 -0.33048242 0.93646425 -1.7087128 -0.072554775 -2.2661836 1.0793048 -0.5369889 0.5630604 0.6411259 2.1978924 -1.8698393 -2.3162303 1.2905718 0.6786086 1.1495363
platelet 1.9315948 0.13858798 0.00032074668 -0.6421724 -0.52391773 -0.18155707 0.5114823 -0.9084861 -0.03551705 -1.2111236 0.5727483 -0.28705978 0.30860564 0.34551242 1.1836365 -0.99531394 -1.2519957 0.70098823 0.3582613 0.59951967
angiotensin 1.8241798 0.122681506 -0.006092864 -0.59934723 -0.49611238 -0.16891342 0.47143775 -0.86447144 -0.038383 -1.1408676 0.54332876 -0.26837292 0.29366487 0.3177078 1.1182363 -0.9599046 -1.1709428 0.65737504 0.33376884 0.58255494
profiles 2.4259784 0.16847652 -0.008240947 -0.78987426 -0.66325194 -0.22537813 0.6378922 -1.1625905 -0.062194936 -1.5257329 0.73017627 -0.3690122 0.39159712 0.43495166 1.4886329 -1.2733246 -1.562379 0.87930906 0.44174483 0.7738296
selectivity 3.1071346 0.21734367 0.0046374854 -1.012567 -0.85734344 -0.2879337 0.8092918 -1.4850427 -0.055260763 -1.964693 0.9356511 -0.4636351 0.4942653 0.54227185 1.9078573 -1.6268482 -1.9949229 1.1060039 0.5842564 0.9820629
efficacy 1.1113043 0.07943907 -0.003852335 -0.36036155 -0.30595365 -0.107789695 0.2917794 -0.5259799 -0.016142113 -0.70730346 0.33667907 -0.15894555 0.17906229 0.19996272 0.6721907 -0.58199114 -0.72322536 0.40887704 0.20948847 0.34585154
modeling 3.1343365 0.2113728 0.005817407 -1.0151651 -0.846526 -0.28040627 0.80905414 -1.4799478 -0.056251023 -1.9686966 0.9398107 -0.469587 0.4951573 0.56223214 1.9253638 -1.6289735 -2.0103915 1.131487 0.5745029 0.999051
pharmacokinetics 1.780548 0.1209395 0.0063395994 -0.5865767 -0.48913315 -0.15895656 0.46502984 -0.8442111 -0.03285615 -1.1139843 0.5269861 -0.26978025 0.28978103 0.30632067 1.0892335 -0.93580157 -1.1430182 0.646162 0.33373424 0.5661268
leukotriene 1.2065035 0.073466524 -0.0012851674 -0.39889535 -0.32881588 -0.115444355 0.31598344 -0.5728919 -0.020954918 -0.7505969 0.35235414 -0.18165827 0.19277866 0.22191173 0.73268175 -0.6243389 -0.7695045 0.42394972 0.21698608 0.3791888
COX-2 0.34876359 0.031609055 -0.003866725 -0.09765304 -0.11280511 -0.046070356 0.07501251 -0.1693518 -0.01706631 -0.22207771 0.10943959 -0.043330077 0.050185926 0.05605239 0.21257411 -0.16822879 -0.23401758 0.123838305 0.051462498 0.11667408
kidney 0.303374 0.0025247165 -0.0025413278 -0.09798596 -0.08730477 -0.021010121 0.09308319 -0.14461562 -0.017440017 -0.16970493 0.093175195 -0.047251023 0.056773234 0.053631242 0.17952241 -0.15144113 -0.18311338 0.106467284 0.04804051 0.091278665
assay 0.9891781 0.058992933 -0.0052125743 -0.32694918 -0.27599084 -0.086930685 0.25606018 -0.46755257 -0.0063397237 -0.628594 0.28841648 -0.14722306 0.16426729 0.16429806 0.6056713 -0.5206714 -0.63623834 0.35639197 0.18624005 0.31208614
failure 0.7772971 0.0498193 -0.005181903 -0.25936767 -0.21509525 -0.07028126 0.20899165 -0.3705921 -0.022595583 -0.48905763 0.22407569 -0.112965606 0.12516813 0.1277382 0.4674091 -0.39448115 -0.48379174 0.27345502 0.15572843 0.24429359
combination 4.192293 0.2760469 0.014010482 -1.3766836 -1.1577866 -0.37203047 1.085965 -1.9945409 -0.07251539 -2.6500392 1.2534759 -0.61817896 0.650912 0.7238951 2.5615196 -2.187331 -2.68158 1.4965634 0.76772845 1.3163614
G 0.29601365 0.0009771911 -0.02412291 -0.09253797 -0.053812847 -0.021475434 0.094448455 -0.17230743 0.018850476 -0.21885954 0.059442304 -0.047287725 0.052014105 0.08507812 0.18737373 -0.18034337 -0.16806506 0.095720276 0.096587025 0.08903071
ligands 1.1920253 0.0793888 0.008866332 -0.39601243 -0.32522386 -0.1185333 0.30310956 -0.574898 -0.019314995 -0.74844426 0.3541252 -0.16727515 0.1953321 0.21666634 0.7249565 -0.62135196 -0.7638923 0.4279289 0.21377923 0.3786286
Expression 3.486108 0.22098404 0.0043106917 -1.162656 -0.9598589 -0.3092072 0.9003727 -1.6625775 -0.07448084 -2.2079778 1.0341514 -0.52859956 0.54807174 0.60415095 2.128399 -1.8303378 -2.2428622 1.2460083 0.6352521 1.1024308
Cell 1.3942287 0.08565325 -0.0069369613 -0.47033855 -0.391712 -0.13319795 0.37541106 -0.678357 -0.025715224 -0.8839321 0.42900994 -0.21416436 0.2160634 0.24350251 0.8908004 -0.75700957 -0.92768836 0.5152034 0.2623178 0.44544303
cultured 1.9534322 0.13247982 -0.0053797625 -0.6270686 -0.53103286 -0.1744129 0.51079774 -0.9289405 -0.040533558 -1.2354963 0.58685374 -0.29421327 0.30999082 0.33806637 1.2015051 -1.0151254 -1.2559253 0.7002942 0.36498278 0.6310314
glutamate 2.131888 0.14532165 0.0055665113 -0.69624966 -0.5886647 -0.19050108 0.5492068 -1.0167745 -0.036712024 -1.3383763 0.6413897 -0.31624377 0.3407012 0.36939687 1.3030312 -1.1184107 -1.3766961 0.7724294 0.39266244 0.67667973
uptake 0.65609604 0.046526287 0.0005996284 -0.19285835 -0.17748357 -0.054596912 0.15786338 -0.31659833 -0.022874096 -0.41378945 0.19599187 -0.08056888 0.10353089 0.10572618 0.40417954 -0.3336079 -0.4177231 0.23937991 0.13008064 0.20227405
Cancer 2.1948905 0.1403572 0.0029573205 -0.7194969 -0.6015713 -0.21439263 0.57564515 -1.0335964 -0.035803694 -1.3784481 0.6565217 -0.33376706 0.36745906 0.38463846 1.3502375 -1.1458992 -1.4049104 0.7909287 0.41182643 0.71377075
skeletal 1.6900984 0.11381588 -0.005428251 -0.56106496 -0.46957168 -0.15090078 0.43531093 -0.8015552 -0.028500617 -1.0624737 0.51018286 -0.25210837 0.26881194 0.30703482 1.0406469 -0.8954166 -1.0900805 0.6091109 0.31259263 0.5351731
targeting 2.7738705 0.184188 0.007499824 -0.905925 -0.7393978 -0.2469394 0.70428413 -1.3153654 -0.043494638 -1.7326407 0.8276229 -0.41092044 0.43766847 0.48123845 1.6833771 -1.4335588 -1.7712348 0.979327 0.5193811 0.8697979
oral 2.8522398 0.18692441 -0.007530846 -0.91778773 -0.77694684 -0.2577299 0.734243 -1.3329146 -0.056801673 -1.7706394 0.83910936 -0.4193273 0.4541459 0.4937357 1.7368686 -1.4818653 -1.8129203 1.0194306 0.53025943 0.900095
oxytocin 1.4413342 0.10005354 -0.0061122607 -0.46261433 -0.38698316 -0.13621542 0.3657043 -0.69988924 -0.022488294 -0.91127115 0.43013617 -0.21842414 0.23570836 0.25041255 0.8691936 -0.7496371 -0.9245945 0.5206036 0.260775 0.46794605
dual 2.1588757 0.1259942 -0.0018052455 -0.707086 -0.59399885 -0.2077745 0.56998676 -1.0318421 -0.045141395 -1.3707668 0.64265245 -0.31215727 0.35221392 0.37329128 1.3429866 -1.1402216 -1.3921508 0.7727497 0.40449545 0.70680994
highly 1.1212103 0.07932095 0.004070558 -0.36716804 -0.30346736 -0.097141914 0.28765243 -0.52210665 -0.02533281 -0.6983988 0.319305 -0.16472028 0.180346 0.19935413 0.6814129 -0.5683438 -0.71937555 0.39861512 0.20783214 0.3595892
cognitive 2.2716246 0.1516996 -0.0015341534 -0.73778695 -0.62542987 -0.20464659 0.5923984 -1.0699098 -0.04752088 -1.4241827 0.68121487 -0.33329514 0.36051217 0.39921504 1.3867898 -1.175699 -1.446411 0.8097937 0.4219069 0.7182812
adult 0.7698929 0.05492435 0.004710635 -0.2446824 -0.21441983 -0.080457486 0.18684958 -0.354016 -0.022563003 -0.4973454 0.22447696 -0.12651536 0.10830724 0.13054423 0.46682107 -0.41187683 -0.49919906 0.2631342 0.14266777 0.23410767
3H 0.30756444 0.02619711 -0.004575311 -0.0963942 -0.09005808 -0.020255813 0.06358718 -0.13698779 -0.011988252 -0.19883798 0.10381764 -0.060781207 0.032959692 0.08497013 0.2133433 -0.17401679 -0.19291961 0.09896984 0.06152106 0.10606748
does 2.508879 0.16423781 -0.008739153 -0.81594145 -0.68846184 -0.23258448 0.6444517 -1.1884576 -0.0629432 -1.5591304 0.7485067 -0.36384648 0.40862176 0.4245137 1.534792 -1.3099499 -1.595631 0.8970206 0.47297364 0.77686137
opioid 0.9269073 0.06376285 -0.013668048 -0.2981202 -0.25475308 -0.091649294 0.24294205 -0.43747863 -0.009919855 -0.5858223 0.28098053 -0.13830388 0.15321265 0.16606453 0.5675741 -0.48125705 -0.5995338 0.3161277 0.17747231 0.29290238
metabolic 2.6153324 0.16879326 -0.0057100323 -0.84654266 -0.7099101 -0.23273697 0.6765308 -1.24184 -0.041888602 -1.6351078 0.78119653 -0.38413602 0.41905218 0.46679088 1.5877106 -1.3652861 -1.6656393 0.94160753 0.48820916 0.8285145
prevents 2.7599916 0.18964656 -0.0054618893 -0.90097624 -0.7555413 -0.2513471 0.7321845 -1.3190019 -0.04931272 -1.7275401 0.8191663 -0.41416532 0.42992285 0.49823818 1.6970865 -1.4403142 -1.7642107 0.9820737 0.50975716 0.88051444
without 1.3208629 0.10096211 -0.002065739 -0.42734146 -0.3582307 -0.12084919 0.3371465 -0.61524886 -0.02852818 -0.82918054 0.39079913 -0.19938199 0.2006205 0.23572248 0.8024589 -0.6858363 -0.85193104 0.4682204 0.24745885 0.42417222
vitamin 2.3862326 0.15123229 -0.0072438107 -0.7757268 -0.6559769 -0.21454223 0.6093309 -1.1313229 -0.04787323 -1.4896762 0.70728266 -0.3490105 0.37968585 0.41719267 1.4537705 -1.2403243 -1.5385576 0.85510343 0.44173506 0.7615379
smooth 0.6875609 0.03717374 -0.006397733 -0.22280234 -0.18646374 -0.061293896 0.17484413 -0.31674632 -0.0061434438 -0.4297144 0.2074568 -0.10611149 0.10755247 0.12327597 0.42101052 -0.36734715 -0.44892186 0.2550546 0.13497186 0.2037276
pharmacological 2.224782 0.14744322 0.007901759 -0.72700286 -0.60768896 -0.203289 0.5827102 -1.0516242 -0.04341471 -1.390539 0.661395 -0.3305412 0.35404485 0.38509881 1.3644135 -1.1581483 -1.4304272 0.79699624 0.42112258 0.7102834
pulmonary 0.84940034 0.047019545 0.0060866023 -0.27687913 -0.24352784 -0.08111784 0.22228332 -0.40607387 -0.017310608 -0.53617084 0.2526099 -0.13412122 0.14706679 0.15284126 0.51161253 -0.44303626 -0.5511937 0.30841243 0.1548186 0.2660065
approach 0.9309828 0.062029228 -0.0072930637 -0.3051307 -0.24407028 -0.08099075 0.24949148 -0.4421453 -0.019397091 -0.5782851 0.275782 -0.14403203 0.14106867 0.16181527 0.573817 -0.4912235 -0.5906577 0.33736345 0.17172317 0.29480767
hypertension 2.5024135 0.1688739 0.0034898533 -0.8158123 -0.68372685 -0.22322947 0.6435118 -1.1850624 -0.05411355 -1.5779089 0.74717987 -0.3730776 0.3884963 0.43276805 1.5200641 -1.3107481 -1.6037546 0.8991884 0.45481825 0.7953588
tyrosine 2.464368 0.17356783 0.0026295914 -0.8174182 -0.6765803 -0.22567509 0.64579636 -1.17944 -0.045620266 -1.5483764 0.73894244 -0.37049103 0.3956981 0.43765846 1.5111549 -1.2896532 -1.585781 0.8866036 0.45501405 0.7768296
lymphocytes 1.6206768 0.10430246 5.4618773e-05 -0.5265205 -0.4390271 -0.15230328 0.4123069 -0.7608739 -0.037064694 -1.0114366 0.48074934 -0.24154763 0.25854576 0.2770311 0.9796504 -0.83275807 -1.0367043 0.58193874 0.29785767 0.5078528
stem 1.5248994 0.109334804 0.016514968 -0.49977246 -0.4178766 -0.14334841 0.39569512 -0.7149813 -0.04370208 -0.9711981 0.46882236 -0.23114495 0.23710217 0.26910016 0.93841165 -0.8064785 -0.98280233 0.5332397 0.2731664 0.47341144
disorder 1.2092934 0.08240662 -0.0036699804 -0.3905594 -0.32668006 -0.11553918 0.30976397 -0.5784436 -0.027927602 -0.7496178 0.3698641 -0.18601295 0.18680313 0.2152146 0.7394971 -0.64075166 -0.76758605 0.42896768 0.23841098 0.38643566
case 4.212856 0.27157834 -0.0007248521 -1.3777066 -1.1329141 -0.38820383 1.0982453 -1.9925542 -0.0955122 -2.647156 1.2484162 -0.61495584 0.66100514 0.74959105 2.5655863 -2.1946828 -2.7088518 1.5048903 0.7988281 1.3208789
cyclooxygenase 1.9326243 0.13326833 -0.0004898703 -0.63386804 -0.52039564 -0.17143464 0.5052724 -0.9189608 -0.04248729 -1.2126747 0.5708347 -0.28319633 0.30173883 0.34363022 1.1826751 -1.0067861 -1.2285908 0.6959845 0.36300558 0.6077498
be 1.2209609 0.10260938 -0.017923987 -0.39456874 -0.31273437 -0.102306396 0.3284375 -0.5646662 -0.043412544 -0.75732327 0.37231076 -0.20518066 0.19173688 0.21717928 0.75256485 -0.60286134 -0.76516515 0.42066348 0.251036 0.37289396
cerebral 1.7575325 0.12393967 -0.00323464 -0.5761439 -0.47211185 -0.15490752 0.45642132 -0.8254441 -0.036554888 -1.0966166 0.53107435 -0.25520685 0.28330812 0.30553055 1.0710839 -0.91585135 -1.1103786 0.6389974 0.3166803 0.5559463
matrix 1.0586908 0.07704526 0.01520991 -0.33251533 -0.2815313 -0.097663246 0.2891901 -0.50986594 -0.035931677 -0.6654248 0.32344392 -0.15185207 0.16888139 0.19209607 0.65466523 -0.5490224 -0.6921705 0.3759841 0.19589007 0.33259678
dependent 3.1254485 0.20619898 -0.010795689 -1.025966 -0.8512093 -0.2836388 0.8254537 -1.4750668 -0.061718613 -1.9594333 0.94002074 -0.45853427 0.49275792 0.55137587 1.910173 -1.6284281 -2.0035334 1.1118504 0.59220713 0.99988395
children 1.0185252 0.0743672 -0.0045540477 -0.34251612 -0.27142414 -0.095848925 0.2654811 -0.48940042 -0.017771201 -0.6504626 0.30531126 -0.15158089 0.16444066 0.17690693 0.6154842 -0.5336448 -0.658438 0.36150062 0.19684158 0.3205857
lines 3.9739316 0.27929515 0.0050430517 -1.3048636 -1.0881034 -0.37247092 1.0376017 -1.8907568 -0.089780256 -2.5002398 1.1862224 -0.5832354 0.6287223 0.6968363 2.4345589 -2.074935 -2.5440028 1.4265779 0.7187711 1.2428575
Comparative 2.456682 0.16312991 0.009598907 -0.79764897 -0.6699317 -0.22162728 0.6428284 -1.1631643 -0.04733893 -1.543107 0.73101735 -0.36474207 0.3849182 0.4344028 1.5022796 -1.2799581 -1.5824184 0.8780714 0.461865 0.7763911
species 2.036416 0.14851098 0.009841238 -0.6726115 -0.56364477 -0.19418563 0.5218577 -0.96300256 -0.032288138 -1.2785542 0.6193449 -0.30493775 0.33027005 0.36757648 1.2597804 -1.0730578 -1.3198798 0.73424333 0.37073773 0.6424651
Influence 1.2342943 0.06815172 0.0068404223 -0.40569085 -0.34398627 -0.10976045 0.3212401 -0.59034973 -0.029147267 -0.77148527 0.36601663 -0.18085001 0.19212829 0.2118413 0.75115204 -0.6434829 -0.790097 0.43021798 0.23203528 0.39288878
RNA 0.69393724 0.048613515 0.0071043842 -0.22391963 -0.17236225 -0.067288324 0.1647078 -0.31682202 -0.021113932 -0.4259317 0.20262422 -0.11134461 0.10740461 0.12970728 0.40021935 -0.3288757 -0.44346252 0.26241803 0.1393164 0.22311543
ligand 1.7609837 0.12060808 0.009536927 -0.5729496 -0.49174014 -0.16654871 0.45676437 -0.8393891 -0.02686812 -1.1159118 0.5320154 -0.25643864 0.27518275 0.32031766 1.0750595 -0.92287433 -1.1404535 0.6349503 0.3231036 0.5649334
ethanol 1.3028561 0.09117608 0.0013102597 -0.42175227 -0.371801 -0.11721627 0.33677343 -0.62196356 -0.030376326 -0.8194455 0.39590284 -0.18959568 0.21874423 0.22901388 0.7998532 -0.6923552 -0.8372229 0.4661478 0.24590528 0.41542095
airway 0.5284418 0.039180625 0.0025942067 -0.16819218 -0.14460184 -0.042594105 0.12837468 -0.24341525 -0.010955203 -0.33703274 0.15674648 -0.06432266 0.07774708 0.094464794 0.3199966 -0.27179536 -0.32610407 0.19827633 0.10154132 0.1571298
hippocampal 1.0803863 0.06606109 -0.001633268 -0.3508401 -0.2885181 -0.10138661 0.2785703 -0.51574665 -0.01714331 -0.6689771 0.32466945 -0.1636518 0.17520036 0.19173242 0.652442 -0.56152904 -0.68676704 0.38273117 0.20428208 0.34008753
line 5.2912645 0.3734554 -0.012161944 -1.7303983 -1.4576924 -0.49455863 1.3670844 -2.5227416 -0.111821175 -3.3325143 1.57837 -0.7904405 0.843512 0.9259831 3.2279983 -2.7443895 -3.3904068 1.8971273 0.96828747 1.6763744
deficiency 1.2367088 0.08304927 -0.006357941 -0.4064013 -0.3334546 -0.10861892 0.31553504 -0.5815802 -0.03236268 -0.7748917 0.3720095 -0.18585573 0.19957556 0.21857858 0.74706435 -0.6375539 -0.79518074 0.44358745 0.22809546 0.37952438
nanoparticles 1.6662123 0.11816975 0.003303369 -0.5454244 -0.45384204 -0.15256289 0.43549895 -0.7953379 -0.02830231 -1.0471708 0.49823675 -0.2418636 0.27145046 0.29065716 1.0212029 -0.8713271 -1.0637051 0.5948076 0.30164593 0.5261367
5 0.22435132 0.027085928 0.0056516095 -0.06800631 -0.056921653 0.007898574 0.024148883 -0.1108859 -0.022244532 -0.1496527 0.09547183 -0.03979303 0.030941274 0.04800285 0.10752893 -0.06603216 -0.10799278 0.0754424 0.046042524 0.06685148
structure-activity 2.3185194 0.16484244 0.0037617283 -0.7553726 -0.6398282 -0.2111953 0.6051086 -1.1015087 -0.038105693 -1.4547733 0.6899274 -0.35080606 0.36086696 0.4013468 1.4239641 -1.2069743 -1.4802717 0.828503 0.4259522 0.73418826
direct 1.4673818 0.0993441 0.0010168036 -0.48262456 -0.4066701 -0.13219012 0.3765354 -0.7025062 -0.03853168 -0.92569643 0.44131514 -0.21884273 0.24099405 0.25632328 0.8872409 -0.7571641 -0.9429003 0.53885746 0.2649745 0.45594156
tumors 1.2949324 0.092106946 0.0008312167 -0.4301735 -0.35827014 -0.12064128 0.32627794 -0.6285167 -0.026289247 -0.8232312 0.3954945 -0.20023158 0.21944031 0.23868631 0.8100546 -0.6901281 -0.83924645 0.4652337 0.2346132 0.41822326
glucocorticoid 1.2294862 0.07885911 0.004310674 -0.4081799 -0.33849612 -0.11214048 0.31572682 -0.5852211 -0.021952681 -0.7685042 0.36873946 -0.189396 0.1929528 0.20896363 0.7563526 -0.65089613 -0.7922472 0.4418477 0.22853729 0.38394493
antipsychotic 1.9586082 0.13829634 0.004710589 -0.64273596 -0.533213 -0.18220426 0.51113164 -0.92754185 -0.030397618 -1.2296565 0.578799 -0.29175687 0.31044593 0.34435117 1.1880317 -1.0296192 -1.2487547 0.70117295 0.36875525 0.6199024
B 0.20993377 0.021904342 0.0044467538 -0.07671995 -0.036717925 -0.040766194 0.06104416 -0.083291605 0.012227366 -0.08641014 0.046412818 -0.064971745 0.034693018 0.053432494 0.1034389 -0.12036602 -0.13236083 0.08482076 0.035965394 0.030535672
biochemical 2.0663967 0.1472458 0.00059565844 -0.6739961 -0.5569604 -0.18339291 0.53718895 -0.9767531 -0.044415217 -1.2864091 0.6218131 -0.30003348 0.32645455 0.36575064 1.2597479 -1.064727 -1.3206083 0.736943 0.39501283 0.65116733
women 1.1396976 0.08129574 0.0009982011 -0.37457383 -0.306644 -0.10817099 0.28934917 -0.5304147 -0.01743401 -0.7120398 0.33551612 -0.1665338 0.18841936 0.19787093 0.693798 -0.60708237 -0.72535366 0.40144786 0.21282102 0.35789624
activated 4.7600822 0.31652394 0.013097888 -1.5466108 -1.31414 -0.4299871 1.238484 -2.2573237 -0.09190506 -2.9953847 1.4303311 -0.7094116 0.7511478 0.8413111 2.9024825 -2.4782538 -3.0505784 1.7088263 0.8917519 1.5030103
Regulation 5.00429 0.3278139 0.010130072 -1.65381 -1.3885869 -0.4545434 1.2925078 -2.3817348 -0.0904081 -3.1583042 1.5010177 -0.74906313 0.7757815 0.86983734 3.062898 -2.6155093 -3.2090523 1.8065724 0.91456634 1.5710762
cyclic 2.041603 0.14469095 -0.0046641724 -0.6617068 -0.54833925 -0.18774481 0.5262279 -0.96274173 -0.037579168 -1.2905694 0.6199831 -0.29435718 0.32219633 0.3720757 1.2464716 -1.0667697 -1.2983087 0.74119747 0.3875263 0.6364467
Study 0.90301996 0.055822022 -0.004679398 -0.3049464 -0.26369515 -0.07981486 0.2426989 -0.42759466 -0.010826376 -0.5726164 0.26472422 -0.12593861 0.14031583 0.16554017 0.5491518 -0.47815412 -0.5780569 0.3321788 0.16618793 0.27396792
screening 2.1505516 0.1481088 -0.0018856962 -0.70841527 -0.5825756 -0.19827446 0.5474969 -1.016164 -0.038657546 -1.3540044 0.65116847 -0.3140708 0.35816693 0.3836715 1.3217485 -1.1160406 -1.3752928 0.767768 0.3991266 0.6806643
unique 0.34765795 0.028757526 -0.012800737 -0.106033236 -0.103219055 -0.034758225 0.07884946 -0.17933373 -0.012611357 -0.21812241 0.0921647 -0.05009438 0.05445823 0.055818327 0.20884615 -0.18236096 -0.22373927 0.10638582 0.07060257 0.10966589
patient 3.7733738 0.2538287 0.0029225182 -1.2374994 -1.0200058 -0.3421672 0.9945002 -1.8033731 -0.07818908 -2.3694532 1.1338576 -0.5554903 0.5998468 0.6659676 2.3125324 -1.9609526 -2.4232633 1.349794 0.69987637 1.19248
central 2.8484862 0.19396438 -0.008647981 -0.92442495 -0.76749223 -0.26266223 0.73409617 -1.3393391 -0.05533328 -1.7820637 0.85874707 -0.4090178 0.44778368 0.49977207 1.745108 -1.4926326 -1.8147582 1.0196861 0.53040946 0.909387
antitumor 2.2216392 0.15156652 -0.0032635538 -0.7240162 -0.6061152 -0.20377702 0.5654206 -1.0590781 -0.04297523 -1.3958539 0.65196645 -0.32506546 0.35449177 0.38743964 1.3631488 -1.1577944 -1.4284269 0.8019173 0.4168285 0.70608866
intracellular 2.240286 0.15584253 -0.0017922136 -0.71928096 -0.61294913 -0.21700141 0.5830085 -1.0674028 -0.044718225 -1.4167876 0.6694694 -0.34494856 0.3630387 0.39805397 1.3916056 -1.1703393 -1.4430561 0.8129203 0.41477022 0.7137554
Mechanism 1.5030503 0.09879787 -0.0012051658 -0.48754174 -0.41311634 -0.14294282 0.39112416 -0.71355754 -0.023695603 -0.9500117 0.4382812 -0.22299284 0.23921496 0.2678158 0.9124131 -0.79152185 -0.9685901 0.5451339 0.27944657 0.46476576
estrogen 1.8781707 0.12788163 0.0031580855 -0.60838234 -0.50239515 -0.17728259 0.47970507 -0.89166313 -0.030433914 -1.1731267 0.572879 -0.27649295 0.30207363 0.3312372 1.1435696 -0.97315323 -1.199613 0.6724117 0.35077587 0.58898157
dynamics 0.9558934 0.062519126 -0.0015988568 -0.30762026 -0.2583488 -0.07990984 0.2445212 -0.45030856 -0.019464584 -0.59550434 0.28097364 -0.1417751 0.1626537 0.16538374 0.59002966 -0.49439853 -0.61818033 0.34373295 0.17181985 0.29692364
leads 0.7950467 0.044196464 -0.006296544 -0.26579466 -0.21770158 -0.072973475 0.20105003 -0.361515 -0.02592376 -0.48773938 0.22709014 -0.12380812 0.123726994 0.14838836 0.4907556 -0.41108093 -0.49055335 0.28544635 0.151271 0.24891801
female 0.92998564 0.07145713 -0.0033147603 -0.30045706 -0.24856868 -0.08159729 0.24599056 -0.42855042 -0.017727287 -0.57962304 0.2943228 -0.14014564 0.15300594 0.1727215 0.5834873 -0.4902141 -0.58733416 0.34161386 0.16836108 0.29541564
AMP-activated 2.9730449 0.20189707 0.0049819793 -0.9605093 -0.82047594 -0.2646883 0.7672608 -1.4074306 -0.054352764 -1.871852 0.88865393 -0.445709 0.46399653 0.5209729 1.8142447 -1.5464642 -1.8971837 1.0715725 0.55688953 0.934477
