9916 20
. 1.328319 0.41092202 -0.34045327 -0.37790048 -0.77396595 -0.75749886 0.6876639 -0.4258166 -0.5171868 -1.5539259 0.52738523 -0.09257984 0.78372824 0.3162577 -0.14459759 -0.972602 -0.86603415 0.8776199 0.60362136 0.74316025
of 1.4582809 0.31465584 -0.18522258 -0.46758953 -0.49853048 -0.5631267 0.6898898 -0.4162016 -0.5145382 -1.4234107 0.42564562 -0.067252085 0.8696292 0.24370891 -0.026517825 -0.8294421 -0.83668005 0.7146832 0.6294478 0.80090165
and 1.4119512 0.35139233 -0.26313847 -0.4516134 -0.6973049 -0.6204509 0.6871203 -0.43412465 -0.4236517 -1.5850664 0.45450184 -0.14241908 0.7916394 0.2335376 -0.11087767 -0.9494439 -0.80303913 0.7611581 0.6443319 0.7432048
in 1.3001386 0.4664695 -0.40342066 -0.40497372 -0.8702092 -0.63131016 0.6482391 -0.5426692 -0.51190567 -1.7652806 0.6158619 -0.19946235 0.59241617 0.29775268 -0.17671134 -1.1394141 -0.9111628 1.135422 0.45805478 0.6254286
the 1.3017906 0.33200762 -0.27125868 -0.5425441 -0.79653746 -0.6548368 0.6646157 -0.5116822 -0.42497593 -1.7016752 0.48998165 -0.0641097 0.68054634 0.18176773 -0.16928259 -0.9621791 -0.73985445 0.73155344 0.50525075 0.7072338
, 1.4118367 0.2977614 -0.20121208 -0.49404487 -0.6456871 -0.6902798 0.5601895 -0.3425505 -0.3375712 -1.4706483 0.42309484 -0.24152163 1.0116203 0.29880908 0.07683831 -0.6779973 -0.81612545 0.69458276 0.7415886 0.81264
a 1.3479129 0.17624336 -0.2579312 -0.61377907 -0.63887423 -0.7088365 0.6752719 -0.43165013 -0.45119464 -1.6338646 0.41239282 0.019146387 0.84849447 0.1563415 -0.04423318 -0.9119657 -0.7467706 0.5913589 0.737565 0.8687198
: 1.3949833 0.23219842 -0.2597136 -0.49901962 -0.651732 -0.69606656 0.62299716 -0.42519128 -0.44733065 -1.5334309 0.4352538 -0.08176631 0.81867874 0.19567779 -0.115005374 -0.79911214 -0.8418309 0.68555325 0.67107135 0.7961923
( 1.3878999 0.32390487 -0.10082598 -0.14956349 -0.65087986 -1.1259499 0.4353292 -0.33229047 -0.33696902 -1.549443 0.36337408 -0.07001748 1.1782167 0.41468164 0.3058599 -0.4977041 -0.76100713 0.3706498 0.7988332 1.1709988
) 1.3401616 0.21466637 -0.04538419 -0.34613428 -0.65841407 -0.9476112 0.59195656 -0.17063488 -0.43697986 -1.4026868 0.48766324 -0.40975362 1.2232394 0.5504131 0.4600821 -0.5176149 -1.0266031 0.33317026 0.8717657 1.1007645
by 1.3561076 0.3686744 -0.27696115 -0.42844164 -0.63212615 -0.6355405 0.7009118 -0.435385 -0.5129391 -1.5279933 0.49559233 -0.09877893 0.75193566 0.223797 -0.15631334 -0.99893963 -0.899726 0.86335653 0.64529985 0.71955335
with 1.4462589 0.39175078 -0.30078578 -0.39954904 -0.70116925 -0.7251926 0.71041447 -0.382823 -0.52784294 -1.5762782 0.5135721 -0.15252115 0.7826784 0.2895849 -0.098637514 -1.002013 -0.9103994 0.83361727 0.629869 0.7754204
for 1.4841788 0.3150638 -0.22077824 -0.5278591 -0.64416665 -0.64367473 0.6861691 -0.45969543 -0.4439397 -1.6242535 0.4362574 -0.07024615 0.82227004 0.23809133 -0.012183317 -0.87927574 -0.8266463 0.74145097 0.6778633 0.87546664
on 1.3007973 0.42374325 -0.28683534 -0.554308 -0.85748583 -0.5593799 0.7542445 -0.6184029 -0.45338908 -1.8633673 0.51426053 -0.13205035 0.59267163 0.17907026 -0.1751654 -1.0879537 -0.76934606 0.90682423 0.3890329 0.6232858
to 1.3861861 0.38036844 -0.27252942 -0.4502273 -0.686289 -0.58089906 0.7419618 -0.41667822 -0.54966974 -1.4719055 0.52058655 -0.11218908 0.72715616 0.20154597 -0.14308599 -1.0003042 -0.87650746 0.8087219 0.65952986 0.75713754
receptor 1.4195784 0.34967715 -0.18878268 -0.46333173 -0.823915 -0.74160576 0.6786876 -0.46996444 -0.4683453 -1.8324808 0.48871085 -0.22415027 0.8975646 0.2910812 0.031169305 -0.91568387 -0.8491162 0.7669416 0.6459348 0.8336177
cells 1.1317865 0.47222632 -0.40716693 -0.39817688 -0.8937533 -0.7241096 0.7516248 -0.5146561 -0.6047042 -1.782368 0.640487 -0.14950858 0.65218204 0.21876827 -0.2567021 -1.2230523 -0.85815275 1.1396315 0.47134033 0.49992436
human 1.2668167 0.43517125 -0.36898232 -0.44679007 -0.88796055 -0.71239114 0.7383206 -0.50912833 -0.5741532 -1.8228245 0.58903533 -0.14131528 0.70801365 0.22132735 -0.21953915 -1.1190999 -0.85671437 0.9982863 0.52509815 0.6306546
expression 1.1954467 0.41187578 -0.3539195 -0.52748144 -0.9168322 -0.570597 0.70596236 -0.5803554 -0.5392907 -1.8880805 0.57131803 -0.16849834 0.5154537 0.18339954 -0.27161488 -1.2124784 -0.79861486 1.0569172 0.41276032 0.50779575
activity 1.3019272 0.36583468 -0.27619758 -0.51237935 -0.83377254 -0.6272746 0.69052607 -0.54788786 -0.4577807 -1.7472725 0.5220301 -0.104291245 0.69220036 0.2015749 -0.16485663 -0.9970298 -0.73140526 0.7738369 0.5497977 0.6976174
The 1.3399048 0.30252954 -0.24471745 -0.428262 -0.6153282 -0.64272887 0.6282769 -0.39428502 -0.43848997 -1.4410754 0.42286938 -0.10005783 0.7569841 0.25637975 -0.061304532 -0.78477776 -0.76641625 0.67898136 0.61294353 0.78001386
as 1.5443888 0.27759972 -0.20520027 -0.6066319 -0.59352016 -0.7506436 0.64657223 -0.43018794 -0.46796158 -1.5659933 0.44261318 -0.0994934 1.0170771 0.20660962 0.03813255 -0.7486354 -0.829364 0.61648476 0.80016077 1.010747
effects 1.337611 0.3904512 -0.30522284 -0.5039165 -0.79397285 -0.56469476 0.6806024 -0.5401673 -0.4082828 -1.6497499 0.45880485 -0.11859445 0.6585783 0.19574186 -0.1782037 -0.88909656 -0.72424805 0.7124283 0.48463696 0.71167946
A 1.306465 0.28096008 -0.23094486 -0.45903873 -0.57803506 -0.69662565 0.6716702 -0.35504913 -0.45793116 -1.3759688 0.4729455 -0.12224662 0.86146426 0.23883757 0.0026449934 -0.82759786 -0.74680394 0.5705804 0.64268243 0.78981256
from 1.3480796 0.3797274 -0.24547334 -0.3725795 -0.6207934 -0.6808662 0.647221 -0.4480775 -0.46452233 -1.4640136 0.4597455 -0.10277176 0.7942898 0.26798886 -0.048872244 -0.84748465 -0.83387893 0.71585137 0.6058117 0.7512532
rat 1.2905226 0.47161987 -0.41303056 -0.4608036 -0.90874404 -0.62169784 0.76824987 -0.51203364 -0.5892672 -1.7671843 0.6017107 -0.1791348 0.6430983 0.15554348 -0.25235555 -1.1366024 -0.8465647 0.980308 0.517086 0.6317095
cell 1.1929559 0.46119043 -0.4075929 -0.40914297 -0.87994677 -0.76100576 0.76240444 -0.5361461 -0.59888417 -1.8238053 0.6814883 -0.14935042 0.6847467 0.2415809 -0.23772866 -1.2419704 -0.8886435 1.1631379 0.50849783 0.512626
rats 1.2536833 0.45206892 -0.40033147 -0.45716178 -0.9047479 -0.6395881 0.76032233 -0.5026326 -0.5695106 -1.7238553 0.5673758 -0.17169313 0.64683914 0.15198243 -0.26466167 -1.1504151 -0.8269966 0.96561885 0.50846314 0.5833774
inhibitors 1.3929913 0.2782281 -0.18747532 -0.5140124 -0.709963 -0.68640685 0.6286816 -0.4832404 -0.40639374 -1.7148726 0.45003465 -0.118978694 0.87571305 0.22207569 0.006569272 -0.85617715 -0.7732746 0.6580129 0.63960487 0.86889505
is 1.4506657 0.36900184 -0.27701488 -0.61800575 -0.75914687 -0.6972095 0.791717 -0.5775281 -0.5765135 -1.8123137 0.58118004 -0.11760616 0.7353777 0.24843279 -0.21368413 -1.1499338 -0.8951336 0.9127441 0.624327 0.70300573
novel 1.4573866 0.28138882 -0.1979772 -0.6081186 -0.698263 -0.717756 0.6480456 -0.48587227 -0.39321437 -1.7003245 0.46183145 -0.09271178 0.88991714 0.22516353 -0.02672155 -0.8202438 -0.79378307 0.6027986 0.7320432 0.87489617
mice 1.3622043 0.4551131 -0.42259225 -0.5058264 -0.9217377 -0.71520007 0.79743695 -0.5338401 -0.6092291 -1.8543566 0.59024805 -0.16625296 0.7603992 0.20076595 -0.23754144 -1.2005951 -0.90940875 0.9962876 0.56423116 0.6783906
cancer 1.277061 0.43969938 -0.43962598 -0.4827363 -1.0043888 -0.78960234 0.78077453 -0.5338818 -0.56156385 -1.9769108 0.6382841 -0.13352619 0.6948138 0.19567028 -0.26130405 -1.2854751 -0.910424 1.1450849 0.5497064 0.64065534
gene 1.3345858 0.40014488 -0.3464897 -0.50176865 -0.79102683 -0.6721508 0.69455475 -0.5247771 -0.478274 -1.7715755 0.5744454 -0.17991623 0.74510264 0.24764468 -0.069273986 -0.9580582 -0.87643 0.8502519 0.58486843 0.7217017
an 1.4972141 0.36138323 -0.28862408 -0.55730814 -0.86252177 -0.73956764 0.76509595 -0.48887244 -0.48065373 -1.8746687 0.50926405 -0.12296143 0.90183616 0.20381358 -0.109926775 -1.0808462 -0.8517362 0.8523321 0.66556835 0.808486
protein 1.4982817 0.44700184 -0.3235867 -0.49825096 -0.8323049 -0.78138506 0.760408 -0.5454168 -0.5344311 -1.924201 0.61328095 -0.22795962 0.9047142 0.33190054 -0.060673807 -1.0846542 -0.97322744 0.942426 0.6845163 0.86656755
binding 1.3984864 0.41483632 -0.30489555 -0.52451193 -0.84632295 -0.7007496 0.758639 -0.5500572 -0.5024583 -1.8001235 0.5767457 -0.12792122 0.80541456 0.2467158 -0.13202015 -1.0729065 -0.8574346 0.83389455 0.63578326 0.76741606
receptors 1.3608048 0.32950336 -0.20014256 -0.4546146 -0.8121334 -0.7153288 0.6652322 -0.4702591 -0.45068988 -1.7686257 0.47874805 -0.19229136 0.85579735 0.26468104 0.0069829416 -0.9130387 -0.8144764 0.7503832 0.6175321 0.7986191
[ 1.2336777 0.5056816 -0.29971945 -0.37775007 -0.7184106 -0.9845109 0.8690579 -0.40766963 -0.34439924 -1.2056074 0.51570106 -0.14314249 1.3441043 0.35621983 0.23742129 -0.84811914 -0.93152547 0.13049355 0.7861177 0.941914
] 1.3308266 0.46413496 -0.29180434 -0.3644656 -0.79663765 -1.0991905 0.8591911 -0.35163072 -0.533251 -1.2524258 0.51483834 -0.03910605 1.1966765 0.384311 0.038090512 -0.6111745 -1.0322888 0.11848091 0.643655 1.1367276
acid 1.4331998 0.38207185 -0.28396422 -0.4616442 -0.80603445 -0.70924795 0.7501852 -0.49789542 -0.5388269 -1.7439761 0.5620069 -0.14288606 0.8162926 0.2575025 -0.13495938 -1.0351866 -0.8957973 0.88206095 0.6581347 0.79140383
factor 1.5004965 0.40403417 -0.26592314 -0.510256 -0.8147825 -0.73288953 0.71843773 -0.5522247 -0.5349644 -1.8921081 0.5880705 -0.14775111 0.87592053 0.29105335 -0.10812117 -1.0210348 -0.9165003 0.8634991 0.6471345 0.8236584
inhibition 1.2557274 0.3403307 -0.24247749 -0.5674157 -0.82805604 -0.55812824 0.6507731 -0.60725594 -0.40931576 -1.8536787 0.5023362 -0.111859135 0.6269391 0.16431463 -0.16442911 -1.026888 -0.6812128 0.80836976 0.45791382 0.6500344
inhibitor 1.4275545 0.28719273 -0.17917322 -0.51878107 -0.6982502 -0.6916334 0.62779945 -0.48277423 -0.40900293 -1.7321123 0.44639394 -0.1321146 0.8985584 0.23282927 0.022438679 -0.8474127 -0.7886143 0.65890896 0.6506388 0.8887731
activation 1.1756864 0.37378147 -0.284063 -0.62272 -0.91807806 -0.4965625 0.69185436 -0.6797361 -0.4215617 -1.9370673 0.5510247 -0.0828053 0.49512067 0.15452647 -0.27389264 -1.1464443 -0.60865563 0.8634472 0.41346404 0.53250736
signaling 1.384153 0.39956778 -0.2917735 -0.4931514 -0.7921355 -0.6625054 0.71944773 -0.5355599 -0.52204007 -1.7913511 0.5666258 -0.115374856 0.76755476 0.25166166 -0.1595739 -1.0894567 -0.8617832 0.92553073 0.59692395 0.7173837
effect 1.3230163 0.38704377 -0.28602546 -0.49781328 -0.76658076 -0.5547983 0.66067475 -0.53053975 -0.39866287 -1.6211 0.44513217 -0.112242624 0.65277594 0.1922998 -0.1641247 -0.85461605 -0.70796365 0.6750059 0.47416437 0.7118785
treatment 1.3444055 0.34381977 -0.2848701 -0.5593575 -0.7833809 -0.62440664 0.7110093 -0.5324235 -0.47096142 -1.7156603 0.51938206 -0.104480036 0.6803822 0.1624098 -0.16254719 -1.0227422 -0.75303864 0.78820497 0.53032905 0.69364697
2 1.4859264 0.3492553 -0.17015274 -0.2901642 -0.6940139 -0.89052683 0.6542529 -0.37454814 -0.41803458 -1.5414728 0.46395892 -0.1640891 0.8995413 0.32678783 0.08420357 -0.80808866 -0.8521613 0.70544827 0.6864149 0.93390536
via 1.4826696 0.44416243 -0.34072933 -0.4886892 -0.86113304 -0.758747 0.7970027 -0.5479956 -0.55432713 -1.8549354 0.59829265 -0.12547724 0.8476271 0.2908986 -0.16388091 -1.1221946 -0.9600078 0.97189796 0.65959316 0.806924
patients 1.3507332 0.38350672 -0.31362903 -0.48257908 -0.81469774 -0.6940478 0.74684113 -0.51901174 -0.50960517 -1.7354745 0.53632957 -0.11123252 0.6786442 0.19273074 -0.16724022 -1.0770983 -0.812258 0.8913031 0.5497514 0.6724625
through 1.4263737 0.38862103 -0.29182214 -0.47120953 -0.7573808 -0.7051832 0.74132055 -0.49787447 -0.5374265 -1.7040032 0.53912985 -0.13427761 0.8011826 0.26525697 -0.124609254 -1.0480887 -0.8839632 0.86607325 0.64409846 0.7701008
its 1.3986622 0.40629384 -0.33796385 -0.4700565 -0.81430864 -0.6925887 0.74878293 -0.5236328 -0.48477116 -1.7259636 0.5265444 -0.10503818 0.7669401 0.24199727 -0.16323884 -1.0662309 -0.8433961 0.91470104 0.5987129 0.7550715
vitro 1.3316596 0.3768276 -0.35050532 -0.4879351 -0.8826297 -0.6799627 0.70939505 -0.5181825 -0.5190979 -1.7594235 0.52893764 -0.1253367 0.71711373 0.19938162 -0.20350686 -1.0747817 -0.8056132 0.92413735 0.559998 0.6886003
vivo 1.2152946 0.38003778 -0.30858672 -0.46892646 -0.8321695 -0.6080365 0.66434306 -0.47255656 -0.47119963 -1.6236118 0.50098 -0.10735676 0.67815644 0.18274674 -0.20004402 -1.0197202 -0.74461496 0.844627 0.51827854 0.61670417
apoptosis 1.3204423 0.42617735 -0.3512388 -0.48993486 -0.858486 -0.68716466 0.74832296 -0.5383528 -0.54411674 -1.812696 0.5833865 -0.13406345 0.707344 0.241615 -0.20034166 -1.1227789 -0.8733219 0.9673562 0.56484956 0.66452265
antagonist 1.4630476 0.34582353 -0.24543288 -0.5089221 -0.80658185 -0.76055753 0.69642323 -0.48203805 -0.40691903 -1.7719265 0.48369125 -0.17798193 0.9534402 0.27897182 0.0048916494 -0.91302085 -0.84302306 0.7028693 0.6926424 0.88146603
1 1.3229165 0.33042464 -0.20988154 -0.37277284 -0.65759945 -0.73099524 0.6654178 -0.35742953 -0.44041127 -1.5302329 0.45128876 -0.103108995 0.88158333 0.2532558 -0.031069607 -0.82718253 -0.83256495 0.71454364 0.67329836 0.80278695
brain 1.5094013 0.4345584 -0.34756756 -0.53622895 -0.9035496 -0.7465193 0.78307813 -0.5322549 -0.5570136 -1.8799723 0.57308906 -0.1703643 0.822957 0.2577032 -0.13956025 -1.1283695 -0.94203 0.9896421 0.64083767 0.80265784
Effects 1.2558919 0.37314332 -0.2852533 -0.47687095 -0.77014196 -0.55224144 0.646539 -0.51222664 -0.39125356 -1.5676086 0.44481617 -0.116650894 0.6254372 0.19650958 -0.1582247 -0.84947306 -0.6963882 0.6784866 0.45957038 0.6641859
transporter 1.407188 0.39984047 -0.30455214 -0.4784484 -0.834846 -0.71882826 0.72969633 -0.5022334 -0.5254417 -1.7859632 0.55740154 -0.15613286 0.76614153 0.25347075 -0.1294078 -1.0555916 -0.9002673 0.92076844 0.6081369 0.7532704
induced 1.5149264 0.57381004 -0.4681407 -0.4932735 -1.0323436 -0.75900763 0.8891335 -0.6694601 -0.711511 -2.055593 0.7257423 -0.13299681 0.69466245 0.2847932 -0.34940425 -1.4153757 -1.0713017 1.3383725 0.5739868 0.68962663
against 1.3593441 0.37294927 -0.3087295 -0.42295665 -0.72440296 -0.67032754 0.7280377 -0.44638908 -0.5065829 -1.5996169 0.5213572 -0.112863414 0.7729654 0.25725383 -0.1275695 -1.0086478 -0.8666526 0.86966264 0.6312235 0.74421835
growth 1.3684543 0.367867 -0.30032682 -0.4595871 -0.75154924 -0.6885941 0.6972069 -0.48260292 -0.5050827 -1.7326504 0.54309547 -0.12603483 0.7776693 0.26731077 -0.13958554 -1.017283 -0.89212257 0.8780694 0.6090454 0.7347106
kinase 1.598212 0.42481568 -0.29060888 -0.5556738 -0.8363242 -0.8259041 0.8041454 -0.54776776 -0.57924473 -1.9985912 0.61153895 -0.16675021 0.9610159 0.31245792 -0.046964165 -1.1264461 -0.93753844 0.96044874 0.7541995 0.91259754
mouse 1.3701382 0.36012325 -0.29984888 -0.4655127 -0.75915164 -0.660944 0.7095325 -0.4887623 -0.5259916 -1.6759598 0.5275783 -0.11961618 0.7374676 0.19503336 -0.16234688 -1.0236468 -0.8301548 0.86302495 0.59782535 0.70102674
pathway 1.3903266 0.41288352 -0.32604733 -0.5179302 -0.8413692 -0.6869735 0.7945004 -0.5585385 -0.56271404 -1.8505347 0.5714038 -0.1395052 0.7179747 0.22248328 -0.19836104 -1.1772811 -0.8923673 0.99494326 0.5801637 0.6843529
new 1.479371 0.33009 -0.25980747 -0.5431469 -0.7194602 -0.7056762 0.71352804 -0.45530125 -0.48445657 -1.6583682 0.48079637 -0.11530383 0.828715 0.20968343 -0.09058392 -0.9320803 -0.85792685 0.77374524 0.6979621 0.83674496
Effect 1.2300549 0.36704773 -0.2620009 -0.47116536 -0.73753923 -0.53505343 0.6187008 -0.4967699 -0.37659517 -1.52459 0.43034583 -0.108684964 0.61336976 0.19711046 -0.14435041 -0.80829614 -0.67281675 0.63967913 0.44349164 0.6505732
drug 1.5365716 0.3512049 -0.29572797 -0.5240533 -0.7527805 -0.72185695 0.75721705 -0.51863873 -0.50590044 -1.704658 0.52621996 -0.12354643 0.91127294 0.24483581 -0.074685186 -0.99185747 -0.92786694 0.8058409 0.73083264 0.85915947
at 1.4743099 0.39845124 -0.28788355 -0.48468968 -0.7904959 -0.71953845 0.7510263 -0.4651214 -0.5666595 -1.7227689 0.539745 -0.13863899 0.8651049 0.26742694 -0.12815273 -0.9926358 -0.9090296 0.853825 0.65542406 0.80321455
Synthesis 1.2396723 0.32995078 -0.2432503 -0.5244822 -0.7190998 -0.6172862 0.63137436 -0.44820985 -0.39137965 -1.5410138 0.4438659 -0.08340364 0.74568385 0.2202007 -0.096398056 -0.8844552 -0.7102523 0.7124362 0.55159235 0.67967916
selective 1.5417498 0.35420042 -0.26645583 -0.60423124 -0.8336987 -0.7090351 0.7500456 -0.56948113 -0.48831657 -1.912987 0.5418115 -0.11213167 0.87147665 0.22650254 -0.10747844 -1.0385954 -0.8308406 0.82646245 0.7079338 0.8617739
inhibits 1.2440583 0.2904798 -0.18622315 -0.44159353 -0.64518404 -0.6005586 0.57981974 -0.45636305 -0.38470018 -1.5336801 0.41279423 -0.11007705 0.74513763 0.20267951 -0.036807787 -0.808104 -0.7079499 0.64748275 0.5437028 0.73878235
type 1.6976641 0.39112312 -0.3244966 -0.47557175 -0.8322658 -0.8811622 0.85004276 -0.4907436 -0.5814678 -1.8937907 0.60744905 -0.19083175 0.93596613 0.33266965 -0.027939737 -1.1271955 -1.0002481 0.92463034 0.7429552 0.91982085
study 1.2934433 0.34936878 -0.28889373 -0.46626464 -0.73336124 -0.64145154 0.65687025 -0.43707064 -0.45707062 -1.5864714 0.483713 -0.12042784 0.7399599 0.22331473 -0.08837388 -0.93870723 -0.78412557 0.76779866 0.57151467 0.7022269
model 1.3903611 0.3531671 -0.2817459 -0.52233636 -0.7802526 -0.6592553 0.6935538 -0.53003573 -0.48799026 -1.743029 0.5330864 -0.10216295 0.7337391 0.21642853 -0.13947496 -1.0048832 -0.82656157 0.8301518 0.57366997 0.73330253
potential 1.4954016 0.3029261 -0.27267796 -0.59343374 -0.7917969 -0.7026749 0.7308311 -0.529692 -0.47506616 -1.8352429 0.52357686 -0.08051962 0.8257629 0.20761555 -0.11023185 -1.0190859 -0.828266 0.82326245 0.67478997 0.8452973
stress 1.4302759 0.43787354 -0.3798639 -0.52733266 -0.925474 -0.6779295 0.7974624 -0.5766304 -0.58132774 -1.8712455 0.6305302 -0.16873488 0.71400285 0.2174847 -0.23715624 -1.203318 -0.9437817 1.0710639 0.574642 0.7089136
metabolism 1.3152282 0.36033583 -0.30461347 -0.47706157 -0.78058475 -0.6284806 0.68093836 -0.48483086 -0.46230555 -1.6430557 0.5048584 -0.12190687 0.71957505 0.21990204 -0.14218211 -0.9811676 -0.78760505 0.8341475 0.5520974 0.69242543
function 1.2564664 0.4002531 -0.32374933 -0.6015434 -0.94612795 -0.54026365 0.7046453 -0.64039856 -0.45213604 -1.9512697 0.56181824 -0.12624918 0.53564024 0.16691571 -0.25406456 -1.1863366 -0.6874663 0.9515445 0.4302261 0.55124134
role 1.6477871 0.4404785 -0.36120155 -0.6070842 -0.9213751 -0.77328944 0.8486195 -0.5865628 -0.5858554 -2.0119877 0.59233594 -0.14743568 0.91660345 0.26039234 -0.14667743 -1.1835363 -0.9788716 0.9602632 0.7377211 0.88614744
II 1.3990436 0.32261485 -0.2515589 -0.41988862 -0.6659866 -0.68929356 0.6699588 -0.40411496 -0.48109937 -1.5342109 0.47434396 -0.12991162 0.79425 0.27671057 -0.05030227 -0.9151476 -0.86403155 0.7550618 0.6576511 0.761304
disease 1.560029 0.42645213 -0.33088827 -0.5403461 -0.8393383 -0.7868955 0.8052707 -0.5476273 -0.5655938 -1.8907275 0.57998776 -0.13037233 0.8341808 0.24717568 -0.115914136 -1.1193141 -0.9333928 0.9308006 0.6515323 0.8337215
properties 1.3634294 0.385314 -0.3007217 -0.5126871 -0.796176 -0.67639536 0.7127857 -0.5180315 -0.47832647 -1.7513529 0.53578025 -0.11594606 0.7422461 0.22777207 -0.15281832 -1.0205028 -0.82263786 0.8475657 0.5665695 0.7359392
liver 1.5820383 0.45045152 -0.38068974 -0.55480033 -0.93838197 -0.7886074 0.8305744 -0.5761228 -0.5970303 -1.999349 0.63093287 -0.13560338 0.8345682 0.24429406 -0.18951645 -1.2270505 -0.9898186 1.032205 0.67891145 0.81994534
dopamine 1.5233083 0.41823086 -0.2861076 -0.52398014 -0.88935214 -0.7886582 0.7585476 -0.5303503 -0.4885874 -1.8930608 0.551361 -0.21262215 0.9677899 0.29697773 -0.032523822 -1.0153936 -0.91833913 0.82516646 0.69612926 0.9070845
's 1.2497619 0.30408287 -0.28584197 -0.45578814 -0.6455656 -0.5919979 0.6790579 -0.37266254 -0.44568944 -1.4132702 0.4597666 -0.1246169 0.7433536 0.18102966 -0.0888666 -0.86087364 -0.7680433 0.68523186 0.48573843 0.62814903
alpha 1.6893811 0.44595584 -0.3226225 -0.55309707 -0.9042085 -0.89878327 0.823252 -0.5517709 -0.5903832 -2.013489 0.6164786 -0.16820945 1.0166104 0.3434957 -0.04728762 -1.1252416 -1.0509825 0.9492418 0.7841648 0.9702204
using 1.4611495 0.39329493 -0.29770178 -0.547566 -0.79176 -0.7272565 0.74852836 -0.5083643 -0.5177399 -1.7956842 0.56025493 -0.13243838 0.84835696 0.23789291 -0.12450768 -1.083226 -0.8937806 0.88775736 0.6532806 0.7964785
drugs 1.3517598 0.32320756 -0.26369652 -0.45130938 -0.67426306 -0.63133556 0.6616045 -0.45539102 -0.44941288 -1.504934 0.45713744 -0.107559405 0.7920829 0.21437879 -0.08483116 -0.8711891 -0.82752407 0.7399123 0.628638 0.74877995
response 1.3519249 0.38684803 -0.3107297 -0.49442193 -0.8104623 -0.6586422 0.72012734 -0.5027613 -0.52226335 -1.748022 0.5551176 -0.13776955 0.6856927 0.2195404 -0.18302013 -1.0751019 -0.83902633 0.9008289 0.5804132 0.68899184
molecular 1.5233492 0.3545806 -0.2748295 -0.54490685 -0.7833753 -0.6973018 0.74766123 -0.5208456 -0.5176085 -1.8028072 0.5223394 -0.115944326 0.8469576 0.24625732 -0.107005626 -1.0489986 -0.8909362 0.8683918 0.68785334 0.83733743
associated 1.4907585 0.4119135 -0.30595264 -0.49453616 -0.7966316 -0.7456103 0.77511436 -0.5422375 -0.561846 -1.8190182 0.56128687 -0.11741209 0.79535174 0.26680323 -0.12218647 -1.095646 -0.92878264 0.92648554 0.65303147 0.79986984
potent 1.6045566 0.2872481 -0.25669518 -0.62275 -0.80047125 -0.76135904 0.7473674 -0.53397375 -0.48566857 -1.9062611 0.5303469 -0.08351889 0.9337296 0.22519945 -0.056163896 -0.9995675 -0.8651333 0.8114437 0.7534916 0.9441929
characterization 1.2670705 0.35700396 -0.28510675 -0.5883748 -0.85258967 -0.5559785 0.6758641 -0.5868783 -0.43007126 -1.8160772 0.522772 -0.11829184 0.610333 0.17460755 -0.18647717 -1.0466831 -0.6958169 0.83634615 0.48727822 0.6095318
synthesis 1.4154065 0.37227035 -0.2778649 -0.5877413 -0.8149694 -0.7070635 0.71956414 -0.51312363 -0.4646816 -1.7515947 0.51769006 -0.1023318 0.835607 0.24609737 -0.11632347 -1.0177492 -0.8267167 0.82753366 0.6333178 0.7714537
are 1.5565128 0.40034962 -0.30614558 -0.5201381 -0.7994414 -0.75631684 0.7887427 -0.51980084 -0.57234615 -1.7783247 0.54851776 -0.13930741 0.8727671 0.2567228 -0.17049463 -1.0904943 -0.9473571 0.93521625 0.7078792 0.8360241
between 1.3124357 0.35001943 -0.231266 -0.40531728 -0.6345401 -0.6302021 0.6496292 -0.4062586 -0.4550073 -1.4206742 0.46399054 -0.12261695 0.76337343 0.2441823 -0.07448223 -0.86831343 -0.7908397 0.7122095 0.6156421 0.7268938
high 1.5768777 0.4019077 -0.29780674 -0.53340334 -0.8210972 -0.7626535 0.7988216 -0.51231503 -0.5707683 -1.8289123 0.56527096 -0.13822033 0.9203656 0.2758773 -0.12152469 -1.0840997 -0.9986503 0.9350584 0.7126767 0.8682814
regulation 1.2697134 0.4386985 -0.3357234 -0.65351003 -1.0231894 -0.5498526 0.74473476 -0.72947115 -0.4963574 -2.1480136 0.6152921 -0.12351847 0.4900714 0.15039966 -0.30362734 -1.2937981 -0.7110001 1.0677478 0.4169201 0.5284306
DNA 1.3116657 0.34551 -0.27589786 -0.41854364 -0.7030321 -0.62299687 0.67322385 -0.43817368 -0.47066683 -1.5100791 0.48141077 -0.093093835 0.697711 0.20020857 -0.10267313 -0.9069143 -0.80780697 0.7759317 0.57613325 0.68809897
Inhibition 1.1359732 0.31663617 -0.22413737 -0.5161784 -0.7557225 -0.5023121 0.60102993 -0.54615456 -0.3772042 -1.6495748 0.46078792 -0.09426949 0.5505664 0.15130205 -0.16461603 -0.94340056 -0.6211803 0.7388485 0.4157818 0.57537574
breast 1.3552319 0.42736882 -0.3335627 -0.48219335 -0.8514121 -0.7418616 0.74534255 -0.5148748 -0.5602763 -1.8014083 0.5910578 -0.13090701 0.79653287 0.24957536 -0.17649066 -1.1113076 -0.8926537 0.9817791 0.5838871 0.71968824
agents 1.5000792 0.35032693 -0.32391182 -0.5411725 -0.82137907 -0.7272691 0.767255 -0.5323932 -0.51787686 -1.818679 0.55529666 -0.116210684 0.825516 0.22420762 -0.12640911 -1.0757235 -0.88762325 0.87887937 0.6761805 0.8175133
during 1.4257743 0.38204572 -0.293938 -0.5213758 -0.7867991 -0.69614047 0.7359071 -0.5121304 -0.5281212 -1.7794424 0.55830187 -0.12801708 0.80458146 0.24011777 -0.1410452 -1.0568055 -0.8828932 0.8976038 0.62860537 0.77579
derivatives 1.4102924 0.31627968 -0.24668261 -0.53198886 -0.7663833 -0.70970005 0.69658214 -0.49622345 -0.4561971 -1.6943841 0.5147261 -0.08427522 0.86610854 0.23341095 -0.06631671 -0.9282834 -0.80300695 0.7180339 0.6795284 0.8344707
not 1.4484748 0.36317566 -0.26671812 -0.4974281 -0.6809331 -0.66739196 0.69056576 -0.4700906 -0.5387532 -1.6246072 0.5083708 -0.11567639 0.82449186 0.28112623 -0.08343357 -0.951087 -0.8670127 0.7839331 0.69711095 0.8101052
production 1.2601086 0.41994873 -0.31925753 -0.5734883 -0.92676 -0.56251127 0.7191584 -0.64510876 -0.4780001 -1.9344735 0.56268597 -0.109798886 0.55714047 0.1716666 -0.2555439 -1.1837599 -0.7420701 0.96984285 0.4341077 0.5779772
mechanism 1.3762889 0.3611558 -0.2932146 -0.5139664 -0.7677995 -0.6585456 0.7055374 -0.51107013 -0.47983274 -1.7132248 0.48637664 -0.09180492 0.7375052 0.2021578 -0.14580627 -1.0218935 -0.8185501 0.82495135 0.60252136 0.72446823
induces 1.22123 0.44323972 -0.36876595 -0.4155519 -0.8210921 -0.6301728 0.7172122 -0.5392852 -0.55966496 -1.6677661 0.58397573 -0.104122646 0.58853906 0.23159492 -0.23674685 -1.1135051 -0.8524299 1.056062 0.47672963 0.5743183
oxidative 1.4213125 0.35728732 -0.32371 -0.51225424 -0.84299064 -0.65750086 0.7429387 -0.5400024 -0.5332198 -1.7582309 0.58140326 -0.10323758 0.7792206 0.22457749 -0.16370977 -1.0743026 -0.85632646 0.9178018 0.6246093 0.7397697
levels 1.3958721 0.39889336 -0.30215564 -0.4702348 -0.7670307 -0.68342876 0.72940254 -0.47398463 -0.51980764 -1.6540583 0.5361186 -0.14359708 0.7836337 0.24049304 -0.1265318 -1.0053066 -0.85528225 0.8777973 0.6265443 0.7545103
synthase 1.3889686 0.34293383 -0.25466818 -0.48371947 -0.7179846 -0.6755727 0.66979945 -0.47479612 -0.48812744 -1.631759 0.501293 -0.1150816 0.7934815 0.238576 -0.081339695 -0.944806 -0.8303309 0.79429996 0.6330097 0.7602814
muscle 1.4628909 0.40648445 -0.34835187 -0.49329638 -0.79640996 -0.7325535 0.764335 -0.52974594 -0.5652955 -1.7669481 0.55266285 -0.12655416 0.80507106 0.2662283 -0.14505385 -1.057707 -0.9255681 0.92512673 0.6468358 0.7788017
their 1.2804087 0.32787856 -0.26478297 -0.45978874 -0.7006442 -0.6593327 0.637655 -0.4266903 -0.4538037 -1.5470725 0.49472153 -0.10745747 0.74989706 0.20655008 -0.11757054 -0.90138173 -0.78136706 0.7426183 0.572411 0.71227807
exposure 1.3140402 0.34802288 -0.29334232 -0.42799762 -0.7339343 -0.6414788 0.6838499 -0.43464795 -0.48448136 -1.5480553 0.48744977 -0.11902949 0.72405255 0.21694934 -0.14328307 -0.9514412 -0.82724845 0.82355183 0.5977761 0.7056925
use 1.4042274 0.37071022 -0.27692762 -0.5039736 -0.7199443 -0.6789321 0.7058708 -0.5081736 -0.49824855 -1.7051135 0.5049325 -0.10643209 0.75463575 0.19436638 -0.1474014 -1.020353 -0.8256005 0.82305527 0.6066946 0.7389053
interaction 1.3277206 0.40294063 -0.31415293 -0.58461726 -0.92264897 -0.5864879 0.72671306 -0.63623303 -0.46517405 -1.9636139 0.5594141 -0.11752281 0.59214944 0.1748909 -0.21979733 -1.1522892 -0.7389415 0.93277663 0.47766754 0.6331076
proteins 1.3018751 0.3848256 -0.27786583 -0.44269574 -0.71336323 -0.67354083 0.6658072 -0.4632755 -0.46655858 -1.6583223 0.5265412 -0.18799254 0.7794472 0.27930304 -0.061689552 -0.9432893 -0.84528655 0.8158016 0.5962377 0.74631244
antagonists 1.432635 0.345116 -0.2552957 -0.5009605 -0.79586804 -0.7336565 0.69193184 -0.4773832 -0.4172729 -1.7363049 0.47970566 -0.16805863 0.9090042 0.2627945 -0.014780836 -0.9184053 -0.8295694 0.70686865 0.6702296 0.84813094
endothelial 1.4676179 0.44364065 -0.35666904 -0.50852805 -0.87282854 -0.7581734 0.79572546 -0.5489002 -0.5784102 -1.8830222 0.61788696 -0.113185905 0.79619145 0.25897032 -0.19857404 -1.1838213 -0.96156025 1.0171006 0.6414309 0.76903224
insulin 1.5989304 0.4427793 -0.35512587 -0.53173506 -0.8732033 -0.7810894 0.8043054 -0.56475717 -0.5920303 -1.9273945 0.6163921 -0.15615793 0.8811669 0.29136088 -0.1507666 -1.1664642 -1.0028042 1.014151 0.69150645 0.84830385
channel 1.3603604 0.33396474 -0.272482 -0.4777547 -0.7412273 -0.6658095 0.68560374 -0.46513322 -0.4913487 -1.6241819 0.49275932 -0.12555115 0.7803108 0.2253747 -0.09124427 -0.954485 -0.83914834 0.76721513 0.6224523 0.7498938
evaluation 1.104867 0.30303335 -0.26662695 -0.59097695 -0.81218475 -0.46181607 0.61703914 -0.5834608 -0.35954967 -1.7210432 0.46400747 -0.09088724 0.50819814 0.12838209 -0.19727643 -0.9925536 -0.5697991 0.7833306 0.40222403 0.531162
studies 1.3773264 0.37679967 -0.30822715 -0.50033563 -0.79800844 -0.6882791 0.69778085 -0.49297163 -0.48403233 -1.7127402 0.5216952 -0.12971272 0.7756737 0.23733406 -0.10829983 -1.0077785 -0.8188805 0.8150162 0.5886188 0.74608994
therapy 1.4147416 0.34451047 -0.2780175 -0.5141903 -0.7446219 -0.72483885 0.7232371 -0.47819564 -0.4915424 -1.6809528 0.5266847 -0.10173525 0.8285304 0.22862366 -0.10430832 -0.9853729 -0.8514616 0.80033106 0.64130527 0.79263073
action 1.2643337 0.44013655 -0.3313416 -0.7013068 -1.090603 -0.5082361 0.7517046 -0.77970064 -0.4569651 -2.227851 0.60601866 -0.10544601 0.448817 0.121475935 -0.34846562 -1.3391416 -0.63877624 1.0232863 0.3643658 0.52248466
release 1.5493042 0.40811807 -0.3002537 -0.53801495 -0.8333591 -0.8074606 0.7745993 -0.53277206 -0.565405 -1.9150826 0.5641325 -0.15492809 0.9048579 0.28655928 -0.0659548 -1.0779642 -0.9456914 0.90778655 0.69894445 0.8564529
genes 1.4925879 0.43917596 -0.37057033 -0.5330155 -0.88571835 -0.7755651 0.8001937 -0.562727 -0.5652621 -1.925719 0.62449265 -0.17197233 0.82519436 0.24845572 -0.12930939 -1.1451342 -0.9730571 0.9884511 0.6528604 0.7781184
hormone 1.4629698 0.38870257 -0.2948661 -0.501002 -0.799753 -0.7500671 0.73220676 -0.5043956 -0.5086675 -1.7596734 0.5406202 -0.15167426 0.85763437 0.28327802 -0.07613676 -0.9986184 -0.9003749 0.84057087 0.65871775 0.83195555
target 1.3500872 0.30151412 -0.25172928 -0.51504576 -0.6815778 -0.6268901 0.65653795 -0.4694247 -0.45373544 -1.5985155 0.4820575 -0.100570835 0.7657911 0.20914523 -0.09870693 -0.9242891 -0.78741306 0.7380741 0.613516 0.72422713
system 1.2925404 0.3464775 -0.27205095 -0.4452354 -0.7165989 -0.64460284 0.65656626 -0.44844648 -0.4774165 -1.5540241 0.489408 -0.12329826 0.7170878 0.21837477 -0.116465844 -0.952229 -0.8037079 0.7800889 0.5728094 0.70347387
tumor 1.382673 0.36589965 -0.29409134 -0.46948874 -0.7510764 -0.69237 0.7063722 -0.49201143 -0.5040846 -1.6884284 0.5242002 -0.115893476 0.7989393 0.24215871 -0.11921482 -0.9941681 -0.8708052 0.8614658 0.622471 0.7522538
In 1.1184772 0.2737451 -0.20755333 -0.34050512 -0.573701 -0.52256763 0.5465605 -0.33518723 -0.36326504 -1.2507056 0.39325327 -0.077148624 0.59827036 0.20627432 -0.08815299 -0.7670601 -0.6682394 0.64613646 0.47999778 0.62924707
beta 1.8224231 0.45836657 -0.35513395 -0.61199754 -0.9489617 -0.9054199 0.90442413 -0.5790933 -0.6328199 -2.0831852 0.6510372 -0.18370628 1.070312 0.3505893 -0.09342886 -1.2128773 -1.1095889 1.0127499 0.8392273 1.0170511
Characterization 1.1698654 0.3322118 -0.26391473 -0.54744005 -0.7900002 -0.5079221 0.62807244 -0.5487601 -0.391154 -1.6878737 0.48639566 -0.10725346 0.5597368 0.16235916 -0.17685667 -0.9679827 -0.63901144 0.77522063 0.44763488 0.56213564
changes 1.4676657 0.38976437 -0.3316413 -0.5088265 -0.8556898 -0.7154132 0.7611217 -0.5214471 -0.5481688 -1.8128332 0.5675911 -0.12689094 0.78777444 0.22636504 -0.16008937 -1.1029711 -0.9009222 0.92546445 0.62606424 0.7569926
epithelial 1.3500409 0.40847984 -0.335418 -0.4583956 -0.82633305 -0.7082309 0.7393656 -0.5134824 -0.52608126 -1.7534028 0.572498 -0.119609 0.72430694 0.23745616 -0.18628073 -1.0948217 -0.8862331 0.95062834 0.58016133 0.70277727
analysis 1.4048612 0.38340843 -0.31122822 -0.5274095 -0.80022866 -0.6897214 0.7300569 -0.512168 -0.49115315 -1.7408975 0.5262913 -0.11195294 0.77318454 0.22447778 -0.14349219 -1.0334412 -0.84286165 0.85930747 0.6129912 0.7391086
after 1.4193594 0.37818888 -0.2959833 -0.4797535 -0.80328804 -0.7097107 0.7203834 -0.4907225 -0.51996386 -1.7273116 0.52512974 -0.13167447 0.7736895 0.23727886 -0.12588951 -1.0230545 -0.8804876 0.8847257 0.6199249 0.75621146
agonist 1.3753324 0.3167923 -0.22519723 -0.47250172 -0.7368373 -0.7255558 0.6505459 -0.43695623 -0.39076415 -1.6460243 0.45256478 -0.16542485 0.9157692 0.2741411 0.012043198 -0.838028 -0.80468905 0.65193105 0.6682679 0.83766305
channels 1.3194215 0.34495395 -0.2768909 -0.4608546 -0.73179793 -0.64558005 0.67672056 -0.46505052 -0.4885954 -1.5832784 0.4920359 -0.12897164 0.74581975 0.21674955 -0.11706838 -0.9612419 -0.82098055 0.7942167 0.59127784 0.709631
acute 1.246568 0.33740503 -0.25917596 -0.41998848 -0.67968494 -0.630402 0.6338888 -0.42200187 -0.44367513 -1.4645227 0.4717414 -0.107908614 0.7061414 0.2127902 -0.10008849 -0.86317426 -0.76006883 0.71178 0.561671 0.6958477
serotonin 1.5068864 0.37495366 -0.28578523 -0.4980031 -0.8107302 -0.7696502 0.7218415 -0.50064516 -0.5059604 -1.8109828 0.5427503 -0.15983862 0.88743204 0.28832126 -0.062137898 -0.9746151 -0.9059143 0.8501537 0.6709402 0.86719346
modulation 1.2831701 0.40958133 -0.33193842 -0.6412883 -0.98633987 -0.54297113 0.7214585 -0.6976773 -0.47825927 -2.0647435 0.5879966 -0.10919213 0.5176007 0.1493037 -0.29028773 -1.2349457 -0.7037611 0.99308604 0.42803803 0.5615615
anti-inflammatory 1.508844 0.38241923 -0.29998824 -0.5598084 -0.8441874 -0.71678317 0.7616853 -0.53209525 -0.5166484 -1.8662953 0.5465174 -0.11651669 0.833871 0.23524578 -0.12379402 -1.0860795 -0.8948539 0.8930531 0.6531634 0.80761695
histamine 1.6437618 0.4399227 -0.30770966 -0.60074407 -0.94852287 -0.81456196 0.819387 -0.5777258 -0.5143639 -2.0228639 0.57792264 -0.19316012 0.99995995 0.2951382 -0.06771266 -1.1066016 -0.9744397 0.9003713 0.7260053 0.9491567
toxicity 1.5286773 0.45242095 -0.37838995 -0.5347359 -0.91558003 -0.76194185 0.81689286 -0.55969703 -0.5903847 -1.9022822 0.61698645 -0.13595851 0.8324054 0.2668214 -0.19278133 -1.1991165 -0.95932233 0.9986923 0.6522985 0.7968741
clinical 1.5664946 0.39449438 -0.31632954 -0.59830177 -0.87961847 -0.7314059 0.80472076 -0.57929236 -0.5258438 -1.9378088 0.58492976 -0.108174995 0.83372945 0.23484221 -0.16482599 -1.137213 -0.9074928 0.9067926 0.66392905 0.8234729
lung 1.2174112 0.34564853 -0.2869271 -0.4238741 -0.6959593 -0.6293362 0.6361727 -0.43898687 -0.44031203 -1.522914 0.4880477 -0.11504608 0.68256706 0.21069886 -0.117269896 -0.9407593 -0.78993875 0.8094494 0.53537446 0.64236933
functional 1.364164 0.3845457 -0.31565642 -0.55477977 -0.85195994 -0.6162537 0.71188706 -0.568288 -0.47592098 -1.8154787 0.5525119 -0.11861195 0.67126685 0.20115675 -0.18621224 -1.1038127 -0.78795135 0.903873 0.5500207 0.6661726
male 1.8207402 0.51058644 -0.4113652 -0.6203253 -0.9993449 -0.89317316 0.92562675 -0.61405015 -0.685706 -2.173881 0.6923852 -0.1491798 0.99675566 0.33599827 -0.17238306 -1.3396544 -1.1362308 1.1517264 0.80657077 0.97342056
Identification 1.203585 0.31990945 -0.26343924 -0.58534837 -0.8027417 -0.507844 0.6405998 -0.5689988 -0.406373 -1.7469708 0.4784792 -0.082220875 0.5510036 0.13036263 -0.20472299 -1.0248414 -0.6295202 0.7778067 0.45507368 0.5878484
sodium 1.4162127 0.35788634 -0.2919518 -0.4761191 -0.74396217 -0.6940096 0.71385556 -0.4874335 -0.49967685 -1.6583211 0.5121919 -0.13677454 0.8107634 0.24919473 -0.107763305 -0.9745661 -0.8723492 0.8140977 0.6334235 0.78780574
control 1.6254367 0.4428036 -0.35517785 -0.5494787 -0.9217042 -0.79231405 0.8259082 -0.5666596 -0.58277977 -1.967586 0.61566895 -0.15849024 0.89840657 0.28709492 -0.14499931 -1.1818705 -1.0038996 1.00025 0.7165044 0.8665246
activities 1.2029781 0.33529392 -0.25151926 -0.46292424 -0.7430404 -0.57783574 0.6416666 -0.48491845 -0.42147404 -1.5726951 0.47484475 -0.09688481 0.64690745 0.196467 -0.13634317 -0.9072851 -0.6835173 0.72291726 0.5121892 0.6428748
that 1.3629531 0.35092047 -0.2693261 -0.45553437 -0.7022876 -0.67118955 0.6729632 -0.4357425 -0.5040926 -1.5699539 0.48848993 -0.11023415 0.8035433 0.22998753 -0.08156543 -0.94943696 -0.8291479 0.7619713 0.61681837 0.75317675
diabetes 1.4679816 0.38947105 -0.30139214 -0.44077742 -0.78775406 -0.7665843 0.7527869 -0.47375068 -0.5221692 -1.6968153 0.552051 -0.15093365 0.7952414 0.2762207 -0.1189622 -1.0410074 -0.9137447 0.8844079 0.6342196 0.7800184
renal 1.8226386 0.52159834 -0.42978603 -0.64381593 -1.0739076 -0.8920626 0.9576023 -0.67363423 -0.6816712 -2.3148599 0.7102194 -0.16483526 0.9499235 0.3039621 -0.2231577 -1.409829 -1.1244279 1.1832464 0.775811 0.9305634
mechanisms 1.2716857 0.33829695 -0.2725248 -0.4659348 -0.7097022 -0.60603124 0.65002155 -0.46701518 -0.44986475 -1.5760797 0.449046 -0.086008824 0.68334186 0.18932252 -0.12601654 -0.9448868 -0.75669956 0.7684135 0.55761164 0.6682211
secretion 1.2492889 0.38688895 -0.3149329 -0.55441856 -0.8729869 -0.56599224 0.6803038 -0.58812946 -0.45603928 -1.8201164 0.53816026 -0.121619426 0.58220494 0.17676617 -0.21510217 -1.0971017 -0.7210478 0.9107371 0.4593494 0.57014376
primary 1.3255008 0.3805031 -0.30994487 -0.46615463 -0.75935256 -0.6561064 0.70546037 -0.48253474 -0.5015976 -1.6581109 0.533249 -0.1165843 0.7244044 0.23517862 -0.14331564 -0.9975063 -0.8363821 0.855907 0.5781313 0.7097689
inflammatory 1.475472 0.39019284 -0.304603 -0.54592645 -0.8394244 -0.7085709 0.75867194 -0.5311672 -0.53101516 -1.8531106 0.5544611 -0.1251192 0.80665165 0.24073774 -0.14439045 -1.0889318 -0.9014635 0.9070585 0.6240275 0.77199405
thyroid 1.3907019 0.3615351 -0.29567808 -0.47832423 -0.7602989 -0.69951296 0.7173996 -0.47206804 -0.5233051 -1.6952494 0.5435286 -0.13128746 0.79549915 0.24800575 -0.11595551 -1.0228891 -0.8858691 0.8374481 0.62697726 0.7494884
Novel 1.169522 0.24022882 -0.17942935 -0.43819633 -0.57462186 -0.5732378 0.5492412 -0.38077703 -0.36036256 -1.3475846 0.37349898 -0.07796572 0.6850494 0.19374223 -0.039377883 -0.7130857 -0.6598729 0.5713654 0.57840294 0.671663
resistance 1.6002611 0.46006137 -0.37426975 -0.5834638 -0.9685485 -0.825092 0.8479694 -0.5809721 -0.587427 -2.0633454 0.63434106 -0.14003766 0.87966853 0.2786161 -0.17865354 -1.2426463 -1.0119333 1.0526079 0.7034864 0.85029036
calcium 1.4235598 0.37359205 -0.28522155 -0.48289153 -0.75850886 -0.69554955 0.7329025 -0.49697375 -0.51708615 -1.6885592 0.5324614 -0.12848225 0.8068326 0.25300512 -0.12082935 -1.017203 -0.87866384 0.8497891 0.6373642 0.76187176
mediated 1.8015231 0.5249233 -0.39909515 -0.61234695 -1.0335577 -0.87539244 0.9797835 -0.70308834 -0.71806496 -2.309579 0.71764594 -0.15110348 0.93814003 0.33481708 -0.23534973 -1.4359782 -1.1416514 1.2228026 0.77201337 0.91200095
comparison 1.4867371 0.38328052 -0.3129086 -0.53325874 -0.83967716 -0.7216266 0.77042973 -0.53023475 -0.50728047 -1.8334377 0.5341865 -0.116466045 0.8075657 0.23995094 -0.12505472 -1.0707251 -0.8671232 0.86869794 0.63334817 0.80632913
- 1.0332763 0.21796544 -0.16451913 -0.3116892 -0.50533974 -0.60996664 0.52558994 -0.30463123 -0.34339315 -1.1366311 0.36960793 -0.056672975 0.7311943 0.27422476 0.06440828 -0.5826092 -0.6863642 0.43208405 0.50660396 0.6592736
damage 1.2330568 0.34155327 -0.2757779 -0.4134659 -0.6647465 -0.60189426 0.6416154 -0.414675 -0.46103403 -1.4519116 0.48069248 -0.11485416 0.6956937 0.22714409 -0.11331582 -0.8927329 -0.78439814 0.770494 0.56430644 0.6671215
plasma 1.3572725 0.36135325 -0.2812432 -0.44748 -0.7178589 -0.6583304 0.70800585 -0.43872672 -0.48004112 -1.5882324 0.5049198 -0.12445609 0.7661269 0.25385994 -0.112057924 -0.9566574 -0.8639408 0.8268641 0.6107332 0.73516655
blood 1.2539109 0.33121067 -0.26277527 -0.41899028 -0.64508015 -0.6136004 0.63223606 -0.399462 -0.44037002 -1.4295304 0.46231434 -0.10634629 0.70831615 0.2284904 -0.10443865 -0.85894185 -0.7807349 0.75682414 0.5499315 0.67654955
? 0.85563457 0.2141322 -0.17901587 -0.24175043 -0.41291085 -0.40523192 0.4238202 -0.28045475 -0.2664552 -0.9673004 0.29630426 -0.06698044 0.54345775 0.15761274 -0.056882627 -0.5757302 -0.51021385 0.49612072 0.38218796 0.4809727
involved 1.285268 0.37699398 -0.29186985 -0.4349583 -0.72090447 -0.6218597 0.680531 -0.4507958 -0.5033475 -1.5607177 0.48801312 -0.13504785 0.68851596 0.21808116 -0.1553963 -0.97210526 -0.81590235 0.84682304 0.5670834 0.67529976
attenuates 1.1878585 0.32517427 -0.25462288 -0.38331372 -0.63714236 -0.5803824 0.60635734 -0.39490277 -0.43406168 -1.3932571 0.44801 -0.10440123 0.6637285 0.21238463 -0.10801465 -0.849738 -0.74244756 0.7282737 0.5305065 0.64012223
biological 1.4891702 0.3619175 -0.2883268 -0.56877303 -0.80603456 -0.70884395 0.7583358 -0.5205746 -0.4897563 -1.770644 0.5297678 -0.10006855 0.8594857 0.23428772 -0.10568439 -1.0280906 -0.85680586 0.8154917 0.67077816 0.81995624
hepatic 1.610856 0.47824794 -0.3787334 -0.57939476 -0.96462226 -0.77962416 0.85842955 -0.6218716 -0.6085217 -2.0494692 0.64439285 -0.12247035 0.83554775 0.26173076 -0.21860161 -1.2732599 -0.9900496 1.10535 0.6702876 0.8122758
syndrome 1.3134221 0.35355228 -0.25954267 -0.44341522 -0.68680716 -0.6770862 0.67209655 -0.4378818 -0.4728794 -1.4974071 0.48253754 -0.124509424 0.7870113 0.24564287 -0.0673489 -0.8996177 -0.8268962 0.7026216 0.59750664 0.7560252
enzymes 1.4951508 0.39689288 -0.3076532 -0.5196134 -0.8241083 -0.7358871 0.7693801 -0.5215283 -0.54294294 -1.7993104 0.55126375 -0.13551311 0.8383969 0.26320392 -0.13031045 -1.0784398 -0.9067129 0.8849877 0.6660352 0.82910246
injury 1.1446086 0.3341794 -0.2717701 -0.38425308 -0.6228754 -0.5646251 0.5993849 -0.401346 -0.4545327 -1.3882723 0.45828453 -0.08916163 0.6303849 0.20239936 -0.12777928 -0.8652411 -0.7382829 0.75085104 0.510077 0.6198516
mutation 1.2430669 0.3830946 -0.30944487 -0.6565399 -0.9412725 -0.5068793 0.71321595 -0.6831839 -0.45328858 -2.0076506 0.54319257 -0.1065026 0.49149004 0.13238679 -0.29268733 -1.2081327 -0.65608495 0.95031077 0.3989765 0.520947
oxidase 1.5200654 0.3897741 -0.33229437 -0.5229335 -0.8234153 -0.7346 0.76257783 -0.5347759 -0.55745107 -1.8565152 0.5782849 -0.1364483 0.8510725 0.24591036 -0.11606871 -1.1016369 -0.9180976 0.9322218 0.6651828 0.82056093
enhances 1.3226807 0.35194764 -0.30153218 -0.4468725 -0.756846 -0.68125635 0.687585 -0.46727642 -0.5017056 -1.6292875 0.53567916 -0.11039357 0.7526707 0.23107493 -0.1193274 -0.98905665 -0.8372861 0.8624257 0.60576135 0.7189836
chronic 1.5996417 0.44508055 -0.3558145 -0.55844325 -0.92621017 -0.77879864 0.83840036 -0.56796664 -0.588208 -1.9524939 0.61189973 -0.14096762 0.86935675 0.2539968 -0.18378212 -1.1784396 -0.97068137 0.98891336 0.6903029 0.83866817
isolated 1.6815223 0.4670153 -0.36159977 -0.56647044 -0.9443068 -0.82403284 0.88272506 -0.61534303 -0.6406498 -2.09074 0.66435045 -0.14212035 0.8900682 0.3133909 -0.17571785 -1.2575415 -1.0555851 1.0867217 0.7218612 0.87417805
administration 1.2449862 0.36642724 -0.28646812 -0.54217786 -0.8420674 -0.56002027 0.6612563 -0.5635866 -0.43739486 -1.7779375 0.5129982 -0.11736252 0.6000363 0.18361989 -0.19763775 -1.0418385 -0.7139232 0.84810704 0.47128162 0.6058809
+ 1.0910227 0.26744467 -0.13665402 -0.28572854 -0.54600126 -0.7111709 0.48649234 -0.31255704 -0.37117082 -1.2554766 0.3451489 -0.09384211 0.7545625 0.23989898 0.04693677 -0.6211957 -0.6813789 0.51336765 0.56496596 0.7783476
protects 1.3452777 0.41569865 -0.30605143 -0.47237256 -0.77504665 -0.6721966 0.71117485 -0.52045673 -0.48202816 -1.7388753 0.5437707 -0.15759452 0.7478303 0.25196832 -0.13277806 -1.0098895 -0.8431641 0.86466813 0.57240474 0.73785067
I 1.0190417 0.30172414 -0.16229922 -0.3330715 -0.4737927 -0.5449854 0.50184846 -0.34165323 -0.3713556 -1.1617932 0.36089182 -0.09197255 0.66304886 0.24246226 -0.018590396 -0.66833174 -0.613099 0.5313711 0.4478529 0.6126915
structure 1.4285133 0.37595728 -0.2894785 -0.5292088 -0.78841454 -0.675847 0.7224135 -0.502879 -0.47736466 -1.7266785 0.52510005 -0.13267675 0.77317744 0.22409375 -0.11014192 -1.0047493 -0.83281714 0.8457085 0.62277776 0.7649235
reduces 1.244158 0.3628003 -0.27749997 -0.40636498 -0.7119743 -0.6328785 0.6564697 -0.4524102 -0.5047321 -1.5386099 0.49594042 -0.11790973 0.6833426 0.23355131 -0.116989926 -0.9463092 -0.8047525 0.83773106 0.54979175 0.6561777
amino 1.6922574 0.45068464 -0.30223253 -0.5536737 -0.90987927 -0.86817956 0.83893865 -0.5472783 -0.56133527 -1.9516717 0.5909679 -0.16656624 1.0171953 0.3140284 -0.05225688 -1.1023192 -1.0128658 0.9067333 0.7703483 1.0024252
responses 1.3764049 0.39734977 -0.32009965 -0.49756685 -0.82696795 -0.6818747 0.73630387 -0.51222855 -0.5308456 -1.7744404 0.56053495 -0.13652182 0.7113405 0.22936799 -0.18046275 -1.0978016 -0.85453737 0.9182579 0.5888599 0.710856
interactions 1.3027551 0.36979747 -0.28642175 -0.52731055 -0.8266346 -0.5898014 0.6894537 -0.5565078 -0.4512287 -1.7809322 0.52279776 -0.10904993 0.6330912 0.17966543 -0.17147747 -1.0438281 -0.73969084 0.8467771 0.5181476 0.6578791
or 1.5590171 0.36816004 -0.23575257 -0.5064622 -0.7996317 -0.7399044 0.72832155 -0.4858989 -0.5099263 -1.802493 0.50873584 -0.15145043 0.9143011 0.27598172 -0.06248688 -1.0306765 -0.9157685 0.8821521 0.7076067 0.8752037
transcription 1.2622049 0.36230135 -0.29393157 -0.5191604 -0.8130514 -0.5899222 0.6828531 -0.5465353 -0.46083102 -1.7673004 0.524082 -0.123069264 0.61945873 0.20095196 -0.1783701 -1.0486693 -0.75648963 0.87369114 0.4907063 0.62192756
but 1.2864276 0.3125718 -0.23167615 -0.41442326 -0.61908704 -0.6319561 0.6046054 -0.3806462 -0.42278722 -1.3811275 0.42999175 -0.10087554 0.7433334 0.23061995 -0.059566192 -0.84096605 -0.782835 0.6791863 0.5881656 0.7118098
development 1.3240349 0.33357754 -0.2784403 -0.5075035 -0.73147315 -0.6323024 0.67953455 -0.4780874 -0.4666816 -1.6110485 0.4935598 -0.10965917 0.7180309 0.19936763 -0.11725179 -0.9379884 -0.7743101 0.7869103 0.5800886 0.71521807
C 0.9998665 0.28238177 -0.18945745 -0.36711827 -0.4712581 -0.49860883 0.46969587 -0.3280514 -0.34208837 -1.1447265 0.37632716 -0.12497798 0.6001253 0.16960049 -0.07284076 -0.6880013 -0.5879822 0.5712961 0.45093566 0.5089114
allosteric 1.6008765 0.41835648 -0.3335115 -0.5616141 -0.88388973 -0.777254 0.8084456 -0.5571366 -0.5640027 -1.9347419 0.5950225 -0.14390959 0.89468765 0.26570338 -0.1378152 -1.1325444 -0.959879 0.942532 0.7125156 0.8544129
complex 1.3874559 0.34910998 -0.28369087 -0.4883694 -0.7420701 -0.68410516 0.724531 -0.47907218 -0.48681405 -1.683637 0.5067204 -0.12981683 0.78231364 0.22794698 -0.10034223 -0.98162776 -0.8442978 0.8040948 0.6137295 0.7747739
inhibitory 1.4394506 0.31223804 -0.21670532 -0.5262914 -0.738122 -0.6960813 0.6595936 -0.5003614 -0.4352663 -1.7652107 0.4787243 -0.12459862 0.8810234 0.22993256 -0.02268995 -0.9054398 -0.8155459 0.7187759 0.64130235 0.8724614
profile 1.2930313 0.3758372 -0.30387476 -0.45892483 -0.7378392 -0.6695174 0.6994724 -0.4832752 -0.500653 -1.6232203 0.51832813 -0.12275531 0.75205153 0.24523948 -0.112510175 -0.9707304 -0.82570964 0.8128265 0.56138825 0.7286655
Pharmacological 1.3423524 0.32908222 -0.2576271 -0.5145434 -0.74008423 -0.6576971 0.6902261 -0.4778235 -0.44015986 -1.6099292 0.4779421 -0.09263516 0.78149015 0.21207541 -0.099237405 -0.9230754 -0.7791889 0.71820337 0.6002525 0.756112
monoamine 1.5643469 0.4316141 -0.311997 -0.5624062 -0.8955528 -0.7766968 0.7838389 -0.5591738 -0.5156294 -1.9379945 0.5690131 -0.17617723 0.9240027 0.27143657 -0.08834049 -1.0684748 -0.93517435 0.876053 0.6824514 0.88983464
oxide 1.8275359 0.47711 -0.39041138 -0.6364428 -1.0038496 -0.88105184 0.93538547 -0.6434671 -0.67615855 -2.1920857 0.697109 -0.15306489 1.0476763 0.31318375 -0.15683666 -1.3597974 -1.1615653 1.1303893 0.82788783 0.9932797
pharmacology 1.3143729 0.3310016 -0.25715566 -0.49396104 -0.7355258 -0.65813303 0.6831997 -0.4607339 -0.44304878 -1.5882916 0.47756147 -0.10425005 0.7765112 0.21516496 -0.09742396 -0.91574836 -0.77992254 0.7234857 0.5980305 0.74402905
Comparison 1.2228754 0.31624195 -0.25943813 -0.44188473 -0.6885004 -0.59240025 0.62772083 -0.43765783 -0.42064995 -1.5062766 0.43828228 -0.09653028 0.66219646 0.20172043 -0.10672131 -0.8858762 -0.7157274 0.71055263 0.5172186 0.6641039
recombinant 1.2562158 0.33148816 -0.2567597 -0.43344545 -0.69378597 -0.6344743 0.6379125 -0.43683815 -0.43252447 -1.5308573 0.45872733 -0.10165505 0.72849214 0.21533322 -0.07444803 -0.87628967 -0.7667582 0.7429673 0.5625876 0.69642824
Molecular 1.3143265 0.31408533 -0.2504839 -0.46108344 -0.67344177 -0.60032505 0.6468726 -0.4470181 -0.44867074 -1.5453209 0.45014533 -0.10252084 0.7275282 0.21294741 -0.09591228 -0.9049472 -0.7623049 0.7515566 0.5846348 0.7200119
domain 1.5090488 0.41063413 -0.29740977 -0.49550635 -0.81262773 -0.75425416 0.7534273 -0.51312155 -0.5258448 -1.7924324 0.5533671 -0.14478336 0.8597741 0.28630084 -0.0890853 -1.0528495 -0.9338173 0.89981943 0.67037344 0.83078784
agonists 1.3377054 0.3162669 -0.23675354 -0.4673147 -0.7284332 -0.6909552 0.6477759 -0.43712756 -0.40289748 -1.6079413 0.44855428 -0.15364002 0.85880905 0.25174388 -0.011854717 -0.8524186 -0.78739136 0.6643358 0.63976794 0.7954011
norepinephrine 1.3713192 0.37995136 -0.3000152 -0.48145452 -0.7833197 -0.696532 0.71135694 -0.4978535 -0.47101104 -1.6863924 0.5126942 -0.1494184 0.8184662 0.24968876 -0.09011411 -0.97627866 -0.8441537 0.7966858 0.60697573 0.763846
Human 1.0366732 0.29953653 -0.24752839 -0.35735977 -0.61168766 -0.5482679 0.5535883 -0.3589297 -0.41157138 -1.331788 0.42557606 -0.1050621 0.6216538 0.18532471 -0.09267489 -0.7911592 -0.6708653 0.6853191 0.47286364 0.56193995
antioxidant 1.4838504 0.3757082 -0.31999037 -0.55165094 -0.86138356 -0.6782214 0.74835 -0.55281514 -0.50862163 -1.8490167 0.552186 -0.12653565 0.8027296 0.21584271 -0.1426552 -1.0883763 -0.8723021 0.89888614 0.6287177 0.78710055
inhibit 1.1594096 0.24392757 -0.15496592 -0.4191354 -0.57977724 -0.5609749 0.51385385 -0.41567758 -0.34456685 -1.4240155 0.37612832 -0.10020112 0.7126441 0.18850355 -0.009187758 -0.7150272 -0.6560394 0.56375563 0.51353985 0.7115309
analogues 1.3038347 0.34122646 -0.2694775 -0.45905527 -0.7075846 -0.64427286 0.64458543 -0.4548786 -0.4406709 -1.564553 0.46217555 -0.10266808 0.7474133 0.2130814 -0.0863694 -0.89834565 -0.77153116 0.74125904 0.58870775 0.7143532
neurons 1.4983214 0.4049416 -0.3392702 -0.5035946 -0.8467533 -0.73922014 0.79357314 -0.52386796 -0.56449133 -1.8247818 0.5804778 -0.12692027 0.8293075 0.25110787 -0.14524597 -1.1213427 -0.94245344 0.95239794 0.6678339 0.7921181
acetylcholinesterase 1.4504632 0.3774779 -0.2934693 -0.51393735 -0.7825703 -0.73418105 0.73233736 -0.4956042 -0.5024315 -1.7526823 0.5342765 -0.12808493 0.8356176 0.24884224 -0.088048816 -0.9978157 -0.8677075 0.8316718 0.6521378 0.8079808
bone 1.7974018 0.4817599 -0.37342253 -0.61716485 -0.99976885 -0.9168451 0.90037155 -0.6200356 -0.62963593 -2.1775026 0.66661066 -0.17000394 1.0570775 0.33221218 -0.09755945 -1.2529143 -1.1149336 1.0348029 0.78076476 1.0249536
formation 1.4304832 0.42521083 -0.34412798 -0.6874154 -1.0142947 -0.6111944 0.7881344 -0.7066438 -0.50509775 -2.1218083 0.6052468 -0.101955675 0.6295909 0.1725922 -0.26297408 -1.2669075 -0.7849141 1.0153986 0.5147384 0.6536192
Evaluation 1.0502974 0.30696097 -0.25445202 -0.5584687 -0.79026777 -0.42872593 0.5906887 -0.5614776 -0.34888273 -1.6539837 0.45047143 -0.079916306 0.46598625 0.12045795 -0.2155871 -0.96410084 -0.5441159 0.76669085 0.36541426 0.48516577
nitric 1.7327144 0.46752056 -0.3766208 -0.5687251 -0.95646006 -0.8506706 0.86961 -0.5959786 -0.6395651 -2.040585 0.64735764 -0.13168956 0.9590679 0.2924475 -0.18470567 -1.2508975 -1.0624523 1.0459648 0.7711816 0.910867
suppression 1.255996 0.42228782 -0.34602213 -0.5398874 -0.89282703 -0.60146236 0.72603863 -0.58031607 -0.5348103 -1.8728366 0.5754423 -0.14100745 0.58323145 0.20090826 -0.25177675 -1.1937298 -0.8211578 1.021955 0.46940345 0.5731609
serum 1.2826655 0.3226102 -0.24511346 -0.41627488 -0.663988 -0.6259157 0.6252287 -0.40092945 -0.44885865 -1.4702964 0.45454174 -0.119024895 0.765586 0.24779347 -0.07272646 -0.8610485 -0.79479355 0.7250858 0.57924056 0.7231915
humans 1.1392515 0.36277255 -0.29790583 -0.40256038 -0.7493043 -0.6090714 0.63538754 -0.43835187 -0.47071323 -1.545796 0.5008514 -0.12780209 0.6359173 0.20207906 -0.171833 -0.9483606 -0.7492201 0.84806746 0.49429637 0.5753918
-- 0.92852515 0.23836403 -0.17717311 -0.33151945 -0.4633531 -0.4325925 0.45261434 -0.2874689 -0.34242386 -1.0546806 0.3132558 -0.061876953 0.57923025 0.17958419 -0.078493804 -0.6127313 -0.5913981 0.5142402 0.44118288 0.5059497
enzyme 1.4069263 0.36125287 -0.27568808 -0.46935755 -0.7380298 -0.6824983 0.7110769 -0.46899062 -0.4959538 -1.6349955 0.50794196 -0.12535171 0.80915666 0.25949797 -0.10293598 -0.9652996 -0.8532844 0.7963223 0.6408696 0.7984366
into 1.1395361 0.32337692 -0.25441697 -0.38101062 -0.62279475 -0.5378922 0.58077615 -0.40051022 -0.43365106 -1.3819124 0.44021034 -0.11764943 0.6076537 0.180045 -0.109758876 -0.8353886 -0.71776336 0.7420903 0.4823347 0.6132212
induction 1.1787581 0.43718186 -0.35350227 -0.55731136 -0.9573947 -0.51719517 0.71364194 -0.66335344 -0.48512655 -1.9296812 0.575094 -0.10167009 0.46484455 0.15283242 -0.3121347 -1.2323815 -0.7074347 1.0456079 0.367405 0.48993978
death 1.2664477 0.3504092 -0.27078503 -0.44597566 -0.72205895 -0.62713635 0.66276926 -0.4586008 -0.48182362 -1.5465302 0.478672 -0.106372125 0.69236475 0.21947645 -0.13935558 -0.9651906 -0.7993352 0.8128068 0.5568527 0.65693635
pathways 1.2208631 0.352783 -0.27742535 -0.45206434 -0.73321295 -0.6005155 0.6921218 -0.4834289 -0.49419942 -1.6084579 0.5017461 -0.124475755 0.63836044 0.19707912 -0.1773155 -1.026208 -0.7863697 0.86003834 0.5114652 0.6109017
two 1.1277845 0.30082318 -0.23512861 -0.36106607 -0.57419235 -0.5546982 0.5658086 -0.37144074 -0.4027439 -1.2774311 0.3975938 -0.100441694 0.67258936 0.20626116 -0.06939796 -0.76795036 -0.71938926 0.6270196 0.51738274 0.6259403
3 1.069586 0.2758923 -0.17119694 -0.32180566 -0.5511942 -0.53631413 0.5283264 -0.35752153 -0.3619833 -1.1402935 0.37492657 -0.123948306 0.6216837 0.17192315 -0.03324084 -0.632154 -0.63771737 0.5615 0.46952236 0.6336837
compounds 1.3138282 0.32828927 -0.2586386 -0.46098784 -0.679478 -0.628249 0.6597653 -0.43716472 -0.45721537 -1.5257094 0.46231106 -0.10232962 0.7439832 0.22487573 -0.08796115 -0.8888829 -0.77529216 0.73242533 0.59253085 0.7262989
prostate 1.7176498 0.5215952 -0.38102415 -0.60153955 -1.0227414 -0.8932136 0.91583633 -0.6459253 -0.6557405 -2.2261748 0.7017127 -0.17574817 0.97227454 0.3011829 -0.18260878 -1.3287034 -1.0838788 1.1502848 0.7304896 0.9190414
Differential 1.2684627 0.326474 -0.2824678 -0.48248827 -0.7076636 -0.5998226 0.6720441 -0.46396855 -0.45165542 -1.5716645 0.4793673 -0.08797471 0.6636385 0.19509324 -0.14806685 -0.9467386 -0.7600924 0.7840925 0.5317524 0.6613758
modulates 1.4000105 0.3927422 -0.29763865 -0.49371952 -0.80717325 -0.67693335 0.71192205 -0.5190624 -0.52028126 -1.7762191 0.5547016 -0.13005364 0.7411766 0.23686075 -0.14796394 -1.0581632 -0.8677194 0.9003631 0.5949308 0.7285881
therapeutic 1.480586 0.37207708 -0.2999076 -0.5463971 -0.7937337 -0.71807873 0.74928236 -0.5128777 -0.5159515 -1.7786233 0.54573935 -0.10668368 0.8286652 0.22873554 -0.120954454 -1.0698668 -0.88730174 0.8688435 0.661196 0.8162205
suppresses 1.3331656 0.4069169 -0.32268706 -0.4869509 -0.80135536 -0.6737237 0.71926826 -0.5060453 -0.53198874 -1.7439166 0.5615874 -0.13130246 0.70366776 0.23825893 -0.17551465 -1.0889102 -0.86989826 0.94173956 0.5684458 0.6800675
healthy 1.1444076 0.30750245 -0.2358059 -0.36329758 -0.58959574 -0.58239824 0.574681 -0.35303208 -0.43194783 -1.3121831 0.41279095 -0.11143106 0.6730502 0.20921999 -0.0781357 -0.7909365 -0.7191449 0.6634509 0.5427826 0.63348365
cortex 1.2679595 0.3377999 -0.26950783 -0.422198 -0.7164715 -0.61592704 0.6495927 -0.43113276 -0.47139403 -1.5173725 0.48185393 -0.12626994 0.70486337 0.22091432 -0.11372442 -0.92821705 -0.7773754 0.76040703 0.5577573 0.68158835
implications 1.2855206 0.3367934 -0.27405423 -0.55646646 -0.79763776 -0.5650992 0.6826386 -0.5390274 -0.43497694 -1.738088 0.49660695 -0.08808642 0.62964463 0.158283 -0.19499692 -1.0411739 -0.7132238 0.8131136 0.52832615 0.6444467
increase 1.3259398 0.37157777 -0.28453287 -0.44748166 -0.71548855 -0.67570156 0.66493005 -0.4711895 -0.4932974 -1.6197143 0.5008578 -0.13502109 0.72077805 0.2315292 -0.089843996 -0.9520142 -0.81172746 0.8285964 0.58773893 0.7093826
mRNA 1.2239524 0.31607044 -0.25499442 -0.41161215 -0.6080521 -0.59051394 0.6121886 -0.38964817 -0.4391928 -1.3792462 0.44951075 -0.12551893 0.69118327 0.21961442 -0.08105834 -0.8363831 -0.76515925 0.71988904 0.5679529 0.6654571
vascular 1.4370883 0.36856472 -0.29498172 -0.48699838 -0.79163176 -0.69569695 0.7312983 -0.5041468 -0.52711827 -1.7305365 0.5272777 -0.12304188 0.78671414 0.24697945 -0.13129078 -1.0467944 -0.8747826 0.87445104 0.62708753 0.7745127
active 1.5308977 0.37885156 -0.2918266 -0.61850834 -0.90486544 -0.6976199 0.788559 -0.6232998 -0.51457906 -2.0015981 0.5977759 -0.09926752 0.82982427 0.23263957 -0.17140569 -1.1176275 -0.82989347 0.87506753 0.67227507 0.8406819
risk 1.1354979 0.2953942 -0.23361579 -0.37501973 -0.5876106 -0.5478326 0.56987196 -0.3753254 -0.40241796 -1.2989907 0.3989435 -0.093687534 0.649478 0.21711712 -0.072358035 -0.77156967 -0.68846166 0.65843385 0.50469166 0.62242085
cardiac 1.3588016 0.36131677 -0.28708658 -0.44990718 -0.73058575 -0.6552911 0.6988477 -0.463768 -0.49730605 -1.5974935 0.5128808 -0.11937444 0.74951893 0.24705617 -0.13900903 -0.994693 -0.850466 0.829411 0.58963925 0.7096528
cytochrome 1.354505 0.36683604 -0.29073066 -0.45388648 -0.72173285 -0.6757567 0.6942949 -0.46808907 -0.49560434 -1.597756 0.5150845 -0.122708835 0.78108674 0.24752791 -0.11049409 -0.95757544 -0.8403449 0.8010486 0.60356766 0.7455741
weight 1.1980969 0.3112916 -0.22727273 -0.39289433 -0.591533 -0.58628815 0.60310346 -0.38729495 -0.41629878 -1.3538749 0.44061813 -0.106121376 0.7086157 0.2112265 -0.06445561 -0.80464417 -0.7403088 0.6839622 0.566975 0.67336625
peptide 1.6612198 0.41481963 -0.3043167 -0.5712517 -0.8639711 -0.8271531 0.8175008 -0.52847415 -0.55456114 -1.9219989 0.5883879 -0.15778434 0.9698134 0.28664753 -0.075224645 -1.098265 -1.0092704 0.9149073 0.77465373 0.953138
cycle 1.6571295 0.4585728 -0.35900614 -0.59283024 -0.91550046 -0.8066814 0.8710737 -0.5879763 -0.5990483 -2.0150907 0.6444288 -0.13714315 0.91672206 0.30035827 -0.15585102 -1.2005715 -1.0303422 1.0171349 0.7452619 0.88029635
differentiation 1.3132017 0.3850929 -0.31991264 -0.5864903 -0.8694745 -0.5857719 0.7334247 -0.5974567 -0.4869781 -1.8644104 0.5506589 -0.1017218 0.608392 0.17305395 -0.239644 -1.1372421 -0.75344044 0.91368014 0.49428362 0.6198945
4 0.96932596 0.22618562 -0.17345724 -0.2887293 -0.46037003 -0.50607586 0.47625348 -0.285787 -0.31395423 -1.0753492 0.35322937 -0.11195238 0.5869475 0.19575766 0.00222009 -0.6363203 -0.6220597 0.5272242 0.4744305 0.55371535
transport 1.3112962 0.36470792 -0.28070578 -0.4391413 -0.7565833 -0.67037344 0.6819953 -0.4658677 -0.4930257 -1.644282 0.5173748 -0.14516322 0.71761787 0.24341752 -0.119937114 -0.97265756 -0.8464124 0.8499173 0.5707981 0.7038838
specific 1.5774382 0.42233542 -0.30764022 -0.5626898 -0.8396865 -0.7325246 0.8013354 -0.5520201 -0.5609337 -1.8821166 0.58096033 -0.13046616 0.85969174 0.26254067 -0.15832661 -1.1382818 -0.94600147 0.9386846 0.6791264 0.84093595
diabetic 1.7184111 0.4541961 -0.35938153 -0.55751264 -0.93845963 -0.85659575 0.8720601 -0.5838142 -0.60125357 -2.0190635 0.64439076 -0.1567744 0.92029035 0.29672647 -0.1639439 -1.239883 -1.0382216 1.0326058 0.7401162 0.9065411
agent 1.7509929 0.4027942 -0.36206195 -0.6709238 -0.9625603 -0.8354881 0.8814345 -0.6445331 -0.6035724 -2.1631293 0.6555986 -0.13775499 0.96239436 0.2518059 -0.1471139 -1.2552763 -1.0244066 1.025764 0.7964024 0.9651693
Discovery 1.1374828 0.28120112 -0.21666047 -0.40311912 -0.57732385 -0.55721235 0.57009447 -0.37085152 -0.37734494 -1.3171356 0.40054053 -0.07126351 0.65233785 0.19222334 -0.07044142 -0.75961316 -0.6733242 0.5983384 0.5183766 0.645066
murine 1.6033202 0.45035633 -0.3433635 -0.5994352 -0.9355768 -0.7957577 0.84077364 -0.5872648 -0.5540297 -2.0296726 0.6098988 -0.18285134 0.9495953 0.27335715 -0.1126391 -1.1515003 -0.9882497 0.955312 0.70002156 0.87506765
5-HT 1.4133557 0.36321187 -0.23051319 -0.43548736 -0.7404325 -0.7783765 0.67912185 -0.42046568 -0.468866 -1.6228213 0.50668323 -0.18460397 0.90207857 0.31521577 0.010645639 -0.8827265 -0.8922436 0.7360754 0.6985417 0.8556202
surface 1.1532507 0.30746874 -0.2328425 -0.39348432 -0.6175764 -0.56917536 0.5991887 -0.4001419 -0.42293 -1.3860346 0.4239329 -0.10263164 0.6586499 0.20517144 -0.094894245 -0.83431244 -0.7408326 0.6791383 0.5238028 0.63309675
D 0.963525 0.22735265 -0.12700114 -0.28169572 -0.46620607 -0.5214844 0.47214705 -0.26785666 -0.34243894 -1.0976338 0.3647676 -0.1171634 0.6006732 0.20526028 0.03529305 -0.63208705 -0.60549486 0.5054615 0.4464198 0.5588263
synthetase 1.3674437 0.34440252 -0.26439083 -0.5090784 -0.73197573 -0.67348707 0.67724633 -0.47842455 -0.47113374 -1.6621363 0.49762312 -0.10608422 0.79184836 0.23492241 -0.07306668 -0.93850195 -0.8148462 0.78739965 0.6170196 0.7514905
sites 1.650201 0.46953243 -0.34898385 -0.57120526 -0.92163074 -0.82099587 0.8685803 -0.5733985 -0.6007203 -2.0062833 0.63259643 -0.14969349 0.94575375 0.28841698 -0.16535686 -1.2133104 -1.0323685 1.0197912 0.7182166 0.8821417
Selective 1.3565094 0.31083328 -0.23282225 -0.53146726 -0.7262014 -0.6206324 0.66392124 -0.49766448 -0.4346023 -1.6612844 0.4811072 -0.0941568 0.77004194 0.19798775 -0.10173971 -0.91360927 -0.73963314 0.7299491 0.62182987 0.76126224
regulatory 1.3454833 0.38622105 -0.27671295 -0.50547016 -0.8082351 -0.661694 0.6939743 -0.5272482 -0.5040302 -1.8110733 0.54268944 -0.13542901 0.7220302 0.22984925 -0.12107702 -1.0399817 -0.8315967 0.89994967 0.57845294 0.7076664
heart 1.4125644 0.3723078 -0.28816712 -0.45065612 -0.7414831 -0.70028716 0.6990462 -0.46012458 -0.5122932 -1.6139123 0.5121907 -0.122542724 0.8025597 0.2500204 -0.117743924 -0.9788672 -0.8612388 0.8339097 0.62782544 0.76058954
reductase 1.3332584 0.34422818 -0.2553214 -0.44689324 -0.7067462 -0.66070014 0.6653007 -0.46051902 -0.48938206 -1.607726 0.49240178 -0.12639081 0.757475 0.23486204 -0.073201574 -0.9405176 -0.81135917 0.7987544 0.59981954 0.7283848
improves 1.3301483 0.35306376 -0.2750449 -0.4540099 -0.7016235 -0.6651345 0.6757835 -0.44539192 -0.46074295 -1.5576143 0.48392498 -0.11141257 0.75920933 0.23529847 -0.08638389 -0.9304078 -0.82812387 0.76591486 0.60231245 0.72887355
regulates 1.3629395 0.42122447 -0.29720813 -0.49733678 -0.8311913 -0.67070425 0.72670984 -0.5453546 -0.5313956 -1.8401014 0.5740814 -0.14797188 0.7044664 0.23844351 -0.16084267 -1.1060842 -0.85876465 0.9693452 0.5786862 0.6833896
cholesterol 1.5785835 0.41332978 -0.32565638 -0.55533725 -0.8710789 -0.76733387 0.7991533 -0.5444478 -0.5542847 -1.8984494 0.5890774 -0.14108661 0.87659407 0.2575392 -0.13275538 -1.100795 -0.9435573 0.9408473 0.7045017 0.85474414
dehydrogenase 1.5809735 0.412749 -0.31293514 -0.53419393 -0.83736664 -0.8051323 0.7937317 -0.52827954 -0.56900406 -1.8765583 0.5876489 -0.1439501 0.91985935 0.28605148 -0.08539343 -1.0880011 -0.95302117 0.90886617 0.71550345 0.8818523
Role 1.3924012 0.36305547 -0.2936323 -0.5012119 -0.72850627 -0.66211474 0.7136484 -0.47537777 -0.47925666 -1.6466968 0.5103986 -0.120012455 0.7868803 0.23173161 -0.118001945 -0.9866272 -0.84776217 0.80920374 0.625979 0.77586955
lipid 1.3896539 0.3646617 -0.29048517 -0.46018824 -0.72198313 -0.67879444 0.7038661 -0.45745212 -0.50923467 -1.6270615 0.50238097 -0.12393687 0.77143914 0.23164001 -0.13837004 -0.9744396 -0.85905975 0.8196042 0.62079275 0.72871655
fatty 1.1549367 0.31727248 -0.2436536 -0.37188178 -0.63427985 -0.5600579 0.59740216 -0.38276574 -0.42273152 -1.345143 0.42462543 -0.10303973 0.63301647 0.20966242 -0.09483903 -0.81327796 -0.7117158 0.7099594 0.5277058 0.62034315
carcinoma 1.5407822 0.4384121 -0.3570112 -0.5191063 -0.8895573 -0.808689 0.83121043 -0.540742 -0.58210194 -1.9041305 0.6093751 -0.13472077 0.8704531 0.28135845 -0.17813167 -1.1858795 -0.9936441 0.9994779 0.68390864 0.82501215
anticancer 1.5766405 0.42228952 -0.38123736 -0.5948448 -0.98796755 -0.8217476 0.8356803 -0.5846713 -0.5652498 -2.086963 0.62344456 -0.12751384 0.88090587 0.23809074 -0.17316554 -1.2552334 -0.9713536 1.0580624 0.69966644 0.848951
T 0.9072366 0.22686781 -0.14785816 -0.32183045 -0.4470779 -0.48651183 0.4536616 -0.29351813 -0.32620308 -1.080821 0.29904747 -0.08384588 0.5598694 0.18581888 -0.059277505 -0.6300248 -0.6171248 0.54197395 0.43764383 0.53376853
Receptor 1.26316 0.2979481 -0.16039835 -0.40268198 -0.68762535 -0.6496756 0.59247214 -0.3976054 -0.41858843 -1.5592797 0.4216315 -0.19166593 0.7994187 0.26371205 0.03736179 -0.78668773 -0.7499406 0.66315264 0.5875854 0.7504588
dysfunction 1.0089211 0.30357555 -0.2514389 -0.45955703 -0.71700794 -0.44877464 0.55982536 -0.47603846 -0.37116066 -1.4910728 0.43873495 -0.09727661 0.45926276 0.14477077 -0.1901713 -0.91227275 -0.5649508 0.7396232 0.366389 0.46326593
phosphorylation 1.3464931 0.38155365 -0.3007668 -0.5728427 -0.8831192 -0.62825155 0.7222916 -0.59149545 -0.47249278 -1.8997251 0.55650926 -0.11462443 0.66999215 0.19333121 -0.17943296 -1.1165656 -0.76405054 0.89678794 0.52917856 0.6722578
proliferation 1.3200892 0.41599107 -0.33946764 -0.58520263 -0.93194735 -0.61775976 0.74471354 -0.61962605 -0.4944826 -1.9544983 0.5840213 -0.12710471 0.62818116 0.19552067 -0.2357855 -1.1766173 -0.777138 0.98018897 0.492259 0.61826307
glucose 1.5279881 0.4004585 -0.31934887 -0.49223816 -0.80946696 -0.739967 0.7558111 -0.5101128 -0.5594137 -1.7847713 0.56541365 -0.14224906 0.8478309 0.26386467 -0.11757053 -1.0741161 -0.9330466 0.9414333 0.692299 0.82085943
neuronal 1.6490746 0.45010477 -0.37317434 -0.5579146 -0.93031174 -0.81543666 0.85878307 -0.5779931 -0.61245114 -2.0106623 0.6384959 -0.1365521 0.892937 0.27685133 -0.17794727 -1.2304236 -1.0410115 1.0542209 0.7230663 0.87131435
increases 1.2796642 0.36795288 -0.28529808 -0.43461666 -0.7075287 -0.65595204 0.6565228 -0.46136668 -0.4853332 -1.5784786 0.49700177 -0.13348097 0.7017613 0.23169872 -0.10115693 -0.94619745 -0.79722446 0.8173601 0.5624135 0.6861742
Design 0.95913094 0.23037845 -0.17608818 -0.35704598 -0.4985477 -0.46379983 0.48365036 -0.31226093 -0.30857962 -1.1220127 0.33598933 -0.07255303 0.56986815 0.16644606 -0.049334507 -0.64049464 -0.54363716 0.5407917 0.4444945 0.52483314
site 1.6588299 0.43829584 -0.3156321 -0.56390935 -0.85524386 -0.8044447 0.8447126 -0.55092156 -0.57069856 -1.9351796 0.601801 -0.12547651 0.9602708 0.28297856 -0.113930605 -1.1426136 -1.0221769 0.9336968 0.74765486 0.8883553
Binding 1.3148398 0.37810168 -0.28461486 -0.47666198 -0.7677163 -0.6497915 0.6966797 -0.5027619 -0.4719451 -1.670658 0.53105384 -0.1262918 0.7630991 0.24023432 -0.12062673 -0.9817535 -0.80643374 0.78809434 0.60609007 0.72147053
subjects 1.2361872 0.35100865 -0.27559283 -0.42964688 -0.6999809 -0.6137265 0.6469365 -0.4474315 -0.45444977 -1.498146 0.47144607 -0.11297084 0.6881744 0.20447962 -0.13166463 -0.8917823 -0.77294624 0.7326274 0.53660923 0.6627617
tissue 1.111097 0.2915856 -0.22392038 -0.36493656 -0.5912596 -0.55888456 0.56708765 -0.3649147 -0.41866606 -1.3081493 0.42765206 -0.10646858 0.6331945 0.20493571 -0.08356117 -0.7858816 -0.6844491 0.6592745 0.4989156 0.60975707
An 0.9353779 0.2329746 -0.19454043 -0.31955713 -0.48557973 -0.47866863 0.47069985 -0.30734378 -0.32732236 -1.067665 0.34386554 -0.088026896 0.5550758 0.1826144 -0.059001833 -0.6471906 -0.56906116 0.54116356 0.44875067 0.5070947
D2 0.99482423 0.22836316 -0.17851643 -0.3175941 -0.46962166 -0.49208444 0.49185905 -0.31180596 -0.3437519 -1.1319535 0.36808822 -0.11010421 0.59142053 0.21024972 -0.030998321 -0.6447155 -0.6132035 0.5310554 0.48851597 0.57565457
Protective 1.2938725 0.3138202 -0.23270528 -0.46715933 -0.6904033 -0.6050128 0.6505886 -0.4741368 -0.43217131 -1.5815395 0.4734637 -0.09671873 0.7337687 0.2066228 -0.10677556 -0.8849132 -0.7358782 0.72435206 0.5811396 0.72288525
P450 1.012084 0.2546523 -0.19144835 -0.31631055 -0.4945264 -0.47035444 0.4999795 -0.31327122 -0.359427 -1.1224123 0.33722007 -0.09655289 0.57453924 0.18652199 -0.07213413 -0.66359365 -0.61461186 0.5757155 0.4447233 0.55041766
Alzheimer 1.082444 0.26676923 -0.22735292 -0.367232 -0.5579092 -0.5462789 0.54578793 -0.35195544 -0.38086537 -1.2428479 0.39406747 -0.07736566 0.61650234 0.17187914 -0.08092297 -0.74618757 -0.6552299 0.6243519 0.48358724 0.5924993
identification 1.375083 0.3616536 -0.2971798 -0.6435961 -0.89134073 -0.5927944 0.7253765 -0.62598103 -0.46034136 -1.9466172 0.5367465 -0.08874457 0.64675725 0.15588304 -0.21696308 -1.137069 -0.7326097 0.86860514 0.5371457 0.6899554
polymorphisms 1.2598108 0.3178036 -0.2412464 -0.41363987 -0.64255583 -0.6186375 0.6167223 -0.4011025 -0.44285348 -1.4386866 0.44388333 -0.11052645 0.73700505 0.2355302 -0.06238619 -0.83192444 -0.7722733 0.7007229 0.5780463 0.7177009
inflammation 1.3707932 0.40267736 -0.32509458 -0.6322025 -0.94892955 -0.6036001 0.7565081 -0.6507582 -0.49823454 -2.0061314 0.57785827 -0.109545715 0.6273899 0.17834887 -0.25299302 -1.2022095 -0.77904856 0.97487 0.4939856 0.6235537
targets 1.3091214 0.30273783 -0.25708255 -0.49029687 -0.6928257 -0.6193036 0.65081406 -0.46855888 -0.44598487 -1.5646187 0.47744095 -0.1005409 0.73849875 0.2054909 -0.108120605 -0.91108537 -0.77473575 0.7423795 0.589184 0.69652945
polymorphism 1.3294822 0.3313409 -0.25518852 -0.44147825 -0.6777396 -0.6524373 0.65323913 -0.42276067 -0.46437147 -1.5226924 0.46557137 -0.11728258 0.779393 0.24847783 -0.06460711 -0.874435 -0.8138726 0.73134613 0.6083866 0.75809044
E 0.8576657 0.16982749 -0.18681307 -0.28223282 -0.42645672 -0.4556977 0.41039953 -0.26691946 -0.30967993 -0.92688215 0.32828963 -0.07258142 0.48608592 0.12299855 0.0079471115 -0.5734385 -0.50647604 0.43064618 0.45504254 0.523656
prostaglandin 1.290192 0.36121652 -0.26847792 -0.42963162 -0.7164339 -0.65637034 0.6553723 -0.45696697 -0.462734 -1.5754701 0.49342203 -0.13231017 0.7526985 0.24948023 -0.09425337 -0.9326769 -0.8119922 0.7890805 0.57835066 0.709741
treated 1.8499748 0.5253367 -0.39164892 -0.6220413 -1.0558541 -0.9310544 0.9798331 -0.67922467 -0.7132314 -2.315945 0.73067904 -0.16989684 0.9744774 0.32022628 -0.20471627 -1.4261204 -1.1630865 1.1964151 0.78877115 0.96517736
Type 1.2045153 0.2830281 -0.23837847 -0.36837655 -0.6064406 -0.61395854 0.61434203 -0.35547078 -0.42250517 -1.332079 0.4337591 -0.119493864 0.6591974 0.22091189 -0.044364523 -0.81296444 -0.7340257 0.68244654 0.5157062 0.63902134
mutations 1.2370658 0.34109452 -0.27181178 -0.5584469 -0.8051566 -0.53006834 0.6692659 -0.5547298 -0.44386366 -1.7476221 0.49364102 -0.10286167 0.5736974 0.15094244 -0.2079208 -1.0534564 -0.68250704 0.8333396 0.47746173 0.5838192
affinity 1.398802 0.3516115 -0.2798032 -0.47930926 -0.7413563 -0.67979866 0.7055995 -0.47663 -0.49366996 -1.640837 0.5041179 -0.10923338 0.80278844 0.23993014 -0.11173101 -0.9781039 -0.8583316 0.80105263 0.64310074 0.7624517
design 1.2118671 0.29273996 -0.22882116 -0.45486426 -0.6210313 -0.5837599 0.5950741 -0.39807028 -0.4022349 -1.4153819 0.4336159 -0.08088427 0.7056268 0.21150252 -0.07840522 -0.8152345 -0.71118635 0.67467153 0.5590456 0.67184305
genetic 1.5310081 0.40959683 -0.34269145 -0.5507586 -0.8565654 -0.7322481 0.7864059 -0.5601399 -0.5388255 -1.893764 0.59162444 -0.13700852 0.8090498 0.2521716 -0.1488594 -1.1387904 -0.9239913 0.9644043 0.66559637 0.8060707
based 2.0429912 0.5067841 -0.3943009 -0.66191936 -1.037342 -1.0180438 1.0118836 -0.64590657 -0.7359578 -2.3457184 0.73382896 -0.18614054 1.1867117 0.3809754 -0.10601797 -1.3696486 -1.2488259 1.1406213 0.95325714 1.154632
extract 1.3010923 0.34493116 -0.25854543 -0.4376387 -0.691932 -0.6383654 0.65699226 -0.44018608 -0.46773463 -1.5575138 0.47726527 -0.12158995 0.73112714 0.23964733 -0.09041747 -0.90163887 -0.8084431 0.7702707 0.57797617 0.7180288
low 1.3011322 0.33479777 -0.24602257 -0.46020445 -0.63247144 -0.632092 0.6632296 -0.41176942 -0.46567902 -1.5055724 0.47302222 -0.08404477 0.76058453 0.24477847 -0.082614 -0.9003143 -0.8112357 0.74392855 0.6101428 0.7102763
transporters 1.397527 0.38991076 -0.2960788 -0.47738764 -0.812405 -0.69898957 0.7236157 -0.50131637 -0.5151561 -1.7519588 0.5422402 -0.14572734 0.7662623 0.25077787 -0.12177996 -1.0345733 -0.8870521 0.8895084 0.6080854 0.75891256
different 1.4587239 0.3940476 -0.3345455 -0.5330628 -0.8103295 -0.6910087 0.77294564 -0.52680546 -0.5397526 -1.784395 0.5629483 -0.11334516 0.76782525 0.22819729 -0.16798499 -1.0792413 -0.88134396 0.89428836 0.6157098 0.754524
cyclooxygenase-2 1.2571322 0.31356537 -0.23404756 -0.41880026 -0.6287635 -0.62452424 0.6196241 -0.4126653 -0.44459298 -1.4566191 0.44891042 -0.108995065 0.72878194 0.2342808 -0.050602566 -0.8382451 -0.75855327 0.7133815 0.5862948 0.7095123
review 1.0036947 0.25470608 -0.18057513 -0.3625388 -0.5253388 -0.49314725 0.5092273 -0.35477647 -0.3468632 -1.2011137 0.36305785 -0.08521249 0.5705742 0.17205156 -0.05202459 -0.70092565 -0.6142167 0.5670225 0.46716842 0.5649101
extracellular 1.337641 0.3695227 -0.2863815 -0.43052682 -0.7330495 -0.67877597 0.69481057 -0.4615638 -0.50417256 -1.6276056 0.51305705 -0.13717754 0.7562408 0.25109234 -0.10388285 -0.9870787 -0.85109127 0.8614433 0.6009405 0.7303584
accumulation 1.0954127 0.34994394 -0.28678977 -0.5272812 -0.81730473 -0.48123017 0.6260032 -0.56492734 -0.4189681 -1.7149523 0.49834424 -0.09254654 0.46029472 0.13108857 -0.23591831 -1.0379837 -0.6197731 0.8388081 0.38581085 0.48260933
mitochondrial 1.3135276 0.35536972 -0.29160494 -0.44194537 -0.7408283 -0.65066844 0.68452066 -0.46434036 -0.4889306 -1.5852029 0.5047143 -0.11417969 0.72704566 0.22357628 -0.12837909 -0.9617662 -0.8256868 0.81877315 0.58158726 0.69767284
membrane 1.3870505 0.37585542 -0.28712276 -0.49376225 -0.75435156 -0.68975514 0.6978363 -0.48189852 -0.48936114 -1.665219 0.5064008 -0.13569711 0.79686636 0.24621847 -0.10245195 -0.9731979 -0.8509112 0.814951 0.6227225 0.76550645
peripheral 1.4221035 0.3706447 -0.29932907 -0.49835384 -0.77086383 -0.69732094 0.7200483 -0.48356143 -0.5010943 -1.6884573 0.51786053 -0.13033246 0.798861 0.23969716 -0.116802804 -0.99695235 -0.8736987 0.84937567 0.64265585 0.7734129
experimental 1.4969636 0.3952325 -0.32358736 -0.529589 -0.822274 -0.7261267 0.76547533 -0.53676575 -0.5373526 -1.7975723 0.553855 -0.116255514 0.82274604 0.24054247 -0.15117198 -1.0876453 -0.91117734 0.9150537 0.65305495 0.79407626
anhydrase 1.3565341 0.34530765 -0.2571245 -0.46555632 -0.6872436 -0.6654135 0.6723087 -0.4446472 -0.47534883 -1.6001626 0.47867012 -0.11690136 0.79015195 0.23702444 -0.054556143 -0.90653205 -0.7964919 0.7445499 0.61939406 0.7731105
antagonism 1.400568 0.34130603 -0.24538462 -0.49543887 -0.7763484 -0.70748997 0.673882 -0.47648594 -0.4127919 -1.6967981 0.47102618 -0.15525346 0.8713823 0.2536784 -0.026855404 -0.90327156 -0.8054713 0.70540404 0.6431392 0.8159079
sensitivity 1.5061071 0.3959548 -0.3236867 -0.53734416 -0.856146 -0.73967373 0.7695932 -0.5330269 -0.53182125 -1.8453076 0.56800497 -0.13670911 0.8528081 0.25197265 -0.13636796 -1.0916785 -0.9057671 0.89626116 0.6771077 0.81462204
pancreatic 1.3708987 0.39113912 -0.31457356 -0.49438918 -0.8052721 -0.6812063 0.7152766 -0.51837575 -0.50970554 -1.7350265 0.54384434 -0.11173165 0.7332289 0.21442421 -0.16997486 -1.0603038 -0.834048 0.9075168 0.5820925 0.7063326
mediates 1.4493877 0.42492604 -0.32030806 -0.5083409 -0.8527317 -0.70828414 0.78836024 -0.5602678 -0.5684896 -1.8621409 0.576705 -0.12855344 0.766512 0.25720295 -0.190566 -1.1556114 -0.91062254 0.984029 0.6106763 0.7285009
metabolites 1.4232979 0.39321238 -0.32237715 -0.5025506 -0.82578385 -0.6959028 0.74426985 -0.5080467 -0.5094851 -1.7616094 0.5462872 -0.13434829 0.7955293 0.24174923 -0.14958277 -1.0521052 -0.8688286 0.8996495 0.61041254 0.7608499
other 1.5345683 0.40820512 -0.32413545 -0.52850586 -0.8614757 -0.7691041 0.78973955 -0.52398545 -0.5471644 -1.8390639 0.58161926 -0.12508544 0.8763294 0.267731 -0.12972766 -1.1051811 -0.9455914 0.92867255 0.6999886 0.8410509
essential 1.4064168 0.3486933 -0.30382353 -0.53974384 -0.7984235 -0.654899 0.73676914 -0.52436763 -0.5029207 -1.7697514 0.5378617 -0.102697976 0.72771066 0.21301204 -0.16736268 -1.0551298 -0.83296216 0.86685497 0.6067557 0.73660433
glutathione 1.3299508 0.35553896 -0.2761734 -0.4700083 -0.7538489 -0.6547499 0.6870124 -0.48398978 -0.47127104 -1.6241502 0.50789464 -0.13200237 0.750919 0.22546776 -0.113356516 -0.9576515 -0.81425136 0.790372 0.5811938 0.71930724
required 1.3427277 0.35141715 -0.27169195 -0.4445542 -0.6958689 -0.65792584 0.68619573 -0.4546276 -0.4995748 -1.5658029 0.49497297 -0.114044845 0.74841386 0.23908918 -0.123344615 -0.95307624 -0.8425397 0.79759586 0.6216605 0.7234225
chemical 1.7364935 0.44903544 -0.37608796 -0.64912254 -0.9612544 -0.8239864 0.8927531 -0.62901866 -0.6071925 -2.1096156 0.64287156 -0.13521549 0.9404086 0.27069286 -0.18035968 -1.2418778 -1.0342563 1.035609 0.76074654 0.9151077
acids 1.1581353 0.3009763 -0.21729003 -0.37464127 -0.6206719 -0.5730689 0.59568 -0.39151368 -0.42568743 -1.3714392 0.43707398 -0.10142033 0.6542016 0.2096482 -0.09944712 -0.8173783 -0.71379983 0.69289947 0.53376526 0.64081013
block 1.3470228 0.3509339 -0.2783965 -0.4432088 -0.7019465 -0.6645127 0.6758976 -0.44923696 -0.48590633 -1.5695382 0.4802529 -0.12002051 0.77467054 0.25521109 -0.0905119 -0.92954934 -0.82419205 0.7845218 0.6099457 0.73287386
Structural 1.1957606 0.3110353 -0.23836876 -0.4430806 -0.6480827 -0.5597613 0.60688454 -0.42334336 -0.39965433 -1.439206 0.4256535 -0.10948671 0.643164 0.18843433 -0.09128598 -0.8386845 -0.68663055 0.6978273 0.5215724 0.6446808
structural 1.3931882 0.36331686 -0.28633705 -0.5251123 -0.7732255 -0.65102285 0.71011573 -0.49717733 -0.4620335 -1.6963828 0.5088173 -0.1264761 0.74537057 0.21452229 -0.11325368 -0.994962 -0.80777144 0.8268016 0.5995516 0.7476372
relationship 1.0724329 0.30751157 -0.2405554 -0.45928448 -0.7192142 -0.49550712 0.5634809 -0.47919425 -0.38163805 -1.5296881 0.44475946 -0.09736843 0.5165482 0.15345365 -0.14467028 -0.8969708 -0.6076662 0.7237413 0.42400703 0.52462757
assessment 1.3261647 0.34208745 -0.27944332 -0.4896208 -0.72356045 -0.63022715 0.67376316 -0.4751309 -0.47851327 -1.6143436 0.49517933 -0.107260995 0.7042574 0.20014045 -0.13537815 -0.953069 -0.7800522 0.7834581 0.5574642 0.7078394
Activation 1.1008632 0.33508837 -0.2672805 -0.5732272 -0.83779395 -0.4672512 0.6346927 -0.61102587 -0.39612934 -1.7725722 0.49645042 -0.078941315 0.46841443 0.14424053 -0.24043116 -1.0593357 -0.575399 0.8031412 0.39078087 0.5068216
gastric 1.5434359 0.4270934 -0.3535847 -0.52341616 -0.87005883 -0.7721948 0.7951275 -0.5365856 -0.5789746 -1.8651271 0.5947238 -0.1377368 0.85712117 0.2691573 -0.15736021 -1.1419717 -0.9619158 0.97071433 0.6886791 0.81941795
Cells 1.0085087 0.31395894 -0.27498445 -0.33144066 -0.631116 -0.55192715 0.5881619 -0.3848072 -0.432111 -1.3200058 0.45303333 -0.10322828 0.56735826 0.17804244 -0.14413859 -0.875174 -0.69790053 0.76964855 0.442171 0.5138093
Protein 1.2135555 0.32359046 -0.23080194 -0.37561488 -0.614582 -0.6117203 0.59341174 -0.3993282 -0.4226555 -1.4308777 0.4529755 -0.16407505 0.7474565 0.25733367 -0.027144484 -0.8045313 -0.7730018 0.691213 0.5789606 0.7150169
phase 1.8612583 0.45888752 -0.36488187 -0.63064504 -0.9755267 -0.9269294 0.91449636 -0.6300652 -0.65259796 -2.2278192 0.68550855 -0.16982144 1.0638849 0.32852453 -0.08611155 -1.2706038 -1.1020864 1.0719564 0.83119714 1.021874
cardiovascular 1.3422431 0.35181314 -0.28013524 -0.45689246 -0.72931904 -0.6499118 0.6871996 -0.4669973 -0.49303368 -1.6065217 0.49508896 -0.11596067 0.7430052 0.23573463 -0.1304952 -0.97249746 -0.8209801 0.8181698 0.58272076 0.71593297
activator 1.1593004 0.3013719 -0.19656885 -0.44144192 -0.65922207 -0.5568383 0.590087 -0.45787117 -0.40082696 -1.5191383 0.44552803 -0.09837575 0.65518606 0.22004445 -0.08968047 -0.82904255 -0.6657461 0.6525795 0.5321194 0.6608222
platelet 1.3558103 0.37749717 -0.28623426 -0.47393852 -0.7322411 -0.6696261 0.7079494 -0.4638355 -0.49696457 -1.6376603 0.5078358 -0.12269705 0.76206535 0.24631414 -0.12051317 -0.96579605 -0.85294235 0.8417172 0.60426104 0.7212151
angiotensin 1.2834638 0.3142406 -0.2500219 -0.42613396 -0.65459466 -0.6339956 0.6300406 -0.40761408 -0.44189978 -1.4795448 0.45684847 -0.120746404 0.74589515 0.22761802 -0.0656716 -0.87428206 -0.77310735 0.7302863 0.5841465 0.71887016
profiles 1.2736325 0.37340778 -0.29591155 -0.44363305 -0.7398223 -0.6551959 0.69064194 -0.47657585 -0.49550948 -1.6009496 0.5103093 -0.13091476 0.7293869 0.23659697 -0.11965618 -0.9703778 -0.81081784 0.80649805 0.5491656 0.70010024
selectivity 1.3684756 0.3507431 -0.2677046 -0.5272234 -0.79385173 -0.6532785 0.68742496 -0.5231346 -0.45059457 -1.7417011 0.50169 -0.11258764 0.76204157 0.21008603 -0.11731439 -0.9733218 -0.76483905 0.76895046 0.60974157 0.7535505
efficacy 1.0708398 0.26754558 -0.21555342 -0.3821901 -0.557589 -0.505321 0.53090805 -0.364531 -0.3531819 -1.2556155 0.3784961 -0.07703422 0.60032886 0.18034999 -0.090781435 -0.72094226 -0.633163 0.60740197 0.47773337 0.58691454
modeling 1.5888282 0.42916563 -0.33506677 -0.5897536 -0.9001147 -0.7587046 0.81534034 -0.5955672 -0.5667605 -2.012955 0.61769325 -0.13445926 0.8589198 0.26691505 -0.15857472 -1.1921613 -0.9624171 1.0058595 0.67843014 0.845495
pharmacokinetics 1.2200526 0.3177528 -0.24652839 -0.4559803 -0.6857208 -0.5933974 0.62871355 -0.4361207 -0.4072467 -1.4832331 0.44218725 -0.10388733 0.70819575 0.19625035 -0.09972758 -0.8666093 -0.72015786 0.70222884 0.5397232 0.6726095
leukotriene 1.2049417 0.31226194 -0.24597266 -0.41190577 -0.6494686 -0.60875136 0.6111589 -0.40517625 -0.41774413 -1.4187294 0.43673652 -0.1278694 0.70202684 0.23314281 -0.07741229 -0.8267698 -0.74428266 0.6898348 0.5358054 0.6621624
COX-2 0.9847562 0.2517822 -0.18498148 -0.30410415 -0.5088504 -0.5120522 0.46200177 -0.3179771 -0.35241115 -1.1259321 0.35353917 -0.07453189 0.5785201 0.17823762 -0.04304234 -0.63039845 -0.6102231 0.54239523 0.4460403 0.56721175
kidney 0.7991157 0.1901985 -0.16101915 -0.2573026 -0.41127938 -0.38339072 0.41345525 -0.26073283 -0.2976246 -0.887135 0.29317468 -0.0780118 0.46664986 0.14885573 -0.052395638 -0.53895307 -0.48795554 0.46136218 0.35395482 0.43168965
assay 1.0995125 0.26185235 -0.21137404 -0.382945 -0.55834633 -0.533803 0.54731756 -0.357484 -0.37592256 -1.2737182 0.38458458 -0.092210054 0.6388742 0.17731014 -0.067313045 -0.75023293 -0.67372614 0.6155698 0.5096983 0.6115307
failure 1.0835946 0.28263375 -0.2308638 -0.36531165 -0.576533 -0.532986 0.5550745 -0.36237866 -0.4006014 -1.264369 0.39260122 -0.093238704 0.6085591 0.1781124 -0.09736488 -0.74993175 -0.6579302 0.6387399 0.4941626 0.58527
combination 1.3435929 0.40567255 -0.32254484 -0.6047219 -0.9298358 -0.6067132 0.7499075 -0.6374482 -0.47489998 -1.9609457 0.5666892 -0.09905585 0.6300467 0.17432033 -0.22708972 -1.1654252 -0.75750524 0.9286595 0.5019876 0.64105076
G 0.8548208 0.1903571 -0.1715319 -0.26057678 -0.38185486 -0.43909007 0.43386754 -0.2830727 -0.27924216 -0.9891596 0.27107587 -0.09014197 0.5380208 0.21399179 -0.019841757 -0.5683211 -0.5105936 0.44448745 0.46731305 0.5041618
ligands 1.2856741 0.3191398 -0.23805797 -0.43822137 -0.6538856 -0.63861376 0.63590246 -0.42608866 -0.4446106 -1.4727526 0.45442474 -0.097681664 0.7518448 0.23622636 -0.08476225 -0.86900204 -0.7852614 0.7162794 0.586623 0.71878076
Expression 1.0769678 0.37145472 -0.3156406 -0.4817948 -0.8159062 -0.5060662 0.6319554 -0.53029406 -0.4776565 -1.6822878 0.5047864 -0.1436843 0.47163898 0.16147645 -0.23766182 -1.0746675 -0.7097637 0.92258704 0.37206513 0.4699573
Cell 1.0629035 0.30545217 -0.26401475 -0.36356577 -0.6186037 -0.5662237 0.5949006 -0.390605 -0.43065527 -1.3319404 0.4506399 -0.10160766 0.59833616 0.1935505 -0.10307293 -0.86547256 -0.72322553 0.75093484 0.48443076 0.5603305
cultured 1.4638876 0.40862182 -0.33586976 -0.47961685 -0.8198135 -0.72971123 0.7740108 -0.5102088 -0.56736875 -1.7781334 0.5718359 -0.13672246 0.8087854 0.2509326 -0.1503251 -1.0841687 -0.9363761 0.9318704 0.6527778 0.79424435
glutamate 1.5233426 0.39858755 -0.30107343 -0.5122223 -0.8151856 -0.7364112 0.762824 -0.52284896 -0.5423694 -1.7996261 0.565854 -0.13559029 0.8553813 0.26010337 -0.12198631 -1.0744988 -0.93872243 0.91089183 0.6809559 0.8358892
uptake 1.2146438 0.30917636 -0.23215392 -0.3768486 -0.61044174 -0.5935101 0.585277 -0.39580497 -0.4352321 -1.3813303 0.43242404 -0.091978215 0.70324606 0.21363053 -0.06256189 -0.7937106 -0.737898 0.684608 0.5671222 0.6785665
Cancer 1.1792959 0.35216442 -0.3293385 -0.4227194 -0.7923515 -0.66863245 0.6762703 -0.4411968 -0.47633493 -1.6228042 0.51825464 -0.11621307 0.66390973 0.18902522 -0.17529985 -1.0257546 -0.79194516 0.90567106 0.522058 0.63125443
skeletal 1.3216106 0.35292146 -0.29291546 -0.46083832 -0.7289763 -0.6459518 0.6735797 -0.44845974 -0.48132128 -1.5769067 0.49826926 -0.12113932 0.74293 0.23990323 -0.118483484 -0.96291405 -0.8285228 0.81411946 0.5908011 0.7109716
targeting 1.6585891 0.41484293 -0.32464078 -0.6167245 -0.8767347 -0.77327156 0.82454526 -0.5965457 -0.57290643 -2.0031261 0.6150534 -0.13597947 0.91555315 0.26064003 -0.15205023 -1.183589 -0.9895339 0.97309583 0.7435416 0.8804299
oral 1.8407615 0.47399786 -0.3973879 -0.6475751 -1.015473 -0.8779493 0.9231346 -0.6252342 -0.6463874 -2.2049775 0.6643663 -0.1591001 1.009953 0.29171994 -0.17062287 -1.3175853 -1.091604 1.1186745 0.8061227 0.97885394
oxytocin 1.3835613 0.3708608 -0.29523027 -0.4518558 -0.73442537 -0.68126285 0.6917843 -0.48041138 -0.48927867 -1.6302876 0.5130985 -0.13748829 0.7919455 0.25024387 -0.11709493 -0.97327167 -0.85899824 0.8329555 0.61575645 0.76796657
dual 1.499739 0.36083385 -0.3170954 -0.5406549 -0.81731606 -0.7404032 0.7689097 -0.52411586 -0.53713554 -1.818441 0.5485585 -0.10897625 0.8481773 0.23514682 -0.119474985 -1.0772687 -0.90995115 0.89199185 0.6775057 0.8412988
highly 1.3508323 0.33275327 -0.24820207 -0.4546062 -0.665424 -0.6484182 0.66269106 -0.41845644 -0.47750804 -1.5080245 0.45813298 -0.11499486 0.7897977 0.24158292 -0.08279375 -0.87893224 -0.83251095 0.74837255 0.6310877 0.76005286
cognitive 1.3957845 0.33846992 -0.28027594 -0.50422215 -0.75169617 -0.6614816 0.7034803 -0.47719595 -0.49155462 -1.6556084 0.50585604 -0.10315685 0.78757614 0.22567551 -0.11381593 -0.9653681 -0.81547844 0.79336053 0.6326159 0.767563
adult 1.208833 0.32783487 -0.25632766 -0.39659217 -0.65131605 -0.60789126 0.60322446 -0.39209244 -0.45475775 -1.4334178 0.44474614 -0.1245672 0.6655249 0.2078127 -0.107540436 -0.8740002 -0.76473844 0.7237165 0.540649 0.6388643
3H 0.891845 0.27663535 -0.19361496 -0.26686522 -0.47562137 -0.5460145 0.4855307 -0.25797823 -0.3249859 -0.94493586 0.342148 -0.08192886 0.6488996 0.23372015 0.016710166 -0.5730979 -0.5987012 0.3395455 0.46200415 0.59813386
does 1.4189309 0.3708954 -0.3017421 -0.47559747 -0.7786001 -0.7074727 0.7136592 -0.48395365 -0.5255117 -1.6724182 0.5268261 -0.11809094 0.8097562 0.23240298 -0.104281306 -1.0159879 -0.8585234 0.84074575 0.6398895 0.75575596
opioid 1.3478681 0.3484238 -0.2794603 -0.44195873 -0.70575374 -0.6763279 0.68152857 -0.43779755 -0.4716163 -1.5732788 0.49288192 -0.12062632 0.78683823 0.24933724 -0.08931843 -0.92061645 -0.83463573 0.7536356 0.6252462 0.7555449
metabolic 1.6712588 0.44299382 -0.3694914 -0.58797354 -0.9563394 -0.7992652 0.8586096 -0.6000654 -0.5827201 -2.041536 0.63331515 -0.14929742 0.9230172 0.2855349 -0.16937537 -1.2176548 -0.9977969 1.0368696 0.7196356 0.89649165
prevents 1.3774283 0.3703955 -0.30706635 -0.48517558 -0.7697972 -0.6740084 0.7314906 -0.4983363 -0.49378273 -1.6625766 0.51083446 -0.12049738 0.7415767 0.2362116 -0.12954399 -1.0104353 -0.83038217 0.8350582 0.5987644 0.74200416
without 1.0298992 0.27468264 -0.20025527 -0.31451482 -0.5021081 -0.50691515 0.5019335 -0.29812095 -0.36890033 -1.1372405 0.3592234 -0.102004975 0.5772914 0.19780804 -0.05789452 -0.6859976 -0.6461441 0.57370037 0.4700133 0.57841474
vitamin 1.4925735 0.39564967 -0.3180371 -0.5053026 -0.8506274 -0.7424851 0.7479769 -0.5159296 -0.5207727 -1.8022012 0.5458595 -0.14811245 0.8630909 0.26778245 -0.11542296 -1.0423057 -0.9127415 0.8727058 0.65627116 0.8434702
smooth 1.100732 0.28049293 -0.236133 -0.35069254 -0.5681874 -0.5434831 0.55178815 -0.34769574 -0.3962651 -1.2646425 0.40853998 -0.105387285 0.6231365 0.20713404 -0.080714986 -0.7816198 -0.7057293 0.67065495 0.50951827 0.5836144
pharmacological 1.5011857 0.37321174 -0.29419002 -0.5753027 -0.83261436 -0.7344653 0.7764845 -0.5355019 -0.49449497 -1.8142037 0.54040086 -0.10823648 0.87238723 0.23717235 -0.11179785 -1.0445113 -0.87708956 0.8218093 0.6719114 0.8405754
pulmonary 1.0942384 0.28798863 -0.23423724 -0.36749646 -0.60544455 -0.5519095 0.5727887 -0.36918053 -0.40958464 -1.29652 0.4124928 -0.103214316 0.63648164 0.19238552 -0.11030611 -0.7935788 -0.6950637 0.6708838 0.49157205 0.58984107
approach 1.0267885 0.2581518 -0.21457365 -0.3601254 -0.52284026 -0.49285588 0.52707833 -0.35015932 -0.36707327 -1.1916238 0.3702954 -0.0857232 0.5712983 0.17205654 -0.07897552 -0.7254258 -0.624101 0.59843 0.46600875 0.5626049
hypertension 1.4014902 0.40261984 -0.32873982 -0.5293821 -0.85456717 -0.6652201 0.74257195 -0.5463109 -0.5237911 -1.826602 0.5525635 -0.12872669 0.7141211 0.21430007 -0.19128875 -1.1183715 -0.8501765 0.92686534 0.5699357 0.7184404
tyrosine 1.4914685 0.4056217 -0.30484945 -0.532723 -0.83399314 -0.76055884 0.7616757 -0.52393967 -0.50979704 -1.8135786 0.55396897 -0.15933648 0.8938496 0.275933 -0.07827722 -1.0372194 -0.91114837 0.85464656 0.67176855 0.8415799
lymphocytes 1.3006386 0.3632558 -0.29812953 -0.43672362 -0.7402555 -0.65074325 0.676131 -0.45152184 -0.49805406 -1.5908668 0.5074508 -0.12109194 0.7112756 0.21738358 -0.14536478 -0.9721343 -0.8216634 0.8449937 0.5622144 0.67879254
stem 1.4150145 0.39488193 -0.29723996 -0.4917753 -0.8074776 -0.70818037 0.7363617 -0.4908595 -0.5429957 -1.7524539 0.56136096 -0.13600482 0.77408946 0.2410911 -0.13825506 -1.0670565 -0.8921892 0.88522696 0.6128516 0.74395984
disorder 1.3725866 0.35682815 -0.2899981 -0.46387047 -0.7295712 -0.6849706 0.7002746 -0.46634236 -0.49954134 -1.6040711 0.5140636 -0.11703564 0.7622964 0.23333351 -0.120890155 -0.9836577 -0.8322652 0.79977566 0.6243744 0.74993867
case 2.0602386 0.5131804 -0.41128877 -0.7096384 -1.0906259 -1.0421705 1.0395143 -0.6905903 -0.7471842 -2.5093462 0.7513941 -0.17894363 1.1517425 0.35876894 -0.13165917 -1.4468917 -1.2398647 1.2068132 0.93345946 1.1276059
cyclooxygenase 1.4203907 0.35669652 -0.26309115 -0.47917914 -0.71956307 -0.70784926 0.69844854 -0.4672059 -0.5047081 -1.6658952 0.5100052 -0.12634966 0.818591 0.26362386 -0.052500688 -0.9528626 -0.8459129 0.8083545 0.65630955 0.79824245
be 1.4199889 0.3763764 -0.28766137 -0.4545513 -0.69243634 -0.70401114 0.7169768 -0.43004027 -0.51388174 -1.5679967 0.5108103 -0.1533941 0.8445454 0.27001232 -0.05183404 -0.897355 -0.8642773 0.74446934 0.69466823 0.799059
cerebral 1.3008851 0.3711607 -0.30396476 -0.45528772 -0.7399476 -0.63434076 0.6816791 -0.45969585 -0.4945478 -1.5956416 0.5145442 -0.11239003 0.70920044 0.21440385 -0.1490241 -0.98773015 -0.8001859 0.8550915 0.55168134 0.67949
matrix 1.1923107 0.3214534 -0.23186673 -0.38293654 -0.62515086 -0.5933586 0.6203689 -0.39986077 -0.45236498 -1.3948371 0.44638023 -0.09920944 0.6853637 0.21908635 -0.09419144 -0.8353416 -0.75572026 0.70754796 0.5485727 0.65052193
dependent 1.8620424 0.5139132 -0.43023404 -0.686204 -1.0717877 -0.90561545 0.99689716 -0.69780314 -0.68690956 -2.3510642 0.7309607 -0.14120461 1.0023568 0.3087123 -0.2174832 -1.4214742 -1.1248103 1.1760963 0.81322324 0.995033
children 1.1706138 0.31515086 -0.24683344 -0.39429167 -0.61081195 -0.5873026 0.5993737 -0.38844135 -0.42279527 -1.3718839 0.43004954 -0.10584459 0.67353547 0.20394924 -0.09352518 -0.8216296 -0.7293222 0.67882985 0.5383141 0.6413826
lines 2.3576138 0.6731643 -0.52692986 -0.84958225 -1.3876928 -1.2150905 1.257791 -0.85801 -0.8816282 -2.9674602 0.91788983 -0.20795195 1.3492335 0.40506527 -0.21354654 -1.7689143 -1.4758505 1.4640543 1.0225929 1.2665827
Comparative 1.3354329 0.33326653 -0.26952294 -0.49206835 -0.74418944 -0.63381946 0.6876377 -0.47926405 -0.46198967 -1.6297122 0.489588 -0.10197849 0.7423936 0.21559148 -0.11936291 -0.94915146 -0.7888684 0.7764333 0.5973557 0.7281051
species 1.4020551 0.38935077 -0.2807442 -0.49841583 -0.77761644 -0.69155526 0.7165936 -0.48707715 -0.4990181 -1.701339 0.5351623 -0.11964143 0.7884378 0.24677579 -0.11632885 -1.0223988 -0.86294496 0.84798515 0.6106992 0.75830287
Influence 1.0686026 0.27079558 -0.22217801 -0.37308726 -0.59522986 -0.513842 0.550412 -0.37711602 -0.38861838 -1.2792166 0.39550012 -0.09298179 0.5864207 0.17620647 -0.09982186 -0.77141976 -0.6535743 0.6342048 0.47148132 0.57634217
RNA 1.2657359 0.33003157 -0.24973002 -0.414946 -0.6252255 -0.6094371 0.6219948 -0.40485764 -0.45844433 -1.4271234 0.45915863 -0.12095927 0.7065805 0.2323366 -0.11196441 -0.84297234 -0.7909603 0.758668 0.5836749 0.6847967
ligand 1.3076663 0.33420768 -0.24343812 -0.43243283 -0.6765358 -0.64187497 0.6540704 -0.42425978 -0.45078358 -1.5049902 0.4693624 -0.10722902 0.7522887 0.24252746 -0.09591619 -0.8895308 -0.8105096 0.7380751 0.5979817 0.7309639
ethanol 1.3316543 0.35038236 -0.26770413 -0.43368125 -0.7115447 -0.6661858 0.67431945 -0.43557355 -0.48103485 -1.5226897 0.48917377 -0.1085547 0.7939609 0.24077198 -0.08825855 -0.9219068 -0.8298738 0.7498699 0.6193469 0.75425
airway 1.0154529 0.277404 -0.21297048 -0.33766797 -0.546688 -0.49834523 0.51599604 -0.33733326 -0.3829476 -1.2140687 0.38026318 -0.0746969 0.56804 0.18289042 -0.097099856 -0.73125756 -0.6262184 0.6374738 0.46055022 0.5396653
hippocampal 1.160201 0.30569082 -0.25053793 -0.3915438 -0.6255604 -0.57376635 0.5965549 -0.4005382 -0.41905174 -1.3570298 0.43534368 -0.10703667 0.6546919 0.20155028 -0.10505991 -0.8275778 -0.7158161 0.6852764 0.51702434 0.6245468
line 2.8924558 0.82524836 -0.64384866 -1.0630051 -1.7213346 -1.4754472 1.499976 -1.073479 -1.0174819 -3.664935 1.1028024 -0.30878234 1.6844124 0.50679874 -0.21450661 -2.0836911 -1.7791489 1.7225769 1.2469143 1.5963578
deficiency 1.219829 0.3133449 -0.25578704 -0.40743718 -0.6246253 -0.5919435 0.605737 -0.3944418 -0.44509706 -1.3959218 0.44232878 -0.10275036 0.6867993 0.2114143 -0.10194474 -0.83425325 -0.7527446 0.71055204 0.55198365 0.65713775
nanoparticles 1.2805932 0.34157318 -0.25619766 -0.42731893 -0.6872144 -0.642009 0.6523022 -0.43375552 -0.45624915 -1.5130349 0.46866682 -0.10181977 0.7371926 0.22048923 -0.09660668 -0.8994224 -0.7811908 0.74555874 0.567408 0.7090427
5 0.8147256 0.19968033 -0.13509226 -0.25104192 -0.37563747 -0.36838493 0.35306865 -0.2504537 -0.29100865 -0.89157474 0.30665714 -0.075990625 0.47145993 0.16499525 -0.049856335 -0.45989197 -0.46004087 0.42716968 0.38805288 0.46063554
structure-activity 1.174721 0.31433713 -0.23670536 -0.4399501 -0.6810764 -0.56042 0.59803545 -0.43904692 -0.39229995 -1.4712862 0.43668678 -0.11194082 0.64184976 0.19165611 -0.09451311 -0.8405664 -0.6731536 0.6802516 0.5089744 0.63985443
direct 1.2794263 0.33406615 -0.25214607 -0.45437548 -0.6933622 -0.61256754 0.64226484 -0.45507395 -0.4520458 -1.5288688 0.46418294 -0.108286016 0.7151148 0.21447392 -0.1140686 -0.88359773 -0.7648533 0.74094135 0.5500116 0.68561953
tumors 1.2097113 0.32565963 -0.25913206 -0.42833543 -0.68608314 -0.61772865 0.61440015 -0.43480432 -0.44753397 -1.5075116 0.46758616 -0.10797457 0.7152136 0.21487239 -0.09632141 -0.89822227 -0.75703275 0.7441837 0.54161614 0.6786412
glucocorticoid 1.2598735 0.33123356 -0.265802 -0.43812767 -0.6890227 -0.6081888 0.6410648 -0.43416855 -0.4595622 -1.5062968 0.47419098 -0.12083122 0.69347584 0.20978591 -0.11313948 -0.92634606 -0.77830523 0.78118575 0.559887 0.66906446
antipsychotic 1.3542914 0.33405676 -0.2630233 -0.4944348 -0.72123307 -0.6426198 0.67706245 -0.46430647 -0.4525789 -1.6159592 0.47232312 -0.10602305 0.7549905 0.21132448 -0.10976424 -0.9561272 -0.7858877 0.77936846 0.6075246 0.7377826
B 0.8556739 0.22159164 -0.15683602 -0.28731763 -0.4081772 -0.4379647 0.43038964 -0.26053268 -0.2834046 -0.9210634 0.29240113 -0.10992852 0.49017346 0.17701802 -0.067402326 -0.59261125 -0.53169733 0.4970088 0.39096192 0.43350634
biochemical 1.3239022 0.3467473 -0.28500372 -0.4954209 -0.73725307 -0.6163366 0.6790039 -0.48067603 -0.45760795 -1.6044102 0.49575567 -0.09836066 0.7158295 0.20732556 -0.13527839 -0.9507228 -0.7778556 0.7952641 0.58071834 0.6961097
women 1.1632543 0.30626306 -0.23304494 -0.39136553 -0.6047273 -0.58309543 0.5830333 -0.37577233 -0.41139272 -1.3473803 0.42142993 -0.10035196 0.673929 0.20206288 -0.07503435 -0.8246804 -0.7154123 0.6630768 0.5281209 0.6395888
activated 1.5732843 0.44064733 -0.3160995 -0.55722016 -0.9142168 -0.7651387 0.8363003 -0.62387407 -0.59141 -2.0338364 0.64065796 -0.1276158 0.84639895 0.29817984 -0.18021409 -1.2057686 -0.94699895 0.9899368 0.70438075 0.84311944
Regulation 1.1495465 0.3866693 -0.30544746 -0.5967557 -0.9149715 -0.49354434 0.6733883 -0.65386605 -0.4421194 -1.9226809 0.54491514 -0.10328679 0.4421409 0.13211945 -0.27481908 -1.1602863 -0.63423294 0.9588709 0.37218437 0.47525865
cyclic 1.6052115 0.4203762 -0.3252748 -0.55681247 -0.84061295 -0.7704235 0.81027454 -0.5465117 -0.5659911 -1.911642 0.59986144 -0.12417182 0.89225346 0.28357333 -0.12976088 -1.1341003 -0.95837444 0.95450926 0.72410816 0.8630255
Study 0.87875825 0.22012447 -0.17814387 -0.3109132 -0.47792614 -0.427944 0.44883886 -0.28819674 -0.29917616 -1.0219027 0.30659732 -0.06883492 0.50150543 0.16117008 -0.05882963 -0.6029217 -0.52886885 0.49381167 0.39081076 0.47838986
screening 1.2677339 0.33174446 -0.25721455 -0.4547452 -0.6784133 -0.61770964 0.6276095 -0.43838295 -0.44665694 -1.5290825 0.47900602 -0.10161591 0.7311282 0.22398508 -0.09681981 -0.8951824 -0.76695246 0.747889 0.5690819 0.6944809
unique 0.95152706 0.23316625 -0.18776838 -0.31042948 -0.47049913 -0.4624058 0.45265996 -0.31049693 -0.33605388 -1.0617393 0.3192457 -0.079941966 0.5540767 0.16289212 -0.05684657 -0.6252595 -0.58320594 0.50459945 0.45570335 0.5288594
patient 1.4946358 0.41309905 -0.34385085 -0.5647196 -0.8907036 -0.741176 0.8194423 -0.5897541 -0.5573449 -1.9441756 0.5946421 -0.11951878 0.75370306 0.20449579 -0.18923442 -1.1828443 -0.88578904 0.97906005 0.60815865 0.74999195
central 1.4531882 0.39813432 -0.33482242 -0.5265771 -0.83552295 -0.6969384 0.7519411 -0.5279193 -0.5321493 -1.8198141 0.56947595 -0.11611885 0.7608304 0.22694837 -0.15885979 -1.110814 -0.869472 0.9358197 0.6155304 0.7627519
antitumor 1.4953775 0.35891223 -0.2914577 -0.54128665 -0.79584366 -0.71685153 0.7295734 -0.5144851 -0.4993026 -1.7959011 0.51463455 -0.11212518 0.86506504 0.23933317 -0.08618249 -1.028083 -0.88472664 0.85300267 0.68045175 0.8367651
intracellular 1.3469375 0.38212043 -0.30123815 -0.43666562 -0.7560614 -0.67934805 0.705557 -0.48040876 -0.51706976 -1.6671054 0.52377915 -0.14280908 0.7488579 0.24587588 -0.12003694 -1.0145453 -0.8545817 0.89350915 0.59264785 0.720285
Mechanism 1.1785738 0.30176058 -0.2423385 -0.43351105 -0.651221 -0.5684415 0.6026764 -0.42977884 -0.40751743 -1.4544806 0.41602233 -0.08637565 0.6414768 0.18233867 -0.11642107 -0.8627715 -0.700028 0.69555515 0.5141675 0.62275726
estrogen 1.4019923 0.38869092 -0.30526164 -0.4841635 -0.7828613 -0.7072849 0.721826 -0.50229007 -0.51135564 -1.7222234 0.55323076 -0.12680835 0.7929702 0.24389416 -0.13100004 -1.0302606 -0.86993766 0.8716845 0.62095076 0.7540188
dynamics 1.0993365 0.2945468 -0.23539607 -0.3801157 -0.60856813 -0.5304865 0.55878985 -0.38268474 -0.39047837 -1.3223197 0.40490225 -0.10248135 0.6324798 0.18701836 -0.08683332 -0.7807231 -0.6731583 0.6579136 0.4804811 0.5915528
leads 1.1888629 0.2918272 -0.2431849 -0.39578995 -0.60816395 -0.58764905 0.5901732 -0.3646912 -0.4358793 -1.3353597 0.41843033 -0.11285035 0.6821541 0.22503966 -0.07107096 -0.80788344 -0.72554594 0.6791669 0.55725986 0.6580488
female 1.116196 0.31438342 -0.25321093 -0.36624402 -0.60021263 -0.54850346 0.57398397 -0.3664817 -0.413701 -1.3071966 0.4372389 -0.097028516 0.6228469 0.20800872 -0.09225776 -0.8133377 -0.69184226 0.7019977 0.4910339 0.60181093
AMP-activated 1.2529998 0.34667528 -0.24947578 -0.42378125 -0.69434476 -0.6081544 0.6443238 -0.46645626 -0.46156266 -1.5624413 0.49172503 -0.110964015 0.686293 0.23650654 -0.117184564 -0.926783 -0.75316143 0.7772652 0.57180667 0.67452806
