9916 20
. 4.5170984 0.28651527 -0.019577416 -1.4173205 -1.333121 -0.52826643 1.198759 -2.0879755 -0.02102713 -2.8473315 1.3840775 -0.6732693 0.710076 0.86734045 2.7734823 -2.3612862 -2.7813265 1.6042485 0.9169457 1.3563294
of 6.2037935 0.37856185 0.011332592 -1.9566138 -1.7472088 -0.67230654 1.6536644 -2.872859 -0.030431425 -3.889999 1.88384 -0.93348485 0.99442965 1.1310742 3.8400586 -3.2297535 -3.8013344 2.161275 1.2499859 1.8447948
and 6.884162 0.41273233 -0.0053950087 -2.169543 -1.9755468 -0.7569885 1.8428133 -3.191397 0.008652294 -4.34487 2.0914323 -1.0687664 1.0704648 1.252516 4.2506847 -3.6257482 -4.2371707 2.396582 1.4202746 2.0584097
in 10.795496 0.6415814 -0.022619482 -3.4528065 -3.1141028 -1.2097046 2.8564458 -5.0277033 -0.01649001 -6.814779 3.3198378 -1.6712048 1.6911669 1.9740012 6.7219696 -5.6850057 -6.7008405 3.7991643 2.2025464 3.226014
the 5.7208824 0.33290687 0.008295404 -1.8333975 -1.6557571 -0.64792264 1.5119053 -2.6528518 0.0050555025 -3.6104815 1.7549261 -0.8587189 0.88658905 1.0389249 3.5408547 -2.9929986 -3.5433571 1.9897339 1.1516956 1.718028
, 4.456246 0.2744543 0.0073054554 -1.4173313 -1.2618589 -0.48926747 1.1569262 -2.0359066 0.015482092 -2.7868323 1.3455657 -0.7192607 0.735322 0.806725 2.7516258 -2.2853143 -2.7491958 1.5950284 0.92685413 1.3087927
a 3.9085138 0.17784755 -0.02091167 -1.2864921 -1.1141062 -0.44963256 1.0543572 -1.8215384 -0.023914808 -2.5094514 1.1820303 -0.5549059 0.6059701 0.6855657 2.4273014 -2.0799155 -2.4267652 1.3511066 0.8369777 1.1985495
: 4.2329955 0.20897941 -0.022218086 -1.3440073 -1.2395483 -0.5108317 1.1106024 -1.963892 -0.0006171941 -2.7016497 1.2838178 -0.64516515 0.6767483 0.7542743 2.5869489 -2.1816006 -2.647889 1.4826792 0.8879379 1.275345
( 4.4481764 0.273013 0.01726904 -1.3778958 -1.2822363 -0.5190288 1.1589501 -2.0735478 0.001040523 -2.8221045 1.3465321 -0.67447454 0.71545184 0.8291767 2.7752962 -2.3029366 -2.7228017 1.5331088 0.9126649 1.3519614
) 4.3588266 0.23230776 0.012386469 -1.3915496 -1.2638803 -0.4908452 1.1763234 -1.9952981 -0.016166443 -2.7345243 1.3449128 -0.7276049 0.70796216 0.8374552 2.7565386 -2.2513773 -2.7257798 1.4994593 0.91454947 1.3238425
by 3.3120022 0.20338956 -0.006834296 -1.0473667 -0.9316818 -0.36205322 0.8898191 -1.5373586 0.005029318 -2.0881395 1.0060349 -0.4949075 0.5193594 0.57686967 2.0304341 -1.7611492 -2.0623665 1.1739078 0.6907474 0.98799133
with 3.718676 0.22797121 -0.011612239 -1.1665554 -1.0721902 -0.41911194 0.97811127 -1.70195 -0.007505712 -2.3417916 1.1332493 -0.5773356 0.573274 0.6900046 2.3013 -1.9578649 -2.303263 1.2926282 0.7592022 1.1142446
for 4.6375327 0.28501266 -2.6871052e-05 -1.4652454 -1.3224918 -0.514857 1.2420032 -2.1607764 0.013619155 -2.9085605 1.4081535 -0.69497234 0.71154296 0.8566817 2.9105275 -2.41868 -2.8709168 1.6224698 0.9472631 1.4078985
on 6.847577 0.40271914 0.009526094 -2.1916716 -1.9602445 -0.7708173 1.8430247 -3.19692 -0.0013215649 -4.334836 2.0913053 -1.0504074 1.0606817 1.2239858 4.2691507 -3.5924473 -4.255808 2.4084895 1.3607326 2.0367298
to 4.0278077 0.2504084 0.0045048757 -1.2891417 -1.1739883 -0.40741885 1.0933552 -1.8607017 -0.02974228 -2.5353801 1.2502848 -0.6205463 0.6042783 0.71152496 2.4920335 -2.1444466 -2.4932432 1.4169322 0.837893 1.2188814
receptor 4.384646 0.25145602 0.0064812712 -1.3946432 -1.258346 -0.47163498 1.1657189 -2.0310602 -0.012712405 -2.7533045 1.3308923 -0.6876717 0.6810035 0.79497665 2.716927 -2.2868557 -2.7008612 1.5330806 0.8933575 1.3006506
cells 3.3288574 0.20485729 -0.011806231 -1.0653088 -0.96975666 -0.400184 0.8971237 -1.554314 -0.01431337 -2.1165962 1.033522 -0.517474 0.5383922 0.6173402 2.090258 -1.764965 -2.0619879 1.18777 0.6902264 0.9904287
human 3.0403912 0.17534724 0.00043887 -0.9561277 -0.8724069 -0.34519717 0.8097924 -1.4061826 -0.025077272 -1.9301839 0.9396406 -0.4698579 0.48122865 0.5613159 1.8969347 -1.5884819 -1.8858734 1.069975 0.6230232 0.9094583
expression 3.9744246 0.21555074 0.0067714145 -1.2898436 -1.1418307 -0.43564332 1.0542202 -1.8505423 -0.008727211 -2.5285096 1.2109534 -0.61710644 0.6142778 0.7129713 2.4734914 -2.0986133 -2.4623044 1.3996706 0.80308527 1.178704
activity 4.4266324 0.264057 0.009933401 -1.4118662 -1.2827662 -0.49972928 1.1869317 -2.0630894 -0.009196068 -2.7904246 1.3620651 -0.6775158 0.6890435 0.79429555 2.753477 -2.3211718 -2.7325978 1.5437846 0.90920687 1.3198516
The 2.2248268 0.12671435 -0.013285511 -0.70973974 -0.63468456 -0.2498103 0.58517313 -1.0215536 -0.005364124 -1.4026092 0.666419 -0.34059447 0.33265638 0.40961012 1.3628443 -1.1355376 -1.3539187 0.78227055 0.46175686 0.67325914
as 3.4261427 0.20320459 -5.436456e-05 -1.1215591 -0.9675096 -0.3741456 0.9047871 -1.5970888 -0.012356523 -2.1485372 1.0448209 -0.5329515 0.5479891 0.60068977 2.1379461 -1.7677897 -2.106185 1.1922239 0.7067249 1.0486003
effects 3.7367444 0.22572307 -0.007095979 -1.1876137 -1.0701631 -0.4197138 1.0059121 -1.7372097 -0.003317963 -2.3574848 1.1314071 -0.57562804 0.58407843 0.66728103 2.3155248 -1.9457189 -2.3133752 1.293516 0.7559221 1.1173457
A 2.1846566 0.12766753 -0.008421044 -0.7137557 -0.61011237 -0.24549195 0.61709344 -0.9988265 -0.021712624 -1.3604825 0.70462376 -0.36203232 0.35422117 0.39245093 1.3554043 -1.1790504 -1.3254753 0.7551241 0.43574893 0.63181627
from 3.4277787 0.21427341 0.00230776 -1.083394 -0.95781875 -0.3691189 0.9154461 -1.61538 -0.007402569 -2.1444266 1.0421786 -0.5108806 0.5277943 0.62202936 2.1122644 -1.7826518 -2.1132765 1.1881924 0.68870443 1.0083324
rat 3.3260128 0.2025369 -0.015129075 -1.0673147 -0.9506938 -0.34228706 0.8882884 -1.5435632 -0.027273428 -2.0946877 1.0354749 -0.5174498 0.49756148 0.5826659 2.0534985 -1.7469352 -2.0481517 1.1633564 0.67948514 0.9993314
cell 3.4420218 0.20099872 -0.010943329 -1.1033555 -0.9951208 -0.42158258 0.9227894 -1.616891 -0.003869643 -2.1940026 1.0873479 -0.53697234 0.5597567 0.6381198 2.1767714 -1.8243998 -2.137493 1.2185582 0.7096291 1.0162374
rats 3.386511 0.20560616 -0.009738009 -1.0838956 -0.98398453 -0.38122198 0.90285224 -1.5716405 -0.020403594 -2.136232 1.0412087 -0.5344468 0.53191906 0.60603225 2.105424 -1.7907559 -2.0978937 1.1886183 0.6988866 1.0007404
inhibitors 4.042975 0.22955845 0.0027574773 -1.2913185 -1.1636944 -0.4453095 1.072978 -1.882646 0.00036166003 -2.5505521 1.2344861 -0.625294 0.62993 0.72703373 2.5076358 -2.1201231 -2.505736 1.410104 0.82800436 1.2069465
is 4.317847 0.2368698 0.018451104 -1.4089652 -1.2092363 -0.49181056 1.1738244 -2.0184214 -0.026782203 -2.717864 1.3284272 -0.6620303 0.66652733 0.7968332 2.6719105 -2.281349 -2.677225 1.4895327 0.88475883 1.2795972
novel 2.6965818 0.16632472 0.006515155 -0.8664446 -0.7703269 -0.31083474 0.711427 -1.2589648 0.013935636 -1.7087241 0.8235161 -0.40479496 0.4129729 0.48683077 1.6406767 -1.3937167 -1.6604927 0.9241937 0.57193506 0.8067067
mice 2.7095075 0.16400558 -0.02436824 -0.8723592 -0.7780435 -0.306047 0.72970885 -1.2618668 -0.022930099 -1.701093 0.8318672 -0.42482588 0.4501262 0.495353 1.6958928 -1.4352393 -1.6904519 0.93491536 0.5594401 0.8152168
cancer 3.0149329 0.17352754 -0.006626623 -0.96263844 -0.8829382 -0.3562416 0.7984965 -1.3932307 0.004699067 -1.9164764 0.93063706 -0.4756156 0.49067065 0.5486808 1.8938637 -1.6004288 -1.8689443 1.0651972 0.62512076 0.91069263
gene 4.358695 0.25357082 -0.020633582 -1.400114 -1.2351857 -0.46591422 1.1590675 -2.0330036 -0.009653989 -2.7543125 1.3427885 -0.6661748 0.6764498 0.7845215 2.703043 -2.2666285 -2.7027824 1.5236472 0.90390354 1.3022888
an 6.2822146 0.37367874 0.007248471 -1.988016 -1.8065239 -0.7055702 1.6861974 -2.8930275 -0.017191082 -3.9535236 1.9154333 -0.97159904 1.0026081 1.1295335 3.9011247 -3.3121593 -3.8879602 2.2095993 1.2779958 1.8617381
protein 4.3962207 0.27313986 -0.018846717 -1.4003838 -1.2489053 -0.48069528 1.1765451 -2.0426018 -0.004161404 -2.7678177 1.348525 -0.69066876 0.7021639 0.8054189 2.7266924 -2.3069694 -2.724595 1.5502023 0.8970726 1.3211701
binding 3.9131103 0.22751915 0.0046856105 -1.243865 -1.1166048 -0.43411508 1.0445281 -1.8182628 -0.008786301 -2.4676034 1.2025769 -0.5980291 0.6094187 0.70880085 2.432842 -2.0559196 -2.417106 1.3691286 0.81249046 1.1660036
receptors 3.8245175 0.21332444 0.006321709 -1.2199954 -1.1026993 -0.40869254 1.0208926 -1.779684 -0.0060372087 -2.3974886 1.1639355 -0.5982337 0.59882194 0.693517 2.376744 -2.0025873 -2.3626652 1.3374542 0.77913886 1.1346865
[ 2.3674853 0.1683577 -0.011722945 -0.749416 -0.6949587 -0.27106842 0.6699343 -1.1231875 0.023015168 -1.473017 0.74136925 -0.3795368 0.41926587 0.427891 1.4981025 -1.2889447 -1.4706525 0.7939584 0.49842745 0.6900389
] 2.3353531 0.14976111 -0.00037856773 -0.7322873 -0.68297523 -0.2864694 0.64659643 -1.0758209 -0.030451316 -1.4493086 0.7102811 -0.34220535 0.36516857 0.42916885 1.411868 -1.1880037 -1.4586844 0.7821763 0.4554862 0.7283722
acid 2.810998 0.15929194 0.011295295 -0.8786857 -0.80614626 -0.31922495 0.75862235 -1.3072238 -0.013502148 -1.7740543 0.87174296 -0.43346214 0.45409375 0.51603675 1.7491775 -1.481935 -1.749853 0.9823078 0.58971155 0.8440166
factor 3.5403671 0.2115473 -0.0037614435 -1.1198697 -1.0132345 -0.39553276 0.92961 -1.6428268 -0.008603502 -2.2265632 1.0869906 -0.54089445 0.56003726 0.6463389 2.176379 -1.8247803 -2.1837404 1.2231897 0.7186198 1.057132
inhibition 5.5141397 0.31457308 0.005556511 -1.7592676 -1.5841885 -0.6120864 1.4575703 -2.5765164 0.004081143 -3.4920716 1.6907852 -0.84997517 0.8530046 0.98403376 3.423481 -2.8903139 -3.4097512 1.9373409 1.1114764 1.6366959
inhibitor 4.449729 0.2573392 0.00039652459 -1.4163209 -1.275022 -0.49023423 1.1794662 -2.06515 -0.0030864228 -2.8029482 1.3528206 -0.68896747 0.692608 0.7963701 2.7555628 -2.3292758 -2.7529976 1.5495389 0.9079182 1.327357
activation 6.0469513 0.3506155 0.013862589 -1.9428711 -1.7400968 -0.671099 1.6058878 -2.8234277 0.0016993434 -3.8243818 1.8559965 -0.92041105 0.92886025 1.093997 3.7575026 -3.175722 -3.7238412 2.1217527 1.2328049 1.7935866
signaling 3.3028975 0.1946183 0.0052368436 -1.0458571 -0.9384183 -0.35660428 0.87103295 -1.5281713 -0.0065970155 -2.08462 1.0115846 -0.50200784 0.5219218 0.6039331 2.0565412 -1.7340348 -2.041299 1.1522492 0.6705183 0.9887706
effect 3.2574172 0.20328183 -0.005643444 -1.0330186 -0.93043786 -0.36512375 0.8775402 -1.5135283 -0.005236226 -2.0588288 0.9874476 -0.5000085 0.50424784 0.5751307 2.0124223 -1.6949469 -2.0154603 1.1294961 0.65396243 0.97314817
treatment 2.9893484 0.16637598 0.007062519 -0.965155 -0.8539697 -0.32802886 0.79487216 -1.3956078 -0.0065500145 -1.8743683 0.9192872 -0.46335888 0.46262154 0.53711504 1.8559084 -1.5659788 -1.8448519 1.0313417 0.61701477 0.8914664
2 1.0317271 0.07998225 0.024438143 -0.2659862 -0.29647744 -0.15823147 0.2741306 -0.46892005 0.018841282 -0.61733717 0.2951685 -0.1509578 0.14339766 0.17814338 0.61665666 -0.5184388 -0.59597147 0.36559922 0.19151154 0.3249617
via 2.2305408 0.13515875 0.00092597463 -0.69957286 -0.6393328 -0.24301839 0.59521204 -1.0369809 0.006453947 -1.4055758 0.68081623 -0.34307745 0.36055937 0.42049697 1.3870105 -1.1574885 -1.3937613 0.7943083 0.46277386 0.67992634
patients 3.676453 0.21401796 0.005992874 -1.1741568 -1.0462793 -0.411903 0.9873741 -1.7182852 -0.011547241 -2.3130498 1.1254983 -0.55701476 0.57033443 0.67487675 2.2956219 -1.9242383 -2.278996 1.2834058 0.75046784 1.0957911
through 2.119294 0.1193271 0.0032736151 -0.6696248 -0.6086372 -0.24000569 0.5698816 -0.98302543 -0.008382631 -1.333093 0.64504504 -0.3375666 0.32903144 0.3850849 1.3151512 -1.1191483 -1.3035449 0.73396415 0.44014812 0.63840604
its 3.04098 0.18349735 -0.01029312 -0.96455246 -0.8772898 -0.33739072 0.8203146 -1.4263065 0.023666846 -1.9099089 0.919962 -0.4516173 0.4809526 0.5631924 1.892604 -1.6055533 -1.8682722 1.0745795 0.6197236 0.922097
vitro 1.7279431 0.07654846 0.0004895019 -0.5461094 -0.5010636 -0.20302993 0.453695 -0.79707885 -0.004161804 -1.0746305 0.5100438 -0.26807803 0.28197902 0.30899873 1.0774574 -0.8991621 -1.0602219 0.60248506 0.36612993 0.5205748
vivo 1.0277805 0.06936694 0.0076612085 -0.33644408 -0.314519 -0.11362624 0.2654672 -0.47743893 0.005285615 -0.63521427 0.31590635 -0.15611614 0.1757562 0.19048366 0.6476742 -0.5431683 -0.64183706 0.35585615 0.21932264 0.29921055
apoptosis 2.0774646 0.1345853 -0.007599363 -0.6668617 -0.5938327 -0.23323625 0.5609826 -0.97162193 -0.012387337 -1.322178 0.64547664 -0.32345504 0.32306772 0.38922384 1.2990866 -1.0943575 -1.2980883 0.7255161 0.4296235 0.62434185
antagonist 2.8104386 0.16210958 -0.006781372 -0.89266425 -0.80967176 -0.31585205 0.74593526 -1.313674 0.01576769 -1.7791723 0.85132694 -0.43594357 0.43994492 0.5092899 1.7400365 -1.4779783 -1.7304537 0.9849083 0.5807559 0.84114075
1 1.0519551 0.06642642 0.004821929 -0.3346585 -0.29743254 -0.108704716 0.31033954 -0.47094074 -0.0007254379 -0.67622185 0.3198359 -0.13428679 0.20472378 0.16852342 0.6395909 -0.5589007 -0.6741092 0.39441624 0.24427074 0.31655788
brain 2.7065687 0.16026801 -0.002644061 -0.8772827 -0.78885114 -0.29962197 0.7248686 -1.249 -0.008552725 -1.7082294 0.81899416 -0.4185321 0.41132948 0.4840249 1.6830927 -1.4222698 -1.6733648 0.9667116 0.54587907 0.80348575
Effects 3.246753 0.19808918 -0.0030408278 -1.0311049 -0.93637705 -0.36837482 0.8752454 -1.5140021 -0.005425582 -2.0462747 0.98437566 -0.5000338 0.50998247 0.58521074 2.0188997 -1.6903013 -2.0152867 1.1261274 0.6608596 0.96930337
transporter 2.7459772 0.16292214 0.002191198 -0.87663895 -0.78969985 -0.30996442 0.7288493 -1.2700207 0.0015738262 -1.7271796 0.8459235 -0.41723204 0.4244132 0.5004386 1.7068832 -1.442042 -1.7092932 0.9706297 0.56849986 0.82420516
induced 5.3545613 0.32568574 -0.0020898432 -1.706179 -1.5445335 -0.5947173 1.4321392 -2.4939032 -0.01662835 -3.3637052 1.6425254 -0.81903803 0.8448495 0.97755873 3.3294387 -2.8200011 -3.314637 1.8820639 1.0817412 1.5937034
against 1.8967327 0.104464024 -0.0069222157 -0.59635454 -0.53988564 -0.19856332 0.51827025 -0.8733727 0.0012843609 -1.1980935 0.5763013 -0.28667492 0.2994436 0.346301 1.1811754 -1.0033952 -1.1673877 0.66227806 0.39622033 0.57603914
growth 1.343609 0.064824045 -0.0129654035 -0.43400392 -0.38334075 -0.14839448 0.34934673 -0.6289418 0.0015741565 -0.8669299 0.4101743 -0.20565121 0.20561491 0.2456862 0.8370895 -0.70907 -0.847147 0.47372904 0.2731572 0.39951167
kinase 3.6199553 0.21912897 0.0057298345 -1.1606917 -1.0289747 -0.399168 0.97221565 -1.6874492 -0.012730264 -2.292985 1.1099837 -0.55261374 0.5715256 0.66576225 2.2555192 -1.912909 -2.2289422 1.2904515 0.7496011 1.0831254
mouse 2.3760858 0.12753111 0.0072445967 -0.7409612 -0.6756566 -0.26002648 0.626675 -1.1022755 -0.0122448 -1.483996 0.7280796 -0.36652768 0.37158933 0.42017925 1.4656231 -1.2422789 -1.4619067 0.8272791 0.493398 0.6960946
pathway 1.9401172 0.10830919 0.003938969 -0.62127256 -0.5506851 -0.2176405 0.52800024 -0.9018739 -0.001991805 -1.2304817 0.5856052 -0.30250022 0.29761317 0.3467103 1.215084 -1.0209355 -1.2065818 0.68991697 0.40062892 0.5743329
new 1.6094685 0.086332455 -0.0018086216 -0.5264317 -0.4600315 -0.17744033 0.43538254 -0.729042 0.002946283 -1.0046556 0.47648308 -0.24754204 0.2331493 0.26626202 0.97847855 -0.82526433 -0.9752325 0.55692035 0.3342423 0.4853789
Effect 2.6950173 0.17147371 0.0006124876 -0.8577164 -0.77407026 -0.3013793 0.7249754 -1.2548921 -0.0062050535 -1.6989616 0.81932926 -0.4114503 0.41946563 0.48403716 1.667701 -1.4002231 -1.6691781 0.9390146 0.54365045 0.79729193
drug 1.4356124 0.08593614 -0.012140169 -0.44613323 -0.4112978 -0.15860711 0.3877219 -0.6857944 -0.0032796504 -0.88793 0.43887746 -0.22612938 0.23596059 0.25667334 0.89301527 -0.7461914 -0.89647967 0.49918893 0.30672482 0.426414
at 2.2630453 0.13232756 0.007399857 -0.72438455 -0.65440285 -0.23994279 0.6022197 -1.0388237 -0.03941811 -1.4399801 0.6919415 -0.33921868 0.35283953 0.4090221 1.3554457 -1.1691964 -1.3907877 0.8007279 0.44903156 0.6601336
Synthesis 2.3479307 0.14854035 0.014424884 -0.76268387 -0.67051446 -0.26490957 0.6255473 -1.0867132 0.0065887915 -1.4731498 0.70150554 -0.34436917 0.3670465 0.4329514 1.4616128 -1.2324038 -1.4460121 0.8160915 0.47215515 0.7033712
selective 3.5112982 0.20873347 0.0069495062 -1.1125767 -1.0057349 -0.39528438 0.93827504 -1.6337394 -0.003994109 -2.2241774 1.0786165 -0.5386217 0.5485851 0.63128215 2.179923 -1.8405812 -2.1645024 1.221099 0.7330905 1.0481993
inhibits 4.020108 0.2369476 0.002705079 -1.2775904 -1.1536397 -0.44031397 1.0679464 -1.8761808 7.857127e-05 -2.5350432 1.2169257 -0.6215137 0.6225239 0.71699554 2.4869597 -2.106297 -2.4846835 1.4051018 0.8167058 1.19532
type 1.8816537 0.09744697 -0.013599691 -0.57647604 -0.5279272 -0.2153295 0.5188917 -0.85612446 -0.012179348 -1.176936 0.57496125 -0.29603717 0.28309 0.3501422 1.176051 -0.99673826 -1.1501832 0.6569136 0.37966383 0.55180836
study 1.500175 0.09607712 -0.014633096 -0.48462826 -0.44091508 -0.1724671 0.39702716 -0.69102657 0.00021679935 -0.9568266 0.46536463 -0.23216869 0.2476802 0.2827964 0.9541988 -0.79679126 -0.93560594 0.52785885 0.30973786 0.44543505
model 2.071287 0.11866091 0.010007995 -0.6456295 -0.5839886 -0.2274343 0.5421107 -0.9680219 -0.004345915 -1.3014096 0.64437544 -0.31520933 0.32355297 0.39052477 1.2897384 -1.0715297 -1.2820385 0.7207478 0.4106346 0.6152844
potential 3.3132758 0.17661327 0.004213093 -1.0586078 -0.9393834 -0.36878204 0.884616 -1.5327381 -0.0007832854 -2.0821686 1.0100809 -0.4960616 0.5121111 0.5985322 2.0456655 -1.7354102 -2.0402074 1.159354 0.6806733 0.9945619
stress 2.4754226 0.14272124 0.0038398614 -0.79790497 -0.71722955 -0.25733176 0.6632208 -1.1591411 -0.004165274 -1.5519624 0.7679718 -0.3953426 0.3751635 0.43768573 1.5322571 -1.2984071 -1.538798 0.8704079 0.48955435 0.7437707
metabolism 1.9383821 0.11220008 -0.006096182 -0.6138756 -0.55036956 -0.20605141 0.5086099 -0.8991009 0.0010120725 -1.2122232 0.5867319 -0.29204115 0.30415717 0.35412762 1.1971073 -1.0190006 -1.1911544 0.68143016 0.3945136 0.575142
function 4.637664 0.26625 0.0020491767 -1.4937034 -1.3357748 -0.50918317 1.2202314 -2.1579597 0.0025640782 -2.9317045 1.4232666 -0.71124434 0.70961046 0.83627474 2.8924627 -2.4488194 -2.8524165 1.6386114 0.93473125 1.3628807
role 2.2729166 0.13900019 -0.005233738 -0.72124976 -0.6460209 -0.23116922 0.59981966 -1.0404679 -0.0035411126 -1.4310294 0.67720336 -0.36193535 0.35232502 0.40902016 1.4177252 -1.1773181 -1.3984538 0.78851277 0.47339162 0.67356026
II 0.85377157 0.034291442 -0.00453525 -0.27001598 -0.23980771 -0.08533421 0.21957985 -0.38219213 -0.0078025605 -0.53281933 0.25207475 -0.13584767 0.12625517 0.16704477 0.52648914 -0.45452514 -0.5352993 0.2865989 0.18813793 0.24321823
disease 2.7532842 0.16671982 -0.0025444762 -0.87775844 -0.7824311 -0.31157994 0.73344034 -1.2854321 -0.012798717 -1.7308213 0.84294385 -0.4162422 0.4156137 0.5035258 1.713339 -1.4411544 -1.7064316 0.97180426 0.5638404 0.8201128
properties 2.8822603 0.17539887 -0.00015290859 -0.927788 -0.8165225 -0.32321703 0.7676186 -1.3390089 0.001362684 -1.8194195 0.8870359 -0.43995363 0.44533786 0.52591294 1.7772655 -1.5077462 -1.7851255 1.0145636 0.5817812 0.86725664
liver 2.3554244 0.13943304 -0.007932099 -0.7417711 -0.67318743 -0.26195526 0.6230679 -1.0881138 -0.0038553493 -1.4800866 0.7246433 -0.35313597 0.35099074 0.4126925 1.4598035 -1.2439893 -1.4526209 0.8143914 0.48828736 0.6971815
dopamine 3.1478746 0.19204022 0.005135777 -0.99398947 -0.89618826 -0.339945 0.83499974 -1.4639814 -0.003788125 -1.9786171 0.9560544 -0.495966 0.5023554 0.56620806 1.9461275 -1.6473792 -1.9419001 1.1067197 0.6523186 0.94292986
's 0.87629867 0.03738465 -0.014936816 -0.3006832 -0.25334194 -0.08704829 0.25748914 -0.3839856 -0.00038331002 -0.5413424 0.27207482 -0.15365091 0.17065944 0.14103067 0.55779254 -0.44761807 -0.5456624 0.28203434 0.14273831 0.23632935
alpha 1.5221201 0.09778275 -0.010893699 -0.48793697 -0.43045422 -0.17579603 0.3986915 -0.70506114 -0.009397671 -0.9540703 0.46443447 -0.22767092 0.2304922 0.2820841 0.9493865 -0.7873437 -0.9447739 0.5349127 0.30627868 0.45139077
using 4.138346 0.24274431 -0.0015176085 -1.3332647 -1.1768428 -0.46619937 1.1055286 -1.9070288 -0.0029779687 -2.6064422 1.2686455 -0.6397893 0.6529647 0.73955446 2.5767787 -2.1871722 -2.5551476 1.452207 0.84284973 1.2397546
drugs 1.1818197 0.07090492 -0.0061431886 -0.37137496 -0.34102294 -0.120271675 0.31071323 -0.5670582 0.00044925485 -0.7374746 0.34952033 -0.17876585 0.1900437 0.20346904 0.72139466 -0.60285974 -0.7385531 0.41823438 0.24182932 0.35150144
response 2.7899616 0.1638132 0.0041696928 -0.89703166 -0.7985601 -0.3046015 0.7417195 -1.2919291 -0.0039690537 -1.7673925 0.8657148 -0.43782392 0.42456475 0.51178527 1.727448 -1.4667237 -1.7258532 0.97481674 0.57495695 0.8311097
molecular 2.2293234 0.121692576 0.0127117075 -0.7046388 -0.6304707 -0.2334685 0.5884834 -1.0305765 -0.0057401275 -1.4019792 0.66598356 -0.341803 0.33999574 0.40405402 1.3826282 -1.1653605 -1.3812306 0.7865136 0.45741323 0.6678124
associated 3.2336411 0.18898042 -0.0042620627 -1.0336494 -0.9242258 -0.35199773 0.8616236 -1.5069484 -0.008776133 -2.039066 0.9805129 -0.49803147 0.50731474 0.5872366 2.0163395 -1.7004447 -2.0032954 1.1387774 0.65673417 0.9648732
potent 3.7198112 0.19201617 0.0062378896 -1.1843284 -1.0553916 -0.41707367 0.99035937 -1.7212645 -0.0025371052 -2.3357267 1.1313208 -0.54427195 0.57682276 0.66286176 2.2979186 -1.9327595 -2.2893867 1.2948198 0.7685051 1.1181251
characterization 3.449224 0.19805875 0.0075127985 -1.1096234 -0.99116147 -0.38391677 0.9127227 -1.6117074 -0.0005270663 -2.1850948 1.0584246 -0.5263481 0.5255572 0.6228897 2.1428487 -1.8089014 -2.1250286 1.2103488 0.6992685 1.0149636
synthesis 2.7874227 0.16848107 0.015683422 -0.9065652 -0.79713124 -0.31651473 0.7398464 -1.2936869 0.0028140293 -1.7472192 0.84027785 -0.41357663 0.43171045 0.50929534 1.7290738 -1.4639165 -1.7216341 0.9729543 0.5655943 0.83402437
are 1.623018 0.09611726 0.005498324 -0.51497656 -0.4606511 -0.17824297 0.4352707 -0.75799525 -0.011781882 -1.0042737 0.4775222 -0.25082728 0.25864235 0.283264 0.9759173 -0.8528995 -0.9868144 0.57620543 0.33408123 0.4821933
between 1.330351 0.10227428 0.013861609 -0.41098985 -0.37252828 -0.14134878 0.3539842 -0.614874 -0.0025435234 -0.8138525 0.40562737 -0.20669085 0.20555575 0.2408472 0.81107104 -0.701342 -0.804544 0.45755377 0.27647114 0.39177716
high 1.7100018 0.097272806 0.01676427 -0.54341656 -0.5038729 -0.18707018 0.45860574 -0.7909304 -0.0025521358 -1.0854821 0.51750225 -0.26541644 0.28182667 0.31442365 1.0693746 -0.89311194 -1.0812719 0.6092076 0.3380485 0.5119531
regulation 5.430435 0.31901512 0.007488224 -1.7524179 -1.5639728 -0.59981966 1.4362708 -2.5356102 -0.002179414 -3.4358091 1.6693215 -0.83074325 0.83571035 0.97428983 3.382715 -2.8500037 -3.3537564 1.9146467 1.1024188 1.604826
DNA 0.75013584 0.04378588 -0.00064616 -0.21749608 -0.22647586 -0.08659436 0.20799914 -0.33793873 -0.005583451 -0.4560502 0.21958104 -0.093747936 0.10137798 0.11357133 0.46362916 -0.37245822 -0.45602056 0.24271525 0.14654085 0.21753979
Inhibition 4.5605145 0.26208606 0.008769891 -1.4603837 -1.3157059 -0.5094703 1.2050979 -2.1325846 0.004116235 -2.8825467 1.4031148 -0.69840527 0.7002976 0.8148923 2.8288264 -2.394804 -2.8209763 1.6048821 0.9195929 1.3532082
breast 1.5259448 0.09408536 0.0093976315 -0.4879934 -0.43885773 -0.16663451 0.40811563 -0.7135376 -0.004906648 -0.9710224 0.4779586 -0.23167859 0.24768722 0.28553122 0.95358187 -0.8060606 -0.94698775 0.545274 0.30240166 0.463907
agents 3.337816 0.18079174 -0.007538315 -1.0578115 -0.94973093 -0.3649377 0.8847316 -1.5556684 -0.0052947784 -2.0978005 1.0257276 -0.51376456 0.51461935 0.6098295 2.077041 -1.749544 -2.0622706 1.1602794 0.6912302 1.0022022
during 3.287939 0.18452242 0.008306097 -1.0610927 -0.9403462 -0.36212406 0.88084525 -1.523993 -0.0077721705 -2.0890558 1.0154101 -0.5061232 0.51760244 0.5887231 2.0411682 -1.7274314 -2.0336235 1.1549444 0.66793644 0.9959978
derivatives 3.0611196 0.18024497 0.013729105 -0.9706644 -0.87645566 -0.34180468 0.81106496 -1.4212455 -0.0032899831 -1.9135504 0.9437608 -0.46125692 0.47152328 0.5524561 1.8900172 -1.5867121 -1.8804413 1.0643117 0.631892 0.9149336
not 1.5984932 0.10364396 -0.0026022878 -0.5126707 -0.44019157 -0.16545033 0.41683587 -0.7513316 -0.033978242 -1.0184565 0.49299854 -0.23688804 0.23984526 0.30631298 0.9786863 -0.8427459 -0.9793302 0.5570673 0.3446452 0.48480102
production 4.7030334 0.27647728 0.007966183 -1.5111942 -1.3568344 -0.51942015 1.2448236 -2.196169 0.00030600355 -2.9762506 1.4375347 -0.71422035 0.7336741 0.8448958 2.9328241 -2.4759948 -2.912923 1.6557529 0.9446641 1.3975343
mechanism 1.895132 0.11445954 -0.005380019 -0.60215634 -0.54059005 -0.21324147 0.50317997 -0.88311696 0.0018109158 -1.1964885 0.56206524 -0.28250906 0.29486555 0.34398034 1.1739593 -0.99907416 -1.1776897 0.66810936 0.39468178 0.55927545
induces 4.616141 0.27389202 -0.0020174321 -1.4795616 -1.3288888 -0.5236626 1.2404599 -2.1558588 -0.015185515 -2.90289 1.4219795 -0.6991096 0.72520304 0.8440972 2.8835838 -2.424051 -2.857567 1.6251609 0.9343153 1.3796062
oxidative 3.0897002 0.16476223 -0.0017708696 -0.9701008 -0.89736295 -0.3377313 0.8255656 -1.4349624 -0.019400395 -1.9317245 0.96245337 -0.46631107 0.48562244 0.55813813 1.9172701 -1.6157572 -1.9093744 1.085317 0.6333643 0.9177601
levels 1.7052052 0.116665855 0.0015332644 -0.5455068 -0.49250758 -0.18469666 0.46665743 -0.78846365 -0.0053024055 -1.0657368 0.525336 -0.2704096 0.2728396 0.30721352 1.0610635 -0.89186907 -1.041165 0.60095525 0.35158145 0.51927245
synthase 2.683707 0.15197168 0.008814907 -0.850573 -0.76271045 -0.28856352 0.6988911 -1.251107 -0.0107824635 -1.6809131 0.81423044 -0.40677872 0.4120917 0.48600402 1.6545465 -1.4006113 -1.6629915 0.9393467 0.5522986 0.79579884
muscle 1.3791507 0.08139987 -0.018085737 -0.4411582 -0.38683525 -0.15832098 0.3742536 -0.65799445 -0.0108990995 -0.8698636 0.419439 -0.20923412 0.21808594 0.260666 0.8649204 -0.7137493 -0.8592135 0.4835619 0.28473976 0.41296715
their 2.0555637 0.11867028 -0.0017452347 -0.6612571 -0.5890795 -0.23904961 0.53951555 -0.94752675 -0.008098151 -1.3044254 0.6527785 -0.3175149 0.32682383 0.3619705 1.2613049 -1.0852412 -1.2814496 0.72798264 0.4157357 0.61051
exposure 1.4261703 0.07932192 -0.008350443 -0.44226202 -0.42352703 -0.1604904 0.38796985 -0.65546674 0.0008583765 -0.8958876 0.4309216 -0.21749987 0.22688313 0.25187892 0.8782939 -0.7509766 -0.88574684 0.5070884 0.3040338 0.43031767
use 2.8435676 0.1786523 0.011084904 -0.902665 -0.77531856 -0.3239758 0.7520189 -1.3293045 -0.008762842 -1.7833992 0.859223 -0.4232765 0.45062214 0.5062913 1.7366091 -1.501119 -1.7605911 0.98949766 0.5927711 0.84281677
interaction 4.942188 0.28706652 0.007614658 -1.5784072 -1.4110459 -0.5458931 1.3067945 -2.297291 0.0024929566 -3.1244388 1.5082505 -0.7540724 0.76165074 0.8898987 3.0782385 -2.5867548 -3.0529184 1.7368948 0.9998351 1.4649768
proteins 3.346953 0.21301985 -0.014270151 -1.0736932 -0.94918007 -0.36635292 0.89727265 -1.5496615 0.0009421049 -2.1103926 1.0273818 -0.53175014 0.5352986 0.6143178 2.0782025 -1.7571535 -2.078351 1.181155 0.6830094 1.0046965
antagonists 2.7782624 0.16280316 -0.011045003 -0.8834674 -0.80247563 -0.311367 0.73711586 -1.2964666 0.007364112 -1.7575378 0.8410469 -0.42990896 0.43269044 0.50177634 1.720189 -1.462635 -1.712086 0.9688002 0.5748524 0.8313568
endothelial 2.1055245 0.12711242 0.005705778 -0.6731847 -0.5987499 -0.23847707 0.5595339 -0.9755299 -0.0038416008 -1.3298128 0.65380734 -0.31654206 0.33057275 0.38262782 1.308368 -1.110512 -1.3071479 0.73373646 0.43198586 0.63349694
insulin 2.6241093 0.15449329 -0.005236404 -0.83473986 -0.7464244 -0.2877085 0.6888284 -1.2186965 -0.011436386 -1.6422955 0.8036931 -0.40317112 0.41270584 0.47621608 1.6258571 -1.3741277 -1.6178899 0.91513366 0.5296167 0.780149
channel 1.8960898 0.09796203 0.0026642615 -0.6063105 -0.55727994 -0.19771485 0.49880877 -0.8834095 -0.00083086645 -1.2038589 0.57599366 -0.29544026 0.28717977 0.338802 1.183154 -1.0017976 -1.1707647 0.66221815 0.3925903 0.5602361
evaluation 4.0621543 0.22550842 0.0063741133 -1.3155155 -1.1636413 -0.44658867 1.081592 -1.9077948 0.007581539 -2.5765333 1.2395557 -0.62485427 0.6214218 0.72911674 2.54323 -2.135581 -2.5047588 1.436927 0.81887716 1.2124012
studies 2.2934992 0.14013374 -0.012442605 -0.7367259 -0.6610887 -0.261732 0.60199475 -1.067295 -0.0052312748 -1.4453773 0.70581156 -0.3577713 0.35576007 0.42259914 1.4316759 -1.2131974 -1.4143736 0.7984687 0.46185005 0.6782295
therapy 2.201779 0.12585993 0.0039623347 -0.7151226 -0.6273145 -0.24837561 0.59421164 -1.0243556 0.00031349726 -1.3903946 0.6838145 -0.33737746 0.35229748 0.39645788 1.3634729 -1.1546444 -1.3631089 0.77541566 0.448545 0.6540305
action 7.3120093 0.42561862 0.022243643 -2.346978 -2.1023357 -0.8032318 1.9288456 -3.405274 0.0046323123 -4.6223125 2.235692 -1.1141104 1.1183673 1.3070934 4.545267 -3.8527837 -4.5037246 2.574687 1.4756135 2.1643448
release 3.1983216 0.18825483 0.0039449064 -1.0334336 -0.9041472 -0.36262837 0.8489458 -1.4892507 -0.017995758 -2.025596 0.96496433 -0.49381253 0.507984 0.58698153 2.003951 -1.6676289 -1.9809312 1.1158165 0.6594516 0.946014
genes 3.768333 0.22066392 -0.0063904026 -1.2080729 -1.0630548 -0.4187342 1.0037018 -1.7560449 -0.009917313 -2.3713543 1.1539137 -0.588168 0.58165103 0.6667064 2.345561 -1.9724004 -2.3397336 1.32117 0.7716149 1.110799
hormone 2.0588946 0.12162998 -0.0018457328 -0.65489465 -0.5849636 -0.23187219 0.5461681 -0.95835096 -0.006551939 -1.2935936 0.6228517 -0.31069732 0.31295228 0.3814065 1.2683626 -1.0695791 -1.2647486 0.7259505 0.41659957 0.6212949
target 1.414502 0.07598256 0.00515362 -0.4491889 -0.3901577 -0.1491723 0.36128324 -0.65848804 0.00912372 -0.8880774 0.42805186 -0.21452816 0.22112876 0.25930703 0.87296015 -0.7284827 -0.860202 0.4764281 0.28230125 0.41008973
system 1.3016087 0.07428127 -0.00020455687 -0.42060846 -0.38224566 -0.15151179 0.34204888 -0.60897726 -0.0066148625 -0.8269753 0.3993922 -0.20534554 0.1996979 0.23271747 0.80581015 -0.6976082 -0.80836004 0.44634226 0.2647903 0.3985364
tumor 1.5729411 0.09112953 -0.003074879 -0.4936571 -0.4464306 -0.17794141 0.42100158 -0.7473976 0.00067612977 -0.99395376 0.48098955 -0.23873332 0.24719752 0.28795922 0.98067564 -0.82352084 -0.98024654 0.55554193 0.3195395 0.46590468
In 1.2565368 0.06676374 0.012324043 -0.37093893 -0.35307887 -0.13196248 0.32576695 -0.55323726 0.016525507 -0.7758186 0.38000822 -0.18576494 0.17516205 0.23340735 0.7721751 -0.65652025 -0.7707715 0.45367897 0.24453859 0.39266124
beta 1.8838102 0.10555858 -0.006386891 -0.616139 -0.5361887 -0.20654286 0.501715 -0.8666939 -0.004715452 -1.1720283 0.57009494 -0.28923512 0.30453193 0.34963286 1.1598611 -0.9767149 -1.151046 0.64657027 0.39365336 0.5645402
Characterization 3.2827091 0.18905862 0.005873979 -1.0544966 -0.94094783 -0.36410233 0.870092 -1.5339146 0.0047006626 -2.0790815 1.009324 -0.5003138 0.5014239 0.59464926 2.0388098 -1.7173539 -2.0233126 1.1531314 0.66724426 0.9680883
changes 2.3980842 0.12394619 0.0062251086 -0.7563507 -0.691366 -0.25878873 0.6281543 -1.1040678 -0.0020286927 -1.5047511 0.7295135 -0.3615499 0.36942002 0.42383838 1.4873474 -1.253977 -1.4742975 0.8366904 0.4845938 0.7010876
epithelial 1.8333775 0.10591719 0.006003009 -0.5795235 -0.5254925 -0.20494847 0.48940894 -0.85545725 0.0036956 -1.1572918 0.5682811 -0.28648344 0.28179064 0.3315551 1.1400081 -0.9648568 -1.133347 0.6416898 0.3739728 0.55000144
analysis 2.3765397 0.14415169 -0.0073585957 -0.7667544 -0.67715466 -0.2755506 0.63181007 -1.100725 -0.0039862054 -1.4936045 0.7207989 -0.35951075 0.37343204 0.4285271 1.4777592 -1.2394309 -1.4698156 0.831017 0.492851 0.70992774
after 2.282402 0.12514018 0.011664853 -0.72131556 -0.65465385 -0.25228533 0.60235965 -1.0530088 -0.0038517558 -1.4341662 0.6820822 -0.35212713 0.3497647 0.41074845 1.4187347 -1.1881213 -1.4108465 0.8061735 0.46233043 0.67476493
agonist 2.3885434 0.1354548 -0.005947512 -0.76526946 -0.6824269 -0.26471245 0.6362614 -1.113692 0.011893994 -1.5136245 0.7203558 -0.36582118 0.37945777 0.43369794 1.4766395 -1.2524289 -1.4709371 0.8329162 0.49378413 0.7124002
channels 1.809095 0.09898428 0.0053295502 -0.57981455 -0.52507275 -0.1884554 0.47380093 -0.8483964 0.0008120979 -1.1359599 0.5489765 -0.28516123 0.27423066 0.3217432 1.1222553 -0.95646137 -1.1143075 0.640038 0.37056682 0.5348267
acute 1.6194791 0.11018791 -0.009534659 -0.5179291 -0.48387364 -0.19062333 0.4384562 -0.76017004 -0.0023195967 -1.0304768 0.51063657 -0.25154123 0.24570747 0.28749162 1.0004815 -0.8541177 -0.99946207 0.56405807 0.3255209 0.48644024
serotonin 1.8620028 0.1066238 -0.0030943053 -0.5935479 -0.53154343 -0.21025592 0.49423298 -0.8638403 -0.005438351 -1.1740465 0.56904036 -0.2811353 0.29407424 0.33524165 1.1464053 -0.9617317 -1.1483766 0.65541637 0.37145382 0.55820525
modulation 5.325974 0.30597156 0.0017805641 -1.7104218 -1.5328712 -0.5849142 1.4000037 -2.481444 -0.006513439 -3.3639288 1.6347755 -0.8127564 0.81652546 0.9572368 3.3095005 -2.794028 -3.2887828 1.8706694 1.0762293 1.5782434
anti-inflammatory 2.0958915 0.12641825 0.0045546535 -0.66713303 -0.6077813 -0.2388275 0.5578821 -0.96300906 -0.0017627608 -1.3208671 0.6389613 -0.3193959 0.3309939 0.3803012 1.3023092 -1.098078 -1.2986295 0.72978675 0.43234485 0.6218768
histamine 3.1018128 0.18566704 0.01171413 -0.9887674 -0.8871058 -0.33629856 0.8220255 -1.4429644 0.004106369 -1.942735 0.9342042 -0.47518516 0.48264638 0.5581731 1.9230615 -1.6200103 -1.9143058 1.0825844 0.6310964 0.9314843
toxicity 2.3398738 0.14327976 -0.0077093076 -0.7432233 -0.66978973 -0.26671842 0.61809623 -1.0872649 -0.013192852 -1.4731603 0.71585006 -0.3559349 0.37888336 0.4338601 1.4628431 -1.235008 -1.4446542 0.8096877 0.47279397 0.6934154
clinical 2.8073092 0.16681801 0.010121946 -0.8882962 -0.8023543 -0.314735 0.7490071 -1.2971416 -0.0050644455 -1.765316 0.86610436 -0.42418197 0.43425137 0.5090581 1.7341107 -1.4695048 -1.7341387 0.9640666 0.57699555 0.83491755
lung 1.8048447 0.10190658 -0.010643438 -0.57511014 -0.51411426 -0.20941557 0.47428653 -0.8387387 0.019084824 -1.1417689 0.5553868 -0.28402632 0.28065032 0.32080734 1.1359193 -0.9572907 -1.1291993 0.64533305 0.3659837 0.53731704
functional 3.535183 0.20342238 -0.004183765 -1.1386992 -1.012016 -0.38778353 0.927612 -1.6472832 0.0015632549 -2.218733 1.0888064 -0.53765726 0.5427965 0.63496304 2.203155 -1.8633746 -2.1791034 1.2414671 0.7219892 1.0434091
male 1.8330678 0.11455608 0.00086451235 -0.5927391 -0.52279145 -0.1988311 0.48178816 -0.83497334 -0.0088592945 -1.1598574 0.5575699 -0.2746401 0.28846025 0.34368083 1.1486678 -0.9625624 -1.1232241 0.64056665 0.37952372 0.5521125
Identification 3.7726157 0.2175717 0.00851172 -1.2111763 -1.0814716 -0.41348308 0.99523634 -1.7573596 -0.004912115 -2.3845968 1.1518809 -0.57692605 0.57679576 0.6752927 2.3385897 -1.9876379 -2.3211696 1.3148586 0.7657452 1.1194597
sodium 1.2675962 0.06293732 -0.007375741 -0.401667 -0.36652154 -0.14643656 0.3383348 -0.60084486 0.0042283093 -0.80532765 0.3846113 -0.20403865 0.19681506 0.22958815 0.7854369 -0.66387564 -0.78871655 0.43797258 0.25857326 0.3859074
control 2.1069794 0.12151088 0.0004046673 -0.6645677 -0.6069646 -0.2205714 0.554523 -0.9764324 5.009479e-05 -1.3181018 0.6450506 -0.32583007 0.32743368 0.38527998 1.310936 -1.1035945 -1.3070253 0.7345379 0.43131465 0.62488043
activities 3.7708762 0.22328351 0.005535625 -1.2054719 -1.0899053 -0.42481503 1.0158327 -1.7529193 -0.0055372333 -2.3690484 1.1568526 -0.5723727 0.5840849 0.67992336 2.3407085 -1.9758922 -2.3222783 1.3189496 0.7784887 1.1237471
that 1.9796616 0.12147462 -0.0021191859 -0.6219368 -0.57175606 -0.21731964 0.5188889 -0.91124445 -0.017878257 -1.241197 0.60098433 -0.29964548 0.3170734 0.35198838 1.2385473 -1.0570678 -1.2197682 0.67897356 0.38890725 0.583418
diabetes 2.4337199 0.14255494 0.0023598985 -0.77927566 -0.69699454 -0.2786863 0.6466583 -1.1333225 -0.0022816507 -1.528045 0.74727553 -0.38324186 0.3804294 0.45253766 1.504996 -1.2734218 -1.5147216 0.85231674 0.49695298 0.7245873
renal 3.60307 0.21103092 -0.009476918 -1.1426009 -1.0233638 -0.3941079 0.9509791 -1.6666487 -0.0056168693 -2.264526 1.0932392 -0.555683 0.54924864 0.662855 2.2325733 -1.8886628 -2.2291956 1.253618 0.7482104 1.0689007
mechanisms 1.7380453 0.10573404 -0.0044413717 -0.5492665 -0.4977969 -0.19312924 0.45949805 -0.8076053 -0.0011512035 -1.0973241 0.51346266 -0.25901714 0.27255148 0.3152193 1.0856289 -0.9146476 -1.0768247 0.61155564 0.3622657 0.51329154
secretion 3.6813712 0.21553625 0.00020247963 -1.1817329 -1.0578154 -0.4079902 0.9638404 -1.7177608 -0.0002676185 -2.3238256 1.131377 -0.5592568 0.568494 0.660973 2.2934246 -1.9308882 -2.268239 1.2968844 0.74125737 1.0771635
primary 1.384806 0.081949 -0.006585629 -0.44201392 -0.39375412 -0.14115134 0.3722234 -0.6456223 0.0013709962 -0.8788476 0.4317914 -0.20924069 0.21079358 0.25673833 0.86533904 -0.7222864 -0.85604537 0.48781434 0.28649265 0.41934058
inflammatory 2.1718702 0.12662075 0.0047102314 -0.69441754 -0.6283766 -0.2499132 0.5814003 -0.99683744 -0.004885098 -1.3686858 0.66471887 -0.3377734 0.3498247 0.40000734 1.3480386 -1.1346756 -1.3544999 0.75040233 0.44427112 0.64028263
thyroid 1.5144035 0.07577624 0.005255543 -0.48014674 -0.42953184 -0.16884235 0.3984131 -0.6983117 -0.010847978 -0.9661463 0.47315714 -0.23312722 0.23914172 0.2748246 0.9505845 -0.8051542 -0.9501345 0.521877 0.3047192 0.44341737
Novel 1.6679854 0.093599446 0.008812661 -0.5262508 -0.48230505 -0.18957573 0.44538242 -0.7767513 0.0032858877 -1.0563723 0.4945757 -0.24707292 0.24751002 0.30595168 1.0239905 -0.8647932 -1.0172994 0.58811945 0.3596807 0.4909148
resistance 2.6901224 0.16427347 0.0020046213 -0.8595083 -0.77261674 -0.30668825 0.71745944 -1.238617 -0.0008166587 -1.6982676 0.82230854 -0.40412673 0.41342852 0.49661717 1.6772758 -1.4125118 -1.6726664 0.9342175 0.55246973 0.80936337
calcium 1.4320184 0.081916444 0.010894985 -0.45408982 -0.40578553 -0.16247554 0.3843756 -0.67438716 -0.0036808068 -0.90036833 0.44259462 -0.22447176 0.22862324 0.26627988 0.89735746 -0.75398344 -0.88896286 0.49490196 0.2944589 0.4189233
mediated 4.2375684 0.2412372 0.0016393366 -1.3420309 -1.2054733 -0.45853817 1.1317749 -1.9710857 -0.007420377 -2.672698 1.2846174 -0.65729165 0.67262495 0.78258806 2.6266694 -2.2268324 -2.623157 1.4866806 0.8728602 1.2547622
comparison 2.0828567 0.11193098 -0.0007514212 -0.6599932 -0.5954538 -0.22949548 0.5598671 -0.9589627 0.0013271434 -1.3116843 0.62414587 -0.310461 0.32335633 0.37643105 1.2932105 -1.0904846 -1.2776119 0.7279033 0.4240213 0.6221399
- 0.4489141 -0.012330061 0.008655569 -0.1578247 -0.124669775 -0.05530151 0.14656319 -0.21680012 -0.0033637285 -0.3002 0.15106179 -0.030860644 0.087523185 0.11965256 0.3087691 -0.21455488 -0.3022229 0.13232195 0.07380237 0.122338936
damage 0.76649016 0.054553967 -0.005609565 -0.24672501 -0.22097155 -0.08491826 0.21018027 -0.3577632 -0.0032922954 -0.4863201 0.24775623 -0.12036206 0.12416034 0.1511559 0.47884494 -0.40262955 -0.4778766 0.26630384 0.1592012 0.23604669
plasma 1.2608241 0.070922285 0.0063692243 -0.3988314 -0.3587428 -0.13147166 0.34904215 -0.57145214 0.0108544985 -0.7967803 0.385407 -0.19819915 0.19267006 0.23934944 0.77799666 -0.6624441 -0.7961686 0.4556771 0.25703025 0.3727486
blood 0.8578463 0.050942674 -0.0025882954 -0.28344822 -0.23823729 -0.09313142 0.22816475 -0.38864988 0.012690642 -0.5274193 0.26440763 -0.12746602 0.13539295 0.16063319 0.52643794 -0.43618885 -0.52724934 0.30430692 0.15903448 0.25284845
? 0.41053367 0.025767703 -0.019246217 -0.10672413 -0.11476797 -0.01737123 0.11228847 -0.21233603 0.0355107 -0.2800568 0.12231724 -0.05800897 0.09681119 0.06956534 0.24088487 -0.23615335 -0.2355684 0.1710943 0.05680021 0.11071082
involved 2.1413534 0.13162538 0.0005913744 -0.68408513 -0.6125306 -0.23462194 0.5712129 -0.9896092 -0.0029329655 -1.3404897 0.6409668 -0.343029 0.33460733 0.3821383 1.3223673 -1.1177217 -1.3269585 0.7465127 0.43950656 0.642016
attenuates 2.2414079 0.13733077 -0.002653115 -0.7092184 -0.6443631 -0.2445979 0.59398913 -1.0344915 -0.0020154442 -1.4071398 0.6856276 -0.3448936 0.3541207 0.4072957 1.3869623 -1.171466 -1.3893497 0.78251773 0.45681822 0.6697985
biological 2.249103 0.12886707 0.0077995947 -0.70846987 -0.6387885 -0.25140968 0.6037381 -1.032348 -0.011952351 -1.3984827 0.6831688 -0.33786216 0.3488629 0.40161827 1.3960232 -1.1764581 -1.3856213 0.781383 0.47015408 0.6724655
hepatic 3.2043536 0.20141897 0.004591208 -1.0187007 -0.91679 -0.3571273 0.85047877 -1.4979668 -0.0017263335 -2.009691 0.9777188 -0.4750015 0.4968352 0.5883389 1.9870656 -1.6772906 -1.9779904 1.1290232 0.65210116 0.95331866
syndrome 1.4622756 0.085052125 0.003977924 -0.47484067 -0.422418 -0.15979382 0.38648048 -0.6834637 -0.01323998 -0.91056746 0.45077255 -0.23472077 0.2240153 0.26905116 0.90579766 -0.77448094 -0.912975 0.5083568 0.2954689 0.44343126
enzymes 2.036292 0.11723959 0.0045771934 -0.65389365 -0.5917473 -0.22336863 0.54671216 -0.95406306 -0.01021131 -1.2898661 0.61938715 -0.32040328 0.30393478 0.37342185 1.2637732 -1.0833544 -1.257415 0.7105743 0.41215494 0.6172467
injury 1.4477011 0.091498405 -0.009187905 -0.46512648 -0.4059868 -0.15981671 0.38890016 -0.67225695 -0.017411288 -0.91941714 0.4559197 -0.2145611 0.23453788 0.2610611 0.90063244 -0.76472956 -0.90271646 0.50878984 0.30651966 0.4454813
mutation 5.46156 0.3080086 0.020880688 -1.7622452 -1.5561906 -0.60051227 1.4439409 -2.548628 -4.4550125e-05 -3.4623058 1.6582484 -0.8322148 0.83650374 0.98251987 3.3937826 -2.8707068 -3.3563304 1.9122258 1.0967641 1.6118777
oxidase 2.7166803 0.14721204 -0.014156752 -0.86229616 -0.7726739 -0.29761243 0.7191014 -1.2676284 -0.013181693 -1.7201517 0.83037037 -0.41370592 0.4236484 0.48299178 1.6915932 -1.4346924 -1.681183 0.95066965 0.5529797 0.81354624
enhances 2.7018993 0.14764112 -0.0045306804 -0.8590261 -0.7827072 -0.30507085 0.7146192 -1.2578523 -0.0070832013 -1.6979158 0.8437285 -0.411957 0.42982104 0.48983672 1.6903205 -1.4144288 -1.6714476 0.95764023 0.5638769 0.8091731
chronic 2.3228266 0.1347903 -0.0010784048 -0.73874515 -0.67336124 -0.25980428 0.6199127 -1.0750827 -0.0024892786 -1.4549001 0.7108852 -0.35139632 0.36447835 0.41844502 1.4346344 -1.2128065 -1.4247128 0.807984 0.48449832 0.6845957
isolated 3.6880815 0.20697235 0.0064108106 -1.1779066 -1.0555826 -0.39153874 0.98767287 -1.7118543 -0.0045824135 -2.328727 1.1265453 -0.5596371 0.5682077 0.67660207 2.290894 -1.9246739 -2.2726367 1.2850373 0.74961656 1.0898205
administration 3.7716737 0.21643086 0.00977647 -1.2081975 -1.0768042 -0.41355908 0.9859411 -1.7558508 0.0009083456 -2.3843331 1.1528063 -0.5749809 0.5830372 0.68420166 2.3455882 -1.9740512 -2.3297384 1.3227552 0.76460934 1.1180876
+ 0.47841638 0.028497174 0.02931289 -0.1454472 -0.13158074 -0.081854686 0.10559653 -0.23588598 -0.0050317324 -0.33707196 0.11696991 -0.054612976 0.05655466 0.06477685 0.2836082 -0.25016907 -0.26777184 0.1937518 0.09333624 0.17928292
protects 3.5981314 0.22664544 -0.004733489 -1.1465898 -1.0195633 -0.4037092 0.96231663 -1.6760368 -0.0029402408 -2.2771404 1.104492 -0.5646378 0.5723857 0.65589976 2.2347126 -1.8853846 -2.233149 1.2711722 0.7384679 1.0848075
I 0.36302617 0.060858257 0.029082876 -0.13188526 -0.0626581 -0.045391068 0.091374464 -0.19722998 -0.009684829 -0.24003702 0.106757596 -0.057131767 0.09154928 0.10329688 0.2470356 -0.19721228 -0.19965687 0.11573869 0.04139992 0.121781655
structure 1.8220412 0.11524668 0.0020249798 -0.58177125 -0.5211684 -0.2037511 0.48688543 -0.83879954 0.004548229 -1.1384987 0.5520031 -0.27877942 0.27314177 0.31586722 1.1302634 -0.95027095 -1.1132585 0.64409083 0.37094843 0.5426977
reduces 3.3052292 0.19331586 0.004814595 -1.0524163 -0.9478958 -0.36764336 0.88538784 -1.5388794 -0.023945674 -2.078399 1.0094156 -0.50861275 0.5158168 0.60326356 2.0653508 -1.7354403 -2.0438871 1.158561 0.67437774 0.98682195
amino 2.3109899 0.14184168 0.012408495 -0.7228633 -0.65891707 -0.25890645 0.6032244 -1.057367 -0.002709291 -1.4322354 0.6937018 -0.35365888 0.34907967 0.4179102 1.4318404 -1.1905613 -1.4140601 0.8244814 0.46863094 0.6963836
responses 2.8925734 0.17296873 0.0018288342 -0.92665654 -0.82736313 -0.32155293 0.77086955 -1.3395829 -0.005603359 -1.8297049 0.89055055 -0.4522212 0.44223753 0.53115714 1.7925929 -1.5255907 -1.7835768 1.0126134 0.5904255 0.8654695
interactions 3.9082541 0.23029609 0.0072907093 -1.2466232 -1.1170413 -0.4306935 1.0352594 -1.8163289 0.00063519 -2.468211 1.1991609 -0.59461015 0.6060519 0.70233893 2.434711 -2.0456395 -2.416134 1.3719155 0.79718435 1.1594778
or 3.3396423 0.19688639 0.021107085 -1.0402648 -0.9847946 -0.36532965 0.8791601 -1.544373 0.004992762 -2.095337 1.0036163 -0.5164677 0.51717794 0.6106289 2.0721014 -1.7786888 -2.059344 1.1996176 0.6740722 0.99132043
transcription 3.2580268 0.17961383 -0.0012730083 -1.0470257 -0.93120086 -0.3641435 0.86382544 -1.5168865 0.0047243447 -2.0669007 0.9973647 -0.498086 0.5004358 0.5898768 2.0341733 -1.7133377 -2.0156446 1.1471038 0.66153276 0.9672135
but 0.7578129 0.047546286 0.0031110141 -0.24655768 -0.22036174 -0.09267285 0.1903506 -0.34468845 0.016783021 -0.46736804 0.22186963 -0.10270654 0.112228855 0.12958658 0.46718732 -0.40903988 -0.45953992 0.24642134 0.1440688 0.2251126
development 2.144542 0.123733975 -0.0014586238 -0.68967533 -0.6133029 -0.24456687 0.57635564 -0.99533373 -0.0076573254 -1.3384229 0.6561291 -0.32936922 0.33408144 0.3838579 1.3354421 -1.1109922 -1.3184276 0.7483875 0.4434307 0.6431004
C 0.30886993 0.038059782 0.006006145 -0.14209124 -0.052445516 -0.033228107 0.0562113 -0.14463612 0.002748961 -0.19774155 0.10896593 -0.08245439 0.06383716 0.03939623 0.1689343 -0.17039394 -0.16371086 0.12035963 0.055994447 0.044529058
allosteric 2.216025 0.13357021 -0.008332925 -0.69642335 -0.63728386 -0.25010026 0.591671 -1.0247849 -0.0053838985 -1.3919523 0.67753816 -0.3416136 0.3460849 0.40283942 1.3706353 -1.157976 -1.364095 0.76907146 0.45520267 0.6514102
complex 1.6614672 0.08647332 -0.0042663924 -0.527955 -0.4652876 -0.18253103 0.45734864 -0.7691114 -0.0016756484 -1.0544579 0.50327104 -0.2662894 0.2618177 0.29690737 1.0429032 -0.87907815 -1.0366852 0.5868689 0.33708236 0.50410956
inhibitory 3.840706 0.2206695 -0.00027451993 -1.2232307 -1.1030778 -0.42415798 1.0157785 -1.7820269 0.00019661507 -2.4219096 1.1738719 -0.59411615 0.60324043 0.6869021 2.3809173 -2.0072756 -2.3804717 1.3367116 0.784507 1.1508363
profile 2.0785728 0.122067854 -0.013728407 -0.66955495 -0.59216017 -0.23458645 0.5614396 -0.97790796 -0.018037926 -1.3235632 0.64276296 -0.31837276 0.3334246 0.38451838 1.3045589 -1.0973213 -1.2903756 0.74506587 0.4156434 0.63869494
Pharmacological 1.9836695 0.11176734 0.0113868695 -0.63106793 -0.5683207 -0.22153854 0.52976507 -0.91773194 -0.0069046626 -1.2404269 0.59909385 -0.30372936 0.3066258 0.35313302 1.2286634 -1.0358089 -1.223327 0.69055146 0.41251034 0.5993412
monoamine 2.7649724 0.1728307 -0.0012141331 -0.87923354 -0.7865051 -0.3045551 0.73092824 -1.2875566 -0.0035158093 -1.7401438 0.8404241 -0.42365536 0.43039697 0.49509302 1.703852 -1.44248 -1.711506 0.9643505 0.5647643 0.82895786
oxide 2.2273695 0.12251879 0.0015055034 -0.70822376 -0.6447677 -0.24207117 0.58846986 -1.0408351 -0.003312295 -1.4046856 0.680539 -0.34326127 0.36321613 0.40556335 1.4053824 -1.1884431 -1.399735 0.78154397 0.4598397 0.67393607
pharmacology 1.5735787 0.09047816 0.007884768 -0.5068737 -0.45989698 -0.17265819 0.4240854 -0.73076344 -0.0022685598 -0.9881804 0.47852668 -0.24552432 0.2462769 0.27930245 0.97854817 -0.8268164 -0.9737966 0.5552861 0.32977924 0.47474587
Comparison 1.6401244 0.08905413 -0.0022664545 -0.5222701 -0.47164366 -0.18648136 0.43478376 -0.75707346 -0.0011556448 -1.0367774 0.49211872 -0.24693018 0.25686628 0.30153295 1.0190761 -0.8661998 -1.0125178 0.57010114 0.3334428 0.49192014
recombinant 1.855661 0.10822186 -0.0025699171 -0.59335184 -0.5318919 -0.20817216 0.49556932 -0.86521924 0.000850825 -1.1734668 0.5607842 -0.27447757 0.29616946 0.33112 1.1616393 -0.9666942 -1.1482303 0.65054804 0.38195065 0.55237013
Molecular 1.886991 0.10787084 -0.00019978684 -0.59252524 -0.5314996 -0.1973279 0.49812856 -0.8707949 -0.004098035 -1.1839557 0.56096107 -0.2892572 0.28861478 0.3384007 1.165304 -0.9827215 -1.1567817 0.6631693 0.3809865 0.56591016
domain 2.1533804 0.1331162 0.006724838 -0.6825755 -0.61827034 -0.24311094 0.56958365 -0.99915814 0.003457367 -1.3566064 0.6489878 -0.3266675 0.33773503 0.39682364 1.3440382 -1.1254884 -1.3311025 0.7583371 0.4323175 0.64129883
agonists 2.4146917 0.13769315 -0.0072595594 -0.77711624 -0.6926023 -0.26720777 0.6416523 -1.126523 0.0037981553 -1.5292352 0.7278041 -0.3699859 0.3813289 0.4369091 1.4998832 -1.2698684 -1.4898278 0.8402278 0.5024605 0.72145474
norepinephrine 1.8507204 0.109269425 -0.0061506634 -0.5853426 -0.5278166 -0.21032578 0.4956105 -0.8692762 0.007094438 -1.168607 0.5613783 -0.2914784 0.29980612 0.3375809 1.1516335 -0.9739837 -1.1437485 0.64749813 0.38011542 0.5544248
Human 1.8934162 0.10606477 0.00020110623 -0.6041357 -0.54264057 -0.21055967 0.4994044 -0.8754879 -0.007452121 -1.2165394 0.5908872 -0.2966486 0.31334963 0.34753513 1.2039756 -0.9928462 -1.1792614 0.6683756 0.3927342 0.56913376
antioxidant 2.7520978 0.15848029 -0.0037780262 -0.868362 -0.8016275 -0.30207166 0.7259076 -1.2814432 -0.007592843 -1.7333108 0.84341353 -0.42616233 0.42857385 0.4881563 1.7062509 -1.4439114 -1.7053162 0.96085984 0.55963176 0.822914
inhibit 3.906969 0.22537512 -0.0019304528 -1.2421895 -1.1225954 -0.43328997 1.0304598 -1.8205668 -0.0030516803 -2.465831 1.1886294 -0.601604 0.6071932 0.69578147 2.4120443 -2.043016 -2.422681 1.3631079 0.79235727 1.1642201
analogues 2.0208507 0.12961608 -0.004146891 -0.6410871 -0.5755249 -0.23096918 0.5254823 -0.9374587 -0.0010344245 -1.2689302 0.6029316 -0.30732942 0.31773883 0.36317864 1.2574042 -1.0462965 -1.2406584 0.6999486 0.42149547 0.6003361
neurons 1.8423196 0.102593474 -0.0054257154 -0.5799455 -0.53121394 -0.20126237 0.50081736 -0.8569608 -0.006553764 -1.1648812 0.5694585 -0.2731921 0.29197922 0.32979172 1.1520174 -0.9739923 -1.1407315 0.6509307 0.3756844 0.5423719
acetylcholinesterase 2.2004077 0.132685 -0.0035919086 -0.7041335 -0.62276226 -0.25560302 0.58774686 -1.0231093 0.0002534651 -1.3858736 0.6702972 -0.3337981 0.34331587 0.39975658 1.3684925 -1.1518162 -1.3578588 0.77115536 0.45435873 0.65536106
bone 2.769609 0.16155702 -0.002849709 -0.873043 -0.7862705 -0.30416992 0.72439456 -1.2798041 -0.014542776 -1.7356315 0.8374581 -0.41097945 0.41981202 0.49923027 1.7156456 -1.4586567 -1.7179023 0.9833139 0.541715 0.83360106
formation 5.301024 0.3077692 0.008992079 -1.7063807 -1.529587 -0.58732575 1.3993108 -2.4753695 0.002684424 -3.3465781 1.624248 -0.7979642 0.8091668 0.95097965 3.3058841 -2.7753167 -3.2690032 1.8587667 1.0698457 1.5652564
Evaluation 3.9976943 0.22870278 0.012010428 -1.2897464 -1.1465343 -0.43515635 1.0607715 -1.8693932 0.005468355 -2.5297961 1.2201129 -0.60637444 0.61713415 0.71844006 2.488043 -2.0975838 -2.4651904 1.4141465 0.80496603 1.1887362
nitric 2.1501756 0.12990028 -0.010977781 -0.6621375 -0.6298836 -0.2512246 0.56251043 -0.99380434 -0.010916002 -1.3439786 0.65326124 -0.31389132 0.3336042 0.3861969 1.3113682 -1.1273375 -1.3198493 0.7419985 0.44108492 0.6317218
suppression 3.3840466 0.19531743 0.0035620881 -1.1023322 -0.972222 -0.37338918 0.89713955 -1.5761482 -0.0049733296 -2.1513116 1.0336748 -0.5172987 0.5199194 0.60996103 2.1091392 -1.7931254 -2.1048484 1.1919326 0.68569946 1.0062553
serum 1.1195408 0.062450554 -0.0005872448 -0.35538623 -0.3327956 -0.11604628 0.29019734 -0.5114046 -0.0038296883 -0.7079273 0.3396114 -0.17068554 0.18967994 0.21322773 0.6955616 -0.59412265 -0.70256495 0.39460245 0.21893872 0.33945188
humans 2.096101 0.121492244 0.005177592 -0.66484946 -0.6080855 -0.2371656 0.55313206 -0.9717381 -0.00074521825 -1.3265923 0.650057 -0.32637653 0.3328704 0.39065042 1.3011765 -1.0935905 -1.2989374 0.7490265 0.43963823 0.62297064
-- 0.4427433 0.031234745 0.0006453758 -0.16516805 -0.13087374 -0.024104029 0.10341514 -0.19937985 -0.010995321 -0.29335526 0.118728414 -0.05579053 0.10583537 0.09284202 0.26116303 -0.22865589 -0.28942594 0.15666403 0.10210524 0.12080257
enzyme 1.2187644 0.069267966 -0.0019515435 -0.38238633 -0.35792863 -0.12753277 0.3314299 -0.57029444 -0.0046578925 -0.76779824 0.37603223 -0.19332959 0.1835219 0.22833483 0.74747723 -0.6451001 -0.7575657 0.4258758 0.24730447 0.3773601
into 2.748987 0.16825992 -0.005915551 -0.87959963 -0.79377824 -0.30211946 0.7274554 -1.2783557 -0.011019065 -1.7460194 0.847785 -0.4384699 0.43156016 0.48178956 1.7168342 -1.4376901 -1.7065853 0.96996015 0.54869777 0.8296715
induction 5.5738688 0.32506818 0.006067623 -1.7909054 -1.60703 -0.61565155 1.479549 -2.6001878 0.0011527695 -3.5226085 1.7048178 -0.8472641 0.8716626 1.0016325 3.4789505 -2.939977 -3.4455712 1.9630779 1.1204132 1.6536094
death 1.4662429 0.07906894 0.016132502 -0.4745156 -0.42539307 -0.15686384 0.37941343 -0.6877951 -0.00536872 -0.90969473 0.43304303 -0.22173667 0.22985488 0.26693624 0.91272944 -0.76966804 -0.9062551 0.51728344 0.30396584 0.43042973
pathways 1.5431556 0.08228156 0.0073399385 -0.4942446 -0.445048 -0.17017438 0.4216583 -0.7189499 -0.005580017 -0.98183334 0.47267157 -0.24644 0.23897135 0.2755662 0.96106493 -0.8219547 -0.96831584 0.5520486 0.31443617 0.45864907
two 0.42317554 0.03276856 -0.009895248 -0.12711339 -0.118823014 -0.03438932 0.10519447 -0.20933221 0.00086992554 -0.2593574 0.12033979 -0.066821314 0.06939528 0.07370562 0.2622545 -0.22058494 -0.2760799 0.13895515 0.08073006 0.122471645
3 0.3133457 0.029371232 0.018758388 -0.08679977 -0.10166469 -0.009592983 0.09046924 -0.16335146 -0.0022622407 -0.14030394 0.08542008 -0.07177214 0.017554019 0.010526186 0.16841526 -0.11956575 -0.16070877 0.12189098 0.03325978 0.09467535
compounds 1.443545 0.0867582 -0.0017305968 -0.46358135 -0.4078081 -0.15586533 0.3837062 -0.66570675 -0.0065280143 -0.9031709 0.4312399 -0.21651748 0.22335379 0.26012206 0.8920308 -0.74468267 -0.8744006 0.49620694 0.29571265 0.4321986
prostate 3.1299772 0.19369543 0.010445969 -1.0024432 -0.89302534 -0.34937304 0.8398721 -1.454168 -0.008021139 -1.9785591 0.9620155 -0.4836025 0.50006497 0.5628763 1.9489459 -1.6434183 -1.9347817 1.1090535 0.6321332 0.93891096
Differential 2.3615837 0.13239442 -0.0010569614 -0.75439495 -0.66423506 -0.26343662 0.6348381 -1.0880288 -0.00027052435 -1.4813141 0.71557003 -0.358451 0.36369503 0.4324912 1.4617676 -1.239955 -1.4565984 0.83399713 0.47507983 0.7007184
modulates 3.6087089 0.21275486 -0.00096637866 -1.1531818 -1.0398594 -0.39479744 0.9504211 -1.66629 -0.008311333 -2.2684782 1.1061255 -0.5556763 0.56301606 0.65108335 2.237599 -1.891908 -2.2437532 1.2637354 0.73310953 1.069017
therapeutic 2.2521079 0.1349453 0.0034594582 -0.72658724 -0.6368617 -0.24302544 0.5968156 -1.0453783 0.0032564872 -1.4155514 0.69167054 -0.3420878 0.35038194 0.40357772 1.4016386 -1.1924274 -1.3961713 0.7903919 0.4643055 0.67600274
suppresses 2.4733968 0.15314248 -0.002305971 -0.80002016 -0.71028835 -0.28208974 0.65490276 -1.1443262 -0.003704999 -1.5739226 0.7639153 -0.38463587 0.3757624 0.4518328 1.5444622 -1.3119068 -1.544475 0.8724405 0.5025466 0.7370812
healthy 0.8335953 0.050672505 0.004894057 -0.26274016 -0.23236333 -0.0862204 0.21402746 -0.37669078 -0.010509068 -0.52639663 0.2466543 -0.1363955 0.12525213 0.14764287 0.51848507 -0.4387096 -0.51149267 0.29573193 0.18089786 0.24128097
cortex 1.4005128 0.07186574 0.004381689 -0.43949464 -0.40825266 -0.14389913 0.3716559 -0.6426706 -0.005626039 -0.8742742 0.42910996 -0.21447295 0.22091033 0.2517809 0.8607745 -0.73684615 -0.8481808 0.4741679 0.28631666 0.4153814
implications 3.078375 0.1778381 0.009784434 -0.98514754 -0.8849215 -0.33751822 0.81545025 -1.4256802 0.0050619664 -1.9525505 0.9430919 -0.46941486 0.47608986 0.5521608 1.9068807 -1.6218433 -1.8997232 1.0800812 0.6327062 0.91037047
increase 3.2016282 0.19378594 -0.0042844373 -1.0221766 -0.9010461 -0.36773756 0.849911 -1.494758 -0.017726414 -2.0133114 0.9744185 -0.48891333 0.48870796 0.5771222 1.9875772 -1.6740744 -1.9814714 1.1204276 0.6673545 0.95369154
mRNA 0.59377134 0.032515183 -0.005014309 -0.20132522 -0.15797494 -0.06497169 0.15817717 -0.26632327 -0.0027656364 -0.36388448 0.18142185 -0.10187542 0.08855622 0.10335814 0.37065962 -0.30885538 -0.36136535 0.20250306 0.1293415 0.17902185
vascular 1.8643059 0.09763193 0.0076051094 -0.58678824 -0.5375489 -0.20721942 0.49455193 -0.86339486 -0.005941651 -1.1689001 0.556808 -0.28721374 0.28816083 0.3379409 1.1614867 -0.9790437 -1.1469375 0.64519835 0.37897888 0.5603034
active 5.314401 0.307154 0.0055531757 -1.687517 -1.5278602 -0.59362996 1.4235855 -2.4623497 -0.0078052306 -3.3440573 1.6394988 -0.8109667 0.8291064 0.9598924 3.2905312 -2.7791576 -3.277326 1.8559958 1.096043 1.5924355
risk 0.65176004 0.04283081 -0.006735022 -0.20631257 -0.19024858 -0.06591321 0.17425707 -0.30569264 -0.0049591307 -0.4098716 0.18867002 -0.093518764 0.10718443 0.13431972 0.40368927 -0.3332837 -0.39435145 0.22874527 0.12749316 0.19743423
cardiac 1.3527269 0.07424585 0.005655295 -0.4247108 -0.38539475 -0.14399748 0.35649246 -0.6273664 0.0012656775 -0.83580333 0.41642457 -0.20960857 0.21640676 0.25726497 0.8271647 -0.7169802 -0.83701026 0.4643986 0.2704068 0.3903552
cytochrome 1.4873334 0.08544 -0.0050537526 -0.47432196 -0.42149594 -0.16616504 0.39408132 -0.69744194 -0.008582749 -0.9349286 0.46313912 -0.22870104 0.23840901 0.2768127 0.9198289 -0.7804153 -0.9183427 0.52114904 0.30320445 0.44983786
weight 0.72031707 0.052920453 0.005574801 -0.22639054 -0.19890912 -0.08036674 0.20033242 -0.34344402 0.007970445 -0.4496686 0.23120752 -0.11241295 0.11535416 0.12673931 0.46186754 -0.38213295 -0.44828054 0.2543529 0.15520512 0.22245347
peptide 2.1399672 0.13130458 0.0049945037 -0.68857014 -0.6234661 -0.23594007 0.57287973 -0.9850493 0.00250358 -1.3398315 0.6536253 -0.33590722 0.32580054 0.3789248 1.3283312 -1.1221892 -1.3296747 0.752798 0.4434468 0.64821184
cycle 1.6244538 0.1025308 -0.0029612111 -0.5299423 -0.4708171 -0.17321414 0.44404334 -0.7529224 0.0076334137 -1.0245173 0.5085201 -0.24711148 0.25087798 0.30511907 1.0103594 -0.84404796 -1.00509 0.5584118 0.34227672 0.47881287
differentiation 3.8556812 0.22214052 0.006993593 -1.2406732 -1.0979494 -0.42536834 1.0243948 -1.7943503 -0.0063605043 -2.4342875 1.1799332 -0.59057575 0.592082 0.69587934 2.393151 -2.027423 -2.3775573 1.3541952 0.7791833 1.1399807
4 0.334112 0.003256557 0.0029758224 -0.09255683 -0.07321285 -0.024308223 0.092195734 -0.15256065 0.018285412 -0.19823465 0.11762288 -0.07492358 0.0250115 0.06201021 0.24188532 -0.20531154 -0.22899604 0.1430122 0.0709679 0.07366502
transport 2.4706075 0.14215219 -0.0008229611 -0.79106575 -0.7061257 -0.28155163 0.658794 -1.1470141 -0.00031766357 -1.5600721 0.7621547 -0.3766263 0.38318717 0.453127 1.5316597 -1.2956805 -1.5427246 0.873357 0.5119303 0.7419583
specific 1.8001024 0.11361733 0.008712948 -0.57504934 -0.5191369 -0.19943672 0.47884196 -0.8368308 9.40245e-05 -1.1373605 0.5558236 -0.28268215 0.2901561 0.3355278 1.11267 -0.9595511 -1.1168199 0.6308254 0.36118457 0.53382176
diabetic 2.6989148 0.15901765 0.0022360545 -0.85561043 -0.7768973 -0.31151155 0.7120801 -1.2588344 0.004758705 -1.6918591 0.8315075 -0.41842896 0.4223497 0.4957827 1.6669921 -1.4153968 -1.6638807 0.93208045 0.5579505 0.80684054
agent 3.781978 0.20325662 -0.00053851 -1.2051214 -1.082533 -0.41799277 0.9985541 -1.768749 -0.0055661327 -2.3788834 1.1667616 -0.58836067 0.58681095 0.6831164 2.3566566 -1.9822861 -2.338772 1.3135588 0.79612786 1.1426098
Discovery 1.0670196 0.065726 0.0027585905 -0.33320862 -0.29957634 -0.11670815 0.28559688 -0.48850954 0.0095560495 -0.6777054 0.32645416 -0.15313473 0.15793045 0.19706498 0.6634775 -0.56271863 -0.6554983 0.37073666 0.21850863 0.31747714
murine 3.1546724 0.18686187 0.0045017893 -1.0199875 -0.90224487 -0.33996812 0.84954953 -1.4688488 0.00014622 -2.0031006 0.96425617 -0.49279666 0.50310934 0.5630789 1.9575173 -1.6546906 -1.953679 1.1118771 0.64571524 0.93463606
5-HT 0.57586974 0.04728264 0.008489925 -0.18667851 -0.17316057 -0.080165505 0.1643067 -0.26809424 0.0045429487 -0.3591023 0.17981423 -0.097241856 0.091934964 0.10885579 0.35556948 -0.30548206 -0.3620303 0.19861335 0.13171358 0.1748563
surface 1.0736128 0.06322377 0.007414582 -0.34335113 -0.30448273 -0.120910056 0.29223254 -0.5090898 -0.002756626 -0.68995607 0.3206694 -0.16342665 0.17054531 0.19648595 0.67613 -0.5731386 -0.6847979 0.3614994 0.21984242 0.3279814
D 0.20607935 0.0063704485 0.036749728 -0.063117296 -0.0380847 -0.01822106 0.06861891 -0.082452826 -0.013877405 -0.13720271 0.08532861 -0.042280063 0.031415667 0.034578003 0.16187894 -0.13957861 -0.13142982 0.07390659 0.024687827 0.037617553
synthetase 2.704809 0.15734835 0.0033252728 -0.87119526 -0.7684173 -0.2994054 0.71532077 -1.2639942 -0.0061915745 -1.7112726 0.82330453 -0.40078235 0.42248848 0.49148706 1.6891553 -1.4110764 -1.6802019 0.94951487 0.55597556 0.80319214
sites 3.0161102 0.18157108 0.009871254 -0.9750385 -0.8585069 -0.33671448 0.7991352 -1.3952715 -0.0018501834 -1.9049604 0.91990054 -0.45970532 0.4870092 0.54957813 1.8623439 -1.5833378 -1.8717355 1.064878 0.6129094 0.8972561
Selective 3.2453005 0.1903329 0.009400196 -1.0371077 -0.9319142 -0.36268649 0.8672125 -1.5106214 -0.0016834845 -2.0529253 0.99908257 -0.49728015 0.51073843 0.5793693 2.0099103 -1.6991149 -2.0005658 1.1308659 0.67343783 0.9724968
regulatory 2.620061 0.16095477 0.00038897322 -0.84170306 -0.7580058 -0.2899569 0.6937688 -1.214337 -0.0047840527 -1.6600885 0.8081463 -0.40718928 0.41554317 0.4741885 1.6392907 -1.3684924 -1.6305095 0.9261384 0.5395043 0.77815914
heart 0.94665223 0.054160107 0.0012350989 -0.28964555 -0.2676301 -0.10656489 0.2391153 -0.43331513 -0.0046575735 -0.56974995 0.2843571 -0.13737305 0.14952101 0.1711333 0.564215 -0.48891342 -0.56816953 0.33446583 0.18999225 0.27464864
reductase 2.6998053 0.15353453 0.004442276 -0.85698324 -0.770227 -0.29789332 0.71879965 -1.261421 -0.014365863 -1.7033982 0.8226308 -0.41462585 0.42498973 0.48663414 1.6865398 -1.4230388 -1.6692514 0.95004565 0.55458766 0.80399686
improves 2.1406326 0.13185546 -0.0014164781 -0.67789394 -0.60872304 -0.23843972 0.56870794 -0.986618 0.00323254 -1.341491 0.6445927 -0.326093 0.3281858 0.38865075 1.3321805 -1.1176972 -1.3331041 0.7507824 0.43870533 0.6364873
regulates 3.7193177 0.22928485 0.0051500564 -1.1965698 -1.0700146 -0.40735602 0.98974216 -1.7237711 -0.0033442695 -2.3459926 1.1408962 -0.57888854 0.58757424 0.6729604 2.3151176 -1.9514953 -2.3091815 1.3113238 0.76510376 1.0992932
cholesterol 2.1217837 0.12247908 0.0036806972 -0.6707704 -0.59707075 -0.23312862 0.56202227 -0.97507566 -0.0013746282 -1.3191885 0.64657795 -0.319616 0.32635623 0.37813452 1.3089004 -1.092372 -1.2997069 0.74191016 0.44313002 0.63341075
dehydrogenase 2.448032 0.14470616 0.0009595537 -0.7824868 -0.6959515 -0.27198002 0.65029603 -1.1366342 -0.012830331 -1.539163 0.75016654 -0.37515014 0.38353997 0.44762978 1.5212612 -1.2825255 -1.5064396 0.85753745 0.50329214 0.726218
Role 1.421866 0.084502034 -0.003093984 -0.45879695 -0.3844055 -0.14498235 0.38064402 -0.65081525 0.013503618 -0.88593924 0.43506974 -0.22576755 0.21813518 0.2555827 0.88638437 -0.74817616 -0.88659483 0.49735877 0.287448 0.43491414
lipid 1.132133 0.06724657 -0.002519175 -0.35350603 -0.30735147 -0.12786897 0.30027077 -0.51353866 -0.008511078 -0.7082673 0.33541906 -0.17492397 0.17294095 0.19559184 0.67953897 -0.58549464 -0.69534117 0.38273498 0.23123702 0.31972355
fatty 1.0685261 0.069987856 -0.0029966393 -0.32855746 -0.3210707 -0.11477198 0.2939841 -0.4905964 -0.0021231128 -0.66652286 0.3220372 -0.16248158 0.15512052 0.20217739 0.6704021 -0.551737 -0.6567448 0.38872674 0.22824056 0.31257004
carcinoma 1.4072297 0.07763054 0.0023586643 -0.44723383 -0.41005236 -0.1661503 0.37677312 -0.6527931 0.007454933 -0.8891427 0.42947754 -0.21720335 0.2214655 0.26185358 0.865332 -0.74472946 -0.86391646 0.4898209 0.28094798 0.4216977
anticancer 3.1089997 0.17979324 -0.00051661534 -0.99155784 -0.9004473 -0.35665357 0.8219473 -1.4394068 0.004252218 -1.9624987 0.946304 -0.4747992 0.49293151 0.5617572 1.9378265 -1.6350309 -1.9176693 1.0890918 0.6443622 0.93550503
T 0.32082868 0.007859053 0.03522045 -0.13438416 -0.069910504 -0.051837545 0.08298162 -0.15315968 0.005833734 -0.22704956 0.06799413 -0.055362858 0.075766295 0.07543655 0.20644185 -0.17360878 -0.2412972 0.11849888 0.07429294 0.11753554
Receptor 3.3565993 0.18916826 0.010004389 -1.0702996 -0.96349716 -0.35783255 0.8919973 -1.5535394 -0.013400332 -2.1122034 1.0178325 -0.53531295 0.51801765 0.6126001 2.0836275 -1.7530942 -2.0635343 1.1802232 0.6850029 0.99607885
dysfunction 3.304784 0.18128935 0.0033308382 -1.0684564 -0.95072126 -0.36712927 0.87353927 -1.5324783 -0.002172287 -2.0887969 1.0137618 -0.50595325 0.5133108 0.5991136 2.0567799 -1.743656 -2.0322685 1.167594 0.66815233 0.97529095
phosphorylation 3.4802995 0.1931089 0.005949461 -1.110292 -0.99884844 -0.3891215 0.9233188 -1.6108963 9.334104e-05 -2.1929705 1.065805 -0.5254566 0.53408813 0.62021124 2.1681364 -1.8271862 -2.1436093 1.2142993 0.7020543 1.0318984
proliferation 4.182668 0.24152997 0.002782181 -1.3436936 -1.1965392 -0.46376103 1.108566 -1.945014 -0.0042512473 -2.6404462 1.2812752 -0.63948107 0.64715725 0.7548588 2.6047623 -2.1864398 -2.5774782 1.4691596 0.8435952 1.2402653
glucose 1.7339249 0.10050786 -0.005910474 -0.5490526 -0.5034316 -0.18215589 0.45287576 -0.8109835 -0.0149527285 -1.0956975 0.5302355 -0.26439235 0.26392072 0.3060921 1.072028 -0.9169873 -1.068246 0.6281387 0.36061805 0.5103594
neuronal 2.465243 0.14109243 -0.0035571856 -0.7772479 -0.7037758 -0.2755253 0.6568554 -1.1402808 -0.006324308 -1.5491638 0.7563932 -0.3689894 0.37895972 0.4436506 1.5232631 -1.2981135 -1.5316786 0.8661193 0.50341827 0.7369589
increases 3.0141237 0.18350972 -0.003417142 -0.96383166 -0.8465123 -0.34438094 0.80239177 -1.407283 -0.0165958 -1.8979224 0.9194201 -0.46595868 0.46096104 0.5477836 1.8731798 -1.5823953 -1.8642033 1.0560832 0.6196018 0.89940083
Design 0.9034205 0.05355567 0.0069121397 -0.28729653 -0.26024494 -0.10045728 0.25261432 -0.41045395 0.0044815815 -0.56961006 0.2720088 -0.13339517 0.14015551 0.16347152 0.56791943 -0.46687964 -0.53653246 0.31984082 0.18095389 0.2657597
site 1.912519 0.11311236 0.011343144 -0.6122247 -0.53421193 -0.21288662 0.5086016 -0.8788076 0.006926346 -1.2148488 0.58318704 -0.27449453 0.30698967 0.33888263 1.1899352 -1.00096 -1.1857791 0.6638644 0.39281034 0.54943395
Binding 3.3670688 0.19807069 -0.002174037 -1.0686715 -0.96035 -0.36365786 0.8995494 -1.5680993 -0.005100779 -2.1303077 1.0365113 -0.5226502 0.5315374 0.61547244 2.0921147 -1.7647815 -2.0772853 1.1759795 0.70333415 1.001647
subjects 1.7535467 0.10817065 -0.0014888546 -0.5636657 -0.50597805 -0.1992055 0.46937242 -0.8258935 -0.013279266 -1.1121026 0.54343826 -0.26779842 0.27311012 0.31048316 1.0836667 -0.9231687 -1.1024351 0.60715646 0.35862038 0.5191766
tissue 0.6366083 0.035014886 0.007814574 -0.19955218 -0.1838891 -0.07654521 0.16867349 -0.2927248 -0.011114581 -0.41441703 0.20608212 -0.101908445 0.0972331 0.11998532 0.39329055 -0.33669728 -0.37843075 0.22260952 0.12488503 0.19095162
An 0.5903633 0.034053955 -0.01056258 -0.19651778 -0.18906644 -0.088055834 0.15821585 -0.28786346 0.007555228 -0.38493356 0.1918319 -0.10059145 0.10226799 0.122364834 0.37500483 -0.32460365 -0.36216423 0.21818449 0.13357888 0.16415945
D2 0.21771811 0.0010504448 0.00020920657 -0.064483866 -0.038589254 -0.020871043 0.06291634 -0.103472516 -0.00057847146 -0.1440011 0.08147926 -0.04541925 0.0312011 0.057094008 0.14029223 -0.107898355 -0.13406198 0.06465393 0.06259851 0.07531874
Protective 3.2176123 0.18509308 0.008877261 -1.011678 -0.91860884 -0.36220142 0.86546355 -1.496146 -0.008231974 -2.032376 0.9898507 -0.48939338 0.5072854 0.57841617 1.9858633 -1.6843268 -1.9879895 1.1284796 0.6650555 0.96383864
P450 0.4879923 0.031224804 0.0044864863 -0.14326923 -0.13656463 -0.038434014 0.12860905 -0.21975864 -0.0073683085 -0.29909647 0.12873472 -0.085263975 0.06973105 0.091968514 0.2917291 -0.24497953 -0.29241288 0.17164737 0.078716606 0.1379207
Alzheimer 0.7800803 0.035889056 -0.0021530367 -0.24611405 -0.22126254 -0.10193669 0.20436867 -0.36003935 -0.0010551296 -0.48335293 0.24231005 -0.10911441 0.13244443 0.13598841 0.4831578 -0.40384305 -0.47962376 0.27454492 0.16951361 0.23871605
identification 3.9659722 0.2294286 0.008186809 -1.2705781 -1.135446 -0.43606254 1.0460576 -1.8457397 -0.0014184875 -2.5058172 1.2079896 -0.60106987 0.60513103 0.70809317 2.456463 -2.0837324 -2.4410665 1.3787652 0.80863726 1.183248
polymorphisms 1.3352697 0.08156018 -0.0005382761 -0.41668013 -0.37965706 -0.14007108 0.3515737 -0.6140122 -0.0061842804 -0.8320092 0.4001206 -0.19811848 0.20804188 0.24229144 0.82583445 -0.69575864 -0.8194033 0.46792594 0.26943693 0.4041051
inflammation 4.255378 0.24232441 0.012380872 -1.3700757 -1.2240231 -0.4760688 1.1275936 -1.9796737 -0.0016906492 -2.683302 1.3024831 -0.649045 0.6620922 0.7703024 2.6418037 -2.225007 -2.628914 1.4875404 0.8582133 1.2472914
targets 1.6799465 0.0881998 0.003834233 -0.5331891 -0.47799185 -0.18396875 0.43752858 -0.7892361 0.007846598 -1.0532742 0.5113774 -0.2553636 0.26311472 0.30779243 1.0400738 -0.8662298 -1.0329 0.5773705 0.33953968 0.48901856
polymorphism 1.4107362 0.084312275 -0.0027741678 -0.44290686 -0.3995857 -0.14635848 0.37432858 -0.64737225 -0.0063663768 -0.8815664 0.42039642 -0.20946097 0.219851 0.2554063 0.8703465 -0.7349558 -0.865501 0.4923209 0.2836444 0.42537826
E 0.3250929 -0.020771934 -0.030541653 -0.12039575 -0.10157411 -0.05292938 0.07959787 -0.15718448 -0.009371545 -0.1833089 0.12695804 -0.048881624 0.021783086 0.01675348 0.24082026 -0.18997996 -0.17510922 0.085096784 0.11153223 0.123302214
prostaglandin 2.0745888 0.123998456 -0.00031197545 -0.6600815 -0.5929486 -0.2257489 0.5504798 -0.96740323 0.0003411808 -1.3087552 0.6307665 -0.3207639 0.33175132 0.38106242 1.2887434 -1.0915177 -1.2842749 0.72862154 0.42621514 0.61888164
treated 4.105792 0.23457776 0.019290313 -1.304051 -1.1774715 -0.45092806 1.0939842 -1.9048861 -0.013220982 -2.5946882 1.2486277 -0.63963026 0.6443389 0.7471283 2.5535135 -2.1600373 -2.5503757 1.4330856 0.84680957 1.226104
Type 1.1844492 0.05598354 -0.008139928 -0.37916604 -0.33849895 -0.1351518 0.33026457 -0.5345151 -0.003961461 -0.7296837 0.3599949 -0.18133302 0.16649623 0.21147318 0.7399282 -0.6223547 -0.72955054 0.4199665 0.21716775 0.33425584
mutations 3.8590188 0.21911421 0.018843004 -1.242432 -1.1001669 -0.4173788 1.0230674 -1.7936699 -0.0041757827 -2.4424903 1.1751701 -0.5889572 0.59374183 0.6918509 2.3972523 -2.0311115 -2.370593 1.3480755 0.78395814 1.1385299
affinity 1.5613955 0.08660765 0.0022091938 -0.490476 -0.44954136 -0.17379545 0.4124239 -0.7308453 -0.0013173777 -0.9862784 0.47540423 -0.23446037 0.25024864 0.28843015 0.97832364 -0.82203346 -0.9759892 0.54738563 0.32395113 0.45757577
design 1.3489637 0.08183264 0.005075933 -0.4317641 -0.37868196 -0.14545429 0.35342622 -0.6137924 0.000329922 -0.8434378 0.41478658 -0.19573607 0.20496929 0.25029683 0.8345602 -0.6987776 -0.8280809 0.47715804 0.27440625 0.40151596
genetic 3.310722 0.18783237 -0.0011729597 -1.0580952 -0.9422667 -0.36546507 0.8793273 -1.5396706 0.0018850587 -2.0855646 1.0134172 -0.50780016 0.5085958 0.6016845 2.0531368 -1.7455724 -2.0365844 1.1570109 0.68863064 0.99311143
based 3.6012845 0.19976363 -0.0008683426 -1.1377805 -1.0376942 -0.39212224 0.9564686 -1.6579916 -0.016104113 -2.2693176 1.0989258 -0.5658531 0.5596056 0.6623665 2.2442546 -1.8816432 -2.2135978 1.2513853 0.7440997 1.0830768
extract 2.125709 0.12326963 0.0026986725 -0.678688 -0.60429746 -0.24028869 0.5678266 -0.98248297 -0.0033047893 -1.3469334 0.6503834 -0.32721376 0.32944763 0.39055273 1.333023 -1.1125139 -1.3296866 0.7512193 0.43749896 0.6335845
low 0.81643593 0.05369124 0.007201622 -0.28789598 -0.21859102 -0.0848378 0.23127827 -0.37728062 -0.0073786057 -0.54794914 0.26053798 -0.10317469 0.12664881 0.1608375 0.51492345 -0.45498696 -0.5173336 0.30039427 0.17355838 0.23439956
transporters 2.5305736 0.15037124 0.0010886807 -0.80772305 -0.7294723 -0.28021207 0.6750106 -1.17609 0.0013639323 -1.5941962 0.7773327 -0.38385344 0.39203018 0.4634307 1.5754293 -1.3312033 -1.5792363 0.8928484 0.5232359 0.76480484
different 2.5177205 0.14675525 -0.0076081636 -0.8006604 -0.7131519 -0.27486664 0.6755264 -1.1644912 -0.009932929 -1.5798633 0.7734948 -0.38600063 0.38654304 0.45749 1.5624088 -1.314489 -1.5530484 0.8784057 0.51046956 0.7435169
cyclooxygenase-2 1.3249795 0.077948734 -0.0026563194 -0.4229183 -0.3723511 -0.13973202 0.3582053 -0.6189281 -0.004012856 -0.83074015 0.39825073 -0.2014353 0.20044778 0.24094117 0.81951094 -0.69318116 -0.81263804 0.46645203 0.27493045 0.39492714
review 1.0808594 0.06305148 0.011757547 -0.35463643 -0.30757678 -0.12513751 0.29368332 -0.5190373 0.0079831015 -0.6870207 0.33376995 -0.16250797 0.16682811 0.19891307 0.69118005 -0.571652 -0.6727073 0.36973992 0.22858356 0.3315605
extracellular 1.8657625 0.11148819 0.0011929906 -0.58517987 -0.5361972 -0.21752875 0.49907014 -0.86954725 -0.0017466869 -1.1851162 0.5715333 -0.29359275 0.29322234 0.34532738 1.1796284 -0.986828 -1.1637446 0.664406 0.38428923 0.5655536
accumulation 4.0440173 0.23234549 -0.0011168359 -1.3015369 -1.1635809 -0.4513401 1.0689816 -1.8824257 -0.0070471796 -2.5640945 1.2444512 -0.6157482 0.6142614 0.7210245 2.5181122 -2.1259458 -2.501366 1.4231797 0.81970155 1.1920979
mitochondrial 1.5157175 0.08288405 -0.0011861876 -0.47491756 -0.43742692 -0.17268994 0.40251982 -0.6998021 -0.0063384976 -0.9432312 0.45970818 -0.22777404 0.23826985 0.27123773 0.9407708 -0.783847 -0.9398301 0.5214118 0.3121162 0.4523853
membrane 1.810513 0.11513629 -0.0015278402 -0.5882128 -0.52088434 -0.20591871 0.47496203 -0.84644955 -0.00051690894 -1.1471078 0.54880035 -0.28053486 0.28415644 0.3328621 1.1246549 -0.9520743 -1.1208798 0.6356974 0.37136397 0.54458183
peripheral 1.8448375 0.1109036 -0.0034154763 -0.59025955 -0.52953553 -0.20293573 0.49030015 -0.85441935 0.0005388432 -1.1572098 0.55681604 -0.28868675 0.2826511 0.3333827 1.1430447 -0.962154 -1.1429303 0.6540841 0.3820211 0.5485258
experimental 2.3135076 0.13411412 -0.0021297182 -0.73235327 -0.65769815 -0.2623142 0.614359 -1.0826826 -0.0033376778 -1.4489669 0.7017266 -0.3431832 0.3628387 0.41634676 1.424826 -1.2156073 -1.4297138 0.8177192 0.47367898 0.6879095
anhydrase 2.4188654 0.15053777 -0.0027660641 -0.77139837 -0.6776019 -0.25974804 0.6485067 -1.1246263 -0.01578597 -1.5239038 0.73357004 -0.36722288 0.3780662 0.4420673 1.5048916 -1.268475 -1.491066 0.84404224 0.5010117 0.72815067
antagonism 2.4969392 0.15062246 -0.0065506524 -0.7943266 -0.7241708 -0.27939406 0.6611428 -1.1692665 0.0045509012 -1.5770556 0.757257 -0.3843614 0.38909686 0.45248792 1.5400786 -1.3124003 -1.5357714 0.8780971 0.51237726 0.74336004
sensitivity 2.5799127 0.15313086 -0.000114919094 -0.8202845 -0.74590635 -0.28491583 0.68582755 -1.1984606 0.00095282943 -1.6237489 0.79393536 -0.4029119 0.40963724 0.4692836 1.6139488 -1.355343 -1.5922718 0.8999356 0.53090006 0.76384866
pancreatic 2.524777 0.15210617 0.0010965928 -0.8007172 -0.72488177 -0.29160655 0.6612905 -1.1792655 -0.0010635644 -1.5941702 0.7742884 -0.38253987 0.39749637 0.45412362 1.5635157 -1.3197675 -1.5581052 0.8946049 0.51901096 0.75342965
mediates 3.6098444 0.20785345 0.0073131924 -1.1523026 -1.0302596 -0.40113392 0.96375346 -1.6749144 -0.006675515 -2.2689714 1.0941631 -0.5575756 0.5779815 0.66201884 2.2346206 -1.8951434 -2.2374055 1.2685965 0.7415715 1.0668997
metabolites 2.3736424 0.13765803 -0.0034652008 -0.7568247 -0.6738186 -0.25910035 0.63070637 -1.0968874 -0.0018956179 -1.4914446 0.72023726 -0.3622295 0.37645376 0.4307045 1.4667574 -1.2463288 -1.4667367 0.83873385 0.48478025 0.7092688
other 2.0194743 0.12320893 0.0031604688 -0.6438623 -0.59525764 -0.21628472 0.5425313 -0.9391392 0.0012435352 -1.2634948 0.6218693 -0.30468267 0.31273046 0.36777398 1.2528125 -1.0619146 -1.2430794 0.7081296 0.4185133 0.60119414
essential 2.688735 0.14880115 -0.0026215452 -0.8541447 -0.7720628 -0.29159224 0.72197604 -1.2423397 -0.0076694135 -1.6930355 0.8262356 -0.4176863 0.41110015 0.4946281 1.660135 -1.4111469 -1.662323 0.938087 0.5525513 0.79815894
glutathione 2.0895686 0.116211124 0.004697352 -0.66916305 -0.60461015 -0.22976768 0.5562658 -0.978146 -0.00043016465 -1.3125315 0.6417747 -0.32649845 0.3246886 0.3711649 1.2946967 -1.0939081 -1.2942519 0.72662246 0.42242274 0.6188299
required 1.875672 0.11536493 -0.005415583 -0.5974405 -0.53893673 -0.20571302 0.4991148 -0.87415576 -0.0044432217 -1.1785179 0.5723256 -0.2918052 0.2934669 0.34042433 1.1555067 -0.9808376 -1.1638561 0.64848 0.39127335 0.55647916
chemical 2.8580213 0.17171866 -0.00117653 -0.9146584 -0.8067403 -0.31996328 0.7649932 -1.3243258 -0.01563104 -1.7880105 0.8713661 -0.437371 0.44441208 0.52116805 1.7685639 -1.4798536 -1.7724969 0.98918545 0.59629667 0.85028905
acids 1.7176417 0.0952895 0.017168395 -0.5364136 -0.48911965 -0.19766928 0.46017727 -0.79830843 -0.003101769 -1.0815831 0.5278247 -0.26035708 0.26675949 0.31672755 1.0673021 -0.9056727 -1.0615245 0.6043037 0.35886762 0.5131375
block 1.0860177 0.06306892 -0.010495053 -0.34402993 -0.30644232 -0.119542636 0.29153502 -0.5042212 -0.010489317 -0.6784586 0.32212132 -0.16651912 0.17406194 0.20673813 0.67087865 -0.5670313 -0.66804165 0.38678247 0.22256562 0.31506255
Structural 1.7149206 0.110233694 -0.00023618639 -0.5457535 -0.49156755 -0.19231129 0.46526664 -0.79487324 -0.0033665204 -1.0772661 0.51535 -0.2678919 0.25520435 0.30087996 1.0596819 -0.90070164 -1.0475732 0.6063157 0.3498651 0.515233
structural 2.0640247 0.12683725 -0.00021285372 -0.65928274 -0.5908223 -0.23066592 0.5567545 -0.9507704 0.0041599288 -1.2920164 0.6249123 -0.31696028 0.31159005 0.36196285 1.2801808 -1.0829746 -1.2648283 0.72546643 0.4187422 0.623392
relationship 3.0492618 0.1769211 0.0052490323 -0.9767336 -0.874511 -0.33708763 0.79677564 -1.4196845 -0.0039432985 -1.924772 0.93639195 -0.46506336 0.46408856 0.5488834 1.9071492 -1.5970687 -1.8821077 1.0691801 0.62096816 0.89717096
assessment 2.3033118 0.13626146 -0.0046723345 -0.7328152 -0.65435326 -0.2580209 0.60902756 -1.0642818 -0.012956073 -1.4425101 0.7059919 -0.35582533 0.35399467 0.41403052 1.421533 -1.1962538 -1.4200966 0.7934931 0.45849943 0.6901722
Activation 5.143681 0.29183045 0.007538036 -1.655769 -1.482002 -0.5711187 1.3605812 -2.400597 -0.002888071 -3.257972 1.5737404 -0.7830736 0.7859874 0.93059015 3.1986568 -2.7091794 -3.1681993 1.8074373 1.0436777 1.5297014
gastric 2.034834 0.117435075 -0.011776441 -0.6431195 -0.5840025 -0.23311651 0.5390264 -0.9435524 -0.008739909 -1.2812932 0.6224961 -0.3047919 0.31662893 0.3692274 1.2616688 -1.0689248 -1.2511595 0.70595235 0.42242184 0.60623956
Cells 1.7009696 0.090162754 -0.008021028 -0.5342496 -0.4909076 -0.19814025 0.46498618 -0.795955 0.0017441154 -1.0663775 0.52947766 -0.26294658 0.26570752 0.30854192 1.0646158 -0.9109155 -1.0687478 0.6064641 0.35087863 0.51033545
Protein 2.9533944 0.18020019 -0.008774278 -0.9322718 -0.84306914 -0.3202244 0.79305285 -1.3751196 -0.009385217 -1.8559953 0.9017047 -0.45889422 0.47022918 0.53409344 1.8256413 -1.5538918 -1.8324937 1.0398692 0.60721105 0.88584775
phase 3.4540899 0.19348271 -0.010726804 -1.0999767 -0.9845362 -0.37314746 0.9115526 -1.6118239 -0.015314963 -2.1743567 1.0585457 -0.5240127 0.53566456 0.62710136 2.1455536 -1.8096656 -2.1321452 1.2167141 0.70188445 1.0203468
cardiovascular 1.4966203 0.08312912 0.005751032 -0.47189847 -0.4246911 -0.16468596 0.39672005 -0.6944623 -0.005339608 -0.93751055 0.45008793 -0.23236866 0.23877311 0.27888978 0.9240996 -0.782535 -0.918948 0.5212821 0.30164927 0.4442769
activator 3.687301 0.2185864 0.009032979 -1.1692754 -1.055347 -0.41226614 0.98375666 -1.7097605 -0.009138084 -2.3239853 1.1266648 -0.56520516 0.56690603 0.67653495 2.2838721 -1.9238157 -2.2812595 1.2909753 0.7655786 1.1091135
platelet 1.8346305 0.11557727 -0.0007317862 -0.5958205 -0.52283734 -0.20800851 0.49799448 -0.8434159 -0.0014938771 -1.1532744 0.5546495 -0.2822443 0.28719062 0.3382431 1.1426708 -0.9521824 -1.1471524 0.6514363 0.37529242 0.5366017
angiotensin 1.8245962 0.10469122 -0.0062384317 -0.58481455 -0.5216145 -0.20432563 0.48451713 -0.8449918 -0.0072379233 -1.1450869 0.5546207 -0.27798492 0.28709766 0.3278511 1.1344872 -0.96655196 -1.1286379 0.64193416 0.36932158 0.55049694
profiles 2.4551013 0.1483784 -0.008074548 -0.78030163 -0.70553505 -0.27537656 0.66266495 -1.151094 -0.019649122 -1.549337 0.75421935 -0.38526416 0.38805377 0.45322338 1.5312552 -1.2987411 -1.5235299 0.8689564 0.4939234 0.73994803
selectivity 3.1518197 0.19218034 0.0037718965 -1.0039686 -0.91003704 -0.35640243 0.84296864 -1.474627 -0.0008414059 -1.9986918 0.9689505 -0.48439103 0.4922141 0.5677964 1.967392 -1.6607394 -1.9489844 1.0970767 0.6532954 0.93976885
efficacy 1.1477278 0.07198575 -0.0037388548 -0.36351812 -0.3303057 -0.13434526 0.30862916 -0.5320307 0.003651012 -0.731565 0.35408518 -0.16968593 0.18222259 0.21261786 0.7062081 -0.60358286 -0.71874744 0.4125993 0.23831321 0.3367989
modeling 3.1324186 0.18295282 0.0057988563 -0.99020314 -0.88850236 -0.34219864 0.8299863 -1.4472319 -0.0018271616 -1.9740595 0.95874 -0.48384783 0.48552468 0.5793578 1.9567622 -1.6390895 -1.9369016 1.1052573 0.6349853 0.9428626
pharmacokinetics 1.741089 0.102535576 0.006220761 -0.5597586 -0.5020082 -0.19020441 0.46653536 -0.8080752 -0.0008362768 -1.0904994 0.52611893 -0.27262953 0.27837023 0.308918 1.0810899 -0.9198058 -1.0756966 0.61753625 0.3601894 0.52251697
leukotriene 1.292566 0.06695048 -0.0011162882 -0.4172465 -0.3703699 -0.14793944 0.34715596 -0.6008161 0.00060821726 -0.8072465 0.38664317 -0.20110643 0.20170985 0.24334134 0.7962235 -0.67364496 -0.7940559 0.4441607 0.25736737 0.38348493
COX-2 0.34320405 0.028281515 -0.0041559334 -0.09282455 -0.1161121 -0.052594505 0.07614204 -0.16413714 -0.011023537 -0.21905275 0.11065721 -0.04463144 0.048120458 0.05690557 0.21238557 -0.16704841 -0.22256058 0.11848185 0.05668227 0.10923326
kidney 0.3433888 0.002033812 -0.002479407 -0.108989626 -0.10381021 -0.031052327 0.10524025 -0.16043398 -0.011954711 -0.19624269 0.1074901 -0.05496493 0.061775178 0.062140822 0.20708455 -0.17307545 -0.20117898 0.11782942 0.0613048 0.09794932
assay 1.0070713 0.050840434 -0.0052085603 -0.32487142 -0.2952398 -0.10787989 0.26726827 -0.46551555 0.0106260665 -0.64224994 0.30016395 -0.15533409 0.1634137 0.17291604 0.62663037 -0.53457654 -0.62424546 0.35401583 0.20827365 0.3005155
failure 0.7591795 0.04096356 -0.00559461 -0.24722433 -0.22125393 -0.08321497 0.20923817 -0.35415024 -0.008728444 -0.47918192 0.22357902 -0.114168674 0.119973555 0.12848611 0.46354187 -0.3877364 -0.45484492 0.2596489 0.16732016 0.22597398
combination 4.2298136 0.24435356 0.01155796 -1.3571402 -1.2101418 -0.46385315 1.1221586 -1.9722025 0.0028366242 -2.6797652 1.2915653 -0.6355275 0.65030843 0.75312096 2.633674 -2.2143397 -2.605099 1.479117 0.85766417 1.2488053
G 0.32727894 -0.0005836785 -0.024451915 -0.100009166 -0.06740916 -0.030812811 0.104807705 -0.18375531 0.024701182 -0.23941708 0.07114199 -0.05422432 0.05573907 0.09248409 0.2093799 -0.19842145 -0.18002558 0.103794746 0.10910008 0.09300969
ligands 1.2084721 0.06920854 0.008282575 -0.39164165 -0.34724638 -0.14339301 0.31697142 -0.57010967 0.0012905821 -0.7610773 0.3663639 -0.17611542 0.19354111 0.22612658 0.7458774 -0.6344926 -0.7464649 0.4236004 0.24072015 0.36361992
Expression 3.537042 0.19699483 0.0021555307 -1.1515129 -1.0135393 -0.38411665 0.9361179 -1.6524748 -0.011652037 -2.2445736 1.0722114 -0.54621583 0.5479311 0.6318248 2.1996005 -1.8650292 -2.1934307 1.2382605 0.71223944 1.0549409
Cell 1.410008 0.07431737 -0.007874846 -0.46388787 -0.4172505 -0.16304088 0.38936898 -0.67105913 -0.0011525799 -0.8966549 0.44270948 -0.2236537 0.213603 0.2545777 0.9145992 -0.77118754 -0.90517294 0.50780416 0.29237098 0.4263194
cultured 1.9907453 0.115807265 -0.005788216 -0.62353104 -0.57098365 -0.21525818 0.5334322 -0.92653996 -0.0054376754 -1.263597 0.610212 -0.3093598 0.30899784 0.35449547 1.2429473 -1.0416293 -1.2341108 0.696259 0.41003606 0.6089731
glutamate 2.0478888 0.12027741 0.0047765854 -0.6534313 -0.5954347 -0.22215456 0.5406704 -0.95599073 0.0010010225 -1.2900554 0.6296589 -0.31495464 0.3194417 0.3650303 1.2717574 -1.0828707 -1.2750981 0.72559536 0.4160436 0.6142357
uptake 0.6285246 0.03897374 0.00022002707 -0.17866924 -0.17776136 -0.0646853 0.15519483 -0.29675305 -0.011453771 -0.39750114 0.19166471 -0.07971407 0.09678586 0.10446165 0.3924321 -0.32004443 -0.38465086 0.22414258 0.13738672 0.18286338
Cancer 2.2225878 0.12123885 0.0020958777 -0.71055615 -0.64262694 -0.25873652 0.59761864 -1.0237057 0.0034762449 -1.4015512 0.6786335 -0.34629697 0.3640859 0.40033922 1.3883456 -1.1684929 -1.3732638 0.78210366 0.45933357 0.68426216
skeletal 1.6699432 0.097751394 -0.005644564 -0.54148877 -0.48792174 -0.18206851 0.44087717 -0.77517647 0.0011083806 -1.0520688 0.51475626 -0.25771716 0.2599575 0.3123628 1.0443183 -0.89049184 -1.0383564 0.58765733 0.34116548 0.4996345
targeting 2.9010875 0.16640769 0.0069203125 -0.9246279 -0.8138052 -0.3150852 0.7574778 -1.3465853 0.0038642301 -1.8179883 0.88406163 -0.4440592 0.448461 0.5192268 1.7896385 -1.5101277 -1.7856997 1.0009917 0.5984552 0.85896105
oral 2.8340797 0.15888506 -0.007337305 -0.89056456 -0.81345963 -0.31132892 0.74786896 -1.2958007 -0.0066177305 -1.7641151 0.85212016 -0.4314615 0.4410272 0.5051237 1.7517419 -1.4820079 -1.734549 0.9897194 0.5805775 0.8449186
oxytocin 1.3963743 0.084632844 -0.0069574323 -0.43691143 -0.39450628 -0.15882456 0.36389044 -0.66461396 0.003057249 -0.88585657 0.42559412 -0.21896677 0.22345743 0.2497461 0.854861 -0.731574 -0.86358684 0.4939357 0.27864835 0.42980888
dual 2.2123969 0.108860634 -0.0019130844 -0.70831704 -0.64044344 -0.25697765 0.5990748 -1.0343585 -0.0069192243 -1.4091798 0.67288285 -0.33228338 0.354173 0.39462745 1.3970978 -1.1761769 -1.3756201 0.7730797 0.45744812 0.68510365
highly 1.1354096 0.06946949 0.003937864 -0.36285743 -0.32397825 -0.1213248 0.29879546 -0.5178202 -0.0057255016 -0.7094613 0.33093455 -0.17286308 0.17878813 0.20838979 0.70123357 -0.5804441 -0.702508 0.39385703 0.23198798 0.34485844
cognitive 2.3541071 0.13508874 -0.0028747835 -0.7473016 -0.6792959 -0.2592279 0.6301346 -1.0854756 -0.008195641 -1.4791782 0.7205667 -0.35654026 0.3663929 0.4268821 1.4589726 -1.2264473 -1.4442018 0.8202626 0.48294935 0.70291144
adult 0.8467462 0.051939752 0.0048810286 -0.26357397 -0.24743119 -0.10281141 0.21235928 -0.38166037 -0.009317119 -0.5470069 0.25265518 -0.14147954 0.11789692 0.14796641 0.5213789 -0.45431867 -0.5290524 0.28409955 0.17295806 0.24371248
3H 0.18099132 0.016419781 -0.0035113357 -0.052249316 -0.05948031 -0.011197766 0.032634575 -0.074235715 -0.0061413865 -0.11852026 0.06539195 -0.042968787 0.011527644 0.063299686 0.13602014 -0.109274045 -0.104301944 0.051022984 0.04237427 0.062296513
does 2.6033046 0.14625305 -0.008650455 -0.82668215 -0.7513888 -0.2902741 0.6865328 -1.2070923 -0.019605957 -1.6242135 0.7930826 -0.39105165 0.41378066 0.4553606 1.6167732 -1.3693874 -1.5959209 0.90887064 0.5395802 0.76160866
opioid 0.9251978 0.054586522 -0.013776545 -0.2898383 -0.2677031 -0.10870095 0.24910465 -0.42725217 0.0063025635 -0.5875952 0.28570393 -0.14256099 0.1493717 0.17041837 0.57533365 -0.48388234 -0.5767593 0.3083636 0.1945063 0.27636063
metabolic 2.4999118 0.13869648 -0.0052321255 -0.78951025 -0.71322405 -0.27020633 0.6625284 -1.1621194 0.0037054017 -1.5663512 0.7624172 -0.37866956 0.39215678 0.45985126 1.5422455 -1.313941 -1.5338881 0.8800538 0.5138876 0.74849015
prevents 2.7156537 0.16119783 -0.0060914736 -0.8653486 -0.7813339 -0.29995996 0.7382554 -1.270466 -0.0005758205 -1.7041771 0.82207215 -0.42069378 0.41420826 0.5048563 1.6961534 -1.426243 -1.673205 0.94185686 0.55287385 0.81898355
without 1.3502932 0.09044449 -0.0020142163 -0.4261691 -0.38685367 -0.1493256 0.35352084 -0.615637 -0.0064418796 -0.8506779 0.40848443 -0.21145508 0.20049068 0.2482204 0.8336294 -0.7074933 -0.8400497 0.4676416 0.27910092 0.41079062
vitamin 2.4487062 0.13273484 -0.007095345 -0.77679884 -0.70679003 -0.26810938 0.6423593 -1.1364485 -0.0056749354 -1.5332552 0.74128264 -0.37045372 0.38053483 0.44082156 1.5152504 -1.2811697 -1.5200654 0.8580716 0.49947038 0.73722917
smooth 0.7326372 0.03318897 -0.0058704866 -0.23154874 -0.21005692 -0.07928497 0.19105078 -0.33080888 0.0055702208 -0.46011698 0.22565728 -0.116665766 0.112192534 0.13556348 0.45503846 -0.39325914 -0.4615271 0.26522124 0.1568843 0.20546415
pharmacological 2.1914952 0.12579466 0.008524786 -0.699262 -0.6290355 -0.24314775 0.58853155 -1.0145829 -0.003855257 -1.3721989 0.6648948 -0.33677673 0.3406047 0.39047742 1.363716 -1.1473954 -1.3555329 0.7673619 0.45604596 0.66038674
pulmonary 0.78092074 0.03500014 0.0056649377 -0.24864182 -0.23673894 -0.08952 0.20971483 -0.36581388 -0.0023945204 -0.49479687 0.23764023 -0.12813804 0.13424042 0.14414011 0.47768477 -0.4115687 -0.48928085 0.27717742 0.15674827 0.23119941
approach 0.93670946 0.053812433 -0.0075229616 -0.3003021 -0.25887612 -0.09929691 0.25769222 -0.4359105 -0.0025937238 -0.583426 0.28323168 -0.14988063 0.13895038 0.16746904 0.58644885 -0.4979786 -0.5728212 0.33083764 0.19105652 0.28022817
hypertension 2.4807448 0.14653647 0.002447032 -0.78872585 -0.7069091 -0.27110285 0.6538665 -1.1502355 -0.008723519 -1.5679685 0.7558459 -0.3781424 0.3797147 0.4425434 1.533492 -1.3060187 -1.5318025 0.8718863 0.4992186 0.74357116
tyrosine 2.4503021 0.14910497 0.0015737409 -0.7944888 -0.70664924 -0.27148587 0.6594336 -1.1477723 -0.0023268638 -1.5441016 0.75019723 -0.38137677 0.38526958 0.44771424 1.5257453 -1.2915366 -1.5190794 0.86106646 0.49960294 0.7302803
lymphocytes 1.5893681 0.08735069 -0.00015557061 -0.50441754 -0.4535251 -0.17861302 0.41446966 -0.7295888 -0.008647256 -0.995764 0.4806458 -0.24383152 0.24763958 0.27942735 0.9758248 -0.8235246 -0.98048705 0.55725735 0.32129684 0.46997863
stem 1.5951774 0.09866435 0.016068764 -0.50989527 -0.46021363 -0.18061645 0.42499894 -0.73214513 -0.017931582 -1.0189399 0.5000665 -0.2490983 0.24281135 0.28950012 0.99639684 -0.8497929 -0.9914921 0.5459554 0.31691918 0.4678887
disorder 1.235043 0.07199206 -0.0031528366 -0.38913578 -0.35178152 -0.14181516 0.32413676 -0.57796353 -0.006872547 -0.76842266 0.38515583 -0.19494267 0.18695155 0.22680984 0.76746583 -0.658276 -0.755811 0.4275469 0.26661608 0.3729758
case 4.188184 0.22960459 -0.0014867864 -1.33772 -1.186355 -0.4670725 1.1195884 -1.9376243 -0.02322783 -2.640537 1.2692143 -0.6337559 0.64379144 0.7682345 2.591128 -2.1972497 -2.5967562 1.4592481 0.87472385 1.2412795
cyclooxygenase 1.8697402 0.11149437 -0.0011062486 -0.5991294 -0.5291993 -0.201735 0.50218797 -0.8700562 -0.009200235 -1.1765703 0.56467164 -0.28412074 0.28565893 0.3424185 1.1617401 -0.9813861 -1.1459343 0.65683 0.38741776 0.5562795
be 1.1923276 0.0897121 -0.017805822 -0.37591156 -0.32235196 -0.12190644 0.32960036 -0.53955436 -0.022104144 -0.7409613 0.37164924 -0.20763978 0.18149985 0.21831858 0.7459962 -0.5927843 -0.71891916 0.3997786 0.26865113 0.34378886
cerebral 1.7701795 0.10793387 -0.0035825449 -0.56703544 -0.5023314 -0.19023637 0.4715846 -0.8141022 -0.0059450427 -1.1083047 0.54650694 -0.26567596 0.27953124 0.31683028 1.0955362 -0.92965806 -1.0778002 0.62891173 0.3523846 0.5295115
matrix 1.0811634 0.06863367 0.014716095 -0.33112007 -0.30343425 -0.12082933 0.30249527 -0.50957894 -0.017264374 -0.68102515 0.33686468 -0.16085143 0.16886313 0.20168656 0.67840993 -0.56505185 -0.68112785 0.37467492 0.22092657 0.32087222
dependent 3.0999987 0.17720683 -0.011996331 -0.99253774 -0.8862409 -0.34393713 0.83997536 -1.4329474 -0.007008359 -1.9500982 0.95128095 -0.4703548 0.48200688 0.56504256 1.9261423 -1.6261703 -1.9168645 1.075195 0.6465028 0.9390169
children 1.0414705 0.065499015 -0.0037526486 -0.34157237 -0.29215157 -0.117283255 0.2789646 -0.48926234 3.3109656e-05 -0.6670661 0.3183775 -0.15976152 0.16396877 0.18603972 0.6393329 -0.5487837 -0.64881504 0.36072314 0.22056657 0.3100936
lines 4.1027813 0.24992272 0.0051517705 -1.3156166 -1.1798556 -0.46339008 1.0998938 -1.9106299 -0.020794293 -2.590715 1.2498015 -0.6218414 0.6354959 0.7415725 2.551965 -2.1575656 -2.5322707 1.4384388 0.8216745 1.2118773
Comparative 2.5400264 0.14548549 0.008475301 -0.8061105 -0.72509575 -0.2799742 0.68203545 -1.1771162 -0.0054115504 -1.5980494 0.7713743 -0.38836816 0.39129946 0.46275064 1.577051 -1.3312386 -1.5761293 0.88735944 0.5261084 0.75713503
species 2.108149 0.1342685 0.009641878 -0.6798482 -0.61257714 -0.24191561 0.554963 -0.9763755 0.0035035182 -1.3292158 0.654744 -0.3261548 0.33428642 0.39216688 1.3244017 -1.118662 -1.3173412 0.74214345 0.42467952 0.62834466
Influence 1.2313348 0.057067383 0.0070167943 -0.39500132 -0.3598203 -0.13389964 0.32850528 -0.57686627 -0.0076139006 -0.7722838 0.3727595 -0.18634245 0.18831477 0.2189819 0.7623517 -0.64612776 -0.7600662 0.41904277 0.2552456 0.37096554
RNA 0.61224383 0.037512027 0.0074138427 -0.1930228 -0.15946308 -0.07127415 0.14777173 -0.271839 -0.008438708 -0.37565604 0.18111356 -0.102642 0.09208673 0.11844231 0.3563182 -0.28951758 -0.3773289 0.2275985 0.13555722 0.18673344
ligand 1.7560415 0.10356475 0.009414606 -0.5572375 -0.5160678 -0.1999068 0.46912304 -0.81882834 0.0036429276 -1.1161029 0.5412887 -0.264777 0.26846692 0.32886037 1.0878049 -0.9272634 -1.095873 0.6180045 0.35671708 0.5335871
ethanol 1.3027698 0.07938631 0.0016113562 -0.4112485 -0.39092538 -0.14235345 0.34547657 -0.60963863 -0.007377742 -0.82170063 0.4040537 -0.19629684 0.21379204 0.2364583 0.81174403 -0.6968744 -0.806388 0.45472386 0.270109 0.39305726
airway 0.5470347 0.03500728 0.0026277958 -0.1696261 -0.158478 -0.05505208 0.13718832 -0.24706481 -0.001220175 -0.35107365 0.1661401 -0.06961014 0.07923466 0.10066881 0.33628902 -0.2837285 -0.3253087 0.20061149 0.11560764 0.1532942
hippocampal 1.0617417 0.054734528 -0.0020101727 -0.3376527 -0.29922572 -0.11974863 0.28051865 -0.4963598 0.0020462007 -0.65966445 0.32610646 -0.16613387 0.16925746 0.19385245 0.6516208 -0.55626774 -0.65067416 0.36731786 0.22086467 0.3156724
line 5.296307 0.3233371 -0.013343355 -1.6921325 -1.529111 -0.5973866 1.4055544 -2.4716964 -0.018741252 -3.3454912 1.6131642 -0.8167139 0.82609105 0.9539385 3.279647 -2.764278 -3.2698915 1.8545609 1.0717791 1.5862033
deficiency 1.2621902 0.07303306 -0.0059549785 -0.4049155 -0.35879987 -0.1352195 0.33037975 -0.58148676 -0.010226682 -0.7935883 0.38741842 -0.19627929 0.19906488 0.2301028 0.77534634 -0.65496063 -0.78296906 0.44179964 0.2564044 0.36588827
nanoparticles 1.7173926 0.10510007 0.0034751568 -0.5489212 -0.4922618 -0.1902124 0.4605609 -0.8021086 0.0014209357 -1.0824678 0.5238918 -0.25835842 0.2730126 0.30872118 1.0683346 -0.9044544 -1.0563165 0.5977377 0.3436008 0.5124839
5 0.27694422 0.028093128 0.0060535553 -0.08291014 -0.0750377 -0.0023278943 0.039644863 -0.13332486 -0.01844137 -0.18369696 0.11269584 -0.049142446 0.03795032 0.058606736 0.14173299 -0.09426152 -0.13548175 0.09180915 0.0611535 0.07931584
structure-activity 2.3539 0.14635745 0.004177205 -0.74929494 -0.6796916 -0.26113942 0.63021237 -1.0945175 0.0022205992 -1.4813869 0.714644 -0.36686516 0.35945252 0.4204932 1.4691705 -1.2328184 -1.447236 0.82268 0.47735214 0.7034296
direct 1.4928179 0.08765083 0.0004610778 -0.47930953 -0.43320385 -0.16499549 0.3935856 -0.7003567 -0.013060114 -0.9441989 0.45819893 -0.22967547 0.24153328 0.26926622 0.9185332 -0.77507895 -0.92420346 0.5353348 0.29891583 0.4377369
tumors 1.2398962 0.07729914 0.00078433537 -0.40215147 -0.36055794 -0.13941653 0.32080674 -0.5891996 -0.003243823 -0.7906311 0.38586646 -0.19680941 0.20615573 0.23602428 0.78777397 -0.66560537 -0.7750023 0.4352092 0.24805102 0.37854147
glucocorticoid 1.2785461 0.07004889 0.003888648 -0.41381064 -0.36988044 -0.14195049 0.33680448 -0.59458625 -0.0007017968 -0.8014333 0.3909532 -0.20302661 0.19681354 0.22472516 0.79950356 -0.6815697 -0.7944756 0.44899166 0.2617732 0.37647483
antipsychotic 1.9578068 0.11935205 0.00420796 -0.6281734 -0.5593405 -0.2205557 0.52465874 -0.9069977 0.0036773086 -1.2324598 0.5909254 -0.3013593 0.30352673 0.35416806 1.2055583 -1.0353256 -1.2019483 0.6856314 0.4060698 0.5850601
B 0.2374104 0.021888645 0.004433958 -0.08366919 -0.047424585 -0.047041096 0.06969011 -0.09364593 0.015322983 -0.10368995 0.055751905 -0.07018745 0.038412075 0.059716854 0.12164661 -0.13533844 -0.14467639 0.09229213 0.045247864 0.03596575
biochemical 2.0625057 0.12788866 0.0011493241 -0.657046 -0.58491904 -0.22290565 0.5492773 -0.954275 -0.008780296 -1.28724 0.6335097 -0.30985567 0.3181231 0.37611696 1.2765671 -1.0694578 -1.269943 0.7189545 0.4327961 0.61393327
women 1.0955735 0.06768039 0.0012514979 -0.3520112 -0.3096206 -0.124337725 0.28512564 -0.49828166 0.0025654256 -0.6862078 0.3286776 -0.16532153 0.17713568 0.19572432 0.67680055 -0.5883192 -0.6714137 0.37591866 0.22529925 0.32530287
activated 4.8327327 0.2784168 0.010294219 -1.5312184 -1.3966367 -0.53130645 1.2908157 -2.2430353 -0.007963582 -3.0505893 1.4817798 -0.742523 0.7499205 0.88089955 2.9960425 -2.5335417 -2.9835155 1.6963143 0.9977235 1.4412822
Regulation 4.9626575 0.28579682 0.0066779335 -1.6031046 -1.4243399 -0.55354196 1.312642 -2.3143232 -0.001742206 -3.1396823 1.5200827 -0.75622195 0.7624445 0.88977563 3.096371 -2.6023045 -3.0639613 1.7549821 1.0036272 1.4641743
cyclic 2.0240362 0.12490749 -0.005324955 -0.6396525 -0.57061946 -0.22543228 0.5362124 -0.93393505 -0.0029821338 -1.2828239 0.6272267 -0.30169252 0.31288597 0.38069254 1.2556461 -1.0650839 -1.2407413 0.71782386 0.42307 0.596136
Study 0.8231542 0.042769473 -0.0049453685 -0.27285022 -0.25363868 -0.08866446 0.2272807 -0.38187456 0.0043610386 -0.52364075 0.24574652 -0.118938 0.12551102 0.15614398 0.5086457 -0.44010153 -0.50765806 0.29669905 0.16721109 0.23364173
screening 2.1294358 0.1265709 -0.0016120546 -0.68447 -0.60653305 -0.23655403 0.556721 -0.9837706 -0.0012616831 -1.3445376 0.65758336 -0.32170138 0.34651777 0.39119905 1.3297728 -1.112569 -1.3118024 0.74250394 0.43580756 0.63652694
unique 0.4611162 0.031804122 -0.012669137 -0.13915949 -0.14025287 -0.053898297 0.1115686 -0.22855413 -0.006732277 -0.29035866 0.12889127 -0.06950517 0.07146639 0.07854646 0.28294292 -0.24246906 -0.285695 0.14290476 0.10040576 0.13757017
patient 3.8995075 0.22566725 0.0017877162 -1.2474617 -1.1056937 -0.4307731 1.052111 -1.8248394 -0.01072882 -2.4552002 1.1961021 -0.5919437 0.60847414 0.70920837 2.4292386 -2.0387897 -2.4140906 1.360882 0.7962428 1.1633335
central 2.8846104 0.16967843 -0.00908937 -0.91429603 -0.8185349 -0.3223341 0.76285994 -1.3275839 -0.005003273 -1.8107494 0.8877159 -0.4282318 0.44401887 0.52181786 1.7946633 -1.5213842 -1.7713374 1.0083759 0.5919493 0.8699425
antitumor 2.239775 0.13209002 -0.0038233856 -0.7131574 -0.6414501 -0.24994226 0.58681524 -1.0452423 -0.0041301847 -1.411646 0.6714823 -0.3386738 0.35028785 0.40249807 1.3953514 -1.1755263 -1.387775 0.79098904 0.46316803 0.67225987
intracellular 2.1865084 0.13192725 -0.0021221908 -0.68431026 -0.629183 -0.2548899 0.58390105 -1.0196289 -0.0053871907 -1.3877702 0.6667446 -0.3474221 0.34693718 0.4005594 1.3791898 -1.1499923 -1.3578045 0.77422124 0.44658694 0.65953875
Mechanism 1.5195044 0.086600125 -0.0013590329 -0.48097187 -0.43645644 -0.17596625 0.40600905 -0.70737183 0.0022615578 -0.96382254 0.45317096 -0.23214263 0.23919554 0.27962258 0.9393608 -0.8043719 -0.9435049 0.53902096 0.31225625 0.44324276
estrogen 1.849106 0.109224334 0.0023458933 -0.58466667 -0.51997495 -0.2101382 0.4851569 -0.8585323 0.0027587023 -1.1597962 0.57548434 -0.28088456 0.2922009 0.3366582 1.1436195 -0.96496654 -1.1383588 0.6472911 0.38080803 0.5479731
dynamics 1.0549483 0.05960159 -0.0019735233 -0.33169848 -0.29953563 -0.11014962 0.27750006 -0.48696125 -0.0033166218 -0.65954906 0.3177576 -0.16187783 0.17591868 0.18916875 0.66068393 -0.54904735 -0.6570027 0.37067834 0.21085969 0.30985463
leads 0.86954504 0.040815093 -0.0065407623 -0.28362596 -0.2510516 -0.0965912 0.22592463 -0.38833272 -0.011633738 -0.5369023 0.2545559 -0.13952209 0.131105 0.16610892 0.54415613 -0.45370713 -0.5186746 0.30427006 0.18187523 0.25746
