9916 20
. 1.2913165 0.4078657 -0.3330272 -0.36234 -0.7863002 -0.76482695 0.6620464 -0.43265012 -0.52807254 -1.5722831 0.53696764 -0.08021875 0.7317279 0.34789622 -0.17451584 -0.99796635 -0.87011343 0.9034408 0.5434061 0.70206344
of 1.4742564 0.31801993 -0.1929132 -0.40216973 -0.5183332 -0.59754455 0.7095401 -0.40060312 -0.50885856 -1.3987045 0.42563236 -0.06631373 0.85140055 0.23262872 -0.01164475 -0.83874726 -0.8438715 0.6838951 0.61559474 0.7757456
and 1.4040067 0.3476797 -0.25161266 -0.41833776 -0.6870292 -0.64533883 0.6683374 -0.38710707 -0.43198344 -1.5527126 0.43691704 -0.14764346 0.823703 0.22946237 -0.06282608 -0.89656836 -0.8152779 0.73729134 0.66380864 0.7826237
in 1.2741504 0.4310599 -0.39188355 -0.46247768 -0.8351634 -0.6449063 0.5938681 -0.5911903 -0.4890949 -1.8143934 0.6000074 -0.11953411 0.59708744 0.29790682 -0.23121849 -1.1158693 -0.91914105 1.1134579 0.43050846 0.64952075
the 1.3428259 0.34591794 -0.28730568 -0.52877957 -0.7430113 -0.5804263 0.6591664 -0.48781055 -0.4561908 -1.6098557 0.4972052 -0.07122548 0.6518389 0.19341072 -0.18850936 -0.92181957 -0.760275 0.81177527 0.5167682 0.70677346
, 1.4226103 0.32253695 -0.1682525 -0.4549417 -0.69428986 -0.7384848 0.57100433 -0.32621613 -0.34470415 -1.5114768 0.41034117 -0.23399626 1.0373906 0.27127492 0.070326746 -0.65412474 -0.8229271 0.71045506 0.7222547 0.7687475
a 1.3485591 0.19267996 -0.24928503 -0.54690796 -0.64319134 -0.7357586 0.69304585 -0.3677894 -0.4707811 -1.5713189 0.4063999 -0.050080437 0.89594465 0.15622048 0.012126016 -0.878606 -0.80877626 0.5835857 0.7705397 0.8571633
: 1.3897607 0.23736213 -0.24570778 -0.44416618 -0.6552563 -0.6959846 0.6414451 -0.40742218 -0.44526902 -1.5078802 0.43051565 -0.09665337 0.8151917 0.19002599 -0.08216669 -0.8213583 -0.8368585 0.68579257 0.6703848 0.78074807
( 1.3472564 0.38476557 -0.034858804 -0.113508135 -0.70098215 -1.1253076 0.46800092 -0.3108811 -0.3176915 -1.5577914 0.34518912 -0.10661033 1.183802 0.39266396 0.27761072 -0.5398125 -0.7303328 0.34498358 0.7742271 1.088392
) 1.3101455 0.2262266 -0.018211626 -0.3579623 -0.7110725 -0.94116277 0.65184504 -0.13902286 -0.40683183 -1.372754 0.5018683 -0.47437206 1.1663121 0.500984 0.44349605 -0.5735447 -1.0035768 0.33048213 0.83696765 0.9788574
by 1.3289138 0.34900182 -0.24460234 -0.39269033 -0.63391054 -0.67499393 0.68210614 -0.41310537 -0.48365074 -1.5137621 0.49139404 -0.11989851 0.78339255 0.24195592 -0.10921797 -0.9619962 -0.88995147 0.8033334 0.629802 0.7294601
with 1.4463398 0.36379024 -0.27280954 -0.3928296 -0.6942354 -0.74029905 0.70515484 -0.38943008 -0.51016444 -1.5709716 0.5076315 -0.15485957 0.81066227 0.29282328 -0.07185338 -1.0023389 -0.90890795 0.77379936 0.6559886 0.78803134
for 1.4413055 0.32216218 -0.25020948 -0.48427302 -0.66296357 -0.6832494 0.7215156 -0.43654838 -0.44922766 -1.6036869 0.456287 -0.086284064 0.833464 0.2164775 -0.0044447402 -0.92203575 -0.8413754 0.74111223 0.6850458 0.8547756
on 1.3226919 0.45301762 -0.34372267 -0.58599067 -0.8165715 -0.53561234 0.7301234 -0.6114001 -0.48746043 -1.8295395 0.5162423 -0.08823796 0.6124376 0.18005516 -0.2305713 -1.0349882 -0.76056725 0.9605218 0.40196514 0.65055645
to 1.3497288 0.3707757 -0.2569852 -0.41828418 -0.70293 -0.5980187 0.7270668 -0.41332525 -0.54306746 -1.4884393 0.5196843 -0.11618364 0.7131025 0.20337823 -0.11154456 -1.0173635 -0.85800827 0.7843952 0.6322348 0.761863
receptor 1.459965 0.35168436 -0.19826895 -0.49214798 -0.8174932 -0.75383335 0.6832951 -0.4565392 -0.45049968 -1.7839807 0.4853243 -0.22565563 0.92354596 0.29129776 0.005215343 -0.87869215 -0.8548789 0.7373776 0.6810914 0.8392904
cells 1.0839847 0.42541614 -0.43194884 -0.46989584 -0.8871091 -0.75349265 0.7279795 -0.54938835 -0.59120876 -1.8092327 0.6547263 -0.19222406 0.65148747 0.29529002 -0.2877498 -1.2470237 -0.91172355 1.1716782 0.45327857 0.5234591
human 1.2819965 0.41393283 -0.370805 -0.5028621 -0.8679937 -0.71550363 0.71612424 -0.5191044 -0.57183754 -1.8353941 0.603136 -0.16634156 0.7271502 0.28358158 -0.20920905 -1.0875192 -0.8965042 1.003632 0.5391369 0.67359966
expression 1.2117183 0.40031192 -0.37733695 -0.60515666 -0.8605496 -0.54355276 0.6669882 -0.60990095 -0.5416421 -1.8720672 0.57013035 -0.12693773 0.5380093 0.22290286 -0.31009245 -1.1291765 -0.7925326 1.0777427 0.41103968 0.555768
activity 1.335788 0.3755274 -0.30435997 -0.53611904 -0.8037034 -0.59582174 0.7014138 -0.5245354 -0.4805954 -1.7023394 0.5317784 -0.11769867 0.7261082 0.19489776 -0.16946107 -0.97739005 -0.76605046 0.8454484 0.5887368 0.71272385
The 1.3187414 0.32254505 -0.25525132 -0.43638644 -0.6465014 -0.5982081 0.6271617 -0.41223302 -0.4408773 -1.461111 0.43200096 -0.09779744 0.7036489 0.22128864 -0.09482539 -0.79684305 -0.7235757 0.7046115 0.5693229 0.73425514
as 1.4751029 0.3131588 -0.20744056 -0.53208303 -0.6365872 -0.7245533 0.68334574 -0.42410266 -0.47184032 -1.5430635 0.4449432 -0.1204167 0.9530678 0.17362633 0.031476803 -0.81659853 -0.80752873 0.63641727 0.7398716 0.9231667
effects 1.3284914 0.428212 -0.35486275 -0.5599812 -0.8199195 -0.515251 0.67691153 -0.52964383 -0.4431114 -1.6749556 0.4777388 -0.083261035 0.6271259 0.15340613 -0.22950067 -0.84288406 -0.6876035 0.7687794 0.49988696 0.7118835
A 1.3062645 0.27070013 -0.19910175 -0.4079188 -0.56790525 -0.6952334 0.6822765 -0.32245088 -0.4578763 -1.3539548 0.45858365 -0.15113468 0.85023415 0.22292003 0.037044182 -0.84481084 -0.75638604 0.56509525 0.6471312 0.7605164
from 1.3480991 0.37600896 -0.24623817 -0.39487627 -0.63751084 -0.65422285 0.67009294 -0.4634904 -0.4654822 -1.4908565 0.4574208 -0.09887419 0.77018493 0.2335807 -0.067359775 -0.89205724 -0.8127468 0.7120715 0.5875825 0.7321071
rat 1.2729578 0.46292594 -0.43404847 -0.5430888 -0.881779 -0.5878583 0.74972785 -0.54447687 -0.572972 -1.7754891 0.607088 -0.1651336 0.62685716 0.18122654 -0.27881798 -1.1236148 -0.8481733 0.9876927 0.49401274 0.6468328
cell 1.1431181 0.4176609 -0.42476016 -0.4606557 -0.87198985 -0.80008125 0.740241 -0.5665879 -0.59307826 -1.8405408 0.6954532 -0.18405753 0.69427204 0.32165435 -0.26384428 -1.2600765 -0.9462076 1.1736858 0.48866293 0.53827304
rats 1.2206445 0.4350317 -0.44053727 -0.53978974 -0.88494754 -0.6091685 0.74552727 -0.54264617 -0.5669913 -1.7467872 0.5821487 -0.1677621 0.62388873 0.18056516 -0.3048105 -1.1716589 -0.8479061 1.0183076 0.48733407 0.5881498
inhibitors 1.3934001 0.2851728 -0.20911309 -0.49559996 -0.6948399 -0.6812141 0.64334345 -0.46484566 -0.40711868 -1.6614006 0.45533985 -0.12848924 0.86338395 0.18173087 -0.023353703 -0.85860395 -0.7809332 0.67917776 0.66025436 0.83945435
is 1.4529536 0.3737404 -0.29123098 -0.6385323 -0.7510714 -0.67204916 0.77580965 -0.59980816 -0.5644449 -1.8141098 0.5714965 -0.10478505 0.73468685 0.24931338 -0.21450096 -1.1154785 -0.88156337 0.91500294 0.61217964 0.70903546
novel 1.4806193 0.32295415 -0.20227078 -0.54706156 -0.7129154 -0.7444374 0.6716874 -0.44778922 -0.38715392 -1.6609075 0.45340493 -0.10773635 0.9280614 0.20241326 -0.004337798 -0.8207788 -0.8045027 0.6126309 0.7537024 0.88551074
mice 1.388483 0.43302354 -0.41445866 -0.51802737 -0.85621125 -0.733485 0.784034 -0.5296908 -0.6008374 -1.7976199 0.580946 -0.16085844 0.8022222 0.25618532 -0.20883006 -1.1691055 -0.9483829 0.98150045 0.59829086 0.7419665
cancer 1.2552915 0.38466412 -0.4210217 -0.49889314 -0.9308617 -0.8131615 0.7179414 -0.5336356 -0.54140353 -1.9300306 0.62096965 -0.15652528 0.7268626 0.27601185 -0.2502962 -1.2388457 -0.9541361 1.1396799 0.55674595 0.6950702
gene 1.3222808 0.38693178 -0.3351181 -0.5142934 -0.7549997 -0.65704983 0.64932275 -0.5161604 -0.4643552 -1.737891 0.56175244 -0.16740416 0.7473757 0.2593913 -0.06701739 -0.88823485 -0.86119056 0.8342241 0.5819749 0.7248861
an 1.490864 0.3881134 -0.31138986 -0.54144514 -0.862614 -0.7449782 0.7538843 -0.44949985 -0.49792454 -1.8349254 0.5074459 -0.14445665 0.91489077 0.20431411 -0.113029316 -1.0397052 -0.8822224 0.8846873 0.6781687 0.81344223
protein 1.5199317 0.43633884 -0.30734202 -0.5141425 -0.8230944 -0.77480227 0.750557 -0.5530711 -0.51300514 -1.9015815 0.6064528 -0.20469129 0.91393745 0.33650336 -0.062161732 -1.0425084 -0.9429113 0.91494095 0.6880714 0.88073313
binding 1.4310565 0.4169494 -0.30445108 -0.5510868 -0.8011609 -0.6420417 0.7362868 -0.55428636 -0.4935325 -1.7887754 0.5572957 -0.09105964 0.79021776 0.23370506 -0.14008154 -1.0185409 -0.804076 0.8176537 0.64671075 0.7768761
receptors 1.4249433 0.33721533 -0.20965062 -0.48127323 -0.8023434 -0.7293223 0.6795814 -0.4608398 -0.44286853 -1.7310466 0.48008928 -0.20005691 0.88690746 0.27073222 -0.013381537 -0.8897191 -0.83792627 0.73866427 0.66291106 0.81779206
[ 1.2490052 0.51859516 -0.21284384 -0.29530847 -0.7562247 -1.0200198 0.8505982 -0.38179415 -0.29729655 -1.2232095 0.50326395 -0.19948149 1.3530196 0.3203124 0.3195327 -0.8550343 -0.86569256 0.1066304 0.7990569 0.9068417
] 1.3719405 0.46908396 -0.22396338 -0.3058177 -0.8121275 -1.0840207 0.843069 -0.346002 -0.48319954 -1.3077966 0.4991682 -0.10048168 1.1726769 0.35888267 0.097329155 -0.68130416 -0.9940344 0.18986353 0.6655718 1.0701904
acid 1.4557143 0.38452834 -0.2743307 -0.4532554 -0.78819966 -0.7232939 0.75751096 -0.4888353 -0.55480844 -1.727666 0.5636952 -0.13317502 0.8395183 0.26728013 -0.12824477 -1.031178 -0.9127503 0.86928946 0.6761707 0.81560045
factor 1.5284956 0.40212688 -0.29258615 -0.5247614 -0.80327773 -0.7301826 0.721481 -0.5498333 -0.54171103 -1.8855265 0.5894043 -0.14797334 0.8907604 0.27811986 -0.13683951 -1.0258664 -0.9311452 0.87111 0.66439563 0.82513505
inhibition 1.2674115 0.37190226 -0.3238878 -0.6251918 -0.81486076 -0.50954425 0.64119536 -0.6184335 -0.431774 -1.8438091 0.5206411 -0.08795889 0.61906177 0.1343813 -0.239168 -0.9893558 -0.6712786 0.8931954 0.46650964 0.64980155
inhibitor 1.416677 0.29447073 -0.2059344 -0.5030367 -0.69533867 -0.6922371 0.64244884 -0.46448022 -0.41060904 -1.6892656 0.4561072 -0.1386641 0.8863491 0.18702771 -0.014152785 -0.8532109 -0.7928211 0.68112975 0.66512984 0.8509744
activation 1.1925128 0.41747192 -0.3705773 -0.67991674 -0.86986285 -0.41335833 0.6619797 -0.66866374 -0.45893538 -1.884264 0.5594401 -0.06702099 0.5002626 0.15194252 -0.3318355 -1.0683656 -0.60099894 0.9740848 0.43039227 0.551965
signaling 1.4201585 0.3997046 -0.31750548 -0.521908 -0.78315854 -0.6330718 0.71504635 -0.55573285 -0.5246852 -1.8118709 0.5627284 -0.093617514 0.7555958 0.26121816 -0.17699389 -1.0902952 -0.8486818 0.9356585 0.6008562 0.7418945
effect 1.332579 0.4277117 -0.32562777 -0.54508734 -0.7925149 -0.52270734 0.6591494 -0.50320923 -0.43012273 -1.64154 0.46389785 -0.086541705 0.652513 0.15808971 -0.19178848 -0.78766125 -0.6835343 0.7133911 0.5065897 0.7321727
treatment 1.3503655 0.34522188 -0.31626722 -0.5611233 -0.7584062 -0.6130655 0.7137956 -0.5197539 -0.48466352 -1.6612444 0.5188509 -0.115258515 0.69518334 0.17330498 -0.17186333 -1.0102414 -0.7830462 0.80438286 0.5710661 0.70438486
2 1.461669 0.35910082 -0.15158084 -0.2862627 -0.7095816 -0.87686473 0.6789237 -0.37340644 -0.40985137 -1.5214934 0.4582366 -0.16722453 0.8844611 0.30415586 0.067750916 -0.8370121 -0.8314328 0.67342824 0.6744629 0.8916693
via 1.4999437 0.43407893 -0.33284608 -0.4854264 -0.84029907 -0.77047306 0.79416126 -0.53787714 -0.5679141 -1.8374023 0.6034358 -0.1421354 0.8715238 0.31899592 -0.14911841 -1.1253692 -0.9902471 0.9754671 0.6734144 0.8290086
patients 1.3409724 0.36747643 -0.33301908 -0.4885643 -0.7896793 -0.68437093 0.75154454 -0.5129888 -0.53210044 -1.6902671 0.53494215 -0.10624018 0.6967217 0.22754729 -0.17750369 -1.0883908 -0.84544456 0.8873803 0.5831637 0.6934139
through 1.4543538 0.39928788 -0.3090735 -0.49036777 -0.783659 -0.70050204 0.7514331 -0.5205286 -0.5464547 -1.7436827 0.555158 -0.1345386 0.7935399 0.27022046 -0.14870782 -1.0757947 -0.8889145 0.89649165 0.6411203 0.7794988
its 1.4151012 0.39953825 -0.34899017 -0.49820194 -0.81401175 -0.6789999 0.75593835 -0.54052746 -0.4913784 -1.7366549 0.5300654 -0.093534335 0.76840836 0.2501165 -0.17594488 -1.0740287 -0.83882457 0.91895086 0.6078592 0.7671501
vitro 1.3304307 0.37300104 -0.36321148 -0.5159193 -0.8578043 -0.6576532 0.71341515 -0.51187223 -0.52808106 -1.7320815 0.5401474 -0.13490814 0.71155715 0.22207657 -0.22123942 -1.0707476 -0.83539766 0.9593847 0.56533605 0.69374657
vivo 1.219624 0.36827758 -0.31563675 -0.47662324 -0.79076856 -0.60242 0.65065914 -0.44777104 -0.46902293 -1.565963 0.5016075 -0.1084961 0.68968624 0.21149139 -0.19321151 -0.9777677 -0.77391434 0.8436556 0.53402954 0.6347275
apoptosis 1.3473254 0.4184557 -0.3639555 -0.51839316 -0.83032554 -0.68585354 0.74340934 -0.54957044 -0.5537349 -1.7991567 0.58864564 -0.12984148 0.72339374 0.2804197 -0.22069846 -1.1105412 -0.9028872 1.0032336 0.57454103 0.6891385
antagonist 1.4517201 0.36469838 -0.2708764 -0.50398266 -0.82480043 -0.7491932 0.6960698 -0.46810237 -0.4030788 -1.7477661 0.46821567 -0.176691 0.92928106 0.23184754 -0.034723572 -0.9069 -0.82346606 0.7126845 0.6999712 0.8474706
1 1.3279657 0.32618684 -0.18860961 -0.35784402 -0.6572876 -0.7364748 0.67888594 -0.33807194 -0.44064778 -1.4972532 0.44449967 -0.11828813 0.90000683 0.25485963 -0.012393646 -0.8231842 -0.8409456 0.68964833 0.6884873 0.79276514
brain 1.4988569 0.43038607 -0.35444456 -0.55494654 -0.8903351 -0.727869 0.7717073 -0.5415878 -0.55185467 -1.8696227 0.5716205 -0.14636248 0.7986909 0.24646206 -0.17328788 -1.11399 -0.93172795 0.99802834 0.6196062 0.79042757
Effects 1.2400581 0.4014795 -0.31871256 -0.5145425 -0.7682688 -0.49742326 0.6326657 -0.49703503 -0.4140329 -1.5502759 0.45184845 -0.08553157 0.59992176 0.16294007 -0.18926604 -0.78331435 -0.6550949 0.7104195 0.47430667 0.6665605
transporter 1.4046448 0.3930189 -0.31516647 -0.5111858 -0.8148511 -0.7042424 0.70636195 -0.5058801 -0.50920224 -1.7789804 0.54917973 -0.13838232 0.7750984 0.25364953 -0.13982911 -1.0339234 -0.8990698 0.92588335 0.61061656 0.76992494
induced 1.4902896 0.52736425 -0.45763555 -0.57225955 -0.99395305 -0.75444967 0.85523874 -0.70868194 -0.7183719 -2.0843546 0.7361868 -0.1200207 0.703964 0.34878224 -0.34727874 -1.3879328 -1.0768552 1.312516 0.5518307 0.7197456
against 1.347669 0.3558445 -0.29620335 -0.42403388 -0.7281848 -0.6788245 0.7133231 -0.4452966 -0.5060795 -1.6119438 0.5127689 -0.117895745 0.7716056 0.2647984 -0.11445503 -0.9995958 -0.8615011 0.8423737 0.6195307 0.75465155
growth 1.3691338 0.35742748 -0.30596024 -0.47704214 -0.75426894 -0.68852055 0.68673086 -0.4980906 -0.51408434 -1.7450949 0.5462921 -0.12689619 0.7884424 0.27231488 -0.14977801 -1.0225134 -0.8911671 0.8869786 0.60704994 0.7349295
kinase 1.6295372 0.43203714 -0.28905272 -0.58513856 -0.84379023 -0.8128123 0.8177435 -0.5622341 -0.5758678 -2.011868 0.60763013 -0.16809145 0.9591512 0.3165571 -0.055716276 -1.1264181 -0.9373407 0.96553916 0.7542764 0.9253232
mouse 1.3690468 0.35467508 -0.30246946 -0.48523995 -0.7574731 -0.6538564 0.6998578 -0.4930775 -0.5217021 -1.6745641 0.5267764 -0.124135606 0.74384254 0.2152668 -0.15174064 -1.0093102 -0.8393757 0.87000775 0.5950403 0.71468985
pathway 1.4085518 0.38606587 -0.3304205 -0.51398474 -0.7949973 -0.70943326 0.78108984 -0.54794425 -0.5707526 -1.8146868 0.5742706 -0.1410833 0.7594253 0.26087216 -0.17364155 -1.1653475 -0.93867826 0.9949922 0.6106961 0.7334529
new 1.483922 0.3412042 -0.2788811 -0.5508744 -0.7530326 -0.69715005 0.73166317 -0.4703754 -0.47423223 -1.6975658 0.49160686 -0.118239775 0.8211567 0.18856104 -0.10112446 -0.9537479 -0.85066825 0.7964998 0.6843701 0.8222828
Effect 1.2332379 0.39699998 -0.283587 -0.4986215 -0.73288584 -0.49807936 0.6072319 -0.46529695 -0.3963028 -1.4993175 0.43714628 -0.08904867 0.62078255 0.17342551 -0.14934225 -0.72215414 -0.6453102 0.6522307 0.47624603 0.6738191
drug 1.5202904 0.35891992 -0.30375102 -0.5052466 -0.7653747 -0.72006375 0.76288027 -0.5219225 -0.5144818 -1.7063911 0.5218055 -0.12205949 0.884239 0.22875127 -0.08431309 -1.0105437 -0.91963005 0.81693816 0.7128846 0.83969516
at 1.4866459 0.40069404 -0.28228816 -0.4818703 -0.8008158 -0.73416424 0.75804955 -0.46566543 -0.5644091 -1.7366416 0.5450708 -0.14321004 0.87547356 0.27299774 -0.12023049 -1.0000448 -0.91979414 0.8364107 0.6619475 0.81927097
Synthesis 1.283097 0.34849495 -0.25646916 -0.5475455 -0.7333062 -0.5858869 0.63300705 -0.46059102 -0.37877843 -1.5696179 0.43671677 -0.08091822 0.74420923 0.20133838 -0.12278971 -0.8509809 -0.7001058 0.76913106 0.5510977 0.67243654
selective 1.5605798 0.36611113 -0.28963956 -0.6081263 -0.8245358 -0.690898 0.74636674 -0.54099715 -0.4791595 -1.8772374 0.52621585 -0.12040864 0.88611805 0.19524017 -0.119775966 -0.9826122 -0.82673085 0.85319024 0.7265802 0.84710133
inhibits 1.2280036 0.28661487 -0.20828632 -0.43611628 -0.6297664 -0.5900025 0.5813053 -0.44515133 -0.38617077 -1.4952935 0.4159469 -0.10761958 0.7279857 0.16709164 -0.06658187 -0.808467 -0.7041487 0.6641516 0.5488549 0.7074993
type 1.6923641 0.38383055 -0.3125992 -0.47013238 -0.83708346 -0.8676237 0.85864806 -0.49320757 -0.5801293 -1.8903562 0.594445 -0.18715134 0.93423295 0.325878 -0.021908117 -1.1401572 -0.9948425 0.910671 0.74922276 0.9131275
study 1.3095113 0.35993165 -0.31159812 -0.48547888 -0.74134517 -0.6194224 0.6624959 -0.45683867 -0.45348543 -1.6096839 0.4871969 -0.107203014 0.72312874 0.20818605 -0.120194055 -0.9561558 -0.78135663 0.808921 0.57120186 0.70050913
model 1.3870296 0.3567553 -0.2980288 -0.52087104 -0.7655885 -0.6476981 0.6910505 -0.51594085 -0.4833656 -1.7041881 0.5290824 -0.105762266 0.7518925 0.21571976 -0.1375471 -0.9836109 -0.8286704 0.8402283 0.58057743 0.7414569
potential 1.4969437 0.3326933 -0.31818146 -0.59314525 -0.80071557 -0.66816944 0.7448078 -0.54170185 -0.485357 -1.8328986 0.536 -0.08481169 0.7883149 0.18775155 -0.16173713 -1.0413997 -0.8336221 0.88643366 0.6641818 0.82166773
stress 1.4631362 0.4144919 -0.3586718 -0.54532564 -0.88374317 -0.69253266 0.77407277 -0.5754876 -0.56375 -1.8435414 0.6061378 -0.16625454 0.7629377 0.250283 -0.21398835 -1.1304973 -0.94828075 1.0290973 0.59419674 0.7586903
metabolism 1.3243885 0.37095755 -0.32219094 -0.49117392 -0.77175367 -0.61063665 0.68082255 -0.49264118 -0.47190547 -1.6422853 0.50306106 -0.10968878 0.7145246 0.21745043 -0.16495363 -0.9784352 -0.7907013 0.85760146 0.5551738 0.69566756
function 1.2824676 0.43242687 -0.4004343 -0.6656659 -0.89749825 -0.4796908 0.693948 -0.64687395 -0.49068356 -1.9002608 0.5700863 -0.08712583 0.54412556 0.17079516 -0.3146772 -1.130977 -0.69427365 1.021264 0.44668204 0.5907343
role 1.6314296 0.45165968 -0.3714999 -0.6192619 -0.91220474 -0.732579 0.829221 -0.5919357 -0.5649689 -2.0061557 0.5860127 -0.1353721 0.8872156 0.2448234 -0.1581881 -1.1465551 -0.9404308 0.96064246 0.7175718 0.87209517
II 1.3773248 0.31826335 -0.2424405 -0.40116295 -0.673876 -0.69932973 0.67362607 -0.39755797 -0.48336038 -1.5283985 0.4733784 -0.14924622 0.7970328 0.2791716 -0.034252636 -0.93248373 -0.8663317 0.73576915 0.65139437 0.75375444
disease 1.5331621 0.40984386 -0.35517406 -0.56257445 -0.8283218 -0.7650905 0.8054034 -0.5632814 -0.5679811 -1.8761084 0.58308023 -0.13259076 0.8178836 0.24596645 -0.13614568 -1.1429614 -0.94961363 0.9705577 0.65270495 0.8251532
properties 1.3753204 0.38837725 -0.3105431 -0.5318377 -0.78100806 -0.6548608 0.70062035 -0.5141437 -0.47189772 -1.7223468 0.52951586 -0.1134018 0.74645346 0.23089698 -0.15679006 -0.98224944 -0.8123781 0.8529805 0.58025396 0.75171834
liver 1.5669492 0.42650595 -0.3705302 -0.5510813 -0.8948216 -0.7823374 0.8056049 -0.5606936 -0.5816276 -1.938082 0.61213785 -0.13106371 0.8382995 0.2572823 -0.17903522 -1.1757605 -0.9851821 1.0103899 0.6766091 0.83068395
dopamine 1.5218643 0.42661625 -0.29094616 -0.5331147 -0.8699992 -0.7589569 0.738577 -0.51612514 -0.48025277 -1.8452295 0.5313115 -0.18538338 0.94833326 0.25902572 -0.07208042 -0.9745487 -0.88542145 0.8390674 0.6946428 0.8694442
's 1.2279291 0.2848063 -0.28271842 -0.43617594 -0.63000274 -0.58766246 0.6745308 -0.3588666 -0.4424564 -1.375515 0.45010102 -0.13014254 0.74465126 0.18067007 -0.0736758 -0.8546473 -0.77090657 0.6680711 0.49564415 0.6275828
alpha 1.6467539 0.43633482 -0.31438527 -0.53703594 -0.8743731 -0.86979383 0.8090904 -0.52820474 -0.58324254 -1.9375381 0.60424894 -0.17765047 0.9931341 0.33029795 -0.052711733 -1.1064379 -1.0412844 0.9246772 0.7654726 0.9254807
using 1.4988976 0.3969243 -0.31605646 -0.56841534 -0.7979153 -0.7227703 0.76306784 -0.52181494 -0.53505826 -1.8362619 0.57119876 -0.12279501 0.8483004 0.2432785 -0.1339758 -1.1116899 -0.90738237 0.9112381 0.66854435 0.8180878
drugs 1.3478588 0.32841083 -0.27215764 -0.45265216 -0.6971766 -0.63180333 0.668577 -0.46737728 -0.4565437 -1.5406532 0.46042484 -0.1056736 0.77330726 0.2031576 -0.099353366 -0.89702827 -0.8244015 0.76171374 0.6140244 0.73931473
response 1.3644094 0.37577084 -0.31489086 -0.50651246 -0.7733432 -0.6544269 0.72220314 -0.5027921 -0.5270949 -1.7166079 0.55545205 -0.12717491 0.70871127 0.24228738 -0.18297787 -1.0679411 -0.84757996 0.8987659 0.5994488 0.7134735
molecular 1.5400805 0.37437767 -0.289413 -0.5613891 -0.8092607 -0.6869788 0.7510132 -0.53341156 -0.517754 -1.8402067 0.53009313 -0.115433075 0.8523634 0.23494725 -0.11959052 -1.0363755 -0.8839427 0.89600354 0.6829497 0.8386322
associated 1.4744272 0.3991844 -0.30523846 -0.47255805 -0.7856829 -0.7636516 0.7708135 -0.5351206 -0.5750469 -1.790364 0.5620422 -0.11206335 0.822868 0.2979879 -0.11530522 -1.1070635 -0.94606304 0.91927695 0.66800886 0.80789006
potent 1.5883671 0.32035893 -0.3050845 -0.6188221 -0.8091039 -0.7072433 0.7645568 -0.5424176 -0.4890851 -1.8793409 0.53114974 -0.07922154 0.86922026 0.17737243 -0.12022405 -1.0186092 -0.8484741 0.8564126 0.72790235 0.8931019
characterization 1.3269906 0.38913456 -0.33252686 -0.6244818 -0.8293558 -0.5278279 0.6689184 -0.5776346 -0.45364085 -1.8005446 0.5228938 -0.087840684 0.6465457 0.17425545 -0.21870875 -0.9760104 -0.6957016 0.8948532 0.5218475 0.6547
synthesis 1.4619036 0.39052513 -0.29540005 -0.6191172 -0.8286552 -0.6720545 0.722249 -0.5309648 -0.45104823 -1.7844485 0.5107443 -0.100334816 0.83312523 0.22582068 -0.14545009 -0.9878764 -0.81759876 0.8867819 0.63103974 0.7650019
are 1.5339621 0.39423308 -0.30014348 -0.5112602 -0.79850864 -0.75233185 0.78307503 -0.520648 -0.5737197 -1.7704241 0.5487731 -0.13930863 0.862734 0.26123852 -0.15941663 -1.0878654 -0.9342845 0.91572225 0.69217306 0.82392436
between 1.3029052 0.34995493 -0.2181385 -0.38851666 -0.64271677 -0.6310443 0.6460435 -0.4081758 -0.4443494 -1.4254837 0.45675734 -0.1204652 0.75139844 0.23766772 -0.062848546 -0.8683188 -0.7727205 0.69548374 0.59952515 0.7150604
high 1.6049529 0.4010595 -0.29854134 -0.5284763 -0.84010845 -0.7842281 0.81344867 -0.519723 -0.5757967 -1.8556014 0.56958175 -0.13815795 0.9357369 0.28225175 -0.110302396 -1.101886 -1.0162395 0.9352089 0.72297376 0.88789505
regulation 1.2991719 0.46237275 -0.4072391 -0.7143393 -0.9305841 -0.47649837 0.70432884 -0.70994174 -0.525696 -2.0402288 0.6136613 -0.079898424 0.5173047 0.18120633 -0.34764287 -1.1666086 -0.708001 1.1079872 0.44544104 0.58479273
DNA 1.3164545 0.33796245 -0.26250023 -0.4012415 -0.6940924 -0.6396161 0.6735058 -0.43030033 -0.47491565 -1.496102 0.47343192 -0.08837613 0.714183 0.21208389 -0.08618707 -0.8983563 -0.81234473 0.7477828 0.57987785 0.7022114
Inhibition 1.1331947 0.3489914 -0.298361 -0.5737562 -0.75264317 -0.44851482 0.58314854 -0.5579909 -0.39240184 -1.647419 0.47526604 -0.07574727 0.5339051 0.1263266 -0.22966167 -0.8991996 -0.59691155 0.81399786 0.4086235 0.57016087
breast 1.348358 0.3984736 -0.31703988 -0.4757695 -0.8159533 -0.76200616 0.7139 -0.49746248 -0.55339175 -1.7822338 0.5891771 -0.14698024 0.8091848 0.30533955 -0.15645684 -1.0774745 -0.9154007 0.98052335 0.59396034 0.7380227
agents 1.4690623 0.34360838 -0.3412661 -0.5364611 -0.80417854 -0.69863385 0.76098585 -0.5275052 -0.52768445 -1.7765838 0.54945344 -0.12120154 0.7934048 0.2159278 -0.14694098 -1.0761737 -0.8863794 0.8878953 0.6718306 0.7982636
during 1.3949716 0.37938747 -0.31078994 -0.53432816 -0.77367735 -0.65690786 0.719752 -0.52527773 -0.52863824 -1.7727112 0.55792344 -0.10980641 0.7558546 0.23678306 -0.1694557 -1.0556699 -0.86146665 0.9088172 0.5953573 0.7530793
derivatives 1.4523408 0.34204182 -0.265703 -0.5254041 -0.77969694 -0.70711154 0.72165567 -0.49496323 -0.47578955 -1.7138233 0.522154 -0.10341489 0.86178523 0.21835056 -0.086270586 -0.9484611 -0.81953645 0.77945155 0.696075 0.83437884
not 1.4195727 0.35526308 -0.2567937 -0.47149107 -0.6827262 -0.67243785 0.68058246 -0.45625758 -0.5256864 -1.6066474 0.49756137 -0.1152447 0.8134771 0.2645626 -0.06685781 -0.9415937 -0.84879285 0.7622774 0.67875344 0.7954892
production 1.2607013 0.43214414 -0.37859663 -0.6338262 -0.8737438 -0.50607157 0.68246114 -0.6392175 -0.49654776 -1.8804735 0.55974686 -0.0772328 0.56199473 0.17908926 -0.3003614 -1.101161 -0.7242809 1.0134072 0.44553068 0.60832113
mechanism 1.3992963 0.3790186 -0.32190418 -0.52274704 -0.77506816 -0.6475159 0.7180337 -0.515258 -0.4998152 -1.7323785 0.5047004 -0.10473631 0.7528313 0.22178997 -0.1453425 -1.0357867 -0.8426481 0.8701055 0.6175105 0.7470296
induces 1.2235763 0.415983 -0.36843637 -0.4829145 -0.8099123 -0.63089824 0.6983372 -0.57610315 -0.5683941 -1.7103605 0.59602785 -0.09544923 0.5941107 0.27783868 -0.2544004 -1.0989801 -0.8627232 1.0599972 0.45945728 0.59818166
oxidative 1.423419 0.35477072 -0.34949198 -0.55129576 -0.84484076 -0.64554644 0.73091865 -0.5454474 -0.5263166 -1.7792073 0.5705412 -0.09868604 0.76879865 0.21734975 -0.19190453 -1.0328542 -0.8366456 0.9554929 0.6159757 0.73823327
levels 1.3927935 0.38985378 -0.29372874 -0.47031584 -0.7667375 -0.6881618 0.7236344 -0.46874744 -0.5102029 -1.6467834 0.5279123 -0.13922904 0.7915721 0.24840759 -0.11457334 -0.99518573 -0.852478 0.854256 0.62451506 0.7658067
synthase 1.3732485 0.34368837 -0.26895595 -0.5061998 -0.7324531 -0.6440922 0.6625521 -0.48827004 -0.47145435 -1.6449289 0.4936554 -0.118472785 0.7602463 0.22172563 -0.10514007 -0.9361698 -0.8071641 0.8210744 0.6047173 0.7321067
muscle 1.434583 0.3986728 -0.3528231 -0.51076806 -0.7935737 -0.7093997 0.7597166 -0.5436134 -0.5563823 -1.7693892 0.55383664 -0.120179415 0.7827226 0.26491442 -0.15346369 -1.0643089 -0.9104776 0.91664624 0.6260565 0.76968825
their 1.2936395 0.3344527 -0.26602757 -0.45176315 -0.6934618 -0.6430897 0.6418213 -0.4339109 -0.45655945 -1.5374826 0.4955154 -0.10688273 0.7336309 0.20608564 -0.13186614 -0.90440834 -0.7844325 0.7763409 0.5647955 0.7037423
exposure 1.2855952 0.34397015 -0.289675 -0.43352643 -0.72749597 -0.6293037 0.6712971 -0.44299904 -0.4816127 -1.5471765 0.4855715 -0.11083182 0.7013272 0.22062315 -0.14800327 -0.94632876 -0.8065147 0.8140059 0.57278544 0.6956566
use 1.3818556 0.3761402 -0.29997936 -0.52909803 -0.7179235 -0.64237833 0.70236236 -0.52437454 -0.49879202 -1.6929367 0.5057553 -0.09983582 0.7234767 0.19300826 -0.17272413 -1.0230582 -0.81529367 0.8524818 0.5908751 0.7226287
interaction 1.3662481 0.43136072 -0.37970495 -0.63838166 -0.8796474 -0.5425175 0.7213229 -0.6366147 -0.49827215 -1.926426 0.5682797 -0.08311008 0.61705035 0.17693046 -0.26898187 -1.1062728 -0.7521687 0.9998785 0.5072644 0.6734228
proteins 1.2932436 0.3717117 -0.2673022 -0.44846308 -0.70047975 -0.6544017 0.6508784 -0.4640345 -0.44349858 -1.6151339 0.51429534 -0.17024578 0.7670863 0.27708784 -0.06865915 -0.9024497 -0.80534977 0.7834361 0.58631456 0.74114364
antagonists 1.4137578 0.35898432 -0.2806382 -0.49930158 -0.8073328 -0.7130683 0.68759316 -0.46754187 -0.4125261 -1.7099667 0.46358255 -0.16504967 0.87528825 0.21851467 -0.0530466 -0.91182953 -0.8044193 0.71538574 0.67156684 0.815061
endothelial 1.4293238 0.41462988 -0.35072556 -0.51708317 -0.8470607 -0.7474153 0.7585342 -0.5514086 -0.5578024 -1.8603339 0.61009324 -0.120087475 0.78260654 0.278896 -0.19932295 -1.1518482 -0.9588046 1.0084158 0.61767894 0.76704407
insulin 1.5611687 0.42545587 -0.34692946 -0.5409172 -0.85366714 -0.7469768 0.77854383 -0.567548 -0.5731627 -1.8922826 0.6007048 -0.13977459 0.853198 0.28479114 -0.15710759 -1.1317707 -0.9683017 0.981236 0.6625394 0.8288072
channel 1.3605402 0.33740273 -0.2702665 -0.46297008 -0.74244535 -0.67314035 0.6865087 -0.45992717 -0.4823927 -1.6188588 0.48659906 -0.12669367 0.7921128 0.23341824 -0.0762047 -0.949718 -0.83701277 0.76737547 0.6237758 0.76027375
evaluation 1.1458551 0.35199633 -0.33500323 -0.6357824 -0.7837167 -0.4063958 0.6125025 -0.5738004 -0.38994768 -1.687863 0.46880406 -0.06611013 0.52216244 0.1219194 -0.24509436 -0.9169676 -0.5668773 0.85488856 0.41850904 0.5582056
studies 1.3840998 0.3750141 -0.32053944 -0.5100631 -0.7838292 -0.66245234 0.6966848 -0.4900114 -0.48216662 -1.6805061 0.5169071 -0.1220913 0.75894225 0.22579463 -0.13519798 -0.99371207 -0.8141039 0.8331517 0.59656435 0.7399356
therapy 1.3922644 0.34689412 -0.28122827 -0.49642542 -0.7333155 -0.70275366 0.72548974 -0.47578377 -0.49704894 -1.6492635 0.52578455 -0.1130637 0.80277723 0.22871697 -0.111218885 -0.99478894 -0.852313 0.81180567 0.6315274 0.7670608
action 1.323871 0.4930602 -0.44930768 -0.80252826 -1.0214962 -0.4178132 0.7306223 -0.77952117 -0.51069605 -2.174524 0.6268917 -0.060472105 0.48295352 0.12504548 -0.4333565 -1.2492456 -0.65374726 1.163231 0.41018668 0.584313
release 1.5556289 0.41786098 -0.32429495 -0.57813203 -0.8526184 -0.7801537 0.7874705 -0.562269 -0.57312065 -1.9425884 0.5767563 -0.15106376 0.8765551 0.2741921 -0.11699825 -1.1167103 -0.9464457 0.96126026 0.6829742 0.83533883
genes 1.462062 0.41404477 -0.35593668 -0.5394537 -0.8315163 -0.738157 0.7573084 -0.55363554 -0.5401188 -1.8501109 0.5968536 -0.16333428 0.80119455 0.25433698 -0.12904526 -1.0787227 -0.942377 0.94533503 0.6361702 0.77009654
hormone 1.4842682 0.3943405 -0.29947537 -0.50296056 -0.8129875 -0.76736474 0.7400413 -0.5039559 -0.52032644 -1.780687 0.5457622 -0.15010734 0.8670887 0.2856126 -0.0875648 -1.0097581 -0.9098973 0.8602451 0.6668617 0.83139986
target 1.3715111 0.30710703 -0.26962605 -0.51127476 -0.68890375 -0.62372607 0.67155844 -0.4752226 -0.46092907 -1.6158009 0.48875976 -0.10743539 0.7572742 0.20312789 -0.10508546 -0.94805336 -0.79732484 0.7720895 0.6205413 0.7264918
system 1.2871326 0.33408508 -0.27726582 -0.45414948 -0.7068818 -0.6438321 0.6579159 -0.45207205 -0.47501504 -1.5509759 0.4825553 -0.1173442 0.7203143 0.21409093 -0.11913597 -0.95477474 -0.80567306 0.7765639 0.5717283 0.7075292
tumor 1.398621 0.37012345 -0.31159666 -0.48712632 -0.77520424 -0.7096881 0.717169 -0.5100507 -0.5109332 -1.7386459 0.5378741 -0.12146058 0.8099407 0.2519395 -0.13477735 -1.0227321 -0.89525765 0.8792461 0.6249203 0.7661764
In 1.1330003 0.28486353 -0.20620073 -0.3414445 -0.5900436 -0.5301917 0.5471981 -0.3361894 -0.3653008 -1.2758933 0.40050593 -0.08519823 0.6101757 0.20425329 -0.079411656 -0.7652535 -0.67356026 0.649153 0.48403022 0.64253753
beta 1.7765007 0.46044844 -0.34146863 -0.59240335 -0.949532 -0.8934427 0.8884298 -0.57124704 -0.61700094 -2.0499105 0.6426069 -0.1847087 1.0411392 0.3467159 -0.08933305 -1.1890365 -1.076666 0.97981495 0.8101931 0.9872322
Characterization 1.1955829 0.35698062 -0.30760598 -0.57400894 -0.7547895 -0.463916 0.60507077 -0.5331811 -0.4041156 -1.6421794 0.47749895 -0.07438577 0.57201266 0.15428984 -0.21164495 -0.88172257 -0.61782193 0.8189501 0.46397159 0.5860787
changes 1.5156336 0.3919672 -0.32622185 -0.51686394 -0.8516398 -0.7404643 0.7695605 -0.5216787 -0.54968846 -1.8262452 0.5722713 -0.13227949 0.8368636 0.2573373 -0.13460615 -1.0891002 -0.9289604 0.92631537 0.6586244 0.80548775
epithelial 1.3324875 0.38158312 -0.33197325 -0.4723944 -0.80556023 -0.7151297 0.71142083 -0.51629275 -0.51806206 -1.7489411 0.5725455 -0.13042371 0.7311918 0.26508358 -0.18451187 -1.0776701 -0.90561825 0.9575846 0.5727021 0.71549934
analysis 1.3903276 0.37860626 -0.31291962 -0.52192897 -0.76516557 -0.6610749 0.7053341 -0.49556768 -0.48830473 -1.6816359 0.5100548 -0.10758564 0.7613812 0.22307661 -0.14294502 -0.9863977 -0.8297566 0.8531124 0.6085334 0.7405915
after 1.4198723 0.36509353 -0.28799233 -0.4767943 -0.7753243 -0.70649874 0.7111226 -0.4805499 -0.5143235 -1.6996121 0.5123332 -0.127205 0.79001844 0.24533467 -0.11549166 -1.0047688 -0.88606364 0.87180614 0.62664455 0.7689084
agonist 1.3645029 0.33467683 -0.24633852 -0.4689583 -0.7555275 -0.70402575 0.65509874 -0.42944917 -0.38766345 -1.6271447 0.43767315 -0.1642006 0.88184357 0.2278674 -0.026886258 -0.84261537 -0.7822021 0.65930015 0.6640371 0.7945692
channels 1.3309636 0.34485397 -0.27808633 -0.45841852 -0.732927 -0.6548375 0.67931527 -0.46776885 -0.483831 -1.5931532 0.48939106 -0.12872586 0.7603203 0.22901341 -0.10574731 -0.962363 -0.8263962 0.8005011 0.59788257 0.72956806
acute 1.272408 0.34963262 -0.2686051 -0.4317309 -0.69806606 -0.63596344 0.65435594 -0.43754432 -0.46088293 -1.5045811 0.48642012 -0.110160656 0.7086935 0.21432653 -0.10986705 -0.8989422 -0.7777478 0.7381232 0.5671284 0.7035153
serotonin 1.4947459 0.39079964 -0.29254755 -0.5093315 -0.81870896 -0.74917924 0.7247541 -0.49721548 -0.5005648 -1.7931972 0.53807837 -0.15669332 0.882315 0.2738017 -0.08531135 -0.96747184 -0.8952215 0.8554064 0.65891325 0.84008956
modulation 1.3382092 0.44763815 -0.41553167 -0.71191275 -0.9380884 -0.48049545 0.7067425 -0.69447625 -0.5189932 -2.0176008 0.60189277 -0.07587066 0.5491575 0.16644068 -0.3472788 -1.1543247 -0.71319187 1.0762882 0.465717 0.6144316
anti-inflammatory 1.4882114 0.38638896 -0.30745164 -0.5386362 -0.81700045 -0.71362126 0.75334775 -0.50698555 -0.52228343 -1.793207 0.5465015 -0.11971718 0.83349764 0.24245302 -0.12769417 -1.055918 -0.9100021 0.89380187 0.6615833 0.8064913
histamine 1.6239731 0.441614 -0.31838053 -0.60512006 -0.9304896 -0.7779522 0.7904127 -0.5637436 -0.5020559 -1.9721086 0.55568147 -0.1663722 0.9628478 0.2516475 -0.104223795 -1.0532616 -0.9324644 0.90269357 0.7184047 0.909454
toxicity 1.5032916 0.4388943 -0.383979 -0.5534529 -0.88919234 -0.7257148 0.79488945 -0.56949455 -0.5871256 -1.8811536 0.60874563 -0.12406403 0.81013733 0.26701188 -0.20986153 -1.1713163 -0.94250494 1.0022676 0.63196206 0.79173887
clinical 1.5954261 0.4011375 -0.3339964 -0.5969485 -0.8618274 -0.7229649 0.80670816 -0.5652665 -0.53614783 -1.9076158 0.58150893 -0.10434488 0.8513295 0.23322374 -0.16967554 -1.1116412 -0.91976863 0.92753637 0.6931409 0.84101754
lung 1.2520192 0.34562737 -0.29862002 -0.44758147 -0.70397544 -0.6383802 0.6433416 -0.4604704 -0.45330322 -1.5716274 0.50552315 -0.1154938 0.6900199 0.2311477 -0.1266932 -0.9697759 -0.8142466 0.84105605 0.5452101 0.6666996
functional 1.3662853 0.40596047 -0.36676168 -0.5978975 -0.84176034 -0.57353795 0.71088713 -0.585729 -0.4950458 -1.80332 0.5600232 -0.09605185 0.6576391 0.19388148 -0.2326789 -1.0901538 -0.78359705 0.9467307 0.544509 0.6781143
male 1.8007659 0.49603626 -0.40756294 -0.62660307 -0.9966374 -0.88893586 0.920401 -0.6201403 -0.6804276 -2.1710062 0.6911167 -0.14941047 0.98876494 0.34336856 -0.1716464 -1.3371006 -1.1389618 1.1345339 0.7902857 0.9722006
Identification 1.2551867 0.3542699 -0.32275242 -0.6187334 -0.7776803 -0.4743776 0.6473859 -0.56336033 -0.4435963 -1.717307 0.4935182 -0.0712544 0.57716846 0.13194482 -0.23729105 -0.9800181 -0.650066 0.8440931 0.4936215 0.62508583
sodium 1.4223495 0.35635963 -0.29141355 -0.4761676 -0.7550907 -0.7100924 0.72192186 -0.48237008 -0.50828534 -1.6684123 0.51926297 -0.14178562 0.8254502 0.2566704 -0.096300274 -0.9796982 -0.8885906 0.81211936 0.64470243 0.79713476
control 1.6667098 0.44754463 -0.35365486 -0.5576546 -0.9115094 -0.8067915 0.83677244 -0.5786808 -0.5900596 -1.9791613 0.61856973 -0.14160196 0.9292828 0.29419747 -0.14229766 -1.1808635 -1.0189041 0.99284726 0.7373348 0.9025139
activities 1.211474 0.3422744 -0.27351543 -0.48115566 -0.72037727 -0.5401562 0.6362383 -0.47132063 -0.42503494 -1.5288595 0.47350267 -0.096708834 0.6481994 0.18533969 -0.15089029 -0.8768375 -0.6815301 0.7629915 0.5269686 0.6428415
that 1.3906581 0.36006987 -0.27713168 -0.46167958 -0.7232905 -0.6776847 0.6934075 -0.44721127 -0.51387185 -1.6062473 0.5013271 -0.11580221 0.809643 0.23062897 -0.08412469 -0.9796614 -0.84477085 0.77862513 0.6223509 0.76245725
diabetes 1.4876593 0.38275093 -0.298955 -0.46216992 -0.7952047 -0.76384664 0.76856005 -0.49125883 -0.52434945 -1.7300211 0.55710864 -0.15716822 0.81419474 0.2880401 -0.11620164 -1.0676126 -0.9317883 0.8919034 0.6552998 0.80018777
renal 1.8106818 0.50821346 -0.44616604 -0.6733531 -1.0416094 -0.85689616 0.9347752 -0.6796935 -0.670047 -2.2815096 0.6987578 -0.15457578 0.94124144 0.30990282 -0.24345987 -1.3780249 -1.1179432 1.187635 0.7732178 0.93614507
mechanisms 1.3001292 0.35476577 -0.2972938 -0.47662118 -0.71894133 -0.5995829 0.66313374 -0.4746353 -0.46800542 -1.6008142 0.46746466 -0.09628721 0.7014297 0.20977499 -0.1247159 -0.95824355 -0.78076303 0.8076606 0.5730763 0.69270813
secretion 1.2713068 0.4074451 -0.3618427 -0.60043037 -0.8322251 -0.51247966 0.6668909 -0.59399575 -0.478256 -1.7744639 0.54245996 -0.085616134 0.5790395 0.18059416 -0.26233414 -1.0356135 -0.7116594 0.9508431 0.46681708 0.596009
primary 1.292675 0.36098224 -0.3005288 -0.4621638 -0.72710335 -0.6387854 0.67784715 -0.47143674 -0.48409384 -1.6089151 0.52037275 -0.11879045 0.7183003 0.24380721 -0.1336775 -0.9636883 -0.8217795 0.82998896 0.5706098 0.705937
inflammatory 1.4566885 0.38617334 -0.31155267 -0.5335333 -0.8078962 -0.7053207 0.75139594 -0.51014006 -0.5354527 -1.7836308 0.5574678 -0.1272054 0.8105735 0.2556163 -0.14655729 -1.0632942 -0.92163944 0.9065316 0.6317167 0.7742555
thyroid 1.4256762 0.36685866 -0.2968306 -0.48682156 -0.7761001 -0.71675617 0.7238422 -0.48286986 -0.5337238 -1.7391326 0.5531155 -0.12964244 0.81398046 0.26132432 -0.11393973 -1.0403763 -0.90326536 0.8577718 0.63975275 0.7739771
Novel 1.1696864 0.25821516 -0.17790541 -0.39965 -0.5748804 -0.5746257 0.5584793 -0.36117285 -0.35580987 -1.3112057 0.36657593 -0.083192065 0.6929153 0.18031792 -0.024766723 -0.70911926 -0.6550884 0.5654248 0.5792591 0.66832757
resistance 1.5977715 0.4438843 -0.3718727 -0.58637255 -0.9281965 -0.81051046 0.8327173 -0.5725588 -0.5929869 -2.0208032 0.6252344 -0.13810502 0.87982386 0.29621586 -0.18566266 -1.2219374 -1.0169201 1.0562339 0.70585346 0.8599082
calcium 1.3913774 0.3606755 -0.27441627 -0.4655751 -0.73684245 -0.690387 0.7112732 -0.48426256 -0.50445 -1.6443483 0.5177092 -0.1240675 0.79793173 0.25185853 -0.10861922 -0.98255503 -0.8622542 0.81615496 0.6264577 0.75708735
mediated 1.8223189 0.5166155 -0.41191554 -0.6203468 -1.017774 -0.90756917 0.965369 -0.7119502 -0.7311561 -2.3175132 0.7346631 -0.14332052 0.9874198 0.38809752 -0.22775562 -1.4347131 -1.1768292 1.2386065 0.7964326 0.9572586
comparison 1.509897 0.39044812 -0.3226889 -0.5314437 -0.8186017 -0.714483 0.77073634 -0.5240477 -0.51613045 -1.8053252 0.5292661 -0.10361851 0.8233077 0.24370477 -0.1286876 -1.0577452 -0.87165934 0.86937386 0.65903425 0.8251391
- 1.0567455 0.2373417 -0.16540313 -0.32774013 -0.5495095 -0.60682774 0.5648741 -0.3226565 -0.3613818 -1.1970167 0.394963 -0.07567635 0.71719986 0.26467848 0.04449233 -0.64874387 -0.6968974 0.47579014 0.49703366 0.6283091
damage 1.2665688 0.34039125 -0.27211228 -0.41978914 -0.6796152 -0.6341374 0.6548365 -0.4278307 -0.47257718 -1.493949 0.49184167 -0.11713336 0.725507 0.24635844 -0.10179352 -0.9156538 -0.8079963 0.7743266 0.57934433 0.69375485
plasma 1.3413881 0.36002153 -0.28150868 -0.45181936 -0.7288378 -0.6519536 0.7026479 -0.44883642 -0.47941488 -1.6011862 0.5117333 -0.123735175 0.7492525 0.25662634 -0.11942761 -0.9638149 -0.8577221 0.8343071 0.5919595 0.7246814
blood 1.253716 0.32629764 -0.25305864 -0.42090875 -0.6473987 -0.61832786 0.62921596 -0.4043748 -0.43657598 -1.4416183 0.4603279 -0.10656555 0.7090325 0.23445186 -0.09360788 -0.859531 -0.7807352 0.7459306 0.5422337 0.6803236
? 0.82916176 0.21345481 -0.17155007 -0.22126725 -0.41391024 -0.40515003 0.4199531 -0.2722211 -0.2603159 -0.9517864 0.2910692 -0.070899785 0.53239334 0.15289971 -0.05067747 -0.57700384 -0.49845272 0.48094895 0.36492065 0.459239
involved 1.2967238 0.3762543 -0.2988257 -0.4589682 -0.71859354 -0.61544406 0.677197 -0.47592762 -0.50065887 -1.5925219 0.49402374 -0.12023875 0.68431544 0.22948046 -0.16676575 -0.97748923 -0.8166705 0.84753966 0.5530088 0.68458587
attenuates 1.1607769 0.31599355 -0.24537103 -0.374997 -0.6274435 -0.5730033 0.5958832 -0.3863435 -0.42435065 -1.3628602 0.4391015 -0.10167736 0.6562907 0.2166053 -0.10048516 -0.8267721 -0.7269934 0.6996069 0.51572895 0.6302725
biological 1.5279827 0.37915245 -0.2997801 -0.5708509 -0.8157787 -0.70039773 0.76197857 -0.5131212 -0.48802605 -1.7745057 0.52564245 -0.10476027 0.8734844 0.22228019 -0.107648335 -1.0024035 -0.8574554 0.8462794 0.6897022 0.8262988
hepatic 1.6214552 0.47257665 -0.38989556 -0.6069097 -0.948682 -0.7708573 0.8452146 -0.63331485 -0.6035586 -2.0412 0.6408066 -0.109544195 0.84489185 0.28104144 -0.23113537 -1.2431334 -0.9949383 1.1040158 0.67522967 0.8390089
syndrome 1.2470934 0.33239228 -0.24683106 -0.42003977 -0.66290116 -0.6419009 0.6420251 -0.42015156 -0.44771245 -1.4350928 0.45891488 -0.12738153 0.7452882 0.22624013 -0.063726045 -0.8761075 -0.7863941 0.68151194 0.56707865 0.71032
enzymes 1.5086998 0.39462376 -0.30424088 -0.5129355 -0.8190036 -0.7405805 0.77448016 -0.5160214 -0.54621774 -1.78565 0.55268294 -0.14183296 0.84852064 0.26930457 -0.12539099 -1.0745013 -0.9204628 0.88785654 0.6728112 0.83705163
injury 1.1296942 0.32008308 -0.26845118 -0.39461797 -0.6145383 -0.55905676 0.5913059 -0.4109755 -0.44766483 -1.3885083 0.4579537 -0.089970686 0.62721336 0.20602348 -0.12832573 -0.86167186 -0.7370059 0.73786235 0.49983063 0.6199398
mutation 1.2687978 0.42001292 -0.39919478 -0.7266247 -0.89855945 -0.43837225 0.69337916 -0.6809156 -0.48745212 -1.9588634 0.55156785 -0.06762737 0.5069427 0.14161304 -0.35174105 -1.1261703 -0.6504878 1.0327978 0.41790268 0.5606108
oxidase 1.5167444 0.38846326 -0.35392705 -0.56189656 -0.8370929 -0.72086376 0.76505613 -0.5585094 -0.5511971 -1.8819203 0.5734729 -0.12584762 0.82702976 0.2345067 -0.15009722 -1.1005207 -0.90238565 0.961757 0.64621013 0.8176175
enhances 1.3266472 0.3515777 -0.30304825 -0.4548883 -0.77233356 -0.69782555 0.6888213 -0.483524 -0.50889295 -1.6622381 0.5464986 -0.12134706 0.7615943 0.25652927 -0.12402282 -1.008315 -0.8534946 0.8835278 0.6044678 0.7295611
chronic 1.6071354 0.4283122 -0.3459971 -0.5574488 -0.8903313 -0.7723285 0.8197284 -0.54934007 -0.57532674 -1.9063953 0.5919197 -0.13162018 0.8832771 0.26362875 -0.16792445 -1.1305189 -0.96449286 0.9622655 0.706594 0.8587219
isolated 1.6957234 0.46128958 -0.3575531 -0.57571054 -0.93897235 -0.83953625 0.8786743 -0.6169971 -0.6473548 -2.0912478 0.66614 -0.13731283 0.9255179 0.34594166 -0.16124308 -1.2425791 -1.0678121 1.073484 0.73752445 0.89862216
administration 1.2703516 0.3902031 -0.33545786 -0.5819093 -0.8108139 -0.51529205 0.651042 -0.562433 -0.45573145 -1.7427411 0.5137943 -0.08899638 0.6076614 0.17956163 -0.23670034 -0.98872966 -0.70665735 0.89301485 0.4901057 0.63047135
+ 1.0595407 0.26985568 -0.104165584 -0.26735324 -0.5520922 -0.70707047 0.48595026 -0.29623917 -0.34992352 -1.2341633 0.33925226 -0.12179698 0.7409775 0.23309435 0.06231196 -0.62160707 -0.65704924 0.48502183 0.5483749 0.73709893
protects 1.353907 0.4141171 -0.31574655 -0.50195533 -0.7756997 -0.6556898 0.70114446 -0.5235317 -0.48022142 -1.731253 0.5466956 -0.14443244 0.7499925 0.2517641 -0.14910041 -0.9739388 -0.82011443 0.8673824 0.5871646 0.7546702
I 1.0272214 0.3044837 -0.15218654 -0.32847255 -0.4814121 -0.5433886 0.50557876 -0.34559843 -0.36518145 -1.1798301 0.35901186 -0.09465799 0.6619332 0.23516509 -0.012392535 -0.681814 -0.60492754 0.52845675 0.44834456 0.6059022
structure 1.4603878 0.38626394 -0.29753628 -0.5360498 -0.7833817 -0.66351086 0.7228659 -0.50085044 -0.48168576 -1.7252952 0.51752543 -0.124945275 0.7844422 0.21602488 -0.11674327 -0.9826646 -0.8254268 0.863526 0.6317764 0.7754626
reduces 1.2302945 0.3492862 -0.27856162 -0.4255039 -0.70830786 -0.62674886 0.653124 -0.4618149 -0.5089711 -1.5372691 0.49789357 -0.11693944 0.67152333 0.24648114 -0.13402468 -0.9565271 -0.8022353 0.84141874 0.53098893 0.6476192
amino 1.7018367 0.46553674 -0.3134984 -0.55842084 -0.927939 -0.8563082 0.8454185 -0.55498016 -0.5608335 -1.965318 0.59128255 -0.15498851 0.9968962 0.2855999 -0.07679229 -1.1088446 -0.9913852 0.92938626 0.76546097 0.98374295
responses 1.371469 0.38148648 -0.31588554 -0.49694353 -0.7795901 -0.66984916 0.7270736 -0.5028126 -0.5263957 -1.7157336 0.55211776 -0.12671196 0.7231318 0.2506235 -0.17584208 -1.0730829 -0.8501769 0.89845073 0.6000542 0.724373
interactions 1.3215499 0.3879623 -0.3359293 -0.56307125 -0.7988556 -0.5498267 0.6897414 -0.56009454 -0.47122166 -1.7531928 0.52875155 -0.083904766 0.6383182 0.17230801 -0.21224822 -1.0209366 -0.7435466 0.895841 0.5320569 0.6729985
or 1.5052541 0.3607017 -0.24131426 -0.48121056 -0.79426926 -0.7399815 0.7228719 -0.4645984 -0.49350056 -1.7516416 0.4995581 -0.15030344 0.89965576 0.2558006 -0.0660104 -1.017218 -0.8958679 0.8429931 0.69337857 0.84624785
transcription 1.2653682 0.3744382 -0.3317584 -0.5458343 -0.7800052 -0.5594711 0.6632686 -0.53843665 -0.47282743 -1.7216958 0.52008617 -0.09977442 0.6304398 0.20400293 -0.2065731 -0.9991415 -0.75308603 0.90020055 0.4994756 0.6441979
but 1.247879 0.31190822 -0.22067273 -0.40218133 -0.62906355 -0.6287752 0.59610033 -0.38099328 -0.41052648 -1.3771106 0.42431617 -0.10107667 0.7203625 0.21827547 -0.04977277 -0.8416304 -0.7573989 0.6511901 0.55740607 0.6877219
development 1.3300058 0.3488902 -0.3002459 -0.5123471 -0.73339283 -0.6134378 0.68416554 -0.485542 -0.4727949 -1.6069767 0.49759963 -0.104131244 0.7051099 0.19307426 -0.1334119 -0.9360024 -0.77645135 0.8055634 0.57736534 0.7143888
C 0.9540425 0.26457214 -0.17267253 -0.34278214 -0.44770923 -0.48448977 0.4557739 -0.30749494 -0.3348116 -1.0859789 0.36269188 -0.12633951 0.5799607 0.16608533 -0.06212882 -0.6727821 -0.5701435 0.54487073 0.43303964 0.48159286
allosteric 1.5949827 0.4141129 -0.33517742 -0.5602025 -0.8677351 -0.7652843 0.8006419 -0.5487449 -0.55975217 -1.9070603 0.5861436 -0.14156803 0.896368 0.26054966 -0.13545229 -1.1062857 -0.9498408 0.9347283 0.716382 0.8561195
complex 1.4011527 0.34444427 -0.27887684 -0.46746215 -0.7191897 -0.6921824 0.72522545 -0.46536955 -0.48886338 -1.636745 0.4967865 -0.12176654 0.80371666 0.23462656 -0.083129585 -0.97289705 -0.85160047 0.7807823 0.63775355 0.79028386
inhibitory 1.4376404 0.31881675 -0.23545729 -0.5134505 -0.72893846 -0.69746906 0.6688622 -0.48352918 -0.43711078 -1.7243836 0.4871897 -0.13077003 0.8774752 0.1990673 -0.047294326 -0.8996667 -0.8219341 0.7371908 0.6587053 0.8502799
profile 1.3103467 0.3721781 -0.31015337 -0.48325896 -0.7368329 -0.6442973 0.6838863 -0.49722156 -0.49073642 -1.6417063 0.5114194 -0.10897557 0.7340812 0.2395337 -0.12544644 -0.9524449 -0.7991651 0.81885123 0.557879 0.734095
Pharmacological 1.3515433 0.3424181 -0.2677669 -0.50106525 -0.727462 -0.6354674 0.6852014 -0.4631778 -0.44214836 -1.5736675 0.4692266 -0.09417051 0.7731152 0.1986086 -0.10559802 -0.89979845 -0.77044 0.73987067 0.6077655 0.7450806
monoamine 1.5798604 0.44368893 -0.3254977 -0.5791997 -0.88974375 -0.7621617 0.7722618 -0.55869746 -0.51326287 -1.9265356 0.56279033 -0.15614071 0.9229052 0.25148928 -0.11673258 -1.0410777 -0.92387635 0.90278274 0.68986297 0.87991476
oxide 1.8611695 0.4786091 -0.39940295 -0.6609948 -1.0230868 -0.8991254 0.9416474 -0.66574746 -0.67790306 -2.2443812 0.7000286 -0.15331382 1.062085 0.3159229 -0.16240893 -1.3596011 -1.1612339 1.1483753 0.831693 1.015353
pharmacology 1.3195219 0.3438905 -0.2650334 -0.47156587 -0.716491 -0.6437995 0.6823521 -0.44641855 -0.45000437 -1.5408584 0.47010693 -0.10239013 0.76789165 0.20868464 -0.100798994 -0.9037731 -0.77901626 0.7330609 0.6021191 0.73640627
Comparison 1.2238948 0.32070112 -0.26713088 -0.440071 -0.66849935 -0.5750734 0.6176755 -0.43072006 -0.4225108 -1.4759823 0.42999157 -0.08459564 0.6623524 0.20004022 -0.112949274 -0.8634305 -0.70464945 0.70892555 0.52736896 0.6681545
recombinant 1.2275175 0.32538065 -0.2532561 -0.43066323 -0.67118007 -0.6094659 0.625342 -0.4275155 -0.42475823 -1.4781178 0.44750604 -0.09737343 0.7112804 0.20708932 -0.08324492 -0.8511043 -0.7477884 0.71476555 0.551401 0.67920965
Molecular 1.3232416 0.32738164 -0.26020563 -0.47097844 -0.69090664 -0.59091157 0.64712715 -0.45690733 -0.44865578 -1.5697939 0.45500785 -0.09997893 0.7296482 0.20334634 -0.105883434 -0.8917635 -0.7543161 0.76879764 0.5787665 0.71933
domain 1.5191587 0.40549782 -0.29406738 -0.4985592 -0.80590445 -0.75788265 0.7590944 -0.51242584 -0.5309874 -1.7870997 0.55094755 -0.13748626 0.8684267 0.28385785 -0.08918026 -1.0581596 -0.94155705 0.8916027 0.6735708 0.8364869
agonists 1.3142835 0.3268869 -0.2581723 -0.4677042 -0.7365024 -0.6566425 0.6445078 -0.43431726 -0.39758986 -1.583907 0.4319789 -0.14907616 0.81100017 0.2084166 -0.04968285 -0.85328674 -0.7552626 0.6697487 0.6279517 0.7536259
norepinephrine 1.3701487 0.3770486 -0.29998955 -0.48650077 -0.7679777 -0.6861376 0.6980059 -0.4925056 -0.4701693 -1.6657411 0.5069678 -0.14052336 0.8116017 0.24167596 -0.100042045 -0.95808184 -0.84006864 0.80531514 0.60762584 0.75704104
Human 1.0878993 0.30813244 -0.25866324 -0.38980028 -0.6415445 -0.57385606 0.5741561 -0.38287744 -0.43355 -1.4085263 0.45278752 -0.12158607 0.6462339 0.21628357 -0.095315 -0.8263006 -0.7161189 0.7229928 0.4889724 0.59729284
antioxidant 1.5086204 0.39728397 -0.3443719 -0.57118225 -0.8678798 -0.67839694 0.7533086 -0.56090856 -0.52108914 -1.858487 0.5584758 -0.11427664 0.80850464 0.21325047 -0.16553487 -1.0711297 -0.88118947 0.9253012 0.6412447 0.8136098
inhibit 1.1360377 0.2488602 -0.18256012 -0.4122109 -0.5724773 -0.5468806 0.5158357 -0.40905812 -0.34439355 -1.3919381 0.38164768 -0.096621834 0.68491 0.14288755 -0.0495355 -0.71905375 -0.6445656 0.58821636 0.50866157 0.6692602
analogues 1.3047651 0.34036595 -0.27519616 -0.46105856 -0.6999784 -0.62945265 0.6452918 -0.44603214 -0.44595954 -1.5429187 0.45909846 -0.10734412 0.7398819 0.20874214 -0.091518305 -0.88633496 -0.7706412 0.7490355 0.5924568 0.7139411
neurons 1.4313713 0.37952104 -0.32916668 -0.4958155 -0.8013764 -0.6990725 0.76015455 -0.5104696 -0.5429117 -1.7442403 0.56023026 -0.119729735 0.7980826 0.24634193 -0.14727455 -1.0807992 -0.91575456 0.92191595 0.63131523 0.75592315
acetylcholinesterase 1.4619331 0.38236192 -0.30752647 -0.5266185 -0.78396255 -0.7131949 0.7409377 -0.5083551 -0.50305593 -1.758939 0.53130054 -0.12223188 0.8165083 0.23592913 -0.1132847 -1.0069181 -0.8607437 0.86379313 0.6428048 0.8006215
bone 1.8332131 0.49558437 -0.38729194 -0.6406819 -1.0196892 -0.92101043 0.90805376 -0.6326721 -0.64173543 -2.223183 0.6739312 -0.16422532 1.0603687 0.32154092 -0.12547971 -1.2716159 -1.1206748 1.0800699 0.7892695 1.0248771
formation 1.4480989 0.46445206 -0.4222909 -0.7421189 -0.9823968 -0.5536285 0.7745988 -0.7028088 -0.5376256 -2.084221 0.61856294 -0.076763056 0.6369976 0.17885521 -0.31410307 -1.196041 -0.77906394 1.0911038 0.52786463 0.680582
Evaluation 1.0901561 0.35002533 -0.32090363 -0.6031724 -0.75518006 -0.3760916 0.58264846 -0.55020136 -0.38001665 -1.6135883 0.45446783 -0.05418524 0.48378193 0.118300535 -0.26011333 -0.88833266 -0.54432106 0.8344845 0.38638073 0.5176736
nitric 1.7610515 0.47476688 -0.38446245 -0.5917714 -0.9797808 -0.8573101 0.8775105 -0.6148959 -0.6412632 -2.0934434 0.6541845 -0.13627541 0.9683405 0.29930744 -0.18694802 -1.2540236 -1.0632942 1.0616378 0.7742654 0.92865795
suppression 1.2807661 0.4160186 -0.367759 -0.59747076 -0.8426469 -0.5733552 0.69596595 -0.6006801 -0.54229754 -1.8561887 0.5707157 -0.1089407 0.6027365 0.22735341 -0.27920458 -1.1288294 -0.81426394 1.0365627 0.47160256 0.614131
serum 1.3171418 0.3352873 -0.25429338 -0.43076527 -0.70144403 -0.64386195 0.65261394 -0.41814107 -0.46846762 -1.5280482 0.47218138 -0.12307591 0.78236836 0.24877962 -0.07864959 -0.9004754 -0.8177111 0.749381 0.59227633 0.7365189
humans 1.1149081 0.34445703 -0.30169767 -0.43520892 -0.72752935 -0.5905153 0.6064976 -0.4445699 -0.45780334 -1.5308709 0.49990162 -0.13410954 0.6200027 0.22988975 -0.17755607 -0.91724145 -0.7494292 0.84427786 0.48086548 0.5797358
-- 0.9723588 0.24718234 -0.1756766 -0.32632187 -0.48367888 -0.46594724 0.47518575 -0.2941003 -0.3608921 -1.0972737 0.32450783 -0.0690465 0.6128615 0.1871526 -0.06369627 -0.649758 -0.62173545 0.5261251 0.46404153 0.5341338
enzyme 1.4189386 0.36334917 -0.2743531 -0.45786294 -0.7410928 -0.68906707 0.7218607 -0.46747136 -0.5020614 -1.6359733 0.5127862 -0.12992245 0.8164607 0.25811994 -0.10044632 -0.97826326 -0.86761373 0.8036063 0.6442033 0.797752
into 1.1116303 0.3165189 -0.25899732 -0.38742706 -0.6215634 -0.5348509 0.57117707 -0.40794763 -0.43281496 -1.381165 0.44199258 -0.10586987 0.5948074 0.17778394 -0.11933107 -0.83797556 -0.7114918 0.7345905 0.4636775 0.60761523
induction 1.1778975 0.44351155 -0.41484433 -0.6416892 -0.8915616 -0.45384768 0.6703622 -0.673188 -0.5073304 -1.8837861 0.5770023 -0.060744192 0.46746066 0.1727686 -0.36780646 -1.1400248 -0.694957 1.0942106 0.36748204 0.5256894
death 1.288063 0.34690204 -0.2670826 -0.44733083 -0.71777904 -0.6440252 0.6638498 -0.46559733 -0.49341303 -1.5527484 0.48359504 -0.11145345 0.7131889 0.23893324 -0.13404028 -0.9741836 -0.82016224 0.8134996 0.5735613 0.68450195
pathways 1.2159495 0.32565773 -0.27579343 -0.4388729 -0.6873103 -0.6107094 0.67084837 -0.46497026 -0.49230447 -1.5544364 0.49649212 -0.12578548 0.66483265 0.22414228 -0.15270117 -0.99930334 -0.8110187 0.8454947 0.5283728 0.63926244
two 1.0803059 0.28192565 -0.21665187 -0.33594337 -0.54845434 -0.5313429 0.53714615 -0.35455626 -0.38445267 -1.2264292 0.37927157 -0.099527836 0.63617533 0.19570854 -0.05795149 -0.73546094 -0.6840888 0.59160554 0.49140707 0.5976148
3 1.052176 0.2766703 -0.15576954 -0.29908797 -0.5414289 -0.5376889 0.5284581 -0.34395412 -0.35901833 -1.1095736 0.36893377 -0.12923059 0.6181318 0.16750306 -0.020904105 -0.64126575 -0.6329406 0.5431359 0.4656777 0.61365926
compounds 1.3327919 0.33996367 -0.2656094 -0.45531002 -0.6914139 -0.6368348 0.6671851 -0.44385824 -0.46038508 -1.5387002 0.46512163 -0.10189658 0.75191844 0.22202313 -0.08852541 -0.8979861 -0.7794715 0.73652893 0.5998593 0.7361672
prostate 1.7511836 0.51498455 -0.39636466 -0.64447355 -1.025632 -0.897103 0.9128203 -0.6511276 -0.6647496 -2.2543154 0.71472996 -0.18451193 0.99549484 0.33558515 -0.1902748 -1.3226458 -1.105028 1.176374 0.7548276 0.9470802
Differential 1.2798756 0.33719644 -0.30232 -0.49138504 -0.716284 -0.59901637 0.6722394 -0.47365668 -0.46113324 -1.5925446 0.49132347 -0.09349601 0.6708464 0.20581773 -0.16058195 -0.94894385 -0.7729422 0.8199963 0.53867745 0.67717546
modulates 1.429148 0.39586216 -0.30865163 -0.5061036 -0.79997253 -0.682509 0.7188829 -0.5161442 -0.5338177 -1.7641503 0.5634088 -0.12977502 0.7767265 0.25960147 -0.14562936 -1.0478475 -0.8905371 0.9063372 0.619017 0.7549585
therapeutic 1.4764524 0.37600926 -0.30549696 -0.53610796 -0.78620785 -0.7072708 0.75104433 -0.5121359 -0.5176334 -1.7573843 0.5460787 -0.11114805 0.81871593 0.23170029 -0.1253883 -1.0654761 -0.89246935 0.8792667 0.66129535 0.8097777
suppresses 1.3410968 0.395959 -0.31976703 -0.5096023 -0.78025043 -0.6592417 0.70177513 -0.51943034 -0.5295407 -1.7420083 0.55491614 -0.12417563 0.70528126 0.25446028 -0.18132101 -1.0623101 -0.8606164 0.9317077 0.5599942 0.69706804
healthy 1.0969243 0.2906846 -0.21685424 -0.3455221 -0.5676899 -0.5552816 0.5486538 -0.34082818 -0.41223642 -1.2667868 0.3942619 -0.10894623 0.6354973 0.1996213 -0.07031069 -0.7663583 -0.6875238 0.63498545 0.5125007 0.6030699
cortex 1.3187069 0.34502515 -0.2740802 -0.43564364 -0.7279293 -0.6378645 0.6668177 -0.45178437 -0.47947678 -1.5606394 0.49668416 -0.11885072 0.73329526 0.23501502 -0.12071791 -0.95010567 -0.805434 0.77960473 0.5747794 0.71266526
implications 1.2927095 0.3544723 -0.32656032 -0.5801727 -0.77656084 -0.5183402 0.67989135 -0.5380499 -0.45219833 -1.7025609 0.50442284 -0.07936812 0.6199928 0.14888376 -0.23097374 -1.0115573 -0.71006346 0.861939 0.53511596 0.6404056
increase 1.3212354 0.3640787 -0.29405233 -0.47675285 -0.709761 -0.6557382 0.66516066 -0.48932156 -0.4973969 -1.6283432 0.50337267 -0.12670192 0.6975511 0.2322174 -0.11817929 -0.9627048 -0.8153166 0.85152847 0.5744385 0.6971394
mRNA 1.1893624 0.30268264 -0.23627552 -0.386807 -0.5932159 -0.58972937 0.5927624 -0.37870634 -0.42830294 -1.3472694 0.43329814 -0.11869459 0.68011457 0.21545228 -0.06427791 -0.8133602 -0.74089146 0.6762602 0.54770017 0.6516819
vascular 1.4526864 0.37035444 -0.29500237 -0.49992502 -0.78742343 -0.6837836 0.7283531 -0.5148237 -0.52774125 -1.7376996 0.52800435 -0.11862048 0.7919053 0.24989128 -0.13401367 -1.0328751 -0.8702021 0.87100816 0.6269193 0.7848928
active 1.5838989 0.40572014 -0.34016898 -0.651726 -0.90591383 -0.6762019 0.79628754 -0.6116345 -0.5320758 -2.0157366 0.60744435 -0.11705813 0.86352366 0.22024837 -0.19465703 -1.0937605 -0.8547686 0.97473234 0.7049791 0.8519826
risk 1.1195143 0.2924456 -0.23390569 -0.37315366 -0.5909434 -0.5367075 0.5648449 -0.3839818 -0.39943865 -1.2985845 0.39554635 -0.08723023 0.62689555 0.2118776 -0.08314558 -0.77565217 -0.6695795 0.65383416 0.4890969 0.60415477
cardiac 1.3578103 0.35511968 -0.292126 -0.4647752 -0.7432476 -0.6629711 0.6996236 -0.47859937 -0.49901 -1.6212997 0.5241495 -0.12360348 0.75582457 0.25830075 -0.14383939 -1.011316 -0.85745263 0.8403602 0.5878498 0.7181473
cytochrome 1.416847 0.37945157 -0.30586544 -0.47982118 -0.7633368 -0.70251346 0.71935534 -0.49812606 -0.5158072 -1.6824902 0.5342645 -0.123326994 0.81115174 0.253683 -0.12376679 -1.002548 -0.87344354 0.8451326 0.6251221 0.7832955
weight 1.195941 0.31073472 -0.21685779 -0.3733273 -0.5938995 -0.60052 0.6052544 -0.38354212 -0.4145128 -1.3505921 0.43560123 -0.10564711 0.7137194 0.21101533 -0.050269615 -0.8050831 -0.7369313 0.66966987 0.5652889 0.6770678
peptide 1.657464 0.41659194 -0.29472175 -0.55745333 -0.8649633 -0.832055 0.81701165 -0.5154955 -0.55504555 -1.901251 0.58086586 -0.16380505 0.97305894 0.2810973 -0.06763052 -1.0868434 -1.000911 0.8960353 0.7751584 0.9462143
cycle 1.6411284 0.44904187 -0.35687354 -0.5952018 -0.9058286 -0.79396904 0.85872287 -0.5904871 -0.59659344 -1.9971218 0.6336719 -0.12779948 0.905484 0.30016595 -0.16041502 -1.1820346 -1.012671 1.0033861 0.73410344 0.8804926
differentiation 1.3315073 0.40912858 -0.3709577 -0.627219 -0.85399866 -0.5518578 0.7179118 -0.60213125 -0.5076151 -1.8544456 0.5610531 -0.08825687 0.620592 0.18660522 -0.27582097 -1.0877601 -0.75400865 0.9727892 0.50694025 0.6514372
4 0.9718344 0.23298058 -0.17147729 -0.2904259 -0.475744 -0.4969203 0.49083543 -0.29305285 -0.31669015 -1.0923038 0.35595128 -0.11667479 0.57298356 0.18417007 0.00047256448 -0.6605961 -0.61847854 0.528646 0.46256223 0.5397557
transport 1.3113911 0.3598158 -0.29195124 -0.47003356 -0.74566615 -0.6577534 0.6634641 -0.47242367 -0.47947788 -1.6502393 0.5116715 -0.12928014 0.7218121 0.24131265 -0.13178205 -0.96346843 -0.84351057 0.8573662 0.5705555 0.71782726
specific 1.6006495 0.42128113 -0.3120882 -0.5687956 -0.84265834 -0.74087375 0.8045821 -0.55183595 -0.5566162 -1.8909783 0.5836465 -0.1319319 0.88284415 0.26770094 -0.1412112 -1.127224 -0.95796275 0.9363536 0.6987855 0.8662417
diabetic 1.7649802 0.4615506 -0.3742401 -0.5947011 -0.9646367 -0.86409277 0.89904 -0.61210054 -0.61271673 -2.0847 0.66042167 -0.15876265 0.9464394 0.30539873 -0.17419992 -1.2723207 -1.0684186 1.0634315 0.76858926 0.94180363
agent 1.7046198 0.40136772 -0.3853628 -0.6641371 -0.9300178 -0.7870732 0.8647679 -0.6360404 -0.60378337 -2.0917256 0.642987 -0.13685213 0.9148913 0.23343468 -0.17367154 -1.2331337 -1.0110252 1.0298716 0.7791719 0.9345526
Discovery 1.1569859 0.29312438 -0.22272308 -0.39884117 -0.59463036 -0.5612808 0.58234155 -0.37569717 -0.3839325 -1.3425853 0.40840584 -0.077546395 0.65834934 0.18695775 -0.06920911 -0.7800317 -0.6790309 0.6221563 0.5296879 0.64788926
murine 1.5987139 0.45546782 -0.35625958 -0.6206689 -0.92915416 -0.7754836 0.8243221 -0.5922455 -0.5546317 -2.024191 0.6107082 -0.16711353 0.9307942 0.26503882 -0.1385634 -1.1273472 -0.9780904 0.9808065 0.69256496 0.864429
5-HT 1.465757 0.38877708 -0.23212904 -0.44727832 -0.7820843 -0.80276054 0.7241373 -0.43000606 -0.48366347 -1.6717125 0.52599096 -0.18897007 0.9178726 0.31119454 -0.0068056737 -0.932859 -0.9158277 0.7562713 0.71031785 0.85515916
surface 1.1852652 0.31210494 -0.23307016 -0.39488468 -0.6229201 -0.5916717 0.6117139 -0.4044859 -0.43579325 -1.409421 0.4334087 -0.11012186 0.68654966 0.21516725 -0.081671 -0.85181916 -0.7643217 0.6787575 0.5397218 0.6583521
D 0.92986447 0.22287183 -0.10824633 -0.25916153 -0.45203286 -0.50620353 0.45848587 -0.2511546 -0.32586843 -1.0497062 0.344225 -0.1120846 0.58311445 0.18987122 0.033933472 -0.6129924 -0.5756293 0.47376525 0.43083626 0.52243847
synthetase 1.3446143 0.34792888 -0.27583957 -0.52110416 -0.72921795 -0.6300088 0.66507673 -0.48815688 -0.4544835 -1.6426969 0.48411265 -0.099272266 0.7497903 0.21175843 -0.10116372 -0.9151657 -0.78190374 0.807548 0.5852931 0.7198192
sites 1.6625079 0.45404628 -0.3498764 -0.57745445 -0.9108552 -0.81939095 0.86165375 -0.58124006 -0.60285896 -2.0009866 0.6327459 -0.13877329 0.93938375 0.2949453 -0.1740466 -1.2102857 -1.0345132 1.0282677 0.72757536 0.895764
Selective 1.3754287 0.3245287 -0.255348 -0.53795063 -0.72937524 -0.60801464 0.663553 -0.48025727 -0.428947 -1.6516638 0.47181746 -0.10330771 0.78133345 0.17313844 -0.114424065 -0.8766888 -0.7354404 0.7598938 0.6339681 0.75142807
regulatory 1.3731176 0.39093992 -0.28655684 -0.5140339 -0.7738352 -0.6655552 0.69496244 -0.5128216 -0.518218 -1.7653118 0.5506549 -0.13407235 0.7583699 0.26126942 -0.11573557 -1.0074152 -0.8592423 0.88891935 0.60399145 0.7435858
heart 1.4020336 0.35950848 -0.2807912 -0.44239774 -0.7252167 -0.69543725 0.69609517 -0.45342246 -0.50871885 -1.5890427 0.5066579 -0.123838276 0.79454476 0.25020143 -0.11140576 -0.97822195 -0.8596999 0.8152101 0.62359434 0.75608474
reductase 1.3093097 0.3357478 -0.26043406 -0.45098478 -0.6912631 -0.6416709 0.6607344 -0.4617031 -0.4882564 -1.5797589 0.48399916 -0.12205551 0.7334961 0.2267769 -0.09135198 -0.9462984 -0.79908425 0.80374795 0.58047026 0.70896745
improves 1.3424867 0.34820503 -0.2681964 -0.4447779 -0.70145935 -0.6672088 0.6756462 -0.43992248 -0.46163622 -1.550521 0.47969764 -0.118213855 0.75562745 0.23832177 -0.07860927 -0.9288617 -0.8280131 0.7602735 0.60889393 0.733357
regulates 1.3730747 0.41142783 -0.29642648 -0.50203407 -0.781571 -0.6694527 0.71020776 -0.52784127 -0.5359828 -1.7743124 0.5692268 -0.13745698 0.73983014 0.27780634 -0.14477827 -1.0520082 -0.87311965 0.93347 0.5956017 0.7187625
cholesterol 1.6324433 0.41380203 -0.32430527 -0.5562598 -0.8569313 -0.7842008 0.8132873 -0.5422682 -0.55832535 -1.901655 0.584719 -0.13562669 0.91770065 0.26331696 -0.117403835 -1.0926675 -0.96356523 0.9376964 0.73962647 0.89445996
dehydrogenase 1.6114333 0.41764334 -0.31332922 -0.5509371 -0.8522453 -0.8063059 0.8027456 -0.5458458 -0.56522566 -1.9141964 0.5893497 -0.14678726 0.92625654 0.2857396 -0.087540254 -1.0959952 -0.9568758 0.9239183 0.7233652 0.89523333
Role 1.4118928 0.37587234 -0.30303916 -0.5130693 -0.74644476 -0.66458935 0.7224348 -0.4860586 -0.4817022 -1.6840789 0.5163044 -0.11964143 0.7927567 0.22509746 -0.11855252 -0.9917868 -0.8468006 0.81867677 0.6286902 0.78689665
lipid 1.3472275 0.35186097 -0.27819702 -0.4370741 -0.70050865 -0.670214 0.67969394 -0.44608107 -0.4922842 -1.5812879 0.4878449 -0.119432814 0.7557194 0.23269276 -0.12489019 -0.9446484 -0.83582073 0.786789 0.6011566 0.71493065
fatty 1.1741349 0.31360897 -0.23797284 -0.37147972 -0.6315246 -0.57513136 0.6064101 -0.38516247 -0.42507073 -1.3519486 0.4276842 -0.10291521 0.65140605 0.21717794 -0.079370596 -0.81375015 -0.7259915 0.69814646 0.5365995 0.63960445
carcinoma 1.502037 0.42306426 -0.35432872 -0.518998 -0.87998456 -0.80499315 0.8035814 -0.54743266 -0.57596177 -1.8923767 0.6047604 -0.14159982 0.8484865 0.2968009 -0.18410625 -1.1793334 -0.9875145 0.99762136 0.65553075 0.8196214
anticancer 1.5785327 0.41776162 -0.38560164 -0.5940657 -0.95722514 -0.8330261 0.81461555 -0.5788756 -0.5640191 -2.0533774 0.6179964 -0.13581033 0.8965883 0.2658169 -0.17973721 -1.227705 -1.0013711 1.0712786 0.7096783 0.8784151
T 0.87150544 0.2171421 -0.13833708 -0.30997157 -0.44682896 -0.4828384 0.44275525 -0.28685075 -0.32054898 -1.0626905 0.29503763 -0.088929296 0.5436369 0.18902162 -0.055927567 -0.62353253 -0.6062921 0.524711 0.41537687 0.5176583
Receptor 1.2822053 0.29955468 -0.15941638 -0.4106107 -0.6879134 -0.6674371 0.59542364 -0.3791277 -0.40140498 -1.5170859 0.41717955 -0.19994213 0.81994635 0.2609323 0.028385617 -0.7573387 -0.75051355 0.6239483 0.61148745 0.7506948
dysfunction 1.0232508 0.32440034 -0.303152 -0.5046874 -0.68604064 -0.40714005 0.55537707 -0.4842398 -0.3990414 -1.4640253 0.4460656 -0.071648404 0.46177775 0.14793842 -0.2308089 -0.88298446 -0.56976014 0.786981 0.3749856 0.487706
phosphorylation 1.3616958 0.4028059 -0.35154322 -0.6128564 -0.85136735 -0.57290834 0.71052885 -0.5915015 -0.4911976 -1.8586675 0.5565037 -0.08738359 0.6578585 0.18610926 -0.22901891 -1.0669168 -0.750457 0.9438403 0.5304662 0.68714195
proliferation 1.3197165 0.43421003 -0.39287156 -0.6430557 -0.8990663 -0.551962 0.710644 -0.62752134 -0.50393283 -1.9176055 0.5805125 -0.099745445 0.61367047 0.19912304 -0.28819674 -1.0981427 -0.74628294 1.0293928 0.48449785 0.632094
glucose 1.5089616 0.40046576 -0.32098916 -0.50257176 -0.8152412 -0.72474444 0.7616053 -0.5218425 -0.56336516 -1.7879367 0.5644949 -0.13759251 0.829673 0.26148444 -0.12552483 -1.0839959 -0.92745864 0.92777747 0.6716417 0.8129536
neuronal 1.6032742 0.4361733 -0.3765089 -0.5720026 -0.9084493 -0.7817627 0.83482635 -0.5806506 -0.5987896 -1.9750224 0.6288963 -0.13032538 0.868033 0.27504417 -0.19071855 -1.2082368 -1.023285 1.0465404 0.69276476 0.8484441
increases 1.2685724 0.35318983 -0.28163454 -0.4452001 -0.68676096 -0.64036316 0.6471901 -0.4646916 -0.4807145 -1.5573621 0.49130177 -0.12810254 0.684015 0.23902285 -0.11161532 -0.9355954 -0.7950073 0.8148307 0.55329627 0.67608535
Design 0.9374023 0.22794658 -0.17107905 -0.33430758 -0.48654813 -0.4384302 0.4682138 -0.29816383 -0.29682612 -1.0847392 0.31797275 -0.071348965 0.5475476 0.15151282 -0.04657172 -0.6061753 -0.51943916 0.5281858 0.4242496 0.49928233
site 1.644442 0.42951176 -0.3197892 -0.55770236 -0.8497698 -0.7888798 0.8361376 -0.55634063 -0.57452255 -1.9290485 0.60087484 -0.11291886 0.9312563 0.27173394 -0.12502511 -1.1488754 -1.0039718 0.94410014 0.7368587 0.8763781
Binding 1.3114429 0.37675583 -0.28592312 -0.49168938 -0.7292525 -0.5938558 0.67283845 -0.501713 -0.4627386 -1.6439848 0.5127334 -0.09841029 0.73132706 0.2273638 -0.1319752 -0.93780434 -0.7549388 0.7702764 0.5976864 0.7109174
subjects 1.237036 0.34519088 -0.27803877 -0.44085807 -0.6879365 -0.5954492 0.63992393 -0.4441132 -0.45918164 -1.484402 0.46592638 -0.10077109 0.67612356 0.19654532 -0.1361045 -0.8756099 -0.7615867 0.72969043 0.54201895 0.66666454
tissue 1.0725394 0.2812339 -0.21732275 -0.36076137 -0.5788568 -0.53613156 0.5464205 -0.36925426 -0.39874244 -1.2863901 0.41279593 -0.095361486 0.6015356 0.1924327 -0.08534087 -0.7675 -0.6469283 0.63523644 0.4724871 0.5868747
An 0.8724859 0.21996918 -0.17774926 -0.2868528 -0.46129772 -0.45632815 0.44150066 -0.2877434 -0.3045957 -1.006018 0.32178798 -0.082326844 0.5190582 0.17246659 -0.04642496 -0.60825306 -0.53042334 0.50111836 0.41464373 0.4746136
D2 0.9504702 0.21799412 -0.16159955 -0.28018603 -0.44469756 -0.4777048 0.4721479 -0.28928298 -0.32825893 -1.0618169 0.34804195 -0.1053703 0.56811726 0.19952671 -0.019222649 -0.6200646 -0.5877241 0.49168587 0.46854332 0.5447565
Protective 1.3029375 0.3258092 -0.25145048 -0.47607192 -0.6982682 -0.5922185 0.64856726 -0.46630874 -0.42883238 -1.5743744 0.47031 -0.09947641 0.7366501 0.19151916 -0.12070743 -0.85300845 -0.72094107 0.74702656 0.5868266 0.7191195
P450 0.97825605 0.2505546 -0.18044984 -0.29824477 -0.49609813 -0.4639076 0.48717782 -0.30497655 -0.3534579 -1.1002363 0.32698324 -0.09824988 0.5537045 0.18050705 -0.065860085 -0.6518564 -0.5947775 0.55072385 0.4210798 0.5318155
Alzheimer 1.1142251 0.26583976 -0.22734529 -0.36147732 -0.5604889 -0.57107645 0.5619161 -0.35671774 -0.39312905 -1.2581472 0.39894837 -0.07775949 0.6463494 0.18262069 -0.06558477 -0.76604486 -0.6819727 0.62556547 0.50893795 0.62187845
identification 1.4230887 0.39494044 -0.35436174 -0.67409843 -0.8626974 -0.5568168 0.7298627 -0.6167413 -0.49609905 -1.909381 0.5498462 -0.080707006 0.67081064 0.15695065 -0.24606475 -1.0872601 -0.75135666 0.9311678 0.57396686 0.72449636
polymorphisms 1.2651227 0.3252069 -0.23256744 -0.39987755 -0.65411913 -0.6303336 0.6197715 -0.39659384 -0.44212466 -1.440501 0.44668257 -0.11971138 0.74654675 0.24426655 -0.05106824 -0.8310365 -0.77136993 0.69657826 0.5771338 0.7140368
inflammation 1.3650678 0.42276138 -0.3838693 -0.66917026 -0.89868456 -0.546601 0.7327315 -0.6391986 -0.51914173 -1.9288813 0.58258855 -0.0841875 0.622304 0.1881753 -0.29918572 -1.1290843 -0.7782073 1.0282727 0.50054246 0.6394685
targets 1.300025 0.30239683 -0.2708544 -0.48555216 -0.6869373 -0.59618425 0.64935 -0.4681779 -0.44368434 -1.5515344 0.47326064 -0.10267856 0.71001583 0.19574156 -0.11748883 -0.9122433 -0.7635543 0.7606638 0.5812278 0.68454236
polymorphism 1.3287896 0.3395655 -0.24621277 -0.42542693 -0.6885186 -0.66148293 0.6541355 -0.41637442 -0.4625116 -1.520111 0.46679908 -0.12746574 0.7848988 0.255415 -0.053863436 -0.87201715 -0.80963445 0.727812 0.6045632 0.75017726
E 0.8738872 0.17373154 -0.17275436 -0.2724076 -0.44002333 -0.47971672 0.41790506 -0.26493487 -0.31222138 -0.94874394 0.33154863 -0.08290089 0.508384 0.13112551 0.027479954 -0.57876885 -0.5157675 0.42048383 0.4626457 0.53481317
prostaglandin 1.3023958 0.36373216 -0.27817157 -0.45298636 -0.733569 -0.6563179 0.65541047 -0.4632057 -0.4668037 -1.6107532 0.5016643 -0.13542171 0.75202084 0.25626147 -0.105407916 -0.9354123 -0.8106937 0.80292356 0.5801751 0.7154644
treated 1.8498273 0.515247 -0.40049884 -0.631353 -1.0514443 -0.9559532 0.97376245 -0.68179804 -0.72543293 -2.3174539 0.7384529 -0.17819998 1.0140309 0.36734387 -0.19899312 -1.4292921 -1.1963753 1.1954745 0.8163429 0.9896192
Type 1.1883206 0.27241036 -0.22307186 -0.3572257 -0.5996769 -0.6046328 0.6143778 -0.35036924 -0.41471907 -1.3153392 0.4227698 -0.12425153 0.65493906 0.22051622 -0.02683416 -0.8109432 -0.72331434 0.6584792 0.51075447 0.6312025
mutations 1.2293258 0.35870796 -0.33310065 -0.5987748 -0.7808444 -0.46914494 0.6576516 -0.5568178 -0.45651543 -1.7077569 0.49565622 -0.077332295 0.55845135 0.144137 -0.2532915 -1.009801 -0.66408426 0.88284993 0.47232652 0.5835334
affinity 1.4028348 0.35930446 -0.28649473 -0.47750518 -0.75194776 -0.6806133 0.71527565 -0.48246664 -0.49924615 -1.6491468 0.50848454 -0.11153548 0.80562854 0.23756124 -0.10871488 -0.98242694 -0.8564018 0.7993782 0.64183354 0.7663444
design 1.2249151 0.29939723 -0.23107111 -0.43548086 -0.62262297 -0.57665193 0.60096025 -0.3910982 -0.40531707 -1.4094694 0.43011475 -0.08264223 0.70342207 0.20202878 -0.07515465 -0.8089964 -0.71161616 0.6827904 0.5616197 0.6703082
genetic 1.5241721 0.40191993 -0.3427146 -0.5614389 -0.83683735 -0.7146132 0.7713733 -0.5558351 -0.53459203 -1.8604254 0.5853172 -0.13240965 0.8051957 0.25848827 -0.14792658 -1.1008089 -0.92026716 0.9493519 0.664512 0.8120975
based 1.9864982 0.50490874 -0.39028966 -0.6461395 -1.0480219 -0.99842656 1.0010532 -0.6534582 -0.7217829 -2.338807 0.728952 -0.18830302 1.1363883 0.37580663 -0.10828689 -1.3793043 -1.2123665 1.1288712 0.910479 1.1199781
extract 1.3337667 0.3642591 -0.27298254 -0.45902386 -0.71743757 -0.63829523 0.6680519 -0.45634142 -0.478162 -1.6002681 0.49118957 -0.112583645 0.73676795 0.2363513 -0.10643834 -0.90720326 -0.80511343 0.7874402 0.5829936 0.7327253
low 1.3272799 0.34340626 -0.24518497 -0.4521956 -0.66058886 -0.66266006 0.6831843 -0.41629654 -0.48341158 -1.5479462 0.48632973 -0.0927963 0.78081864 0.25261143 -0.06996434 -0.9298441 -0.8315729 0.7533553 0.61904967 0.7334732
transporters 1.3935128 0.38473985 -0.3078794 -0.50441897 -0.79562616 -0.68156284 0.7042346 -0.5043375 -0.50214493 -1.7441505 0.53463703 -0.12958363 0.7686975 0.24613471 -0.13457802 -1.0178874 -0.8825444 0.8966076 0.60863453 0.76919377
different 1.468944 0.3995991 -0.34819248 -0.54574 -0.82150775 -0.69606173 0.77308285 -0.53380007 -0.5476654 -1.8061994 0.5717123 -0.119369484 0.7862601 0.24296926 -0.16999848 -1.0757033 -0.89469564 0.91585326 0.6262841 0.778804
cyclooxygenase-2 1.2188361 0.30944362 -0.2365398 -0.4277742 -0.634422 -0.5870606 0.60150695 -0.41971052 -0.42521018 -1.4503676 0.43396094 -0.10165526 0.6808363 0.2117398 -0.07709225 -0.82033545 -0.71259606 0.7078947 0.54916847 0.6735039
review 1.008884 0.2561028 -0.18889523 -0.35475457 -0.5267224 -0.49403602 0.5189531 -0.35086972 -0.34888172 -1.1897457 0.36524868 -0.083531916 0.5694204 0.17312777 -0.054061763 -0.70969534 -0.6139155 0.5691403 0.46974653 0.56537133
extracellular 1.3245288 0.36060578 -0.2856103 -0.44116437 -0.72870886 -0.66896164 0.68815887 -0.46829164 -0.49786597 -1.6183066 0.5118046 -0.12714978 0.7473473 0.24960157 -0.111363746 -0.9741599 -0.8377425 0.84207046 0.5885528 0.72786313
accumulation 1.1269141 0.37151465 -0.339823 -0.571191 -0.768494 -0.4364287 0.604708 -0.5551185 -0.4430026 -1.6626811 0.50202185 -0.065287225 0.48418853 0.14827208 -0.26777476 -0.96080744 -0.62292916 0.88574034 0.40950555 0.5248601
mitochondrial 1.2871196 0.3425026 -0.2785686 -0.4279239 -0.7183282 -0.65457094 0.6551898 -0.45462745 -0.47001716 -1.5542039 0.48862842 -0.10832309 0.72522235 0.23210754 -0.11000572 -0.9253571 -0.80648935 0.7880135 0.5718124 0.7045006
membrane 1.3676944 0.3694648 -0.2869739 -0.4868713 -0.7405925 -0.67520785 0.6875699 -0.4753736 -0.48651716 -1.6389991 0.49795413 -0.12653953 0.77947843 0.23723501 -0.108338065 -0.9640284 -0.8433898 0.80824465 0.61069995 0.7515613
peripheral 1.43064 0.38003278 -0.31136304 -0.50889176 -0.7862418 -0.6978655 0.72666323 -0.49643254 -0.50887585 -1.7144717 0.5273323 -0.13064864 0.79165983 0.24015339 -0.12939994 -1.0124466 -0.88290256 0.87324965 0.635637 0.7750514
experimental 1.5013126 0.39845031 -0.33270097 -0.5323301 -0.82782215 -0.73317534 0.76630723 -0.54271305 -0.5415239 -1.8130587 0.5583512 -0.115377426 0.827804 0.24763218 -0.15742366 -1.0929911 -0.91943157 0.9317316 0.65643644 0.8028915
anhydrase 1.344671 0.34666172 -0.26348242 -0.4694025 -0.68512547 -0.6431266 0.6697481 -0.44786128 -0.46640822 -1.5836585 0.46622583 -0.114125624 0.766489 0.22026387 -0.071515135 -0.9001365 -0.7803522 0.7570298 0.60175157 0.7541839
antagonism 1.3745166 0.35591176 -0.27132514 -0.4903936 -0.78751904 -0.68770033 0.6674935 -0.46201766 -0.40792027 -1.6649816 0.4571599 -0.15656161 0.844325 0.21568203 -0.060147423 -0.8923214 -0.7833592 0.71566623 0.6420449 0.78332883
sensitivity 1.5060492 0.3982115 -0.3438722 -0.5542484 -0.85422564 -0.71375597 0.7788247 -0.5394323 -0.54316217 -1.8415322 0.5755391 -0.13609712 0.83761245 0.2427077 -0.15716614 -1.1017282 -0.91180754 0.9370894 0.6738828 0.80489933
pancreatic 1.388371 0.39154962 -0.32611987 -0.5115096 -0.8048424 -0.68614125 0.7164633 -0.52177423 -0.5191036 -1.7441163 0.54922175 -0.120507784 0.7469423 0.2378196 -0.17693935 -1.0568446 -0.8559946 0.92553806 0.598567 0.7282245
mediates 1.4671335 0.4144949 -0.32725295 -0.5142732 -0.82592195 -0.7217645 0.77341866 -0.5605476 -0.57175297 -1.8402749 0.583145 -0.12071415 0.7970138 0.29414022 -0.18577491 -1.134548 -0.93126476 0.9883643 0.630658 0.7622601
metabolites 1.425937 0.39511862 -0.33136123 -0.51222813 -0.8153912 -0.68170804 0.7405009 -0.5137396 -0.51386625 -1.752945 0.5434977 -0.123681165 0.7870048 0.24319905 -0.16652934 -1.0446714 -0.8687582 0.91404265 0.61108917 0.7613184
other 1.5250587 0.40004152 -0.3118415 -0.51349956 -0.84630066 -0.7693707 0.78391254 -0.5196312 -0.5452798 -1.8083515 0.57675725 -0.1317076 0.87281615 0.27950484 -0.120618224 -1.0901437 -0.95158046 0.91928995 0.69265705 0.8397144
essential 1.432223 0.36490154 -0.33447585 -0.55234396 -0.804003 -0.6465364 0.7488045 -0.5410781 -0.5216123 -1.7912351 0.55696297 -0.10882321 0.73298866 0.22244723 -0.18971924 -1.0721407 -0.86019754 0.91582346 0.61599916 0.7522003
glutathione 1.3374264 0.35921663 -0.28196138 -0.47923246 -0.7516399 -0.65151304 0.6822295 -0.48222014 -0.4740776 -1.6204516 0.5035881 -0.1258802 0.7594849 0.22372358 -0.116097465 -0.9429423 -0.8063741 0.7887988 0.5841913 0.72499233
required 1.3149047 0.34089243 -0.27229425 -0.44946638 -0.6931725 -0.6421418 0.67907476 -0.46554393 -0.49436337 -1.5548724 0.49481693 -0.11316353 0.7213589 0.23196428 -0.13169838 -0.96056896 -0.82583505 0.7832486 0.60047394 0.7044286
chemical 1.7991124 0.46196353 -0.3899138 -0.6611516 -0.95809454 -0.8359344 0.9099692 -0.6304016 -0.6274835 -2.1268668 0.64801675 -0.1341731 0.98146796 0.27761033 -0.17396991 -1.2377867 -1.068313 1.0638016 0.7986857 0.95765984
acids 1.2136097 0.31230062 -0.21741003 -0.37846336 -0.6313562 -0.5974708 0.619751 -0.39981344 -0.44551438 -1.4061649 0.4511496 -0.09727466 0.68682885 0.22024658 -0.09674887 -0.8398579 -0.74264324 0.70309 0.5594166 0.6747427
block 1.3385482 0.339606 -0.2668258 -0.4252435 -0.67554724 -0.6586138 0.66905004 -0.43109185 -0.48709056 -1.5200512 0.4682223 -0.11561007 0.7717238 0.25573856 -0.07915099 -0.9099936 -0.8227643 0.7592415 0.6070078 0.72844446
Structural 1.2252077 0.31872028 -0.24818127 -0.44759616 -0.6486287 -0.5553918 0.61197263 -0.421733 -0.4082089 -1.441602 0.42370945 -0.10355175 0.65629995 0.17837441 -0.09874831 -0.82692665 -0.6891056 0.7113339 0.53465694 0.65832824
structural 1.4274448 0.3707059 -0.29922137 -0.5291742 -0.76744586 -0.6453449 0.71273476 -0.4940146 -0.46948814 -1.6924672 0.5041745 -0.11694953 0.762577 0.20656845 -0.12329749 -0.9755966 -0.81112474 0.8480947 0.615364 0.7628554
relationship 1.1001617 0.3247636 -0.28356174 -0.49604824 -0.6911107 -0.44992277 0.55818415 -0.4785359 -0.39526683 -1.4974381 0.44601107 -0.071487434 0.51952606 0.15008682 -0.18370418 -0.8565844 -0.5976173 0.765623 0.44014668 0.53785974
assessment 1.336879 0.35019776 -0.30157816 -0.4997977 -0.7240113 -0.6182457 0.6830917 -0.48248416 -0.4923117 -1.6131423 0.5024679 -0.106901675 0.7018485 0.20145145 -0.14905395 -0.9654903 -0.79296106 0.80341536 0.56213003 0.71466273
Activation 1.107311 0.3786346 -0.35018727 -0.62836784 -0.803788 -0.38583586 0.6088192 -0.6088233 -0.429263 -1.7327876 0.5032698 -0.060373116 0.45764363 0.1366659 -0.30399796 -0.99235785 -0.556594 0.90087986 0.39297372 0.51534367
gastric 1.6055315 0.43575332 -0.35953227 -0.5494805 -0.90053266 -0.80889 0.81650096 -0.55974954 -0.5946239 -1.9460039 0.61386955 -0.14247307 0.89763343 0.29107922 -0.15266424 -1.1652895 -0.9948501 0.9951772 0.71586806 0.86694014
Cells 0.9878126 0.2914435 -0.2826396 -0.35540855 -0.62723887 -0.5632279 0.58197594 -0.3956533 -0.43019295 -1.3263075 0.45665503 -0.122366615 0.5661008 0.20387226 -0.15196869 -0.8896612 -0.7189022 0.77745193 0.43391648 0.5199453
Protein 1.2056642 0.32066885 -0.2154655 -0.36938128 -0.6172535 -0.60362166 0.5886279 -0.40748858 -0.40591964 -1.4140459 0.4465099 -0.14332052 0.7311219 0.24769239 -0.029987017 -0.7884611 -0.736359 0.66600096 0.5592697 0.7022961
phase 1.8753732 0.46668324 -0.38127515 -0.65095097 -0.9869086 -0.9124001 0.9304464 -0.6455906 -0.6600492 -2.237545 0.6831338 -0.16904092 1.0488416 0.32060078 -0.10880412 -1.2928588 -1.107582 1.0971569 0.82415634 1.0191597
cardiovascular 1.3092593 0.34016034 -0.27474946 -0.45272133 -0.7106265 -0.6297158 0.66570807 -0.46261367 -0.48134536 -1.5684422 0.4857063 -0.11353149 0.727473 0.23716697 -0.13094339 -0.9436604 -0.7998941 0.79941803 0.56530714 0.70252836
activator 1.1616904 0.316924 -0.22337772 -0.44992206 -0.65273404 -0.53220487 0.5877506 -0.44529632 -0.41236237 -1.5011392 0.45201796 -0.11225647 0.6580876 0.20814274 -0.104558624 -0.8205481 -0.67099446 0.69725573 0.5410856 0.6532955
platelet 1.3436519 0.36906064 -0.2797504 -0.47247237 -0.7198463 -0.6620332 0.6905547 -0.45699558 -0.48867536 -1.6158842 0.5011329 -0.11731101 0.7596584 0.24992666 -0.11587324 -0.9417774 -0.8397226 0.82561785 0.5995285 0.7190567
angiotensin 1.2880366 0.32151774 -0.25472158 -0.41953665 -0.6666504 -0.64116645 0.63571566 -0.41644022 -0.4442814 -1.4932733 0.4563926 -0.116726 0.7477161 0.22253293 -0.07031561 -0.88303524 -0.7767563 0.7314723 0.5798335 0.71727
profiles 1.2915689 0.36632097 -0.29843953 -0.46248385 -0.73136467 -0.63456833 0.67535824 -0.4863954 -0.4840702 -1.6031789 0.5014416 -0.11896967 0.7190873 0.23692168 -0.1275559 -0.9457622 -0.7902784 0.8069962 0.5517127 0.7096362
selectivity 1.3825446 0.35322037 -0.28164303 -0.53117794 -0.76548666 -0.6285952 0.68861884 -0.49261108 -0.45157903 -1.678728 0.49197045 -0.11816443 0.78024495 0.18831739 -0.11929504 -0.92990404 -0.77351224 0.78988695 0.6349855 0.7484893
efficacy 1.0979402 0.28357565 -0.22866012 -0.39381978 -0.58363885 -0.5154315 0.54929477 -0.36707768 -0.36696064 -1.2927989 0.38629374 -0.07540311 0.61465 0.16967452 -0.096666 -0.7303265 -0.641784 0.6242632 0.49402782 0.6017869
modeling 1.5952388 0.4329307 -0.3585951 -0.6080552 -0.88746023 -0.7281516 0.81006235 -0.60128427 -0.56646365 -2.005419 0.6143115 -0.12286536 0.8515487 0.26439175 -0.17613131 -1.1793221 -0.9518415 1.0231967 0.6771668 0.8509956
pharmacokinetics 1.2513822 0.3370293 -0.2624277 -0.45722833 -0.68699515 -0.58627075 0.64187175 -0.44023487 -0.42580196 -1.4799497 0.4480595 -0.098140985 0.70788693 0.19376144 -0.111931615 -0.87134826 -0.73352027 0.727199 0.5485924 0.68320644
leukotriene 1.1973352 0.31039098 -0.23972839 -0.40488222 -0.64335907 -0.6050755 0.6010943 -0.4016066 -0.41264147 -1.4046842 0.43037263 -0.11985756 0.69744647 0.22863671 -0.071656734 -0.8118496 -0.7339949 0.6753221 0.53234357 0.6584123
COX-2 0.9508523 0.25161204 -0.1758538 -0.2793556 -0.5048712 -0.50726324 0.45096412 -0.30911097 -0.34511307 -1.1009877 0.34492838 -0.07580217 0.56021315 0.1726604 -0.04221268 -0.62778866 -0.5932105 0.5258204 0.42556766 0.54602176
kidney 0.8319157 0.19720374 -0.16453579 -0.26680064 -0.43355823 -0.39936015 0.4314526 -0.27677226 -0.31046817 -0.93359995 0.30701268 -0.07613126 0.47595617 0.15181608 -0.054938506 -0.5701687 -0.50357497 0.47915453 0.36131033 0.44998696
assay 1.1077031 0.26667973 -0.21905598 -0.37356284 -0.56927645 -0.53900677 0.560046 -0.36402643 -0.38593346 -1.2843965 0.3875289 -0.088927634 0.63442206 0.17464541 -0.072255306 -0.78460515 -0.68069214 0.6297098 0.5092296 0.6120505
failure 1.0701851 0.28211698 -0.23103534 -0.36918595 -0.5805839 -0.5222629 0.5490578 -0.37163085 -0.39584807 -1.2717539 0.3909721 -0.09072763 0.59478015 0.17964701 -0.10133696 -0.7517444 -0.6429791 0.6378742 0.47850102 0.5763893
combination 1.3307194 0.4256875 -0.36812466 -0.6383731 -0.87818265 -0.5429979 0.71754587 -0.62006557 -0.48279908 -1.8780686 0.5566514 -0.07344445 0.6279473 0.1739299 -0.2602592 -1.0732594 -0.72853124 0.9450716 0.50593084 0.65438324
G 0.8369717 0.19757867 -0.17731425 -0.26005718 -0.39998093 -0.4206042 0.4431871 -0.29606283 -0.27844143 -1.0005686 0.27583176 -0.08311359 0.50667065 0.19667354 -0.04149205 -0.5950915 -0.4901278 0.45000827 0.44182408 0.471872
ligands 1.3095449 0.3276069 -0.23092583 -0.42243373 -0.6772819 -0.6705509 0.64267427 -0.4219219 -0.4485003 -1.4978616 0.4576358 -0.10975347 0.7829818 0.24617827 -0.06255934 -0.87102187 -0.7993605 0.7121577 0.6030696 0.7412552
Expression 1.09268 0.36084953 -0.33503148 -0.5417836 -0.75774544 -0.47904608 0.595661 -0.5469214 -0.4789104 -1.649852 0.49698204 -0.10691562 0.49359697 0.19081828 -0.26616308 -0.9932383 -0.7013818 0.9331662 0.37493038 0.5113077
Cell 1.0334929 0.2840641 -0.25728095 -0.35824907 -0.6016619 -0.5728132 0.5846891 -0.3857486 -0.42980564 -1.3024148 0.44444343 -0.110821314 0.5965248 0.20924436 -0.0986809 -0.86111563 -0.7307305 0.72748166 0.474257 0.55882984
cultured 1.4535478 0.3943394 -0.3267855 -0.48743045 -0.81060153 -0.7287155 0.7620482 -0.51764685 -0.5569452 -1.7796754 0.5676634 -0.1401754 0.80672073 0.2631176 -0.14078797 -1.0818205 -0.9333155 0.9235055 0.64381135 0.8002545
glutamate 1.5474621 0.4078397 -0.3038154 -0.5160173 -0.8336426 -0.75325006 0.77345824 -0.52635914 -0.5525753 -1.8234328 0.5723146 -0.1363199 0.8780299 0.27238375 -0.115332976 -1.0815263 -0.9476065 0.90952945 0.69128007 0.8518595
uptake 1.1795454 0.2955666 -0.21315475 -0.3493955 -0.589729 -0.5823781 0.571163 -0.37823322 -0.42023015 -1.3312585 0.4146743 -0.08675735 0.6890784 0.2022409 -0.048269592 -0.7716635 -0.71417296 0.6456651 0.5508778 0.65616274
Cancer 1.2185796 0.33832118 -0.32815835 -0.4423675 -0.77998716 -0.7126318 0.6717353 -0.45834598 -0.4856351 -1.6560519 0.5272084 -0.13250346 0.709071 0.2453673 -0.16969056 -1.0419699 -0.8500285 0.9292708 0.54587567 0.6900202
skeletal 1.2492889 0.3424048 -0.2907953 -0.4573404 -0.70933187 -0.60470086 0.6441789 -0.44810206 -0.46435294 -1.5335956 0.4841139 -0.10900716 0.684251 0.22778219 -0.13343468 -0.93808556 -0.7851638 0.79714125 0.5434162 0.6671536
targeting 1.6695993 0.4191629 -0.34812522 -0.63012236 -0.876953 -0.7503144 0.8276603 -0.61080736 -0.57790697 -2.020171 0.6189307 -0.1272424 0.8941171 0.25288826 -0.17191951 -1.1926432 -0.9839472 0.99986565 0.7375355 0.8792107
oral 1.8337288 0.47604302 -0.41750774 -0.6644812 -1.0159993 -0.8570303 0.91975117 -0.6350796 -0.6471947 -2.2096963 0.6674573 -0.14575636 0.988846 0.28118646 -0.19664764 -1.3116224 -1.0833409 1.1365995 0.79219794 0.9710056
oxytocin 1.3223444 0.3640314 -0.29221466 -0.4405948 -0.72894335 -0.6556285 0.6577079 -0.48106027 -0.468624 -1.6029097 0.494488 -0.12083511 0.74500996 0.23584461 -0.13466933 -0.9415526 -0.81257164 0.81549555 0.5685607 0.732745
dual 1.5062981 0.37078622 -0.33120888 -0.5413988 -0.82386374 -0.7408553 0.7765005 -0.533557 -0.541568 -1.8350276 0.55372405 -0.10569671 0.84577984 0.23661236 -0.13196817 -1.0913345 -0.91474247 0.91243017 0.6706309 0.8456002
highly 1.3098713 0.31883526 -0.23582125 -0.42906642 -0.6551305 -0.6349905 0.6459361 -0.40558833 -0.45759144 -1.4704899 0.43962836 -0.10865182 0.76223874 0.2245506 -0.070571244 -0.85778517 -0.7967784 0.7158122 0.606928 0.7359907
cognitive 1.3981532 0.34721252 -0.29944405 -0.51612806 -0.75991976 -0.6440333 0.7038406 -0.4859508 -0.48979276 -1.6722409 0.50554067 -0.10333406 0.77117217 0.21383457 -0.13281819 -0.96037626 -0.8045161 0.8261093 0.62207496 0.75314116
adult 1.2318295 0.33101666 -0.253444 -0.40056938 -0.66735876 -0.62733465 0.613019 -0.40368387 -0.4591585 -1.4663492 0.45157018 -0.120883726 0.6780032 0.2197752 -0.10536081 -0.88872427 -0.7731355 0.7243379 0.54809445 0.6616471
3H 0.8515318 0.2574517 -0.15721075 -0.22932535 -0.46242362 -0.52043927 0.45172524 -0.23891447 -0.29619002 -0.9171337 0.32067525 -0.09510268 0.6048956 0.21210635 0.03927276 -0.55831087 -0.55018073 0.32456243 0.43931198 0.5501169
does 1.4146008 0.36148444 -0.29229847 -0.46714595 -0.759782 -0.70262104 0.70823866 -0.47419652 -0.51820433 -1.6362717 0.51597005 -0.11966908 0.8085028 0.23452295 -0.09363914 -0.99953943 -0.8523973 0.8201985 0.6411288 0.7558976
opioid 1.2691479 0.33381417 -0.26391578 -0.4066379 -0.6776398 -0.64594114 0.6471391 -0.4081729 -0.44842464 -1.486078 0.46904057 -0.117693365 0.7456501 0.23635533 -0.08122228 -0.8754202 -0.7930619 0.705064 0.5846853 0.71027404
metabolic 1.6664919 0.44848496 -0.38236243 -0.59928346 -0.94790345 -0.7779967 0.8534413 -0.6043702 -0.58609277 -2.031247 0.6284408 -0.13670357 0.90864134 0.28070015 -0.19162159 -1.2045776 -0.9901312 1.0497472 0.7155039 0.8889418
prevents 1.3686796 0.36941227 -0.32084012 -0.4958298 -0.77112776 -0.6498433 0.728759 -0.50636315 -0.50281787 -1.6651869 0.5126437 -0.11819309 0.7203504 0.23613885 -0.14649354 -1.0175945 -0.825407 0.85043633 0.5931594 0.7371892
without 0.99188656 0.257236 -0.18653409 -0.2981421 -0.488309 -0.49434683 0.48758462 -0.29037926 -0.35470402 -1.0989664 0.3474728 -0.09592499 0.5579328 0.18754208 -0.052045893 -0.6741734 -0.6221546 0.53879744 0.45599812 0.55370253
vitamin 1.4827378 0.3933261 -0.3176594 -0.51022714 -0.84113836 -0.728472 0.7371519 -0.5040209 -0.5157961 -1.7757034 0.5397386 -0.14368437 0.856464 0.25871956 -0.11936598 -1.017165 -0.90405864 0.872434 0.65444994 0.83006436
smooth 1.0412066 0.26415458 -0.21797359 -0.3410687 -0.55014116 -0.5177919 0.526554 -0.34277675 -0.37352988 -1.2251781 0.3912058 -0.1007246 0.5870302 0.1962034 -0.07665398 -0.75807434 -0.66532207 0.6290573 0.4753423 0.5536428
pharmacological 1.5218325 0.38896966 -0.30728197 -0.56198984 -0.8208504 -0.71880096 0.777361 -0.520706 -0.50140053 -1.7793583 0.53395724 -0.10971544 0.87235963 0.22687198 -0.117637 -1.0253917 -0.8789333 0.84613293 0.6861261 0.8376569
pulmonary 1.1011761 0.28963295 -0.2330723 -0.37220156 -0.61823976 -0.5692266 0.57613707 -0.38317874 -0.40727395 -1.323345 0.4212147 -0.11105376 0.6526808 0.20439726 -0.10063902 -0.8116015 -0.70865774 0.67110246 0.49458665 0.6051915
approach 1.0737419 0.27024034 -0.22461723 -0.3691048 -0.5510402 -0.52214503 0.5550592 -0.3672874 -0.3893699 -1.254698 0.3923149 -0.094133645 0.59751654 0.18536663 -0.07697926 -0.76888657 -0.65901446 0.6321261 0.48402715 0.58823746
hypertension 1.3958795 0.40401956 -0.34831586 -0.5448403 -0.82210064 -0.6420196 0.73197657 -0.547743 -0.53542197 -1.7946175 0.55197614 -0.11556652 0.7133041 0.2238143 -0.21014307 -1.0934994 -0.8526637 0.94855887 0.5652054 0.723304
tyrosine 1.4963812 0.40501228 -0.30165648 -0.5343333 -0.82283866 -0.74951786 0.7565459 -0.5162141 -0.5080268 -1.7969613 0.5474221 -0.15402353 0.8866376 0.2671929 -0.08373925 -1.0252599 -0.90402716 0.85658216 0.67541236 0.83324814
lymphocytes 1.2974215 0.36498633 -0.30378473 -0.45320335 -0.7514146 -0.6542878 0.6685415 -0.46865815 -0.4946276 -1.6096878 0.514976 -0.123132266 0.7086595 0.23222305 -0.15436496 -0.97164035 -0.82367814 0.85375196 0.5496577 0.68549305
stem 1.3984836 0.378938 -0.2993129 -0.49973592 -0.78751683 -0.69364095 0.7222905 -0.49142548 -0.5316703 -1.7307187 0.5494966 -0.12639904 0.76389027 0.24038848 -0.14413272 -1.0483756 -0.8827212 0.88250536 0.60178936 0.7388785
disorder 1.3409582 0.34561047 -0.28798777 -0.44334227 -0.71612394 -0.6899056 0.6885778 -0.45488015 -0.4932259 -1.5782747 0.50325894 -0.12395071 0.7640327 0.23532516 -0.10948995 -0.98369545 -0.8380954 0.79832727 0.62017244 0.7448443
case 2.0179877 0.50579196 -0.42631787 -0.73659915 -1.0845547 -0.998175 1.023936 -0.7069504 -0.730064 -2.488543 0.7395362 -0.17789635 1.102312 0.34595606 -0.16436604 -1.4428611 -1.2141758 1.2250484 0.8949351 1.0972819
cyclooxygenase 1.3904101 0.356688 -0.27148026 -0.49816146 -0.73134106 -0.66831285 0.68612134 -0.48270375 -0.48723283 -1.6728363 0.4977506 -0.1175401 0.7698054 0.24094789 -0.08756139 -0.9415931 -0.8028441 0.81552804 0.61920494 0.7646733
be 1.3939058 0.37672937 -0.27319232 -0.42810503 -0.6974196 -0.70629054 0.7139133 -0.42282078 -0.50469923 -1.5577004 0.5069398 -0.15882947 0.8299522 0.2655009 -0.037913363 -0.8999775 -0.8461403 0.7230753 0.6773337 0.7774544
cerebral 1.2938932 0.3624335 -0.30538204 -0.464459 -0.72933376 -0.629177 0.6705898 -0.46365637 -0.4867414 -1.5858309 0.51142365 -0.11047942 0.7090563 0.22406252 -0.15052417 -0.97144383 -0.79964185 0.84286857 0.5459829 0.686143
matrix 1.1482494 0.31224787 -0.21970148 -0.36382416 -0.60631084 -0.5788755 0.6002856 -0.3901248 -0.43661624 -1.3518395 0.4340147 -0.095017925 0.66081095 0.21792328 -0.08291991 -0.80670327 -0.72855306 0.67753375 0.5203344 0.6312074
dependent 1.8753449 0.5043647 -0.42263913 -0.67945033 -1.0292407 -0.90188783 0.9845504 -0.6840091 -0.69231737 -2.300155 0.7257186 -0.14257835 1.0281844 0.33079502 -0.19137962 -1.3775747 -1.147815 1.1598356 0.8368184 1.0406481
children 1.1796722 0.31074393 -0.2363401 -0.38163087 -0.6091961 -0.6071391 0.60330725 -0.38108486 -0.42504597 -1.3630201 0.42819563 -0.10892178 0.6950593 0.21473087 -0.07356254 -0.816508 -0.73885614 0.65463644 0.5490224 0.6547239
lines 2.3602798 0.6593284 -0.5204488 -0.8512315 -1.3529294 -1.1967872 1.2324761 -0.85346633 -0.8661304 -2.9195511 0.8982659 -0.20948665 1.3386115 0.41525984 -0.21596107 -1.727748 -1.4631902 1.4564728 1.0235127 1.2751617
Comparative 1.3651975 0.34632084 -0.29383028 -0.51305985 -0.75577754 -0.627408 0.6947842 -0.48743728 -0.47234163 -1.6600702 0.49308214 -0.10135653 0.7458847 0.21032098 -0.14015582 -0.94472533 -0.7921009 0.8201745 0.6078757 0.7349652
species 1.4219679 0.38564354 -0.2853541 -0.51150477 -0.7780211 -0.68642855 0.7186754 -0.49052677 -0.49362743 -1.7032487 0.53375685 -0.11825228 0.7967852 0.24686635 -0.115109846 -1.0109402 -0.86704767 0.847272 0.6226272 0.7761925
Influence 1.0713747 0.27071586 -0.22307362 -0.3822731 -0.59445053 -0.51114756 0.54488623 -0.380399 -0.3888303 -1.2842418 0.3953001 -0.09102038 0.58455455 0.17680836 -0.09830433 -0.76227254 -0.6496925 0.6294686 0.47235936 0.585405
RNA 1.2859957 0.3299279 -0.24124642 -0.41141477 -0.6402183 -0.63306487 0.62587386 -0.4115276 -0.46545768 -1.4613878 0.46325845 -0.12282573 0.72527784 0.24178062 -0.0965485 -0.8500549 -0.7995071 0.7469346 0.58990145 0.7052849
ligand 1.3213682 0.3324359 -0.2264087 -0.4080851 -0.68423605 -0.67426354 0.6527395 -0.4063405 -0.45090985 -1.5066694 0.4632735 -0.11763659 0.7881376 0.2523937 -0.05829146 -0.8738861 -0.8204182 0.7136855 0.61759275 0.75863826
ethanol 1.3608783 0.35795093 -0.26485887 -0.44107467 -0.73608315 -0.67885077 0.68958026 -0.4524559 -0.48954394 -1.5784006 0.50249314 -0.11781535 0.8002523 0.24780877 -0.08012845 -0.95004946 -0.8392983 0.7691068 0.62399924 0.7635994
airway 0.9977452 0.27151555 -0.20454893 -0.3239121 -0.5304768 -0.4950095 0.50438166 -0.33337694 -0.37366593 -1.1912344 0.37363833 -0.0729751 0.5594609 0.18819277 -0.086825304 -0.7209281 -0.61771727 0.61661196 0.44869664 0.5351377
hippocampal 1.1550955 0.29634088 -0.24166073 -0.38475746 -0.6111588 -0.56670177 0.5856312 -0.39521226 -0.41336912 -1.341723 0.42879388 -0.104693316 0.647138 0.20557529 -0.09776183 -0.81716895 -0.7096208 0.6754671 0.51462436 0.62580967
line 2.8884718 0.82220805 -0.6478298 -1.0748347 -1.6856639 -1.4467458 1.4611397 -1.0637453 -1.0065571 -3.613112 1.0839602 -0.28997707 1.6670285 0.4974703 -0.24261427 -2.0197487 -1.7540311 1.7440463 1.248252 1.5868183
deficiency 1.2048045 0.30934998 -0.2521423 -0.39880568 -0.62732565 -0.5922695 0.60897815 -0.3937314 -0.44715133 -1.389553 0.44357097 -0.10428982 0.68021214 0.2133801 -0.09701307 -0.8439743 -0.7522861 0.70144564 0.5429539 0.64984524
nanoparticles 1.2754892 0.33683667 -0.24782175 -0.42007405 -0.67981756 -0.6383359 0.6498007 -0.42766738 -0.4505724 -1.4904894 0.46576196 -0.109649576 0.73819935 0.226695 -0.08518339 -0.88559806 -0.77777666 0.73023766 0.56889313 0.7086478
5 0.83402973 0.20623076 -0.12769717 -0.24236348 -0.39534065 -0.3923674 0.37031877 -0.24887666 -0.29950774 -0.91472554 0.31230086 -0.08674294 0.49133515 0.16442029 -0.035068333 -0.4804306 -0.47326744 0.41840807 0.39930195 0.4695467
structure-activity 1.2094933 0.32475042 -0.2521057 -0.45374903 -0.6738847 -0.5447388 0.6081783 -0.4297179 -0.40501794 -1.4618124 0.43735754 -0.114919364 0.65959984 0.18235089 -0.10182056 -0.8287565 -0.68401647 0.718884 0.5288536 0.64899004
direct 1.3304338 0.34860167 -0.26764622 -0.47623372 -0.7203345 -0.63099307 0.66423535 -0.4639385 -0.47527394 -1.5865368 0.4858424 -0.11480363 0.7544733 0.22239006 -0.11463189 -0.90263677 -0.79721487 0.77775145 0.5823605 0.7216223
tumors 1.2367057 0.32850495 -0.2683511 -0.4364456 -0.6889259 -0.6296511 0.6258621 -0.44458982 -0.45419002 -1.5269684 0.47477522 -0.11531988 0.72968656 0.2243057 -0.102079414 -0.9165774 -0.7839217 0.75680685 0.5568732 0.6980073
glucocorticoid 1.2702768 0.33330977 -0.2624618 -0.44010848 -0.6867749 -0.60925597 0.6423262 -0.43854257 -0.45949006 -1.5060953 0.47386768 -0.11157843 0.69971496 0.21502186 -0.1066654 -0.9159551 -0.78128034 0.76022774 0.5611161 0.68700945
antipsychotic 1.322067 0.3401232 -0.26933423 -0.48391825 -0.7148677 -0.6247612 0.66243905 -0.45392373 -0.44223496 -1.5761224 0.46410495 -0.10112236 0.7338308 0.20227231 -0.11964927 -0.92095304 -0.7680858 0.7681283 0.59189194 0.7224526
B 0.7946321 0.20683903 -0.13753751 -0.25430244 -0.3777247 -0.41733974 0.39573556 -0.23852244 -0.2581998 -0.8474258 0.26539338 -0.10572232 0.46135968 0.16629727 -0.04975994 -0.5445402 -0.4905966 0.44548205 0.35903662 0.40247267
biochemical 1.376264 0.3562274 -0.29395583 -0.5048358 -0.7356171 -0.6279971 0.690548 -0.48151964 -0.47227973 -1.6212277 0.4988133 -0.097266205 0.7499476 0.21218963 -0.12776478 -0.94318557 -0.8041397 0.81663054 0.61214674 0.7322836
women 1.1511757 0.3018884 -0.23306848 -0.38812777 -0.6086021 -0.5776414 0.58125746 -0.37598258 -0.4084676 -1.3408986 0.41919616 -0.10485732 0.662795 0.20285256 -0.076480426 -0.8279968 -0.71172905 0.65677816 0.5206861 0.6317442
activated 1.5695164 0.44982857 -0.3361005 -0.570458 -0.9122674 -0.7541715 0.82531506 -0.61889994 -0.606639 -2.03796 0.6513333 -0.14173283 0.86566794 0.31535622 -0.1779932 -1.2024412 -0.958532 1.0293335 0.71135753 0.848706
Regulation 1.1993232 0.4206468 -0.37920028 -0.6617421 -0.8541062 -0.43597928 0.65019786 -0.64884 -0.4796572 -1.8661441 0.55427456 -0.066021726 0.47476572 0.15858494 -0.32108837 -1.0652052 -0.6409724 1.0179884 0.40486103 0.53626096
cyclic 1.5677814 0.40665337 -0.31736773 -0.5447335 -0.8230473 -0.74412173 0.7855423 -0.5338099 -0.5510413 -1.8594974 0.5773996 -0.111976884 0.8660189 0.27387238 -0.13167061 -1.0866238 -0.9218526 0.9291175 0.7060839 0.8432786
Study 0.8934783 0.22922482 -0.18657772 -0.31155506 -0.49171582 -0.4304781 0.46000814 -0.29591992 -0.30523866 -1.0439004 0.31396988 -0.0684416 0.5025102 0.1569876 -0.066594906 -0.62258697 -0.5388838 0.51489854 0.39529112 0.48338488
screening 1.2898753 0.3379515 -0.2677088 -0.46139672 -0.68026644 -0.6146409 0.64039814 -0.44504318 -0.46092892 -1.542979 0.4855984 -0.096798524 0.73163974 0.22368409 -0.10338438 -0.91287524 -0.77733654 0.7587958 0.5769575 0.7019231
unique 0.9541811 0.23725668 -0.18140662 -0.29727495 -0.48324278 -0.48151755 0.45968634 -0.3079887 -0.33638072 -1.0735515 0.32050896 -0.085416414 0.5656091 0.16465583 -0.0371311 -0.6319444 -0.58497053 0.48890787 0.4558674 0.5392349
patient 1.4771508 0.40248936 -0.36851174 -0.5702285 -0.85716474 -0.72048455 0.8182257 -0.5819337 -0.5745634 -1.8819214 0.5905734 -0.110413656 0.7646118 0.23396774 -0.20268688 -1.1781728 -0.9121617 0.97440565 0.63350725 0.76728857
central 1.4740664 0.40798417 -0.35980067 -0.5431164 -0.83093196 -0.6958004 0.75926185 -0.5384163 -0.5425101 -1.8214737 0.57738715 -0.10930559 0.7732427 0.2387115 -0.1738892 -1.1124796 -0.8920023 0.95219916 0.62480956 0.7832502
antitumor 1.5040516 0.3791345 -0.31349385 -0.5477069 -0.82075226 -0.722043 0.73402154 -0.5190843 -0.50467885 -1.8174909 0.52316177 -0.114112094 0.8639276 0.23095182 -0.11106273 -1.0314109 -0.8939558 0.88085854 0.6807011 0.8383255
intracellular 1.3416568 0.36981434 -0.30409557 -0.45271266 -0.7487057 -0.6757927 0.7022806 -0.48965523 -0.51462907 -1.6630626 0.5245098 -0.13128549 0.74920523 0.2476163 -0.12807317 -1.0084133 -0.85307664 0.8796362 0.5870955 0.72652566
Mechanism 1.1842382 0.3133904 -0.26048464 -0.43387818 -0.65151864 -0.5548178 0.60596097 -0.42760244 -0.41820827 -1.4539642 0.42506966 -0.09626971 0.6478483 0.19376984 -0.11290272 -0.8621589 -0.70866317 0.72214687 0.5211481 0.6330679
estrogen 1.431836 0.38917643 -0.3121139 -0.49524972 -0.78765464 -0.7144127 0.7224803 -0.5111566 -0.5119848 -1.7478642 0.5589738 -0.12754044 0.8050864 0.25861055 -0.12921545 -1.0321498 -0.88342243 0.88478523 0.63348013 0.77756125
dynamics 1.1489972 0.30330205 -0.24329488 -0.39388338 -0.61700165 -0.54324275 0.5786356 -0.3950005 -0.40507248 -1.3552443 0.41559234 -0.094323434 0.65511143 0.19224638 -0.0885115 -0.7954236 -0.6903847 0.67580754 0.50148195 0.6214217
leads 1.1261107 0.2832267 -0.23348592 -0.37645394 -0.5984015 -0.5626837 0.5647627 -0.3581409 -0.41807398 -1.2987568 0.40115982 -0.102418594 0.63809884 0.21162407 -0.07525655 -0.7898405 -0.67862254 0.6518638 0.5158675 0.6169842
female 1.095475 0.30330017 -0.24793188 -0.3664946 -0.59593636 -0.53784364 0.56764543 -0.36755848 -0.4072421 -1.2976252 0.43228316 -0.09753348 0.6103587 0.20895028 -0.09105868 -0.8108564 -0.68450665 0.6878378 0.47801495 0.5915484
AMP-activated 1.2637994 0.3558225 -0.2619932 -0.43714654 -0.7069238 -0.60849464 0.64678293 -0.4695901 -0.4755873 -1.5892658 0.50266415 -0.12124498 0.70245534 0.24988557 -0.11395594 -0.93897915 -0.76488477 0.8031316 0.57707596 0.6823613
