9916 20
. -0.8519451 0.6815519 0.27979755 -0.5542374 0.15380077 -0.06223688 1.0871978 0.17696686 -0.2505445 0.078832306 -0.7613184 0.6042419 1.0847402 -0.29715917 -0.33605197 -0.25889674 0.17299794 0.09854995 -0.4031491 0.7754615
of -0.78460824 0.73092777 0.27839282 -0.5146889 0.2153364 -0.026657037 1.0681623 0.13341522 -0.36051953 0.106861666 -0.70910287 0.6183424 1.0941612 -0.2737407 -0.25523102 -0.31311578 0.1250815 0.069120735 -0.40592518 0.79364306
and -0.78622216 0.6596089 0.25825778 -0.5871265 0.19027334 0.005031805 1.0608199 0.1413677 -0.21468754 0.120997384 -0.7169737 0.6192543 1.1581305 -0.28948978 -0.26989922 -0.26428193 0.07716862 0.07885956 -0.3343061 0.8212559
in -0.8570566 0.62951344 0.16712187 -0.5083358 0.1640763 -0.01297555 1.135717 0.19188483 -0.302736 0.1173061 -0.8748206 0.62508696 1.1184391 -0.25760403 -0.29776764 -0.27958792 0.21367827 0.03676862 -0.32977477 0.7420723
the -0.7465651 0.8186817 0.3069786 -0.5607027 0.17950843 -2.041622e-05 1.1689602 0.2391296 -0.32059634 0.11632301 -0.8051816 0.58510387 1.1280241 -0.33675885 -0.26281083 -0.20211461 0.119235784 -0.014238094 -0.280777 0.7625625
, -0.76407516 0.79954237 0.26796415 -0.5376558 0.08791445 -0.037980005 1.0161608 0.07589716 -0.28803515 0.31009263 -0.5471311 0.84840494 1.2292604 -0.24193786 -0.18995029 -0.31799647 0.07502051 -0.07493974 -0.47535002 1.0386276
a -0.8614827 0.80353624 0.36579022 -0.56204045 0.11931168 -0.0627946 1.101103 0.11782534 -0.19876328 0.16745616 -0.5827774 0.62247777 1.1026636 -0.24696809 -0.2900234 -0.20714633 0.028162418 0.073058486 -0.50684583 0.94104314
: -0.78806233 0.7990159 0.38023657 -0.54247856 0.20526864 -0.1005433 0.9904143 0.20709912 -0.22900188 0.07087264 -0.66858095 0.5664754 1.0545889 -0.20361125 -0.2886429 -0.26033565 0.10733668 0.15540671 -0.42329663 0.88340706
( -0.9809555 0.5708682 0.31318718 -0.42531687 0.08260392 -0.119880766 1.0715741 0.1824231 -0.22505756 0.46347943 -0.39116755 0.8851578 1.1857975 -0.34951833 -0.17136605 -0.35734802 0.07361262 0.17631428 -0.62732005 1.1577241
) -0.9921788 0.76541936 0.4784154 -0.40737027 -0.016416702 -0.061819173 0.8962031 0.26996094 -0.4813117 0.54415244 -0.5864463 0.85848325 1.2587492 -0.13430542 -0.30017942 -0.18472369 0.13015543 -0.03289389 -0.7658825 1.0351418
by -0.7891091 0.7539006 0.30939797 -0.57400453 0.21274078 -0.043681916 1.0427312 0.207389 -0.229628 0.08708996 -0.77126455 0.51945466 1.1520164 -0.20319758 -0.27582347 -0.3071617 0.14539471 0.19743398 -0.399649 0.77718496
with -0.8832383 0.68828726 0.28625494 -0.6596106 0.199989 -0.16000077 1.0035796 0.23928262 -0.24026802 0.047090337 -0.69800115 0.43487898 1.1592162 -0.16253003 -0.35813475 -0.31904954 0.1074863 0.22975 -0.33173165 0.8141811
for -0.86719865 0.8556818 0.32553357 -0.5757598 0.2101456 -0.10833626 0.9933458 0.14228447 -0.20885602 0.050488368 -0.6567038 0.5122679 1.0422901 -0.16268192 -0.23542327 -0.26461104 0.04036051 0.13778007 -0.39009503 0.8861645
on -0.76466954 0.70672417 0.31324264 -0.5547282 0.2113287 -0.005921354 1.0378045 0.13140795 -0.29750067 0.15653 -0.70084804 0.6582643 1.1447527 -0.28270078 -0.25124332 -0.3282608 0.08597713 0.091721244 -0.34536275 0.83287174
to -0.7558118 0.6963992 0.32396752 -0.6505384 0.27186128 -0.117985174 1.0002127 0.22835067 -0.21678872 0.07755609 -0.7434728 0.44611773 1.0870382 -0.17720371 -0.33293125 -0.28934845 0.12044432 0.19606188 -0.3829891 0.8039408
receptor -0.83479303 0.7151917 0.3117924 -0.5902172 0.15991296 -0.05230662 1.0452439 0.24096869 -0.25162104 0.13754542 -0.72559416 0.5999433 1.1298625 -0.28653798 -0.21200685 -0.31270707 0.06069988 0.08871061 -0.41699058 0.8810755
cells -0.7935926 0.63368833 0.24489337 -0.60222065 0.18472853 -0.027825905 1.009867 0.28744966 -0.25454548 -0.001975515 -0.8135959 0.5129908 1.1120801 -0.2927157 -0.32574922 -0.23931848 0.18324353 0.19171962 -0.4130873 0.7947065
human -0.72487056 0.692366 0.24284625 -0.56063217 0.1818217 -0.044012375 1.0866753 0.2560939 -0.27936822 0.07892827 -0.83025557 0.53318566 1.1679981 -0.32526064 -0.35232696 -0.24618287 0.20008591 0.107200116 -0.38614243 0.75155795
expression -0.7972544 0.7259122 0.27745825 -0.60826164 0.22253525 -0.030631093 1.0794134 0.24121673 -0.26794767 0.18079486 -0.78124684 0.5013956 1.1900507 -0.2123971 -0.2575704 -0.24706055 0.18839855 0.020652395 -0.35451567 0.72739834
activity -0.78306395 0.71108073 0.35670507 -0.61532265 0.22704847 -0.056163527 1.008588 0.19706286 -0.20997006 0.0922251 -0.69980097 0.5447364 1.1201539 -0.26309413 -0.2515684 -0.2845964 0.10711518 0.16418491 -0.42209846 0.85196275
The -0.7847577 0.696394 0.42945245 -0.5974711 0.25121376 -0.06698677 0.9284759 0.16607441 -0.17677507 0.042902045 -0.6573769 0.52085626 1.0623492 -0.16185966 -0.2898089 -0.31608507 0.12074789 0.2237065 -0.4166119 0.7954228
as -0.8672931 0.8189026 0.47816217 -0.58255756 0.24141859 -0.09529077 0.9336473 0.15371817 -0.22314484 0.01980915 -0.56477904 0.5204552 1.0732435 -0.13844787 -0.2503239 -0.2919168 0.10461507 0.27197364 -0.5532948 1.0226445
effects -0.7367548 0.7898947 0.31609398 -0.577348 0.16662493 -0.040558364 1.0415466 0.17834362 -0.26930606 0.18585011 -0.6910347 0.59595275 1.0207622 -0.22955766 -0.2711962 -0.2445338 0.13158862 0.09605111 -0.39542946 0.80156505
A -0.8578542 0.7137202 0.46344545 -0.6274311 0.22616552 -0.13397805 0.92176145 0.1696048 -0.19315976 0.11387544 -0.58884 0.51087695 1.087337 -0.15907471 -0.26783338 -0.3212742 0.04723814 0.25063202 -0.42547348 0.8990269
from -0.8576158 0.71404856 0.4659482 -0.6241615 0.20564982 -0.08226834 1.0007663 0.14542426 -0.17252131 0.110850304 -0.6948337 0.5587867 1.1314857 -0.19248952 -0.2788391 -0.35082173 0.09708146 0.2911646 -0.43290624 0.9158069
rat -0.70284295 0.6851007 0.25305974 -0.54868656 0.20149012 -0.05685261 1.0456964 0.20655468 -0.26193327 0.0867692 -0.78150374 0.6012422 1.1641668 -0.33693823 -0.2303364 -0.23366076 0.11528016 0.10285673 -0.35895148 0.7139131
cell -0.797045 0.6525814 0.30500793 -0.62826276 0.242831 -0.10598818 0.95285386 0.1939923 -0.20113055 0.011529058 -0.79187846 0.46368533 1.1083431 -0.22093883 -0.3196167 -0.26716453 0.13034737 0.29022965 -0.36051533 0.813191
rats -0.7413286 0.66350734 0.28073478 -0.61034125 0.23367989 -0.07594853 0.96826553 0.24898785 -0.20942053 0.015178977 -0.73704284 0.48799604 1.1652449 -0.29556677 -0.27146104 -0.26965353 0.1033381 0.11604562 -0.36213234 0.76704586
inhibitors -0.88666946 0.76099706 0.41404697 -0.5959221 0.17164753 -0.09120147 0.95186293 0.121804155 -0.18545881 0.055809643 -0.6401512 0.5671742 1.0631193 -0.15574387 -0.2912401 -0.24705891 0.08265015 0.19927354 -0.5004413 0.90154505
is -0.8042979 0.77722687 0.35205895 -0.61941266 0.22375935 -0.1513312 1.0287895 0.23156574 -0.17953609 0.06631199 -0.6901539 0.49972042 1.1880717 -0.24214871 -0.25974444 -0.33102486 0.17601067 0.18555401 -0.40147907 0.9088366
novel -0.81574136 0.8725074 0.4288616 -0.55506307 0.12332606 -0.04175795 1.0032512 0.20404187 -0.26164564 0.13107257 -0.5848305 0.5990884 1.0793027 -0.20048022 -0.22589374 -0.23063476 0.11801977 0.12482995 -0.51174474 1.0136025
mice -0.735126 0.66946644 0.25427258 -0.6081031 0.17926021 -0.088449664 0.9396522 0.21064372 -0.17968097 0.034329195 -0.7093635 0.47724605 1.1415056 -0.2601788 -0.26612368 -0.27785876 0.15443979 0.15887462 -0.3084218 0.7349063
cancer -0.76810956 0.66175324 0.32125625 -0.58690006 0.16462462 -0.07888057 1.10508 0.29949617 -0.15732785 -0.035863973 -0.7792599 0.47975594 1.1371291 -0.33234537 -0.36292794 -0.20827849 0.26825586 0.19334972 -0.4103481 0.75374496
gene -0.8354326 0.6366632 0.27838 -0.5209391 0.12746271 -0.11970932 0.9694928 0.17876202 -0.26265666 0.077725224 -0.6856245 0.5816152 1.2298131 -0.32855675 -0.250892 -0.34137398 0.056416404 0.14847673 -0.29752675 0.843408
an -0.79728687 0.7432731 0.37562984 -0.57848036 0.20489368 -0.053378418 0.953871 0.17059389 -0.1806279 0.0940167 -0.6644715 0.5624578 1.1200118 -0.1989923 -0.314671 -0.276813 0.12740418 0.17602348 -0.42713562 0.863802
protein -0.8341575 0.7330031 0.3696521 -0.62295586 0.23257971 -0.05171427 0.961049 0.26394287 -0.22176233 0.080732696 -0.71641606 0.55099034 1.1536158 -0.19843394 -0.3236944 -0.34096262 0.0790568 0.14330636 -0.44440958 0.8674057
binding -0.76105314 0.72630155 0.3779947 -0.6553095 0.1958074 -0.082695045 0.9491525 0.1671893 -0.2473546 0.13549773 -0.68255717 0.54225296 1.1046954 -0.23060605 -0.25144705 -0.27557436 0.07957511 0.12639229 -0.40783992 0.8326371
receptors -0.77291405 0.7120956 0.34997216 -0.55081284 0.21945345 -0.121401004 0.9614015 0.19681123 -0.21012798 0.14222077 -0.6354422 0.5137592 1.0844258 -0.21569647 -0.2644441 -0.28718752 0.083547056 0.1514556 -0.37890399 0.78442454
[ -0.93752223 0.6261894 0.7474595 -0.81993306 0.07481549 0.03057537 0.908314 0.22357874 -0.39034855 0.26427984 -0.393805 0.77360433 1.1432685 -0.17793989 -0.33553368 -0.34902802 0.02494412 0.1520823 -0.7180023 1.3324401
] -0.81412226 0.78143895 0.547846 -0.8065085 0.1707567 -0.17223799 0.9861353 0.3134934 -0.27113023 0.34157747 -0.51002604 0.638867 1.2386318 -0.13730451 -0.26342043 -0.5773718 0.0027541108 0.32474706 -0.5695844 1.2262067
acid -0.78166914 0.6937732 0.44223067 -0.6125002 0.25177744 -0.1247802 0.9844125 0.18931597 -0.22285146 0.057043012 -0.6750494 0.5170786 1.1626678 -0.17495313 -0.29494378 -0.30385143 0.09006022 0.23837565 -0.42676607 0.7877493
factor -0.78972167 0.643487 0.35086355 -0.6338044 0.23225656 -0.06907285 1.0273641 0.20269167 -0.23710799 0.14141311 -0.7024966 0.55649436 1.1753951 -0.235679 -0.3062997 -0.307458 0.1608778 0.22719961 -0.4960851 0.8488208
inhibition -0.7450939 0.7380601 0.39997268 -0.57737267 0.20219244 -0.07795983 1.0136324 0.18627255 -0.21906514 0.08502514 -0.67078584 0.49032217 1.0885558 -0.21031688 -0.28064555 -0.25518218 0.09546838 0.21603948 -0.40674868 0.8130274
inhibitor -0.85704285 0.76495516 0.35538155 -0.6156226 0.19621506 -0.09937804 0.98471326 0.17089486 -0.24292672 0.096768804 -0.637039 0.6163786 1.1455454 -0.22370613 -0.29530653 -0.2949317 0.08669034 0.1725546 -0.48533309 0.9380957
activation -0.78654104 0.7088623 0.357183 -0.61509097 0.22336425 -0.085412286 1.0005548 0.23537104 -0.18667498 0.055338696 -0.7124342 0.4869554 1.1140476 -0.20112893 -0.3086765 -0.26782903 0.14468493 0.18567745 -0.4072226 0.79364806
signaling -0.79453975 0.6996511 0.37973914 -0.6414535 0.19896306 -0.06966954 0.9267638 0.2114173 -0.19566905 0.043317355 -0.70652086 0.46633303 1.0784684 -0.20999627 -0.30318442 -0.3117305 0.17360392 0.24292588 -0.38730976 0.81402487
effect -0.72262603 0.71932167 0.39126742 -0.5927513 0.19170083 -0.06290346 0.91286933 0.16250817 -0.22610888 0.11321154 -0.6117676 0.5236575 1.0424379 -0.20232962 -0.25496662 -0.30906343 0.10607446 0.19319165 -0.38943332 0.7882434
treatment -0.76795435 0.7566073 0.319365 -0.555366 0.18861045 -0.13492039 0.99632776 0.14112906 -0.23172113 0.087085165 -0.6736888 0.4752918 0.9867087 -0.16271938 -0.27309915 -0.27355337 0.044684093 0.17197198 -0.3395945 0.8450028
2 -0.91404045 0.6479629 0.3858801 -0.5712327 0.15920478 -0.17194133 0.891225 0.21485923 -0.1638148 0.116305776 -0.6284065 0.49155003 1.1387248 -0.117593326 -0.30582967 -0.3989073 0.066188976 0.3032735 -0.45663813 0.88155717
via -0.8158535 0.6633742 0.42794958 -0.68495286 0.2544156 -0.1441145 0.9199254 0.22975542 -0.16779402 0.037694138 -0.70598435 0.4937607 1.1481615 -0.1950999 -0.3264933 -0.32844484 0.15903088 0.264243 -0.42107505 0.8447544
patients -0.88637644 0.66198456 0.2729206 -0.62333995 0.23408121 -0.13221015 0.90488166 0.23730437 -0.13713826 -0.03727472 -0.679247 0.45775905 1.149787 -0.20442626 -0.3870859 -0.33396024 0.07554023 0.27187723 -0.35612243 0.8212128
through -0.8042365 0.70542395 0.3972509 -0.6202363 0.23744424 -0.11582916 0.94578815 0.16078712 -0.1824595 0.024712523 -0.6841488 0.48120096 1.1334838 -0.23089497 -0.29140466 -0.3255676 0.16231816 0.28484654 -0.3846729 0.82308125
its -0.7528871 0.69547075 0.38014013 -0.6071058 0.24225855 -0.07529363 0.9080387 0.18187866 -0.1561398 0.020030761 -0.67002565 0.48857546 1.0891731 -0.18103713 -0.261364 -0.33298922 0.12086099 0.20263466 -0.34666923 0.8144273
vitro -0.671128 0.638476 0.29344115 -0.5601325 0.19745632 -0.045339394 0.91991675 0.2248201 -0.15151325 0.051156003 -0.67225295 0.4944885 1.0287256 -0.20602235 -0.2716222 -0.23660874 0.1674829 0.12547831 -0.36915255 0.7155903
vivo -0.6939222 0.6502723 0.27190852 -0.57191086 0.2015724 -0.07176441 0.96425855 0.22040245 -0.15650727 0.069917485 -0.7196392 0.52670145 1.0359398 -0.26722643 -0.26002675 -0.24692106 0.10458554 0.13979033 -0.38421848 0.7083363
apoptosis -0.7513724 0.6671999 0.35056207 -0.607856 0.19397238 -0.104788944 0.98648125 0.17696229 -0.1648416 0.06766998 -0.7068025 0.5053817 1.1352847 -0.22841315 -0.3303799 -0.31331438 0.18005326 0.24509218 -0.3963047 0.78154397
antagonist -0.83038664 0.72804034 0.40010697 -0.66186297 0.18157557 -0.1418243 0.91894186 0.17498182 -0.1760658 0.13434264 -0.6257588 0.5815594 1.0973175 -0.18179633 -0.26083612 -0.31893727 0.109886736 0.2256445 -0.46622148 0.92297083
1 -0.8672923 0.6473646 0.38446164 -0.586567 0.17265818 -0.16418317 0.9161281 0.2199489 -0.1611012 0.104268536 -0.5761479 0.52869236 1.1120801 -0.13545305 -0.30283073 -0.36184385 0.07334332 0.28167596 -0.42177492 0.86613935
brain -0.7383143 0.6709483 0.38376266 -0.6232718 0.23964494 -0.07708612 0.9218423 0.17621064 -0.21709508 0.09901742 -0.64816195 0.4925204 1.047636 -0.17167364 -0.25357303 -0.26558992 0.109335065 0.19874363 -0.3975744 0.78333265
Effects -0.7123163 0.6568354 0.38302198 -0.61027485 0.20428331 -0.08741978 0.8115645 0.15400736 -0.19274138 0.05953806 -0.57007235 0.4488334 0.98857933 -0.17644848 -0.2567623 -0.30766597 0.0745353 0.25998667 -0.37469319 0.74505603
transporter -0.71877146 0.6688141 0.33787712 -0.5794936 0.1890796 -0.11366083 0.8945954 0.17847787 -0.16657567 0.0834606 -0.6414046 0.48822927 1.0617582 -0.19963239 -0.25587088 -0.29556644 0.119781196 0.19011703 -0.40072575 0.7438058
induced -0.7968601 0.6769818 0.3988495 -0.64470476 0.26192582 -0.09362899 0.903306 0.21047828 -0.19889046 0.025599008 -0.7095465 0.50309014 1.1061118 -0.1778979 -0.32468864 -0.32999304 0.15624939 0.3035554 -0.39230904 0.8096649
against -0.82164645 0.68224245 0.43302825 -0.67635673 0.24763493 -0.088578194 0.9405375 0.21580127 -0.14888807 0.022773802 -0.69914955 0.48612523 1.17005 -0.1769691 -0.31036216 -0.39208218 0.13739087 0.3491921 -0.42256433 0.8636307
growth -0.7399368 0.633618 0.3377831 -0.6297725 0.19570085 -0.05633218 0.9319669 0.17940205 -0.17414549 0.09165189 -0.7311438 0.56867313 1.1837399 -0.21201909 -0.29851925 -0.36251464 0.15089518 0.22556482 -0.4241843 0.8383838
kinase -0.8560359 0.70059264 0.42864698 -0.6741671 0.19363643 -0.13597971 0.9243297 0.22390218 -0.2250227 0.01124638 -0.647193 0.48426518 1.1549438 -0.1319674 -0.2970183 -0.31945255 0.10591601 0.26753896 -0.45642188 0.8345278
mouse -0.77022153 0.69271064 0.41188458 -0.61974406 0.23814236 -0.097902045 0.92953336 0.14974733 -0.16370912 0.06419775 -0.64366376 0.45495155 1.0561231 -0.2065478 -0.2925854 -0.27529258 0.10090046 0.2422814 -0.3848418 0.75402707
pathway -0.753535 0.67352474 0.35249177 -0.61133736 0.22266106 -0.13472882 0.89866906 0.18484202 -0.15439506 0.022394035 -0.7058396 0.48821262 1.0816865 -0.20403312 -0.28725478 -0.3354514 0.16782998 0.2676685 -0.41901276 0.799083
new -0.8062482 0.7311682 0.39248717 -0.5798705 0.23113392 -0.117171824 0.9148387 0.1862159 -0.18300955 0.018781377 -0.6195769 0.5127399 1.0688558 -0.16735224 -0.25774705 -0.30033812 0.10846434 0.2456908 -0.41811335 0.87904966
Effect -0.687119 0.6685203 0.3932806 -0.6003462 0.18529445 -0.08271762 0.86976695 0.14469287 -0.21568123 0.09373186 -0.61678594 0.43227613 0.9807909 -0.20039107 -0.2631883 -0.29459113 0.06850686 0.22689317 -0.35094714 0.7623215
drug -0.7326493 0.65011793 0.40028766 -0.5630006 0.17476702 -0.11730023 0.8474149 0.121713765 -0.19054031 0.0008213882 -0.57750505 0.47070792 0.99593055 -0.12809479 -0.25394568 -0.33466923 0.10682282 0.24270383 -0.37262824 0.80953944
at -0.7808509 0.7094221 0.39864218 -0.6353678 0.21781982 -0.13761993 0.87284887 0.18573849 -0.20443457 0.050524857 -0.6674532 0.46490562 1.0800755 -0.16918357 -0.2965964 -0.3538171 0.12799129 0.24086592 -0.41124988 0.8477069
Synthesis -0.6722099 0.59029 0.36917013 -0.5170592 0.17416975 -0.060653836 0.79386127 0.10371783 -0.13033827 0.0552699 -0.5011671 0.4773653 0.9275417 -0.15569931 -0.2231606 -0.29046085 0.08774121 0.20834853 -0.36788097 0.7602578
selective -0.82466114 0.71930844 0.3920413 -0.56780577 0.19678012 -0.1209013 0.9052892 0.15353672 -0.16904727 0.0776582 -0.6043848 0.49205932 1.0792192 -0.1480872 -0.22371863 -0.28895438 0.09738539 0.21767473 -0.46508583 0.9158822
inhibits -0.8056732 0.67786735 0.3959433 -0.6525626 0.24838506 -0.109677695 0.90546846 0.19004929 -0.17044099 0.062096417 -0.60684806 0.507473 1.0994077 -0.1757431 -0.30324942 -0.36210328 0.108688004 0.2740019 -0.43654886 0.815543
type -0.9355622 0.6676116 0.35135958 -0.60314775 0.19663368 -0.19265172 0.8912632 0.17080666 -0.1446888 0.01940234 -0.6653182 0.48726097 1.0884676 -0.12806036 -0.29843056 -0.37013555 0.055478714 0.24055557 -0.39396858 0.86535305
study -0.75709313 0.65699494 0.33726034 -0.5696702 0.1985151 -0.088152386 0.8081284 0.15585619 -0.17468044 0.03081847 -0.6089228 0.42352232 0.9563889 -0.17794384 -0.2439213 -0.2677773 0.08968798 0.2580315 -0.3802595 0.7309316
model -0.74644655 0.68202156 0.3723329 -0.5908082 0.23967542 -0.12921274 0.9077632 0.20298278 -0.17623755 0.019587105 -0.6415047 0.45118305 1.0433742 -0.16165788 -0.2582288 -0.31373346 0.13865492 0.20023678 -0.39250726 0.7627763
potential -0.7821051 0.6908985 0.42383537 -0.5702072 0.21485053 -0.12371309 0.8810764 0.13178235 -0.1855683 0.040503107 -0.59408695 0.46088392 1.0711846 -0.17010747 -0.27112767 -0.29202223 0.09280675 0.26655772 -0.4332877 0.85404426
stress -0.72614616 0.59319514 0.38267264 -0.5780064 0.21950607 -0.12994106 0.8428496 0.13920324 -0.14797112 0.0705117 -0.6317665 0.4927272 1.026997 -0.22522062 -0.29747486 -0.36364093 0.11510677 0.23562814 -0.37100908 0.7317111
metabolism -0.6919873 0.6422559 0.34615782 -0.5506633 0.19931604 -0.09014075 0.8453997 0.17060189 -0.15099876 0.029851552 -0.6069373 0.4461468 0.94929653 -0.19268672 -0.25782695 -0.31640065 0.09538909 0.22632582 -0.32110667 0.72359794
function -0.7386206 0.6574322 0.32751146 -0.5718965 0.18423294 -0.07133462 0.902018 0.16759096 -0.19247021 0.05015331 -0.6423021 0.49147344 1.021985 -0.20165819 -0.29489413 -0.29353103 0.11008465 0.22291687 -0.38356167 0.75979674
role -0.70383084 0.638316 0.37301654 -0.54730105 0.18306966 -0.091834724 0.8668971 0.17223375 -0.14436191 0.035360638 -0.5743678 0.42299673 0.98127425 -0.15178685 -0.25278902 -0.24581845 0.13602483 0.2012972 -0.34698197 0.7395649
II -0.8009189 0.6430089 0.40392002 -0.6148906 0.22095914 -0.13932943 0.8425575 0.2085377 -0.13158722 0.0630973 -0.6321449 0.4035241 1.0663232 -0.11333324 -0.28982636 -0.35454595 0.08285226 0.30959612 -0.3771811 0.7690583
disease -0.754823 0.6126331 0.33601454 -0.5035534 0.18556353 -0.12692092 0.78991723 0.13876984 -0.14381406 0.025609212 -0.61887974 0.3849552 0.95577544 -0.1703383 -0.23831049 -0.29444817 0.048132274 0.26720932 -0.3152888 0.7428452
properties -0.7267896 0.67831016 0.42512205 -0.5936055 0.23109852 -0.12136421 0.8655625 0.15567365 -0.1843155 0.07007163 -0.55707675 0.44546485 0.98117495 -0.13070996 -0.24976555 -0.31416148 0.09356724 0.2368324 -0.39393494 0.7750572
liver -0.7453184 0.58886826 0.33432078 -0.6064571 0.20399736 -0.114153825 0.8547403 0.20312017 -0.19703108 0.045050837 -0.6476355 0.4399292 1.0149617 -0.1776071 -0.24397296 -0.31167448 0.14339659 0.23663294 -0.37833214 0.6983567
dopamine -0.775261 0.6703469 0.38178468 -0.56688213 0.19680901 -0.10978765 0.87883157 0.13340394 -0.14784665 0.05466509 -0.5833528 0.44864193 1.0425378 -0.16097315 -0.25701332 -0.34906763 0.13266295 0.24257104 -0.4131589 0.8018331
's -0.76525074 0.66722715 0.31737214 -0.603961 0.20243202 -0.1728383 0.8730733 0.1153165 -0.15205014 0.062077187 -0.596963 0.37329167 0.9822957 -0.16160458 -0.3116589 -0.33694053 0.039860994 0.30307084 -0.30783567 0.7798332
alpha -0.7829479 0.6649123 0.4270805 -0.5821077 0.20711474 -0.15135264 0.8452307 0.19433366 -0.1792476 0.09364139 -0.6117563 0.49900478 1.0687382 -0.17094825 -0.24603583 -0.3264886 0.1452751 0.25475055 -0.42380098 0.8078055
using -0.79225916 0.6745306 0.44143307 -0.6650112 0.23686744 -0.13119072 0.8842476 0.15042387 -0.15423208 0.0105855735 -0.6452071 0.4562947 1.0504514 -0.17862907 -0.28442544 -0.31162328 0.111565895 0.33798784 -0.4433818 0.83514017
drugs -0.73888695 0.64853543 0.39892718 -0.5869918 0.21880832 -0.12979746 0.8180742 0.1211023 -0.123870134 0.051067993 -0.54373515 0.41221446 0.9846103 -0.15053385 -0.27147374 -0.3358113 0.116499685 0.26503238 -0.38926595 0.74539745
response -0.7607198 0.6344778 0.37676576 -0.61808354 0.21830043 -0.14078669 0.8051738 0.17820224 -0.14743546 0.043489512 -0.63001025 0.4005338 1.0105166 -0.14586958 -0.25764388 -0.3308883 0.09092079 0.2935426 -0.36086378 0.76480347
molecular -0.7441729 0.6497539 0.39340228 -0.580483 0.2272002 -0.11172241 0.8005199 0.14490266 -0.13894638 0.023701716 -0.5517461 0.41544038 0.937024 -0.126344 -0.22816682 -0.2961083 0.08986272 0.23047318 -0.37119913 0.7257849
associated -0.8442869 0.6465107 0.34881613 -0.5958684 0.24579905 -0.12728247 0.86103076 0.21495737 -0.15339732 -0.028224979 -0.62688154 0.4206565 1.0791076 -0.17140913 -0.2980649 -0.37801948 0.11023573 0.27451512 -0.3916588 0.7988055
potent -0.79306877 0.6881762 0.45436597 -0.6144454 0.17852876 -0.12052017 0.857032 0.10981348 -0.15144932 0.030367486 -0.58545667 0.49724784 1.0512304 -0.12018049 -0.24731888 -0.32821938 0.088052206 0.2729863 -0.48879725 0.8790644
characterization -0.68322283 0.6172644 0.3671625 -0.55178964 0.20572563 -0.0771666 0.7890439 0.14464532 -0.15052326 0.0565455 -0.52649295 0.4200323 0.915811 -0.16829361 -0.22920525 -0.2847478 0.08781506 0.1855254 -0.34081054 0.7102426
synthesis -0.73048425 0.6168636 0.37351406 -0.5766552 0.17716658 -0.11986412 0.83613205 0.16419677 -0.16076322 0.06422561 -0.54273754 0.44413254 0.98768973 -0.17920958 -0.27455932 -0.29835382 0.09864837 0.22131696 -0.3647254 0.7904361
are -0.8023127 0.6501691 0.39200556 -0.6193312 0.22912511 -0.15918888 0.86765826 0.16158737 -0.14433031 0.009571627 -0.6474677 0.41444734 1.0971223 -0.18858434 -0.27427268 -0.36905536 0.15908024 0.3122254 -0.3814267 0.76564246
between -0.74719024 0.63794655 0.43836564 -0.6538398 0.20485793 -0.12938239 0.83031565 0.14318722 -0.15919463 0.05470899 -0.5748391 0.42264065 1.0484738 -0.14135192 -0.2772528 -0.35210758 0.097568616 0.2878172 -0.37343577 0.79402256
high -0.8083756 0.643175 0.3677032 -0.61892045 0.25179523 -0.10324922 0.8335861 0.19844832 -0.16749021 -0.005568622 -0.61104316 0.43518913 1.0543393 -0.1710171 -0.2763058 -0.342315 0.12841198 0.27828717 -0.38345426 0.7626164
regulation -0.71990615 0.60632753 0.36593175 -0.58024704 0.21889786 -0.09748211 0.8356789 0.14693554 -0.1377239 0.059143722 -0.5968225 0.39549607 0.98694164 -0.17126875 -0.26524997 -0.30338156 0.0867218 0.19329959 -0.33160493 0.7045412
DNA -0.74381614 0.6013644 0.3982269 -0.6216361 0.24388073 -0.09515477 0.8241925 0.16641906 -0.13014 0.05665336 -0.6221643 0.45445454 1.0374098 -0.17520766 -0.24910086 -0.3401843 0.11175197 0.25395715 -0.36557925 0.7529503
Inhibition -0.6686036 0.54593796 0.3529177 -0.54477704 0.17974211 -0.11357423 0.7581144 0.12732406 -0.14929722 0.049445644 -0.51697445 0.35302836 0.879614 -0.13257854 -0.24701871 -0.24977426 0.10424735 0.22759777 -0.34835434 0.6621849
breast -0.7563656 0.6077235 0.29912162 -0.5791012 0.22781748 -0.10719009 0.8732402 0.20339805 -0.19850211 -0.011733767 -0.65709865 0.40851617 1.0245217 -0.15667664 -0.30727336 -0.2997711 0.14739639 0.34789515 -0.393878 0.7464414
agents -0.72543937 0.6360104 0.37131554 -0.5726166 0.2223149 -0.11685764 0.763854 0.10943288 -0.10647151 0.040134832 -0.5775081 0.42060396 0.9365788 -0.1202139 -0.22820282 -0.3065243 0.10215507 0.23636992 -0.39923206 0.7471958
during -0.75286424 0.6537789 0.4073653 -0.59483683 0.22072339 -0.12705272 0.81687576 0.16568893 -0.13985686 0.01906873 -0.5946179 0.41879293 1.0419004 -0.1810193 -0.27862316 -0.32378024 0.112142734 0.31131923 -0.37654555 0.75070447
derivatives -0.7704908 0.64687115 0.44454762 -0.6142831 0.18004791 -0.099134184 0.8054799 0.14548154 -0.13351347 0.06486541 -0.53525376 0.47282636 1.0246748 -0.14856152 -0.24983573 -0.34312838 0.08968141 0.24561247 -0.4342644 0.7947999
not -0.7866245 0.62876666 0.38770378 -0.60985833 0.20936583 -0.11726888 0.79770505 0.15750353 -0.12782957 0.032408316 -0.56066525 0.45740804 1.0277781 -0.12556574 -0.24474515 -0.36680767 0.13033146 0.26695597 -0.34872738 0.7517705
production -0.73098415 0.6257452 0.39545995 -0.56745446 0.21625306 -0.097427815 0.8210807 0.17047292 -0.12624647 0.036986254 -0.6121106 0.3979119 1.0028694 -0.15601957 -0.24877678 -0.3155846 0.120169766 0.26159757 -0.3389305 0.74236125
mechanism -0.71438646 0.60603786 0.3416739 -0.5094537 0.19020107 -0.103803754 0.7870612 0.16437806 -0.15983453 0.04626681 -0.56433284 0.4174085 0.93176 -0.15192623 -0.24692227 -0.24122915 0.1278935 0.21462284 -0.35795057 0.7392789
induces -0.7717067 0.5921388 0.41268954 -0.6361292 0.22905391 -0.12512971 0.80822664 0.16400398 -0.1754469 0.030438479 -0.64078844 0.4569221 1.0675465 -0.16163686 -0.27618736 -0.32731882 0.15532547 0.31014803 -0.39606088 0.78212047
oxidative -0.728163 0.612328 0.36064038 -0.63227713 0.19614781 -0.11652913 0.80610293 0.11093308 -0.17229623 0.056750204 -0.5920036 0.47087795 1.0721354 -0.20322278 -0.22785829 -0.374428 0.09867967 0.27738354 -0.32271832 0.72674996
levels -0.7022534 0.58080393 0.36274648 -0.5901147 0.24153502 -0.084743395 0.79985577 0.16531727 -0.12695262 0.014457847 -0.6230531 0.43775192 0.9996382 -0.18207555 -0.27556077 -0.32185885 0.09917361 0.26571196 -0.33749944 0.75441647
synthase -0.7028198 0.5764611 0.3596969 -0.5598498 0.18883915 -0.13207036 0.81232756 0.1309013 -0.14720488 0.0410631 -0.5499729 0.40736982 0.95674056 -0.15633936 -0.24827422 -0.33907172 0.09677416 0.25876823 -0.36279655 0.7310285
muscle -0.68348724 0.5960263 0.36067072 -0.5820111 0.19233003 -0.13945878 0.7673959 0.15517566 -0.14171726 -0.009992196 -0.57677287 0.4259375 0.94677174 -0.16166419 -0.27589187 -0.29681808 0.0945414 0.28668022 -0.3745025 0.6951211
their -0.6970824 0.61309963 0.37602276 -0.54842573 0.21609643 -0.107756525 0.7749433 0.12948915 -0.14721927 0.058162056 -0.59100795 0.43104398 0.98662853 -0.14892052 -0.27902883 -0.31268275 0.09502167 0.2910304 -0.35820574 0.7472551
exposure -0.6684583 0.54740804 0.3781051 -0.54062545 0.2207903 -0.1294198 0.7517717 0.12836833 -0.14937831 0.030026067 -0.55830705 0.3784669 0.95250213 -0.1292879 -0.22439614 -0.3097278 0.10633051 0.24447465 -0.34637648 0.6974755
use -0.6561977 0.6061465 0.36776903 -0.5215457 0.19269322 -0.11067232 0.78761786 0.13635987 -0.14070667 0.0135274585 -0.55945045 0.34160778 0.9046497 -0.1428161 -0.26833946 -0.263861 0.110885814 0.2566725 -0.32377163 0.70845443
interaction -0.6961407 0.559181 0.33471593 -0.56365186 0.19233613 -0.100831695 0.768576 0.16904426 -0.14865741 0.04846888 -0.5616882 0.39838687 0.9422469 -0.13390331 -0.27017018 -0.29042876 0.11710846 0.25597867 -0.3400824 0.72783834
proteins -0.7451313 0.5806711 0.36265248 -0.601562 0.21186578 -0.14281091 0.7902851 0.17043938 -0.15872997 0.032025285 -0.5570599 0.43193176 0.9917982 -0.15900674 -0.2448518 -0.34021166 0.13474208 0.2791842 -0.3650975 0.7276811
antagonists -0.69640297 0.53487945 0.3654161 -0.51867235 0.21417928 -0.10398765 0.70120186 0.11810357 -0.12352122 0.031539686 -0.4867312 0.35795483 0.90222824 -0.11634074 -0.21582997 -0.30664632 0.106096745 0.25017476 -0.3211885 0.71448964
endothelial -0.6941972 0.58494586 0.34807304 -0.548018 0.18572138 -0.074918695 0.80216473 0.14464498 -0.123494156 0.0016076938 -0.5996869 0.4256498 0.9492321 -0.19043104 -0.28728777 -0.3156947 0.14080566 0.2552975 -0.3819932 0.6694306
insulin -0.6793755 0.5792028 0.33556157 -0.5770115 0.22350554 -0.0860901 0.79482234 0.1771198 -0.13941915 0.028849773 -0.53787565 0.37231985 0.92979306 -0.1395619 -0.27432007 -0.28630322 0.11247248 0.26389298 -0.34980744 0.6951117
channel -0.73448104 0.5727815 0.36208838 -0.561945 0.20977119 -0.12178632 0.7835019 0.14057761 -0.15485072 0.029158007 -0.51298976 0.43205762 0.95573574 -0.14679152 -0.23313847 -0.32891554 0.13280682 0.27214175 -0.3505887 0.7076985
evaluation -0.72980994 0.58044744 0.38477224 -0.55289704 0.21301697 -0.09426349 0.79977965 0.15011054 -0.1218792 0.054824423 -0.48544434 0.4101082 0.9525805 -0.12443178 -0.24077088 -0.3004426 0.10549519 0.21074288 -0.3743945 0.72956514
studies -0.6708981 0.614515 0.3303853 -0.5767187 0.19008379 -0.098884985 0.8007805 0.13582243 -0.154511 0.021104965 -0.573885 0.42432976 0.9399885 -0.16429456 -0.25458398 -0.31876153 0.08272739 0.22599769 -0.33980098 0.72676843
therapy -0.6775488 0.5302813 0.35459712 -0.53417474 0.16338408 -0.1303772 0.7189012 0.137436 -0.14656743 -0.008290013 -0.52400875 0.35885376 0.860457 -0.15469822 -0.2672296 -0.29209447 0.08010068 0.23341127 -0.35299346 0.6894279
action -0.65447235 0.59325874 0.34213084 -0.51717836 0.17867738 -0.09391046 0.75774604 0.121505514 -0.12539513 0.026466962 -0.5288721 0.41056228 0.88331175 -0.14338164 -0.2382406 -0.24204457 0.088310234 0.21901886 -0.340725 0.7152917
release -0.74067366 0.5966074 0.4215786 -0.567288 0.20493399 -0.1329987 0.79287034 0.16996107 -0.15695731 0.05260144 -0.554421 0.4172827 0.98855853 -0.15511005 -0.22840412 -0.29027358 0.11528464 0.29816765 -0.34924975 0.7128784
genes -0.70167583 0.57289815 0.34108156 -0.51425487 0.18285228 -0.10674266 0.75799567 0.16204385 -0.14564861 0.025589911 -0.546151 0.3982424 0.95341945 -0.15117495 -0.2723935 -0.2749667 0.12490114 0.22636504 -0.34033018 0.7049101
hormone -0.67696744 0.57468164 0.34106517 -0.56725544 0.18837447 -0.12341686 0.78237015 0.15667543 -0.12012152 0.03277426 -0.54176396 0.38685545 0.9498419 -0.1397592 -0.2296544 -0.3054055 0.10995015 0.27867708 -0.32994497 0.7456697
target -0.7012276 0.6073677 0.38528427 -0.5260137 0.17109042 -0.14268848 0.7836953 0.13346379 -0.16676037 0.00938147 -0.5255807 0.4112787 0.9338559 -0.13115518 -0.26275703 -0.27774137 0.09142437 0.23992401 -0.3812808 0.72644997
system -0.71170074 0.5547888 0.35045588 -0.5616075 0.19055283 -0.12506105 0.7331693 0.16086581 -0.13179044 0.015175718 -0.5509773 0.4004386 0.9208767 -0.119825326 -0.25487515 -0.3067858 0.1314206 0.3083729 -0.34794348 0.7295899
tumor -0.6465488 0.5531413 0.35759124 -0.5362614 0.17750019 -0.078201525 0.77856463 0.1634744 -0.1311771 0.03845118 -0.55174685 0.39698943 0.9241397 -0.18865706 -0.24349067 -0.31320414 0.14998649 0.256092 -0.3847897 0.70242715
In -0.6498337 0.5474792 0.33589217 -0.51754653 0.17904599 -0.110687904 0.6806971 0.12252277 -0.102058806 0.042501036 -0.52752686 0.38680473 0.8866561 -0.13068344 -0.2327022 -0.31488732 0.10665917 0.24092288 -0.3412706 0.6308308
beta -0.7140061 0.61091983 0.36033756 -0.55428106 0.20417558 -0.12813613 0.762963 0.18329467 -0.13096 0.026098082 -0.58472604 0.37994006 0.97453886 -0.15491132 -0.2595863 -0.30100045 0.10782395 0.26504672 -0.34971562 0.7377186
Characterization -0.5520448 0.4780685 0.34159547 -0.47257558 0.16689833 -0.1059187 0.64185756 0.13252251 -0.1186687 0.03571047 -0.4705774 0.32867813 0.7692815 -0.119768865 -0.1904359 -0.2696163 0.10267913 0.20182799 -0.26802537 0.5619747
changes -0.71129066 0.57430136 0.34558547 -0.5594657 0.1885409 -0.11183472 0.7811044 0.1653675 -0.1560933 0.033701498 -0.6007147 0.39840406 0.97866625 -0.17805454 -0.26315776 -0.29439697 0.12417658 0.21552849 -0.3067654 0.6858315
epithelial -0.6247414 0.50915796 0.29022178 -0.51263005 0.14934887 -0.07383282 0.70764047 0.15638511 -0.10026524 0.008685028 -0.52492815 0.34938958 0.83678627 -0.17186372 -0.24979864 -0.2824352 0.122764625 0.26933622 -0.34405583 0.61059165
analysis -0.6636449 0.5492894 0.36483827 -0.55477464 0.19710857 -0.105800785 0.7194703 0.14163288 -0.101669215 -0.002273794 -0.5397003 0.354339 0.90859467 -0.15979917 -0.24457122 -0.28400266 0.08839804 0.23759405 -0.33199397 0.6796108
after -0.76220566 0.59440243 0.40265128 -0.63120437 0.25708702 -0.14465699 0.7992045 0.1520285 -0.13919765 0.009431078 -0.5699353 0.38661546 1.0244577 -0.13651304 -0.261011 -0.32159567 0.124504834 0.34002683 -0.40406668 0.78575253
agonist -0.71475637 0.62870216 0.38940546 -0.57147473 0.20228107 -0.14976214 0.7800768 0.17574587 -0.16147435 0.03659335 -0.5297109 0.44219422 1.0069238 -0.14458863 -0.24558716 -0.3190503 0.09910601 0.27438295 -0.37373677 0.7481556
channels -0.6520007 0.53337795 0.36669782 -0.510481 0.17921332 -0.10379332 0.71066374 0.16486287 -0.12997878 0.027048323 -0.5024179 0.38396508 0.89318573 -0.17214848 -0.23137078 -0.2977017 0.092897944 0.24393329 -0.33327127 0.6518545
acute -0.6943399 0.5658248 0.3402501 -0.5440226 0.22266671 -0.12366521 0.74300337 0.12656909 -0.111909375 -0.013705363 -0.56716317 0.35483742 0.9376071 -0.13254698 -0.26043043 -0.2776844 0.107335 0.282391 -0.34887335 0.6766224
serotonin -0.70073825 0.5865446 0.333304 -0.5358168 0.15840957 -0.11816919 0.7503476 0.12658744 -0.15286528 0.06774839 -0.49431586 0.40587443 0.90945536 -0.16164517 -0.21407993 -0.28136295 0.09962391 0.22069748 -0.36736256 0.69511694
modulation -0.68867326 0.5771126 0.35128433 -0.5391657 0.20650338 -0.09761753 0.7470805 0.13707662 -0.11416815 0.024965428 -0.54579884 0.3781127 0.90734684 -0.157836 -0.2600888 -0.3066092 0.0987417 0.22292934 -0.3426835 0.6952382
anti-inflammatory -0.6667439 0.52771693 0.33327812 -0.49281162 0.20048952 -0.09287645 0.719979 0.12586032 -0.13780801 0.035426367 -0.5214225 0.37537 0.87649834 -0.13310076 -0.22563127 -0.26545396 0.0875219 0.2642931 -0.33427754 0.6854993
histamine -0.6803306 0.59795815 0.38348615 -0.5343039 0.17061685 -0.1298928 0.7619782 0.1351377 -0.15400468 0.059383057 -0.5167996 0.4010293 0.947381 -0.12943809 -0.24672876 -0.27629885 0.08572825 0.23643328 -0.35298875 0.7481516
toxicity -0.65967107 0.56103826 0.35836107 -0.5590543 0.21789642 -0.10508536 0.724959 0.15318629 -0.12303644 0.010262779 -0.55923724 0.37444243 0.8968008 -0.12958774 -0.2477692 -0.2667866 0.102551475 0.2522842 -0.31135973 0.67242414
clinical -0.637989 0.54390144 0.3410924 -0.49789718 0.19529939 -0.10758376 0.73225063 0.15149859 -0.10008485 0.020312687 -0.48950794 0.3622493 0.85105115 -0.09850844 -0.22214414 -0.29218686 0.10824931 0.24602622 -0.32640982 0.6776228
lung -0.6366214 0.52075416 0.34116012 -0.5491324 0.19227546 -0.0812189 0.7767603 0.15886158 -0.15101416 -0.0084347 -0.59079915 0.37151617 0.92236066 -0.1362635 -0.23411912 -0.28085402 0.13539605 0.27921703 -0.32063165 0.66622484
functional -0.64421666 0.55933577 0.31291208 -0.49930218 0.18866399 -0.12253053 0.6770638 0.13887043 -0.12796243 0.040827245 -0.5251811 0.37237975 0.8859789 -0.13132389 -0.23040923 -0.29065588 0.11310755 0.25899392 -0.3330896 0.65212494
male -0.6635647 0.5288741 0.33191672 -0.5250403 0.20410419 -0.08190956 0.69971794 0.1286244 -0.12906574 0.005437138 -0.49945047 0.34029794 0.8688838 -0.11305649 -0.22080769 -0.28068694 0.13530177 0.23747244 -0.30543235 0.6621227
Identification -0.5683335 0.46275544 0.2847769 -0.47228855 0.1476071 -0.10706062 0.63287246 0.14101768 -0.1265369 0.015497608 -0.44078055 0.30604973 0.74203926 -0.13682887 -0.19698846 -0.22926761 0.06460014 0.1833311 -0.2880517 0.59083307
sodium -0.6522042 0.5518058 0.33421507 -0.5206581 0.20792237 -0.11017152 0.74575984 0.163743 -0.14938116 0.035239965 -0.5112538 0.38750115 0.9222368 -0.14268214 -0.24604747 -0.28464067 0.1264969 0.24511312 -0.33321854 0.68915915
control -0.68326235 0.5469881 0.35008356 -0.5312529 0.17493197 -0.08642165 0.73778725 0.16521251 -0.12350142 0.036916543 -0.5594256 0.36705557 0.92917776 -0.15616186 -0.23309499 -0.29934198 0.10521173 0.21689186 -0.2952871 0.67119443
activities -0.6474536 0.5552182 0.3694015 -0.54540795 0.1700321 -0.07994181 0.7400496 0.13995048 -0.1284334 0.03784662 -0.54130137 0.37921116 0.89639187 -0.15128206 -0.24691063 -0.29640365 0.08504427 0.20856242 -0.29174134 0.65618
that -0.73194957 0.57974064 0.38846555 -0.5984827 0.24241853 -0.10368316 0.79015666 0.13308193 -0.12556122 -0.010394425 -0.56688523 0.3780126 0.9754259 -0.14317518 -0.2636312 -0.34060028 0.10259855 0.2730628 -0.3557272 0.72545373
diabetes -0.72844845 0.5028163 0.30421442 -0.53723496 0.1595326 -0.15042049 0.6807183 0.13594347 -0.08590785 -0.0064132907 -0.5319541 0.32032883 0.87530977 -0.06599847 -0.27649322 -0.32398465 0.055709913 0.26516035 -0.33610773 0.6877055
renal -0.6612761 0.5266004 0.3442281 -0.5345282 0.21088427 -0.1352688 0.749236 0.1327333 -0.14414461 0.022891859 -0.54655844 0.34410644 0.9075292 -0.14311561 -0.26419938 -0.29980385 0.08581104 0.26383278 -0.3252703 0.66658795
mechanisms -0.6214482 0.52214813 0.33051398 -0.5389554 0.21416351 -0.08544126 0.6679044 0.13712442 -0.13883507 -0.022387952 -0.4976063 0.3674986 0.8738908 -0.14755769 -0.2288546 -0.29267374 0.10809223 0.25374228 -0.33057836 0.6653202
secretion -0.66234994 0.5498234 0.31626555 -0.56358963 0.1831993 -0.11200568 0.7271402 0.13714096 -0.10892187 -0.0049404837 -0.5552482 0.36173466 0.9292122 -0.15459602 -0.24231479 -0.2901349 0.13389884 0.2385595 -0.30566603 0.6700645
primary -0.649607 0.56062126 0.32729942 -0.54865247 0.19272742 -0.075751394 0.74195296 0.16081381 -0.14755803 0.006318748 -0.5613676 0.35048908 0.9020078 -0.14847276 -0.22031435 -0.29828763 0.1064234 0.25100058 -0.3087371 0.665937
inflammatory -0.6586392 0.5399777 0.33031893 -0.5235796 0.21597698 -0.10963627 0.72964364 0.120505564 -0.15487783 0.009274105 -0.5268114 0.37663034 0.91432035 -0.145961 -0.24499325 -0.3179009 0.09108845 0.26006114 -0.31116244 0.6741705
thyroid -0.6346415 0.5183718 0.31469575 -0.51549536 0.16304387 -0.1239262 0.7053906 0.16319658 -0.15278666 0.005649172 -0.54000735 0.36438796 0.8679956 -0.12358542 -0.24640699 -0.2800341 0.1178283 0.22423494 -0.30754578 0.66397053
Novel -0.61910707 0.5300403 0.33359095 -0.5140697 0.19800071 -0.10655524 0.6373309 0.1260079 -0.121964365 0.03199741 -0.4421746 0.34595898 0.8370678 -0.13551897 -0.19857876 -0.291777 0.09450959 0.25121716 -0.30950803 0.6505951
resistance -0.66826487 0.51161546 0.34198728 -0.5195631 0.20394261 -0.07894357 0.70533764 0.16395384 -0.10232786 0.0065861763 -0.5406996 0.350058 0.89331144 -0.13869643 -0.22626491 -0.28055307 0.13023177 0.23856412 -0.33630076 0.63679373
calcium -0.66911167 0.538923 0.34199658 -0.5181057 0.18187042 -0.10355366 0.69602096 0.11421776 -0.105718374 0.043005932 -0.50492233 0.37135854 0.892862 -0.15797524 -0.22708875 -0.29463488 0.105701186 0.2916875 -0.3135402 0.6738907
mediated -0.7414557 0.5915048 0.3987658 -0.5986699 0.2247296 -0.11640412 0.7751165 0.17030947 -0.1328429 -0.0084353825 -0.5598315 0.36424053 0.9595191 -0.13475637 -0.26361826 -0.30126846 0.14873783 0.3035151 -0.35455465 0.73255813
comparison -0.63880014 0.52640736 0.3200997 -0.503944 0.15562564 -0.09727871 0.71877223 0.12489052 -0.16141002 0.03957668 -0.5106194 0.41336653 0.8643274 -0.12526841 -0.24883313 -0.27554125 0.089011855 0.19086193 -0.32451427 0.6705201
- -0.71047366 0.5438428 0.3846529 -0.49644744 0.14762954 -0.122379065 0.7099007 0.14823139 -0.1624585 0.085450254 -0.49172112 0.43799052 0.8782832 -0.13020462 -0.2542426 -0.2763015 0.08512284 0.2574683 -0.3621237 0.7294396
damage -0.6744214 0.4914189 0.3254529 -0.53983474 0.17501627 -0.09936702 0.7150811 0.15938851 -0.11051906 0.014571113 -0.49968076 0.36735797 0.9078561 -0.14123756 -0.2153457 -0.2966601 0.088054925 0.25551596 -0.31866148 0.6451048
plasma -0.6358852 0.53522956 0.32684633 -0.551994 0.17342755 -0.08618833 0.7146948 0.14390141 -0.13344811 0.010067379 -0.52239174 0.35950384 0.90185446 -0.14361916 -0.26025048 -0.31237286 0.11227271 0.2657124 -0.29895404 0.66184145
blood -0.66731125 0.51475275 0.35706183 -0.5176547 0.19490372 -0.13037165 0.7240506 0.12740639 -0.11257924 0.022915838 -0.5211529 0.36680827 0.871598 -0.1594185 -0.26110986 -0.3028024 0.12748314 0.24935521 -0.31304228 0.67482036
? -0.6368626 0.50303906 0.32925233 -0.47265825 0.2028209 -0.10615092 0.61384225 0.14340931 -0.112673365 0.030991746 -0.4456164 0.34073082 0.78903025 -0.084528536 -0.21989718 -0.30746973 0.08328142 0.26068273 -0.33165476 0.62537247
involved -0.6797424 0.54783463 0.34883338 -0.567023 0.19552761 -0.08960757 0.72656447 0.1533998 -0.13928986 0.031871963 -0.5410825 0.38025665 0.9497404 -0.128234 -0.27429613 -0.31539816 0.13507368 0.25951785 -0.35086924 0.69516927
attenuates -0.67481 0.51502955 0.3800556 -0.5383181 0.21646515 -0.13171807 0.695619 0.12702624 -0.12562898 0.029786844 -0.522271 0.3581181 0.8802957 -0.14480917 -0.25962964 -0.2997033 0.12328536 0.28872868 -0.33962485 0.6641151
biological -0.6264003 0.5290087 0.35137326 -0.5262916 0.1774623 -0.0883297 0.6534595 0.09882522 -0.14477941 0.022915423 -0.48404527 0.37787062 0.8345467 -0.11351474 -0.21194154 -0.3008732 0.062068842 0.23456082 -0.31950256 0.6663408
hepatic -0.6528901 0.5309794 0.3676814 -0.53391254 0.20791425 -0.09274255 0.7091504 0.16848281 -0.11168994 0.042241205 -0.5330213 0.35619432 0.9184571 -0.1364738 -0.2609981 -0.2789977 0.12822889 0.24598521 -0.3092752 0.6589072
syndrome -0.61178666 0.5113203 0.3550812 -0.48254067 0.1667597 -0.13000073 0.6561712 0.15057309 -0.101851225 0.018412229 -0.45933482 0.3146974 0.8329415 -0.10883609 -0.23100099 -0.26218927 0.071510285 0.27542895 -0.2908098 0.6417156
enzymes -0.6484548 0.5643292 0.34741178 -0.52295446 0.1976516 -0.11910035 0.7253259 0.16357477 -0.12643522 0.014915343 -0.50227046 0.34735835 0.8809528 -0.111246064 -0.21511528 -0.30798593 0.09165389 0.21278486 -0.33965442 0.6429339
injury -0.63480675 0.48161873 0.3137554 -0.5073648 0.19317679 -0.09812049 0.6722391 0.13674714 -0.09803375 0.007829922 -0.48947665 0.35094717 0.8317311 -0.13025886 -0.23133212 -0.2825619 0.09713597 0.2551257 -0.31833494 0.6190576
mutation -0.6818668 0.5586061 0.34178868 -0.5573209 0.21637683 -0.10413599 0.6925511 0.17470808 -0.13571215 -0.0013820488 -0.5133047 0.3486594 0.92219996 -0.13020968 -0.23844913 -0.3012884 0.097068936 0.2541836 -0.34552726 0.6526253
oxidase -0.63347334 0.52056277 0.31226203 -0.52771324 0.1818529 -0.12388748 0.6696737 0.108026005 -0.116219915 0.015209343 -0.513824 0.35510078 0.8789294 -0.13387927 -0.24126656 -0.2775333 0.12385105 0.24139167 -0.3195574 0.63802326
enhances -0.69256014 0.5385336 0.33891532 -0.53506935 0.21808568 -0.13049121 0.7184202 0.12950659 -0.13160495 0.009264232 -0.5220961 0.3573758 0.8830391 -0.12894666 -0.21754682 -0.29292172 0.121605255 0.28080988 -0.3218069 0.7028226
chronic -0.6448358 0.50934005 0.33142197 -0.5048973 0.19206066 -0.12233382 0.654085 0.14950658 -0.14665212 -0.012421253 -0.48275015 0.3217287 0.83653957 -0.13544647 -0.20672409 -0.27587214 0.07898347 0.24726282 -0.29155263 0.6168855
isolated -0.66845876 0.5250424 0.37399748 -0.5408717 0.21868 -0.08508659 0.70276546 0.123081125 -0.1614798 0.021229075 -0.4906392 0.3760374 0.88132644 -0.101659335 -0.2088667 -0.3168419 0.10615437 0.2716949 -0.32305598 0.6529375
administration -0.61667347 0.49384144 0.3101574 -0.50059295 0.18901396 -0.10750704 0.6489522 0.11054556 -0.1105116 -0.0016407851 -0.46844816 0.32087722 0.8260283 -0.1029928 -0.22603375 -0.25450924 0.11705286 0.21690826 -0.3019235 0.6247076
+ -0.7249069 0.5214178 0.39448738 -0.5089661 0.1636967 -0.12864281 0.72455305 0.15949467 -0.1449426 0.15551127 -0.4311667 0.4781983 0.897336 -0.14190683 -0.26230615 -0.2870494 0.085573524 0.26353437 -0.41733322 0.74490297
protects -0.6804042 0.55296963 0.37294635 -0.5582795 0.20113902 -0.09647403 0.7506743 0.12408651 -0.11432017 0.014563365 -0.5409503 0.35841623 0.95089394 -0.15792824 -0.2861013 -0.30122054 0.1355206 0.31100196 -0.37461907 0.70600295
I -0.6326075 0.5140958 0.3492972 -0.5153653 0.20466109 -0.087355 0.6502288 0.13074003 -0.10064064 0.04926368 -0.4482598 0.36600676 0.82957566 -0.10967161 -0.22057226 -0.26752806 0.0673352 0.26058346 -0.30935892 0.6396741
structure -0.5859718 0.4839625 0.33022094 -0.48193994 0.15278555 -0.05782337 0.65529835 0.12257738 -0.13426964 0.017023522 -0.47979736 0.31222048 0.7973346 -0.1366187 -0.17712969 -0.22056368 0.1064495 0.17833617 -0.28082055 0.6026692
reduces -0.6312522 0.51732767 0.3336719 -0.5177281 0.20628276 -0.106711686 0.712749 0.11162965 -0.14378716 0.040950786 -0.52014375 0.39729682 0.9140969 -0.12519412 -0.24904393 -0.28939542 0.09865042 0.25168574 -0.3270639 0.66364723
amino -0.65644276 0.54339457 0.3535276 -0.5527574 0.21834792 -0.08731774 0.71219414 0.15883987 -0.1458693 0.06519454 -0.5082585 0.37968567 0.87719774 -0.15637802 -0.21253388 -0.2997292 0.07448221 0.28233278 -0.3571972 0.68644935
responses -0.6560373 0.5438973 0.3572077 -0.52244365 0.22395 -0.123666584 0.68206096 0.15006408 -0.10498961 0.022014929 -0.5404984 0.37297776 0.89856005 -0.1096024 -0.24469312 -0.32516187 0.10673979 0.29263875 -0.34571815 0.65067023
interactions -0.63730794 0.51558733 0.3224181 -0.5038856 0.1990013 -0.10873875 0.6733532 0.15594825 -0.14171126 0.025434539 -0.48215944 0.32765284 0.86174464 -0.106969535 -0.25157082 -0.30333337 0.11483754 0.22359595 -0.3160816 0.65396947
or -0.7282878 0.56739205 0.36473545 -0.58891886 0.22763158 -0.11225057 0.7429564 0.15958919 -0.12239946 0.012736189 -0.5523562 0.36250618 0.9375559 -0.15677933 -0.24800248 -0.35466567 0.11097286 0.3028863 -0.3219742 0.7346182
transcription -0.6270653 0.4895643 0.33163607 -0.52593017 0.19641337 -0.10609316 0.6661982 0.1483534 -0.13426256 0.015821368 -0.49753886 0.34731624 0.87969005 -0.12534472 -0.21475011 -0.31805274 0.08184811 0.27742 -0.34269756 0.6388061
but -0.6412612 0.5413533 0.38925236 -0.49048615 0.16860859 -0.09059826 0.6701516 0.14119689 -0.10096748 0.011172285 -0.49771363 0.3317922 0.90201926 -0.08256067 -0.2531664 -0.30474496 0.07422761 0.27628493 -0.34264418 0.6330271
development -0.6582041 0.53572124 0.32009885 -0.53170097 0.15916431 -0.117059484 0.6864517 0.11735673 -0.14390461 0.008013246 -0.4825078 0.37701166 0.85516495 -0.11105699 -0.21243255 -0.27345246 0.073492564 0.23598468 -0.2930973 0.65936106
C -0.5881089 0.4777509 0.34795585 -0.51582664 0.15735517 -0.11355973 0.6047638 0.14536798 -0.096995495 0.024970181 -0.47068524 0.3162144 0.78035563 -0.08502452 -0.1974244 -0.28267285 0.07653961 0.25783288 -0.2979349 0.6139065
allosteric -0.66514903 0.56463146 0.3809772 -0.5410953 0.17411038 -0.12897867 0.66116923 0.13678205 -0.13780008 0.0065711653 -0.49441162 0.34146285 0.8450695 -0.12067802 -0.20616372 -0.2715428 0.07431021 0.2459419 -0.33745557 0.6463547
complex -0.6354902 0.54137766 0.327009 -0.49574462 0.17912197 -0.07997336 0.67003614 0.1398654 -0.13351698 0.03271394 -0.47338754 0.36306915 0.8283806 -0.11715385 -0.21290225 -0.25763842 0.09349076 0.26102206 -0.3159049 0.66452456
inhibitory -0.5982071 0.5104279 0.357292 -0.5088325 0.18804756 -0.07861087 0.66519296 0.09947645 -0.14447573 0.04778634 -0.46232986 0.36544728 0.8497327 -0.118672356 -0.2327268 -0.27559525 0.0833951 0.24281849 -0.28795013 0.63485384
profile -0.5547424 0.4483819 0.33306658 -0.4718068 0.16494115 -0.11075805 0.59206784 0.12428483 -0.09245249 0.01157419 -0.43693843 0.3339826 0.7614207 -0.09560662 -0.1814979 -0.28410065 0.055954684 0.24418895 -0.28363797 0.5875897
Pharmacological -0.4591325 0.3974326 0.24394052 -0.37417886 0.1510342 -0.09572604 0.51530427 0.07936065 -0.07590363 -0.008218324 -0.3559608 0.27680388 0.6161422 -0.07483806 -0.14864492 -0.20443772 0.07015024 0.2131985 -0.25272357 0.5068489
monoamine -0.63752735 0.52052593 0.32320306 -0.5170406 0.17513391 -0.09819641 0.6728727 0.10391743 -0.11519153 -0.004282357 -0.46957693 0.3425209 0.8307802 -0.13007618 -0.23110949 -0.30380496 0.0721892 0.22727853 -0.30025226 0.65731037
oxide -0.57791996 0.48931077 0.33016577 -0.48332986 0.1519423 -0.096539326 0.656653 0.110106826 -0.10751551 -0.0002343436 -0.43319142 0.31273136 0.79469043 -0.08143829 -0.23869367 -0.3052811 0.07500324 0.23257439 -0.31463307 0.6231395
pharmacology -0.54540056 0.50635034 0.30445018 -0.48110762 0.14565282 -0.1162984 0.6244215 0.12809776 -0.119953334 0.020410284 -0.43473244 0.30931807 0.7705978 -0.091923304 -0.22720735 -0.22962788 0.08926976 0.20795512 -0.29011437 0.6111043
Comparison -0.558528 0.42344934 0.2999021 -0.42186505 0.14644012 -0.09627797 0.5634226 0.08398264 -0.084366605 0.0021178098 -0.40495825 0.2950346 0.70788795 -0.08385032 -0.20796068 -0.22943516 0.08297885 0.21307378 -0.28910318 0.52828735
recombinant -0.5933716 0.51079303 0.33558133 -0.5161986 0.18524483 -0.09751902 0.70763475 0.15044852 -0.121324226 0.01866863 -0.515171 0.34739232 0.8186169 -0.12767993 -0.21291403 -0.26734284 0.111645035 0.20736913 -0.3369936 0.663697
Molecular -0.5021946 0.4034057 0.29696298 -0.40418017 0.15856665 -0.107791595 0.5639838 0.09807837 -0.06956509 0.00889516 -0.38513932 0.254578 0.6705415 -0.08820758 -0.18836792 -0.22987352 0.0843081 0.19620551 -0.23964444 0.52841806
domain -0.63685876 0.55352587 0.37182975 -0.52982175 0.19052836 -0.13035525 0.7011976 0.13423488 -0.098813795 0.011795753 -0.48345965 0.3561831 0.860249 -0.1288376 -0.23887385 -0.26689178 0.10648996 0.2561617 -0.332086 0.68660545
agonists -0.61331093 0.4813993 0.33807337 -0.4914847 0.18870391 -0.12191053 0.63243246 0.095711954 -0.11865949 0.02050535 -0.43192503 0.32006386 0.8071445 -0.11848712 -0.22478276 -0.29491186 0.08791803 0.2348683 -0.29188487 0.6045324
norepinephrine -0.63815176 0.5034782 0.34564394 -0.49214032 0.17678647 -0.09626926 0.65377885 0.12152552 -0.12033878 0.0068077287 -0.47167972 0.32977563 0.8197368 -0.119039975 -0.21051355 -0.28711796 0.09449064 0.24135445 -0.3361924 0.6264089
Human -0.6130587 0.50641435 0.36890626 -0.5019378 0.20990935 -0.090535425 0.63927203 0.113208875 -0.09408735 0.0026373127 -0.46661037 0.32966116 0.8470109 -0.092590645 -0.23587057 -0.26572877 0.09211943 0.27405247 -0.30539995 0.6451248
antioxidant -0.5866102 0.48486385 0.33943817 -0.48996633 0.17468376 -0.101603016 0.63732725 0.102968 -0.10385648 0.030641824 -0.48614252 0.32765618 0.7929102 -0.12558958 -0.22094333 -0.24831946 0.0863775 0.23283596 -0.28101143 0.621513
inhibit -0.66134167 0.5214669 0.38551325 -0.53592634 0.22338027 -0.09477369 0.6921252 0.1164735 -0.124370046 0.010176713 -0.5129077 0.34160507 0.8432005 -0.10335348 -0.22060668 -0.30444926 0.091393284 0.267807 -0.33370924 0.66281396
analogues -0.52924573 0.42399174 0.31553096 -0.43106982 0.17009385 -0.07915018 0.5941714 0.09006242 -0.086116396 -0.013198525 -0.42719117 0.3189871 0.7174881 -0.11726996 -0.18003722 -0.24857076 0.09075452 0.21522321 -0.29865062 0.56101924
neurons -0.62468433 0.4826378 0.32636935 -0.49624267 0.18709385 -0.10073773 0.63867354 0.16686782 -0.131397 -0.017277038 -0.51089317 0.31887162 0.8672722 -0.10110956 -0.20172629 -0.2999165 0.10889534 0.2347226 -0.3270536 0.63473684
acetylcholinesterase -0.5920701 0.48530117 0.3355736 -0.44930282 0.16127045 -0.08587951 0.6255252 0.1384228 -0.11572146 0.0073252493 -0.46369523 0.3689559 0.78882706 -0.1013763 -0.22845452 -0.25474674 0.099648334 0.21713935 -0.32060665 0.63593036
bone -0.66963214 0.51536137 0.353302 -0.52595496 0.18160245 -0.13349779 0.6775696 0.12042181 -0.11663316 -0.004073788 -0.50921416 0.37956727 0.8578773 -0.12041389 -0.20987538 -0.2951944 0.114853494 0.27207932 -0.3131744 0.6780704
formation -0.65164846 0.54875815 0.3354435 -0.5541359 0.19843769 -0.11166204 0.68615574 0.15335062 -0.14492403 0.02225884 -0.51817304 0.33816603 0.89442736 -0.10748554 -0.2137591 -0.29667854 0.082438625 0.25314093 -0.32566327 0.67185265
Evaluation -0.52049935 0.42695087 0.26452842 -0.4059187 0.1424212 -0.09171128 0.5758555 0.093922846 -0.09132772 0.008459661 -0.38348302 0.3048155 0.67355675 -0.11157471 -0.16423456 -0.22729841 0.046655644 0.17625308 -0.23779255 0.5155743
nitric -0.57231325 0.4947081 0.34993613 -0.47382426 0.17011279 -0.119857915 0.66012305 0.13966104 -0.07654136 -0.014906664 -0.46736044 0.337826 0.7883688 -0.11415241 -0.2376451 -0.25169137 0.09728566 0.27027953 -0.31657937 0.5844657
suppression -0.6487614 0.5303908 0.3485809 -0.5079524 0.21475993 -0.0836862 0.70733136 0.15467846 -0.13982597 0.030855 -0.5048242 0.37790212 0.852111 -0.14310406 -0.24517976 -0.26729593 0.09433746 0.26653507 -0.32521784 0.6442774
serum -0.6424025 0.5537129 0.36904448 -0.51567835 0.20711711 -0.13809009 0.6673525 0.13132739 -0.1231325 -0.0017723634 -0.52271515 0.35446194 0.8679965 -0.1311943 -0.22790655 -0.2961433 0.089233905 0.25519705 -0.29364982 0.67741096
humans -0.54421246 0.43393692 0.27349892 -0.45687002 0.16301614 -0.08666898 0.5908694 0.14148185 -0.1001758 0.04039892 -0.40454495 0.29592758 0.73305863 -0.09939382 -0.19129907 -0.23031898 0.08759392 0.2267728 -0.27384177 0.5584745
-- -0.65668887 0.53826106 0.37866855 -0.5225716 0.17892137 -0.11586905 0.69737613 0.13600871 -0.10988022 0.010539663 -0.47055835 0.32017857 0.879581 -0.10047326 -0.22219887 -0.2807604 0.06447337 0.27766347 -0.3160419 0.6608646
enzyme -0.61808306 0.5268908 0.35996696 -0.5216767 0.18756114 -0.13088939 0.65427953 0.14856036 -0.10732532 0.006906865 -0.47186583 0.32696405 0.8385997 -0.11240988 -0.22648883 -0.28142062 0.09204204 0.2726681 -0.31257123 0.6247615
into -0.6170461 0.48565322 0.3125323 -0.5048104 0.18849067 -0.08494537 0.6790562 0.15263513 -0.120406374 0.028098999 -0.4827065 0.34126827 0.8014973 -0.10832965 -0.23900284 -0.27620935 0.10747671 0.23018232 -0.31853786 0.5961007
induction -0.5797514 0.5005301 0.32532638 -0.501536 0.19795522 -0.09833235 0.62973034 0.12881531 -0.11517001 0.021465085 -0.49194607 0.341958 0.8114167 -0.13802369 -0.23425241 -0.25230318 0.08179512 0.23066384 -0.28182614 0.6173389
death -0.6449365 0.5091398 0.3291884 -0.5569222 0.2178591 -0.10243025 0.72007734 0.15133487 -0.13254897 0.015678125 -0.5491707 0.33354378 0.8804391 -0.12877144 -0.24309619 -0.27014118 0.10070431 0.28957865 -0.3158394 0.6702401
pathways -0.57421935 0.46054628 0.28185225 -0.48589358 0.1926235 -0.12684688 0.6067808 0.1252427 -0.093263164 -0.00013596308 -0.45446387 0.32128918 0.7431751 -0.1345607 -0.20614085 -0.24731751 0.068226926 0.2572297 -0.31857333 0.5793891
two -0.59781617 0.5206343 0.32620236 -0.4921679 0.19193478 -0.07292866 0.6610322 0.11992759 -0.122108385 0.032201886 -0.4682607 0.33875644 0.82126534 -0.14348651 -0.24103127 -0.28122324 0.104214825 0.2073709 -0.2834862 0.64187825
3 -0.6783488 0.5024783 0.34425223 -0.5182664 0.16967271 -0.13504323 0.7139679 0.1525822 -0.14107393 0.072591 -0.45962238 0.37198058 0.8919824 -0.12968762 -0.23407722 -0.30911693 0.07523511 0.24079332 -0.37030384 0.726568
compounds -0.62885463 0.5343187 0.3563292 -0.49402648 0.20048134 -0.10352237 0.69016415 0.12601018 -0.09339742 0.029115506 -0.47348577 0.3348059 0.8392302 -0.099515215 -0.21580312 -0.27621457 0.10228722 0.27727804 -0.31323874 0.6213733
prostate -0.5887311 0.48450327 0.28930807 -0.44170314 0.15423602 -0.099051274 0.64128184 0.12832189 -0.137183 -0.010073748 -0.4768635 0.34326565 0.80017674 -0.1338038 -0.21344517 -0.25536165 0.089446105 0.24219888 -0.2702934 0.5855585
Differential -0.481231 0.40993297 0.26121312 -0.4284594 0.15195726 -0.09234329 0.5476186 0.13208634 -0.092874035 -0.007003087 -0.39912766 0.2828406 0.6716775 -0.099039495 -0.1980576 -0.22115216 0.094310395 0.22592625 -0.23017053 0.52691984
modulates -0.596893 0.511505 0.3279197 -0.4956881 0.16915807 -0.1297796 0.6280921 0.12492501 -0.09990958 0.037731335 -0.47677842 0.34304416 0.8580047 -0.14540498 -0.23340864 -0.3019823 0.07820379 0.23828624 -0.3238343 0.5991136
therapeutic -0.5781647 0.4895598 0.33215877 -0.43501997 0.17720287 -0.12703203 0.61674035 0.09672102 -0.08434608 -0.025000362 -0.4520945 0.32545123 0.7445624 -0.08301491 -0.18650438 -0.24556115 0.07297506 0.25583947 -0.29812968 0.61231124
suppresses -0.58272123 0.5068863 0.3471434 -0.5225072 0.1637121 -0.07915661 0.69088733 0.1412039 -0.13999633 0.007782669 -0.5118769 0.36469704 0.8284809 -0.11276155 -0.21839003 -0.28003612 0.12186811 0.2443036 -0.33209947 0.6051495
healthy -0.56608135 0.4262845 0.32670927 -0.47105753 0.1527849 -0.097726054 0.5816857 0.13574363 -0.0777358 -0.017782392 -0.42037097 0.29585597 0.75715846 -0.09383911 -0.1784269 -0.23247667 0.102785185 0.24470851 -0.25436184 0.5660728
cortex -0.60970706 0.48022494 0.28059384 -0.47810894 0.18593258 -0.08440647 0.69069344 0.15414312 -0.14412397 0.011624581 -0.49334964 0.33814994 0.83839077 -0.13335846 -0.21241282 -0.24834533 0.08275852 0.21843962 -0.31758755 0.61444086
implications -0.59047025 0.48377618 0.33504692 -0.48004252 0.1871586 -0.1198967 0.637377 0.1345544 -0.13600674 -0.0052479077 -0.45647478 0.31759316 0.7837253 -0.09839521 -0.22764632 -0.274353 0.1052624 0.20383729 -0.3055211 0.59814423
increase -0.6507828 0.522469 0.35065562 -0.54150605 0.21132538 -0.12618515 0.6554325 0.11176639 -0.12940577 -0.006729633 -0.48256275 0.3408697 0.8577972 -0.13799733 -0.21712828 -0.27307636 0.113073684 0.26260236 -0.29493895 0.62511283
mRNA -0.6155111 0.5144463 0.32800895 -0.49352822 0.19397868 -0.113202296 0.7016188 0.14948596 -0.1408317 0.039101534 -0.5097653 0.37457022 0.86355907 -0.16395198 -0.24217325 -0.2740791 0.09479144 0.23928311 -0.30227515 0.6369562
vascular -0.6408047 0.50231 0.34220973 -0.51901877 0.20540215 -0.08556621 0.685184 0.14975917 -0.11996479 0.009704867 -0.5333036 0.34622884 0.8512524 -0.14526124 -0.22054903 -0.29513445 0.085052066 0.28547406 -0.32607025 0.6674801
active -0.6113767 0.4843091 0.3044704 -0.4731595 0.18363652 -0.12321966 0.6217315 0.107677445 -0.10162361 0.026813112 -0.46892774 0.331355 0.8126951 -0.112756275 -0.20476711 -0.25318727 0.10149167 0.24925828 -0.29865628 0.5952222
risk -0.5594232 0.4745643 0.3054235 -0.44842774 0.18528587 -0.08666691 0.6324971 0.109999605 -0.09619447 0.025292417 -0.43056855 0.2843767 0.73603266 -0.11790626 -0.21339379 -0.23957585 0.07577679 0.24325153 -0.28639126 0.57854867
cardiac -0.5960505 0.4636232 0.32238513 -0.44375184 0.1533466 -0.10381396 0.61968756 0.1380468 -0.11761196 0.032216195 -0.46500248 0.3163503 0.7871778 -0.12921374 -0.2215637 -0.2553027 0.06331566 0.22976582 -0.31484625 0.56859636
cytochrome -0.59534264 0.51787454 0.3551383 -0.4884495 0.14881527 -0.08025504 0.6577083 0.11049213 -0.13961215 0.010856348 -0.4749272 0.32584795 0.830844 -0.13597524 -0.20299993 -0.29741997 0.08289787 0.24680407 -0.27636823 0.6209505
weight -0.59157413 0.45341185 0.31682885 -0.4691634 0.19104165 -0.103159204 0.5934331 0.097248 -0.0987016 0.021963384 -0.41336507 0.30931377 0.7691057 -0.12750258 -0.2192002 -0.2871314 0.09235568 0.2599295 -0.25994298 0.5864552
peptide -0.64515406 0.5217935 0.36895844 -0.5405764 0.17147443 -0.09589961 0.6812803 0.12514131 -0.10971265 0.0067044618 -0.49221516 0.36814043 0.8262667 -0.13030486 -0.24167472 -0.29599473 0.11851801 0.26657462 -0.34530112 0.6413426
cycle -0.59556776 0.45279226 0.29458642 -0.511489 0.17670923 -0.10276712 0.6260351 0.13973239 -0.09369489 -0.0024354036 -0.4613153 0.3134196 0.79799265 -0.10666031 -0.2089579 -0.25550732 0.110654525 0.26395565 -0.29333836 0.5610549
differentiation -0.56869096 0.49293 0.32735398 -0.51668537 0.20142025 -0.10334537 0.61607456 0.14837149 -0.123815276 0.015167765 -0.49060783 0.31446636 0.8182568 -0.124398805 -0.22043061 -0.25913408 0.119568914 0.26648223 -0.28248024 0.5953816
4 -0.64370656 0.52389926 0.37694636 -0.52014524 0.18802698 -0.11143316 0.6904865 0.14148991 -0.15135191 0.032558974 -0.46314225 0.38854545 0.8746946 -0.11506885 -0.21957573 -0.28299534 0.066821314 0.26119107 -0.33454797 0.66617554
transport -0.60954946 0.5189342 0.3238548 -0.5185951 0.20942168 -0.091354616 0.64852273 0.13409188 -0.09727713 0.020218503 -0.49696207 0.32530525 0.8401922 -0.1166122 -0.22624382 -0.30615023 0.121016406 0.28813112 -0.31386596 0.6106968
specific -0.5863047 0.53426474 0.3021953 -0.494335 0.16767424 -0.11296771 0.6723172 0.11232952 -0.1618627 0.0072958637 -0.5098429 0.34345117 0.8418054 -0.12709156 -0.21781601 -0.2506751 0.09195299 0.20641677 -0.28680593 0.628234
diabetic -0.61717975 0.48802942 0.31790176 -0.5074253 0.16072176 -0.121398054 0.63193494 0.122194834 -0.08836222 -0.0058874367 -0.44833183 0.29598615 0.7933481 -0.107810676 -0.23732975 -0.25820014 0.066211894 0.21939708 -0.26558006 0.6074007
agent -0.60177165 0.4792555 0.32950598 -0.4870771 0.1731452 -0.10432365 0.6127614 0.1229068 -0.0861675 -0.011022932 -0.41137618 0.30039147 0.780733 -0.098296456 -0.18650758 -0.2768661 0.074365474 0.22077122 -0.30022287 0.5976557
Discovery -0.48584536 0.43393397 0.29521036 -0.4118445 0.15399818 -0.0988078 0.54195136 0.09436469 -0.104403496 0.04627977 -0.38071477 0.25224394 0.66275173 -0.08867728 -0.17861538 -0.23190786 0.057168823 0.20785937 -0.2594501 0.52094525
murine -0.59766847 0.48493025 0.34818974 -0.48930937 0.19165327 -0.10350977 0.6676559 0.12987234 -0.0943149 -0.008796227 -0.5004101 0.3552044 0.83490723 -0.15592793 -0.21693078 -0.28816813 0.097481556 0.22465587 -0.30532825 0.6296025
5-HT -0.6207585 0.45510128 0.33147678 -0.46355373 0.14770995 -0.115466714 0.623805 0.14084522 -0.13931823 0.10362818 -0.4162307 0.39065215 0.7786341 -0.13671938 -0.19149572 -0.27837712 0.083081864 0.18298319 -0.29885373 0.6233758
surface -0.5012236 0.431754 0.30893505 -0.43259788 0.13320456 -0.06740986 0.5595816 0.13127291 -0.10031222 -0.008175213 -0.4238064 0.26154354 0.7067147 -0.08121411 -0.20539668 -0.241233 0.105463475 0.2247696 -0.26153198 0.5286083
D -0.6297504 0.48335922 0.33506846 -0.48001558 0.12980714 -0.100536406 0.64382136 0.13953811 -0.12595142 0.054508 -0.45876828 0.3576044 0.7791601 -0.096090466 -0.18262343 -0.28290144 0.08145235 0.19032517 -0.31392023 0.6095684
synthetase -0.5946073 0.4965495 0.32400477 -0.4792437 0.17299572 -0.10157712 0.6573687 0.111180566 -0.12335325 0.00013392506 -0.47309718 0.31308845 0.80695045 -0.12630542 -0.19735503 -0.26825285 0.08497399 0.24281412 -0.31957233 0.61811024
sites -0.5809976 0.44972876 0.328545 -0.48495805 0.15600066 -0.10151531 0.6212675 0.14614044 -0.119957566 0.025399765 -0.44636983 0.29852834 0.75273615 -0.13259012 -0.22592647 -0.2902672 0.080758825 0.2584719 -0.2721304 0.6134916
Selective -0.5153438 0.44499138 0.28875992 -0.4070112 0.16052666 -0.10424568 0.55434275 0.084599204 -0.10324907 -0.017019717 -0.3806878 0.26821962 0.7180026 -0.06516291 -0.21408331 -0.26068354 0.077830374 0.21711998 -0.26279134 0.5419179
regulatory -0.6188796 0.512032 0.3534401 -0.50006604 0.17422837 -0.10454212 0.638457 0.13321427 -0.14432494 0.03519478 -0.49019396 0.34051925 0.8344995 -0.14893462 -0.24647765 -0.2829655 0.12437782 0.23137017 -0.35571828 0.6506532
heart -0.5801945 0.46062618 0.2894793 -0.43852556 0.19628164 -0.11899999 0.60840154 0.13304229 -0.10304656 0.027268624 -0.46533418 0.33432063 0.7730087 -0.11986408 -0.18652739 -0.22844082 0.09843501 0.20199658 -0.27986464 0.5686414
reductase -0.57763183 0.46563244 0.35318208 -0.48661014 0.16552666 -0.10448054 0.61407703 0.1471882 -0.099069856 0.012026426 -0.47472072 0.31575677 0.7804048 -0.09294073 -0.20741928 -0.25397712 0.09693715 0.21464811 -0.31057596 0.6111929
improves -0.63189083 0.47988343 0.35961843 -0.50946224 0.20651147 -0.1127437 0.6609662 0.13582726 -0.13193004 0.007100624 -0.47252247 0.33391705 0.8322815 -0.118627556 -0.21226585 -0.28865767 0.09277527 0.28095147 -0.28540784 0.6186334
regulates -0.5673915 0.45654872 0.34656888 -0.48124698 0.18455777 -0.10958559 0.5822056 0.09646378 -0.113632485 0.002364464 -0.43801033 0.29975745 0.77400285 -0.09828723 -0.19045785 -0.25920177 0.10941224 0.26653132 -0.27512094 0.5683316
cholesterol -0.56332004 0.46059513 0.3503141 -0.4900572 0.17338395 -0.1197076 0.5972588 0.107217185 -0.1017163 -0.019955177 -0.43769437 0.31887767 0.7688428 -0.10489179 -0.21729808 -0.28515527 0.10808063 0.26350713 -0.31685778 0.6195103
dehydrogenase -0.62670135 0.48866805 0.35069284 -0.48201662 0.1934883 -0.08697529 0.60804456 0.10774089 -0.12530902 0.0165049 -0.4563718 0.31437078 0.7742861 -0.09077697 -0.22029422 -0.27455422 0.11003496 0.24151908 -0.31132627 0.61687785
Role -0.4914534 0.36911467 0.27046037 -0.38896272 0.1601565 -0.06785792 0.49576217 0.07569533 -0.09359636 -0.00055375515 -0.38483834 0.2804225 0.6356313 -0.11748522 -0.19868678 -0.23649506 0.09416995 0.1833695 -0.2255873 0.4892664
lipid -0.56124353 0.45789617 0.30866534 -0.45092943 0.1459845 -0.1118587 0.5842042 0.13500006 -0.09085889 0.018005585 -0.44733974 0.29527587 0.7268461 -0.12055356 -0.19381817 -0.25685886 0.09541789 0.23197488 -0.25506178 0.54421216
fatty -0.5820656 0.46457547 0.29493698 -0.46593696 0.19765738 -0.12384665 0.62923133 0.114216916 -0.10841207 -0.011944552 -0.45142668 0.30115652 0.792503 -0.0882587 -0.2207026 -0.27271357 0.11174592 0.2692489 -0.2687922 0.561134
carcinoma -0.5484023 0.45323926 0.26830962 -0.4535814 0.14620121 -0.079740204 0.60556936 0.10080667 -0.10964726 -0.009663856 -0.43645385 0.29052672 0.742551 -0.12655391 -0.22523734 -0.2481814 0.124564886 0.25663993 -0.29447496 0.5140253
anticancer -0.6271561 0.51885027 0.32499796 -0.46630457 0.19452646 -0.08283825 0.65176904 0.11157215 -0.106287405 -0.014734917 -0.44353133 0.3521105 0.7850949 -0.09987987 -0.20553565 -0.27809572 0.11832651 0.2509981 -0.31327927 0.60963833
T -0.6300561 0.5020579 0.33836523 -0.49415758 0.17383917 -0.107632525 0.62566334 0.11321653 -0.10081764 0.011288166 -0.45979702 0.33975708 0.7899571 -0.13180357 -0.2337331 -0.27231488 0.096058 0.2802701 -0.31358695 0.6033248
Receptor -0.6205946 0.46766216 0.35557657 -0.46343598 0.1497934 -0.10154173 0.58259344 0.10892774 -0.096987784 0.038835716 -0.46151593 0.30769616 0.77775717 -0.1139427 -0.21115406 -0.24393678 0.08379905 0.26390064 -0.3235102 0.5777157
dysfunction -0.5797564 0.45795265 0.32702157 -0.45609635 0.17599712 -0.08028761 0.59614295 0.13058217 -0.1292385 0.008621908 -0.44658136 0.31301466 0.7599602 -0.108147025 -0.21416146 -0.25214124 0.08042741 0.23000099 -0.28273788 0.58451664
phosphorylation -0.5959784 0.48860216 0.32832596 -0.46667343 0.17967866 -0.11988373 0.6540957 0.14589438 -0.10865518 0.026445104 -0.47486147 0.35681316 0.8249328 -0.09481011 -0.21697971 -0.27694902 0.08076512 0.24817789 -0.3238012 0.6277559
proliferation -0.5755649 0.4844745 0.32929176 -0.47598717 0.1681706 -0.07528832 0.659541 0.11725851 -0.12809129 -0.01753038 -0.49076673 0.3392077 0.83499765 -0.12819555 -0.22574738 -0.27730528 0.12840673 0.24646355 -0.29343665 0.61734456
glucose -0.6172733 0.48596367 0.32427445 -0.5252022 0.16456372 -0.117456466 0.64026517 0.11504516 -0.13540205 -0.017697789 -0.49712574 0.34279713 0.85654527 -0.126199 -0.2289931 -0.29819396 0.10674203 0.2575485 -0.2747166 0.6271858
neuronal -0.6018006 0.4540296 0.30146936 -0.46926507 0.18016842 -0.07403048 0.61546654 0.10840318 -0.119073845 -0.0013569379 -0.44589928 0.33269686 0.7935571 -0.1314529 -0.1929059 -0.26643386 0.07860366 0.23421037 -0.31347308 0.55996174
increases -0.557641 0.4871316 0.32039335 -0.4827552 0.18261732 -0.12218511 0.61076623 0.09603523 -0.091255195 0.03180853 -0.4473101 0.3071222 0.8025313 -0.11129517 -0.22254147 -0.26493934 0.07514015 0.26672494 -0.31104812 0.5699493
Design -0.4065186 0.373989 0.22429082 -0.34666902 0.120013714 -0.05883298 0.47723705 0.06590619 -0.050092723 0.011099649 -0.28782913 0.23801653 0.55334765 -0.08178533 -0.14043392 -0.19919395 0.04280436 0.15142572 -0.19098635 0.45318395
site -0.62107176 0.4986688 0.32638863 -0.5364419 0.19732952 -0.08791584 0.6522332 0.13037689 -0.11288663 0.0112877255 -0.48261294 0.3440254 0.8374339 -0.12471562 -0.22543278 -0.31817508 0.06915125 0.25501797 -0.29862687 0.6457533
Binding -0.49599275 0.3885276 0.2920768 -0.38956586 0.14644365 -0.081822835 0.4724372 0.091152996 -0.060647238 0.02867094 -0.35087186 0.2421917 0.63464576 -0.11143385 -0.18049856 -0.23709466 0.09042508 0.18164147 -0.24463733 0.49044585
subjects -0.5449434 0.4100869 0.26448068 -0.4134072 0.15197317 -0.11907337 0.52032334 0.116307266 -0.085893326 -0.020031074 -0.38623777 0.25709847 0.6583356 -0.11402416 -0.19210799 -0.23985618 0.087768234 0.2120722 -0.2688198 0.5050149
tissue -0.6042494 0.48033693 0.32564333 -0.47283122 0.18479753 -0.1033294 0.64079744 0.13914664 -0.0969103 0.019491784 -0.44818506 0.3236847 0.8034547 -0.1455321 -0.23476908 -0.288254 0.08165557 0.21791615 -0.29617912 0.59134626
An -0.5169752 0.41674387 0.26413396 -0.40244088 0.16911975 -0.100935586 0.47289056 0.118202634 -0.09494708 -0.028727813 -0.3616401 0.22958964 0.6726379 -0.0832658 -0.18667616 -0.2475478 0.060221728 0.24468873 -0.27039915 0.4877324
D2 -0.5656539 0.45804328 0.29887512 -0.4564067 0.15657166 -0.10247582 0.62522846 0.09580675 -0.108940296 0.041224767 -0.42780462 0.30863476 0.7624614 -0.09203142 -0.1705994 -0.27886167 0.107163854 0.22682758 -0.26789892 0.5733063
Protective -0.4180717 0.3292919 0.24327105 -0.33051234 0.12581238 -0.07544633 0.4633615 0.08585496 -0.10195182 0.0045020967 -0.33540568 0.24721158 0.5829855 -0.075866096 -0.17140901 -0.17636482 0.06015085 0.17668565 -0.23750027 0.46061793
P450 -0.61302835 0.4769729 0.3561274 -0.50513345 0.20169395 -0.082124665 0.6355038 0.101604715 -0.13109258 0.038628723 -0.44186136 0.3424624 0.8240364 -0.11741059 -0.18901753 -0.27861646 0.099423476 0.20636488 -0.31826663 0.59418947
Alzheimer -0.54329 0.4563444 0.26476222 -0.4079286 0.18227819 -0.11878668 0.58359355 0.07909756 -0.11313419 0.028831314 -0.45488995 0.2739723 0.7495922 -0.11565126 -0.18824022 -0.26176432 0.032589536 0.23497461 -0.23270524 0.5928589
identification -0.5844564 0.47654995 0.31724405 -0.46421918 0.18779747 -0.07079946 0.6295542 0.116500914 -0.103026114 0.006180734 -0.4695508 0.32099363 0.7651447 -0.091822885 -0.20323558 -0.26101106 0.088073626 0.20589395 -0.30100563 0.62772
polymorphisms -0.57579005 0.44705328 0.3147875 -0.44107297 0.16432707 -0.12418447 0.59918886 0.13259871 -0.087169506 -0.008241649 -0.43450478 0.32013837 0.74646586 -0.1264195 -0.22649468 -0.26387578 0.068641 0.25131196 -0.29852423 0.5866614
inflammation -0.5636259 0.4327712 0.29220355 -0.4641208 0.15353535 -0.109043054 0.5471321 0.10561757 -0.11012741 0.023855645 -0.42772946 0.3076327 0.7251472 -0.115275666 -0.20202896 -0.22870111 0.10801826 0.21642618 -0.29394755 0.5258437
targets -0.5412377 0.44329923 0.32508913 -0.44410747 0.19072424 -0.107412964 0.58288246 0.13666712 -0.09722333 0.002513496 -0.42256597 0.28908122 0.761134 -0.09594215 -0.22274807 -0.22997046 0.06231966 0.23402078 -0.27530822 0.56504214
polymorphism -0.5752131 0.47698984 0.3231932 -0.4500893 0.1394676 -0.07259244 0.6304627 0.096328 -0.11184625 0.05452164 -0.4377438 0.33721924 0.7758245 -0.11665085 -0.20137388 -0.24591026 0.11156997 0.19241464 -0.31511948 0.61471844
E -0.5556844 0.4609795 0.33930716 -0.450576 0.16158363 -0.077274345 0.5981699 0.14380035 -0.11912464 0.017184507 -0.43696642 0.29533517 0.7478833 -0.123723514 -0.18310635 -0.2591267 0.09767852 0.234009 -0.31365207 0.6040319
prostaglandin -0.58896387 0.46751767 0.34651285 -0.47688624 0.15064 -0.12401788 0.6077388 0.1180211 -0.10430121 0.00097162137 -0.43040207 0.30981675 0.7753942 -0.10157894 -0.21789122 -0.28046277 0.101544596 0.25529605 -0.30239993 0.6178429
treated -0.67288613 0.4844382 0.29765055 -0.49429506 0.21367827 -0.12299051 0.663911 0.13648039 -0.102451116 -0.0065999823 -0.49295187 0.3180764 0.8632486 -0.1008372 -0.26994872 -0.31441432 0.10390569 0.25657406 -0.2908232 0.6468564
Type -0.59166694 0.4693644 0.31966767 -0.49402228 0.183865 -0.12184328 0.64072794 0.13744277 -0.1076775 0.025705997 -0.44175726 0.3208698 0.7900153 -0.09022818 -0.23914891 -0.25829837 0.09672381 0.2379484 -0.31778577 0.62303454
mutations -0.5977602 0.44640535 0.29711446 -0.46940595 0.15488039 -0.107320406 0.62382346 0.11374429 -0.09862094 -0.009021066 -0.4330294 0.29534343 0.759739 -0.0977505 -0.20037064 -0.268277 0.113106266 0.21763794 -0.26537594 0.57829285
affinity -0.58514327 0.43854606 0.29493165 -0.4622265 0.16771503 -0.11151004 0.5987567 0.121908516 -0.11112951 0.0074662087 -0.43881777 0.30654082 0.7350936 -0.11301048 -0.22016746 -0.2650347 0.066545315 0.25112566 -0.2539508 0.56273663
design -0.52014893 0.4141751 0.28633192 -0.39426258 0.15331113 -0.058196466 0.55121493 0.10641647 -0.11503992 0.0039929985 -0.41159657 0.29068816 0.7121318 -0.101201504 -0.18461019 -0.21313633 0.058621507 0.20853199 -0.266093 0.5357726
genetic -0.542249 0.45014483 0.29574972 -0.4283911 0.16164397 -0.099246055 0.5634571 0.13311988 -0.11234496 -0.017834721 -0.41232783 0.28440896 0.7162265 -0.11342093 -0.17119613 -0.24469836 0.09476997 0.19953203 -0.2754678 0.5494454
based -0.5783449 0.46829748 0.29439887 -0.48014548 0.17079659 -0.08780177 0.59474736 0.10494055 -0.10129089 0.018832704 -0.4255169 0.3038221 0.74261993 -0.12051463 -0.22728914 -0.26642135 0.10505431 0.24292248 -0.29973587 0.5555759
extract -0.6160314 0.50297415 0.33159927 -0.4882023 0.17861266 -0.12418061 0.65799344 0.11803545 -0.11833933 0.02660474 -0.4864742 0.32645926 0.786089 -0.11954659 -0.21363425 -0.27567172 0.10181067 0.2446995 -0.283241 0.5914207
low -0.5638016 0.45282668 0.3053974 -0.45671397 0.20928119 -0.089602426 0.59907967 0.11934127 -0.08068302 0.018795598 -0.4327841 0.32092106 0.7537187 -0.0946352 -0.23157588 -0.26496908 0.0782033 0.24417128 -0.29522672 0.6079349
transporters -0.5021475 0.4076429 0.2823508 -0.42085525 0.14960302 -0.07853856 0.53465104 0.10490582 -0.115901954 0.025356386 -0.40760845 0.2547991 0.68853027 -0.08336297 -0.16565347 -0.21301065 0.09188717 0.2355733 -0.27995676 0.5446321
different -0.57562953 0.44997913 0.3225381 -0.49086252 0.1922364 -0.08283302 0.60074586 0.14871472 -0.087226555 0.022667306 -0.4432063 0.29582494 0.7615909 -0.111031905 -0.1937239 -0.25239354 0.092979774 0.2198372 -0.3184127 0.5729985
cyclooxygenase-2 -0.4854439 0.4316335 0.27915746 -0.39466485 0.1632253 -0.065794215 0.5291104 0.12159577 -0.10622225 -0.004734023 -0.38109007 0.27137074 0.6737049 -0.11128412 -0.20019884 -0.24098586 0.053113192 0.2220087 -0.28947312 0.5007367
review -0.5198648 0.44180122 0.26792225 -0.4033022 0.16502607 -0.07359606 0.5191053 0.087147474 -0.10998271 0.025234299 -0.3887698 0.25507614 0.6477906 -0.09794727 -0.16095753 -0.23158401 0.08576933 0.18304455 -0.27997038 0.5003294
extracellular -0.5566054 0.47548184 0.29974046 -0.44344845 0.1669857 -0.100971356 0.59609914 0.102072224 -0.09393151 0.013307142 -0.42529956 0.29477984 0.7881293 -0.096946195 -0.20245245 -0.24762082 0.0925188 0.21937352 -0.2763366 0.5768007
accumulation -0.5463342 0.42218912 0.28468898 -0.43019387 0.15701623 -0.06901817 0.55466634 0.11501451 -0.10609237 0.028688407 -0.44561273 0.30361623 0.72007406 -0.10881361 -0.21530934 -0.26051733 0.07342402 0.22533831 -0.26508617 0.5486387
mitochondrial -0.5777655 0.45308936 0.3206995 -0.4683995 0.1850533 -0.11735303 0.5901343 0.11115078 -0.10290419 0.017025 -0.4150155 0.3007291 0.78698933 -0.08914995 -0.20592882 -0.25531858 0.10361438 0.24049287 -0.29876363 0.6029243
membrane -0.5709676 0.44903722 0.30793735 -0.47203162 0.16316094 -0.07440614 0.6370471 0.13926136 -0.10739298 0.0032348607 -0.44929716 0.3094636 0.78832716 -0.102803215 -0.23153631 -0.27995685 0.10423799 0.21908672 -0.26792222 0.57356286
peripheral -0.5390321 0.42967623 0.29201698 -0.42519757 0.14398506 -0.11685283 0.5941639 0.1191162 -0.079632476 0.005187778 -0.4289088 0.30558416 0.72274387 -0.1075532 -0.2104034 -0.23257287 0.104714334 0.1953714 -0.2548189 0.5361235
experimental -0.60774124 0.4694777 0.32107773 -0.47843108 0.20285536 -0.096869744 0.5984699 0.102334455 -0.09208717 -0.0023504158 -0.46931872 0.30314416 0.79460853 -0.12542835 -0.19275741 -0.24292691 0.085782476 0.2698846 -0.27197957 0.5669212
anhydrase -0.51710725 0.44802746 0.27597454 -0.4198291 0.1506317 -0.09918556 0.54401106 0.12042471 -0.1109525 0.027743734 -0.40321586 0.29734161 0.66568553 -0.1159352 -0.16844231 -0.23373063 0.068872094 0.19322108 -0.29338983 0.53411907
antagonism -0.51290524 0.4193538 0.27866435 -0.42707384 0.13475475 -0.11977983 0.5450189 0.110751435 -0.076304115 -0.001961628 -0.3846945 0.29030177 0.7216742 -0.08981714 -0.17143685 -0.24332559 0.085547715 0.21844073 -0.28637806 0.53446674
sensitivity -0.5232549 0.4371832 0.28610352 -0.4136146 0.1453273 -0.07882894 0.5464505 0.09263106 -0.10380398 0.013864654 -0.42129472 0.27299222 0.68451715 -0.12035407 -0.18256909 -0.24399184 0.0715424 0.23375289 -0.23591036 0.50107867
pancreatic -0.5594038 0.45060056 0.2994096 -0.45201525 0.16995187 -0.07314872 0.57762676 0.099169314 -0.12222995 -0.0041976795 -0.437955 0.2859943 0.745917 -0.11252918 -0.1997711 -0.23541544 0.064138815 0.24158406 -0.27908632 0.5703607
mediates -0.5966286 0.43409738 0.3336039 -0.44726822 0.15200903 -0.08915427 0.6005287 0.10221826 -0.116873875 0.006459364 -0.45655182 0.30195692 0.7771706 -0.1053428 -0.20389296 -0.27593496 0.08847375 0.26817286 -0.276425 0.5741685
metabolites -0.47363517 0.40512162 0.24550265 -0.39111432 0.16257784 -0.052328568 0.53059024 0.113093875 -0.11622833 0.0011308269 -0.38136148 0.28771305 0.6573566 -0.08456663 -0.18296175 -0.19200005 0.06281059 0.16883285 -0.22924641 0.4949962
other -0.565271 0.47422448 0.32660207 -0.46816868 0.17383857 -0.111127034 0.5693835 0.117832325 -0.077149786 0.020493697 -0.4357202 0.31170952 0.72856486 -0.12050861 -0.21675964 -0.27095926 0.08458165 0.22838964 -0.27994782 0.59210855
essential -0.6021713 0.52120024 0.31664318 -0.4636406 0.18110104 -0.099515446 0.6540365 0.10744295 -0.10683672 -0.025792813 -0.45153296 0.29653832 0.82463706 -0.107258126 -0.22402862 -0.2944966 0.1026494 0.23867162 -0.28690648 0.6289309
glutathione -0.5348305 0.4240648 0.2967487 -0.44108835 0.1783953 -0.11669216 0.5699457 0.11276484 -0.09598033 -0.007658019 -0.4082074 0.30680665 0.77158433 -0.108018085 -0.18640019 -0.26786372 0.097756594 0.20463176 -0.30582353 0.57721454
required -0.58789176 0.4687308 0.3206382 -0.4857049 0.15512735 -0.12871747 0.58249676 0.10908728 -0.11981019 0.013929903 -0.43496013 0.31846753 0.76155037 -0.084523864 -0.21747917 -0.24518704 0.08016503 0.2426361 -0.29758704 0.6054596
chemical -0.6010099 0.4550748 0.3063853 -0.49241576 0.17985733 -0.08440892 0.6176804 0.106072664 -0.12173702 -0.012571626 -0.46874055 0.3304364 0.76932657 -0.11262021 -0.20135644 -0.2559393 0.076662414 0.23720692 -0.30444247 0.62093383
acids -0.5442044 0.4364992 0.30518568 -0.44896758 0.15644898 -0.09037754 0.59458935 0.099409655 -0.122193776 0.022415403 -0.4039705 0.30730158 0.761973 -0.08111273 -0.20380582 -0.26854485 0.10408971 0.23766005 -0.27972114 0.53972656
block -0.56129414 0.44510898 0.3333 -0.45845434 0.14537346 -0.10731483 0.5707649 0.12874882 -0.09928663 0.0025725802 -0.44309375 0.31317422 0.75773317 -0.105716236 -0.19712895 -0.25752768 0.08614288 0.22531173 -0.29521385 0.581942
Structural -0.4064547 0.36243138 0.26057592 -0.37753996 0.14366066 -0.0640657 0.45202926 0.100499585 -0.064610675 0.012785617 -0.33257422 0.22565518 0.5577659 -0.061876923 -0.17126109 -0.19995613 0.056078114 0.18681894 -0.18881573 0.43556422
structural -0.49184513 0.45147115 0.26671338 -0.40988937 0.17193821 -0.10209119 0.5386927 0.115579866 -0.0948994 0.039634123 -0.37003934 0.26185748 0.6729494 -0.104577325 -0.19217044 -0.23514614 0.06935569 0.20529604 -0.238966 0.51480645
relationship -0.5457857 0.46199563 0.2946926 -0.41776475 0.14519286 -0.064186655 0.55463624 0.13154559 -0.098592564 0.0461559 -0.39348617 0.3195392 0.73148173 -0.091165446 -0.16502889 -0.22546682 0.09152009 0.23008326 -0.26591012 0.5308839
assessment -0.5681458 0.44617158 0.2705361 -0.47236955 0.1888135 -0.06884185 0.60630345 0.10515343 -0.11600707 0.030469587 -0.4215103 0.30525333 0.7658696 -0.09826401 -0.21406184 -0.22846295 0.061011527 0.19767687 -0.28795332 0.58825177
Activation -0.47938022 0.3569753 0.2878458 -0.39782462 0.1614631 -0.09178696 0.47056547 0.07577505 -0.0965647 0.022783976 -0.36057955 0.22767314 0.6319435 -0.07183127 -0.15238361 -0.2078451 0.07035543 0.18317486 -0.22078617 0.48054487
gastric -0.5827098 0.4496154 0.2864496 -0.4737939 0.16304316 -0.109132454 0.603133 0.11284973 -0.11441874 0.004364451 -0.44360223 0.34459153 0.77185655 -0.114958115 -0.22567318 -0.26403883 0.09940489 0.23374285 -0.2971228 0.5878437
Cells -0.45159847 0.3811241 0.25479525 -0.38179314 0.15682073 -0.08877842 0.44257987 0.08359759 -0.058636256 -0.019860907 -0.3357269 0.25258735 0.6024763 -0.06116386 -0.16232386 -0.22174734 0.09295753 0.21861565 -0.21024802 0.45473582
Protein -0.5491912 0.4296879 0.2969107 -0.450028 0.19188543 -0.10831853 0.56141293 0.11513699 -0.08453204 0.020658279 -0.40056163 0.27249417 0.72540027 -0.10696659 -0.1827995 -0.2599753 0.09144091 0.2260604 -0.24356146 0.5501621
phase -0.61857855 0.46115538 0.29319832 -0.47462723 0.16320802 -0.121599205 0.60997045 0.121105805 -0.09765137 0.031982273 -0.4645526 0.31331348 0.77202797 -0.09927988 -0.23446164 -0.24540898 0.11080515 0.24742918 -0.29975942 0.5769331
cardiovascular -0.5104354 0.4327314 0.27156514 -0.40636444 0.17495397 -0.11301017 0.56049025 0.104218684 -0.0946123 0.008985459 -0.3808123 0.2907486 0.6912097 -0.114754 -0.17639197 -0.24774328 0.061093796 0.22086434 -0.25995132 0.53895575
activator -0.5551911 0.46356928 0.32954222 -0.46814954 0.15340157 -0.10475563 0.57245916 0.12026434 -0.09860435 -0.0018514725 -0.44235066 0.32585415 0.7697297 -0.10782711 -0.19345886 -0.28073466 0.06646629 0.22110309 -0.30052054 0.57619935
platelet -0.46481946 0.40824452 0.27758956 -0.407741 0.13656357 -0.098402224 0.51384723 0.11773586 -0.10906972 0.03708339 -0.38952157 0.27973834 0.6423013 -0.07740728 -0.18549806 -0.21476963 0.08281921 0.17412457 -0.21679232 0.5079539
angiotensin -0.5734013 0.44194132 0.2935183 -0.44114524 0.15427269 -0.08419397 0.57373047 0.12466269 -0.07253464 0.013923889 -0.41953227 0.32524806 0.72738016 -0.11905979 -0.22162417 -0.27340657 0.06923739 0.21453717 -0.272202 0.5776432
profiles -0.57642406 0.43297723 0.30122882 -0.4473534 0.14378941 -0.071445905 0.5805336 0.10257431 -0.12752321 0.010413762 -0.4335164 0.283956 0.74025065 -0.115504935 -0.17723386 -0.27757925 0.06782871 0.23574996 -0.26064068 0.5866357
selectivity -0.5395271 0.46484336 0.28827822 -0.4197541 0.18804412 -0.120642126 0.57527405 0.11157385 -0.08330435 0.0067560384 -0.39795008 0.26362944 0.7323897 -0.08042901 -0.2003023 -0.22267416 0.08635652 0.2382914 -0.26250252 0.547326
efficacy -0.5197751 0.3974139 0.25423694 -0.39815652 0.13084915 -0.09629199 0.5596677 0.11466795 -0.092174694 0.01526838 -0.39094797 0.26873073 0.69764924 -0.07381036 -0.17250143 -0.23396906 0.063149534 0.17979938 -0.26908916 0.54825395
modeling -0.51424074 0.41794926 0.28717378 -0.41195828 0.15072614 -0.07470273 0.5589388 0.11680177 -0.07945567 0.03401736 -0.4021403 0.3020973 0.6948102 -0.09404918 -0.1626711 -0.23306437 0.06818254 0.2127987 -0.26604986 0.5370339
pharmacokinetics -0.49965543 0.41802198 0.2820849 -0.4243803 0.16721016 -0.061256908 0.5194769 0.11801501 -0.087435514 0.027215086 -0.3702983 0.25416654 0.65438753 -0.08328069 -0.17483717 -0.21247041 0.09173897 0.1760338 -0.2416079 0.503004
leukotriene -0.50931835 0.42577827 0.27238792 -0.43830672 0.12649608 -0.06390395 0.5561402 0.12416358 -0.094642386 0.041936576 -0.3950548 0.29675078 0.68196505 -0.10290425 -0.19534686 -0.23454799 0.09407299 0.1943625 -0.23147224 0.5405659
COX-2 -0.50034666 0.40356624 0.26366028 -0.43592602 0.13283385 -0.1037914 0.5456177 0.105089486 -0.103865124 0.009121738 -0.41089946 0.292028 0.71354294 -0.08699106 -0.16934125 -0.23551475 0.08361548 0.2059575 -0.28671035 0.5557574
kidney -0.4804666 0.408636 0.2849045 -0.42509583 0.1406834 -0.07837627 0.55177176 0.1003572 -0.120643936 0.03233927 -0.39233404 0.2884097 0.6764996 -0.098674804 -0.19592269 -0.2505415 0.07495571 0.18245187 -0.22316948 0.50224465
assay -0.50446856 0.39437288 0.2440636 -0.42325738 0.14061894 -0.101694666 0.53347176 0.08365385 -0.094825655 0.01695555 -0.39137673 0.25397453 0.6585225 -0.09267125 -0.15764862 -0.20407872 0.06290403 0.224123 -0.22871572 0.5161779
failure -0.47668034 0.3603098 0.2361516 -0.35873535 0.12564284 -0.107904196 0.47246587 0.10660445 -0.073427565 -0.017389195 -0.35713878 0.2313296 0.6372778 -0.070667855 -0.19013768 -0.19472305 0.0480097 0.19512971 -0.22140723 0.46787405
combination -0.53350025 0.40803072 0.30662364 -0.4101363 0.17195337 -0.09120685 0.55649185 0.11998263 -0.08368131 0.031170662 -0.41899812 0.27452478 0.6926705 -0.09173702 -0.17846082 -0.22260389 0.06930909 0.21027842 -0.28123993 0.5348295
G -0.6076121 0.4632162 0.33618194 -0.4719721 0.15400381 -0.12789501 0.573388 0.14908059 -0.1086863 0.047359377 -0.4291928 0.32749623 0.7476108 -0.12373838 -0.20722131 -0.27600875 0.0945073 0.25096017 -0.31888896 0.59848535
ligands -0.5437628 0.44865173 0.28082636 -0.42142543 0.17263383 -0.08694808 0.57439554 0.08944901 -0.120834745 0.016584564 -0.4316587 0.31825906 0.70750344 -0.1262357 -0.18502466 -0.25622806 0.09436678 0.20276168 -0.2897393 0.53754216
Expression -0.52322537 0.43559766 0.26135767 -0.4138111 0.1742616 -0.09186753 0.5148681 0.115037955 -0.08706152 0.01526044 -0.38387108 0.2800935 0.70182914 -0.073202774 -0.20367894 -0.23209894 0.08797848 0.19959529 -0.25609872 0.5006121
Cell -0.50398797 0.42508912 0.3071515 -0.45387462 0.18072718 -0.096424386 0.57420045 0.10819408 -0.10561728 -0.0021143942 -0.4172305 0.25918952 0.6992154 -0.103544965 -0.18260613 -0.2560863 0.09506008 0.24642746 -0.2799059 0.53095764
cultured -0.5423312 0.42810726 0.29124576 -0.4472877 0.16658711 -0.08359957 0.6120339 0.12329054 -0.11330999 -0.0013398593 -0.42057225 0.3052027 0.7528074 -0.11871688 -0.21334086 -0.25545335 0.103447825 0.22705288 -0.26231372 0.54488444
glutamate -0.51950455 0.4248481 0.3155855 -0.43595248 0.15558882 -0.107060306 0.56038094 0.08773762 -0.09357422 0.0067207725 -0.4063096 0.27881038 0.7253832 -0.09017188 -0.20740813 -0.22775538 0.09008862 0.21571323 -0.26694635 0.5273901
uptake -0.58274114 0.47401372 0.2866627 -0.4408073 0.17892408 -0.07505249 0.5815086 0.10076569 -0.11660192 0.026515216 -0.46413624 0.31616354 0.7793361 -0.13685362 -0.17870453 -0.2683609 0.07726789 0.22495511 -0.2592406 0.55706084
Cancer -0.5065136 0.4101604 0.27608156 -0.43951106 0.16173853 -0.06844135 0.53516185 0.12770915 -0.08687061 0.010054939 -0.3704836 0.27727106 0.663182 -0.08664361 -0.17573546 -0.23370601 0.07927872 0.21337695 -0.2551698 0.5225883
skeletal -0.5380637 0.452218 0.27058432 -0.41565448 0.18609038 -0.076383255 0.5667709 0.08890401 -0.07717456 0.025573555 -0.4280564 0.26870507 0.72967356 -0.13017592 -0.17525126 -0.2680406 0.10243137 0.23819603 -0.23742555 0.5460004
targeting -0.55685174 0.4882968 0.32073426 -0.4527487 0.14383076 -0.12453655 0.62481 0.10206083 -0.09946121 0.033480577 -0.4473882 0.31922665 0.74365234 -0.11358009 -0.22491933 -0.24551463 0.11101945 0.22747226 -0.30482987 0.571135
oral -0.5628491 0.47515628 0.3184285 -0.45956588 0.16466576 -0.110541 0.6244498 0.11138461 -0.126122 0.044242714 -0.42398316 0.33860797 0.7775874 -0.123462625 -0.18557541 -0.27679798 0.06550013 0.20551743 -0.27438888 0.59418285
oxytocin -0.5131455 0.44288364 0.29125288 -0.46283367 0.15914871 -0.07998368 0.588781 0.13559355 -0.11211965 0.037034433 -0.40636382 0.30784437 0.75516003 -0.095664196 -0.17776443 -0.24282828 0.07746804 0.17579848 -0.26373896 0.54955333
dual -0.6105283 0.48674327 0.303791 -0.44499543 0.1771478 -0.07827485 0.6078734 0.09882753 -0.08087055 -0.007949301 -0.41161323 0.308403 0.7510666 -0.08559954 -0.22151418 -0.25638205 0.07883108 0.25066093 -0.32238013 0.60172874
highly -0.56534064 0.4555987 0.33445993 -0.48743477 0.15345842 -0.090595506 0.6281318 0.10339099 -0.12559524 0.00045342158 -0.4085205 0.33595455 0.75405884 -0.07863765 -0.2135975 -0.250248 0.06857617 0.25986284 -0.31405738 0.63091
cognitive -0.54823136 0.46868137 0.29077277 -0.43227035 0.1529711 -0.07664747 0.58900654 0.10995249 -0.102177665 0.027479568 -0.423037 0.28977445 0.72768146 -0.1308571 -0.19565661 -0.27514207 0.112121224 0.250499 -0.26994336 0.5570687
adult -0.53561544 0.4071541 0.2660069 -0.4137373 0.14338683 -0.07487495 0.568677 0.083527744 -0.11019031 0.041720033 -0.42520127 0.29352072 0.6738102 -0.07902479 -0.16942069 -0.21457773 0.08479841 0.17899449 -0.27109632 0.4979731
3H -0.5871552 0.43794206 0.3951905 -0.5020726 0.13416933 -0.09216061 0.61377364 0.13563275 -0.14715782 0.061048266 -0.3814118 0.35923803 0.78595024 -0.097534284 -0.19751368 -0.32189646 0.05788906 0.23489541 -0.35072705 0.6964901
does -0.5252988 0.4277639 0.32397813 -0.4334241 0.18795606 -0.07905473 0.5855068 0.09464322 -0.070414394 0.004011336 -0.41812885 0.25883043 0.7498119 -0.097236656 -0.17512336 -0.25129503 0.07580509 0.26087454 -0.27210918 0.5621447
opioid -0.46288812 0.4129673 0.27838606 -0.38285562 0.15191595 -0.093291126 0.5112286 0.111406855 -0.069409564 0.0074105556 -0.38829553 0.2571185 0.6193112 -0.08106755 -0.17374659 -0.2406655 0.103562064 0.17443065 -0.2239541 0.4910159
metabolic -0.50485164 0.38154867 0.27416846 -0.40978324 0.15979657 -0.10131274 0.5053063 0.10805572 -0.10435168 -0.003996542 -0.40137058 0.2515238 0.6500823 -0.09989689 -0.16903304 -0.20532778 0.09554088 0.18808137 -0.21901138 0.48658085
prevents -0.562549 0.450803 0.29020625 -0.46484086 0.17797408 -0.08601743 0.54440224 0.105192214 -0.082031146 0.0077065276 -0.4270254 0.27480268 0.7154537 -0.1198368 -0.18375361 -0.23847292 0.10849141 0.22675693 -0.28340793 0.5659521
without -0.5350597 0.4496585 0.28565183 -0.4357919 0.1862293 -0.11046967 0.5725108 0.13037053 -0.11115781 0.02790386 -0.40250498 0.3287339 0.7291437 -0.113722004 -0.20818776 -0.27923185 0.087553285 0.21336839 -0.26600835 0.5611585
vitamin -0.46078086 0.3938882 0.24752887 -0.4186145 0.15751867 -0.058492176 0.5272819 0.08970281 -0.11235476 0.022502096 -0.35717022 0.25871235 0.6694394 -0.07881852 -0.1668962 -0.24680506 0.0802296 0.21941012 -0.2362078 0.49810845
smooth -0.5003673 0.42727056 0.24850796 -0.42169774 0.1695639 -0.07539572 0.52147865 0.12804678 -0.07109051 -0.022622302 -0.3972722 0.26006654 0.6770679 -0.0980613 -0.1666415 -0.2544923 0.08163798 0.23740444 -0.26549038 0.49178773
pharmacological -0.4144581 0.36165246 0.23481677 -0.34729204 0.10413279 -0.04560981 0.43393412 0.08293766 -0.05539691 0.039049964 -0.31529078 0.24027912 0.5492519 -0.054822598 -0.13128993 -0.18042895 0.065145835 0.14978535 -0.18522409 0.41753334
pulmonary -0.44474247 0.3762775 0.25588778 -0.39416122 0.14146523 -0.081794955 0.48799974 0.113075934 -0.061621327 0.01082374 -0.3956252 0.26285455 0.6347719 -0.07732881 -0.16798303 -0.22677806 0.08181082 0.17753021 -0.25155523 0.47335753
approach -0.48443168 0.4288778 0.2820209 -0.3897802 0.14592493 -0.1200499 0.4993021 0.09014648 -0.09181673 0.0083740745 -0.39642248 0.2436583 0.63880605 -0.0900403 -0.17984986 -0.22728433 0.07103386 0.19029997 -0.25564796 0.50991714
hypertension -0.40752986 0.3096475 0.23555778 -0.33283255 0.13363947 -0.05027915 0.41145167 0.059711784 -0.090353265 -0.013399682 -0.31765723 0.2377935 0.53918767 -0.07213645 -0.1552884 -0.17195134 0.061896205 0.17165881 -0.17839092 0.4128176
tyrosine -0.50540215 0.41793716 0.27360892 -0.41054112 0.13797437 -0.08174177 0.5381556 0.10377771 -0.109984465 0.0034292657 -0.37074548 0.2746207 0.6898012 -0.07234567 -0.16055085 -0.2503146 0.07456974 0.2072185 -0.24011846 0.4849267
lymphocytes -0.4993701 0.37573767 0.25185412 -0.41863468 0.16206178 -0.09530047 0.51826227 0.101217486 -0.102808595 0.025173519 -0.39499387 0.30227852 0.6695123 -0.08449837 -0.17079142 -0.20405854 0.082720414 0.21999036 -0.25881085 0.49996606
stem -0.46699235 0.3816408 0.24819192 -0.37439993 0.13159476 -0.09573531 0.49040246 0.114285864 -0.09013388 -0.012139907 -0.3895732 0.26653427 0.6638319 -0.09263783 -0.17852281 -0.22503385 0.064276055 0.19430766 -0.2390209 0.4697864
disorder -0.47606757 0.38991606 0.24641198 -0.36639154 0.15260825 -0.067710765 0.5029865 0.09697084 -0.08291035 -0.00025252718 -0.34498137 0.25002065 0.62940276 -0.080616586 -0.14963138 -0.22481306 0.08445438 0.22560734 -0.2175803 0.48170784
case -0.5234507 0.43222952 0.28015593 -0.4181114 0.16122088 -0.06606911 0.5056176 0.09650975 -0.06414016 0.011196672 -0.35242254 0.28993133 0.64250875 -0.10205128 -0.16179638 -0.19949166 0.091607995 0.17711054 -0.24395372 0.52497095
cyclooxygenase -0.45517647 0.3787335 0.2382628 -0.35135353 0.1131168 -0.0722161 0.5123185 0.07488267 -0.10376796 0.005098853 -0.32983616 0.27568918 0.6280957 -0.08373492 -0.16404998 -0.23119146 0.08622997 0.16246696 -0.23988378 0.50446147
be -0.5782625 0.49318814 0.34904924 -0.5043527 0.19194902 -0.099885024 0.6321856 0.14171572 -0.089574024 0.03229203 -0.44725037 0.3079195 0.7792086 -0.12119896 -0.19710547 -0.26115972 0.11108162 0.24677043 -0.29239312 0.6175208
cerebral -0.50182366 0.43510202 0.3072247 -0.43504053 0.1656226 -0.07193881 0.54796845 0.10999824 -0.09572238 0.0071531637 -0.38333032 0.27172717 0.69200534 -0.10205179 -0.1807994 -0.24590239 0.10915532 0.24218325 -0.27634144 0.51213807
matrix -0.5502572 0.45972225 0.31561026 -0.42510414 0.16130523 -0.09467544 0.5453777 0.105714105 -0.12757191 0.03420508 -0.42442808 0.3157568 0.7273966 -0.120757 -0.21626535 -0.26794785 0.10980422 0.20251282 -0.28317007 0.55116403
dependent -0.5171989 0.403713 0.3087877 -0.3937198 0.1301136 -0.10781749 0.53225994 0.1275952 -0.1245476 -0.005665241 -0.41588545 0.25784653 0.6931151 -0.08572266 -0.1780718 -0.24473485 0.09326924 0.19408277 -0.25428766 0.50915456
children -0.50524944 0.41147563 0.2670351 -0.42769915 0.18105058 -0.08608957 0.5457206 0.12733395 -0.07949474 -0.010365586 -0.42104995 0.28756115 0.685296 -0.08500821 -0.21799065 -0.23842013 0.08732388 0.21892609 -0.24261484 0.5501498
lines -0.39724067 0.30701625 0.19768089 -0.36411375 0.121820375 -0.049657088 0.40305462 0.108641975 -0.09817498 -0.03491067 -0.35161927 0.21413252 0.5307446 -0.09250543 -0.17651166 -0.18627235 0.0926519 0.1773413 -0.22743396 0.388717
Comparative -0.33844593 0.30422482 0.18258296 -0.30483118 0.08914014 -0.058400508 0.36286375 0.05048928 -0.058118157 -0.013170393 -0.24465589 0.18259266 0.46959794 -0.046082266 -0.1346926 -0.14748633 0.061198205 0.1322617 -0.1796522 0.35156354
species -0.4952426 0.43947184 0.27191016 -0.39654705 0.17500508 -0.10664605 0.538065 0.109830424 -0.103530265 0.03579721 -0.41349 0.26676 0.6676953 -0.11856602 -0.20080568 -0.23201908 0.0723403 0.19588056 -0.25924438 0.5164356
Influence -0.37533444 0.31391957 0.21758266 -0.3276331 0.12070528 -0.06619045 0.378112 0.09120135 -0.09138112 0.019457506 -0.27543476 0.21035928 0.51640713 -0.084063604 -0.11248345 -0.17539527 0.030792294 0.12672268 -0.19846866 0.36202404
RNA -0.5177089 0.40228677 0.2577626 -0.4029411 0.13858028 -0.10549783 0.53925985 0.09636498 -0.11608477 0.029320769 -0.38972926 0.24908744 0.6620635 -0.08257664 -0.17964692 -0.23409367 0.06792581 0.21126531 -0.26017767 0.5141563
ligand -0.45888865 0.39063233 0.24583995 -0.374624 0.15536924 -0.0676923 0.5006031 0.11326176 -0.1025149 -0.008666473 -0.33354607 0.23559774 0.66079307 -0.09478302 -0.16612794 -0.25162655 0.07846719 0.22892399 -0.2667888 0.51776195
ethanol -0.5281488 0.42508927 0.30150393 -0.43999225 0.14273863 -0.11967507 0.50558287 0.1237289 -0.09705321 0.009188687 -0.41060853 0.26586255 0.6657465 -0.068317264 -0.20183884 -0.26367596 0.08054618 0.20746207 -0.24290775 0.54070777
airway -0.5408943 0.43180096 0.3108876 -0.44601405 0.16017985 -0.10655346 0.5430951 0.10557947 -0.07002753 0.013512414 -0.41783717 0.2694614 0.6929661 -0.11122307 -0.1913505 -0.24768558 0.09826924 0.24094862 -0.26493853 0.5571486
hippocampal -0.52537245 0.45223853 0.29553518 -0.4346517 0.17349955 -0.10712539 0.52818215 0.13879873 -0.07636005 0.0076446054 -0.3954952 0.25940755 0.70556873 -0.10098724 -0.16500771 -0.26019818 0.10306616 0.24332666 -0.28730112 0.55533975
line -0.5158503 0.37607694 0.26687536 -0.4176391 0.15135208 -0.09564878 0.5480411 0.084987536 -0.107074834 -0.011940948 -0.40046465 0.29052967 0.6843897 -0.13030991 -0.18577093 -0.20568158 0.09465751 0.2348212 -0.27216053 0.52765983
deficiency -0.5028355 0.3708804 0.2527271 -0.40080318 0.14615582 -0.08313467 0.51343346 0.10119055 -0.10015054 0.0039129755 -0.3591577 0.2425541 0.6149637 -0.10035417 -0.19453849 -0.21046574 0.07614843 0.19810966 -0.25728998 0.47415647
nanoparticles -0.5104803 0.40217227 0.28793585 -0.39494038 0.15771452 -0.09989668 0.51945204 0.105953924 -0.110230714 0.006076053 -0.35209385 0.2938802 0.6948471 -0.113127805 -0.1850597 -0.24277572 0.052020095 0.22589903 -0.25077647 0.53245264
5 -0.54519975 0.44921303 0.27636144 -0.46213904 0.13659455 -0.09816442 0.5498287 0.12131049 -0.0975336 0.032106895 -0.4137466 0.3151409 0.7093347 -0.107904844 -0.19599347 -0.25449938 0.05585379 0.23834398 -0.2807647 0.56354666
structure-activity -0.47223788 0.39790276 0.2823298 -0.39774808 0.14502919 -0.086189635 0.5084991 0.08215688 -0.11030286 0.00093041034 -0.35940963 0.2915085 0.67635083 -0.09264543 -0.16067529 -0.21377878 0.07816813 0.1883623 -0.23113587 0.50656736
direct -0.5227496 0.4434881 0.26799873 -0.39612862 0.17412883 -0.109456494 0.5588743 0.11566927 -0.07951387 -0.0011199153 -0.36394542 0.29458636 0.6556413 -0.116337016 -0.19063455 -0.20772386 0.08295634 0.18394977 -0.23817034 0.5366017
tumors -0.36240992 0.28027043 0.19566388 -0.29323635 0.10553108 -0.045561235 0.36369488 0.07818855 -0.082501814 -0.024816057 -0.28180504 0.16106924 0.47906247 -0.050936274 -0.13271019 -0.14293203 0.076548755 0.15959375 -0.18315782 0.3779527
glucocorticoid -0.49515232 0.4230028 0.30553958 -0.39782953 0.16571864 -0.09466983 0.5529382 0.117490314 -0.10288016 -0.0068981615 -0.3829995 0.3027763 0.7012845 -0.11283385 -0.20146456 -0.23227459 0.058258075 0.2058529 -0.27870247 0.5101167
antipsychotic -0.4987777 0.40061837 0.27423537 -0.4004262 0.121397816 -0.09094794 0.49331453 0.09177223 -0.1099089 -0.0012293105 -0.377471 0.24369927 0.6585197 -0.11327801 -0.1721091 -0.19301148 0.07391393 0.19317351 -0.2537771 0.47040316
B -0.50541306 0.43480322 0.26450214 -0.40225777 0.13210994 -0.07319372 0.56380886 0.121707864 -0.08491905 0.0019406679 -0.40451294 0.27326784 0.72379535 -0.080004394 -0.18285717 -0.25402746 0.10545852 0.20389476 -0.2570479 0.5371219
biochemical -0.46412867 0.3556521 0.2221478 -0.35031977 0.13444301 -0.05140963 0.4830912 0.07355699 -0.06310581 -0.005660085 -0.3549029 0.27508724 0.6370282 -0.0717556 -0.16766562 -0.21074773 0.053895105 0.16813426 -0.23607187 0.45804557
women -0.45972756 0.32743007 0.21634005 -0.3698944 0.11756938 -0.082573734 0.43335092 0.09826569 -0.04870532 -0.02142128 -0.35773775 0.23119965 0.5974751 -0.08606132 -0.16673791 -0.18232888 0.071906954 0.19601555 -0.2051328 0.44979906
activated -0.47311813 0.39361644 0.24927136 -0.4000039 0.16037993 -0.087414905 0.50531155 0.09908896 -0.100127 0.0042509716 -0.37223917 0.2696808 0.6469288 -0.08994291 -0.18210557 -0.22996661 0.07448271 0.21399543 -0.25220555 0.48066384
Regulation -0.35454977 0.31976116 0.22196256 -0.3209104 0.10885939 -0.05646799 0.38773298 0.05656051 -0.084123015 0.007021932 -0.28096053 0.1998083 0.4871651 -0.054756504 -0.12592943 -0.17050478 0.07148373 0.14600751 -0.18376479 0.3829145
cyclic -0.5383945 0.40544277 0.28576055 -0.4124891 0.16081038 -0.11349636 0.5511013 0.11523591 -0.096802436 0.0061454405 -0.40653768 0.25891805 0.6746356 -0.115819745 -0.17401434 -0.23445639 0.072195135 0.25225776 -0.24627313 0.53969866
Study -0.45571217 0.36853936 0.23298447 -0.3557335 0.14978269 -0.088539444 0.49409822 0.07158225 -0.08511083 -0.007061674 -0.36408764 0.22483198 0.6141249 -0.07395797 -0.1420784 -0.20349388 0.0782137 0.19935669 -0.23488598 0.46978837
screening -0.45438886 0.4050711 0.2376561 -0.37932268 0.11454517 -0.08726452 0.49255615 0.11470059 -0.09670781 0.018344322 -0.37693918 0.25133562 0.6253741 -0.087977074 -0.18505894 -0.2023881 0.05014695 0.17352492 -0.24476044 0.48917595
unique -0.49151468 0.39153808 0.25552252 -0.401526 0.16728292 -0.10270465 0.49037766 0.07954499 -0.05643919 0.014890946 -0.3610292 0.23635487 0.61776 -0.07290857 -0.17942677 -0.24029762 0.052248135 0.21094622 -0.25267148 0.49822882
patient -0.5282079 0.42522454 0.28980422 -0.40994298 0.15101981 -0.06924254 0.5445599 0.09181929 -0.07397404 0.009411956 -0.41891953 0.27651373 0.71858346 -0.08718684 -0.20744012 -0.224408 0.08186253 0.23008975 -0.28628403 0.5101299
central -0.49440438 0.36026403 0.24242973 -0.40073666 0.1436163 -0.07121539 0.5152796 0.08356018 -0.10553726 0.023745341 -0.3828106 0.27551907 0.63270426 -0.0902285 -0.1765264 -0.20142731 0.06726462 0.21689354 -0.22127618 0.49213746
