9916 20
. -1.7185959 1.1571862 1.1567309 0.8183106 0.79543245 -2.4744987 1.3246 -1.5011396 -0.4607238 0.14847058 -0.5046893 1.1100553 0.8482162 -1.1188143 1.4802676 2.357061 -1.4977093 0.7482993 -0.5499802 2.8060155
of -2.046146 1.3677871 1.3042238 0.977553 0.9622499 -2.8895645 1.510836 -1.80245 -0.5404578 0.14337139 -0.57732373 1.3295739 1.0328063 -1.3464859 1.723196 2.7856042 -1.7592558 0.8888846 -0.66123265 3.3102267
and -2.1155093 1.4227209 1.4046675 0.99990654 0.9835277 -2.9953468 1.5651191 -1.8591496 -0.5589042 0.14550264 -0.59210247 1.339955 1.0299655 -1.421729 1.7751443 2.8959825 -1.8492104 0.92546076 -0.6529512 3.4111528
in -2.042902 1.379757 1.3544087 0.98715925 0.9890356 -2.8994393 1.554773 -1.8014579 -0.49397883 0.16305986 -0.59993076 1.2945731 0.9944153 -1.3668306 1.6911818 2.725903 -1.7743863 0.89181066 -0.64836895 3.29976
the -1.6022868 1.0962421 1.0323524 0.742533 0.7721442 -2.3110745 1.1849626 -1.4473311 -0.40826842 0.10262628 -0.46528876 1.0477915 0.78246963 -1.050019 1.3414644 2.1973498 -1.3973203 0.7065092 -0.5288092 2.580055
, -1.5609726 1.067469 1.0553159 0.73295397 0.7858664 -2.2619915 1.2016807 -1.3837944 -0.4265052 0.11825334 -0.45428178 0.9948389 0.7849294 -1.0423846 1.3314207 2.1638007 -1.3771753 0.67059404 -0.47469288 2.527232
a -1.4291749 0.9778157 0.93895525 0.66159016 0.71252096 -2.0452096 1.0684489 -1.2794157 -0.375472 0.141488 -0.3688709 0.91460013 0.68963027 -0.998713 1.2600356 2.0060933 -1.2702131 0.6650563 -0.47217128 2.368093
: -1.5616577 1.0582342 1.030601 0.7500928 0.7201232 -2.1912162 1.1734756 -1.3743111 -0.4233943 0.13253663 -0.41204193 1.0182402 0.745504 -1.0453968 1.3079283 2.105686 -1.3452604 0.6789498 -0.49344966 2.5179572
( -1.5478734 1.0232735 1.0691756 0.71827596 0.7816106 -2.170879 1.1642667 -1.3517268 -0.3657297 0.07893782 -0.44978055 1.01564 0.78352624 -1.0187727 1.3587683 2.0546172 -1.3427827 0.7311924 -0.5130181 2.5131078
) -1.5198267 0.96821696 1.0205055 0.68073237 0.7035237 -2.0343702 1.135693 -1.2709572 -0.40670574 0.11697623 -0.39062 0.9180523 0.692467 -1.0136768 1.2815096 2.0175948 -1.2469102 0.70257163 -0.48190323 2.3738413
by -1.7486695 1.1417019 1.1186651 0.8159014 0.8067433 -2.4659193 1.3135046 -1.527019 -0.437967 0.13385922 -0.4676659 1.1253372 0.8330233 -1.134072 1.4793614 2.3675325 -1.510163 0.76501715 -0.544859 2.790215
with -1.6079189 1.0626429 1.0695313 0.75086683 0.73485845 -2.2593336 1.1748055 -1.3888568 -0.42319405 0.13098837 -0.46378723 1.0314656 0.7542826 -1.051167 1.3576404 2.1259887 -1.3975737 0.722415 -0.5035262 2.5581481
for -1.433889 0.9732744 0.9727751 0.6959108 0.7017398 -2.0573483 1.1030127 -1.2512192 -0.35138494 0.11761786 -0.39014935 0.91844034 0.7255461 -0.9873532 1.2175095 1.9695785 -1.2654277 0.6388526 -0.4760071 2.342375
on -1.4777312 0.9799776 0.98125094 0.6929783 0.70886034 -2.077992 1.09951 -1.2684588 -0.40368894 0.11880784 -0.4039166 0.93883985 0.7359452 -0.95331985 1.2352643 1.97845 -1.2748305 0.6411765 -0.46677485 2.386039
to -1.6704017 1.0905901 1.0658953 0.7878674 0.780756 -2.3408537 1.2299328 -1.4728669 -0.43191588 0.105856456 -0.4386741 1.0701983 0.8190613 -1.0739931 1.4074347 2.2215185 -1.4079701 0.7254693 -0.5148222 2.6364646
receptor -1.1284436 0.7384096 0.74498737 0.5551667 0.5521765 -1.6023097 0.8592243 -0.984688 -0.31407174 0.105317704 -0.3096383 0.75428915 0.5521994 -0.7181674 0.95435745 1.5454667 -0.9451937 0.5023544 -0.37197572 1.8355767
cells -0.939465 0.6305774 0.6254141 0.4807313 0.48188192 -1.405365 0.719004 -0.86343646 -0.22505617 0.053018283 -0.24382602 0.6299771 0.45393428 -0.64323723 0.8031641 1.344234 -0.8472151 0.41160542 -0.29086092 1.5569121
human -1.1032622 0.7044561 0.7095631 0.5057894 0.49465767 -1.5820249 0.7944695 -0.971364 -0.30958745 0.0707819 -0.29043686 0.70517963 0.54552454 -0.74287516 0.9363202 1.4918599 -0.9420501 0.5036845 -0.35033107 1.7773271
expression -0.88311094 0.6003407 0.5699084 0.45226383 0.4331046 -1.2886069 0.66649175 -0.7774768 -0.21363324 0.051739696 -0.26651686 0.5880017 0.45294976 -0.5928394 0.7553171 1.2396551 -0.7504144 0.39192095 -0.25703558 1.4747998
activity -0.9911957 0.6498609 0.6579585 0.43412212 0.4800832 -1.3894461 0.7243687 -0.86578894 -0.26660863 0.056383893 -0.2636181 0.6459422 0.47499973 -0.66668063 0.83706874 1.3117719 -0.86843234 0.456498 -0.3124863 1.5508819
The -0.9195907 0.6177872 0.58001447 0.4364949 0.4586826 -1.3146724 0.6935479 -0.8181264 -0.23497957 0.08032568 -0.23890746 0.6185062 0.47056654 -0.6252901 0.77680004 1.2566988 -0.7805685 0.4203786 -0.30522662 1.5186166
as -1.3353319 0.89499336 0.86521906 0.6086261 0.65279406 -1.8632727 0.9866773 -1.1413257 -0.34334397 0.1161519 -0.39023328 0.85639757 0.63997793 -0.88654214 1.1446927 1.7725904 -1.1846673 0.60622156 -0.40490118 2.1223648
effects -0.93572885 0.6364669 0.5955639 0.43481985 0.45794445 -1.3389851 0.7171427 -0.8310839 -0.23728345 0.08575334 -0.23539287 0.58135146 0.45782688 -0.62653583 0.7631417 1.2711704 -0.8161936 0.40852988 -0.26934248 1.50867
A -1.1645608 0.78457123 0.73356307 0.54214716 0.5256081 -1.6400719 0.8926253 -1.0322907 -0.29080293 0.10335577 -0.34385088 0.74701566 0.5887727 -0.79229206 1.0010617 1.5888307 -0.9847828 0.54349035 -0.39427665 1.8859872
from -1.4572823 0.98053193 0.9316797 0.6858053 0.6906509 -2.0527627 1.0789258 -1.2873573 -0.3954214 0.12913904 -0.38225535 0.91848105 0.71559846 -0.95524716 1.2089088 1.9411331 -1.2540715 0.62287396 -0.4550689 2.333133
rat -0.9139003 0.5954534 0.5733128 0.43036062 0.4171766 -1.2982005 0.6902938 -0.8131592 -0.20959991 0.041952495 -0.2698887 0.5713324 0.4474047 -0.57631963 0.7769876 1.2508737 -0.7818711 0.38467553 -0.30839705 1.4608742
cell -1.1122845 0.70451933 0.73538685 0.525154 0.50613546 -1.5661652 0.81575596 -0.9583991 -0.281573 0.10329205 -0.3103166 0.6873988 0.5279288 -0.7310694 0.9093909 1.4823507 -0.9550928 0.5116506 -0.35843617 1.7296972
rats -0.7201822 0.47131225 0.49535358 0.32757977 0.36727655 -1.0512137 0.5842554 -0.65171045 -0.22361374 0.039995037 -0.19111992 0.4790798 0.3790893 -0.504274 0.6447501 0.99969196 -0.66910785 0.3283882 -0.23165518 1.1819082
inhibitors -0.9837737 0.66144454 0.6083955 0.4644286 0.4777632 -1.3786405 0.72284776 -0.8334193 -0.23070444 0.05752196 -0.24712764 0.60147786 0.45232555 -0.62666 0.826567 1.2999183 -0.845941 0.44218764 -0.32918313 1.5449855
is -1.1631339 0.75723946 0.772487 0.5367163 0.58419657 -1.669337 0.9048081 -1.0335957 -0.30583695 0.106381305 -0.33915767 0.74516845 0.572914 -0.7994164 0.995623 1.5607429 -1.0372847 0.5485155 -0.36627328 1.9002258
novel -0.8828468 0.6045774 0.5816764 0.43715057 0.44414604 -1.2824336 0.67536914 -0.766909 -0.2431216 0.07776114 -0.21581681 0.5720156 0.43787256 -0.612713 0.7860109 1.2239833 -0.78786683 0.42313215 -0.28097504 1.4189682
mice -0.7752721 0.5342479 0.5140804 0.37829408 0.38964763 -1.1278259 0.589656 -0.6880994 -0.21306846 0.048765056 -0.23182076 0.52565724 0.41145453 -0.5153622 0.6440114 1.0825464 -0.6871036 0.36491892 -0.26736593 1.2746977
cancer -0.6409628 0.42824703 0.4328295 0.2749091 0.30313888 -0.886219 0.44064632 -0.5444902 -0.17361741 0.07546796 -0.15504323 0.4308515 0.27891502 -0.44623506 0.5224403 0.8698262 -0.51129836 0.2835537 -0.16240685 1.018582
gene -0.9088157 0.6300506 0.6196163 0.44271594 0.41546363 -1.3363237 0.687818 -0.79038423 -0.25537896 0.03755671 -0.27425894 0.6236122 0.43768102 -0.62251747 0.76512593 1.2902147 -0.78124493 0.3881198 -0.27328876 1.5319817
an -1.0657923 0.7170895 0.6835117 0.46653077 0.4798022 -1.4662013 0.78198916 -0.90930146 -0.27020168 0.10507079 -0.274739 0.654524 0.5283989 -0.67965686 0.90426344 1.4405324 -0.8977238 0.46968025 -0.35823545 1.6731322
protein -0.9691402 0.6110907 0.6424179 0.458231 0.47511572 -1.3635198 0.718527 -0.84924406 -0.27600518 0.08859672 -0.2674987 0.62540257 0.49143296 -0.60709476 0.7896819 1.2737044 -0.8286444 0.4068079 -0.29874614 1.5228931
binding -0.798016 0.56451166 0.53599316 0.3735753 0.35762352 -1.1651771 0.6108334 -0.7065995 -0.21390022 0.053823538 -0.20495366 0.5112602 0.3876374 -0.50975573 0.65942174 1.0813464 -0.7089446 0.3511206 -0.24090075 1.313601
receptors -0.7429235 0.5252553 0.49811307 0.37246805 0.35956207 -1.0707917 0.5876778 -0.69842523 -0.20865734 0.06993103 -0.23616947 0.5094396 0.3838401 -0.5315343 0.6758877 1.0481179 -0.65644217 0.3715788 -0.24411274 1.2284305
[ -0.9463957 0.6333676 0.5994426 0.4012694 0.40305826 -1.3016284 0.69370514 -0.8251138 -0.27251756 0.07965353 -0.23338608 0.56296223 0.45595777 -0.5688398 0.7714754 1.1892081 -0.7584057 0.41336122 -0.2875926 1.4453762
] -0.8918835 0.5671455 0.55883616 0.41094065 0.43750677 -1.1692222 0.6569318 -0.7577481 -0.2582033 0.067067906 -0.26252744 0.5119019 0.40064475 -0.55259126 0.7442619 1.1119121 -0.73306155 0.4150026 -0.29802284 1.3510528
acid -0.90901774 0.63195574 0.59724665 0.4133322 0.461446 -1.3177392 0.7135092 -0.8356689 -0.23849538 0.07571323 -0.24645548 0.56554043 0.47113636 -0.63725716 0.7802569 1.2472887 -0.7938835 0.43259212 -0.31546 1.4670305
factor -0.8685532 0.584092 0.56214345 0.37782803 0.3965324 -1.1750869 0.61312515 -0.7778531 -0.25179097 0.06608972 -0.23669167 0.56525075 0.40251586 -0.5699848 0.72694486 1.1613189 -0.76122737 0.39636976 -0.27379662 1.3431807
inhibition -0.72315717 0.47482762 0.45195004 0.3146576 0.363676 -1.0418751 0.5663357 -0.647679 -0.18344362 0.02984791 -0.22650334 0.4853643 0.35034958 -0.5031775 0.5879777 0.96282 -0.61912763 0.3269508 -0.23589997 1.1841465
inhibitor -0.7167432 0.4639974 0.4394995 0.32222462 0.34682918 -0.9891472 0.5023905 -0.60058457 -0.1920008 0.038780622 -0.18733518 0.45994934 0.32372385 -0.49164256 0.6151765 0.95084316 -0.61713874 0.32004556 -0.24229334 1.1397679
activation -0.7175461 0.5017767 0.4567572 0.32513085 0.33630732 -1.0355452 0.5458438 -0.6588709 -0.16158201 0.050788824 -0.20278405 0.4413831 0.3637531 -0.4727272 0.60737926 0.96583056 -0.62379813 0.31390402 -0.24827674 1.1789188
signaling -0.70863706 0.4780173 0.47159684 0.3304045 0.32518396 -1.0112784 0.5639183 -0.6529418 -0.16071261 0.05641531 -0.1844317 0.44533083 0.3682275 -0.46944594 0.6087498 1.011018 -0.6456645 0.32126752 -0.22253123 1.1728252
effect -0.533264 0.3964748 0.33871105 0.24717799 0.25689802 -0.7779192 0.42624947 -0.49464375 -0.15691338 0.038981967 -0.13562752 0.33549738 0.2722585 -0.35077754 0.48488212 0.7636117 -0.46191847 0.26195285 -0.1744341 0.91463065
treatment -0.4724807 0.3355919 0.31880972 0.22973502 0.20282523 -0.6734369 0.33401066 -0.4146278 -0.12722738 0.032183252 -0.1410728 0.29493394 0.23991172 -0.30975884 0.41249627 0.6237284 -0.4067081 0.20030674 -0.1289518 0.76007134
2 -0.62851113 0.41672775 0.42028394 0.309616 0.31731504 -0.8683008 0.4522502 -0.5374564 -0.1856713 0.03579261 -0.17008968 0.37323144 0.31189233 -0.43859574 0.55663556 0.84614754 -0.5601593 0.2923213 -0.22616677 0.9787419
via -0.99781567 0.6341928 0.63276404 0.43890554 0.46710718 -1.3871845 0.7166337 -0.8672007 -0.24260062 0.06511807 -0.29356828 0.6348163 0.46307048 -0.62617105 0.8554755 1.3309803 -0.8496592 0.41514406 -0.2952118 1.590749
patients -0.62197423 0.4030046 0.42120555 0.2743366 0.30983725 -0.8919125 0.51112574 -0.5396821 -0.1663206 0.052909747 -0.17518887 0.425719 0.29580402 -0.4171821 0.5243729 0.885687 -0.5543039 0.30191413 -0.23100819 1.0237653
through -0.9126204 0.61417204 0.58086026 0.41051924 0.43338028 -1.3303535 0.7064774 -0.79652053 -0.24873282 0.04542906 -0.27933997 0.6025443 0.441929 -0.60257256 0.79318994 1.2782516 -0.7917468 0.39989927 -0.31742126 1.4899205
its -0.72429615 0.4667117 0.4474618 0.34524083 0.31919792 -0.9910468 0.559783 -0.6229458 -0.18992773 0.066026695 -0.22695251 0.43713796 0.35477573 -0.47150156 0.60781187 0.9387019 -0.59990984 0.32798988 -0.24542697 1.171546
vitro -0.39012817 0.23871584 0.23666956 0.16484009 0.18064119 -0.54108506 0.3002456 -0.3223863 -0.08328357 0.009555117 -0.082528405 0.2734308 0.20062317 -0.24341786 0.30239686 0.5252316 -0.3286925 0.15634274 -0.09743279 0.63738525
vivo -0.31676155 0.21663891 0.22006899 0.15202895 0.1361868 -0.453098 0.23027708 -0.31317285 -0.06742153 0.011222627 -0.07184859 0.19561128 0.15806602 -0.22188815 0.2612713 0.4291919 -0.2994731 0.12180793 -0.09928183 0.5152574
apoptosis -0.69106 0.43917367 0.46103066 0.33866212 0.33375302 -0.99024135 0.5219303 -0.5883272 -0.16323574 0.058924172 -0.21414047 0.450367 0.30937874 -0.47007892 0.5824618 0.91574496 -0.59509856 0.3031469 -0.19702676 1.0945697
antagonist -0.47410977 0.3476124 0.33973974 0.25146163 0.2558354 -0.7039019 0.37669227 -0.42905268 -0.11229201 0.037049334 -0.13402343 0.3371109 0.24313681 -0.3309671 0.4370574 0.6582731 -0.4241116 0.23181672 -0.15894347 0.7879954
1 -0.60763544 0.39767203 0.39998174 0.2553526 0.29167572 -0.84877694 0.47328103 -0.5110242 -0.17857373 0.033247255 -0.15260908 0.36279145 0.27520654 -0.4088169 0.5034047 0.8008854 -0.5124566 0.26138374 -0.21576793 0.9384869
brain -0.46535128 0.32758588 0.30970907 0.24218036 0.24337742 -0.70188546 0.3832772 -0.4205259 -0.1161734 0.033435967 -0.120127775 0.31311008 0.24587293 -0.32285213 0.3821474 0.6435718 -0.43863726 0.19894119 -0.15013611 0.7620032
Effects -0.43654606 0.2735636 0.3018385 0.1815299 0.18173221 -0.61398166 0.3146459 -0.39665216 -0.11025226 0.010971419 -0.102453314 0.25766096 0.19667043 -0.2590908 0.3618756 0.5950285 -0.3704842 0.20082776 -0.14259027 0.6805328
transporter -0.45586243 0.30915555 0.29183686 0.19858731 0.24230921 -0.6495907 0.3396708 -0.40388298 -0.13916257 0.009562382 -0.14860521 0.30738384 0.232398 -0.27938217 0.36006722 0.6170063 -0.39915106 0.1821759 -0.16500221 0.73153144
induced -0.7240915 0.47073826 0.4983011 0.36983967 0.3401424 -1.0458757 0.579131 -0.6403758 -0.17691973 0.038296774 -0.20008501 0.4985216 0.35298598 -0.47124007 0.6034117 1.0098788 -0.6279187 0.31916007 -0.25645307 1.1832454
against -0.925957 0.60452527 0.58806497 0.41325814 0.42514116 -1.326377 0.7112868 -0.82661724 -0.2611345 0.04686108 -0.24014768 0.5692913 0.47734085 -0.5965826 0.7890018 1.2205502 -0.81464016 0.41285738 -0.31475848 1.4807801
growth -0.59099245 0.36584207 0.39349052 0.25627163 0.28334823 -0.7961395 0.39947924 -0.5268033 -0.1686754 0.04945545 -0.15810864 0.38388732 0.271439 -0.3570955 0.49314997 0.7888641 -0.48699522 0.26676267 -0.17202722 0.9207319
kinase -0.5354011 0.332545 0.36483192 0.25597095 0.23423867 -0.72897816 0.38090232 -0.48452446 -0.15408362 0.020523468 -0.14456443 0.31821054 0.2565643 -0.33918464 0.4377339 0.7446061 -0.47281858 0.22459039 -0.18100765 0.8706995
mouse -0.55981696 0.36522293 0.39168015 0.2835784 0.28893623 -0.82248724 0.4139197 -0.50043684 -0.1489439 0.052784387 -0.17932986 0.38632104 0.2613327 -0.36261603 0.50462675 0.8047317 -0.5095901 0.28248978 -0.17591864 0.95062387
pathway -0.5548031 0.3258096 0.32943693 0.23825629 0.237339 -0.7411585 0.39189714 -0.46819904 -0.15932585 0.03799369 -0.13317423 0.3518961 0.2546414 -0.37878582 0.45641002 0.74946207 -0.44589078 0.23894957 -0.1933254 0.8647869
new -0.5095827 0.3494856 0.2972669 0.24428539 0.21994738 -0.71020526 0.37343204 -0.4489158 -0.10168614 0.015490451 -0.12317237 0.32251093 0.23181428 -0.32122537 0.4269013 0.648548 -0.4459304 0.20589732 -0.1388221 0.77289844
Effect -0.35494357 0.23825033 0.20658858 0.16908202 0.1394447 -0.4803885 0.2254116 -0.29262903 -0.10950864 0.041556288 -0.07945996 0.22788782 0.14592825 -0.23018856 0.2824499 0.4385642 -0.31098673 0.13314256 -0.102182455 0.5480904
drug -0.42422324 0.31950024 0.28842977 0.21401148 0.20888574 -0.61180633 0.3378797 -0.3807306 -0.12430954 0.05787116 -0.12906045 0.26263404 0.20342796 -0.31873468 0.3889454 0.60608006 -0.40305427 0.17662181 -0.15617904 0.708588
at -0.67891437 0.47946176 0.43254963 0.30833977 0.33742952 -0.9842408 0.53773254 -0.60263276 -0.18993385 0.0702916 -0.22173464 0.42661908 0.33100885 -0.4612855 0.6032413 0.9638118 -0.6112525 0.28674528 -0.21774475 1.1322126
Synthesis -0.34813535 0.24213259 0.20438063 0.17320468 0.1707573 -0.5220225 0.2775074 -0.32063907 -0.081962824 0.047998346 -0.077134386 0.25344566 0.19826381 -0.21366656 0.294038 0.4546044 -0.30926675 0.15851873 -0.094136074 0.5898625
selective -0.46118382 0.29035193 0.27825278 0.19365582 0.2444297 -0.6341549 0.32672837 -0.3718017 -0.13802968 0.054423604 -0.13010934 0.26785907 0.24656565 -0.30563664 0.3867645 0.62658167 -0.39941472 0.22553903 -0.16041893 0.7394908
inhibits -0.6897022 0.43736187 0.47129777 0.34005696 0.33119112 -0.96029365 0.5097074 -0.6016935 -0.17241316 0.047740802 -0.2070834 0.43720058 0.34399396 -0.44087297 0.57413036 0.94412965 -0.5978382 0.29809833 -0.23761663 1.1008351
type -0.5056227 0.33526066 0.34912577 0.21735895 0.22789165 -0.6970708 0.40162468 -0.40663624 -0.13473786 0.015744831 -0.13217685 0.3428744 0.23965411 -0.31098655 0.41419828 0.6778372 -0.42923364 0.2542403 -0.19228391 0.8366594
study -0.40633762 0.2831173 0.29340354 0.21171145 0.21936911 -0.5989494 0.31750602 -0.40235823 -0.13307032 0.016132876 -0.09168266 0.28748065 0.23120598 -0.30058947 0.35383138 0.5815222 -0.35516644 0.18335736 -0.1346443 0.6687009
model -0.41991127 0.27999133 0.25724983 0.20510128 0.18341544 -0.60695916 0.3004825 -0.3664848 -0.121563144 0.025146939 -0.11211943 0.25524858 0.17807838 -0.2854993 0.35192975 0.5587387 -0.35159954 0.1688607 -0.13148284 0.66287667
potential -0.44914442 0.28375107 0.3050516 0.22750778 0.22135906 -0.64485794 0.33636966 -0.39815912 -0.14057268 0.021430556 -0.09571992 0.26753038 0.19633381 -0.3175036 0.37070385 0.6195177 -0.38011205 0.20686366 -0.14203626 0.6987589
stress -0.4380149 0.2816468 0.2640319 0.18592049 0.2247345 -0.61722094 0.33095685 -0.36712286 -0.121644825 0.04091079 -0.13004936 0.24552837 0.23068611 -0.28104064 0.36039242 0.5764249 -0.37344605 0.16628899 -0.12347395 0.6655838
metabolism -0.43648365 0.27849916 0.2783448 0.19867048 0.2067764 -0.6031106 0.32807606 -0.38962913 -0.1342493 0.025051428 -0.1349848 0.29371822 0.19659553 -0.30078527 0.3566128 0.58123285 -0.3740878 0.21165456 -0.12768605 0.7229979
function -0.40479177 0.2541371 0.27633196 0.18338229 0.21195288 -0.5786796 0.3029047 -0.3737493 -0.11539323 0.018761335 -0.12674905 0.28916213 0.18117042 -0.2846573 0.3626325 0.5645296 -0.36774173 0.16942503 -0.109466515 0.68396896
role -0.31590983 0.2160657 0.22652775 0.14095175 0.17130639 -0.43684486 0.24280642 -0.25408453 -0.055408094 0.01677241 -0.07360995 0.19385825 0.13244808 -0.19661444 0.26215303 0.43756333 -0.25404796 0.15816039 -0.120193206 0.4914876
II -0.5525017 0.37172022 0.32819006 0.25501278 0.2423441 -0.7400828 0.411467 -0.47168097 -0.15373108 0.03769306 -0.13577668 0.34018773 0.25115424 -0.32940462 0.4475986 0.729487 -0.46147648 0.23745273 -0.20030105 0.8526015
disease -0.2880117 0.21309389 0.1988988 0.15462486 0.115595706 -0.3891006 0.23115274 -0.2754604 -0.08104492 0.010181812 -0.062475715 0.15859596 0.16666408 -0.19055136 0.26254278 0.39706033 -0.2766371 0.10454229 -0.10027168 0.47371018
properties -0.45679948 0.29527906 0.2656956 0.18588856 0.22523236 -0.6341361 0.3166169 -0.3869329 -0.10356308 0.035434272 -0.1390943 0.2752565 0.20660765 -0.3071022 0.3920204 0.5950307 -0.3729467 0.17483115 -0.15825164 0.7078149
liver -0.40685588 0.23293445 0.26713485 0.17254965 0.18320526 -0.5352524 0.28529197 -0.35684216 -0.089012735 0.0032381604 -0.094726436 0.2258083 0.20822968 -0.268641 0.322985 0.53621876 -0.33110896 0.151194 -0.14105166 0.6493203
dopamine -0.37772262 0.23517692 0.23470925 0.16797052 0.15782976 -0.5432379 0.25335842 -0.3202455 -0.1015333 0.018766586 -0.118761666 0.2641475 0.20084588 -0.2231569 0.32374078 0.48626554 -0.33536762 0.17900872 -0.11731927 0.61393833
's -0.5016766 0.3051451 0.31876296 0.19906287 0.22508125 -0.68472636 0.3518627 -0.39826098 -0.107814655 0.051782135 -0.13338347 0.33437973 0.2378007 -0.2919951 0.38353413 0.6450673 -0.4019571 0.21605888 -0.13537431 0.7616483
alpha -0.49409822 0.30979127 0.32599828 0.24707888 0.20942871 -0.6501248 0.3571915 -0.4034378 -0.13721618 0.024480302 -0.115857475 0.3092062 0.22132081 -0.32419512 0.4165728 0.6438739 -0.40156084 0.22514643 -0.15423042 0.7717243
using -0.5926816 0.42196265 0.42212063 0.3136216 0.2790205 -0.8582226 0.4437196 -0.5091831 -0.1337349 0.05303156 -0.19263102 0.40036777 0.30625302 -0.42701635 0.5014916 0.80930346 -0.5449125 0.2619305 -0.20322789 0.9912982
drugs -0.48545232 0.33878464 0.29690024 0.23169257 0.22197352 -0.6955201 0.3599724 -0.41172212 -0.11814871 0.03139024 -0.15419486 0.3065572 0.25002676 -0.34898376 0.42856643 0.685304 -0.439762 0.21975324 -0.14782415 0.7778867
response -0.4450942 0.27232805 0.27539104 0.19290735 0.22496533 -0.5827603 0.34718266 -0.37384328 -0.09274297 0.059281614 -0.103223875 0.26676926 0.23346618 -0.30422884 0.37650117 0.58912355 -0.34519967 0.19312823 -0.13392955 0.6790324
molecular -0.4162631 0.2931603 0.2820755 0.20357081 0.21411198 -0.5891899 0.3309001 -0.38829553 -0.124598496 0.03731075 -0.09655693 0.25372308 0.22046165 -0.2588126 0.38204756 0.59922343 -0.39170563 0.19912991 -0.14159991 0.7041695
associated -0.50807494 0.32685804 0.3493531 0.22084436 0.23992689 -0.73810333 0.38233918 -0.43549767 -0.13299793 0.04605173 -0.14942124 0.3148637 0.28037557 -0.3684212 0.43599787 0.7016327 -0.45257315 0.22746095 -0.15427037 0.8208367
potent -0.40628913 0.27148414 0.25301263 0.18133956 0.21942146 -0.5853939 0.31384927 -0.358563 -0.10828396 0.0498988 -0.12737022 0.2695516 0.20934004 -0.26693758 0.32684335 0.5671355 -0.37933064 0.19264579 -0.106283374 0.6357888
characterization -0.27170783 0.20223987 0.16300574 0.11968063 0.15079868 -0.43150708 0.19853146 -0.24718556 -0.09535895 0.027714415 -0.09926088 0.17502995 0.1354585 -0.18777597 0.24333368 0.39068896 -0.23557602 0.11248884 -0.08193168 0.4798414
synthesis -0.3795294 0.22304899 0.23191786 0.1671604 0.20242728 -0.499292 0.25790715 -0.33566314 -0.11447429 0.016192736 -0.12471557 0.24269144 0.16497213 -0.2435772 0.2937142 0.52152514 -0.3410857 0.1676633 -0.112950265 0.5991258
are -0.5078353 0.37419555 0.32377282 0.24706237 0.24539165 -0.755923 0.42500433 -0.48793143 -0.14035869 0.015947267 -0.1383889 0.34780797 0.27937692 -0.33089477 0.45429713 0.71459794 -0.4413651 0.23053627 -0.15572932 0.8690831
between -0.58377457 0.37468043 0.37160835 0.29220667 0.25680354 -0.80920815 0.44254798 -0.48848903 -0.15192905 0.056384955 -0.17038265 0.38670456 0.28559157 -0.39910564 0.46092266 0.7824879 -0.49111068 0.23748101 -0.16746008 0.94183683
high -0.5262521 0.32837465 0.3521057 0.26189715 0.26756403 -0.7282052 0.4157135 -0.4616001 -0.15434763 0.058117058 -0.16707769 0.3559867 0.23352085 -0.34597644 0.43072316 0.68259937 -0.4558175 0.22483821 -0.15696084 0.8583327
regulation -0.3484484 0.24491 0.26037505 0.19376136 0.18953401 -0.53937125 0.30232093 -0.346528 -0.09199055 0.02496464 -0.10271001 0.24406405 0.16931413 -0.2457481 0.3190621 0.524991 -0.3425646 0.16866043 -0.122788705 0.5808275
DNA -0.45154116 0.31281388 0.28147078 0.19356662 0.23992117 -0.6610886 0.37112647 -0.41857275 -0.11678416 0.054282922 -0.12988876 0.30135345 0.23037985 -0.28861567 0.37269568 0.63468266 -0.42267278 0.192048 -0.12858246 0.76617306
Inhibition -0.31108457 0.18944456 0.19820745 0.11566975 0.12520716 -0.40085095 0.22921373 -0.24409004 -0.060898 0.009276084 -0.08245873 0.18840858 0.13778548 -0.203959 0.2448987 0.37667242 -0.24803115 0.13402899 -0.09776783 0.44619215
breast -0.2550603 0.2049561 0.21783628 0.11630855 0.12409098 -0.4339912 0.21754628 -0.26992807 -0.044573437 0.04883262 -0.093412474 0.15753147 0.15590607 -0.17875412 0.23351198 0.4187104 -0.24293998 0.10960578 -0.08677073 0.46607152
agents -0.31587532 0.21955855 0.18959852 0.15825745 0.15148824 -0.48827916 0.2404753 -0.2758122 -0.09329832 0.042222995 -0.101919934 0.22685301 0.17759088 -0.19834441 0.29129586 0.45815945 -0.30933762 0.13877183 -0.11070418 0.50984925
during -0.6382831 0.42005765 0.39305598 0.3024838 0.28797412 -0.8527754 0.45830932 -0.5560807 -0.15958035 0.029468652 -0.18231323 0.40586698 0.274988 -0.42759484 0.49522278 0.84268606 -0.53226966 0.2548805 -0.18420973 0.97812325
derivatives -0.40926918 0.29531133 0.27040645 0.17235748 0.19939767 -0.5684156 0.31000265 -0.3516915 -0.1307485 0.029363463 -0.10217482 0.28595045 0.2093259 -0.29253837 0.33859992 0.54492086 -0.34315306 0.17297427 -0.12143883 0.6561292
not -0.54313636 0.3913617 0.37649617 0.2621871 0.24585533 -0.79533464 0.4331939 -0.5024093 -0.13302243 0.040167615 -0.1317218 0.33664384 0.28553754 -0.36870766 0.4498788 0.7642838 -0.46375212 0.21926087 -0.16683474 0.8984987
production -0.52018714 0.3738523 0.3708133 0.2679149 0.23378268 -0.76870185 0.40978128 -0.46481726 -0.13517569 0.056963358 -0.16648918 0.34529895 0.24536875 -0.38397568 0.4663209 0.71273506 -0.48468217 0.23511612 -0.19292483 0.85559905
mechanism -0.35133237 0.21002147 0.1969012 0.1797769 0.16843666 -0.4841393 0.23555742 -0.30952868 -0.07090027 0.011930449 -0.082292825 0.20857872 0.16973019 -0.22547711 0.27991104 0.43163702 -0.28816697 0.16359857 -0.10867115 0.5114789
induces -0.5307552 0.32561827 0.33870068 0.24137819 0.21353088 -0.69768566 0.3711485 -0.46252355 -0.123132564 0.04996644 -0.14719312 0.314275 0.22303556 -0.36182228 0.40332788 0.7008972 -0.42991903 0.2480776 -0.15009797 0.7940698
oxidative -0.39459813 0.25373456 0.2244489 0.1587265 0.18458371 -0.5348418 0.2968547 -0.31667945 -0.07820015 0.013247081 -0.12031371 0.23712337 0.17603445 -0.25887045 0.31986868 0.5355764 -0.31415156 0.17240253 -0.10310742 0.6331715
levels -0.40476698 0.27198845 0.2729731 0.17960538 0.19792147 -0.53801465 0.28816122 -0.33315176 -0.08324624 0.034612637 -0.13030191 0.27058733 0.213354 -0.25246382 0.32753116 0.51580834 -0.32986864 0.1533977 -0.14031865 0.64334786
synthase -0.2976748 0.22096473 0.19697298 0.14001317 0.12052691 -0.44104218 0.22154517 -0.2650995 -0.071266145 0.04717083 -0.07016847 0.18105577 0.15766972 -0.21911259 0.2791973 0.42890158 -0.24941418 0.12407813 -0.08559781 0.47852656
muscle -0.41651022 0.25393 0.26333314 0.21132343 0.21227859 -0.57754856 0.33171818 -0.37812558 -0.086449094 0.032953586 -0.13333261 0.2536707 0.1907464 -0.30296043 0.3327507 0.57978344 -0.37805477 0.1828707 -0.14370717 0.6862706
their -0.37271786 0.24116899 0.27515596 0.17497398 0.17496826 -0.53128314 0.29325575 -0.31754744 -0.10660154 0.015882308 -0.11330644 0.26435655 0.1788431 -0.25530764 0.3475631 0.5216421 -0.35826442 0.19036143 -0.11530886 0.6080631
exposure -0.423832 0.24579898 0.26988775 0.16979168 0.16613096 -0.5523318 0.31762457 -0.350983 -0.094489366 0.026896188 -0.09114962 0.27544838 0.19972625 -0.25454447 0.3604116 0.5552693 -0.33133048 0.17378022 -0.12058646 0.642099
use -0.24656118 0.18246809 0.185652 0.14632495 0.122397214 -0.37954485 0.2070567 -0.24939467 -0.046500657 0.016217869 -0.08173485 0.17915465 0.1398171 -0.19578716 0.20799421 0.35994396 -0.21614279 0.12475996 -0.09172853 0.42934978
interaction -0.30950505 0.19067827 0.17021218 0.118895575 0.12909934 -0.41087666 0.22844552 -0.2675153 -0.088407435 0.042645182 -0.072258174 0.21473195 0.12241397 -0.21792196 0.2738265 0.38171977 -0.26227427 0.11316024 -0.118773706 0.48515424
proteins -0.39612472 0.24674508 0.24619776 0.19863622 0.20039679 -0.55237174 0.277476 -0.35733226 -0.09686275 0.023200428 -0.1092224 0.2508204 0.20147273 -0.28682476 0.34672976 0.5168525 -0.32312852 0.16104758 -0.1461065 0.6325378
antagonists -0.28439885 0.16998215 0.17170495 0.1181046 0.15580088 -0.41923884 0.22480902 -0.2648436 -0.060954567 0.03218606 -0.084263794 0.17901678 0.13647573 -0.2134549 0.2172605 0.3861666 -0.24193308 0.13186723 -0.11068225 0.48042688
endothelial -0.36023828 0.23912339 0.2134879 0.15149413 0.17892802 -0.50970936 0.27631527 -0.28365076 -0.068079256 0.04945036 -0.072806284 0.22556001 0.1924199 -0.25502598 0.29113093 0.45216608 -0.28647077 0.16549358 -0.11268059 0.54195505
insulin -0.32897177 0.2028794 0.22765394 0.14097026 0.15811534 -0.4624406 0.2525205 -0.2785932 -0.10934712 0.015083317 -0.09886416 0.20444514 0.17458351 -0.24297805 0.25535807 0.4217482 -0.2632084 0.15938531 -0.12894177 0.52756536
channel -0.41573915 0.28616148 0.28175324 0.20710371 0.18304268 -0.5651625 0.32754093 -0.3607784 -0.12973934 0.010635942 -0.10385 0.2517242 0.2197012 -0.28670552 0.36352384 0.54054725 -0.34900174 0.18982786 -0.15493138 0.65619195
evaluation -0.29299375 0.16992854 0.16610233 0.12716112 0.11641218 -0.41919342 0.18841957 -0.2710978 -0.09499048 0.022422189 -0.08290741 0.18660618 0.15298012 -0.21195905 0.22480273 0.40028965 -0.25807577 0.11938109 -0.076027445 0.4745161
studies -0.27402458 0.197887 0.17719765 0.14226463 0.123371996 -0.3981275 0.20979235 -0.26376843 -0.058562197 0.034064565 -0.074213535 0.18319394 0.1312611 -0.20431072 0.24545768 0.4033948 -0.2498368 0.14009021 -0.08946215 0.460822
therapy -0.3061698 0.21174264 0.17850749 0.124607354 0.159385 -0.39382163 0.200036 -0.23801084 -0.095930286 0.043941997 -0.0675408 0.17345454 0.13277674 -0.1753955 0.26950315 0.41144767 -0.2329178 0.142844 -0.10514022 0.466096
action -0.23918547 0.16938503 0.1853361 0.14588949 0.108071476 -0.3508855 0.20054445 -0.20312057 -0.04154685 0.0072221663 -0.054398548 0.14144629 0.13768831 -0.18250908 0.19983634 0.36824432 -0.21756221 0.12701635 -0.08689978 0.41655692
release -0.3347418 0.24382986 0.22530213 0.17127258 0.14712727 -0.49976 0.2589146 -0.31868386 -0.08250651 0.026578043 -0.083771124 0.19960779 0.1503898 -0.21404673 0.2910269 0.45253563 -0.31946865 0.12702496 -0.11796529 0.56780696
genes -0.31000927 0.19960432 0.1816838 0.157166 0.15104398 -0.4044326 0.24365237 -0.24769267 -0.05436423 0.004045799 -0.06851835 0.16868591 0.15857911 -0.19161756 0.25189328 0.38887638 -0.26355734 0.11281306 -0.086252116 0.48618853
hormone -0.30808207 0.18769461 0.18055893 0.15957914 0.14177398 -0.40500373 0.20650293 -0.25407863 -0.08299467 0.044197064 -0.08253837 0.20541859 0.12350628 -0.18457526 0.21967681 0.38509077 -0.24348083 0.1076419 -0.1042512 0.47297344
target -0.32538185 0.20450267 0.20880093 0.1367443 0.12692377 -0.45420876 0.22690414 -0.25320467 -0.095900334 0.004129856 -0.091639586 0.17916673 0.16660804 -0.22524461 0.2784229 0.39578316 -0.26393005 0.114356935 -0.107053965 0.4986434
system -0.35114652 0.21510309 0.22976053 0.15410118 0.19299105 -0.515538 0.24659187 -0.3229836 -0.10589836 0.05194248 -0.099893324 0.20936312 0.18139732 -0.2358545 0.3195711 0.4667463 -0.3023104 0.13952607 -0.12687835 0.58855313
tumor -0.25884423 0.15004443 0.1788151 0.10377596 0.12727585 -0.3765093 0.20803207 -0.22896674 -0.091174975 -0.003157608 -0.07556193 0.18102622 0.10062672 -0.16449635 0.23394933 0.32745057 -0.24046414 0.090381764 -0.08646497 0.42052072
In -0.32914802 0.2327364 0.20011249 0.17168713 0.15052065 -0.4471015 0.25331867 -0.29792622 -0.08603609 0.046991937 -0.10624369 0.20688793 0.1711998 -0.21954952 0.28666446 0.44719586 -0.27409926 0.13465819 -0.12121624 0.54492927
beta -0.28264824 0.21849813 0.19090278 0.12790196 0.15982991 -0.41000134 0.25332084 -0.2644555 -0.10188973 0.020754907 -0.09077476 0.21946363 0.13090877 -0.19166021 0.2589055 0.4250447 -0.2670758 0.14357935 -0.07516275 0.5135053
Characterization -0.20838761 0.15042323 0.11844353 0.072717525 0.07523353 -0.28616047 0.15695588 -0.15842472 -0.03692833 0.02943875 -0.051003627 0.09957173 0.09371968 -0.107815675 0.17870405 0.24242495 -0.14061938 0.07826847 -0.06993546 0.31510505
changes -0.36483434 0.25344813 0.2569417 0.14953944 0.18139867 -0.539347 0.2798493 -0.31428152 -0.0877519 0.011250804 -0.105600625 0.22714256 0.16147587 -0.22331929 0.32667515 0.5180844 -0.3151021 0.14054723 -0.10619536 0.589738
epithelial -0.22676855 0.1673112 0.13940501 0.08510684 0.11659549 -0.33795944 0.16306591 -0.18020424 -0.06811258 0.014077774 -0.07719928 0.14802451 0.112075955 -0.13953009 0.20908757 0.32536015 -0.19991869 0.10494614 -0.056949202 0.3369393
analysis -0.36481735 0.23275682 0.23910761 0.14735813 0.19031513 -0.50279224 0.25775546 -0.324927 -0.08710404 0.03676086 -0.086809576 0.23622596 0.19160739 -0.22360161 0.29684368 0.51670814 -0.30722734 0.17318387 -0.0989915 0.5738172
after -0.49286044 0.31676817 0.31618726 0.23608285 0.22134903 -0.7371386 0.39860743 -0.41918778 -0.15039931 0.040688436 -0.13958742 0.34154087 0.22807539 -0.3178128 0.4028703 0.68180627 -0.4423073 0.23950033 -0.14725076 0.8292734
agonist -0.2614299 0.18195935 0.17077483 0.113821425 0.115730725 -0.33268052 0.17808618 -0.23557438 -0.054020617 0.029366521 -0.04673921 0.14865585 0.10457766 -0.17615098 0.19332395 0.31569284 -0.19071957 0.09833554 -0.10440654 0.38565025
channels -0.33547497 0.2062556 0.21165995 0.16313446 0.13619381 -0.48091236 0.24447766 -0.29340306 -0.08645145 0.016530551 -0.078871645 0.19966163 0.18184103 -0.21846287 0.28536135 0.4368993 -0.27852473 0.14089735 -0.09422062 0.5638732
acute -0.31556213 0.22832432 0.2051621 0.13512595 0.15458655 -0.47287634 0.26524505 -0.2980218 -0.107540935 0.02541106 -0.112155244 0.23257987 0.17912719 -0.19434182 0.27856573 0.42287147 -0.27046403 0.15332061 -0.11924682 0.5057477
serotonin -0.15298314 0.12518536 0.10849773 0.09479547 0.082251444 -0.2229474 0.11712317 -0.13912264 -0.062303483 0.03319349 -0.05690142 0.11813638 0.06702461 -0.097873576 0.11981567 0.24654025 -0.13512081 0.09198819 -0.07764401 0.25441173
modulation -0.26440397 0.18386342 0.16504572 0.12834302 0.11132542 -0.37433445 0.20043822 -0.23525149 -0.09083109 0.015368197 -0.07704556 0.1450474 0.10720417 -0.19713189 0.24156362 0.3380537 -0.22943711 0.1228797 -0.071593836 0.42641315
anti-inflammatory -0.32622102 0.21677203 0.2200933 0.16546446 0.16645302 -0.4110229 0.20668256 -0.28445837 -0.07963693 0.042573832 -0.06717832 0.19291428 0.16407658 -0.21521075 0.26821053 0.40537795 -0.27910244 0.123311885 -0.10526726 0.5081992
histamine -0.23651925 0.17023274 0.17630322 0.12337499 0.14989229 -0.34673417 0.19168538 -0.24434024 -0.08882112 0.0058018286 -0.07794251 0.15221137 0.120380476 -0.16296004 0.24377093 0.34165445 -0.24166211 0.09344292 -0.082968004 0.44611555
toxicity -0.25094652 0.16253339 0.16074628 0.10392277 0.13641842 -0.34577283 0.19987917 -0.20492247 -0.050269984 0.022738876 -0.06330362 0.16531855 0.124607876 -0.17697099 0.19916488 0.36672562 -0.20192668 0.1329112 -0.07286871 0.4153931
clinical -0.24997103 0.17608799 0.16725406 0.117181905 0.11269133 -0.3299388 0.15869486 -0.19596738 -0.045796443 0.014256604 -0.07054344 0.1718779 0.11247002 -0.15229085 0.1895447 0.30553743 -0.22556391 0.081698604 -0.09138491 0.38722333
lung -0.23251545 0.15578228 0.15858836 0.1156885 0.11310314 -0.3321235 0.19864789 -0.20250508 -0.07810104 0.022752684 -0.08641643 0.14653482 0.0881492 -0.16949874 0.20161031 0.33765396 -0.189763 0.11906847 -0.08456461 0.35662326
functional -0.21164145 0.14193256 0.13111435 0.12425127 0.118600324 -0.33073086 0.17263657 -0.17504005 -0.047733612 0.011685644 -0.066581145 0.15994592 0.09142129 -0.16212024 0.19143657 0.3160158 -0.16299583 0.0722631 -0.0883154 0.36862326
male -0.2952924 0.19730757 0.16074139 0.14850293 0.10864667 -0.40835643 0.20011002 -0.24968065 -0.06709644 0.000897754 -0.07954038 0.18251695 0.1282644 -0.17049964 0.25087252 0.35782933 -0.25341514 0.11217887 -0.09149303 0.44647548
Identification -0.20264557 0.12117201 0.13464378 0.118831865 0.11026698 -0.29095516 0.14142004 -0.20841776 -0.044642378 0.015666425 -0.045849334 0.14805494 0.12595229 -0.12620471 0.19441868 0.28655067 -0.15904418 0.09481867 -0.049958773 0.3613397
sodium -0.30957064 0.20309718 0.21136357 0.17557609 0.17391786 -0.44626182 0.25647026 -0.29737663 -0.0805791 0.043000374 -0.07831013 0.231469 0.1507203 -0.19450793 0.28077757 0.4611773 -0.2964296 0.16314037 -0.093411066 0.5453762
control -0.24791834 0.19878763 0.16087323 0.10639896 0.1308346 -0.40021452 0.19650361 -0.24132237 -0.07438094 0.00689285 -0.08560477 0.1699806 0.12033859 -0.17303684 0.20370623 0.33909768 -0.23589773 0.10335257 -0.091350235 0.4147967
activities -0.3333631 0.21489513 0.23433135 0.15169582 0.14773075 -0.4695476 0.2505228 -0.3096597 -0.096213475 0.009290762 -0.08885469 0.2027531 0.16025753 -0.21566679 0.2820634 0.4404186 -0.2753605 0.17119317 -0.12641837 0.55302435
that -0.48377654 0.30011445 0.29896283 0.22650647 0.2504552 -0.70534587 0.35516745 -0.42162153 -0.13536543 0.017530555 -0.109646186 0.29262298 0.21431872 -0.34033036 0.40905496 0.6761226 -0.43233356 0.2091802 -0.140434 0.7820107
diabetes -0.17205831 0.087735936 0.08979823 0.05952027 0.07588771 -0.20573853 0.131497 -0.11227257 -0.028453667 0.03413065 -0.051121674 0.08724724 0.092380546 -0.09111983 0.13240005 0.21741112 -0.15279779 0.07549231 -0.071882896 0.27878028
renal -0.29997158 0.2303885 0.2316086 0.15794025 0.1332002 -0.45653644 0.21805233 -0.27250373 -0.08697268 0.049738683 -0.08936635 0.20762406 0.13881591 -0.1981797 0.2594703 0.4413404 -0.28851703 0.11460301 -0.09284632 0.5335384
mechanisms -0.23744695 0.15954503 0.15924075 0.10780298 0.13935544 -0.39232102 0.19003561 -0.23516971 -0.06277043 0.0293205 -0.04899757 0.1724918 0.12647885 -0.17043649 0.23414075 0.33238822 -0.24775085 0.09029165 -0.09002119 0.4127739
secretion -0.2883995 0.1739018 0.18398255 0.11256941 0.16267832 -0.41679358 0.2348425 -0.2539321 -0.051945012 0.04345305 -0.081851535 0.19179586 0.16570452 -0.16684575 0.2372339 0.38118088 -0.26551026 0.10196685 -0.10765677 0.48627365
primary -0.28432077 0.19085526 0.17217487 0.10864871 0.110518485 -0.38100317 0.20021358 -0.21220641 -0.047748957 0.027321182 -0.08051864 0.15929195 0.10561236 -0.18071742 0.2106036 0.3750318 -0.24455453 0.11206194 -0.10616197 0.44365376
inflammatory -0.25572085 0.15954164 0.15777192 0.118346006 0.10941559 -0.38186172 0.20217468 -0.19781251 -0.044466715 0.030077012 -0.09013621 0.14953712 0.12659234 -0.15783906 0.20492914 0.31857017 -0.19262569 0.11506074 -0.10404569 0.38623083
thyroid -0.22164556 0.15569246 0.14333211 0.09491755 0.09570774 -0.30632174 0.17389058 -0.22092295 -0.041045215 0.0017861034 -0.07390966 0.13526812 0.110837236 -0.16096471 0.16547035 0.3315222 -0.18328871 0.0773181 -0.052561384 0.34205762
Novel -0.26161224 0.17903548 0.18483384 0.10676263 0.11630627 -0.4092919 0.18855801 -0.23308247 -0.063950844 0.017687045 -0.06733321 0.15578622 0.13396809 -0.18972985 0.22166154 0.38538635 -0.25418437 0.112147 -0.111328766 0.42352962
resistance -0.24588846 0.17714296 0.1959485 0.14589481 0.14132325 -0.39887965 0.19064529 -0.2616637 -0.05463129 0.027368283 -0.09378035 0.16584405 0.13294864 -0.18332025 0.2104303 0.3847404 -0.25341427 0.1385276 -0.10727674 0.43674892
calcium -0.33089718 0.20987281 0.24310933 0.14652051 0.1702089 -0.4903753 0.24557294 -0.2863336 -0.083269134 0.02618256 -0.10983728 0.24005055 0.17401543 -0.23138502 0.29397494 0.45062348 -0.29283088 0.14834723 -0.12063574 0.57435966
mediated -0.22734174 0.18530218 0.14138877 0.10841011 0.101301 -0.33592254 0.17113493 -0.23909295 -0.0730928 0.010232906 -0.06047557 0.15510227 0.14662433 -0.19323713 0.22045527 0.3425837 -0.20397067 0.13360438 -0.092653826 0.38473454
comparison -0.1987163 0.1157964 0.13067198 0.08135489 0.0861728 -0.24301821 0.14700685 -0.16958219 -0.041054845 0.030437008 -0.068074726 0.13968906 0.08922785 -0.13526744 0.17302896 0.24733503 -0.179546 0.073438525 -0.04623054 0.31537476
- -0.23470493 0.18003534 0.15635289 0.10521741 0.13835987 -0.34591582 0.17002988 -0.21713911 -0.047443636 -0.0007332576 -0.07909355 0.17374456 0.10232984 -0.15283126 0.19297577 0.30324128 -0.22437413 0.09978322 -0.06936082 0.35916668
damage -0.24504176 0.19012584 0.1710141 0.11581106 0.11196895 -0.36752802 0.18403196 -0.22412738 -0.08845454 0.030622035 -0.04784912 0.17487776 0.13326597 -0.16133425 0.2333558 0.34875444 -0.20151457 0.13512148 -0.09265033 0.44404843
plasma -0.23724484 0.16164334 0.16607326 0.09948353 0.14811233 -0.35639623 0.17993832 -0.23153594 -0.062201623 0.016659217 -0.07858967 0.18995707 0.12589346 -0.1865225 0.1999318 0.35198334 -0.24112138 0.14018533 -0.08763514 0.44885153
blood -0.34463787 0.21614075 0.24199022 0.17085877 0.17440979 -0.50715363 0.26745912 -0.29562613 -0.073965594 0.01700434 -0.123871356 0.2525077 0.15341969 -0.21677968 0.28261343 0.5164641 -0.31478006 0.17127629 -0.12294406 0.60436124
? -0.29959056 0.19349118 0.19142814 0.13297942 0.1294355 -0.44237 0.22323748 -0.2679891 -0.05458938 0.019722724 -0.083373256 0.16788678 0.1572191 -0.22384381 0.27286193 0.4277084 -0.26721296 0.15383752 -0.08495084 0.49088368
involved -0.27377498 0.16193295 0.19468935 0.10644455 0.12974682 -0.3903028 0.19643876 -0.22065231 -0.059746005 0.032079652 -0.058027823 0.16843702 0.13049789 -0.19178046 0.23872791 0.3523416 -0.22980519 0.12921484 -0.09076191 0.4432226
attenuates -0.3995021 0.24574836 0.27019176 0.16554591 0.21451537 -0.5910653 0.304956 -0.33971518 -0.12886779 0.039853316 -0.1299961 0.23842044 0.19501337 -0.28113508 0.3408664 0.557646 -0.3727187 0.19125067 -0.13664486 0.6692571
biological -0.16921635 0.114991486 0.11235834 0.087680735 0.08321077 -0.26909736 0.15973978 -0.18807599 -0.036423218 0.022105657 -0.050139073 0.14031307 0.10287406 -0.12539083 0.15609536 0.26769698 -0.16580401 0.10607915 -0.047806792 0.2809902
hepatic -0.30685082 0.17402178 0.20213024 0.12263909 0.120172486 -0.39194694 0.20506719 -0.2704693 -0.08098062 0.014468381 -0.074764796 0.18372038 0.1480362 -0.18387844 0.25478974 0.38773265 -0.2254673 0.1061812 -0.08944422 0.4409205
syndrome -0.24938755 0.1768013 0.18100646 0.12775956 0.13868222 -0.3565067 0.16688988 -0.24677575 -0.08632987 0.009357377 -0.0535874 0.15323302 0.10311674 -0.18787561 0.23970705 0.31724632 -0.2429256 0.13057856 -0.07019776 0.41104475
enzymes -0.329902 0.22993496 0.21034998 0.14022644 0.13030113 -0.46480438 0.24391247 -0.27916896 -0.083906256 0.03449044 -0.070141055 0.20890549 0.16102773 -0.2331443 0.29597345 0.4386374 -0.30333623 0.16632265 -0.08558962 0.53541857
injury -0.20062385 0.146211 0.15539537 0.12672696 0.11471436 -0.31117964 0.16653956 -0.19984175 -0.062328815 0.0067934683 -0.055883538 0.14458975 0.09646492 -0.1511763 0.18717407 0.31125107 -0.18602043 0.124361865 -0.06570106 0.37650734
mutation -0.2531503 0.19053249 0.18072616 0.14864524 0.14693789 -0.37000814 0.19487637 -0.21684799 -0.057468746 -0.0034026352 -0.09767429 0.15543011 0.14607686 -0.18098484 0.21221466 0.3928462 -0.21502188 0.116647884 -0.10046471 0.45265952
oxidase -0.25619623 0.17495303 0.1254739 0.08732921 0.11934248 -0.3495524 0.19693856 -0.20073506 -0.046528097 0.017700898 -0.072427146 0.14702019 0.11561404 -0.15648462 0.17767799 0.29188743 -0.2186966 0.12533706 -0.09716631 0.37194014
enhances -0.32084745 0.21517879 0.21448563 0.15965869 0.13822216 -0.45492515 0.22000739 -0.26103678 -0.059605744 0.021774493 -0.06210073 0.19097249 0.14045212 -0.22348039 0.26287082 0.39551613 -0.27231935 0.14672846 -0.107911594 0.50172186
chronic -0.2913116 0.20468031 0.16277665 0.14426754 0.11512406 -0.4033024 0.21316168 -0.24983597 -0.09163898 0.044871546 -0.055833258 0.18437253 0.162622 -0.1886827 0.23720416 0.3677724 -0.26242593 0.10546787 -0.10018464 0.48228619
isolated -0.3201697 0.18386532 0.19852875 0.14378664 0.16004469 -0.43813977 0.25127047 -0.29670015 -0.105983324 0.04186593 -0.062181763 0.20967828 0.128916 -0.21586229 0.266242 0.41920212 -0.25682342 0.14622608 -0.080610186 0.48929715
administration -0.30051324 0.21641758 0.19935787 0.15640928 0.123276606 -0.39935046 0.22744194 -0.26903296 -0.07251171 0.04665891 -0.09488835 0.20434393 0.1633597 -0.19857197 0.26108068 0.39875424 -0.27319732 0.15023017 -0.07809237 0.49024695
+ -0.22094642 0.1507992 0.16213444 0.11921899 0.083786905 -0.29596415 0.1723414 -0.2103966 -0.08077374 0.025237394 -0.06791752 0.13054092 0.101745084 -0.16195665 0.19016016 0.29593647 -0.20208046 0.11810103 -0.09737289 0.37001964
protects -0.30215147 0.21537876 0.18379982 0.15874021 0.13190703 -0.44314504 0.21459271 -0.2605245 -0.070742086 0.008666765 -0.075202405 0.21559478 0.1595764 -0.21255143 0.28243646 0.409836 -0.2828484 0.12680277 -0.08690978 0.4945542
I -0.26952526 0.21191758 0.18262997 0.11466837 0.16133049 -0.40907785 0.2178006 -0.27287748 -0.07598393 0.019412836 -0.10230804 0.17550519 0.14484064 -0.21270955 0.24196249 0.4055665 -0.24295428 0.115138404 -0.11196778 0.45405307
structure -0.16702251 0.10150713 0.12897728 0.069163844 0.08093509 -0.25081703 0.11141228 -0.16552913 -0.019464197 -0.008487488 -0.054355424 0.11258744 0.10681815 -0.09931181 0.1585907 0.23909199 -0.16202322 0.07320314 -0.05545866 0.26458064
reduces -0.35830083 0.2322385 0.20941666 0.17214662 0.14347515 -0.49469146 0.23591988 -0.27466518 -0.088746384 0.029036922 -0.11255909 0.23934056 0.17272371 -0.22361553 0.28502938 0.46307224 -0.280207 0.14655732 -0.09256167 0.5650598
amino -0.22028415 0.16453958 0.16082793 0.10927638 0.122843966 -0.31174973 0.14679407 -0.22432235 -0.08363334 0.03191318 -0.06621031 0.1264848 0.1264724 -0.14459987 0.21101314 0.31128156 -0.1882513 0.12153762 -0.078408465 0.37865058
responses -0.3267433 0.20089492 0.2215326 0.16397935 0.12448277 -0.4169589 0.2388428 -0.2632826 -0.05874035 0.033341635 -0.105027065 0.21649763 0.13794595 -0.22481012 0.27891728 0.4187632 -0.27443457 0.14189471 -0.11096477 0.48107347
interactions -0.2820774 0.22045521 0.17233087 0.15685292 0.12321813 -0.3974183 0.21236432 -0.25590047 -0.059824906 0.04514371 -0.080436245 0.20745571 0.14737394 -0.17127584 0.25093046 0.40269527 -0.25411335 0.14615145 -0.082437694 0.45274648
or -0.42813423 0.28804916 0.2769619 0.1850371 0.22004643 -0.6013697 0.30883142 -0.36449835 -0.11818392 0.03645155 -0.124122985 0.24369256 0.21316701 -0.2680296 0.3298516 0.55497974 -0.38195005 0.18021853 -0.1264849 0.64980626
transcription -0.2919403 0.17875934 0.18029307 0.13033907 0.11237462 -0.40476012 0.22287796 -0.222581 -0.054775868 -0.0026692285 -0.06896792 0.16071157 0.124218024 -0.19612664 0.21690692 0.37684187 -0.2620458 0.108125985 -0.06720502 0.45283553
but -0.28309605 0.169301 0.16387922 0.10517208 0.12850226 -0.37894464 0.22886042 -0.25857872 -0.08841757 0.017199611 -0.084250964 0.1916532 0.12550034 -0.20373125 0.24927169 0.35610488 -0.22129865 0.13324013 -0.084962755 0.42529687
development -0.320834 0.20665151 0.17559788 0.1619021 0.12560733 -0.42195916 0.21048672 -0.27556548 -0.054699216 0.026770286 -0.08898993 0.21634643 0.14654656 -0.18194026 0.24885006 0.39643428 -0.26086932 0.11511135 -0.077309445 0.50644666
C -0.24021858 0.14112186 0.13446446 0.10694241 0.09608263 -0.32869375 0.18429239 -0.21918808 -0.041093536 0.025706124 -0.05362161 0.1697828 0.10160575 -0.17023161 0.20202996 0.33465186 -0.19807714 0.104716614 -0.09660962 0.3709174
allosteric -0.32244638 0.2062811 0.18861517 0.14429067 0.14355952 -0.402395 0.22669168 -0.25388363 -0.09278339 0.015675513 -0.06980807 0.20865849 0.14427415 -0.18411118 0.2503081 0.38164276 -0.2760142 0.15676244 -0.09989188 0.4709179
complex -0.20354596 0.14711435 0.12110497 0.09344608 0.084705666 -0.27634805 0.16274972 -0.19294052 -0.05296782 0.011633778 -0.07754344 0.11717798 0.09136392 -0.1448417 0.17703952 0.29344445 -0.15121254 0.095701165 -0.067760795 0.30564168
inhibitory -0.19907276 0.15488786 0.15996559 0.088779524 0.08230658 -0.31330857 0.14824452 -0.18692078 -0.07872365 0.00082304067 -0.064668946 0.14348297 0.1270225 -0.13179626 0.20441377 0.28385976 -0.1967668 0.11633569 -0.08146762 0.35585722
profile -0.25703514 0.14223349 0.16252755 0.13747247 0.10713238 -0.35505828 0.20364407 -0.20665744 -0.08627544 0.008335517 -0.08849265 0.17279054 0.13258079 -0.16238995 0.1923877 0.3507021 -0.21690169 0.10777014 -0.07738832 0.39187217
Pharmacological -0.10126108 0.068022735 0.09691268 0.06676511 0.03511661 -0.16341242 0.08881375 -0.07673395 -0.038205296 0.0100015 -0.01726626 0.08729256 0.043580387 -0.08128106 0.09419811 0.15045878 -0.095294796 0.056648657 -0.0110087525 0.19079694
monoamine -0.18342233 0.09663688 0.10894691 0.07408618 0.07412367 -0.24447371 0.108131774 -0.14954393 -0.04797252 0.003939072 -0.031966157 0.12367033 0.094984576 -0.1092389 0.13634019 0.21734716 -0.1255204 0.08447073 -0.06697048 0.24242522
oxide -0.25900033 0.15441875 0.14938502 0.085876666 0.10804148 -0.35962325 0.18753119 -0.22129266 -0.06746086 0.011631798 -0.07121168 0.15175562 0.10670959 -0.18105035 0.18705167 0.33483917 -0.2257409 0.09804833 -0.062340427 0.38365707
pharmacology -0.14811689 0.09559725 0.08669847 0.06210009 0.067584775 -0.1842466 0.102830134 -0.14076108 -0.047544666 0.0074578696 -0.027944038 0.071479306 0.08726566 -0.10931344 0.100442015 0.19297928 -0.13617803 0.05516324 -0.019128043 0.23387484
Comparison -0.11757035 0.094231136 0.07096864 0.07228825 0.07928248 -0.1840891 0.07837059 -0.14075832 -0.035286512 0.0019090492 -0.056104273 0.06846136 0.07149452 -0.11086942 0.121577926 0.16969734 -0.110637724 0.03780253 -0.045254182 0.1990831
recombinant -0.2236801 0.18426502 0.16775602 0.09439381 0.13897303 -0.33954388 0.20121981 -0.19713475 -0.070591725 0.017004687 -0.044849034 0.14559928 0.09633941 -0.1378402 0.20422897 0.32747775 -0.2177652 0.092045926 -0.07560656 0.3718025
Molecular -0.18928783 0.11541499 0.0954985 0.077631794 0.06883598 -0.27117327 0.12787846 -0.15858607 -0.056951568 0.03125314 -0.02740748 0.12298209 0.0821446 -0.116913974 0.16175288 0.22017144 -0.15902394 0.07351653 -0.07242602 0.27919483
domain -0.28986493 0.20588562 0.18196775 0.12982297 0.12400938 -0.40531692 0.19195874 -0.2323582 -0.05391018 0.015505393 -0.09067086 0.18511339 0.13553774 -0.1881393 0.22906652 0.37125862 -0.24322443 0.10921072 -0.06454053 0.43411845
agonists -0.21990663 0.16105981 0.17169437 0.12531029 0.1041138 -0.31382895 0.15982392 -0.19606458 -0.049395453 0.011889992 -0.07804078 0.13116848 0.14118332 -0.14224929 0.22277236 0.33472994 -0.20018716 0.122433715 -0.058031365 0.38500947
norepinephrine -0.17148283 0.11071518 0.12527478 0.08485788 0.056964323 -0.25797346 0.15191601 -0.1750519 -0.023459047 0.013927637 -0.03159244 0.08951971 0.08379143 -0.11025219 0.12814072 0.23702522 -0.12468302 0.07469708 -0.031978656 0.26543194
Human -0.303638 0.21767166 0.19994004 0.15512319 0.13866135 -0.47070763 0.21597214 -0.29059955 -0.08015666 0.016147468 -0.07631637 0.20626034 0.17190339 -0.19498666 0.29620335 0.44936872 -0.26296297 0.12149152 -0.101250574 0.5286234
antioxidant -0.20861246 0.11503391 0.13129434 0.09002709 0.094151944 -0.27801186 0.13921443 -0.16279158 -0.029318793 0.033994738 -0.06325236 0.13117094 0.10629588 -0.15554601 0.1685275 0.2585139 -0.16436012 0.07778322 -0.069896735 0.3011736
inhibit -0.32309526 0.19670752 0.21611804 0.14274822 0.15592934 -0.4298548 0.24611963 -0.28353637 -0.08602386 0.010431824 -0.08925089 0.22043872 0.15608211 -0.1996416 0.25521147 0.44019687 -0.26072162 0.16246022 -0.11710429 0.51647645
analogues -0.15230128 0.09925965 0.09921516 0.055164345 0.08505325 -0.23701474 0.14819056 -0.13227324 -0.055265673 -0.009913168 -0.04752667 0.1189206 0.09266243 -0.111366324 0.12297535 0.24386536 -0.1616384 0.06357119 -0.06459101 0.2826316
neurons -0.24467312 0.1493817 0.14927992 0.12207097 0.084637344 -0.29538494 0.14739683 -0.21444002 -0.036634173 -0.007604787 -0.085840255 0.1539011 0.10141798 -0.14281493 0.20906194 0.31079492 -0.17375396 0.10429945 -0.08457851 0.3443593
acetylcholinesterase -0.1400938 0.09613796 0.08952991 0.04758353 0.07928598 -0.21138844 0.088238746 -0.13276315 -0.054756235 -0.013791548 -0.026763875 0.07921096 0.07144273 -0.10588406 0.09752114 0.16852358 -0.13931684 0.0640406 -0.048726264 0.2294081
bone -0.2728545 0.1745462 0.16042963 0.13496928 0.13957341 -0.36151078 0.2116648 -0.23595928 -0.047203947 0.014409073 -0.053675298 0.16499466 0.12179614 -0.16033368 0.22045399 0.36661547 -0.23027001 0.1022873 -0.065224804 0.42996436
formation -0.32645267 0.18415636 0.21009684 0.15583403 0.14315072 -0.43232876 0.21899998 -0.29776904 -0.07971197 0.045035597 -0.10261896 0.22295488 0.14942262 -0.18957445 0.2500518 0.43140692 -0.2882947 0.12414833 -0.115092285 0.48230794
Evaluation -0.15264715 0.11330741 0.09329466 0.06559367 0.056016207 -0.23504171 0.11435569 -0.15987113 -0.035338663 0.00353566 -0.044586595 0.119562574 0.08210975 -0.080099486 0.12417963 0.19890873 -0.15392074 0.052892964 -0.051596858 0.27131966
nitric -0.26210758 0.14442681 0.15901239 0.1269088 0.11702499 -0.3340488 0.19359414 -0.21358386 -0.04829274 0.03910584 -0.06673073 0.14233214 0.11380835 -0.15323827 0.19374242 0.354621 -0.2234147 0.124463364 -0.06328448 0.39557084
suppression -0.2502183 0.17716384 0.14952664 0.13679828 0.096877776 -0.3318404 0.2016237 -0.22732759 -0.08412427 -0.0036108196 -0.049080595 0.14468518 0.113076165 -0.17645934 0.1837291 0.33823934 -0.20744517 0.08472908 -0.064151905 0.41993177
serum -0.35500288 0.22990312 0.21642344 0.19536102 0.19098309 -0.5247792 0.29378176 -0.33397198 -0.09484586 0.050538514 -0.12010813 0.2561286 0.18606362 -0.25050098 0.32568038 0.50065404 -0.3188466 0.18346903 -0.1088756 0.6092319
humans -0.12939754 0.07911533 0.07113351 0.08389645 0.08443666 -0.20555137 0.085337915 -0.1090723 -0.05134093 0.0018793339 -0.052956056 0.07229189 0.049975168 -0.094478376 0.14022057 0.20564072 -0.11735698 0.043690514 -0.039603848 0.22717153
-- -0.3224833 0.23667519 0.2364995 0.13633832 0.17592114 -0.44044155 0.23370698 -0.2927726 -0.10511913 0.018017206 -0.0886702 0.20354778 0.16426219 -0.21352397 0.26121807 0.4365297 -0.3017575 0.1443176 -0.10149406 0.54280645
enzyme -0.11620675 0.092057966 0.064857066 0.05090323 0.039535012 -0.16667248 0.06258754 -0.074857675 -0.007566046 0.004689464 -0.029779205 0.050623056 0.05884478 -0.073207475 0.09407265 0.14043055 -0.07338706 0.06995584 -0.034404296 0.17777698
into -0.29784665 0.17606254 0.17083684 0.12604995 0.1482965 -0.40809938 0.21138303 -0.24208285 -0.052452162 0.012799179 -0.08918968 0.19735074 0.13676092 -0.21914026 0.2426217 0.41588196 -0.24337436 0.12971337 -0.072683364 0.49429008
induction -0.12575573 0.064953186 0.083155915 0.03827477 0.048719667 -0.17248414 0.09925525 -0.13338271 -0.03634354 0.011335252 -0.033995617 0.093243025 0.086532265 -0.10697742 0.08697485 0.17252848 -0.1103003 0.039202914 -0.026719632 0.21501435
death -0.230211 0.1350546 0.14926782 0.11543604 0.08818437 -0.31422675 0.153513 -0.17166957 -0.07548947 0.007371879 -0.047814295 0.16234441 0.11441741 -0.1340709 0.2060586 0.30300027 -0.16432075 0.07452189 -0.071209215 0.3333011
pathways -0.21219428 0.12206776 0.13343073 0.11119007 0.070540786 -0.28878677 0.16380441 -0.15822767 -0.042251747 0.010078408 -0.062491525 0.14961211 0.10171754 -0.15558825 0.19256152 0.26270556 -0.185364 0.06570601 -0.08600165 0.34654903
two -0.23634647 0.15888587 0.13794741 0.09850272 0.100716144 -0.3394341 0.1797731 -0.21339948 -0.06932961 -0.0068780435 -0.078499794 0.13571084 0.11014007 -0.14643875 0.2081039 0.31525117 -0.18390347 0.09243932 -0.051345646 0.37518337
3 -0.23720242 0.15560141 0.15003596 0.104340814 0.14156872 -0.35432497 0.16170983 -0.19605692 -0.06782952 0.028559119 -0.08889968 0.13927096 0.09984426 -0.18778494 0.2320245 0.3229114 -0.18993117 0.11746916 -0.078099445 0.40987733
compounds -0.2600775 0.19174837 0.18339078 0.1187637 0.11895443 -0.37038186 0.23164812 -0.24005795 -0.072416194 0.022512028 -0.057570055 0.17855677 0.14541121 -0.20643888 0.20915046 0.37629503 -0.25826716 0.114764184 -0.10058652 0.46812624
prostate -0.052915372 0.07703829 0.059945606 0.06176823 0.032371484 -0.13932067 0.07333432 -0.06902988 -0.013225501 0.0016126459 -0.008496131 0.04706569 0.06358459 -0.059721306 0.08348355 0.10841594 -0.051147997 0.031457704 -0.027165331 0.11535842
Differential -0.11974219 0.08906422 0.09327388 0.04496184 0.045438312 -0.18705517 0.11124271 -0.11003688 -0.038667448 -0.007923228 -0.04667793 0.066509224 0.06174708 -0.09412095 0.100904986 0.1929945 -0.12517864 0.06773489 -0.024219187 0.19723284
modulates -0.30144218 0.197568 0.1811654 0.16449666 0.1614003 -0.4310909 0.23894048 -0.28838181 -0.068975925 0.033881232 -0.07584039 0.20608787 0.15329963 -0.20060152 0.27347675 0.39742467 -0.27387995 0.116841495 -0.07573324 0.46445695
therapeutic -0.14686686 0.11344727 0.11039827 0.0967841 0.07402765 -0.25889438 0.11676302 -0.16863538 -0.05427861 0.0067803124 -0.057264622 0.12748195 0.09539959 -0.109517716 0.1466462 0.21824075 -0.16061658 0.09709987 -0.067884676 0.2974756
suppresses -0.22407855 0.17570525 0.16975026 0.10680092 0.09939828 -0.31184453 0.17024519 -0.22804472 -0.040514052 0.00072436687 -0.08787308 0.13850263 0.13443391 -0.14072426 0.21044904 0.2951383 -0.22360684 0.08707767 -0.06416059 0.38352513
healthy -0.24273467 0.1276504 0.14326036 0.12108683 0.10821459 -0.32628843 0.16970481 -0.19117314 -0.048020914 -0.0011879007 -0.042805072 0.12491283 0.10212969 -0.17306496 0.20156139 0.32388228 -0.19832961 0.08943597 -0.062008362 0.3544804
cortex -0.18067528 0.108580835 0.10980927 0.102673694 0.10107625 -0.26960906 0.1571105 -0.15526217 -0.07272338 0.035981182 -0.041715536 0.109972656 0.08409349 -0.15542316 0.1528652 0.26442987 -0.18196745 0.08715794 -0.06849568 0.33766165
implications -0.12328594 0.10014361 0.0755583 0.0465126 0.07218871 -0.15545617 0.09314282 -0.106595024 -0.03551631 0.014924376 -0.040911246 0.08645124 0.07540826 -0.09167427 0.10980906 0.14727113 -0.10561139 0.06618272 -0.034541078 0.22332321
increase -0.29089805 0.19786076 0.17854328 0.13758774 0.13294475 -0.43449804 0.2087249 -0.26971042 -0.06946662 -0.001591462 -0.10507344 0.18784657 0.1620924 -0.17114379 0.2643137 0.38689202 -0.2356679 0.13896924 -0.08436682 0.4745601
mRNA -0.22190644 0.15610333 0.1709634 0.09445182 0.11096546 -0.33025932 0.18605155 -0.21479 -0.057978604 0.0431897 -0.05868605 0.14514837 0.11561768 -0.17465727 0.22658516 0.35892934 -0.20026052 0.0971022 -0.06899639 0.41128424
vascular -0.22621447 0.12831369 0.118763804 0.11859818 0.10109442 -0.3104436 0.15317623 -0.206296 -0.071558096 0.025641717 -0.049228795 0.11866579 0.083588645 -0.1571783 0.16089241 0.31263596 -0.19408076 0.09605459 -0.052257925 0.34820408
active -0.24323368 0.19652635 0.17779072 0.12765431 0.104937054 -0.3633559 0.2084314 -0.25044885 -0.0684164 0.0022665053 -0.072671816 0.17143786 0.12457745 -0.1629281 0.21397504 0.38053194 -0.20550618 0.12894265 -0.07057059 0.4023437
risk -0.21197897 0.16213124 0.15594934 0.1309474 0.12862696 -0.344113 0.15522482 -0.18140829 -0.05813674 0.006210776 -0.05817208 0.1643626 0.13132513 -0.16996221 0.19538166 0.3323644 -0.20934449 0.12471387 -0.049254302 0.3888683
cardiac -0.17734712 0.1262231 0.15346487 0.09218189 0.10061748 -0.274847 0.15407866 -0.16112657 -0.053408977 -0.0074570393 -0.06049301 0.10275603 0.088332675 -0.10818271 0.1660382 0.27113053 -0.18543051 0.080813564 -0.07354975 0.30679178
cytochrome -0.2519318 0.17565663 0.13233419 0.11935596 0.12363594 -0.34231156 0.18464918 -0.21038081 -0.06895712 -0.006585778 -0.053960644 0.13801117 0.1369755 -0.15906651 0.20551011 0.32832032 -0.21141168 0.099550575 -0.09083152 0.38920563
weight -0.2098007 0.15767476 0.17567222 0.12048366 0.0919247 -0.35629612 0.19784094 -0.22464392 -0.079678796 0.027090007 -0.07664529 0.1318483 0.13539499 -0.16112134 0.19118705 0.297585 -0.2133237 0.10583473 -0.06516238 0.37910932
peptide -0.22952941 0.14429748 0.14980231 0.1352145 0.10829493 -0.3336172 0.18594816 -0.1972232 -0.08947805 0.017011024 -0.052435633 0.16705756 0.105901375 -0.14858271 0.2365211 0.33547246 -0.20916462 0.1245459 -0.062147193 0.41475487
cycle -0.20119295 0.11134592 0.12956755 0.07061263 0.10000569 -0.27814007 0.14055464 -0.17746487 -0.056534998 0.03532041 -0.06415787 0.13957459 0.113481194 -0.15551254 0.14102663 0.25152087 -0.18612906 0.08494991 -0.03750552 0.3295526
differentiation -0.19376434 0.15618473 0.11304613 0.1179646 0.0754542 -0.30330595 0.1489022 -0.17224413 -0.04553353 0.022092782 -0.050565746 0.13415939 0.10893584 -0.15257159 0.16820802 0.2496018 -0.1657696 0.09363027 -0.06949417 0.34045795
4 -0.13627465 0.078844994 0.094278455 0.045979112 0.0567704 -0.17621987 0.10726397 -0.123576134 -0.047464292 -0.003600423 -0.055102684 0.11478042 0.06736024 -0.073368736 0.1006514 0.1654487 -0.14556547 0.08186857 -0.050920952 0.21149093
transport -0.2427556 0.19723004 0.17757212 0.10708076 0.10143686 -0.38720483 0.21780679 -0.23427534 -0.07477657 0.032220647 -0.07315546 0.17219298 0.14882292 -0.14839876 0.21675599 0.34010264 -0.20137338 0.1269416 -0.10216809 0.41949555
specific -0.27509424 0.17573588 0.1451547 0.09835817 0.098893195 -0.36482584 0.18954636 -0.25021023 -0.058398705 0.011525904 -0.049367692 0.18393107 0.14627671 -0.1664748 0.24160849 0.3514358 -0.2093093 0.12630294 -0.074658565 0.4190319
diabetic -0.1697283 0.11024272 0.10752761 0.080291204 0.06666677 -0.19296698 0.13192964 -0.11653155 -0.040901616 -0.008402178 -0.033823535 0.07379594 0.08863566 -0.11040997 0.10071067 0.21295196 -0.123851 0.05457159 -0.04505117 0.25967854
agent -0.1355108 0.06808066 0.09589748 0.048276354 0.05316341 -0.1630575 0.107260145 -0.11497923 -0.04278465 0.008450457 -0.044586502 0.08820949 0.04632835 -0.10074414 0.113322854 0.15350755 -0.08461303 0.039872248 -0.052720707 0.18380293
Discovery -0.15408137 0.08863691 0.13108626 0.07656956 0.068645164 -0.25097623 0.1395184 -0.14034493 -0.026490232 -0.007887124 -0.049060732 0.103064395 0.0715345 -0.086502776 0.16218756 0.21102999 -0.16316003 0.074813664 -0.06104666 0.26261702
murine -0.26275334 0.1539102 0.18209249 0.12283832 0.12501037 -0.38188326 0.21171686 -0.20720847 -0.054083988 0.037077747 -0.08379335 0.1625266 0.13633183 -0.17145464 0.23139597 0.35806894 -0.24843104 0.13173623 -0.10300363 0.4415519
5-HT -0.119357266 0.08079861 0.061151944 0.05336035 0.027927503 -0.113997646 0.06939558 -0.07749324 -0.014373033 -0.015264293 -0.018803265 0.06539402 0.058609523 -0.043971285 0.06356053 0.11039479 -0.07943749 0.07120378 -0.023785232 0.1509589
surface -0.18533567 0.13597302 0.115640596 0.076579615 0.069166094 -0.27485162 0.14303082 -0.17818052 -0.039870173 0.03125929 -0.06966792 0.11228457 0.09139336 -0.15096964 0.17565118 0.27817306 -0.1533133 0.11187356 -0.065772206 0.2999964
D -0.13791814 0.095821336 0.10002266 0.04291502 0.08115176 -0.17374593 0.073544644 -0.110748366 -0.011067025 0.028913967 -0.049260046 0.06573717 0.049752556 -0.07701522 0.11767404 0.1808079 -0.12296879 0.04206866 -0.025134787 0.21220861
synthetase -0.27046424 0.14852197 0.15454027 0.14337692 0.10632073 -0.3567571 0.1722683 -0.22649914 -0.072840646 0.03503688 -0.09124204 0.18515629 0.13403244 -0.16452624 0.20142262 0.34398648 -0.2269056 0.10210308 -0.08216481 0.42950606
sites -0.16578628 0.12126068 0.11187239 0.08943336 0.06596635 -0.2118889 0.12648201 -0.11185965 -0.034383763 0.0027388302 -0.060527667 0.081528336 0.07137695 -0.10050485 0.14356503 0.21380669 -0.14592311 0.07911203 -0.029420992 0.22004908
Selective -0.21015187 0.12520047 0.109416306 0.09238428 0.08094355 -0.2873846 0.17308724 -0.17470242 -0.042429857 0.019922426 -0.055308983 0.12429377 0.07792166 -0.13101326 0.19234462 0.2923799 -0.19922398 0.09515227 -0.0869192 0.32387662
regulatory -0.23055199 0.1589229 0.16998065 0.10927547 0.119358085 -0.31627128 0.19027863 -0.20496485 -0.033466022 0.029715508 -0.08258004 0.16656758 0.09776576 -0.15224253 0.17786573 0.28901163 -0.20628749 0.09847426 -0.08218129 0.35359508
heart -0.13924816 0.10690971 0.06868563 0.039102953 0.08650028 -0.19736879 0.08181362 -0.10625757 -0.010800506 0.0004580017 -0.03378128 0.06745478 0.060154814 -0.08145545 0.101709664 0.17126206 -0.12428093 0.07885593 -0.040766817 0.21103781
reductase -0.23181142 0.14585394 0.16374607 0.089965835 0.08471243 -0.3189779 0.16658713 -0.17390434 -0.036992244 -0.00044579894 -0.05582549 0.13769516 0.10127309 -0.16563758 0.19989778 0.30837512 -0.19905007 0.110385664 -0.065439515 0.37253103
improves -0.30834538 0.19691475 0.17218408 0.1168076 0.13043126 -0.41874835 0.2277923 -0.26098946 -0.06884326 0.030383855 -0.06548207 0.16130525 0.12424462 -0.16875826 0.23582895 0.39163932 -0.23878449 0.11157565 -0.07023827 0.4652762
regulates -0.24254979 0.19188583 0.18826766 0.10078449 0.112593934 -0.37702274 0.18011864 -0.23733899 -0.07844668 0.012735835 -0.06401833 0.15664801 0.10436262 -0.18239196 0.22758865 0.3378478 -0.2500976 0.10903129 -0.0838472 0.40774432
cholesterol -0.23910782 0.1605482 0.13122962 0.09588419 0.092184864 -0.32331645 0.15930943 -0.18541951 -0.035449058 0.030615708 -0.08618598 0.14604658 0.101589374 -0.16813345 0.1900052 0.3128945 -0.17697431 0.11478888 -0.0799751 0.35613558
dehydrogenase -0.2057825 0.10703382 0.105936125 0.11439181 0.07041957 -0.2921646 0.16734459 -0.15702187 -0.0443107 0.011367402 -0.03681662 0.1369154 0.07199173 -0.15335618 0.14444576 0.28530857 -0.15693004 0.0943197 -0.08092278 0.3165362
Role -0.11224387 0.057568066 0.09254932 0.04248004 0.040385474 -0.19816627 0.08580895 -0.12519968 -0.05167979 0.0041687265 -0.012526032 0.08466191 0.06267352 -0.084116735 0.122535266 0.18376715 -0.12789534 0.049759958 -0.022426091 0.17676383
lipid -0.22770174 0.15404041 0.12685862 0.09536339 0.11683034 -0.32455146 0.19263221 -0.18314165 -0.07447276 0.018170446 -0.06360831 0.14915597 0.10276623 -0.14837387 0.18297571 0.3052528 -0.17567189 0.111578934 -0.082006484 0.36540917
fatty -0.20640393 0.14126186 0.12723428 0.122938596 0.08282717 -0.31935063 0.15089896 -0.17520705 -0.051242623 -0.002053295 -0.070890844 0.14506942 0.09355026 -0.17044377 0.17293265 0.3074068 -0.21208732 0.0841537 -0.060397524 0.34997913
carcinoma -0.13886598 0.073581 0.10706915 0.05465489 0.051631108 -0.19290215 0.106925085 -0.13750318 -0.05011077 -0.010227289 -0.022635553 0.10940477 0.08345119 -0.1000162 0.096866086 0.21184456 -0.119071186 0.058955625 -0.030230401 0.24687691
anticancer -0.20293736 0.14134741 0.10144403 0.09205494 0.09266936 -0.26756194 0.14097755 -0.14618903 -0.050287176 0.011601898 -0.063819095 0.111915715 0.08232661 -0.12046044 0.13131326 0.22195975 -0.150126 0.1015867 -0.060174532 0.29780397
T -0.19531116 0.12663913 0.09169852 0.06340067 0.08145426 -0.24836284 0.12164072 -0.14638449 -0.024921834 0.013911721 -0.046873014 0.09679736 0.07173561 -0.120833926 0.15205364 0.21292992 -0.16513216 0.056628615 -0.06607942 0.2813753
Receptor -0.34834325 0.22669436 0.22375263 0.16985227 0.14781481 -0.49109045 0.24982671 -0.31866288 -0.10509012 0.047641333 -0.11149721 0.22027056 0.17750165 -0.21139772 0.27624768 0.4604796 -0.31108087 0.17503259 -0.10224646 0.5494111
dysfunction -0.20824307 0.13000715 0.1390998 0.093214534 0.07168635 -0.26627922 0.14056219 -0.16119322 -0.048847657 0.009384773 -0.06776062 0.14600296 0.08170716 -0.15292472 0.16420285 0.2403039 -0.16987161 0.1069828 -0.061512526 0.2977906
phosphorylation -0.19026504 0.12270793 0.10287606 0.094110094 0.09358046 -0.28292027 0.12563966 -0.1626007 -0.045101915 -0.004618289 -0.046084836 0.12021151 0.110541865 -0.10488277 0.14592291 0.22847222 -0.14061257 0.08967505 -0.064194344 0.3017847
proliferation -0.18321706 0.104063734 0.116493806 0.114193164 0.078424975 -0.27800268 0.122691214 -0.18853845 -0.07364759 0.027964396 -0.03638519 0.113166876 0.073246375 -0.13919157 0.1663589 0.2608684 -0.18923667 0.085980624 -0.055831645 0.28969085
glucose -0.32470107 0.18498039 0.21271949 0.14803718 0.11959471 -0.4255723 0.23255786 -0.25004497 -0.089857854 0.032641325 -0.08771027 0.17726785 0.12775126 -0.19897029 0.27823386 0.42104042 -0.27366748 0.15748625 -0.09137311 0.51010245
neuronal -0.19941328 0.15182683 0.16028894 0.12591514 0.09320214 -0.32222176 0.14477144 -0.1855922 -0.052848935 0.0009403652 -0.043169346 0.13850397 0.10669552 -0.14039768 0.16755526 0.29109165 -0.19542952 0.104003854 -0.059379835 0.33887064
increases -0.19576472 0.15132257 0.12535177 0.09930239 0.119116105 -0.33001715 0.15581891 -0.18049195 -0.055268314 0.021511985 -0.040949546 0.12927501 0.10389123 -0.13294658 0.20586257 0.27271014 -0.16552119 0.085221745 -0.076311134 0.37102896
Design -0.092261486 0.05825104 0.03908201 0.026079858 0.06215692 -0.12453493 0.090550005 -0.07364166 -0.0043171854 0.006900798 -0.032375604 0.043102976 0.034266986 -0.055385116 0.09203001 0.13330562 -0.09612304 0.021279955 -0.012175711 0.1591832
site -0.20708577 0.12952805 0.1441474 0.10301347 0.086736694 -0.30003184 0.13101192 -0.15510473 -0.03229295 0.034084015 -0.046853412 0.137348 0.0759382 -0.14522776 0.19309546 0.26299718 -0.17697164 0.09564937 -0.08566156 0.3066562
Binding -0.09950674 0.051784568 0.074911214 0.039903168 0.048185747 -0.15393043 0.08849748 -0.11139077 -0.03409305 0.018256271 -0.007156891 0.04909726 0.051098797 -0.08593877 0.08672594 0.14668876 -0.08097868 0.041071463 -0.03630766 0.16957413
subjects -0.1509363 0.07689277 0.07587622 0.08493374 0.04028112 -0.20379816 0.085532025 -0.12652703 -0.028881723 0.02221885 -0.018240077 0.0782272 0.065982044 -0.064376146 0.124399304 0.19426815 -0.09435245 0.041637126 -0.059909906 0.19265597
tissue -0.17370039 0.115922 0.12881564 0.082785316 0.08779015 -0.2814503 0.12137799 -0.15699016 -0.05823009 0.007128836 -0.050001495 0.11637397 0.103717044 -0.11147598 0.14752492 0.23180023 -0.14886448 0.05735847 -0.06372242 0.3213844
An -0.17023706 0.112356275 0.12696043 0.10970278 0.06136465 -0.26923108 0.12297947 -0.17339183 -0.03023512 0.01556293 -0.06315417 0.11419497 0.095211625 -0.11198218 0.17236519 0.26158103 -0.16548221 0.07546512 -0.036259525 0.28366345
D2 -0.12062663 0.06204917 0.068367444 0.07680454 0.07506537 -0.15881285 0.08335928 -0.10781302 -0.026663695 0.020862037 -0.050405964 0.07400246 0.041930653 -0.08433074 0.10151411 0.18171228 -0.07718244 0.03772754 -0.055015847 0.21534644
Protective -0.12411349 0.09841233 0.05068623 0.054855905 0.05814869 -0.1465822 0.088549204 -0.10499546 -0.018518824 0.020975823 -0.008046538 0.07087875 0.06302206 -0.100086756 0.10761094 0.13520527 -0.10346641 0.032116733 -0.01542383 0.20185177
P450 -0.21264014 0.17325328 0.1574782 0.11606239 0.10605982 -0.31057352 0.17929792 -0.18185113 -0.06657302 -0.007182047 -0.0757859 0.16483384 0.08522793 -0.1270747 0.19617002 0.29147744 -0.17742662 0.119099215 -0.060086638 0.37281424
Alzheimer -0.13749155 0.09450434 0.07446475 0.049524166 0.0617101 -0.19048287 0.074566126 -0.13247755 -0.03070179 -0.017087502 -0.029189158 0.070486784 0.05530327 -0.06458428 0.124631286 0.15877412 -0.12545915 0.07950179 -0.026319329 0.19673836
identification -0.16426602 0.11546192 0.101292245 0.085294284 0.097365506 -0.27654716 0.154868 -0.16775844 -0.0371753 0.012631895 -0.058522668 0.12980416 0.084425114 -0.097400635 0.17252484 0.26039863 -0.1618479 0.06807798 -0.05860656 0.3071302
polymorphisms -0.20593236 0.15417966 0.12953007 0.11624125 0.08887901 -0.3200177 0.15318462 -0.20177123 -0.04209877 0.0063805296 -0.053621393 0.15262994 0.09982479 -0.15040192 0.19643325 0.30527526 -0.17155318 0.093416035 -0.08433683 0.34232515
inflammation -0.1401123 0.08838614 0.074537866 0.08926848 0.08928037 -0.2265197 0.10257826 -0.13907956 -0.057783533 -0.0034196663 -0.04413958 0.11768661 0.09617759 -0.076870725 0.14792432 0.18727389 -0.1426947 0.08399343 -0.025668807 0.21739161
targets -0.10329145 0.07969978 0.07666397 0.071845405 0.06661163 -0.18578294 0.072678395 -0.12172271 -0.051202897 0.011510052 -0.014647074 0.062322516 0.034130335 -0.09233517 0.12231099 0.157272 -0.11810604 0.053170387 -0.058600035 0.21658398
polymorphism -0.16861674 0.13180858 0.13359988 0.09222084 0.07212738 -0.24272417 0.15304148 -0.1653088 -0.054098085 -0.002767939 -0.052138384 0.12311635 0.073135614 -0.12397931 0.14636654 0.24426803 -0.16374765 0.061331533 -0.070650354 0.30206713
E -0.23874694 0.13883719 0.16555876 0.10177667 0.08645658 -0.29866952 0.16672826 -0.19128163 -0.039409246 0.021567034 -0.04402977 0.13953914 0.087274686 -0.149879 0.16026391 0.3068609 -0.18910961 0.120015144 -0.071746245 0.3370431
prostaglandin -0.2891885 0.19498163 0.19847591 0.15262136 0.1326863 -0.40252596 0.21072793 -0.26592606 -0.052912626 0.011015648 -0.08260191 0.1672558 0.16405891 -0.17167658 0.23665152 0.38297826 -0.2418542 0.109951936 -0.10510792 0.46090454
treated -0.17847307 0.10453266 0.12545362 0.09623705 0.07350624 -0.24131027 0.13609497 -0.13850851 -0.04487978 0.015220223 -0.06906317 0.12340801 0.08868712 -0.10154371 0.16592671 0.26500532 -0.14023386 0.07681709 -0.04408937 0.2933814
Type -0.27148414 0.1900389 0.19752605 0.120420575 0.1470664 -0.35194236 0.19119135 -0.22564462 -0.059617262 0.012621311 -0.09780347 0.18469457 0.12827353 -0.15424225 0.20383431 0.36240444 -0.21443415 0.1387229 -0.061863847 0.40780362
mutations -0.19722508 0.12878893 0.11380485 0.07748898 0.08132897 -0.2875897 0.1701761 -0.15002933 -0.07318281 0.03524474 -0.031415567 0.11809763 0.100755446 -0.13534698 0.15024899 0.27380052 -0.15367292 0.06891269 -0.05847139 0.33356392
affinity -0.18710391 0.1646887 0.15056296 0.10312819 0.089869045 -0.28182817 0.16797273 -0.18796822 -0.06986739 0.010418214 -0.050057612 0.13131768 0.11575089 -0.1192964 0.19931674 0.30448055 -0.20146553 0.097923726 -0.08906382 0.34550247
design -0.18049414 0.08921037 0.104708605 0.06994473 0.0615082 -0.23595795 0.11915602 -0.14954798 -0.022668818 0.036648784 -0.022391953 0.10488702 0.069739684 -0.10199078 0.13464434 0.18867396 -0.14328511 0.09025155 -0.025958532 0.246861
genetic -0.14417173 0.0921293 0.12133987 0.079395175 0.084851265 -0.22338097 0.12689778 -0.12018172 -0.017076576 -0.00041447848 -0.064633735 0.109936245 0.060824748 -0.09149105 0.11205774 0.22550572 -0.10897032 0.042271614 -0.0617118 0.21900012
based -0.23287766 0.16213012 0.17107368 0.08484908 0.1022535 -0.34276354 0.17400615 -0.19623366 -0.07209482 0.02609319 -0.066057816 0.17041637 0.10497983 -0.15484814 0.20779112 0.29672453 -0.1936697 0.08559292 -0.053984445 0.3608217
extract -0.25922683 0.18466306 0.17141895 0.10385416 0.106871784 -0.367624 0.21041588 -0.22632918 -0.06328741 0.010808631 -0.053221527 0.18993692 0.11854442 -0.18629736 0.21998239 0.35954475 -0.21335566 0.098221555 -0.08953877 0.41778827
low -0.17930393 0.10484416 0.08886647 0.06934625 0.08663263 -0.2268863 0.1046676 -0.14333618 -0.05242885 -0.008812344 -0.0476403 0.097915985 0.091287926 -0.09388661 0.14559247 0.2414 -0.1451926 0.08945133 -0.03336867 0.27717006
transporters -0.14792718 0.12411603 0.10909838 0.052466124 0.05747925 -0.22784586 0.1151508 -0.15258838 -0.060558375 0.016284041 -0.021407029 0.11136421 0.0803763 -0.12392588 0.119570315 0.19536515 -0.10800362 0.08686327 -0.065242425 0.2466105
different -0.20967849 0.12720075 0.13808338 0.10821148 0.100708835 -0.24274124 0.12668246 -0.1645649 -0.024750097 0.02802618 -0.046480715 0.11369933 0.1112336 -0.13393064 0.13464369 0.27243465 -0.17156698 0.076618455 -0.05032995 0.3057008
cyclooxygenase-2 -0.123346426 0.08873825 0.064018704 0.045357987 0.06786045 -0.17710137 0.09715714 -0.08876985 -0.02455746 -0.0013931202 -0.022701964 0.08643697 0.035364345 -0.05782243 0.11561602 0.15799269 -0.11467962 0.051160764 -0.042342752 0.20319074
review -0.11092077 0.050992567 0.07121755 0.061019126 0.06868574 -0.13920736 0.058940046 -0.10949177 -0.031284902 -0.007822105 -0.0037641246 0.0812158 0.044457182 -0.0547151 0.07089952 0.15296064 -0.10991618 0.047815762 -0.05692012 0.16190274
extracellular -0.21107733 0.1326419 0.1651844 0.10858393 0.10455921 -0.3065399 0.16208012 -0.16976118 -0.07686019 -0.0071662073 -0.04199304 0.15987606 0.13047476 -0.13087735 0.1939948 0.31642762 -0.1810278 0.11622945 -0.08466749 0.3299462
accumulation -0.1531701 0.098321356 0.12205671 0.07480894 0.06442605 -0.258802 0.10304646 -0.14700657 -0.04952465 -0.0067411093 -0.04864432 0.12386815 0.08387011 -0.13286003 0.16219094 0.22981109 -0.14202252 0.051764622 -0.035306744 0.27386075
mitochondrial -0.15199655 0.09014034 0.122958936 0.09496815 0.098291636 -0.21175162 0.12915018 -0.13786638 -0.05582701 0.025236765 -0.020864114 0.115888625 0.067507245 -0.108354725 0.16311707 0.23558533 -0.15122528 0.085468024 -0.0458653 0.26771998
membrane -0.20051768 0.13039437 0.121504046 0.09797086 0.103536494 -0.2545758 0.13835278 -0.1798534 -0.0480874 0.005260934 -0.033170227 0.12382482 0.093441434 -0.14390531 0.15521978 0.262394 -0.16264527 0.103842065 -0.048301775 0.2898121
peripheral -0.1088602 0.08719433 0.074630484 0.06533692 0.08317578 -0.20870431 0.07862731 -0.121614166 -0.016637493 0.021192929 -0.036677264 0.10582099 0.06452782 -0.06649648 0.11905785 0.17974292 -0.12290274 0.06905555 -0.06107276 0.23568413
experimental -0.15908152 0.09077883 0.11685439 0.088146135 0.08860971 -0.2227652 0.118174024 -0.14677742 -0.031454373 0.013657921 -0.05209328 0.101278566 0.065965466 -0.09394199 0.1394416 0.2351161 -0.14955606 0.064693965 -0.034095354 0.26995176
anhydrase -0.18387946 0.117233336 0.15090005 0.115794934 0.08933042 -0.28276685 0.14455555 -0.14797078 -0.05066276 0.0041114227 -0.03121151 0.12701494 0.115554 -0.14955759 0.19045833 0.24670433 -0.17634211 0.10026328 -0.07189148 0.32437363
antagonism -0.149896 0.10245868 0.11513692 0.0522788 0.055926576 -0.21509999 0.11382708 -0.15715641 -0.0650999 0.0038598133 -0.049440853 0.10994939 0.08687006 -0.08938154 0.123336956 0.21144114 -0.14519662 0.064412504 -0.044540543 0.25932413
sensitivity -0.16145432 0.12080742 0.1277973 0.07611083 0.0872079 -0.23525237 0.12850322 -0.13622363 -0.058294877 0.022258652 -0.057822566 0.07989341 0.09361345 -0.10663323 0.1292078 0.2115548 -0.14490378 0.0761324 -0.032775145 0.27557865
pancreatic -0.16621347 0.08946463 0.10513364 0.083632305 0.056163188 -0.25555593 0.11268497 -0.13381672 -0.047798313 -0.0053472472 -0.05347172 0.09528752 0.09683784 -0.13589157 0.15711178 0.23787515 -0.13725476 0.09681742 -0.045608185 0.26221436
mediates -0.271865 0.1647826 0.18343578 0.14578529 0.14586553 -0.39270258 0.20840535 -0.23610799 -0.057075277 0.02082904 -0.056436058 0.1845891 0.11802642 -0.16659574 0.21757539 0.37430727 -0.24943554 0.13943933 -0.080218315 0.41629216
metabolites -0.14380705 0.09459649 0.10168475 0.08955485 0.073301986 -0.18363474 0.09621469 -0.11539385 -0.03800157 0.011050285 -0.026366653 0.11997472 0.05421836 -0.116925284 0.14163524 0.2234873 -0.13631575 0.08289218 -0.038846053 0.2413811
other -0.14559036 0.08475334 0.07678446 0.07025543 0.06595658 -0.19921412 0.09850579 -0.14566168 -0.053053122 0.0060239504 -0.05946931 0.120084316 0.0813004 -0.08192718 0.11790388 0.18844275 -0.10945628 0.053849567 -0.051223278 0.23597924
essential -0.18803808 0.11016049 0.09145289 0.070114 0.10595051 -0.26483083 0.109943666 -0.13891493 -0.07012703 -0.011493087 -0.027636569 0.13606022 0.108967505 -0.12704696 0.14948982 0.24675351 -0.16267687 0.06647073 -0.0564079 0.27535546
glutathione -0.22912338 0.15589468 0.14081687 0.107338324 0.11252209 -0.36463448 0.1920569 -0.21639247 -0.061827216 0.008637998 -0.05148589 0.16879722 0.11421227 -0.15831146 0.1937134 0.34570187 -0.20369624 0.114305355 -0.08142572 0.41629764
required -0.19935916 0.13934053 0.153036 0.092276596 0.09433297 -0.29058778 0.15277594 -0.20712622 -0.037303217 0.002348313 -0.07477197 0.11301555 0.113391295 -0.12320887 0.1647873 0.2989566 -0.17586093 0.09282487 -0.085435584 0.31434155
chemical -0.23416297 0.14435251 0.13854517 0.12763979 0.13834171 -0.3769565 0.1861475 -0.23655355 -0.085864216 -0.005897793 -0.07098171 0.14405546 0.12053948 -0.15481399 0.23587236 0.35669988 -0.21933487 0.08649768 -0.10158267 0.38740245
acids -0.20637025 0.13603187 0.13990499 0.07591786 0.08517658 -0.28054535 0.14412892 -0.17953679 -0.06511418 0.026729306 -0.08194326 0.1309254 0.086235866 -0.14948937 0.17955498 0.29769725 -0.17315191 0.1032289 -0.05253716 0.35091916
block -0.2446381 0.15679549 0.16297956 0.10436539 0.10592595 -0.3121425 0.152061 -0.21981512 -0.062147092 0.021305328 -0.05975971 0.14529718 0.12015558 -0.15885958 0.22141136 0.32600525 -0.18334022 0.11057642 -0.06849228 0.3829278
Structural -0.121972986 0.08852367 0.107478335 0.07226796 0.07408765 -0.19749063 0.12327528 -0.12854774 -0.0231113 0.03004938 -0.03628318 0.09737646 0.06802117 -0.10932333 0.10528767 0.18871506 -0.12001298 0.07698105 -0.041712344 0.23124982
structural -0.1775474 0.102476254 0.13032764 0.07147052 0.06991977 -0.24430352 0.13752219 -0.13731557 -0.04784666 0.026756257 -0.03511338 0.09786151 0.064757876 -0.13248923 0.15372653 0.20461959 -0.14830525 0.09545884 -0.047734696 0.24107678
relationship -0.17371885 0.121300265 0.105884805 0.084630795 0.07915708 -0.19220184 0.13423431 -0.15046439 -0.036912855 0.006637475 -0.03776628 0.08308848 0.062678665 -0.10878335 0.1470112 0.21154542 -0.13275163 0.061380234 -0.073250756 0.22781983
assessment -0.20524463 0.11992598 0.110678986 0.08991916 0.09400157 -0.27120844 0.14814842 -0.18249638 -0.07485549 0.016421292 -0.051322073 0.13783428 0.07749863 -0.15248965 0.14806792 0.26501942 -0.15086256 0.06496667 -0.06189642 0.28986412
Activation -0.12054296 0.1095356 0.07659399 0.05270424 0.08371774 -0.18822849 0.092442915 -0.13104814 -0.044532765 0.033529054 -0.026736908 0.06874509 0.06301416 -0.07631846 0.10633675 0.21268468 -0.12980944 0.08173814 -0.024288397 0.22437401
gastric -0.097443976 0.10015771 0.07736694 0.07477518 0.071303844 -0.18597391 0.1022216 -0.0884229 -0.043398935 0.03212956 -0.0098498175 0.062287025 0.057958487 -0.0596055 0.0775041 0.14898948 -0.09931437 0.052981496 -0.016515903 0.17048948
Cells -0.17886594 0.085889265 0.121122554 0.07969537 0.082989134 -0.2549792 0.11015412 -0.16022564 -0.03446717 0.005211468 -0.032820273 0.12110279 0.066992626 -0.090189986 0.12377126 0.24071138 -0.123090915 0.09818313 -0.043286532 0.2722748
Protein -0.2833104 0.18561684 0.19674948 0.11842264 0.13986258 -0.38602662 0.1942095 -0.24240173 -0.051633567 0.028778877 -0.06168981 0.19167098 0.11797261 -0.17444824 0.22016874 0.36519474 -0.22228877 0.115201354 -0.061896786 0.44717902
phase -0.23829593 0.17006513 0.14749195 0.12819093 0.11092098 -0.36716238 0.18928187 -0.2001749 -0.041976593 0.011818127 -0.056052424 0.14472605 0.11236924 -0.17164324 0.19112185 0.32739195 -0.24175546 0.09311008 -0.08663547 0.4367263
cardiovascular -0.07871893 0.068263106 0.0611532 0.054008402 0.052853804 -0.13257353 0.041990105 -0.04951075 0.0024020285 -0.0049613584 -0.03421425 0.060259297 0.038088642 -0.057286274 0.058931854 0.120559596 -0.07598591 0.061828766 -0.01703474 0.1120201
activator -0.17271942 0.09487358 0.11320568 0.10329461 0.08581788 -0.23223893 0.12800778 -0.17192578 -0.037949033 0.0042868867 -0.05789822 0.087373376 0.06133436 -0.09288085 0.15974541 0.21763334 -0.12573612 0.101700746 -0.036479358 0.2685375
platelet -0.120700456 0.104199104 0.08811962 0.036992554 0.083779484 -0.20111664 0.08838211 -0.100284286 -0.013961181 0.012369399 -0.029292783 0.09469339 0.06540106 -0.11090151 0.12870234 0.19878411 -0.0999619 0.08132953 -0.04407582 0.2227329
angiotensin -0.1377051 0.0732235 0.11544391 0.06120209 0.06493514 -0.22087194 0.088476956 -0.12242411 -0.019264145 0.031125264 -0.06535114 0.10773893 0.07830151 -0.09674058 0.14388771 0.19696067 -0.14397772 0.07002526 -0.07216256 0.22026412
profiles -0.17120895 0.1071723 0.12278175 0.07206068 0.078450896 -0.22841224 0.14803606 -0.14344585 -0.0509635 -0.0044950247 -0.06673154 0.13010995 0.09964623 -0.11247534 0.1466588 0.24272813 -0.15557393 0.10006624 -0.033990994 0.30458465
selectivity -0.17486408 0.11900124 0.09625738 0.06271684 0.062496405 -0.20116746 0.10178424 -0.14905067 -0.0259719 0.007289894 -0.046002552 0.12035447 0.065293774 -0.12622695 0.14982364 0.21128923 -0.12525617 0.050665475 -0.051885657 0.25196677
efficacy -0.11153116 0.037279997 0.072892986 0.033310737 0.036271412 -0.10263833 0.077741966 -0.08329266 -0.0063775526 -0.008926704 -0.0012706397 0.04375117 0.022843068 -0.057729036 0.06184756 0.10020947 -0.057176102 0.028629258 -0.047627207 0.15780392
modeling -0.18704464 0.12875709 0.12743063 0.090464436 0.073392384 -0.25226346 0.14354526 -0.1614923 -0.06414921 -0.0024293235 -0.032873645 0.12019523 0.09137138 -0.10774968 0.124427006 0.22099526 -0.147061 0.068240255 -0.057702836 0.28855756
pharmacokinetics -0.15443908 0.08993208 0.1084512 0.053594038 0.06255999 -0.18735443 0.12927212 -0.12971838 -0.049589027 0.028963696 -0.026549207 0.07562701 0.08377017 -0.08922869 0.13776019 0.19912794 -0.11852772 0.079186015 -0.065243736 0.2254849
leukotriene -0.12446495 0.06334793 0.09833195 0.05962669 0.034350846 -0.16327934 0.06800419 -0.11007628 -0.010385158 0.011998695 -0.038400806 0.08883015 0.076283775 -0.055107214 0.101734325 0.17701948 -0.107107624 0.059358038 -0.05670631 0.16846815
COX-2 -0.15493512 0.105152406 0.13226326 0.10048372 0.090182975 -0.24874234 0.12382471 -0.14733413 -0.06372101 0.020648498 -0.0590462 0.09432707 0.086838625 -0.13043728 0.15158576 0.24329174 -0.1567091 0.068470545 -0.052345555 0.2770803
kidney -0.1543898 0.10316111 0.11397006 0.09038755 0.08493932 -0.2251144 0.12949418 -0.13426521 -0.06062198 -0.011689952 -0.034012124 0.09813664 0.06671214 -0.10284518 0.119208395 0.18245223 -0.12371384 0.052237228 -0.0239601 0.20301202
assay -0.20007208 0.109920636 0.13456164 0.0922424 0.11254793 -0.2634143 0.14952819 -0.18403892 -0.074830145 0.00933078 -0.031247426 0.12726119 0.10494328 -0.107935 0.1796243 0.29464662 -0.16166697 0.0806416 -0.050718237 0.3230721
failure -0.09378054 0.063800626 0.046234265 0.015638733 0.040091638 -0.096770965 0.045390837 -0.0738499 -0.006920095 0.027335636 -0.010442829 0.067567654 0.0154864555 -0.059303034 0.04445326 0.0865374 -0.04781902 0.010388528 -0.029461492 0.093534626
combination -0.07717113 0.040921774 0.08980609 0.043910015 0.025147282 -0.12383238 0.08958713 -0.08448167 -0.028847072 -0.0021029369 -0.00996859 0.0838248 0.06273928 -0.06648369 0.10649502 0.11181881 -0.08617898 0.053485543 -0.013776759 0.17077596
G -0.16977523 0.12634361 0.13519992 0.10327429 0.06659184 -0.29578447 0.1703603 -0.18695022 -0.051531963 0.026775163 -0.07842596 0.14938311 0.069193184 -0.1444355 0.14202912 0.23954456 -0.15078588 0.09010848 -0.044012282 0.30031615
ligands -0.1307011 0.07090086 0.10783045 0.065720245 0.07413352 -0.20527254 0.105129756 -0.1158796 -0.038408414 0.0030252803 -0.057608683 0.06864247 0.09025222 -0.11526682 0.11774125 0.17261823 -0.11248956 0.08050467 -0.033921044 0.23997413
Expression -0.20814537 0.15534997 0.11485654 0.085363165 0.11727275 -0.29366177 0.1446688 -0.17574924 -0.06546168 0.025707692 -0.06049721 0.10680834 0.08049875 -0.11688875 0.16969974 0.25853527 -0.19574906 0.09177363 -0.07398692 0.2991445
Cell -0.2256275 0.16296731 0.16042794 0.13562019 0.09426966 -0.33333266 0.16954863 -0.22057205 -0.043737296 0.021692734 -0.06745752 0.1434592 0.121917926 -0.13940567 0.22085159 0.34656647 -0.18789037 0.12307675 -0.084203556 0.4123863
cultured -0.14776291 0.07655819 0.089485675 0.067186095 0.08322844 -0.18260995 0.118288435 -0.11119795 -0.023052873 0.030169806 -0.042589135 0.0904057 0.059412036 -0.10078661 0.13947515 0.1873592 -0.12875181 0.0605309 -0.040656716 0.20782779
glutamate -0.19470115 0.1447621 0.12957062 0.11060113 0.07989514 -0.2992056 0.14097032 -0.20943096 -0.033993833 -0.003836091 -0.051573332 0.1294564 0.090006284 -0.14079916 0.20386583 0.30304173 -0.16364026 0.07987973 -0.07693706 0.33756325
uptake -0.22755654 0.16272523 0.1395878 0.09279464 0.08890252 -0.32672128 0.15780495 -0.20814657 -0.05971352 0.026572898 -0.03782402 0.1447857 0.10516815 -0.13643934 0.16933486 0.2936685 -0.17221181 0.09754348 -0.09325257 0.3627972
Cancer -0.22338855 0.13860908 0.13982087 0.09314676 0.11571883 -0.29209706 0.17610815 -0.16055048 -0.043428116 0.011938083 -0.05910309 0.11648422 0.079586044 -0.13124743 0.15617214 0.2568084 -0.18422447 0.09874057 -0.055260096 0.31528625
skeletal -0.21784507 0.15800643 0.1186076 0.083079495 0.09562332 -0.2906574 0.15058374 -0.19735149 -0.044298433 -0.004806836 -0.051402822 0.12692015 0.10090215 -0.13776284 0.16437805 0.28844488 -0.16122301 0.07165811 -0.089719914 0.32043958
targeting -0.15140605 0.10593809 0.13085142 0.06102694 0.10437645 -0.22195877 0.13689403 -0.15659493 -0.045984577 -0.007800019 -0.046645537 0.095184386 0.08944517 -0.12861791 0.15483315 0.22304747 -0.14784284 0.079733014 -0.06036032 0.28553015
oral -0.12813523 0.08721196 0.075710215 0.056211997 0.049696542 -0.17538957 0.09730137 -0.08219185 -0.039382387 -0.00030101006 -0.017860308 0.09425376 0.06571152 -0.06863077 0.10411285 0.15406953 -0.07990259 0.06085494 -0.012285309 0.20593281
oxytocin -0.09368431 0.074908294 0.029000208 0.056835093 0.028558612 -0.098423444 0.035237577 -0.06879207 -0.010700387 0.022917038 -0.0378897 0.03353471 0.025346216 -0.027944153 0.06154942 0.08449347 -0.040069774 0.03107817 -0.01908334 0.09856166
dual -0.10519573 0.056913085 0.057779375 0.053759757 0.07007139 -0.16829167 0.11433594 -0.103009626 -0.03125294 -0.008704351 -0.036541414 0.054141648 0.050125293 -0.10557954 0.098638915 0.16989237 -0.09963766 0.07431345 -0.019776052 0.20365912
highly -0.16064996 0.096929714 0.11754984 0.069785364 0.0922831 -0.24981798 0.14015697 -0.14408362 -0.046194438 0.031756837 -0.04845467 0.12727784 0.08888038 -0.11193226 0.17027958 0.23508115 -0.16996782 0.055194527 -0.051440656 0.29097706
cognitive -0.22313693 0.13438661 0.15132737 0.08799282 0.111040756 -0.34585562 0.15911008 -0.22158341 -0.077718385 0.0010868235 -0.08261493 0.1647938 0.13616577 -0.17463166 0.17852226 0.2896713 -0.21974754 0.09870414 -0.06021592 0.35130817
adult -0.122583516 0.107508495 0.07185065 0.0717593 0.045782972 -0.16669576 0.10971802 -0.14071557 -0.057031255 -0.0026532519 -0.021368185 0.06287607 0.08517872 -0.09967614 0.10161595 0.18092385 -0.08933812 0.07166651 -0.0499176 0.18749455
3H -0.12286371 0.09477563 0.06368476 0.05842067 0.07528596 -0.17435123 0.0666322 -0.116785556 -0.032131687 0.014284608 -0.045186087 0.091514036 0.05213916 -0.056418303 0.098447405 0.12340761 -0.081672266 0.037011944 -0.023718208 0.15736438
does -0.22792244 0.1527138 0.12828866 0.12232127 0.09344493 -0.29559088 0.1646154 -0.21664336 -0.045765698 0.027869845 -0.07128448 0.12228987 0.09239068 -0.13565771 0.19516155 0.29371127 -0.18346737 0.1169854 -0.08735645 0.34184915
opioid -0.08191561 0.07908388 0.06442449 0.046713386 0.02916311 -0.11865278 0.082040794 -0.09063158 -0.042240396 -0.009371085 -0.022661172 0.038359705 0.047554713 -0.052194737 0.07300766 0.1402548 -0.058429528 0.06293509 -0.046961866 0.1288064
metabolic -0.19537349 0.11879796 0.12695424 0.06539822 0.108206265 -0.23047712 0.150953 -0.13082807 -0.022348907 0.01018518 -0.026494373 0.11573319 0.082015865 -0.13791335 0.1382833 0.25513408 -0.1583697 0.061253488 -0.033182204 0.30099368
prevents -0.23207521 0.15645953 0.16316557 0.0884236 0.098152004 -0.34817836 0.15599945 -0.23111624 -0.056252975 0.011292929 -0.041271083 0.15551706 0.1098956 -0.14137346 0.1959906 0.31770363 -0.18003282 0.105560005 -0.05991557 0.3932858
without -0.1736403 0.10503036 0.12556675 0.08006776 0.10752607 -0.24408773 0.1380243 -0.16167559 -0.054936193 -0.0014611371 -0.039820157 0.13789654 0.093284324 -0.1092769 0.1329176 0.23228806 -0.14057134 0.10158728 -0.057900656 0.27725893
vitamin -0.090341814 0.06940358 0.074874856 0.056556314 0.06974845 -0.12587802 0.078228325 -0.09786068 -0.014472322 0.026152818 -0.039220504 0.07654421 0.074216194 -0.043840352 0.0782942 0.1455207 -0.08330798 0.03846345 -0.008018101 0.16312742
smooth -0.12593627 0.104174644 0.07402049 0.07098233 0.07254167 -0.20395471 0.088759966 -0.11643729 -0.057957675 0.011598258 -0.013061517 0.08704252 0.07109064 -0.11009176 0.09641571 0.18653485 -0.12901916 0.08276599 -0.048995275 0.23099501
pharmacological -0.12438547 0.108138084 0.07862899 0.047669742 0.0799086 -0.21786694 0.10304133 -0.13365632 -0.016233709 0.008517844 -0.033178058 0.07923446 0.07502698 -0.09728829 0.13575305 0.16732553 -0.13331422 0.08213116 -0.021890497 0.23077016
pulmonary -0.10548936 0.040308114 0.06316435 0.025276853 0.02704049 -0.14880696 0.07455324 -0.06494577 -0.025454015 -0.015425868 -0.047574587 0.079472706 0.055877022 -0.054806832 0.055457633 0.114055395 -0.050742898 0.015660392 -0.02866414 0.1294104
approach -0.14609204 0.09392693 0.10335477 0.060723692 0.045327667 -0.20403634 0.10970595 -0.13470456 -0.03763683 0.006197727 -0.06271012 0.08163977 0.05831363 -0.073821515 0.14055626 0.1671563 -0.12955253 0.0812417 -0.062451772 0.20879826
hypertension -0.081061654 0.04529404 0.07070217 0.053575236 0.03581183 -0.12689608 0.08109307 -0.07999977 -0.046965275 0.008438531 -0.04607454 0.049387645 0.028121531 -0.06927418 0.07314675 0.11140276 -0.079251684 0.051681913 -0.0045681815 0.12730266
tyrosine -0.07899144 0.07642781 0.072554804 0.03890127 0.035355017 -0.14146255 0.08577158 -0.1000131 -0.01781341 -0.011172665 -0.010721591 0.07019476 0.060835373 -0.080961786 0.07470304 0.1299118 -0.073666096 0.036617126 -0.029511105 0.14397931
lymphocytes -0.04621036 0.036502715 0.009312301 -0.0029587816 0.0032707588 -0.04651397 0.040786672 -0.02852467 -0.02983224 -0.0048483107 -0.00064415846 0.04179841 0.041100193 -0.037705306 0.030898914 0.087673426 -0.063083425 0.03906001 -0.021126186 0.081695616
stem -0.066348895 0.050514214 0.060608868 0.03262715 0.032837354 -0.08871964 0.061204474 -0.08302862 -0.03456171 0.024059435 -0.00841729 0.038022257 0.026646733 -0.06144542 0.07701868 0.095696434 -0.03975488 0.027067384 -0.0057559954 0.11314886
disorder -0.14549752 0.119045004 0.12023863 0.06054742 0.062064856 -0.18515496 0.11104692 -0.12841056 -0.03204563 0.005552526 -0.060497887 0.10283404 0.0774629 -0.11929623 0.14404455 0.18941873 -0.121022664 0.04429634 -0.031944107 0.22009566
case -0.15382263 0.116771035 0.091866 0.087671325 0.045473352 -0.22151113 0.11029371 -0.11431277 -0.036907796 0.034550864 -0.029040175 0.119192146 0.050917935 -0.073416635 0.11472405 0.19538063 -0.12797163 0.055078276 -0.022530686 0.216364
cyclooxygenase -0.04875484 0.055741902 0.053607777 0.02098208 0.030046687 -0.11897302 0.040963754 -0.07349898 -0.014973062 -0.0150554795 0.002145242 0.019822108 0.010695154 -0.03431594 0.07739995 0.06716597 -0.061818227 0.014771794 -0.007419432 0.109064735
be -0.23113818 0.15380007 0.16376084 0.1254468 0.10815121 -0.29092014 0.16111664 -0.21335556 -0.038736254 0.030076275 -0.049495623 0.14442569 0.11106486 -0.12971422 0.18204981 0.2772645 -0.18841024 0.095603295 -0.060302585 0.35125923
cerebral -0.16484956 0.13344938 0.09660516 0.07637848 0.09991562 -0.22500515 0.13693829 -0.17956503 -0.02583215 0.024393829 -0.039936606 0.11502982 0.072051 -0.13403685 0.1278775 0.2558641 -0.1494573 0.09215452 -0.08235926 0.30704087
matrix -0.19288494 0.119668275 0.11668287 0.11182548 0.07499138 -0.29443157 0.12631044 -0.19283246 -0.07323006 0.01847471 -0.038945038 0.10312228 0.073079266 -0.13173535 0.1631952 0.23847109 -0.17848197 0.100219 -0.079094864 0.29396078
dependent -0.14528547 0.092137165 0.09545616 0.067392014 0.04728938 -0.19043554 0.104093075 -0.10368177 -0.05041888 0.020351771 -0.013240935 0.10331015 0.058801953 -0.10022599 0.09426051 0.185074 -0.08571793 0.053050756 -0.015829213 0.20633453
children -0.12125509 0.06463003 0.059723977 0.06731743 0.037762918 -0.17044617 0.10825393 -0.11808414 -0.030206125 -0.01556222 -0.051873486 0.10258702 0.056280293 -0.06552525 0.100861855 0.14618039 -0.13317767 0.04889986 -0.058974903 0.18883955
lines -0.06697292 0.02598216 0.028816769 0.039600637 0.051809397 -0.12047369 0.06879844 -0.04355856 -0.02130988 0.00044799043 0.0025987357 0.029077552 0.039199233 -0.049272157 0.03740407 0.10331462 -0.0790046 0.036137 -0.028132051 0.12986419
Comparative -0.12034392 0.06477985 0.058676448 0.033603534 0.045917578 -0.13933092 0.1049982 -0.12296483 -0.026518598 -0.016609175 -0.03674121 0.078281306 0.0722378 -0.053943004 0.118674144 0.1486212 -0.07441813 0.029756948 -0.05261879 0.1950399
species -0.19992784 0.13098937 0.1472972 0.07101075 0.08762112 -0.25715202 0.12578514 -0.15144181 -0.07290951 0.02599977 -0.073919185 0.10445741 0.0946231 -0.13522121 0.17298366 0.23545891 -0.16890994 0.104661874 -0.06604988 0.27988535
Influence -0.08933724 0.053333 0.037265252 0.052029386 0.054408427 -0.10559146 0.036733773 -0.084854424 -0.012861709 0.0020459346 -0.0077989516 0.05934334 0.0116469525 -0.06524336 0.078228205 0.10659482 -0.07955211 0.017576974 -0.016893564 0.143302
RNA -0.15744938 0.08567866 0.087132834 0.05824852 0.08182549 -0.21041098 0.123043664 -0.12653923 -0.011786147 0.007914873 -0.035572555 0.095563024 0.055447735 -0.07545983 0.10099939 0.16164763 -0.12213633 0.05292423 -0.040395677 0.23668392
ligand -0.13271578 0.11184109 0.091190234 0.047005113 0.060207326 -0.18554436 0.11244083 -0.12710246 -0.055477668 -6.688545e-05 -0.039374635 0.07775073 0.049561497 -0.08526677 0.14460737 0.20313449 -0.13247854 0.07270551 -0.06658236 0.22100952
ethanol -0.17844965 0.1126036 0.09199005 0.09438497 0.08930052 -0.26385897 0.12392257 -0.13367248 -0.028989036 -0.010269126 -0.030769795 0.135876 0.06712428 -0.13415736 0.17023809 0.2398712 -0.15062097 0.08279848 -0.064400956 0.2597621
airway -0.16148661 0.0961853 0.08074832 0.075821966 0.046470456 -0.23654097 0.09983707 -0.11548452 -0.036710992 -0.007085992 -0.018545896 0.10216204 0.08972859 -0.1176334 0.14380299 0.19473772 -0.120221116 0.05695976 -0.07205507 0.23035145
hippocampal -0.08855769 0.06239346 0.09482308 0.065066986 0.047598675 -0.17350914 0.078239836 -0.085407436 -0.030836217 0.0023450048 -0.023058444 0.08237526 0.07633181 -0.061107274 0.08855115 0.12748331 -0.07859815 0.0657177 -0.042823363 0.19565012
line -0.09852681 0.09854159 0.06528516 0.06659637 0.06645361 -0.16757318 0.096413195 -0.10999876 -0.055713125 -0.010531165 -0.03295373 0.09027992 0.07286417 -0.086149074 0.113591 0.1443505 -0.11539889 0.068200454 -0.043766584 0.19844572
deficiency -0.21941511 0.15340231 0.15189661 0.08358142 0.0966706 -0.29108018 0.16576508 -0.16504821 -0.072831064 -0.0065109357 -0.0728533 0.14987984 0.08878117 -0.13428368 0.17780408 0.27550355 -0.18236342 0.0727295 -0.065047026 0.31995732
nanoparticles -0.20207195 0.116568 0.1290083 0.09801402 0.06884007 -0.28157428 0.1635539 -0.15333208 -0.026988322 0.014809744 -0.07038968 0.10463923 0.118839644 -0.14907333 0.17291638 0.2484025 -0.16403545 0.10258904 -0.041710638 0.29644367
5 -0.1922019 0.08967509 0.12645632 0.10090711 0.06972472 -0.25409567 0.1382164 -0.16134787 -0.021721005 0.030435828 -0.04913303 0.12116051 0.06776164 -0.12984686 0.16192384 0.21351199 -0.14181404 0.075125694 -0.03877674 0.28650334
structure-activity -0.1444347 0.10862863 0.07119547 0.071402654 0.08435862 -0.17173536 0.11220702 -0.12313876 -0.03193086 0.031139605 -0.032276697 0.102745324 0.07309767 -0.06427218 0.120185405 0.163533 -0.110571854 0.06340154 -0.04533476 0.1844911
direct -0.10664209 0.090612695 0.058220644 0.0733364 0.0542724 -0.13718347 0.09428368 -0.09857217 -0.019460883 0.021926986 -0.012211104 0.0868865 0.039103948 -0.07073674 0.10717341 0.15048777 -0.11167081 0.06873085 -0.01588035 0.16564275
tumors -0.10948356 0.056881964 0.0869437 0.048917092 0.04465096 -0.16563608 0.08409616 -0.12363189 -0.044106923 0.019723417 -0.051263474 0.096234664 0.045965146 -0.07793438 0.07599177 0.13504598 -0.10942863 0.05491645 -0.040145397 0.18934843
glucocorticoid -0.14969999 0.106288925 0.0663056 0.058184545 0.08504216 -0.1916988 0.07234632 -0.11697834 -0.021318162 -0.0004858116 -0.022120064 0.08560249 0.039944597 -0.10006123 0.13160045 0.1631653 -0.09439529 0.050343096 -0.057957154 0.20148554
antipsychotic -0.12186364 0.049034454 0.047105953 0.071528405 0.07364882 -0.1486432 0.087863944 -0.094166495 -0.020909581 0.013395299 -0.012768511 0.07463786 0.06282444 -0.058398306 0.07307213 0.123653136 -0.08111829 0.054680604 -0.010491082 0.17154977
B -0.11055094 0.061947856 0.080336146 0.06455237 0.040083583 -0.19691855 0.11698973 -0.09317213 -0.009229772 0.0047629736 -0.014964121 0.067584224 0.048924826 -0.0682157 0.11794823 0.17587091 -0.10643263 0.04429864 -0.02983278 0.2085769
biochemical -0.13554576 0.092078514 0.08933386 0.073121935 0.062893584 -0.20871186 0.12635182 -0.11129022 -0.025119433 0.019333461 -0.057300717 0.06989574 0.061270118 -0.09370883 0.13008104 0.19942074 -0.1111187 0.07703259 -0.022688746 0.22766273
women -0.12566945 0.07539661 0.04874593 0.037801266 0.05770894 -0.15395994 0.06757797 -0.090381004 -0.03322463 0.007918617 -0.00469752 0.043809086 0.035980556 -0.06579091 0.072793 0.123038575 -0.106082045 0.047493108 -0.024221096 0.14735161
activated -0.15735699 0.090472266 0.10109719 0.07887002 0.073849455 -0.25913504 0.11967291 -0.15046717 -0.031980507 0.027050719 -0.045841828 0.11492962 0.09901768 -0.107225955 0.11979813 0.22312406 -0.14212142 0.099108614 -0.044232126 0.29576963
Regulation -0.08956643 0.087533325 0.0840887 0.047673956 0.03832653 -0.17720124 0.07514594 -0.11479972 -0.035259526 0.019048208 -0.012988046 0.056173585 0.056231156 -0.07252653 0.089897424 0.17251337 -0.11197518 0.07228608 -0.029691435 0.18228076
