9916 20
. 0.39365834 0.66147244 -0.1781643 0.14090732 -1.1523256 0.17919062 -0.41311207 0.8085104 -0.036539443 -0.54750717 -1.399797 -0.3185435 -0.119384244 0.3657433 0.61899173 -0.2638021 0.4201805 0.07894873 -0.28533491 -0.14818224
of 0.384296 0.64106286 -0.17535706 0.15319504 -1.2954448 0.010667601 -0.49460167 0.69534135 -0.0007932008 -0.5223407 -1.2956941 -0.15980442 -0.31282768 0.45554626 0.5640969 -0.16340154 0.37097618 0.17225625 -0.28192475 -0.23368402
and 0.34934494 0.6069754 -0.14537844 0.118622035 -1.3382523 0.0095025785 -0.52119946 0.7121237 -0.08553866 -0.48366824 -1.3175092 -0.16620733 -0.16709681 0.43186626 0.6555769 -0.16071333 0.4561885 0.07915075 -0.3339003 -0.19045655
in 0.43516818 0.65287864 -0.10480084 0.19438525 -1.1118346 0.25606996 -0.32013622 0.84602886 -0.12621376 -0.48819837 -1.4521228 -0.22699855 -0.04927813 0.41146877 0.57331824 -0.40046307 0.40389976 0.078998424 -0.18243238 -0.20680001
the 0.3612534 0.6083507 -0.18670304 0.14902282 -1.3072741 0.07579325 -0.5186959 0.7234537 -0.15014791 -0.4191834 -1.2829832 -0.13855264 -0.16288829 0.47454575 0.696374 -0.1805612 0.4164731 0.11302241 -0.27770314 -0.2155633
, 0.31595558 0.6582118 -0.20121711 0.1454894 -1.5042312 -0.2811665 -0.66739523 0.60521746 -0.085592404 -0.44068787 -1.3742888 -0.11687356 -0.30469874 0.36082438 0.6563128 -0.041642718 0.49113685 0.1015061 -0.40563414 -0.27653283
a 0.34168902 0.60775065 -0.19146043 0.17902566 -1.3913852 -0.16894498 -0.61800104 0.6976473 -0.11365855 -0.5380061 -1.3676561 -0.25244874 -0.3940653 0.37152964 0.701409 -0.013268673 0.45334917 0.052905317 -0.35064396 -0.33523306
: 0.36979672 0.59665644 -0.2352198 0.16843504 -1.257276 -0.0027447157 -0.53703696 0.6020957 0.042256307 -0.5735408 -1.3616517 -0.27594447 -0.3343506 0.39052016 0.5721293 -0.15265197 0.3901993 0.12272992 -0.33971164 -0.22959335
( 0.48042265 0.5151862 0.007520031 0.23568486 -1.8050034 -0.3994109 -0.8346479 0.48795083 0.02160048 -0.34106475 -1.528403 -0.23284423 -0.1518334 -0.0005687743 0.5980869 0.32190913 0.75130355 -0.100541994 -0.46353346 -0.09446204
) 0.45468235 0.64944065 -0.02391864 0.2178144 -1.9238722 -0.33354142 -0.6295037 0.61634326 -0.06344166 -0.3382065 -1.3274623 -0.34878772 -0.2942897 0.12123636 0.6885253 0.3323772 0.7953047 -0.009957508 -0.39266944 0.0053032255
by 0.38927105 0.6138605 -0.13707137 0.05876946 -1.1297061 0.23709136 -0.47644845 0.76073134 0.041983735 -0.53557974 -1.3546356 -0.34257674 -0.16297413 0.3625134 0.5836978 -0.28835532 0.4834631 0.08139779 -0.29711637 -0.15780213
with 0.35659283 0.6550171 -0.23243654 0.17704543 -1.146897 0.21447144 -0.4382904 0.70198435 -0.018304348 -0.64942646 -1.3799329 -0.3533746 -0.27611384 0.32461846 0.5485004 -0.27494448 0.50745666 0.026988892 -0.24793358 -0.2320724
for 0.32452855 0.608699 -0.17897588 0.14313059 -1.2082784 0.020593798 -0.47937998 0.6505758 0.0032421278 -0.5968653 -1.348244 -0.3045243 -0.3700276 0.33565977 0.61988664 -0.13302468 0.3850461 0.09596755 -0.29517362 -0.26496482
on 0.35447392 0.63019234 -0.17877679 0.10532866 -1.3400052 0.08826624 -0.5142831 0.65122724 -0.010216873 -0.5063751 -1.3350121 -0.2140945 -0.23108114 0.39783445 0.60686934 -0.12104681 0.47683865 0.109677516 -0.33738962 -0.17152107
to 0.33098912 0.63694143 -0.21904622 0.09906678 -1.0852381 0.2982939 -0.441334 0.69996846 0.06929791 -0.5839867 -1.3193661 -0.31806618 -0.16922735 0.37436044 0.6130532 -0.24320361 0.47817564 0.09215017 -0.28328025 -0.14332925
receptor 0.34734046 0.59659994 -0.16270268 0.069786824 -1.3539293 0.050535243 -0.52085596 0.7446385 -0.028003732 -0.5719294 -1.3771502 -0.20414554 -0.20564356 0.3674163 0.59377515 -0.14992194 0.42518502 0.052950393 -0.32184607 -0.20915124
cells 0.39089614 0.58811426 -0.20115127 0.10202377 -1.0675411 0.32863185 -0.38941494 0.8850523 0.0007500724 -0.6066103 -1.3952782 -0.36763212 -0.017532907 0.4290531 0.5720651 -0.37025902 0.44762826 0.00091628224 -0.22014591 -0.08024556
human 0.36888918 0.58901614 -0.16351566 0.09396553 -1.1539117 0.22308318 -0.4679968 0.87283427 -0.058088575 -0.5516031 -1.3450572 -0.31535548 -0.042468358 0.4613811 0.6209024 -0.3209889 0.42533645 0.066565216 -0.31089905 -0.12491797
expression 0.46652967 0.62108815 -0.22916158 0.11806312 -1.1946108 0.20532168 -0.5035317 0.8065578 -0.00020953603 -0.4515173 -1.3127755 -0.27876917 -0.06358275 0.35417122 0.6519179 -0.21917085 0.53050137 0.05143429 -0.2614753 -0.18044831
activity 0.37660006 0.616857 -0.17959131 0.090839826 -1.2350098 0.10358939 -0.47686145 0.6851843 0.021535989 -0.5118795 -1.335958 -0.2740999 -0.21394902 0.35849229 0.64264876 -0.18815036 0.4666916 0.079699315 -0.33402097 -0.19660713
The 0.32827935 0.57574064 -0.18808028 0.07492212 -1.1451163 0.20716904 -0.47028536 0.5915626 0.0983918 -0.56029147 -1.2796272 -0.36010954 -0.3348571 0.35913244 0.6528464 -0.1172639 0.43231824 0.103323385 -0.29007456 -0.16635288
as 0.29106763 0.6151703 -0.20923625 0.17693433 -1.3801031 -0.07039183 -0.59663904 0.57348657 0.13419957 -0.57029307 -1.4108669 -0.31454772 -0.4029783 0.39584407 0.6753239 0.027926464 0.41691217 0.05543554 -0.34743607 -0.33540678
effects 0.3146537 0.6076665 -0.17989516 0.11872626 -1.2484671 0.11761932 -0.46792772 0.70925915 -0.0067463336 -0.4550509 -1.2780654 -0.22772574 -0.28973198 0.36514348 0.6791407 -0.098706126 0.40030137 0.12111304 -0.3314667 -0.21644197
A 0.37094566 0.5467814 -0.20359942 0.084529184 -1.2689339 0.09124594 -0.56144977 0.6419093 0.09733989 -0.5707393 -1.2870342 -0.33126727 -0.3254035 0.28404167 0.68766654 -0.058235954 0.49750376 0.067794554 -0.32411596 -0.19549532
from 0.3317164 0.62836844 -0.15983316 0.062664434 -1.2016644 0.1986417 -0.515149 0.65290934 0.08014884 -0.5877608 -1.365585 -0.3658194 -0.22298841 0.35724488 0.6469578 -0.1565055 0.5283726 0.05928299 -0.28466433 -0.15243697
rat 0.36473364 0.6036477 -0.17073631 0.10433666 -1.173166 0.21564081 -0.47518402 0.7634435 -0.043925624 -0.48056826 -1.2949815 -0.24564129 -0.13647251 0.41899902 0.59899205 -0.18745074 0.45593044 0.10863672 -0.30521086 -0.20889132
cell 0.38709575 0.5956669 -0.1865324 0.08941094 -1.0312157 0.31577906 -0.47743717 0.8193216 -0.0075736516 -0.62414205 -1.3636934 -0.3265784 -0.16734385 0.42735386 0.53145283 -0.3403431 0.47035456 0.030086601 -0.22107853 -0.16653036
rats 0.38485882 0.59557724 -0.16269684 0.10084105 -1.0817304 0.26644495 -0.4437236 0.77409273 0.002577031 -0.5781196 -1.245506 -0.3201636 -0.09604648 0.4249723 0.59835577 -0.24055593 0.4216471 0.06453289 -0.25671852 -0.11967004
inhibitors 0.36292833 0.6245086 -0.22033376 0.15928423 -1.2829865 0.053655554 -0.55914134 0.63487285 0.012055305 -0.5688184 -1.3357598 -0.26959315 -0.30645615 0.31077388 0.6399137 -0.047244534 0.44231203 0.101524204 -0.30848464 -0.23627944
is 0.38898107 0.6144742 -0.25467828 0.09475731 -1.164186 0.20400968 -0.5429978 0.71806747 0.065445475 -0.6534365 -1.3782417 -0.41602015 -0.25425145 0.3756765 0.6505385 -0.21851104 0.45862523 0.035864238 -0.26344585 -0.17723723
novel 0.3533283 0.61413777 -0.17550775 0.17930797 -1.4599684 -0.21695356 -0.5636722 0.54124 0.062623344 -0.5020283 -1.404558 -0.25514337 -0.41560516 0.38488042 0.5628937 0.03174412 0.39246616 0.113326564 -0.38350096 -0.27124277
mice 0.38935173 0.6242693 -0.21727116 0.06847443 -1.0931617 0.20459807 -0.4250586 0.74281514 0.05230506 -0.5864483 -1.285937 -0.3208224 -0.14006998 0.35460803 0.5682283 -0.27125475 0.4520517 0.069074914 -0.30501354 -0.13620608
cancer 0.3508779 0.61348915 -0.15512466 0.1727814 -1.0143048 0.25368243 -0.4308917 0.83325714 -0.0066176183 -0.6676027 -1.4640577 -0.40637416 -0.0800183 0.38137963 0.45657384 -0.41600817 0.45849228 0.047353003 -0.28429314 -0.107406236
gene 0.4585858 0.5598942 -0.19282635 0.07424257 -1.2078593 0.25026163 -0.5328927 0.81063837 -0.00044807192 -0.55066806 -1.3196114 -0.28186762 -0.13551675 0.3793825 0.56861764 -0.21841316 0.48983097 0.060833413 -0.29622808 -0.11043123
an 0.3261456 0.62366503 -0.20297289 0.05066092 -1.2173033 0.08728792 -0.51329404 0.67215097 0.035139475 -0.5817558 -1.3271645 -0.30464408 -0.32165998 0.32674146 0.6320651 -0.17348653 0.4691889 0.091050014 -0.2909729 -0.17381251
protein 0.41236693 0.62475574 -0.16581693 0.040656976 -1.2462857 0.11109474 -0.5228173 0.64883655 0.069176 -0.5908217 -1.3590653 -0.35040346 -0.22738823 0.34570724 0.65849876 -0.14642003 0.47990355 0.09684986 -0.3146585 -0.17661434
binding 0.33802766 0.59606063 -0.20260759 0.07709786 -1.227395 0.1718812 -0.52967924 0.602457 0.060131088 -0.5972687 -1.3013191 -0.32211053 -0.24728939 0.40854833 0.678705 -0.12717049 0.44921356 0.109762415 -0.31387675 -0.20928106
receptors 0.35691616 0.57319444 -0.16784765 0.042968746 -1.1798494 0.11806172 -0.5089782 0.6613997 0.035873093 -0.56373227 -1.2303344 -0.3403019 -0.20338604 0.30299327 0.6410445 -0.14767267 0.48866183 0.032794613 -0.34053558 -0.13361831
[ 0.18115951 0.7199841 -0.26792374 0.1968109 -1.6639723 0.11352433 -0.68581694 0.4944094 0.21587081 -0.65624744 -1.3390429 -0.35366127 -0.29901657 0.41772556 0.73486143 0.34821704 0.6371478 -0.002415569 -0.41686645 -0.048125662
] 0.282633 0.55814296 -0.3696654 0.23386587 -1.4745834 -0.025330508 -0.7529951 0.5449271 0.2076945 -0.7195887 -1.5305389 -0.45383173 -0.19759929 0.3411044 0.68693537 0.45146385 0.7652535 -0.00071466784 -0.4029305 -0.20482601
acid 0.33512813 0.6424775 -0.2289764 0.05503397 -1.1721556 0.1837276 -0.4733913 0.63470197 0.09007936 -0.60429174 -1.2797593 -0.3421327 -0.26673612 0.35473952 0.66653633 -0.19872901 0.5197011 0.09436303 -0.3046783 -0.14526911
factor 0.3815954 0.56959003 -0.21062236 0.1326152 -1.2104414 0.13546214 -0.5629668 0.7476706 0.058481455 -0.56377393 -1.387855 -0.45336998 -0.19871864 0.36431777 0.6467839 -0.13446203 0.47412175 0.013527581 -0.27845922 -0.12582818
inhibition 0.29899588 0.5926465 -0.20386752 0.06119013 -1.1479073 0.18714066 -0.5212361 0.70230955 0.041434575 -0.53458875 -1.2675178 -0.34037277 -0.24205074 0.37524492 0.6718935 -0.19494006 0.4794089 0.039144978 -0.28755102 -0.16807537
inhibitor 0.38314614 0.63766533 -0.1816598 0.10156867 -1.3401979 -0.043541376 -0.58826214 0.64848053 0.025549002 -0.5306911 -1.3939451 -0.29500362 -0.33339402 0.34267506 0.6486544 -0.0902606 0.46095943 0.052721456 -0.34923294 -0.2278949
activation 0.33320084 0.6067418 -0.21520236 0.07676238 -1.0868744 0.21701245 -0.51233125 0.6951319 0.08202455 -0.604672 -1.3167688 -0.3719576 -0.18511674 0.38742843 0.6793368 -0.19331518 0.49126333 0.06590042 -0.30855557 -0.13536358
signaling 0.38277826 0.5836079 -0.17928322 0.03721273 -1.0558428 0.20188272 -0.46070343 0.7270229 0.12157567 -0.5976503 -1.3376592 -0.38318497 -0.21614236 0.38310766 0.5993365 -0.20967436 0.45946264 0.056846753 -0.3010612 -0.11644169
effect 0.29755065 0.5234207 -0.1959958 0.040945627 -1.1353871 0.13706817 -0.49077722 0.6205337 0.017467698 -0.5164487 -1.192628 -0.25749388 -0.2945269 0.31650704 0.6543439 -0.0812825 0.4262877 0.07820169 -0.31566587 -0.17048115
treatment 0.35411128 0.52049357 -0.22065054 0.10812842 -1.186195 0.07862506 -0.4807849 0.6799189 0.08059829 -0.5731012 -1.2637895 -0.33466366 -0.28010646 0.3122309 0.60018396 -0.14797634 0.40181047 0.09574549 -0.2983948 -0.20762116
2 0.35996252 0.62830424 -0.13216603 0.1461147 -1.3127089 0.0019936862 -0.5505058 0.5682412 0.052161638 -0.5278749 -1.3145459 -0.34720066 -0.2856704 0.24289496 0.6126888 -0.09316395 0.5058778 0.011909649 -0.31822628 -0.08506528
via 0.3714816 0.58264685 -0.2053608 0.029579477 -1.0753448 0.25894055 -0.48420766 0.69156057 0.12312053 -0.6444675 -1.3683206 -0.43124598 -0.23778945 0.29847273 0.65341645 -0.21788467 0.49374008 0.08360432 -0.29258275 -0.1524529
patients 0.34157664 0.6209601 -0.18478927 0.12257733 -1.0855132 0.21531215 -0.48615894 0.72187036 0.035286255 -0.6113047 -1.4049747 -0.36309096 -0.24206777 0.3101807 0.5358701 -0.28471667 0.41967118 0.021991428 -0.29067808 -0.12721305
through 0.34978518 0.6071987 -0.2024127 0.050298218 -1.0509003 0.26321203 -0.49111614 0.7351262 0.11204706 -0.6231812 -1.3123591 -0.3819218 -0.20003226 0.37551755 0.6364872 -0.24779153 0.49068412 0.08948016 -0.25588092 -0.14641598
its 0.36793756 0.60173494 -0.19491483 0.037807766 -1.0784947 0.1776085 -0.44972292 0.6281419 0.09755406 -0.56459033 -1.3021059 -0.36155438 -0.25075358 0.34181622 0.6103025 -0.20182027 0.46327415 0.09577704 -0.29017124 -0.12544234
vitro 0.33018383 0.5760492 -0.19453132 0.10561704 -0.99728215 0.1393519 -0.40372485 0.72061175 0.010730597 -0.54977024 -1.207182 -0.33637777 -0.15596281 0.3496327 0.6039554 -0.24387369 0.38004014 0.0475663 -0.23591077 -0.11337086
vivo 0.3120679 0.5853744 -0.21857393 0.07991409 -1.0591717 0.1515263 -0.44927397 0.6836165 0.01615048 -0.5551035 -1.273975 -0.33471486 -0.19943525 0.40329114 0.6033752 -0.21157302 0.4326238 0.038021136 -0.26741827 -0.20149934
apoptosis 0.39298815 0.6176529 -0.17696871 0.05191756 -1.0800282 0.24069528 -0.45265427 0.7496122 0.030489236 -0.5288889 -1.2782152 -0.38389266 -0.13844861 0.34988835 0.6119713 -0.27364266 0.43302074 0.08571957 -0.28012672 -0.12200956
antagonist 0.3618588 0.6041851 -0.19770879 0.05712969 -1.3013113 0.038434114 -0.5922911 0.59065163 0.09655116 -0.5964346 -1.2849538 -0.328716 -0.31766614 0.33841622 0.6435404 -0.081798635 0.460487 0.04638417 -0.34208715 -0.20547083
1 0.34683403 0.6121522 -0.17762426 0.051859185 -1.2169014 0.10842276 -0.5569291 0.58168435 0.08700327 -0.59241545 -1.3080733 -0.36195263 -0.24861519 0.2930272 0.5956816 -0.12810706 0.49640787 0.044788294 -0.3372612 -0.12295251
brain 0.30494747 0.5877099 -0.16833042 0.058446724 -1.1138554 0.14742833 -0.49463168 0.6375539 0.07524396 -0.59689355 -1.2749752 -0.3027622 -0.20479329 0.34913862 0.59932256 -0.1985218 0.48713756 0.08288513 -0.3053696 -0.14405961
Effects 0.315336 0.54520196 -0.19764973 0.034474835 -1.0724797 0.17709908 -0.46290693 0.59187317 0.0371124 -0.5135165 -1.1776979 -0.3237468 -0.24989584 0.32468206 0.6308773 -0.10822327 0.43918574 0.09092217 -0.27440196 -0.15335216
transporter 0.322857 0.553831 -0.18806693 0.07901899 -1.1098058 0.19049856 -0.44379628 0.6482895 0.07457399 -0.5704374 -1.2069417 -0.29795557 -0.20613691 0.30741408 0.6245729 -0.1653687 0.47294 0.098472215 -0.31201792 -0.14618334
induced 0.40152842 0.5986294 -0.17575374 0.06486484 -1.0296669 0.24610876 -0.4644253 0.7257686 0.067558974 -0.6304599 -1.3072529 -0.4342381 -0.25159428 0.35333943 0.62974334 -0.27160457 0.45585728 0.032890778 -0.2657824 -0.1426012
against 0.38325104 0.61244065 -0.15864958 0.055888344 -1.0465546 0.27341133 -0.46383727 0.66380745 0.13392612 -0.6615875 -1.3493015 -0.43844426 -0.2258304 0.33994636 0.65153885 -0.26368007 0.5064331 0.09115997 -0.2883831 -0.17043465
growth 0.35807422 0.57814133 -0.20478542 0.116551764 -1.1292886 0.19169612 -0.5615059 0.7237693 0.1161686 -0.61084706 -1.3704869 -0.4104918 -0.21799801 0.3051144 0.664567 -0.1682656 0.4423308 0.05076683 -0.24936976 -0.19239113
kinase 0.38198435 0.6228669 -0.21331228 0.029331546 -1.2039733 0.17855975 -0.52462435 0.6568805 0.076744735 -0.5397623 -1.3293234 -0.38515654 -0.2604469 0.29523614 0.6401064 -0.10966305 0.46245813 0.059893 -0.33748102 -0.20874463
mouse 0.3831556 0.5611764 -0.22296992 0.033993557 -1.0632293 0.20229283 -0.48264104 0.688067 0.089369275 -0.56592846 -1.2537267 -0.38487083 -0.20818685 0.35326105 0.59802073 -0.21063058 0.45546564 0.06436184 -0.29146856 -0.16271417
pathway 0.3494402 0.55763006 -0.22535603 0.016133113 -1.0292733 0.27074063 -0.4962437 0.7241617 0.12715812 -0.6169842 -1.3130078 -0.3986172 -0.23309831 0.33283237 0.6409234 -0.2778766 0.45088997 0.038008705 -0.25740236 -0.1075335
new 0.31788316 0.5433312 -0.21086793 0.07026476 -1.1677985 0.09398504 -0.4955613 0.58118707 0.10555706 -0.6172216 -1.3141186 -0.35058165 -0.35787216 0.35833982 0.61386085 -0.120334335 0.43200108 0.10508058 -0.27689004 -0.18989214
Effect 0.3311903 0.5074182 -0.1587048 0.0804373 -1.1012342 0.15266995 -0.46609226 0.61008686 0.035527386 -0.46533847 -1.1509862 -0.28108335 -0.26729733 0.292855 0.62679213 -0.1041549 0.42686304 0.077565655 -0.27117568 -0.14246033
drug 0.32819992 0.56459594 -0.21451545 0.03613256 -1.0916697 0.12789197 -0.46138728 0.5940297 0.08149285 -0.5992382 -1.227685 -0.3381651 -0.32630837 0.32803735 0.5948995 -0.15564339 0.4103732 0.10110161 -0.27028733 -0.20189339
at 0.3430937 0.5904382 -0.19385545 0.04204893 -1.1415824 0.22633141 -0.49147046 0.6269921 0.1331755 -0.6426079 -1.333822 -0.40136647 -0.24529935 0.3105575 0.6026562 -0.20715593 0.4833137 0.058827832 -0.29382524 -0.18396886
Synthesis 0.2737585 0.5192691 -0.14404897 0.09529952 -1.0076449 0.021482553 -0.44808248 0.52027416 0.046510495 -0.50155807 -1.0737911 -0.26963854 -0.25301316 0.31685022 0.54773325 -0.09601088 0.37415284 0.058052763 -0.29735145 -0.15331797
selective 0.3193094 0.5959966 -0.17089745 0.046313874 -1.2669352 -0.013678653 -0.5232541 0.5957934 0.083982185 -0.5437359 -1.3083651 -0.2983742 -0.34603703 0.3411714 0.59722733 -0.085950874 0.4389667 0.103093386 -0.3498061 -0.21379521
inhibits 0.31689778 0.5911011 -0.21455733 0.010036154 -1.0937814 0.20595329 -0.5047267 0.6664256 0.14678147 -0.65751946 -1.3230648 -0.41743523 -0.2444927 0.3168661 0.6180759 -0.22777586 0.4839632 0.07563545 -0.26905018 -0.14872204
type 0.34588808 0.58883345 -0.18960336 0.111873224 -1.1184876 0.17460978 -0.5282042 0.6425639 0.05661898 -0.5336915 -1.3181399 -0.3307641 -0.27903554 0.25731912 0.60765845 -0.15629515 0.47495753 0.008341054 -0.33272207 -0.18361601
study 0.29044166 0.50161433 -0.19935164 0.062116977 -1.0223702 0.13742486 -0.41384834 0.6038118 0.0669231 -0.52611107 -1.1621401 -0.2970399 -0.23080947 0.32246605 0.56886613 -0.1411822 0.4177495 0.06667023 -0.23904432 -0.1591883
model 0.3558235 0.5311576 -0.18830404 0.09573572 -1.0676845 0.1544874 -0.48227164 0.6191196 0.0794661 -0.5820066 -1.2724179 -0.3703977 -0.26444578 0.36883575 0.62225354 -0.17986342 0.455504 0.0904977 -0.2749655 -0.15148927
potential 0.36047745 0.58532363 -0.20334831 0.074187845 -1.1594875 0.12171688 -0.4762666 0.6414309 0.118702136 -0.60299826 -1.3426827 -0.3930354 -0.29849786 0.3413719 0.60981673 -0.13919699 0.42240918 0.0605476 -0.3211345 -0.18358238
stress 0.3702631 0.5345168 -0.15633582 0.08069523 -1.0142024 0.2253338 -0.43656507 0.6256119 0.07288383 -0.59701276 -1.2685168 -0.39741763 -0.23981696 0.28149655 0.55179465 -0.21672921 0.45290723 0.044213157 -0.2656101 -0.12633847
metabolism 0.31918854 0.5296903 -0.19529349 0.057112582 -0.9980323 0.19332586 -0.45595634 0.57711655 0.07221214 -0.5532936 -1.1621102 -0.33827996 -0.21626616 0.31715846 0.57331973 -0.14669216 0.44264278 0.05516264 -0.2495295 -0.15519746
function 0.35623434 0.55418986 -0.16474135 0.055119812 -1.0400089 0.19987842 -0.4604127 0.6538183 0.05690081 -0.57429963 -1.2132835 -0.3379614 -0.23321474 0.3378456 0.6064354 -0.18205236 0.4622628 0.08036168 -0.29151082 -0.13299933
role 0.3051011 0.50565 -0.15239502 0.08136025 -0.9877797 0.13309626 -0.43681747 0.61320364 0.086329244 -0.5462363 -1.1459118 -0.31887805 -0.2342524 0.2895758 0.5888018 -0.17941068 0.3899718 0.053459514 -0.25455317 -0.12757926
II 0.32111108 0.5670084 -0.1727039 0.050303906 -1.034168 0.18318868 -0.44370732 0.55492467 0.08809477 -0.58809394 -1.2292026 -0.3377347 -0.2875211 0.31491357 0.5927412 -0.18274416 0.41953328 0.026271494 -0.2953414 -0.1258989
disease 0.35938627 0.4720535 -0.18337706 0.08570094 -0.9597241 0.2013555 -0.44678727 0.6073021 0.06200202 -0.54469347 -1.1522084 -0.3486862 -0.25555524 0.24656713 0.5322171 -0.2196755 0.39116228 0.049969397 -0.2222548 -0.16757968
properties 0.29005656 0.530709 -0.19931187 0.0449321 -1.092428 0.15028633 -0.4730319 0.58551097 0.104834564 -0.5566609 -1.1950231 -0.35779223 -0.29922533 0.33848014 0.5723622 -0.1441268 0.43826082 0.091206536 -0.28047103 -0.16375703
liver 0.3453181 0.5671301 -0.17496745 0.031628266 -1.0088576 0.22880812 -0.4223726 0.66549456 0.10000343 -0.58501107 -1.1917276 -0.33960587 -0.21544302 0.3464877 0.57119286 -0.24089295 0.4529802 0.04190724 -0.23481162 -0.14287199
dopamine 0.29013765 0.5736806 -0.1718713 0.043286365 -1.1269536 0.10346089 -0.47729245 0.5987587 0.060696702 -0.5317928 -1.2232348 -0.3020708 -0.21961708 0.25594115 0.6257469 -0.10155353 0.45063227 0.068799704 -0.30327195 -0.12019374
's 0.38274994 0.5328365 -0.18751512 0.07050872 -1.002835 0.19145502 -0.45590806 0.64040804 0.1375312 -0.5912587 -1.2010444 -0.3887677 -0.2943637 0.31561765 0.58265233 -0.18616225 0.3760435 0.053026434 -0.2174726 -0.14680293
alpha 0.30960625 0.55293864 -0.17213048 0.04322367 -1.0946622 0.12874229 -0.49871436 0.5739759 0.10000584 -0.57486326 -1.1874226 -0.31443325 -0.25296262 0.27142835 0.6009374 -0.12235922 0.43343192 0.075153224 -0.29188296 -0.11787437
using 0.34568924 0.55809146 -0.20958701 0.036995754 -1.0942584 0.22841537 -0.4801387 0.60832185 0.10976014 -0.638599 -1.2904676 -0.38406357 -0.28870013 0.34861785 0.61278194 -0.16940355 0.43252167 0.040694688 -0.27339235 -0.17647907
drugs 0.30196872 0.51636654 -0.1807052 0.07198888 -0.9899616 0.17105451 -0.4430342 0.60417056 0.11865699 -0.55767155 -1.1619476 -0.3297381 -0.26124522 0.31455404 0.5864464 -0.17618112 0.43602902 0.03275439 -0.2346842 -0.14031108
response 0.358387 0.58732957 -0.19986713 0.059556227 -0.98766893 0.23467708 -0.42814776 0.6137292 0.109543346 -0.5692058 -1.2214416 -0.4008095 -0.19555658 0.34271523 0.60833895 -0.22164515 0.40554583 0.06320408 -0.2397396 -0.12288843
molecular 0.28942022 0.49353617 -0.1692553 0.019483196 -0.99023086 0.1200196 -0.4619031 0.59241027 0.10243427 -0.53534555 -1.1300617 -0.33599445 -0.2585108 0.26135677 0.57458985 -0.14628018 0.43436038 0.081248954 -0.27368522 -0.1486168
associated 0.37240258 0.5823647 -0.19936478 0.06296237 -1.0214256 0.24428052 -0.4487291 0.63742965 0.080387205 -0.5829635 -1.3027706 -0.38769394 -0.24252471 0.289588 0.59362626 -0.24114504 0.4500782 0.080127716 -0.23034306 -0.17417677
potent 0.28942388 0.5815218 -0.17660785 0.04631995 -1.1817478 0.0498882 -0.541452 0.5820938 0.1200425 -0.57886314 -1.3116443 -0.3275242 -0.33392745 0.34714004 0.6273265 -0.08694812 0.42910326 0.071102 -0.3420566 -0.21898103
characterization 0.2690478 0.47245547 -0.14502266 0.030860424 -0.9456838 0.15763064 -0.45028737 0.51847893 0.0732538 -0.53128916 -1.0856442 -0.3061934 -0.2437695 0.27645126 0.51973367 -0.15997532 0.39079767 0.055574983 -0.27999333 -0.179754
synthesis 0.31413877 0.53541285 -0.2023907 0.040459894 -1.0115361 0.14004911 -0.45952633 0.5451984 0.092012346 -0.5570221 -1.1461725 -0.31797424 -0.27973324 0.2892916 0.5950593 -0.13501854 0.42666525 0.08708496 -0.30387336 -0.18356298
are 0.31678864 0.58129746 -0.18671945 0.032058652 -1.0263585 0.28352576 -0.46021414 0.64777154 0.14276908 -0.6042837 -1.2522554 -0.42442435 -0.26467997 0.32193044 0.59524906 -0.20973665 0.43894026 0.071548946 -0.24202284 -0.11836882
between 0.30628574 0.5293663 -0.20985602 0.017087348 -1.0134873 0.20987739 -0.45166743 0.5911103 0.09623727 -0.58186495 -1.1826873 -0.39648882 -0.25678104 0.32778853 0.60471404 -0.1852588 0.46407428 0.049395755 -0.28557512 -0.16463152
high 0.33989868 0.5282576 -0.19744945 0.01881049 -0.96532184 0.21349798 -0.45060465 0.62751937 0.144103 -0.6444474 -1.2104281 -0.39727426 -0.23603871 0.33452496 0.6098734 -0.22213367 0.45321077 0.08203331 -0.26813248 -0.14103583
regulation 0.322835 0.50935096 -0.18771088 0.043643244 -0.9793162 0.20951362 -0.43581644 0.6009265 0.093254246 -0.4886768 -1.1080587 -0.32206628 -0.20459719 0.30136952 0.56376016 -0.19967669 0.42118725 0.05005858 -0.25916526 -0.16133766
DNA 0.32471636 0.5106266 -0.17690788 0.03179156 -0.959731 0.22166419 -0.40823376 0.5760634 0.13147546 -0.5581086 -1.1708605 -0.32988396 -0.21474597 0.2942773 0.567731 -0.21930532 0.44039175 0.047293875 -0.23933086 -0.13266966
Inhibition 0.2823812 0.47083688 -0.18480158 0.031870384 -0.8478379 0.20546667 -0.41230428 0.521807 0.12241584 -0.53410286 -1.0236918 -0.34017012 -0.21449639 0.27179298 0.53316426 -0.1341766 0.4114375 0.05272256 -0.23286904 -0.120206825
breast 0.2882584 0.5528168 -0.21533594 0.04084827 -0.9585249 0.2527632 -0.36220694 0.72851056 0.081307195 -0.6245842 -1.2189974 -0.41683996 -0.15063411 0.33638006 0.5430974 -0.30378655 0.38928765 0.0055059986 -0.27637902 -0.0753359
agents 0.28038386 0.55074185 -0.21191111 0.01685024 -0.9758755 0.18648742 -0.4738645 0.5997286 0.119626634 -0.5700506 -1.1958774 -0.34908557 -0.30877507 0.2734891 0.5565107 -0.16850774 0.39124912 0.08638145 -0.27987254 -0.15287156
during 0.33376002 0.5373681 -0.18784165 0.032938752 -0.97700554 0.26706296 -0.44401497 0.642651 0.11399008 -0.60634303 -1.1983209 -0.41790608 -0.22145706 0.31490383 0.5618984 -0.24005279 0.45280775 0.040860556 -0.25332263 -0.15426871
derivatives 0.3184351 0.57910407 -0.22286329 0.029785084 -1.1326344 0.07772193 -0.5018363 0.5927334 0.09371495 -0.5647362 -1.2449474 -0.3806374 -0.30127522 0.29245016 0.62907654 -0.08346844 0.44877222 0.090634614 -0.3374465 -0.1824792
not 0.32032222 0.55562335 -0.22888564 0.03804125 -0.99206775 0.20101371 -0.43793494 0.6201925 0.16989739 -0.59390455 -1.2214063 -0.38546243 -0.26030892 0.3341317 0.64580667 -0.18071614 0.47871345 0.08788391 -0.30098104 -0.13675292
production 0.30032215 0.5265888 -0.20720726 0.00028042344 -0.96676314 0.19553204 -0.42934886 0.6132465 0.11474316 -0.53022915 -1.1829851 -0.33923823 -0.21944165 0.28472185 0.59497654 -0.20011398 0.4479679 0.070666276 -0.24147066 -0.16753548
mechanism 0.27723435 0.48524198 -0.20232123 0.044004254 -0.9736785 0.1635313 -0.44403502 0.519062 0.098720536 -0.5273696 -1.1117755 -0.3577795 -0.29417804 0.3207022 0.5701887 -0.16878922 0.38604504 0.042113036 -0.2500111 -0.13335647
induces 0.33935696 0.5649669 -0.22515815 -0.0056406236 -1.0309247 0.26466766 -0.46915635 0.6617025 0.14317855 -0.62840974 -1.2473626 -0.40975025 -0.23450442 0.2964608 0.6140727 -0.2254207 0.45135707 0.04186495 -0.2871783 -0.12712781
oxidative 0.37485716 0.5368523 -0.14188991 0.014097784 -0.93820995 0.25430095 -0.45077625 0.6478873 0.121718496 -0.57106686 -1.1686163 -0.41609475 -0.19839579 0.2925047 0.5794879 -0.20368707 0.4122996 0.028538264 -0.28835866 -0.15457034
levels 0.3080241 0.5259924 -0.20892695 0.007496848 -0.9607952 0.21720375 -0.44758415 0.5904778 0.127996 -0.54950607 -1.1723039 -0.38041586 -0.22922821 0.30949324 0.6003529 -0.18402939 0.44177136 0.04249185 -0.28265134 -0.102247775
synthase 0.28717458 0.49193925 -0.18977636 0.00416275 -0.93006665 0.20368777 -0.39879912 0.5767975 0.10342769 -0.53522176 -1.1055267 -0.3460996 -0.25522047 0.3127082 0.5296592 -0.20783171 0.41248325 0.07087422 -0.24767531 -0.110999994
muscle 0.31230745 0.53683925 -0.16658217 0.033664536 -0.91955084 0.23943558 -0.39471895 0.6354801 0.078146175 -0.57643604 -1.1480414 -0.40904996 -0.21509586 0.31111482 0.5841007 -0.22199258 0.42903838 0.029045474 -0.28899133 -0.11142203
their 0.28295663 0.53214043 -0.17131425 0.030336548 -1.011934 0.1913136 -0.44119433 0.545148 0.102075644 -0.54514766 -1.1604218 -0.3211409 -0.25648704 0.30327612 0.5669735 -0.16668925 0.38492697 0.044322904 -0.27757984 -0.167591
exposure 0.31320357 0.53889 -0.21104498 0.011280914 -0.9285508 0.24314377 -0.44057053 0.54972905 0.14719968 -0.5823055 -1.1929544 -0.37292537 -0.23108654 0.32071695 0.54892427 -0.1764701 0.40015924 0.06362704 -0.26948988 -0.11379963
use 0.30448514 0.5040799 -0.16838257 0.07524716 -0.96383214 0.176405 -0.41578314 0.5918265 0.11382745 -0.535918 -1.122041 -0.32537797 -0.25108382 0.31137097 0.51110286 -0.1928512 0.36569017 0.053847432 -0.2412673 -0.1646482
interaction 0.3184068 0.4892267 -0.15271771 0.057207428 -0.93477654 0.20398569 -0.44738287 0.5430498 0.06392521 -0.5510934 -1.1411201 -0.3272775 -0.20988001 0.28936374 0.53786963 -0.14463797 0.4114397 0.03476172 -0.2685471 -0.1602322
proteins 0.3037133 0.52836996 -0.15830909 0.015982786 -0.93344134 0.19891362 -0.44115636 0.5572748 0.10425148 -0.5388691 -1.127772 -0.37902218 -0.2375887 0.26688993 0.5484631 -0.2048964 0.41590297 0.059578832 -0.27023146 -0.13799788
antagonists 0.29461184 0.4525646 -0.15189052 0.015540898 -0.8823229 0.16276671 -0.39539734 0.51985013 0.10094577 -0.55785817 -1.0627277 -0.3271813 -0.22829744 0.27712023 0.5092505 -0.16266936 0.382371 0.07171326 -0.26216623 -0.119749606
endothelial 0.29508054 0.49815544 -0.18012531 0.045144636 -0.9097845 0.21065505 -0.39485914 0.5932713 0.107895575 -0.53195226 -1.1399269 -0.38038522 -0.16295612 0.30621615 0.53244257 -0.21665184 0.4173908 0.042574693 -0.24856699 -0.1296135
insulin 0.2797776 0.51317376 -0.20264259 0.009749173 -0.897808 0.17594713 -0.40037483 0.5696555 0.08776495 -0.5059537 -1.1097108 -0.31520903 -0.2400878 0.30997282 0.539256 -0.19724791 0.3741425 0.041667935 -0.23552127 -0.1357144
channel 0.32411316 0.51732373 -0.18545306 0.045370713 -0.9796292 0.17464219 -0.42134964 0.57443154 0.10525013 -0.49657282 -1.13521 -0.3351264 -0.23573995 0.25055033 0.5646415 -0.13019313 0.41233572 0.04660856 -0.25839677 -0.12848309
evaluation 0.2850335 0.49087465 -0.14130948 0.08803653 -1.0082232 0.08171621 -0.4411289 0.516572 0.047042985 -0.54203516 -1.1354477 -0.29512334 -0.2623651 0.27604344 0.52795047 -0.0928962 0.379206 0.03552617 -0.25928497 -0.1708541
studies 0.31307822 0.4898634 -0.1999475 0.014974478 -0.9750175 0.15368798 -0.4452133 0.5548834 0.103826135 -0.5680289 -1.1148529 -0.31749225 -0.25139874 0.30752534 0.5528168 -0.15845962 0.41391605 0.032074466 -0.24848682 -0.16954215
therapy 0.2944911 0.49291655 -0.15869029 0.028957283 -0.8727564 0.21835878 -0.36751685 0.5633474 0.1016742 -0.5662843 -1.0933512 -0.34749347 -0.2489819 0.25385556 0.5045941 -0.15584593 0.40111056 0.055550266 -0.2373653 -0.11429605
action 0.29450458 0.46908677 -0.15837824 0.02179545 -0.90137994 0.14422217 -0.4149466 0.55345017 0.0975787 -0.49408036 -1.088891 -0.3239897 -0.23875119 0.26920056 0.52242947 -0.15738365 0.39129567 0.0482278 -0.24395543 -0.1329044
release 0.29572654 0.50128025 -0.16151378 0.04480805 -0.9083277 0.209682 -0.44608262 0.59917784 0.14230351 -0.5544365 -1.1152242 -0.36663643 -0.25349626 0.26646718 0.53166914 -0.20442209 0.39594945 0.028263964 -0.22302483 -0.1365184
genes 0.30883646 0.4997457 -0.19480324 0.017095814 -0.9003151 0.24078734 -0.41028732 0.5936448 0.088261835 -0.54914504 -1.1091012 -0.33629388 -0.1916791 0.292803 0.53249055 -0.19549426 0.40377516 0.057087433 -0.23755893 -0.089124635
hormone 0.3039413 0.5233788 -0.17135988 0.03685596 -0.91665703 0.17717567 -0.42493305 0.5740534 0.11343185 -0.56959015 -1.1153754 -0.36974353 -0.24763782 0.29762557 0.5571977 -0.19615678 0.40755054 0.01287781 -0.22265582 -0.09120326
target 0.30140004 0.50483036 -0.174871 0.017187687 -0.9864896 0.13606614 -0.44110805 0.57193005 0.097616605 -0.54291254 -1.1257678 -0.34553406 -0.25683478 0.30692208 0.5402561 -0.15790677 0.3834829 0.036333106 -0.25530368 -0.18456765
system 0.27170765 0.4915691 -0.17710541 0.00468931 -0.8825893 0.20877038 -0.40371624 0.5806227 0.13918336 -0.5672211 -1.0965039 -0.38772833 -0.24772729 0.29788503 0.54600346 -0.19926418 0.41311935 0.037954483 -0.23771079 -0.14752004
tumor 0.32827908 0.5248159 -0.16405028 0.059256803 -0.967607 0.17238939 -0.42530972 0.6103247 0.11839453 -0.5466353 -1.1514881 -0.39862818 -0.22538121 0.31835952 0.56112087 -0.20572679 0.38921306 0.028503966 -0.28461957 -0.11112057
In 0.25591874 0.4720036 -0.16944301 -0.017415723 -0.8885015 0.22821409 -0.37300685 0.54012215 0.11892598 -0.53367376 -1.1134222 -0.3383405 -0.2659312 0.2749988 0.55753195 -0.20215213 0.35579923 0.035286695 -0.21188667 -0.14131506
beta 0.30566424 0.51849914 -0.17560771 0.024241406 -1.0135922 0.19928469 -0.46710902 0.5797222 0.118656725 -0.56279254 -1.1361594 -0.3441272 -0.22616453 0.28335044 0.5711839 -0.15823878 0.45892063 0.036513027 -0.27446085 -0.10239599
Characterization 0.23190685 0.38479838 -0.16311204 0.0320642 -0.7709509 0.18710233 -0.37115985 0.46132597 0.11756316 -0.4515948 -0.9217224 -0.2957592 -0.19026732 0.21359655 0.47777605 -0.12852244 0.3510573 0.032125518 -0.19904713 -0.13141175
changes 0.32983103 0.5179689 -0.1871758 0.04538403 -0.89242584 0.24489525 -0.38568282 0.5752766 0.11044636 -0.5194532 -1.1161071 -0.3719488 -0.19213946 0.30247703 0.5680591 -0.17875573 0.38381177 0.038099468 -0.26510546 -0.12491274
epithelial 0.26838863 0.44831842 -0.13878278 0.009803149 -0.81105244 0.20999295 -0.34665346 0.56331587 0.06480367 -0.51266617 -1.0291758 -0.32484913 -0.1467671 0.24772462 0.48949936 -0.2463952 0.3752825 0.031649496 -0.2527599 -0.07482581
analysis 0.27078244 0.49075162 -0.17644612 0.02895199 -0.8528094 0.22070198 -0.42163327 0.53859526 0.113739744 -0.52269703 -1.0405066 -0.34682283 -0.21033798 0.2670627 0.5018485 -0.1812009 0.40440175 0.03316882 -0.2349217 -0.097139075
after 0.29923326 0.54070777 -0.19277924 0.0148319425 -0.94818485 0.28171206 -0.41925874 0.5962385 0.14664829 -0.6197005 -1.2264645 -0.40054545 -0.2589295 0.28460306 0.5758284 -0.20550333 0.41812423 0.054766323 -0.28979144 -0.09904402
agonist 0.30741987 0.49905953 -0.18342155 0.014579352 -0.98867184 0.16219743 -0.47424725 0.5288907 0.10825298 -0.57543796 -1.1318684 -0.37006786 -0.26308617 0.27248022 0.5686943 -0.12931271 0.43046275 0.050396685 -0.25428313 -0.11884165
channels 0.27351147 0.48428357 -0.16177227 -0.011758074 -0.83537567 0.20250145 -0.42833322 0.518867 0.114113204 -0.520654 -1.0511379 -0.3715936 -0.2540523 0.26528227 0.5528779 -0.16914065 0.38129222 0.04851385 -0.26119456 -0.09723016
acute 0.31376493 0.49299076 -0.16101186 0.03329194 -0.8997253 0.18895847 -0.41283214 0.5374079 0.1400576 -0.56139404 -1.1029596 -0.33680797 -0.23494376 0.26537696 0.56611633 -0.18236618 0.41533017 0.06450126 -0.23825835 -0.11068388
serotonin 0.2668573 0.5033662 -0.1369479 0.047965888 -0.9759436 0.089282125 -0.4153964 0.5059861 0.06307808 -0.5081704 -1.0908974 -0.3096123 -0.24947587 0.24085407 0.5439513 -0.08890102 0.43602493 0.06606829 -0.24512775 -0.1114787
modulation 0.30542052 0.46516603 -0.14816408 0.023565652 -0.9171534 0.21777068 -0.42131847 0.5474835 0.112514265 -0.519013 -1.0717443 -0.32331705 -0.25657508 0.27100107 0.5620526 -0.16309582 0.42329353 0.068936646 -0.22798915 -0.11700078
anti-inflammatory 0.24019942 0.4894182 -0.19584717 0.043040205 -0.8891057 0.18518305 -0.37878892 0.4946583 0.07657881 -0.53000814 -1.0402783 -0.32364538 -0.2697335 0.27464512 0.5015683 -0.14542298 0.35146022 0.036906704 -0.23065177 -0.11537295
histamine 0.29010794 0.5008603 -0.2100769 0.035814542 -0.98744607 0.16908291 -0.4721835 0.5445605 0.11568735 -0.538911 -1.1309216 -0.33959135 -0.26284325 0.28762227 0.5653416 -0.1301514 0.4228137 0.033999205 -0.25635186 -0.13641773
toxicity 0.2952302 0.5281602 -0.15986511 0.050207008 -0.88018686 0.2372385 -0.40611133 0.5834389 0.10792781 -0.54990053 -1.1130818 -0.33500433 -0.22318892 0.2819901 0.5530561 -0.20813818 0.4053183 0.027956348 -0.24644226 -0.13559726
clinical 0.24356653 0.44186264 -0.18293849 0.036398534 -0.8834496 0.1405953 -0.39633742 0.4812357 0.10428928 -0.48325866 -1.0242064 -0.31028876 -0.22179003 0.26820925 0.5115589 -0.15666819 0.38000378 0.03423128 -0.23516148 -0.1534682
lung 0.2640032 0.46988466 -0.17956088 0.013916122 -0.810733 0.2252659 -0.334987 0.5741068 0.10088097 -0.5414018 -1.0850534 -0.37034145 -0.17983407 0.30172262 0.5044939 -0.24870247 0.37802976 0.019713275 -0.21407314 -0.1249138
functional 0.2910695 0.48799363 -0.17004997 -0.002123337 -0.8984974 0.18508726 -0.38472635 0.52979946 0.13698749 -0.5513872 -1.0487915 -0.31426644 -0.2667195 0.2464699 0.5278929 -0.17021714 0.39392805 0.041663673 -0.22047038 -0.15269087
male 0.31351534 0.48437887 -0.1439585 0.05909136 -0.84574425 0.21773766 -0.36846942 0.56697863 0.08291479 -0.53891 -1.0657263 -0.33800066 -0.22663891 0.29922402 0.55385506 -0.18147188 0.38822183 0.036500394 -0.25412148 -0.11190765
Identification 0.24928892 0.40448564 -0.1231382 0.026673684 -0.7217416 0.13758281 -0.34970292 0.42839542 0.1045019 -0.40163854 -0.8625643 -0.2866499 -0.19874 0.23949708 0.44416863 -0.10711876 0.31674716 0.02565119 -0.21067229 -0.1395056
sodium 0.2724511 0.47360083 -0.19611068 0.038908232 -0.9187327 0.18500006 -0.43138903 0.5639424 0.13031793 -0.5496434 -1.0683932 -0.36077845 -0.24033323 0.2842938 0.5188286 -0.1820143 0.398462 0.0492936 -0.22276315 -0.101613164
control 0.2741073 0.5013708 -0.19535618 0.02229826 -0.8708029 0.20746572 -0.39570642 0.5456254 0.10033525 -0.50246423 -1.0824578 -0.33895952 -0.20036665 0.29701737 0.53282595 -0.15878186 0.41763675 0.06982775 -0.2691111 -0.11604341
activities 0.27580002 0.4748315 -0.18033016 0.027343718 -0.8882774 0.22150955 -0.4229834 0.5412101 0.123152025 -0.49981302 -1.0491425 -0.31450585 -0.24257983 0.29746515 0.50456077 -0.1615225 0.3842091 0.028494198 -0.21933459 -0.11875704
that 0.31339717 0.5085842 -0.16171457 -0.004306277 -0.94299287 0.17490423 -0.42584157 0.55659354 0.13861868 -0.548802 -1.1585771 -0.3966156 -0.28946567 0.27688733 0.5935134 -0.19276716 0.40170276 0.037509013 -0.24254274 -0.16053112
diabetes 0.24875759 0.46109372 -0.15210246 0.03603665 -0.80757713 0.20252146 -0.36378148 0.46008772 0.10507656 -0.5112919 -1.0238876 -0.28750485 -0.24585168 0.24209078 0.45964518 -0.14732532 0.34259406 0.00015168874 -0.23537238 -0.077225864
renal 0.3043103 0.523472 -0.19273873 0.020273084 -0.89875454 0.21819457 -0.37661752 0.55101377 0.12936176 -0.5805961 -1.1180398 -0.34682062 -0.22958174 0.30640155 0.52925533 -0.22984241 0.39780378 0.030121408 -0.2543605 -0.10644839
mechanisms 0.2773792 0.45023945 -0.16567922 0.04221853 -0.82909054 0.22989489 -0.3820828 0.5372505 0.099251814 -0.49015817 -1.0277635 -0.35402867 -0.18335783 0.26423913 0.5181026 -0.18929012 0.36028197 0.064674675 -0.22128226 -0.111268796
secretion 0.30006632 0.5013892 -0.16553372 0.0038543683 -0.9181575 0.16835214 -0.41920644 0.5421934 0.118460335 -0.53454083 -1.0767962 -0.35145172 -0.21316122 0.28661636 0.52497834 -0.16846323 0.4032066 0.014148751 -0.26067364 -0.11385522
primary 0.30779707 0.49482164 -0.16362397 0.034130093 -0.8298277 0.24501717 -0.3746464 0.54682535 0.12087173 -0.54813695 -1.0621232 -0.3757888 -0.18614976 0.2898549 0.54465175 -0.16804716 0.36605737 0.05361264 -0.2215377 -0.085453495
inflammatory 0.28055015 0.45258892 -0.18225412 0.011699005 -0.90393764 0.23518808 -0.38980666 0.58304846 0.12203104 -0.5198576 -1.0905946 -0.3419278 -0.24426751 0.26813343 0.5141767 -0.16438237 0.37908852 0.06804335 -0.21692392 -0.13295224
thyroid 0.27394086 0.4679188 -0.17701511 0.009676829 -0.82896286 0.22703396 -0.35902238 0.519492 0.12416092 -0.5338806 -1.0335108 -0.3480797 -0.21084309 0.26228574 0.48661983 -0.20195892 0.3648765 0.0553881 -0.23132809 -0.09291321
Novel 0.2709181 0.42328858 -0.1769082 -0.00082477735 -0.8074991 0.15704738 -0.3692632 0.44739592 0.13932176 -0.5032914 -0.9585969 -0.31361908 -0.2306305 0.21736395 0.47466594 -0.12166076 0.37849844 0.05736057 -0.21487837 -0.10543376
resistance 0.25086385 0.4939067 -0.15980834 0.012072569 -0.84419644 0.19262737 -0.35582238 0.51132363 0.12606035 -0.5290972 -1.024944 -0.31602833 -0.2338988 0.28308147 0.52050966 -0.20843403 0.39112526 0.053779323 -0.22163676 -0.11485706
calcium 0.27073324 0.45121074 -0.1717163 -0.0031459332 -0.8965858 0.1868347 -0.4216726 0.54393744 0.11520906 -0.5359324 -1.0313 -0.33920857 -0.21214236 0.28299558 0.49768943 -0.16004096 0.41095665 0.033734217 -0.22754078 -0.14568937
mediated 0.3045514 0.5351878 -0.15968193 -0.02389761 -0.91168463 0.2295485 -0.3995358 0.5972235 0.13647772 -0.606282 -1.1261716 -0.37437007 -0.26259834 0.26935372 0.5739596 -0.23052853 0.40797013 0.060459957 -0.23583677 -0.1255666
comparison 0.26424187 0.48129728 -0.16309722 0.051680688 -0.87108016 0.15337761 -0.39562184 0.49680176 0.10301851 -0.50590795 -1.0958344 -0.3095585 -0.25594676 0.28005874 0.53850794 -0.16801865 0.38595787 0.03528095 -0.24851589 -0.1386045
- 0.28698316 0.48247185 -0.1538206 0.047887407 -1.0027521 0.12455869 -0.45078763 0.49061188 0.11436675 -0.48934337 -1.0832564 -0.3197731 -0.24086292 0.21509509 0.5013622 -0.078324884 0.4529603 0.019602437 -0.27458268 -0.10201276
damage 0.2823621 0.4462053 -0.17175996 0.00073301245 -0.78814334 0.21030897 -0.36503464 0.4932307 0.13009866 -0.4815511 -0.99044716 -0.36231017 -0.22308968 0.24529131 0.5010606 -0.21303421 0.38675302 0.0482723 -0.22368217 -0.12674831
plasma 0.2801865 0.45168713 -0.15432729 0.05249275 -0.83647805 0.21542369 -0.39602515 0.5251209 0.07108946 -0.49838972 -0.998269 -0.33380443 -0.22443263 0.2598728 0.5190002 -0.18181829 0.37836432 0.07549687 -0.20570464 -0.13936587
blood 0.26745898 0.48697755 -0.19490357 -0.010518632 -0.85832155 0.22047693 -0.36537468 0.5690927 0.1336545 -0.5570263 -1.076451 -0.34266943 -0.24439482 0.28362888 0.5050332 -0.21408394 0.4098394 0.064523764 -0.2628073 -0.13675576
? 0.23103054 0.4117385 -0.15659301 -0.0034688544 -0.77537066 0.18080324 -0.3376743 0.4515435 0.09705918 -0.47681448 -0.9454928 -0.32209724 -0.23473918 0.23923369 0.4546736 -0.17477314 0.37058455 0.022761129 -0.22770722 -0.07278145
involved 0.2900087 0.5043955 -0.18464969 -0.00017399072 -0.8623088 0.20539275 -0.37195197 0.5735816 0.08933376 -0.55790275 -1.082697 -0.37468693 -0.19212104 0.30341464 0.54571885 -0.19368894 0.38627997 0.07185137 -0.24140717 -0.10923139
attenuates 0.295675 0.5082367 -0.15210502 -0.00027512465 -0.84629935 0.24208273 -0.3910943 0.5162117 0.110235006 -0.5365392 -1.073511 -0.3850269 -0.23730995 0.25439522 0.53481305 -0.1824145 0.41813335 0.06910319 -0.2342835 -0.13255797
biological 0.23990855 0.47217828 -0.17014514 0.061163954 -0.88601005 0.09813002 -0.41103935 0.49226376 0.064543925 -0.46314856 -0.9996635 -0.29731527 -0.25966623 0.29072464 0.47456485 -0.14536345 0.34664935 0.048771128 -0.25287116 -0.15720747
hepatic 0.26562148 0.46815452 -0.17569041 0.013460636 -0.88564885 0.22711967 -0.39150876 0.5530948 0.12732148 -0.5362628 -1.0811623 -0.34654415 -0.19569956 0.2948932 0.51610076 -0.16194858 0.3763392 0.033066984 -0.22938938 -0.1398667
syndrome 0.24134697 0.41466808 -0.1612551 0.024302656 -0.75729346 0.18446101 -0.3570974 0.49423194 0.09904604 -0.49618253 -0.939508 -0.32374662 -0.22072086 0.22814329 0.4885969 -0.12922455 0.33825457 0.032210547 -0.19778474 -0.09793028
enzymes 0.29021326 0.4389216 -0.16288827 -0.009523327 -0.8337827 0.17010427 -0.4014441 0.5105899 0.11061614 -0.49299258 -1.0227342 -0.34859923 -0.24147886 0.23334189 0.5293688 -0.18968807 0.39229012 0.048623316 -0.21316467 -0.12366771
injury 0.28210053 0.44214463 -0.17361046 0.036954112 -0.81958264 0.24281506 -0.36366838 0.5359331 0.12903576 -0.5381742 -1.0251536 -0.35343468 -0.19185376 0.22650757 0.47233468 -0.1996921 0.3784919 0.028873455 -0.23737876 -0.11806216
mutation 0.29362628 0.4881253 -0.19139455 0.028870057 -0.90686995 0.16845757 -0.38833782 0.511752 0.12490595 -0.5302963 -1.0843858 -0.3672864 -0.21940966 0.2636521 0.50123316 -0.16185065 0.36921746 0.063816994 -0.2558343 -0.14078693
oxidase 0.23877738 0.429838 -0.12467073 0.02575757 -0.8229635 0.16492113 -0.38652414 0.48031104 0.07528741 -0.45808366 -0.9948125 -0.32847598 -0.21672189 0.22378543 0.4656254 -0.16024385 0.38145697 0.07835217 -0.21936688 -0.13587603
enhances 0.31316414 0.49769536 -0.19900908 0.0009099486 -0.9193065 0.21530946 -0.42398128 0.5460682 0.1512426 -0.5774946 -1.0924488 -0.38961032 -0.26387128 0.24443741 0.55061823 -0.16098969 0.41253692 0.022612052 -0.27224618 -0.117580764
chronic 0.28520432 0.48045087 -0.16320647 0.03637633 -0.81588924 0.20314088 -0.35762382 0.50503206 0.101984076 -0.5156952 -1.0043983 -0.3260087 -0.20457815 0.27659345 0.47930273 -0.18712728 0.39034393 0.05692468 -0.24274556 -0.11409524
isolated 0.25410822 0.45895964 -0.1861168 -0.0060656387 -0.846925 0.20969516 -0.39738742 0.51492417 0.10167681 -0.51748407 -1.0025597 -0.34610885 -0.19935058 0.27498186 0.50783545 -0.1889807 0.39279494 0.054997656 -0.22367491 -0.10355291
administration 0.27768812 0.44253278 -0.14943302 0.011763032 -0.8392457 0.19333212 -0.36919698 0.5040015 0.13709632 -0.51655996 -1.0219624 -0.31286985 -0.23359367 0.2744548 0.49176714 -0.14175549 0.38404804 0.031190345 -0.21783875 -0.109466426
+ 0.3497511 0.49425334 -0.1179605 0.044880204 -1.121394 0.026774442 -0.5250772 0.51428723 0.11631439 -0.49403664 -1.1599916 -0.36953652 -0.22247893 0.18363696 0.5435853 -0.028435191 0.52765656 0.026899073 -0.2960176 -0.07223148
protects 0.32584128 0.5093557 -0.14707947 -0.026865218 -0.8367924 0.251456 -0.4127661 0.57314813 0.112474866 -0.57344586 -1.1077446 -0.35399053 -0.22036104 0.27453828 0.5547232 -0.22439414 0.4244356 0.06254105 -0.2149795 -0.14404593
I 0.273327 0.45516518 -0.1366592 0.05618921 -0.8583333 0.12297128 -0.4189556 0.4631665 0.086001664 -0.4863131 -1.0164334 -0.32030278 -0.22320835 0.22151774 0.49023196 -0.096948355 0.37277338 0.026010131 -0.22456175 -0.11669062
structure 0.25345033 0.44660154 -0.17711985 0.034471102 -0.7743804 0.2050312 -0.36165473 0.48775572 0.10065335 -0.4967899 -0.9378572 -0.31217426 -0.20749673 0.26714805 0.48174196 -0.14951134 0.3287113 0.029837267 -0.23238643 -0.10400268
reduces 0.24602139 0.46428132 -0.1527379 0.0074785626 -0.84261376 0.18238118 -0.39545226 0.4923061 0.1070875 -0.53600204 -1.0464454 -0.3538121 -0.23135053 0.23670124 0.4918172 -0.1728012 0.35506344 0.03680469 -0.23033296 -0.12653108
amino 0.28481948 0.45652992 -0.17863922 0.0003626564 -0.8880456 0.17304511 -0.38457948 0.544396 0.15577486 -0.55518126 -1.088407 -0.36454725 -0.21082021 0.27694848 0.5346736 -0.15792802 0.41117364 0.06748933 -0.22945102 -0.10182372
responses 0.2840068 0.4847272 -0.18127957 0.022548327 -0.83229196 0.19274166 -0.39016593 0.53617805 0.1080812 -0.5340255 -1.0851526 -0.36449006 -0.20543905 0.2771241 0.49669462 -0.1605578 0.4021572 0.065042555 -0.21368967 -0.09608257
interactions 0.27692586 0.44386843 -0.16690946 0.011135991 -0.83153355 0.16888627 -0.3654874 0.50192326 0.09071937 -0.5078202 -0.9779071 -0.35237658 -0.21034352 0.23313352 0.5000021 -0.15731978 0.3478134 0.03982705 -0.24490306 -0.11374708
or 0.27345973 0.5165105 -0.18189856 -0.005323744 -0.89438385 0.2519561 -0.4036992 0.5299231 0.15764576 -0.58196396 -1.1367681 -0.39896026 -0.2784875 0.271663 0.5278968 -0.19557154 0.417295 0.053329237 -0.26506707 -0.14578114
transcription 0.28975263 0.43677863 -0.17810354 0.0029846819 -0.8110766 0.21348532 -0.39960554 0.53495556 0.114152595 -0.49992174 -1.0085145 -0.35584176 -0.19985786 0.2486753 0.5065337 -0.15100263 0.35226017 0.03657134 -0.24095474 -0.09953567
but 0.29137158 0.49254638 -0.19539405 0.03026973 -0.8898566 0.17137475 -0.43278778 0.4945559 0.15971991 -0.500256 -1.0220789 -0.37298995 -0.22691756 0.2694707 0.53085905 -0.17363767 0.40108916 0.055557515 -0.20965941 -0.09033199
development 0.24824062 0.44360423 -0.15245359 0.033389825 -0.84712756 0.17921652 -0.38523337 0.4842738 0.12466647 -0.51017773 -0.9948681 -0.33051595 -0.24381098 0.27180222 0.47932366 -0.15492989 0.36551672 0.073464334 -0.20669779 -0.12240314
C 0.29538104 0.42001808 -0.17571718 0.037594285 -0.83166546 0.16959639 -0.38324058 0.50066465 0.10137047 -0.4922426 -1.0213277 -0.34589437 -0.21656206 0.23619772 0.4635496 -0.12880026 0.3669705 0.034977183 -0.23677246 -0.12127381
allosteric 0.2603498 0.4816822 -0.15316658 0.014282818 -0.86677986 0.15465744 -0.39307618 0.4789156 0.11263985 -0.5446589 -1.0447096 -0.35543373 -0.2710689 0.26520663 0.48444638 -0.132783 0.36235288 0.0401837 -0.252337 -0.14082748
complex 0.26665574 0.4470099 -0.1371425 0.013538653 -0.88145065 0.16724224 -0.4155101 0.5152269 0.07574862 -0.47193268 -1.056956 -0.3164324 -0.20021021 0.23553449 0.51034135 -0.15849404 0.38363847 0.04516502 -0.22767003 -0.106953345
inhibitory 0.26642442 0.41723624 -0.16744828 0.05380585 -0.83678156 0.19095312 -0.34421793 0.48069072 0.11226095 -0.47864693 -0.95869654 -0.30875638 -0.24900205 0.22075929 0.49486077 -0.11957809 0.32188705 0.0583668 -0.24812801 -0.1001661
profile 0.21340826 0.38994384 -0.1442466 -0.0046521975 -0.7441548 0.1471956 -0.369033 0.44975713 0.10015234 -0.46645072 -0.92648685 -0.26471952 -0.21805762 0.2353262 0.4640863 -0.12675276 0.32304758 0.060058262 -0.23297217 -0.120127685
Pharmacological 0.23021333 0.3414307 -0.12694469 0.0032169044 -0.6609542 0.16062854 -0.34148115 0.36683455 0.110716715 -0.44036752 -0.820303 -0.27108663 -0.19821319 0.19333495 0.37927502 -0.12954937 0.27815726 0.018031145 -0.17837647 -0.075537845
monoamine 0.24559575 0.46166486 -0.16688186 0.03481212 -0.83468914 0.1822838 -0.3573499 0.4717831 0.08469089 -0.48618332 -0.9956808 -0.29327053 -0.2360589 0.27160707 0.49153268 -0.11611513 0.35733396 0.040653136 -0.2527298 -0.14649865
oxide 0.26566282 0.42626753 -0.16749722 0.021914072 -0.7429002 0.1632213 -0.37701795 0.49024364 0.15209767 -0.50180286 -0.944858 -0.2839564 -0.22291192 0.26651478 0.48314568 -0.14802402 0.3538383 0.07832942 -0.19645852 -0.090222925
pharmacology 0.19785875 0.39413258 -0.16178168 0.01658924 -0.7079219 0.16537012 -0.30397308 0.4104761 0.0912191 -0.43246734 -0.8547969 -0.2967348 -0.19603997 0.21672885 0.4104716 -0.13747688 0.32902005 0.02772642 -0.17401235 -0.12365361
Comparison 0.19400264 0.35255748 -0.15030862 0.04384576 -0.7223009 0.12432041 -0.31399918 0.38527894 0.08883461 -0.40519825 -0.83701116 -0.25573698 -0.17686656 0.2289248 0.39868608 -0.12554984 0.28276172 0.043618813 -0.20944391 -0.09437668
recombinant 0.27462545 0.45580056 -0.15828359 0.02212792 -0.84114385 0.20796175 -0.3617082 0.5116183 0.105711766 -0.51463556 -0.99490106 -0.34546348 -0.21424292 0.25978994 0.46760017 -0.1586188 0.37860894 0.04778275 -0.21659623 -0.10701015
Molecular 0.20865075 0.35418928 -0.14391375 -0.009035835 -0.71279407 0.17781182 -0.30871606 0.43588606 0.0860581 -0.40027866 -0.83069503 -0.27530998 -0.21735711 0.18837598 0.42810458 -0.13337037 0.29126903 0.02469146 -0.2082361 -0.1053355
domain 0.26484793 0.4612961 -0.16158904 0.027232287 -0.8952635 0.20858772 -0.38690972 0.49513444 0.09894093 -0.5123714 -1.0260248 -0.35065368 -0.22745514 0.2393804 0.50822467 -0.1603691 0.3677051 0.062034655 -0.25860062 -0.12019944
agonists 0.26149666 0.44499326 -0.16227168 0.03256104 -0.787 0.1428174 -0.37329355 0.45832813 0.08493115 -0.49768275 -0.9473998 -0.31536767 -0.20946878 0.24506073 0.4756616 -0.16726287 0.3666676 0.030525148 -0.19493644 -0.111389294
norepinephrine 0.24252172 0.43508297 -0.17244442 0.014234726 -0.79622215 0.18532942 -0.3892555 0.49143994 0.08128853 -0.48649424 -0.9450366 -0.28772515 -0.21092184 0.26154962 0.5025951 -0.11923205 0.3707274 0.06347936 -0.21628867 -0.09638087
Human 0.26553243 0.45709893 -0.15483835 0.022989223 -0.7862895 0.18336852 -0.38385963 0.46540242 0.1346784 -0.49186838 -1.0027397 -0.32835677 -0.21356039 0.2359944 0.5053624 -0.1394719 0.36040345 0.029385736 -0.22439535 -0.0963351
antioxidant 0.27598903 0.44466886 -0.15330063 0.017169636 -0.8194014 0.18508156 -0.36116675 0.49540612 0.06362643 -0.44618806 -0.94887716 -0.3132179 -0.19204913 0.2387432 0.4839708 -0.12469673 0.36009055 0.041153133 -0.22707184 -0.0930939
inhibit 0.25517765 0.47372174 -0.17660102 0.031613883 -0.8324565 0.23248142 -0.3780241 0.535661 0.12567063 -0.53803146 -1.0829403 -0.37812823 -0.2524246 0.2865913 0.5288975 -0.15059455 0.36508027 0.060176548 -0.2402652 -0.13815589
analogues 0.25513425 0.40812933 -0.17081904 0.017607369 -0.75813186 0.15673657 -0.36732236 0.45884088 0.092441864 -0.43891978 -0.9298952 -0.28027195 -0.20786914 0.20155576 0.47906506 -0.1035393 0.3435078 0.055001125 -0.19610626 -0.11130921
neurons 0.24625175 0.43478617 -0.13459893 0.009151162 -0.75289917 0.2267386 -0.34910867 0.48632357 0.122222975 -0.5045644 -0.9726606 -0.35123727 -0.20490637 0.22272491 0.46530992 -0.19011551 0.35573447 0.06040038 -0.206106 -0.11246488
acetylcholinesterase 0.2462064 0.39819965 -0.16101362 0.017210558 -0.7785537 0.12815069 -0.32858345 0.4612417 0.07997322 -0.4629597 -0.90316206 -0.31669813 -0.19024162 0.20279777 0.42784804 -0.13441937 0.3453128 0.05653368 -0.19713804 -0.1338494
bone 0.25525823 0.42919254 -0.18389374 -0.005555784 -0.8131898 0.19884697 -0.3674974 0.5024439 0.099196754 -0.51958203 -1.019352 -0.31516424 -0.23502396 0.25133225 0.47060686 -0.1626973 0.3896213 0.048663747 -0.251857 -0.114395104
formation 0.25117874 0.47945195 -0.18489097 0.01779741 -0.8843323 0.20311607 -0.4035082 0.5243394 0.13546927 -0.50270945 -1.0669838 -0.3477789 -0.20547374 0.25914657 0.5330291 -0.17530723 0.39181036 0.06699168 -0.24263328 -0.10332881
Evaluation 0.23856196 0.39491406 -0.13709366 0.04026313 -0.72350824 0.13255326 -0.34079024 0.43622255 0.09058973 -0.417604 -0.8490538 -0.25449544 -0.19596332 0.23089464 0.41406384 -0.1439647 0.32452035 0.0695616 -0.17421767 -0.11924022
nitric 0.2726056 0.44938424 -0.16007726 0.005095804 -0.7892721 0.16542682 -0.33922127 0.5041767 0.14573823 -0.5008189 -0.9377178 -0.3447251 -0.20620207 0.25802973 0.48517543 -0.17227183 0.32789922 0.056620557 -0.18522467 -0.094425656
suppression 0.26875058 0.46837866 -0.14876719 0.008683886 -0.8417874 0.19623615 -0.36959037 0.5127222 0.106766045 -0.47963274 -0.9885178 -0.34070203 -0.18865223 0.22704041 0.51292837 -0.1746742 0.35921827 0.0249214 -0.24105664 -0.109118305
serum 0.28102332 0.4836262 -0.19421709 0.0015588773 -0.8497397 0.21157144 -0.37398767 0.5263137 0.11028971 -0.5235839 -1.0418125 -0.354025 -0.24167518 0.25473684 0.528564 -0.19380182 0.38806048 0.03841389 -0.22166371 -0.12686415
humans 0.22895326 0.3773425 -0.1577818 -0.0123944925 -0.6779055 0.1925491 -0.344056 0.4458305 0.12143682 -0.42373833 -0.87906903 -0.30558914 -0.17701879 0.20398498 0.450826 -0.13886562 0.3368547 0.032319225 -0.17697781 -0.10223215
-- 0.27610648 0.4593648 -0.18478386 -0.005212142 -0.81521696 0.2029249 -0.39566627 0.48264182 0.10375875 -0.5008072 -0.9957701 -0.31760302 -0.22816737 0.2653742 0.4982378 -0.17791414 0.33556217 0.06929144 -0.24149285 -0.1025941
enzyme 0.26441675 0.40839967 -0.14307807 0.012183413 -0.8146125 0.20631488 -0.394901 0.5143214 0.091387905 -0.5193889 -0.9962931 -0.3104343 -0.2505636 0.23272228 0.45726493 -0.15354702 0.36204854 0.05896644 -0.23577912 -0.11827928
into 0.25389925 0.4348381 -0.18836404 -0.011197388 -0.8511711 0.19898732 -0.38726065 0.5124743 0.13223559 -0.51519984 -0.98799366 -0.33833754 -0.2270598 0.22633356 0.5054373 -0.18879502 0.37559226 0.027400197 -0.250648 -0.105349764
induction 0.26964256 0.4218682 -0.12683256 0.009969508 -0.7799669 0.18878646 -0.35222736 0.4985778 0.06991547 -0.440594 -0.96813947 -0.32972986 -0.17460226 0.21974415 0.47332892 -0.14796378 0.33240625 0.0238454 -0.20606147 -0.09175816
death 0.2681928 0.44979143 -0.14182201 0.03178936 -0.73624706 0.24233118 -0.38040164 0.52999306 0.08373597 -0.52177674 -1.002203 -0.35278141 -0.17555273 0.25515106 0.45828596 -0.2201353 0.33908513 0.057583723 -0.21880943 -0.11266459
pathways 0.21861905 0.39178035 -0.13500176 0.024257012 -0.7186122 0.1996251 -0.34072202 0.48762086 0.12260486 -0.4647802 -0.9078992 -0.34441283 -0.22015171 0.20949318 0.4263098 -0.16399649 0.35728988 0.013549134 -0.18024124 -0.11486213
two 0.25698742 0.4856218 -0.1481686 0.020876156 -0.8371693 0.20326221 -0.38922942 0.52404046 0.12631941 -0.4947273 -1.0312821 -0.32549167 -0.20178242 0.27969435 0.49990255 -0.18684651 0.35917747 0.027429733 -0.24812359 -0.11779869
3 0.288763 0.46951917 -0.1325261 0.030576173 -0.8628779 0.14728273 -0.3935906 0.45276546 0.11936415 -0.49627617 -0.98810184 -0.31282666 -0.19511224 0.20201436 0.5012493 -0.08180993 0.38425398 0.02826318 -0.23536026 -0.09605692
compounds 0.2618775 0.44936648 -0.1793763 0.029926203 -0.80663204 0.19750959 -0.35905823 0.45759124 0.124598034 -0.46845016 -0.98228323 -0.30700862 -0.24041112 0.2469191 0.49910966 -0.12024385 0.37707937 0.043846037 -0.23162958 -0.11186522
prostate 0.21804127 0.41716853 -0.16204938 0.0070592077 -0.75210357 0.21767472 -0.30894938 0.48717022 0.093162365 -0.5017618 -0.9630771 -0.31386632 -0.18802778 0.25149062 0.44835627 -0.18260956 0.35487992 0.03348797 -0.1930405 -0.071253926
Differential 0.19358608 0.34607306 -0.13938537 -0.008661487 -0.63552225 0.17222932 -0.29723614 0.3948046 0.108762845 -0.41096646 -0.78596854 -0.2834388 -0.15608881 0.18204 0.3999139 -0.093003705 0.29757822 0.062347796 -0.19311412 -0.10745406
modulates 0.26359028 0.43593964 -0.14116862 -0.020739378 -0.7665733 0.2048454 -0.39369136 0.49272686 0.12972893 -0.4861989 -0.9690373 -0.3627473 -0.21423751 0.23775922 0.4896269 -0.14332527 0.37001836 0.060625546 -0.21313144 -0.091542125
therapeutic 0.22969168 0.40587872 -0.18038137 0.029996224 -0.7910868 0.13458985 -0.36108282 0.46364713 0.11891345 -0.4631476 -0.9497493 -0.33187458 -0.21306969 0.2202612 0.4667962 -0.14493005 0.356153 0.030036014 -0.2073087 -0.13042049
suppresses 0.26686007 0.44774505 -0.17197612 0.0077788574 -0.8286113 0.18198067 -0.38482502 0.5328991 0.10097167 -0.50061715 -1.0433997 -0.35300663 -0.20126301 0.2629125 0.50480634 -0.18115143 0.35257226 0.0445665 -0.24667619 -0.11010783
healthy 0.26861125 0.40668857 -0.17577809 0.010011431 -0.71761185 0.18676293 -0.3467089 0.46074167 0.10041881 -0.46772566 -0.9223257 -0.31248173 -0.212909 0.21298274 0.4418416 -0.16546081 0.29956478 0.033785243 -0.21976095 -0.08039061
cortex 0.25419894 0.47906947 -0.13916853 0.040509902 -0.82670087 0.19598302 -0.36175567 0.53193647 0.080214284 -0.47827315 -0.9964758 -0.30560252 -0.20349751 0.27463064 0.5212441 -0.16361113 0.3936176 0.055884153 -0.24445397 -0.113799624
implications 0.23499916 0.4286945 -0.15993519 0.003324239 -0.7760225 0.15586038 -0.35419366 0.45742399 0.08094341 -0.4942469 -0.91223776 -0.3178422 -0.20945776 0.24229825 0.47700644 -0.14429209 0.3343696 0.054472465 -0.18700503 -0.13716933
increase 0.25023457 0.47136936 -0.18690537 0.024533154 -0.82292455 0.20333833 -0.4096249 0.47212195 0.1382219 -0.4996957 -1.0396838 -0.3204103 -0.24586482 0.2516219 0.49961972 -0.1702575 0.3856991 0.019428417 -0.22769669 -0.10368052
mRNA 0.26534194 0.46644583 -0.17412092 -0.0053619696 -0.8299852 0.2241489 -0.40173656 0.5446943 0.12254729 -0.52555114 -1.0578709 -0.36137342 -0.2239095 0.2892429 0.50580966 -0.19850625 0.37601903 0.053896245 -0.21800038 -0.08724482
vascular 0.25298813 0.45800653 -0.18438089 0.028648142 -0.80567634 0.19400233 -0.37972432 0.51516724 0.13169932 -0.49045312 -0.9958343 -0.35966805 -0.19277124 0.27965882 0.47869304 -0.19872016 0.37209314 0.050017167 -0.22313742 -0.10229767
active 0.26655072 0.43299296 -0.16361211 0.026309075 -0.80543417 0.19622207 -0.34881246 0.46570015 0.10568091 -0.47999024 -0.925385 -0.31156692 -0.19406387 0.22345482 0.47028276 -0.1581564 0.3717777 0.028853856 -0.23057167 -0.07574799
risk 0.23349102 0.4033646 -0.14484166 0.03402416 -0.74240106 0.21292362 -0.33626562 0.4520924 0.12568723 -0.46506423 -0.92355627 -0.31788695 -0.19737087 0.24999952 0.42310962 -0.13756631 0.34601322 0.040841393 -0.1907318 -0.122227855
cardiac 0.24555384 0.4236898 -0.1797182 0.024465546 -0.79875726 0.16961393 -0.3670961 0.4912142 0.09012385 -0.47614825 -1.0005182 -0.31875828 -0.20336105 0.2567931 0.4955963 -0.14115068 0.3355733 0.03064089 -0.19760151 -0.13502851
cytochrome 0.24913904 0.44714242 -0.14395654 0.0124193635 -0.8499508 0.22580956 -0.40474644 0.5014398 0.11004572 -0.4984754 -1.037578 -0.30931392 -0.25540987 0.23361118 0.47857934 -0.15264508 0.3495034 0.05862185 -0.24054585 -0.11787052
weight 0.24688978 0.42517188 -0.13897994 -0.012308562 -0.76994824 0.19491251 -0.34706226 0.45974058 0.14659463 -0.463595 -0.93261987 -0.33506298 -0.23027757 0.25044057 0.47213367 -0.14250353 0.3381276 0.038497955 -0.21804035 -0.10554471
peptide 0.26869938 0.412817 -0.15064314 0.0008286356 -0.8108567 0.18544105 -0.39993936 0.4726567 0.11369768 -0.5048895 -0.9528789 -0.29533398 -0.23651011 0.21512331 0.47181404 -0.16203488 0.37612426 0.03813941 -0.24155258 -0.1289058
cycle 0.28286663 0.42255265 -0.16926064 0.027348325 -0.76282585 0.20214823 -0.3634213 0.515232 0.07959036 -0.47944993 -0.9530912 -0.33992675 -0.19757526 0.2397091 0.44751108 -0.16795906 0.34432304 0.018895986 -0.21858376 -0.09649486
differentiation 0.2768189 0.41875845 -0.16278772 -0.009609014 -0.7635241 0.20492052 -0.37131563 0.516403 0.10866522 -0.4925754 -0.9570042 -0.3278742 -0.18550715 0.24126063 0.4380512 -0.18204089 0.33233127 0.026205467 -0.20004034 -0.1260107
4 0.28209424 0.46945336 -0.16669552 0.04159643 -0.8763189 0.1373689 -0.3744812 0.5023122 0.109406896 -0.47943598 -1.0049505 -0.34822312 -0.22722815 0.26532194 0.504313 -0.0898571 0.39631027 0.03242277 -0.21741748 -0.12840275
transport 0.25160763 0.44309646 -0.15978561 0.011217954 -0.76085675 0.20443618 -0.3688194 0.49444842 0.120784156 -0.49760592 -0.9301912 -0.32305822 -0.22478281 0.26486078 0.44873127 -0.13644315 0.3438185 0.03262896 -0.21519077 -0.10202948
specific 0.2679574 0.43016493 -0.16964094 0.007968133 -0.756213 0.16140905 -0.33573294 0.47928616 0.12385676 -0.46650246 -0.97090614 -0.30874276 -0.19485061 0.2634816 0.476829 -0.15103406 0.35906816 0.05812908 -0.18930946 -0.11609224
diabetic 0.23088351 0.43399373 -0.13979445 0.04180177 -0.7492243 0.2118345 -0.31875432 0.46512714 0.12103648 -0.48554537 -0.923798 -0.30718887 -0.18532722 0.23681003 0.43271568 -0.17499816 0.34718016 0.04449212 -0.22238989 -0.08658517
agent 0.23036496 0.39649493 -0.1629579 -0.0009207725 -0.7520018 0.15766725 -0.32725742 0.47124776 0.09053074 -0.4538742 -0.92698026 -0.29270703 -0.21350683 0.20955671 0.4291387 -0.15534055 0.3273893 0.058630403 -0.21185042 -0.10958547
Discovery 0.20132414 0.31693625 -0.11276536 0.0008809587 -0.6217011 0.13417098 -0.31773293 0.35778397 0.06607604 -0.39208588 -0.74978805 -0.26402482 -0.16260122 0.17583114 0.40148202 -0.07678092 0.27998903 0.013468668 -0.17818291 -0.11841504
murine 0.2796829 0.45994145 -0.18355621 -0.0085675195 -0.80596906 0.21561605 -0.3825276 0.5236269 0.096130334 -0.503117 -1.0127219 -0.3384688 -0.18616392 0.25521493 0.50146174 -0.14513114 0.38961396 0.03958743 -0.24837004 -0.10180183
5-HT 0.29060397 0.4393621 -0.120015204 0.06974056 -0.89950293 0.065180704 -0.37399796 0.43154952 0.10923206 -0.44930753 -0.9387472 -0.2829203 -0.18259537 0.19530842 0.46509448 -0.0979949 0.3990371 0.036863353 -0.24197672 -0.06982472
surface 0.25122768 0.4276626 -0.13084885 0.024601363 -0.7321769 0.2014661 -0.32123652 0.4502474 0.13503553 -0.44117284 -0.9008964 -0.32836005 -0.21418934 0.22041693 0.45895195 -0.13566492 0.33235013 0.016226169 -0.20605159 -0.10953042
D 0.24399772 0.45297286 -0.13657522 0.022430258 -0.8984032 0.080290645 -0.38358033 0.4437292 0.087955125 -0.44292274 -0.9769039 -0.29151267 -0.2012705 0.17772356 0.44912472 -0.10183855 0.3858206 0.0093961535 -0.25911593 -0.06964795
synthetase 0.2802951 0.42552114 -0.16769424 0.02098562 -0.7788661 0.16921818 -0.35346156 0.49823332 0.10616981 -0.48753116 -0.9481045 -0.3180364 -0.19584987 0.2214605 0.5013152 -0.15539768 0.32878736 0.053486828 -0.23713927 -0.12986733
sites 0.25572717 0.43462172 -0.15801777 0.018862436 -0.7668941 0.18714781 -0.37558666 0.47376707 0.120770685 -0.48473093 -0.9087365 -0.31244075 -0.19497383 0.23541279 0.4680751 -0.15365341 0.34159422 0.07551721 -0.19489619 -0.10635767
Selective 0.2112392 0.34441888 -0.11949815 -0.017120646 -0.6917736 0.17333235 -0.29537132 0.38196522 0.10295509 -0.4109937 -0.8384687 -0.29314142 -0.22038372 0.18658409 0.43322837 -0.11493723 0.30780768 0.013258161 -0.17023513 -0.07640052
regulatory 0.2902854 0.45892727 -0.15335193 0.016147805 -0.85517377 0.15575053 -0.41554064 0.5012972 0.11062051 -0.5060539 -1.0198258 -0.33509234 -0.22887416 0.2357282 0.48408145 -0.15682015 0.37098974 0.022960003 -0.21485786 -0.101641014
heart 0.26425812 0.40832704 -0.13620405 0.03423194 -0.73013926 0.14238334 -0.33339083 0.4321044 0.1127681 -0.42172518 -0.88899237 -0.26917535 -0.20859388 0.22604036 0.45608523 -0.1256441 0.33042517 0.02706622 -0.20583579 -0.10733224
reductase 0.2350534 0.3826283 -0.12819262 0.0027630157 -0.7405554 0.18027368 -0.3211059 0.44801432 0.12498503 -0.44332612 -0.8998691 -0.28640732 -0.21286441 0.24123147 0.46108416 -0.17284551 0.30495 0.067969285 -0.1968708 -0.104510106
improves 0.24600115 0.42800102 -0.17324735 0.00862943 -0.78267515 0.19284528 -0.3710624 0.49590456 0.094677836 -0.47482023 -0.98194784 -0.32997352 -0.21063587 0.24016409 0.4872578 -0.17189837 0.34904706 0.01453064 -0.20507064 -0.09740222
regulates 0.24148725 0.38758278 -0.1744067 -0.014680422 -0.7468856 0.22258392 -0.3513315 0.4684096 0.14248766 -0.46201634 -0.89964724 -0.32974634 -0.21535426 0.23293303 0.4619043 -0.1685035 0.32478496 0.026712237 -0.21987101 -0.10854834
cholesterol 0.25445324 0.43581545 -0.15928094 0.03132996 -0.78090316 0.17645495 -0.33991036 0.44257227 0.09898286 -0.46650696 -0.9283788 -0.32570997 -0.24217167 0.24745914 0.46937385 -0.13827091 0.3275989 0.0550786 -0.19355328 -0.1264434
dehydrogenase 0.26326296 0.41826782 -0.15630822 0.016437715 -0.7432367 0.18680204 -0.3764506 0.46494663 0.092646725 -0.46096668 -0.9348164 -0.3089911 -0.23561482 0.23116103 0.46441892 -0.166147 0.3571849 0.01575821 -0.22302708 -0.121075384
Role 0.1862265 0.3097229 -0.12522943 -0.00011944966 -0.6103371 0.16292319 -0.2724687 0.38980424 0.101509266 -0.377313 -0.7377307 -0.2715751 -0.18665938 0.20766331 0.35563707 -0.121563844 0.29486844 0.04776516 -0.14870727 -0.09333888
lipid 0.22435941 0.38800478 -0.14110231 0.021539114 -0.69581556 0.19977252 -0.32067963 0.46159878 0.09757948 -0.43961254 -0.8619526 -0.29614097 -0.17344432 0.23896061 0.4099775 -0.14817427 0.30993825 0.047555596 -0.21030481 -0.07623677
fatty 0.25924143 0.4103259 -0.15486021 0.02667465 -0.73571604 0.18247497 -0.35637233 0.45976883 0.11138296 -0.45852733 -0.9254804 -0.32052043 -0.20463774 0.25934225 0.48039368 -0.15592314 0.36074436 0.06207114 -0.21528907 -0.12744184
carcinoma 0.21531345 0.38505343 -0.1250705 0.011622586 -0.67653996 0.20159207 -0.3061899 0.4738707 0.09335873 -0.44419792 -0.91500574 -0.30886123 -0.16231264 0.2083408 0.39675656 -0.16964123 0.30643207 0.050906867 -0.21205333 -0.1155356
anticancer 0.2454006 0.46800742 -0.14998132 0.03577242 -0.7859862 0.16785608 -0.36107546 0.485302 0.13388914 -0.49979755 -0.94667417 -0.30794826 -0.20524648 0.25502914 0.47574356 -0.15582363 0.32421064 0.024685452 -0.2119036 -0.12565942
T 0.26561925 0.43219292 -0.13438909 0.009309738 -0.815316 0.19979851 -0.39785913 0.49349082 0.12939654 -0.47715232 -0.99420196 -0.35196742 -0.1691082 0.24713561 0.4758054 -0.17770351 0.36104715 0.024214312 -0.23703311 -0.0824282
Receptor 0.26692665 0.41398656 -0.15523039 0.020113785 -0.8187792 0.16059169 -0.37102267 0.4449134 0.1267641 -0.46800283 -0.9622019 -0.3322599 -0.23479396 0.21477091 0.4544874 -0.14067376 0.36169976 0.052387215 -0.19926175 -0.0768371
dysfunction 0.23105747 0.40371513 -0.13752195 0.014800434 -0.6603907 0.21983308 -0.32375315 0.4214821 0.11170948 -0.4462751 -0.8624908 -0.30830434 -0.21651989 0.23330367 0.4091253 -0.13621321 0.31627068 0.02789743 -0.20087533 -0.09749541
phosphorylation 0.27105936 0.43954363 -0.18401043 -0.020563178 -0.83086246 0.2037245 -0.410729 0.49795538 0.10307068 -0.48745912 -1.0139977 -0.34286746 -0.229694 0.24386556 0.51404303 -0.1774977 0.35542735 0.07236123 -0.22681998 -0.13686825
proliferation 0.25039268 0.42343932 -0.17817985 0.013420006 -0.7513159 0.19762485 -0.3287226 0.4854905 0.10745101 -0.47272995 -0.97857845 -0.34169716 -0.18722843 0.2352558 0.43926767 -0.19114082 0.35942742 0.052388724 -0.23269166 -0.09953667
glucose 0.2909153 0.45469934 -0.16617315 -0.0026861434 -0.81905633 0.2227533 -0.3490321 0.49384758 0.13617048 -0.5079392 -0.984594 -0.35642222 -0.2339553 0.23621726 0.48659724 -0.16841158 0.38471976 0.040605824 -0.20300126 -0.10186839
neuronal 0.24123396 0.4417627 -0.13214053 -0.0035751509 -0.73899406 0.17851102 -0.32713845 0.49769977 0.08061501 -0.48411945 -0.94727826 -0.33725172 -0.2107596 0.21387695 0.45298335 -0.16807151 0.36895782 0.017578177 -0.20065656 -0.08160664
increases 0.2473345 0.4499059 -0.1421837 0.016100274 -0.8004274 0.18338175 -0.3517326 0.48347116 0.1352874 -0.4767351 -0.9536281 -0.34249535 -0.23102167 0.21167961 0.48497838 -0.15323667 0.37599272 0.056953814 -0.20094879 -0.08088967
Design 0.18893534 0.30920595 -0.09956055 0.03324424 -0.6070533 0.118528455 -0.28634775 0.34406123 0.06940384 -0.36639068 -0.71190876 -0.2069247 -0.1591464 0.19174843 0.35335365 -0.09199796 0.25600603 0.0047899457 -0.16887343 -0.08492204
site 0.25314024 0.43578914 -0.18230969 0.029778395 -0.8433663 0.1824983 -0.3974417 0.4966875 0.09306078 -0.497726 -1.0119355 -0.29664993 -0.20256528 0.25978515 0.47129133 -0.12876368 0.37690896 0.056568064 -0.23811951 -0.11187901
Binding 0.17509976 0.29030383 -0.1315785 -0.005903688 -0.57023835 0.09979072 -0.28435603 0.35150203 0.08131805 -0.327978 -0.7029161 -0.23725371 -0.15069555 0.16050285 0.34651443 -0.077741645 0.24172863 0.03391272 -0.17161353 -0.058275063
subjects 0.19503674 0.34208116 -0.14944969 0.0071830507 -0.65673274 0.18107323 -0.29845938 0.41613165 0.10084644 -0.4126584 -0.79006726 -0.26774588 -0.18649128 0.20417626 0.38745588 -0.118194535 0.30584046 0.023281958 -0.18213023 -0.10451396
tissue 0.22792184 0.40674856 -0.16270591 0.04144214 -0.7574908 0.15434805 -0.3394156 0.46250144 0.08572895 -0.46358594 -0.93772686 -0.29338482 -0.19555739 0.20381851 0.45146438 -0.13013163 0.33296943 0.028643936 -0.2056478 -0.112703025
An 0.20291802 0.3439242 -0.15214275 0.019943498 -0.6179048 0.18229811 -0.27802372 0.3729192 0.0928918 -0.39605686 -0.7556361 -0.2483903 -0.17771275 0.18791686 0.41077808 -0.114468455 0.28597003 0.018536588 -0.1670638 -0.085608415
D2 0.2415267 0.3978355 -0.14286606 0.017971486 -0.76652426 0.16263516 -0.3472653 0.43811196 0.09954315 -0.45617953 -0.90124094 -0.2944197 -0.21440291 0.20092545 0.45595726 -0.10858563 0.3400983 0.048655286 -0.20510583 -0.09608059
Protective 0.18103576 0.31907216 -0.093390204 0.029811915 -0.55402964 0.14198105 -0.26690748 0.33209935 0.07824763 -0.3290841 -0.6526567 -0.23818272 -0.17630054 0.1922402 0.33789575 -0.08412495 0.22804587 0.012470308 -0.14279367 -0.08803875
P450 0.26289454 0.43134174 -0.120119646 -0.00030898026 -0.7817223 0.14937261 -0.3654007 0.4670343 0.09385394 -0.44978017 -0.96941745 -0.30293497 -0.23897082 0.20282456 0.45038092 -0.14276092 0.3339765 0.073838525 -0.19251095 -0.11204053
Alzheimer 0.26093346 0.36154768 -0.15985152 0.00057064916 -0.67312443 0.14905298 -0.35807002 0.45504257 0.12029858 -0.44213024 -0.84631264 -0.3105519 -0.24593028 0.20896558 0.4472247 -0.17259227 0.28100336 0.06515819 -0.15203264 -0.086644836
identification 0.2609253 0.40877882 -0.15133764 0.04211258 -0.8194235 0.16538411 -0.35325462 0.45014456 0.08101188 -0.44067624 -0.9333687 -0.281642 -0.22340551 0.21711196 0.45956647 -0.12816946 0.327907 0.05484041 -0.2100222 -0.10074278
polymorphisms 0.24695931 0.42289135 -0.16372308 0.023961995 -0.7052511 0.17925647 -0.3582216 0.46153182 0.10634026 -0.44095594 -0.9126118 -0.29827732 -0.2225558 0.20047608 0.4500141 -0.15755619 0.32764295 0.026770905 -0.17699036 -0.08338161
inflammation 0.20086917 0.38887036 -0.11881405 0.03741804 -0.7010431 0.16328122 -0.3028612 0.42285395 0.10373993 -0.4201004 -0.8177186 -0.24873044 -0.2079536 0.19770065 0.4254554 -0.10989919 0.3234774 0.040688034 -0.16909172 -0.10438575
targets 0.23363003 0.39155123 -0.16124824 0.032696012 -0.69959474 0.15931423 -0.34750247 0.41672936 0.121225975 -0.4673809 -0.8847034 -0.31814453 -0.20618156 0.22064397 0.42198688 -0.13656624 0.28663212 0.04556551 -0.20472327 -0.12399537
polymorphism 0.26984048 0.40797707 -0.17643106 0.014347498 -0.81338465 0.15173341 -0.35105926 0.47171798 0.11204221 -0.43570402 -0.9393314 -0.30895224 -0.21849157 0.24679317 0.4762659 -0.12134678 0.35857055 0.060088504 -0.2215508 -0.12423734
E 0.25236493 0.42198515 -0.12441134 0.024550634 -0.7686646 0.17556544 -0.35211068 0.4555193 0.12345699 -0.45142478 -0.91791755 -0.30338782 -0.20720848 0.19751793 0.45597094 -0.11052591 0.37405863 0.022780178 -0.19964018 -0.10233258
prostaglandin 0.25027794 0.4029229 -0.14458182 -0.002892482 -0.7480897 0.17137854 -0.35557923 0.47429043 0.117579184 -0.46294305 -0.950031 -0.29464498 -0.22700965 0.23809002 0.46399176 -0.136993 0.3285417 0.052276835 -0.21991414 -0.08641811
treated 0.28671196 0.49831745 -0.19677237 0.011539181 -0.8266503 0.2328825 -0.39994717 0.5137362 0.09508792 -0.5374246 -1.0748469 -0.33344492 -0.20395167 0.2589198 0.46082598 -0.21346977 0.37837878 0.019442227 -0.20870513 -0.09677021
Type 0.21944799 0.41854772 -0.15463851 0.02787411 -0.763122 0.20380542 -0.34975383 0.42478076 0.10752099 -0.46800792 -0.89834356 -0.3292655 -0.20156038 0.24284625 0.43528646 -0.1329474 0.3191024 0.022409968 -0.2348619 -0.08693676
mutations 0.21042962 0.37726808 -0.14329396 0.02030755 -0.6889677 0.18391605 -0.31375378 0.4530837 0.10188767 -0.44615602 -0.8661004 -0.29133844 -0.20458847 0.22292946 0.4269782 -0.13722114 0.32955974 0.046473403 -0.21176104 -0.10752084
affinity 0.25901052 0.431967 -0.1369604 -0.0075406763 -0.7453001 0.1964663 -0.36320752 0.43713972 0.09774419 -0.47789988 -0.915244 -0.31587332 -0.20270076 0.21588336 0.479223 -0.1255225 0.3538316 0.038680423 -0.20915872 -0.09634464
design 0.21235201 0.3782997 -0.16527401 0.01379796 -0.7069869 0.13417815 -0.31930017 0.42697376 0.119863495 -0.422994 -0.83368504 -0.2754625 -0.23803604 0.22141187 0.4040839 -0.12010303 0.29376957 0.025328126 -0.19433683 -0.1261586
genetic 0.24059594 0.37235993 -0.14777201 0.011613244 -0.68184817 0.19354798 -0.31498957 0.40795177 0.100751705 -0.4370805 -0.83681375 -0.29073408 -0.18224603 0.20125161 0.41631302 -0.123107344 0.28462532 0.020904457 -0.21887116 -0.11806079
based 0.23719195 0.40381038 -0.17395547 -0.0039467933 -0.73405653 0.16804576 -0.33550185 0.43069908 0.11622859 -0.4615034 -0.9053128 -0.31895176 -0.23330204 0.20685384 0.43057594 -0.12070642 0.3136304 0.02984918 -0.20722131 -0.11352947
extract 0.24744885 0.45165926 -0.16333166 -0.01620108 -0.80001646 0.19109762 -0.38713762 0.4938445 0.10725654 -0.48336908 -1.002603 -0.36130026 -0.23453902 0.23267551 0.50527006 -0.1555842 0.38432848 0.038070932 -0.2301538 -0.11421578
low 0.21691057 0.4210869 -0.1458923 0.00016522483 -0.71067333 0.1934182 -0.31438485 0.47039455 0.12063832 -0.4559545 -0.8859932 -0.33913466 -0.20036283 0.23129725 0.45957142 -0.13235058 0.30355093 0.06304804 -0.21091962 -0.09844112
transporters 0.19634803 0.36922458 -0.14797089 0.0061346353 -0.62548953 0.1755113 -0.27593654 0.39161837 0.101884834 -0.41899857 -0.76233584 -0.2557882 -0.17668188 0.18697102 0.40167707 -0.13444935 0.30589318 0.0463087 -0.17299818 -0.09924167
different 0.25154662 0.40161884 -0.16841519 0.011257001 -0.73600733 0.16612266 -0.36463374 0.44175923 0.10992465 -0.46615028 -0.9250912 -0.3046241 -0.20967908 0.23538193 0.42659193 -0.14480728 0.30629575 0.022472017 -0.2059634 -0.13112219
cyclooxygenase-2 0.19843726 0.3176038 -0.13858704 0.030570213 -0.6522665 0.1417218 -0.30575216 0.38033262 0.1126083 -0.40709227 -0.77944535 -0.2838835 -0.16874406 0.16730501 0.38437572 -0.11968204 0.2846608 0.032667547 -0.17355251 -0.07658345
review 0.23553975 0.38902736 -0.12476988 0.038692906 -0.6785665 0.16301468 -0.31792095 0.37889186 0.07554289 -0.41228214 -0.8065177 -0.24633169 -0.19111651 0.23390782 0.39248717 -0.14220977 0.27915776 0.0280387 -0.16604204 -0.09240296
extracellular 0.24784511 0.40428594 -0.15959118 -0.0143371215 -0.72422487 0.17203195 -0.33308223 0.46615565 0.10433173 -0.4760823 -0.92301077 -0.32195717 -0.20894282 0.23176003 0.4324427 -0.17391114 0.33735824 0.0122641185 -0.20012344 -0.09145444
accumulation 0.2301581 0.39817294 -0.16695982 -0.0034535234 -0.7099834 0.21302082 -0.3209798 0.4267043 0.104584605 -0.4309148 -0.8650388 -0.30558908 -0.19298947 0.24023482 0.45136422 -0.13207588 0.3462041 0.033984844 -0.1982262 -0.09364871
mitochondrial 0.22570743 0.4197526 -0.1398497 0.022026768 -0.77740675 0.19335052 -0.3408726 0.43032506 0.102343075 -0.45959264 -0.9020884 -0.2752499 -0.21852915 0.24985848 0.45852178 -0.15349132 0.3608752 0.052818015 -0.23122424 -0.08134667
membrane 0.22120924 0.38568193 -0.16346948 -0.0019371398 -0.7365105 0.201992 -0.34753227 0.47510839 0.09017392 -0.45499045 -0.92557317 -0.29780543 -0.20306309 0.23428994 0.43275788 -0.14606899 0.33445776 0.03477236 -0.19513541 -0.11205341
peripheral 0.22710373 0.38404506 -0.16191922 -0.008800454 -0.70438385 0.19349201 -0.3105841 0.4137999 0.09531123 -0.41601986 -0.85627323 -0.3044176 -0.18478878 0.2337569 0.4044036 -0.15049508 0.33100063 0.04151698 -0.19550078 -0.07518555
experimental 0.223676 0.399735 -0.14010186 0.014908215 -0.72634345 0.19721821 -0.31855637 0.4714235 0.09974626 -0.46425956 -0.9138195 -0.31158265 -0.20520979 0.20338553 0.447208 -0.178331 0.33389843 0.05039415 -0.2132645 -0.104092464
anhydrase 0.21925612 0.38794988 -0.13406537 0.011148806 -0.70140404 0.16052975 -0.3324778 0.38855296 0.10419754 -0.41267496 -0.84641445 -0.2719319 -0.20023851 0.2146268 0.4164553 -0.1197427 0.27393752 0.054805387 -0.20442954 -0.07950635
antagonism 0.18709901 0.323276 -0.1497801 -0.008534893 -0.634891 0.15487778 -0.28853664 0.38907355 0.11744343 -0.40149257 -0.7758766 -0.27076742 -0.17717572 0.1706666 0.39574218 -0.14558418 0.29066473 0.039073806 -0.15530074 -0.08262617
sensitivity 0.24618661 0.380002 -0.15674749 0.0159438 -0.68156236 0.17579651 -0.3467846 0.41544008 0.09734751 -0.4760759 -0.89551747 -0.31716588 -0.18840382 0.22683905 0.41419542 -0.13124496 0.33950928 0.026298812 -0.19008651 -0.098800294
pancreatic 0.2508748 0.38300467 -0.15122446 0.017272655 -0.697035 0.20201156 -0.35908112 0.46543643 0.13726188 -0.46998924 -0.9196443 -0.33481592 -0.22459 0.2089227 0.42752135 -0.17680654 0.30903524 0.039003912 -0.19259782 -0.07936696
mediates 0.25902444 0.41890618 -0.15238415 0.006211709 -0.7226819 0.21300969 -0.3417014 0.43842408 0.13520238 -0.46384725 -0.90376264 -0.3452074 -0.22568421 0.22850686 0.45381412 -0.15089244 0.3339527 0.01244057 -0.20940654 -0.08266699
metabolites 0.22098711 0.341675 -0.12531538 0.009206907 -0.6514708 0.14493567 -0.2727069 0.39179775 0.09766988 -0.40315166 -0.7720406 -0.23011023 -0.18248625 0.20375645 0.3640243 -0.12437402 0.29242104 0.05569398 -0.16284582 -0.08000986
other 0.24235258 0.4162953 -0.14705518 0.012952089 -0.7261453 0.19656591 -0.31214637 0.4640307 0.114170164 -0.44494262 -0.9025047 -0.30365855 -0.19944881 0.21029802 0.42133412 -0.14165394 0.33925322 0.046620347 -0.18883266 -0.124832995
essential 0.23450059 0.40649706 -0.14530961 -0.009721817 -0.714129 0.20397091 -0.35025153 0.45447284 0.12252287 -0.48940763 -0.9260005 -0.3115461 -0.2328994 0.23545437 0.4704555 -0.13112529 0.3494501 0.055678662 -0.20469661 -0.08735104
glutathione 0.21741135 0.4007224 -0.14551142 0.028925799 -0.6947143 0.19206561 -0.32981282 0.45908922 0.12703733 -0.45127055 -0.8982117 -0.28951573 -0.17844951 0.23293912 0.45348576 -0.12615183 0.33901763 0.045468517 -0.19398096 -0.10239313
required 0.27019855 0.42948237 -0.171148 -0.008803478 -0.76468277 0.18082486 -0.34150988 0.45951167 0.12237078 -0.4681397 -0.908303 -0.34011784 -0.23544368 0.22385211 0.44448745 -0.16602892 0.34351173 0.060543556 -0.18099174 -0.1210625
chemical 0.23577009 0.40455225 -0.145437 -0.010388572 -0.7552145 0.18819806 -0.37332985 0.45293832 0.13597769 -0.48849925 -0.97694594 -0.30555144 -0.2362328 0.23751001 0.44175074 -0.16160746 0.3389563 0.02776681 -0.23718514 -0.10569611
acids 0.21816926 0.37681893 -0.14389607 0.018730372 -0.70691377 0.16275884 -0.3196149 0.40775067 0.08777711 -0.44179377 -0.8802201 -0.3066623 -0.20545277 0.24171858 0.42883372 -0.13466871 0.30070522 0.02542122 -0.1991284 -0.09770222
block 0.22590673 0.40499845 -0.12736762 0.028016344 -0.70976603 0.15954462 -0.35191166 0.41951144 0.1133891 -0.46830907 -0.8969519 -0.3229672 -0.19782756 0.22582118 0.46354368 -0.12257854 0.31389266 0.011342875 -0.20423388 -0.12436581
Structural 0.16946542 0.327776 -0.11280165 -0.018511655 -0.5759636 0.14325064 -0.29557785 0.33704585 0.07080249 -0.35453027 -0.74458486 -0.24968228 -0.14683177 0.19626075 0.3764123 -0.110984854 0.2749212 0.039267506 -0.17385636 -0.07074607
structural 0.21951635 0.34955728 -0.1278353 0.027144969 -0.65550953 0.16090375 -0.28215846 0.40144214 0.083487615 -0.38777843 -0.8142277 -0.26149797 -0.20732296 0.21953629 0.40206054 -0.118548065 0.3188958 0.022058984 -0.17757383 -0.102384634
relationship 0.21251251 0.41595575 -0.121619515 0.017997611 -0.73423696 0.14997967 -0.34189567 0.41080573 0.10454826 -0.44380227 -0.882512 -0.3155878 -0.21386245 0.23987837 0.4249689 -0.1393894 0.32387358 0.05666538 -0.22624311 -0.08325286
assessment 0.21504703 0.39616662 -0.1527853 -0.0011480087 -0.7566748 0.1537795 -0.31591147 0.4430598 0.11239782 -0.461948 -0.9277029 -0.28602976 -0.19619256 0.23930085 0.4726449 -0.13067503 0.33955148 0.043351304 -0.21894741 -0.12617166
Activation 0.20528226 0.35129443 -0.13426226 0.021612255 -0.60642266 0.1209935 -0.3094341 0.36742392 0.106173076 -0.38968915 -0.72176063 -0.25497705 -0.17070237 0.19933578 0.36306754 -0.12183945 0.2698123 0.021967892 -0.16715321 -0.06876764
gastric 0.26427075 0.42973644 -0.16729596 0.008506448 -0.74791837 0.16740598 -0.32261226 0.4622317 0.104555465 -0.47877833 -0.9193805 -0.32686225 -0.18655822 0.23021385 0.43464524 -0.15219218 0.3644575 0.03412133 -0.18820108 -0.12699185
Cells 0.17090034 0.32409146 -0.12498296 -0.0050172326 -0.5894827 0.15633833 -0.28033096 0.38763335 0.0981304 -0.374141 -0.749968 -0.24543217 -0.17180699 0.19312644 0.3639408 -0.10160151 0.2864007 0.049286067 -0.1705907 -0.07147144
Protein 0.21069218 0.3918238 -0.13343632 -0.0053100563 -0.73368543 0.17493847 -0.32771844 0.42547655 0.118608 -0.48198166 -0.88662744 -0.30609542 -0.20302567 0.19652815 0.4451338 -0.13758618 0.3455944 0.020518035 -0.22138047 -0.09761597
phase 0.23480238 0.40797904 -0.13987027 0.018851802 -0.786497 0.19052237 -0.33957106 0.443105 0.0968451 -0.49093458 -0.94042945 -0.31004977 -0.23985808 0.21202093 0.4473556 -0.16057877 0.35656056 0.01892452 -0.20054518 -0.110192366
cardiovascular 0.21766263 0.38354814 -0.12912072 0.02375502 -0.6494482 0.17825627 -0.30822346 0.41351837 0.09013283 -0.41627395 -0.85343283 -0.26566023 -0.20579015 0.20635949 0.39630547 -0.11758657 0.28356987 0.04374462 -0.18422566 -0.08729942
activator 0.22792846 0.38656747 -0.15797761 0.029630639 -0.7222451 0.12255199 -0.35565284 0.42716208 0.099360324 -0.4435913 -0.8822797 -0.28074807 -0.19084832 0.23473701 0.447908 -0.10532864 0.32530093 0.02894789 -0.18904704 -0.115543745
platelet 0.20406541 0.3553739 -0.11204967 0.020648975 -0.6646275 0.13125874 -0.2742819 0.394217 0.1016162 -0.41567212 -0.81245184 -0.2530161 -0.15327185 0.21355598 0.39446002 -0.1505264 0.26617262 0.020241378 -0.19689858 -0.10804297
angiotensin 0.24169646 0.36899862 -0.14453314 0.02000217 -0.6849395 0.19480753 -0.3575628 0.41914743 0.08057198 -0.46425992 -0.84565884 -0.3033924 -0.1969285 0.23845652 0.40479442 -0.1360963 0.2892058 0.031192468 -0.22130576 -0.11413582
profiles 0.2155166 0.37889025 -0.13400061 0.021017151 -0.70536625 0.2170528 -0.3109696 0.42174986 0.13152632 -0.45411703 -0.8436867 -0.296426 -0.18280734 0.24416997 0.40740156 -0.15276873 0.31490707 0.060851753 -0.17961298 -0.07010565
selectivity 0.22780132 0.37975273 -0.12495439 0.0177366 -0.7053829 0.17077248 -0.3444476 0.40409064 0.09482744 -0.45290533 -0.8522212 -0.2801682 -0.18141504 0.19954069 0.42162195 -0.1433985 0.31786558 0.05188699 -0.19993256 -0.10546341
efficacy 0.22467436 0.36867452 -0.11898114 0.038080458 -0.6594553 0.12011318 -0.30360034 0.3925827 0.08857137 -0.38597265 -0.8210982 -0.27883014 -0.20002988 0.1947035 0.40306547 -0.12987214 0.30162975 0.03502677 -0.17519976 -0.10569439
modeling 0.2048179 0.35285544 -0.11629329 0.028647775 -0.68684655 0.11959244 -0.29581815 0.3706344 0.11231544 -0.41619933 -0.82516056 -0.2794737 -0.20328031 0.18932521 0.41870484 -0.13643321 0.27653772 0.032242775 -0.15680994 -0.0803748
pharmacokinetics 0.22041863 0.3832954 -0.10874978 0.004363317 -0.6888688 0.1564923 -0.32439363 0.39758798 0.10394145 -0.36592537 -0.7957554 -0.264652 -0.18363863 0.19478197 0.41887194 -0.14617686 0.30510446 0.061190706 -0.16289103 -0.10449349
leukotriene 0.23592165 0.3619756 -0.15972167 -0.013467053 -0.7176488 0.16567673 -0.305904 0.42164284 0.0750154 -0.41218525 -0.8206637 -0.2837424 -0.18924452 0.221198 0.39356938 -0.109815575 0.31003898 0.024358409 -0.19049068 -0.107290246
COX-2 0.23714572 0.35095233 -0.11357692 0.013355008 -0.6952863 0.12215466 -0.29925373 0.42930433 0.10531132 -0.38910708 -0.85283387 -0.25515854 -0.216289 0.19801906 0.404947 -0.12956323 0.32331622 0.033092733 -0.2098352 -0.080810286
kidney 0.19940922 0.3269922 -0.14682317 -0.00058777287 -0.6238924 0.18209316 -0.30265117 0.40891957 0.07926308 -0.42000622 -0.7890219 -0.27257228 -0.18961728 0.17941639 0.3709177 -0.13481016 0.26194507 0.034232724 -0.17303552 -0.0854682
assay 0.21500523 0.36472246 -0.13731305 0.014718067 -0.6240605 0.12595485 -0.2972982 0.38376558 0.084427804 -0.40945756 -0.79316425 -0.26549476 -0.15646462 0.21694918 0.40173572 -0.14716803 0.30597153 0.046701167 -0.18793792 -0.10560911
failure 0.17760612 0.3217434 -0.09265831 -0.001897376 -0.5695454 0.14915739 -0.29077727 0.35729247 0.057834573 -0.3725402 -0.74146146 -0.2480894 -0.134381 0.17993061 0.3311844 -0.14069495 0.2768214 0.03109028 -0.18176329 -0.10071054
combination 0.22316243 0.39852527 -0.15497065 0.020426964 -0.69026595 0.14679952 -0.3170559 0.43993703 0.07989246 -0.42689404 -0.88791937 -0.26853615 -0.18139707 0.22463578 0.42924476 -0.14419408 0.31058243 0.012666368 -0.18467072 -0.09004566
G 0.2507142 0.4093182 -0.16749796 0.003714918 -0.792819 0.15289564 -0.37857413 0.4705886 0.13281551 -0.45099723 -0.92631006 -0.3416988 -0.21789569 0.23053871 0.45221642 -0.14657234 0.3537874 0.05689046 -0.22441119 -0.11812311
ligands 0.21774015 0.3601961 -0.12474491 0.009096997 -0.6729064 0.16626798 -0.29795554 0.4033095 0.114266105 -0.4540405 -0.8497693 -0.30907667 -0.20250562 0.18837616 0.42894223 -0.15879728 0.29824448 0.015036548 -0.21084054 -0.105431
Expression 0.1945652 0.35790604 -0.14570004 -0.0013316586 -0.65862507 0.14163178 -0.31390068 0.42702082 0.09417395 -0.42954442 -0.79604983 -0.2823244 -0.18611841 0.22049594 0.4136178 -0.13655683 0.27595264 0.05578094 -0.19720028 -0.100333415
Cell 0.2503282 0.36535954 -0.16761562 -0.0026584987 -0.6799628 0.17479959 -0.31619692 0.44396776 0.12521915 -0.4457382 -0.83211017 -0.31456372 -0.21369395 0.22984947 0.40056384 -0.15785842 0.2896082 0.048452266 -0.19798031 -0.07892075
cultured 0.24234599 0.3866085 -0.13534611 0.021399591 -0.75558263 0.19818428 -0.35080528 0.47828856 0.091268115 -0.46671274 -0.9101093 -0.3038067 -0.18319735 0.21926224 0.45306584 -0.15499745 0.32957137 0.060160946 -0.19893436 -0.100591384
glutamate 0.2422884 0.38213554 -0.1471454 0.020130295 -0.69253 0.17339292 -0.34163395 0.40360287 0.09625924 -0.46057853 -0.8940963 -0.29381728 -0.19755155 0.22248428 0.41930532 -0.11937857 0.33255187 0.037859663 -0.21652542 -0.116635695
uptake 0.24602915 0.43581682 -0.14345151 0.027091067 -0.73552173 0.20749097 -0.33143222 0.487274 0.091489695 -0.4425348 -0.89384234 -0.29934078 -0.17641164 0.23650038 0.46863675 -0.13665739 0.32049713 0.041613296 -0.18689288 -0.100085124
Cancer 0.18629703 0.3330545 -0.1232168 0.017153684 -0.61135375 0.15233481 -0.26092562 0.38175288 0.08878646 -0.40602428 -0.7320839 -0.24464545 -0.18751954 0.18219177 0.3882504 -0.120264255 0.2624819 0.01267854 -0.17029123 -0.081415884
skeletal 0.22165245 0.39624715 -0.13317217 -0.011206173 -0.74522775 0.18707976 -0.3561959 0.441251 0.0689544 -0.4482635 -0.9204474 -0.330506 -0.17144288 0.22523725 0.42785394 -0.13043864 0.33198816 0.06726355 -0.1796384 -0.10823108
targeting 0.20844896 0.408215 -0.16129905 -0.00016770922 -0.71442115 0.13823433 -0.3340275 0.45320246 0.0880191 -0.4351937 -0.8481413 -0.28457722 -0.19021267 0.2081937 0.41377416 -0.15587503 0.310315 0.046997696 -0.21385989 -0.07961337
oral 0.24578184 0.40213978 -0.13928524 -0.0045472956 -0.72941464 0.15054701 -0.35660663 0.44236386 0.07397495 -0.4239806 -0.9014147 -0.28205937 -0.19392322 0.20791352 0.4301329 -0.12027311 0.29826012 0.012536156 -0.18401687 -0.11464709
oxytocin 0.21601476 0.40055272 -0.15694706 0.00416092 -0.7398411 0.16321065 -0.3421449 0.40709546 0.12454909 -0.43435162 -0.8823258 -0.26345578 -0.18795419 0.19658089 0.4472816 -0.1328274 0.31195736 0.04972378 -0.22371161 -0.0865608
dual 0.20563202 0.4054324 -0.13576196 0.0050545908 -0.74252594 0.13560978 -0.31025526 0.4076228 0.075228415 -0.4371875 -0.86719346 -0.2848038 -0.2110699 0.21271192 0.44491887 -0.10554213 0.32618922 0.03982353 -0.18755479 -0.11202068
highly 0.22396381 0.43395892 -0.14234433 -0.012250924 -0.7421847 0.17507681 -0.3403594 0.41479605 0.12872508 -0.46504548 -0.9386579 -0.3264382 -0.24889918 0.21585731 0.4736978 -0.13528821 0.31928998 0.06203044 -0.22644947 -0.12252074
cognitive 0.2173001 0.3737092 -0.15531532 0.004435756 -0.66136825 0.1517645 -0.3260624 0.41085437 0.103737675 -0.43713015 -0.83480346 -0.2891291 -0.20324717 0.2035838 0.3901861 -0.12251953 0.29319042 0.055337355 -0.20485246 -0.07824662
adult 0.23342565 0.3638505 -0.1513328 0.0085212495 -0.6484152 0.15405066 -0.27149358 0.42367065 0.101203054 -0.40269434 -0.78456175 -0.23483 -0.15966807 0.22612888 0.40816683 -0.15370513 0.28896773 0.046566267 -0.20425059 -0.067444086
3H 0.19348504 0.43024182 -0.19460396 0.03736701 -0.8161501 0.16139461 -0.41004503 0.40414017 0.11279585 -0.4746117 -0.92992175 -0.31134102 -0.17802797 0.25044775 0.49204725 -0.016222525 0.38476142 0.022969358 -0.21494415 -0.09914761
does 0.25166047 0.38265947 -0.17391354 -0.000100168094 -0.6701852 0.19458216 -0.2982715 0.4183483 0.13655995 -0.45710546 -0.8566873 -0.31230402 -0.22960849 0.18376364 0.4041669 -0.15775245 0.3425122 0.04038799 -0.15855013 -0.079968125
opioid 0.20584832 0.32213128 -0.14822626 0.010966039 -0.60191417 0.1715794 -0.26780146 0.3644134 0.11789771 -0.4158524 -0.73870534 -0.24516241 -0.1678276 0.17772445 0.3626953 -0.15041102 0.25574902 0.015409673 -0.16299672 -0.08433626
metabolic 0.19636805 0.36526003 -0.12084881 -0.017046956 -0.66649824 0.15758903 -0.31110024 0.43227947 0.09435153 -0.40296605 -0.82441884 -0.25483203 -0.2047684 0.20390983 0.40266106 -0.13157898 0.3273313 0.04295825 -0.1851847 -0.083874315
prevents 0.22337623 0.39204162 -0.1717226 -0.01766354 -0.7098406 0.18725169 -0.3414994 0.41458726 0.11445234 -0.46525773 -0.906895 -0.32775378 -0.18902293 0.23777418 0.4595415 -0.13473026 0.34194723 0.036530897 -0.1897644 -0.0953385
without 0.22670536 0.35148403 -0.13955212 0.006213985 -0.6888199 0.16928017 -0.34321728 0.42280063 0.1329067 -0.45155805 -0.8407252 -0.31111902 -0.19697353 0.22299749 0.430089 -0.13215981 0.29485616 0.033897024 -0.21020864 -0.09294202
vitamin 0.22030352 0.37530264 -0.13072743 0.016183894 -0.6238811 0.1604953 -0.319567 0.3763791 0.08192024 -0.3753923 -0.75774795 -0.23486382 -0.19030155 0.17614223 0.40231296 -0.10393859 0.2806027 0.06257212 -0.18260102 -0.102255516
smooth 0.2382602 0.3676583 -0.119422115 0.02680673 -0.6326068 0.19017994 -0.31642404 0.4034819 0.08450416 -0.4394173 -0.8243909 -0.27426428 -0.18881722 0.20911734 0.4003411 -0.15868683 0.29882646 0.03328176 -0.16262485 -0.06500153
pharmacological 0.15132661 0.28616238 -0.11631128 0.007796677 -0.5368294 0.1408631 -0.2653074 0.30287135 0.07470607 -0.30423877 -0.6523272 -0.20505077 -0.14153586 0.14732182 0.29485017 -0.11586693 0.21080786 0.046465576 -0.11973362 -0.07617157
pulmonary 0.2098063 0.35184884 -0.109614134 -0.017826114 -0.5786234 0.15546256 -0.27403402 0.38833928 0.11270922 -0.4155095 -0.74568826 -0.2659037 -0.16823688 0.18459627 0.38458955 -0.1352285 0.27882603 0.04684878 -0.18218045 -0.08654276
approach 0.21600334 0.3473192 -0.10278338 0.0040090056 -0.63701147 0.12919536 -0.2836325 0.39674997 0.10118716 -0.38858917 -0.74836665 -0.24800391 -0.17374669 0.1708602 0.3816391 -0.125022 0.29931957 0.024308069 -0.18047677 -0.08939185
hypertension 0.1665537 0.30059007 -0.08663258 0.00834934 -0.5197057 0.13075946 -0.26006612 0.30381426 0.0649362 -0.34454852 -0.6556006 -0.21640438 -0.14583732 0.14709632 0.33588636 -0.11894589 0.23132908 0.006991437 -0.1545482 -0.054089535
tyrosine 0.23001012 0.3232539 -0.10762228 0.020094069 -0.6130898 0.14038531 -0.3073947 0.36427084 0.06883228 -0.3846528 -0.7702282 -0.28217202 -0.20146126 0.16748503 0.36092514 -0.10905859 0.27158272 0.027945096 -0.16799103 -0.10687502
lymphocytes 0.21778089 0.3215964 -0.1500888 -0.016004276 -0.6161422 0.17896137 -0.2868117 0.38922492 0.0730256 -0.39595377 -0.7525793 -0.26926342 -0.1616318 0.17619312 0.34655848 -0.1544192 0.30096927 0.018049011 -0.1736074 -0.08540045
stem 0.18665613 0.33307967 -0.11648491 0.0017765001 -0.55501926 0.18828434 -0.25786263 0.3745333 0.09036981 -0.3989725 -0.7508957 -0.2757663 -0.15809278 0.19201119 0.36465767 -0.12978737 0.29203272 0.0032773009 -0.14458884 -0.059325166
disorder 0.21665797 0.34760305 -0.10238652 -0.0023309633 -0.5711016 0.1533644 -0.27357602 0.34043616 0.078912884 -0.3685982 -0.7318599 -0.22505929 -0.15018326 0.2024986 0.3590792 -0.10042018 0.2611552 0.035169516 -0.18509251 -0.089652896
case 0.22817346 0.36611587 -0.14156808 0.031723343 -0.6613008 0.13206863 -0.2895426 0.4072749 0.090256125 -0.39982063 -0.81433845 -0.2732371 -0.225566 0.22848259 0.38617307 -0.11460419 0.3082616 0.06390438 -0.1775811 -0.07022964
cyclooxygenase 0.21540341 0.32370836 -0.10864706 0.02219661 -0.6372719 0.11424324 -0.29803896 0.38608348 0.06546331 -0.38039047 -0.7766486 -0.2219694 -0.19555588 0.18988061 0.36245567 -0.07820814 0.2924924 0.053616554 -0.16177365 -0.09373299
be 0.24889438 0.43210417 -0.17070745 0.0135597875 -0.7435838 0.20609671 -0.34846386 0.48180747 0.12626103 -0.465574 -0.919435 -0.30838513 -0.21348292 0.22697318 0.46972096 -0.17865178 0.34392715 0.025733631 -0.20161995 -0.09714349
cerebral 0.214807 0.37250575 -0.13228889 0.012100354 -0.66851556 0.19257392 -0.2908104 0.43038484 0.07288811 -0.423737 -0.8137824 -0.26677454 -0.18804936 0.22612959 0.41432726 -0.151121 0.29725167 0.04147228 -0.18405162 -0.07406847
matrix 0.2594198 0.37168214 -0.12280488 0.031905297 -0.7239466 0.19072413 -0.3063099 0.4231286 0.097922266 -0.43333688 -0.85042197 -0.29237166 -0.21317327 0.19695945 0.4083652 -0.14323652 0.3035913 0.012192179 -0.20956405 -0.08575649
dependent 0.2085701 0.3546247 -0.15649833 -0.00013264874 -0.6903154 0.17513281 -0.29364127 0.40413684 0.089707956 -0.4189236 -0.80622315 -0.28506377 -0.196446 0.22657943 0.4060336 -0.15653753 0.30865183 0.020119518 -0.16611195 -0.11559761
children 0.20293827 0.355732 -0.14762719 -0.0108013 -0.68100804 0.15833358 -0.32362407 0.41392025 0.11350657 -0.4257738 -0.8439817 -0.27506116 -0.15811427 0.22274779 0.39295575 -0.1583336 0.30507287 0.036472578 -0.1746193 -0.06819893
lines 0.19509499 0.3145421 -0.123417616 -0.017460171 -0.4918179 0.18712269 -0.25974295 0.33707017 0.108569086 -0.34678358 -0.6702969 -0.27037528 -0.12770638 0.1537243 0.28796718 -0.15328786 0.21958734 0.018074943 -0.15845725 -0.07877777
Comparative 0.1762598 0.2848423 -0.11425075 0.027476251 -0.5131819 0.12884046 -0.22405148 0.32171974 0.1050367 -0.3323837 -0.6181432 -0.21023212 -0.14698571 0.13503988 0.3196041 -0.12350224 0.26231495 0.020125063 -0.15840796 -0.075769715
species 0.22948246 0.37724918 -0.14865968 -0.0057449276 -0.66527057 0.15240368 -0.335046 0.41803753 0.13404661 -0.4221064 -0.8576133 -0.29626217 -0.1754414 0.18910792 0.4294854 -0.1360035 0.33987963 0.0493963 -0.21041302 -0.074374
Influence 0.17048171 0.26230767 -0.07539087 0.02129959 -0.49799344 0.12739575 -0.23669612 0.30692932 0.069366716 -0.2887799 -0.59500015 -0.17999323 -0.13916273 0.16148032 0.2994573 -0.09076237 0.24582341 0.022798592 -0.13815436 -0.065204725
RNA 0.20803717 0.3385228 -0.15225132 -0.006553675 -0.65968853 0.17091194 -0.2949251 0.38659847 0.07947911 -0.38457367 -0.81219625 -0.2943327 -0.15850545 0.22157387 0.37674382 -0.13620846 0.3102055 0.054199535 -0.17586587 -0.062028334
ligand 0.20210351 0.36184222 -0.16631259 0.028072787 -0.68684953 0.18609339 -0.3183637 0.39257023 0.11954498 -0.42553 -0.83459675 -0.29654002 -0.17061596 0.19269967 0.4037361 -0.1450573 0.3319858 0.01142651 -0.20875005 -0.106668495
ethanol 0.21639407 0.39142656 -0.12885743 0.0080764955 -0.6764833 0.17378367 -0.29354516 0.4441055 0.09284609 -0.4633141 -0.83489126 -0.2767552 -0.20157811 0.20660616 0.44456398 -0.1444264 0.33765864 0.0474269 -0.1955486 -0.07254399
airway 0.24349809 0.38947225 -0.14014533 -0.0066913073 -0.70030826 0.16438451 -0.332207 0.44333476 0.06775553 -0.4597553 -0.8733894 -0.31854948 -0.19508272 0.22847137 0.40718406 -0.13408083 0.33119768 0.013908663 -0.16656287 -0.09798195
hippocampal 0.23863535 0.3864411 -0.14245562 0.03906171 -0.6364714 0.17813182 -0.29287073 0.4022296 0.09251422 -0.3870337 -0.83257157 -0.26243448 -0.18528304 0.17706355 0.39816013 -0.15146615 0.28917572 0.00816856 -0.1965784 -0.07692828
line 0.22718297 0.360554 -0.14345104 0.03743142 -0.6257412 0.16633818 -0.30695137 0.3986936 0.08824049 -0.43527415 -0.83206385 -0.28437692 -0.18803385 0.22072865 0.38323364 -0.15235656 0.30575484 0.054968823 -0.16150282 -0.08321089
deficiency 0.20750555 0.3520333 -0.12716366 0.000578592 -0.61404437 0.15744194 -0.2726496 0.38207462 0.11677266 -0.42225724 -0.76439035 -0.26880398 -0.20851517 0.21879096 0.41421503 -0.11652767 0.31112295 0.039470762 -0.17630312 -0.09823139
nanoparticles 0.20434606 0.33375904 -0.13790059 -0.012522665 -0.6338772 0.1343143 -0.28745034 0.369642 0.10962725 -0.37910125 -0.7252743 -0.25796023 -0.15115255 0.19896409 0.35197484 -0.13102837 0.28626755 0.038054317 -0.14831194 -0.06427559
5 0.22949871 0.3826235 -0.14582363 -0.0029951257 -0.66998994 0.14884572 -0.31230432 0.41583687 0.10313348 -0.4247806 -0.84380394 -0.27889562 -0.21033444 0.19810972 0.40114027 -0.12736708 0.28268263 0.02548127 -0.17861521 -0.083415665
structure-activity 0.21033293 0.35384265 -0.12355302 0.040516146 -0.6510293 0.12486458 -0.28234592 0.38190392 0.09870295 -0.40645003 -0.74886394 -0.2658289 -0.19128437 0.21490902 0.387471 -0.08611703 0.2709816 0.02048025 -0.18595144 -0.10602341
direct 0.25015414 0.37813646 -0.15186694 0.0042034285 -0.67900944 0.12736401 -0.31732967 0.41849247 0.07816784 -0.435995 -0.82093924 -0.29284775 -0.18985403 0.18387048 0.4313287 -0.1327551 0.30665702 0.024176756 -0.18787043 -0.10395531
tumors 0.1852417 0.31559572 -0.08750621 0.014231617 -0.5436317 0.16434906 -0.2639698 0.354613 0.07884124 -0.36416376 -0.6655068 -0.23393492 -0.14843199 0.178544 0.31270453 -0.09894163 0.25719306 0.029252104 -0.14430185 -0.09016668
glucocorticoid 0.2255947 0.36746383 -0.1431347 0.01971094 -0.6849074 0.15954266 -0.32757697 0.41273633 0.075687535 -0.39907765 -0.8411841 -0.28141046 -0.17603593 0.20135666 0.38830498 -0.11513246 0.31267682 0.060127076 -0.1975102 -0.09042594
antipsychotic 0.21747811 0.32792383 -0.15477712 -0.011959648 -0.6366487 0.13663593 -0.27784312 0.35066938 0.09406056 -0.39979962 -0.77337617 -0.28247666 -0.19158955 0.17018908 0.35526332 -0.14237337 0.27007753 0.053073958 -0.14968507 -0.08085289
B 0.23297796 0.35727933 -0.11606415 -0.012869518 -0.6878221 0.13507098 -0.30820403 0.4055897 0.079217985 -0.42059872 -0.82009524 -0.29419875 -0.19628528 0.21824104 0.40236035 -0.13472004 0.31417474 0.02061573 -0.18674342 -0.086059034
biochemical 0.22377731 0.32573843 -0.11686743 0.029497446 -0.61708456 0.14887848 -0.26503345 0.3906765 0.09854702 -0.3650501 -0.737891 -0.23434143 -0.16580246 0.18977767 0.39330325 -0.10721005 0.27830586 0.02296017 -0.14728415 -0.066391915
women 0.205438 0.3213549 -0.08573349 0.026021698 -0.5122157 0.15317082 -0.24706814 0.333526 0.07182919 -0.3348148 -0.6965141 -0.2439149 -0.11086871 0.15154535 0.34003043 -0.10386493 0.26060414 0.008936018 -0.15866493 -0.07589564
activated 0.21354237 0.36896035 -0.11619351 0.004315668 -0.63216674 0.19593748 -0.31444877 0.37367615 0.08575432 -0.3951693 -0.7940914 -0.2658724 -0.19664492 0.1921574 0.38934278 -0.15699236 0.31727 0.05659225 -0.1924086 -0.09326412
Regulation 0.17447966 0.28375447 -0.1165184 -0.019794632 -0.49181676 0.14645088 -0.25518745 0.31764168 0.0979496 -0.34230545 -0.6256909 -0.23359154 -0.14272547 0.1436971 0.29648867 -0.09717783 0.23636904 0.018601399 -0.16692898 -0.08636263
cyclic 0.19815068 0.38399655 -0.15069321 0.012476622 -0.67200994 0.15096484 -0.28451043 0.36914742 0.11817287 -0.40904495 -0.80358666 -0.2819641 -0.17817861 0.21813999 0.42408326 -0.11033467 0.29515725 0.05591508 -0.16629255 -0.077798314
Study 0.1829998 0.32101527 -0.1312785 0.0027650576 -0.60470563 0.13103668 -0.3026436 0.36129296 0.10798064 -0.37621537 -0.7377988 -0.26267368 -0.19737566 0.16491038 0.35814303 -0.12969644 0.27168027 0.042554002 -0.17081039 -0.07588445
