9916 20
. -0.037931584 1.532375 -1.57733 -1.0362755 2.3442214 0.85100365 -0.48832723 -1.6908154 -0.7704849 0.38796732 -1.0965056 1.4533683 1.468017 0.60738546 1.493131 1.0708059 -0.18996 -3.1015494 2.4119878 0.32910722
of -0.032378327 1.9183177 -1.9660807 -1.3102794 2.8615808 1.0467643 -0.5853725 -2.0587516 -0.93743074 0.4951666 -1.3407576 1.8216307 1.7568562 0.7266377 1.7878289 1.3325403 -0.20853512 -3.8258631 2.9469495 0.37350094
and -0.0654143 1.9759982 -2.003939 -1.3369398 2.952634 1.0760328 -0.58293754 -2.087559 -0.9199855 0.49629578 -1.3829651 1.8447331 1.8231207 0.7506815 1.8755474 1.3444998 -0.21464865 -3.8928928 3.029418 0.3590549
in -0.03803638 1.720369 -1.7498981 -1.1606281 2.6053696 0.922179 -0.54468334 -1.8666731 -0.8400497 0.45976034 -1.2531815 1.647755 1.5921292 0.61336094 1.6423126 1.1797767 -0.17623758 -3.4160395 2.6349456 0.35892648
the -0.06524339 1.4224604 -1.4363532 -0.9664005 2.0954268 0.78189355 -0.42329374 -1.5019239 -0.65180767 0.3598394 -0.9797867 1.3466434 1.3166391 0.54541945 1.3342859 0.98968077 -0.14773652 -2.8194497 2.130689 0.25216848
, -0.054550003 1.4255594 -1.4154338 -0.98120457 2.1090794 0.77893597 -0.46431577 -1.4792464 -0.6934411 0.32076636 -0.9934104 1.311586 1.3116994 0.5396706 1.3383769 0.9461427 -0.17042702 -2.8375509 2.1899762 0.27921563
a -0.06388238 1.290455 -1.3072304 -0.8630807 1.9098102 0.70177233 -0.43959823 -1.3944082 -0.58624154 0.30989662 -0.9136404 1.2028059 1.1928806 0.45961198 1.2113543 0.9079259 -0.1592504 -2.5985425 1.984825 0.26454577
: -0.031703986 1.4345475 -1.4810672 -0.98279065 2.1742263 0.81575274 -0.474424 -1.5309211 -0.713604 0.3892898 -1.0452703 1.3812131 1.3521099 0.5607237 1.3584541 1.0067345 -0.15044364 -2.935293 2.2209692 0.3016736
( -0.019777779 1.3452126 -1.3291153 -0.898874 2.0138786 0.7218897 -0.45337933 -1.427754 -0.6454529 0.28061754 -0.9766349 1.2523866 1.2768968 0.49430078 1.2520905 0.8878951 -0.120081104 -2.7269301 2.0722268 0.2465832
) -0.05164727 1.2581792 -1.3153038 -0.82268 1.8519238 0.62543786 -0.37463346 -1.3840799 -0.6066052 0.2648344 -0.9394646 1.1945038 1.1500311 0.50043225 1.2027868 0.83241475 -0.13508241 -2.5659292 1.9753393 0.28357545
by -0.07292603 1.5151488 -1.520871 -0.99255127 2.2522192 0.82284117 -0.45456883 -1.6093062 -0.72675973 0.39842868 -1.0869695 1.4312702 1.3630425 0.56719095 1.44334 1.0564804 -0.20447595 -2.9659054 2.314275 0.26961538
with -0.04879115 1.4728875 -1.464263 -0.9807509 2.1797233 0.81896585 -0.45069823 -1.5695063 -0.70774 0.36307603 -1.0441903 1.3712643 1.3582305 0.53481406 1.3464403 1.000163 -0.1700999 -2.9207203 2.2373562 0.27048084
for -0.02268333 1.338874 -1.3916227 -0.89637274 1.9958128 0.727805 -0.44109464 -1.4584684 -0.641027 0.34500265 -0.9797702 1.2481377 1.2654434 0.5021862 1.259106 0.93600297 -0.16637824 -2.7161407 2.0793111 0.27590075
on -0.051592287 1.4027503 -1.431827 -0.9711567 2.1014233 0.7452139 -0.45533082 -1.5317928 -0.68209577 0.35253352 -1.0234681 1.3577873 1.2861226 0.5256403 1.3270247 0.9675468 -0.14861993 -2.8397396 2.182327 0.2729195
to -0.038464583 1.5035577 -1.5220889 -1.0248541 2.2746243 0.82370186 -0.4784797 -1.6384699 -0.73402715 0.3942979 -1.0921471 1.4233948 1.4242256 0.5829833 1.443584 1.0539851 -0.1853249 -3.0415251 2.3469565 0.28936163
receptor -0.003362989 1.0711496 -1.104752 -0.71236205 1.6249783 0.56822956 -0.34134308 -1.1595805 -0.5083728 0.29963696 -0.80372983 1.0583484 1.023858 0.4120832 1.0275065 0.77415776 -0.10443988 -2.1946125 1.664052 0.18866746
cells -0.0032278826 0.96635354 -1.0088514 -0.6514253 1.4028317 0.5200575 -0.29420632 -1.0021358 -0.43066722 0.27939335 -0.66429275 0.89171886 0.8675716 0.38510942 0.9238007 0.6845604 -0.113547616 -1.8874342 1.4513566 0.16004653
human -0.04193935 0.92085886 -0.93980974 -0.59518945 1.3708473 0.48573917 -0.26713422 -0.99143136 -0.44389096 0.25932318 -0.6625076 0.8513695 0.8283151 0.3667381 0.87527084 0.6094471 -0.09582723 -1.7769051 1.3896517 0.19930743
expression -0.019227687 0.8493639 -0.8458485 -0.599744 1.2626064 0.4491539 -0.265507 -0.9338622 -0.40821916 0.23371166 -0.6245086 0.8173511 0.7772778 0.30692744 0.79269123 0.555265 -0.0953274 -1.6700144 1.3029219 0.18830808
activity -0.0073374496 0.98418844 -0.98175454 -0.6583701 1.4674737 0.52854246 -0.3044093 -1.0700313 -0.44765878 0.2471931 -0.7176179 0.910807 0.8890382 0.38298678 0.93441236 0.65947795 -0.12941894 -1.9637806 1.5183874 0.20668575
The -0.039053727 0.7680298 -0.7977087 -0.5230898 1.2102104 0.44620773 -0.23443703 -0.82678473 -0.34956896 0.20703241 -0.58423907 0.72892416 0.71722996 0.2817399 0.74034965 0.543249 -0.10109079 -1.5906569 1.2189559 0.13634099
as -0.0031680027 1.266843 -1.2653711 -0.8235368 1.8631988 0.7051692 -0.40260744 -1.3614484 -0.6093624 0.2866622 -0.89551044 1.1956311 1.1776291 0.49696192 1.2045064 0.8944825 -0.1633149 -2.5209522 1.9568328 0.27441403
effects -0.0063889404 0.88859934 -0.9176652 -0.6394399 1.3787225 0.5055799 -0.28761026 -0.9908841 -0.42387033 0.23584856 -0.6710383 0.8497592 0.83009475 0.34113097 0.83386725 0.6159019 -0.09588248 -1.8027244 1.3801255 0.15604429
A -0.055090766 0.991101 -1.000606 -0.66244173 1.4759285 0.54386944 -0.3326698 -1.0643314 -0.45172516 0.23528509 -0.7164885 0.92462796 0.898295 0.38561174 0.9339257 0.66032934 -0.1369035 -1.961187 1.4789636 0.18637468
from -0.071351685 1.4115727 -1.4171221 -0.9402976 2.102757 0.76295924 -0.45357636 -1.4926028 -0.68806756 0.37591588 -1.0107311 1.3325781 1.3093835 0.5390386 1.3100436 0.96213275 -0.18809494 -2.804647 2.1448658 0.25444436
rat -0.05264369 0.80579066 -0.77340853 -0.51326686 1.1921619 0.40222433 -0.21215987 -0.85606486 -0.38680932 0.20733953 -0.5394152 0.7174508 0.7421627 0.27228537 0.73103523 0.5211266 -0.094876856 -1.5774478 1.1881653 0.13491878
cell -0.0046783225 0.9846694 -0.97166514 -0.6663402 1.446317 0.52654433 -0.28946683 -1.0230808 -0.4586495 0.25861284 -0.69129735 0.92795324 0.9128421 0.3747251 0.901953 0.66302764 -0.10987058 -1.9417287 1.505373 0.16785453
rats -0.04257756 0.69128937 -0.69689435 -0.42635256 1.0231422 0.38770694 -0.185605 -0.7487146 -0.31121996 0.2026523 -0.49311265 0.6581907 0.6162902 0.24291028 0.66346663 0.47701818 -0.06785652 -1.3473655 1.0648497 0.101861626
inhibitors -0.00030712693 0.7696455 -0.79631656 -0.5475493 1.1749817 0.40890867 -0.27271777 -0.8421813 -0.3929657 0.18199661 -0.57962525 0.7284799 0.7123591 0.2775136 0.7613516 0.5107793 -0.10748053 -1.5951744 1.213387 0.16023223
is -0.05694721 1.1194149 -1.1501348 -0.7674257 1.6726086 0.63251436 -0.32120037 -1.1656681 -0.5307823 0.27003834 -0.7732034 1.052137 1.011849 0.38702798 1.0536592 0.7734525 -0.14853795 -2.2269864 1.706928 0.23054902
novel -0.0052165585 0.79461074 -0.78708184 -0.55661434 1.1430031 0.39326018 -0.26360962 -0.80698436 -0.3990886 0.16312928 -0.5241291 0.7012095 0.722812 0.26081848 0.7108984 0.5579135 -0.062648155 -1.5563295 1.1787302 0.18073273
mice -0.021435848 0.67496014 -0.6898612 -0.4418999 1.0280102 0.38367137 -0.22900642 -0.7559381 -0.3035328 0.17699935 -0.5129269 0.66672254 0.65194654 0.24273476 0.64988005 0.48088282 -0.09522575 -1.3848972 1.0595262 0.11576184
cancer -0.049908105 0.6104463 -0.6245864 -0.4196227 0.93688506 0.3270512 -0.1813494 -0.6321557 -0.26650447 0.19516918 -0.4192842 0.5612322 0.54582083 0.21004191 0.62418985 0.45885813 -0.09902786 -1.2444187 0.96919394 0.086600505
gene -0.02138458 0.8524868 -0.8763335 -0.5537069 1.2595756 0.47603008 -0.27344412 -0.8797904 -0.3969821 0.21888387 -0.59881276 0.80492884 0.7822024 0.2850734 0.810947 0.56027836 -0.10299962 -1.642158 1.248245 0.13955912
an -0.040173784 0.99506056 -0.9793046 -0.6791106 1.4637235 0.5206873 -0.31872106 -1.051156 -0.462861 0.23208039 -0.72566575 0.9277274 0.89416474 0.34775504 0.91307205 0.65804344 -0.1360834 -1.976656 1.5263947 0.20620336
protein -0.05098712 0.8623778 -0.88160855 -0.581834 1.2936707 0.45334196 -0.2852691 -0.9254963 -0.41869396 0.20950522 -0.5954775 0.79832447 0.82077694 0.33640033 0.79579514 0.60424715 -0.12870754 -1.7392173 1.3355666 0.14023547
binding -0.0015560008 0.69531566 -0.7188924 -0.4866203 1.0455135 0.4020126 -0.21672496 -0.73795897 -0.3449255 0.1909371 -0.5335011 0.6694062 0.6468006 0.28716937 0.65554166 0.5108963 -0.10753247 -1.4061905 1.0641644 0.15612246
receptors -0.03359995 0.7699416 -0.74205446 -0.51058275 1.1437565 0.40923643 -0.24300031 -0.8064068 -0.33465835 0.20209478 -0.5595645 0.6951917 0.6947254 0.30486786 0.7199104 0.50426626 -0.11180044 -1.5040371 1.1388134 0.12699285
[ -0.048237648 0.7775703 -0.80189776 -0.55909055 1.2112211 0.44969353 -0.254672 -0.8377838 -0.39237705 0.208419 -0.5697611 0.72088325 0.76323146 0.27480236 0.7700923 0.5528567 -0.12179485 -1.6241074 1.2580087 0.13961257
] -0.061455436 0.72133976 -0.7869207 -0.50089335 1.0800688 0.37892136 -0.2597868 -0.8167385 -0.35343394 0.15414482 -0.50658756 0.7274907 0.6552906 0.29994154 0.6800031 0.48649582 -0.09243033 -1.538173 1.1250347 0.17609401
acid -0.020309767 0.82308984 -0.8387185 -0.5294662 1.2359883 0.4556739 -0.27732384 -0.8910557 -0.39307204 0.21487798 -0.60628027 0.7490556 0.7389244 0.2942661 0.80228436 0.5569695 -0.07303359 -1.6418993 1.2436458 0.13368738
factor 0.0060759066 0.76054835 -0.81686664 -0.5209496 1.1946194 0.42641765 -0.23164053 -0.8610062 -0.379384 0.18624388 -0.5332794 0.7108545 0.7296497 0.29816002 0.7139764 0.5293449 -0.073513225 -1.560702 1.2076681 0.13342679
inhibition -0.002741828 0.6895231 -0.65927535 -0.4304189 1.012991 0.38528457 -0.2255036 -0.74202335 -0.3044767 0.1826208 -0.46078324 0.62013525 0.60496426 0.25942183 0.6412736 0.44144982 -0.08774796 -1.3395065 1.0187099 0.14329207
inhibitor -0.019440973 0.66133296 -0.62655705 -0.43848833 0.9564221 0.32636082 -0.21842231 -0.6542599 -0.29107177 0.15961121 -0.4338315 0.621906 0.5841746 0.2501431 0.61939317 0.45981652 -0.09420179 -1.2842993 0.96744484 0.12891944
activation -0.011907211 0.5737386 -0.5918171 -0.37720603 0.83675784 0.28060088 -0.15128331 -0.5831597 -0.25011975 0.14323479 -0.40987545 0.54278827 0.4950219 0.2079861 0.5500806 0.37824494 -0.052887704 -1.118134 0.85848844 0.12802193
signaling -0.0125336135 0.6879486 -0.6807808 -0.4426025 1.0399475 0.35337627 -0.22461702 -0.71368027 -0.3061945 0.18456145 -0.48409247 0.6163464 0.6108783 0.2459201 0.62642527 0.48430565 -0.068032615 -1.3799908 1.0375665 0.13040733
effect -0.02754801 0.52333444 -0.5260438 -0.370635 0.7545335 0.2668317 -0.18631455 -0.5390657 -0.21861409 0.10351857 -0.3843134 0.48263273 0.4502653 0.19385397 0.49873105 0.34849113 -0.076909214 -1.029847 0.77814585 0.10639993
treatment 0.008896688 0.45218617 -0.48472542 -0.2892631 0.65875196 0.27068958 -0.16167079 -0.48647693 -0.23633015 0.12979144 -0.32992342 0.41882992 0.42950854 0.17676556 0.41675422 0.29947168 -0.057401594 -0.8945875 0.70460516 0.10916295
2 0.012351624 0.5327004 -0.5170115 -0.34783885 0.758196 0.24711232 -0.17656365 -0.5203128 -0.25156564 0.1363566 -0.37358522 0.49206004 0.49394897 0.17741072 0.4541365 0.34481657 -0.08490412 -1.0115176 0.7934808 0.12351501
via -0.017502256 0.8745475 -0.89289683 -0.6083297 1.2926687 0.45787242 -0.25734386 -0.9411346 -0.4030495 0.23229755 -0.60217786 0.8402984 0.79363865 0.32640556 0.80563617 0.588061 -0.10176425 -1.7208035 1.3230858 0.14456218
patients -0.003927574 0.6943652 -0.6717223 -0.4361352 1.034222 0.36963212 -0.2137 -0.7080931 -0.3489 0.17624474 -0.4679525 0.63042194 0.61732244 0.2517842 0.66697544 0.4810964 -0.07408572 -1.3756096 1.0545771 0.14955024
through -0.033046298 0.84953946 -0.8890093 -0.59196883 1.2791928 0.46738744 -0.24182166 -0.9076626 -0.3879985 0.2145107 -0.6296844 0.7925836 0.80407256 0.33310723 0.8288217 0.57915515 -0.13148811 -1.6974391 1.2981348 0.15336101
its 0.007743583 0.59508324 -0.6104275 -0.42308888 0.91232187 0.3585819 -0.20083627 -0.6349694 -0.30047378 0.13330388 -0.42773184 0.5882327 0.5831118 0.23979165 0.5508174 0.41352314 -0.068089604 -1.21298 0.95280457 0.13452104
vitro -0.020630734 0.38262215 -0.3973405 -0.27717236 0.575097 0.19684309 -0.0954674 -0.41316542 -0.17677128 0.09307743 -0.25044745 0.34089687 0.3713454 0.12773423 0.38207188 0.24245967 -0.06706226 -0.75286734 0.58990586 0.053246785
vivo 0.0058849156 0.34589806 -0.32029155 -0.19741236 0.49519974 0.16118255 -0.07503889 -0.35368475 -0.17852406 0.11499247 -0.26283595 0.29547817 0.30976 0.108652525 0.34385353 0.22022782 -0.05192132 -0.67402476 0.5331595 0.044795886
apoptosis -0.01198543 0.538421 -0.5321449 -0.36461714 0.7863125 0.26939917 -0.14199546 -0.57187885 -0.23540519 0.13011421 -0.36610013 0.47909462 0.4935409 0.18378761 0.49388054 0.36008915 -0.059802026 -1.0490097 0.81400293 0.108414516
antagonist -0.037912466 0.5330104 -0.5304042 -0.337828 0.78601474 0.2559526 -0.159673 -0.5496903 -0.25677553 0.1062662 -0.36191905 0.4920163 0.47535238 0.17837971 0.49696067 0.36975893 -0.07040042 -1.0431937 0.7832151 0.11962492
1 -0.038377274 0.5337058 -0.52717525 -0.36963925 0.75212127 0.28435963 -0.15097609 -0.5702013 -0.26816884 0.13647524 -0.36245817 0.48101807 0.4993581 0.17039688 0.47700363 0.37391722 -0.055728145 -1.0630105 0.7878191 0.11379937
brain 0.0005846047 0.52303946 -0.52232957 -0.32892856 0.77025473 0.29667777 -0.18257974 -0.5245953 -0.21906853 0.13816288 -0.3651158 0.4960775 0.4773215 0.1653558 0.5005153 0.36123803 -0.075040095 -1.0014282 0.7816779 0.11355709
Effects -0.030717421 0.3713514 -0.42071337 -0.28707105 0.59860766 0.1998196 -0.11270001 -0.44539556 -0.1847306 0.090345986 -0.29018146 0.35009724 0.37793994 0.1363368 0.35554847 0.26301333 -0.06288538 -0.8076947 0.610693 0.089258865
transporter -0.022344543 0.47924083 -0.49928567 -0.32576594 0.73337835 0.27366334 -0.17781846 -0.5498522 -0.23871914 0.11067159 -0.3366488 0.43863967 0.45563003 0.18920948 0.48900905 0.33033806 -0.064891554 -0.9733164 0.768317 0.11473331
induced -0.046002854 0.7007652 -0.72711354 -0.4624164 1.0706294 0.36343238 -0.20582819 -0.74328 -0.32941848 0.16352308 -0.47281748 0.67711836 0.664103 0.25255924 0.6746635 0.46461317 -0.06398735 -1.3869649 1.1003736 0.14736879
against -0.045736402 0.84247565 -0.83159477 -0.52949435 1.213978 0.42953575 -0.24227996 -0.8751245 -0.40915382 0.20529217 -0.5917015 0.776081 0.730939 0.3223337 0.79715544 0.58745724 -0.11378653 -1.6264725 1.2763472 0.13403569
growth -0.017411122 0.5416077 -0.5195468 -0.3702917 0.7855216 0.2990342 -0.1754604 -0.5736189 -0.23830497 0.10891064 -0.39819455 0.5214092 0.50208414 0.21419421 0.48932126 0.38277197 -0.07248683 -1.0654801 0.825623 0.09139617
kinase 0.0044153864 0.5161333 -0.5148104 -0.34118226 0.80277675 0.31312996 -0.16862193 -0.54002523 -0.27204594 0.10624474 -0.35946742 0.47665843 0.4962977 0.20219393 0.51202893 0.36531717 -0.092425674 -1.0892162 0.8052149 0.08646586
mouse -0.03319108 0.6088313 -0.5965488 -0.4014329 0.86274904 0.3151776 -0.18298903 -0.6250647 -0.2685326 0.17571063 -0.4438343 0.5672126 0.55888534 0.19692093 0.5546101 0.38578257 -0.08148499 -1.193897 0.8932428 0.102822445
pathway -0.04088209 0.46879023 -0.47376382 -0.31774497 0.727575 0.26990792 -0.16405684 -0.5386768 -0.22589459 0.107527226 -0.3289329 0.47023094 0.4537834 0.17024702 0.48416913 0.34472266 -0.048424467 -0.9527893 0.7417498 0.07551947
new -0.026630709 0.528623 -0.5325341 -0.36553264 0.76031584 0.27470732 -0.17483304 -0.5476066 -0.24709737 0.10151427 -0.3423898 0.4961941 0.49818078 0.20333734 0.47508055 0.37934846 -0.06085244 -1.0087755 0.78243697 0.11849989
Effect -0.029971492 0.3001333 -0.28716478 -0.19041567 0.45055628 0.16028042 -0.0971815 -0.29626626 -0.14990807 0.08678343 -0.20108946 0.3012699 0.2540428 0.11936016 0.2659247 0.19888003 -0.0137763405 -0.61214554 0.47198066 0.060740013
drug 0.009754322 0.42126355 -0.4626095 -0.30609357 0.6317752 0.23608819 -0.11748035 -0.46815324 -0.21324411 0.094800696 -0.29423147 0.40561396 0.42373016 0.1528381 0.41248992 0.29453424 -0.07302554 -0.89971155 0.6987314 0.08480851
at -0.031297907 0.68792915 -0.67213297 -0.4545071 1.0137749 0.3833853 -0.20793647 -0.72207785 -0.3062807 0.1652329 -0.48930767 0.6285013 0.60635084 0.23589714 0.62502736 0.45293108 -0.07827267 -1.3063074 1.0460197 0.1524139
Synthesis -0.024699468 0.2277073 -0.22931701 -0.19288778 0.38660705 0.129749 -0.08653929 -0.27772182 -0.09947688 0.04727329 -0.17941447 0.21347365 0.25096497 0.115008794 0.24901375 0.15600657 -0.026217293 -0.49501133 0.36028898 0.07373447
selective 0.01781382 0.36074263 -0.38847616 -0.25842172 0.5872899 0.19695023 -0.10172131 -0.3980273 -0.18891379 0.06691973 -0.2937579 0.35014984 0.3680751 0.129572 0.36304492 0.24642958 -0.045883838 -0.7615487 0.5928457 0.056499183
inhibits -0.024988241 0.6392238 -0.646493 -0.4159406 0.93548846 0.35637817 -0.21347314 -0.6550435 -0.2928663 0.13534029 -0.43562385 0.5901108 0.59335154 0.2445045 0.5907348 0.44840237 -0.059134822 -1.2081848 0.97042966 0.094563805
type -0.015661754 0.42481053 -0.4616226 -0.28204292 0.6323658 0.23475562 -0.12424717 -0.48638862 -0.18318422 0.08235786 -0.3088222 0.42926615 0.42617908 0.15966043 0.38442495 0.3003572 -0.058611237 -0.9000432 0.6458789 0.10334114
study 0.004997483 0.39317733 -0.43158945 -0.29671463 0.6070522 0.21838659 -0.10931325 -0.4353375 -0.18153922 0.083409086 -0.28039843 0.40377662 0.38244376 0.16079484 0.36175767 0.2852127 -0.069608316 -0.83764315 0.61441797 0.06278302
model 0.014570932 0.4152935 -0.4180514 -0.2824613 0.6341787 0.21066871 -0.1457046 -0.46622995 -0.19494557 0.10265733 -0.28906992 0.3821767 0.4142607 0.13016094 0.4221536 0.30398476 -0.04814003 -0.83955216 0.6634938 0.0829026
potential -0.00894385 0.35140303 -0.39318472 -0.2735578 0.56518936 0.17611 -0.12168033 -0.37396872 -0.19255114 0.098776855 -0.2469827 0.36428618 0.32182208 0.13858613 0.32936993 0.24804306 -0.05030793 -0.7384891 0.55409294 0.09814422
stress -0.018221775 0.43272337 -0.41420346 -0.29297802 0.6041452 0.2526996 -0.14041612 -0.43207127 -0.20137335 0.11442344 -0.2731929 0.4003202 0.37414366 0.18330157 0.40838513 0.31296292 -0.06142434 -0.82533324 0.6633124 0.07306587
metabolism 0.0012539937 0.3532855 -0.39505148 -0.23409428 0.5446321 0.198448 -0.10915726 -0.3675744 -0.19170704 0.111060716 -0.2683809 0.33145458 0.32809287 0.12134712 0.33612135 0.22748972 -0.043219175 -0.72786736 0.576723 0.07704301
function 0.011526502 0.3754727 -0.3793042 -0.25184545 0.5398061 0.18620846 -0.10259609 -0.36431026 -0.17914626 0.08723108 -0.2673697 0.32158363 0.33965996 0.1144241 0.32045153 0.22874989 -0.06533276 -0.69690967 0.5295678 0.045550343
role -0.0056031398 0.36408827 -0.36502057 -0.2653163 0.5715366 0.20279181 -0.12275521 -0.3904581 -0.1587557 0.10546033 -0.28464013 0.34161583 0.33224773 0.14677677 0.3323204 0.25426388 -0.05884865 -0.7411176 0.60022277 0.07018784
II -0.01005064 0.5000267 -0.4941884 -0.34856552 0.7677715 0.25468132 -0.13692774 -0.523352 -0.22938715 0.124257915 -0.3604062 0.45575762 0.4530051 0.18737088 0.46511516 0.34644148 -0.055682976 -1.0021578 0.751881 0.106161855
disease -0.00482528 0.25734192 -0.29509455 -0.18129747 0.40784538 0.16575103 -0.056516465 -0.29646313 -0.12242326 0.083588265 -0.19345817 0.23811364 0.26335895 0.12722234 0.26741052 0.17204964 -0.061739128 -0.5241199 0.3787881 0.04934457
properties -0.014519046 0.50888616 -0.49881592 -0.33868566 0.7573749 0.29396117 -0.16257872 -0.5358416 -0.22696681 0.10547906 -0.38349777 0.48937064 0.464494 0.17451267 0.46016172 0.32592565 -0.051944565 -1.0174211 0.7459325 0.12212112
liver -0.011206419 0.40762728 -0.4292174 -0.25796077 0.6075273 0.22899427 -0.10722518 -0.4542974 -0.17782235 0.10273198 -0.3065152 0.39211643 0.3947253 0.13497013 0.41236869 0.2802016 -0.03777175 -0.7989699 0.61418974 0.065408684
dopamine -0.005999379 0.33928138 -0.36144546 -0.21808222 0.5143578 0.21471846 -0.08831133 -0.378221 -0.17421952 0.08687701 -0.25215417 0.3194317 0.31181672 0.10636226 0.3466322 0.22056176 -0.03376205 -0.71230376 0.5441482 0.07149975
's -0.015373599 0.46086958 -0.46076933 -0.31758717 0.6923049 0.25860807 -0.11259551 -0.5101111 -0.21471988 0.11882729 -0.3467896 0.41846743 0.4142356 0.20016563 0.43344855 0.31848812 -0.08747539 -0.93533236 0.72099286 0.09987362
alpha -0.0118141305 0.36439854 -0.40557313 -0.23601848 0.53729606 0.18404007 -0.12996925 -0.38879153 -0.15197904 0.10953593 -0.28065822 0.37127388 0.35726467 0.1615875 0.36910045 0.25061676 -0.031167852 -0.75797695 0.56617 0.06507607
using -0.023513118 0.60743177 -0.633047 -0.42905742 0.91243887 0.34543172 -0.18463358 -0.6381869 -0.28962094 0.16099271 -0.42556933 0.5662208 0.5659248 0.24712786 0.5824522 0.3982797 -0.08382792 -1.1944438 0.9369488 0.11128125
drugs -0.009555048 0.4433551 -0.46352246 -0.2831533 0.6941252 0.23060945 -0.15606008 -0.50986505 -0.1957086 0.13287483 -0.33916816 0.4109706 0.43602026 0.19104043 0.41977745 0.31074587 -0.062261734 -0.88904154 0.69388664 0.098385505
response -0.0017704311 0.39881054 -0.40228304 -0.24589132 0.5897238 0.23584901 -0.10528652 -0.4180292 -0.20444563 0.12570511 -0.28939864 0.37760413 0.37672764 0.13255945 0.39812368 0.25247383 -0.06903644 -0.77471924 0.6368491 0.06308307
molecular -0.010081042 0.46708223 -0.47662333 -0.31774142 0.6801339 0.26659963 -0.11952349 -0.501245 -0.2144158 0.11064529 -0.3413691 0.40366367 0.3923162 0.17328197 0.394751 0.31311506 -0.0364058 -0.88153106 0.67165345 0.09161966
associated 0.007526192 0.4384705 -0.45218346 -0.3015117 0.6648554 0.22873062 -0.11882743 -0.4395276 -0.19525485 0.12633498 -0.32790685 0.3962026 0.41833583 0.15482849 0.39445528 0.3251701 -0.031534806 -0.86545366 0.66426986 0.07563206
potent 0.009345697 0.35758233 -0.37242523 -0.23644373 0.548441 0.20097649 -0.10102825 -0.3987865 -0.1921113 0.08163179 -0.26690787 0.32011205 0.35916394 0.14229923 0.35933423 0.22230957 -0.062602066 -0.73031926 0.54221284 0.052852336
characterization 0.018060815 0.32056296 -0.31340998 -0.23859872 0.4771607 0.1548057 -0.09385297 -0.35765538 -0.15818357 0.08476002 -0.2252327 0.27614805 0.30813405 0.101124436 0.30639994 0.19328304 -0.04337415 -0.6262332 0.46881357 0.044311583
synthesis -0.026045892 0.3672394 -0.3735314 -0.27142188 0.52872276 0.1972649 -0.09985229 -0.3807424 -0.15335962 0.1068552 -0.26234543 0.35985392 0.3410888 0.12338019 0.37507832 0.23742637 -0.052263174 -0.73874974 0.5778454 0.052824307
are -0.0022406203 0.49469528 -0.49964726 -0.34279305 0.7012842 0.25373176 -0.13216627 -0.5100913 -0.22748058 0.12375315 -0.34014833 0.44722256 0.45459363 0.17775846 0.42876318 0.31377664 -0.04074965 -0.95443356 0.72294855 0.08945731
between -0.038923983 0.5146368 -0.52503026 -0.36019838 0.76845396 0.28151047 -0.17391302 -0.5693028 -0.25394195 0.12807035 -0.37217146 0.47659335 0.4950241 0.19659126 0.48420218 0.351079 -0.06678725 -1.0076771 0.8157754 0.09287852
high -0.034200124 0.49616036 -0.5030754 -0.3112099 0.7336419 0.28704855 -0.14071085 -0.52170634 -0.22651874 0.109268814 -0.33458817 0.45924076 0.45978808 0.20400448 0.48420823 0.3300714 -0.059620984 -0.9891919 0.7291041 0.1079364
regulation -0.016829984 0.32041013 -0.31266478 -0.18877846 0.462331 0.16132718 -0.08344669 -0.32352316 -0.13640282 0.08324541 -0.21142182 0.29436815 0.3070164 0.121866345 0.30771083 0.18825689 -0.014004116 -0.5955314 0.47445467 0.070623785
DNA -0.026245635 0.4407808 -0.4439126 -0.28823623 0.67596257 0.26793638 -0.16370383 -0.49376857 -0.20271349 0.13854446 -0.3072048 0.42712542 0.41433164 0.18971436 0.45148045 0.31724918 -0.045756243 -0.94220686 0.71005404 0.074856535
Inhibition -0.022759218 0.279257 -0.30666488 -0.21555604 0.41150722 0.16940217 -0.092221245 -0.31501076 -0.15301538 0.08877833 -0.21497636 0.2658929 0.27058315 0.10106062 0.28109306 0.18800552 -0.023566876 -0.571138 0.41914663 0.04233707
breast 0.005556132 0.27786517 -0.28564766 -0.15471587 0.3754409 0.11363923 -0.08364772 -0.25647888 -0.12505074 0.054586798 -0.16577102 0.274398 0.25690612 0.12812106 0.23645298 0.15845929 -0.040443394 -0.53030527 0.3805103 0.072152
agents -0.018021163 0.26864812 -0.2570407 -0.19573377 0.3876799 0.1407951 -0.07057174 -0.31479517 -0.10355337 0.07256534 -0.18168166 0.2528455 0.25874996 0.103719376 0.26987654 0.20978607 -0.05250644 -0.5213192 0.43382978 0.057121135
during 0.0025545987 0.48896152 -0.4944806 -0.3245638 0.75073755 0.27451485 -0.1358003 -0.5472417 -0.24253611 0.12797414 -0.3616456 0.47567147 0.47175756 0.20376426 0.5031349 0.3482893 -0.08210505 -1.021539 0.8022138 0.10127362
derivatives 0.010195418 0.35583457 -0.33520645 -0.22764169 0.5144196 0.19921479 -0.08883551 -0.34230852 -0.14038755 0.105553895 -0.25498518 0.32602185 0.3168986 0.13202825 0.33420408 0.210246 -0.0271176 -0.6607242 0.53452444 0.0632814
not -0.033176284 0.5381316 -0.5390297 -0.3783062 0.7936368 0.29058868 -0.17121267 -0.5920107 -0.23128562 0.11944133 -0.38524792 0.48998144 0.4889633 0.22215123 0.52072376 0.37965572 -0.07510978 -1.0734081 0.83495706 0.08282945
production -0.01741899 0.4308639 -0.43395436 -0.27986923 0.6159052 0.22692087 -0.12322574 -0.44173512 -0.20157231 0.1007186 -0.30272648 0.38126442 0.36014748 0.16928236 0.4155131 0.30075002 -0.051548176 -0.8176981 0.6115128 0.092729695
mechanism 0.0066136676 0.24849579 -0.28805214 -0.20234531 0.39903456 0.118906386 -0.077015795 -0.29177567 -0.13278341 0.07637882 -0.17264676 0.23482162 0.25769907 0.12272614 0.24570249 0.16977152 -0.05650504 -0.5473213 0.39557338 0.03699829
induces -0.03808404 0.4453246 -0.46177262 -0.28132865 0.6499832 0.23231483 -0.14596513 -0.4794024 -0.18626046 0.10344352 -0.32642218 0.43079224 0.39886254 0.18260835 0.42383963 0.30300167 -0.07708526 -0.8821899 0.6871246 0.09473887
oxidative -0.025274595 0.38414282 -0.3856134 -0.27551505 0.553895 0.18195507 -0.13640217 -0.3997872 -0.18210757 0.10681578 -0.29220286 0.3421472 0.32859242 0.16187614 0.3854025 0.25515372 -0.021134391 -0.7752384 0.5598036 0.09553995
levels -0.007404838 0.3779209 -0.40332535 -0.26433963 0.62044764 0.24184059 -0.12744166 -0.41420725 -0.19743517 0.08657333 -0.30648834 0.36739582 0.37851 0.14809664 0.39970326 0.2838397 -0.07254297 -0.81444955 0.6263892 0.05178583
synthase -0.027127927 0.37343803 -0.3443918 -0.2658764 0.5425876 0.20555785 -0.12854879 -0.40510756 -0.15948164 0.11406577 -0.23031579 0.3187978 0.3164419 0.15781651 0.35892174 0.23938243 -0.058566168 -0.7110883 0.5371414 0.058393173
muscle 0.012124969 0.36125243 -0.38390443 -0.21606866 0.53173953 0.17379998 -0.0948815 -0.37772098 -0.14853042 0.10500083 -0.24537076 0.33145866 0.35414705 0.114104256 0.34199274 0.2355633 -0.046805263 -0.69627863 0.5452433 0.09174614
their -0.02350055 0.38171244 -0.383014 -0.24913134 0.5688931 0.19636598 -0.118087396 -0.38198885 -0.15795025 0.094698004 -0.29029834 0.3448627 0.3238346 0.16026314 0.37348285 0.25151533 -0.061715774 -0.72504735 0.5656099 0.046437286
exposure -0.029628556 0.3720556 -0.38898903 -0.24590121 0.5267981 0.2175201 -0.09356771 -0.35816166 -0.15583837 0.09829646 -0.24615297 0.34997565 0.31785926 0.1422157 0.31820586 0.26196817 -0.025889924 -0.70430666 0.5530166 0.07198744
use 0.008335271 0.27805093 -0.2711133 -0.20048024 0.4397414 0.14619556 -0.11114919 -0.312935 -0.11935951 0.061281215 -0.19641912 0.24550352 0.27186924 0.10742819 0.2833234 0.17022592 -0.055873044 -0.5346041 0.41248617 0.05457075
interaction 0.004639481 0.26400536 -0.27586126 -0.16729034 0.40309316 0.14205307 -0.08174037 -0.29431993 -0.10362629 0.054120835 -0.19194664 0.25843522 0.22396022 0.08425397 0.2277172 0.15945289 -0.033050407 -0.53549063 0.388442 0.045096762
proteins -0.018121852 0.36220467 -0.38815498 -0.23250546 0.54736376 0.17192118 -0.13557209 -0.4089496 -0.18714361 0.0710992 -0.25707635 0.36449623 0.35842875 0.13255408 0.363275 0.244002 -0.066852555 -0.7294724 0.5407404 0.07779985
antagonists -0.01266393 0.25030383 -0.2508472 -0.18261364 0.35619307 0.12897336 -0.10044946 -0.23685995 -0.09337579 0.07347679 -0.17212465 0.25579593 0.22597232 0.10217962 0.23748991 0.17084108 -0.043125108 -0.49292356 0.35987756 0.061838895
endothelial 0.0031882138 0.31066284 -0.349908 -0.23957245 0.5150697 0.15585811 -0.08287683 -0.35646525 -0.17837086 0.07564906 -0.23026331 0.31696165 0.31737787 0.10351621 0.30391496 0.23197529 -0.043010026 -0.6238326 0.50123686 0.08262769
insulin -0.008085944 0.3194488 -0.33622098 -0.22842644 0.45455602 0.19077854 -0.10415472 -0.311823 -0.16284911 0.072739236 -0.20129724 0.30375528 0.28318498 0.11450694 0.27034238 0.20891328 -0.037394397 -0.599145 0.49343207 0.04056823
channel -0.00787873 0.33736032 -0.32971826 -0.21134873 0.48294353 0.18597554 -0.09536671 -0.3473315 -0.15222888 0.08447075 -0.21483223 0.28930733 0.32609835 0.117006876 0.33140868 0.21451701 -0.03937642 -0.6864546 0.529681 0.08722477
evaluation 0.0150279505 0.25118667 -0.2483241 -0.16171005 0.37146124 0.14139396 -0.10378196 -0.27139163 -0.11859849 0.039295457 -0.17470239 0.24303727 0.2524597 0.09490642 0.245438 0.15051018 -0.026907599 -0.49956802 0.4208188 0.044680655
studies -0.021068865 0.24711803 -0.28150785 -0.17790836 0.41353813 0.13372177 -0.067489006 -0.2847048 -0.11410175 0.079103835 -0.19303772 0.23072325 0.25378662 0.10496187 0.24464507 0.18955849 -0.024433741 -0.50518006 0.38245097 0.05586668
therapy -0.006073706 0.2959255 -0.30158773 -0.19139864 0.45094198 0.18320645 -0.08882779 -0.31916928 -0.12048212 0.07028686 -0.2254952 0.29381773 0.29884776 0.112272255 0.28823423 0.18919322 -0.052765463 -0.6183272 0.4626321 0.07208859
action -0.01232521 0.14486471 -0.1625362 -0.110810645 0.21626212 0.09817239 -0.046641175 -0.17142354 -0.079179324 0.018905273 -0.08840705 0.1168997 0.11755213 0.06677454 0.10592681 0.1196292 -0.037009597 -0.28733528 0.2129645 0.047816668
release -0.037084732 0.34633273 -0.35368067 -0.24683087 0.52513504 0.2190712 -0.10958275 -0.3654679 -0.18970059 0.06883807 -0.27248183 0.32636276 0.33391622 0.15486833 0.34568444 0.26119596 -0.033132024 -0.72107357 0.565 0.08748515
genes 0.016060827 0.2950196 -0.30064222 -0.19030872 0.4345564 0.14291711 -0.09442872 -0.2707177 -0.1334097 0.048207827 -0.17984407 0.28341803 0.24980262 0.0941441 0.27608582 0.16430545 -0.022946894 -0.53449243 0.40555513 0.06717661
hormone -0.0016424025 0.26805332 -0.28980836 -0.21788387 0.4523166 0.14242958 -0.101331756 -0.286367 -0.13318267 0.068171985 -0.2174311 0.26861066 0.26974267 0.086116776 0.25744006 0.18125372 -0.023793425 -0.59410703 0.46125585 0.060825568
target 0.007514657 0.2941647 -0.321777 -0.19126707 0.42997837 0.17941946 -0.097392954 -0.34237432 -0.15586004 0.09150109 -0.20839995 0.28606626 0.26529032 0.10674322 0.31162602 0.19098888 -0.041463695 -0.5826467 0.4575566 0.04927853
system 0.006592499 0.40041918 -0.39439142 -0.24936885 0.5984943 0.1937254 -0.14526387 -0.4154021 -0.20298444 0.090829894 -0.29696387 0.3483363 0.3601113 0.14976744 0.3623914 0.25740194 -0.03860049 -0.7668229 0.60084975 0.09987293
tumor 0.005788814 0.24493572 -0.22694838 -0.17914794 0.37562165 0.11849095 -0.084758915 -0.26475808 -0.126944 0.08304067 -0.15483499 0.24061999 0.23581715 0.096181974 0.24762942 0.18729027 -0.027327131 -0.46788195 0.35580325 0.03360119
In 0.01051732 0.28985444 -0.28944504 -0.19997425 0.43461606 0.15152842 -0.092739955 -0.33733884 -0.17095491 0.10065256 -0.19663763 0.27157575 0.2749821 0.09225958 0.28679878 0.19294673 -0.031772576 -0.58803123 0.48314717 0.03776118
beta -0.025105035 0.30908826 -0.32562953 -0.20660733 0.5104482 0.19058986 -0.07669396 -0.35931253 -0.14164615 0.06657655 -0.24099752 0.3091078 0.3105263 0.1278532 0.29054445 0.23297678 -0.051074747 -0.65749526 0.49972445 0.063018344
Characterization -0.0069633857 0.13416283 -0.13208269 -0.08623335 0.22265315 0.059065882 -0.060995243 -0.18050581 -0.07456651 0.03249327 -0.097178526 0.14128596 0.14993025 0.05460595 0.117678165 0.118613444 -0.03934714 -0.30516678 0.21952108 0.05370355
changes -0.008564929 0.30846718 -0.31797442 -0.2028374 0.47186658 0.18304428 -0.07520127 -0.34785083 -0.14169475 0.081251144 -0.19470888 0.30399075 0.26902887 0.09275253 0.2804719 0.2266432 -0.021166088 -0.6061867 0.46849474 0.043148212
epithelial -0.027554829 0.17952847 -0.22317594 -0.13726766 0.28706145 0.082966045 -0.055898838 -0.23070769 -0.105452955 0.075121395 -0.13868915 0.20245449 0.16490516 0.09152413 0.18897338 0.1505726 -0.046674713 -0.4068226 0.28577277 0.02431162
analysis -0.022022003 0.2664923 -0.28471658 -0.20520525 0.39515975 0.15343386 -0.1040023 -0.3024385 -0.11029373 0.06257198 -0.18504278 0.25566602 0.24172181 0.12117415 0.2696099 0.20361713 -0.053892117 -0.555146 0.4049559 0.035041533
after 0.010745985 0.48043284 -0.49191138 -0.3361512 0.7174413 0.23914027 -0.1273217 -0.5260575 -0.22660603 0.114482 -0.32837808 0.42276043 0.42496893 0.1805483 0.4393398 0.32485676 -0.07815509 -0.9290096 0.74816245 0.097155094
agonist 0.0041995253 0.31019536 -0.3177182 -0.22016902 0.47148478 0.16099396 -0.0804063 -0.32035616 -0.14874488 0.053256936 -0.23576006 0.31224272 0.27878803 0.09962042 0.28334117 0.20766084 -0.0186546 -0.6541163 0.49594086 0.08265321
channels -0.021957718 0.3461324 -0.32408935 -0.21156648 0.4697697 0.16968773 -0.08686634 -0.37001398 -0.15623955 0.08236932 -0.23957826 0.31163892 0.31566787 0.109303 0.29832378 0.22280838 -0.016529646 -0.6274884 0.5056477 0.04997018
acute -0.03128286 0.27648798 -0.28633037 -0.21406233 0.4555383 0.14565775 -0.1126837 -0.31528553 -0.14597815 0.053011257 -0.20141423 0.29256982 0.27929175 0.101680145 0.28210914 0.19594505 -0.032240655 -0.59570694 0.47271314 0.060149685
serotonin -0.012172872 0.15131724 -0.17691354 -0.12194968 0.23703128 0.061274752 -0.042036973 -0.1778897 -0.06413495 0.021556001 -0.101867534 0.16173606 0.13544586 0.056692015 0.16684416 0.12139188 -0.032242954 -0.3208243 0.2578995 0.057652712
modulation -0.013127247 0.22251353 -0.2014929 -0.137994 0.3446812 0.11626577 -0.049180757 -0.21453086 -0.103829205 0.048607286 -0.16534297 0.21030833 0.22110352 0.102121264 0.21846153 0.14526005 -0.043161742 -0.44858667 0.36112994 0.03801341
anti-inflammatory -0.018478507 0.22653031 -0.24953216 -0.17538778 0.34497303 0.1466556 -0.048927806 -0.23138016 -0.10402942 0.062074315 -0.15234883 0.21123715 0.20601305 0.10877157 0.2450195 0.1671942 -0.03200401 -0.47684762 0.37750646 0.07031052
histamine 0.008830081 0.24706039 -0.27255082 -0.17833716 0.34949613 0.15308847 -0.103930615 -0.2404459 -0.122605234 0.056268066 -0.18291453 0.23094136 0.25293142 0.08604423 0.2125217 0.15055516 -0.0067481063 -0.5015156 0.3566033 0.07328589
toxicity -0.030954298 0.26927307 -0.2925053 -0.17993157 0.4106694 0.166664 -0.06290474 -0.29477522 -0.10834566 0.095473535 -0.17347568 0.27240255 0.26090395 0.1239673 0.2351575 0.20775558 -0.018585593 -0.5331545 0.39961112 0.06558931
clinical -0.032229874 0.3140099 -0.28084695 -0.1944542 0.44516858 0.13966854 -0.08334797 -0.33245116 -0.13140658 0.09416876 -0.23180334 0.28302884 0.25935504 0.09089126 0.25063473 0.22211401 -0.026868459 -0.5864121 0.43845198 0.07745346
lung 0.017963184 0.15981525 -0.1885097 -0.12429967 0.24712789 0.114244655 -0.042596854 -0.16569257 -0.076082356 0.073311865 -0.13934663 0.17827572 0.16496849 0.057997018 0.17228682 0.100376815 -0.04402602 -0.35048202 0.28864384 0.017763421
functional 0.013586496 0.2452226 -0.27115414 -0.17757452 0.34980658 0.13801688 -0.0596918 -0.2714388 -0.105495006 0.07108264 -0.19819354 0.2035711 0.22827142 0.11002423 0.20409615 0.16632316 -0.009912791 -0.46521306 0.3816977 0.035705294
male -0.008678917 0.21946986 -0.24782969 -0.1793621 0.33974448 0.15114504 -0.08771205 -0.27797803 -0.09043877 0.06099141 -0.15555237 0.21488525 0.21099764 0.07770755 0.24128664 0.1475859 -0.051714994 -0.46303236 0.39343345 0.061173424
Identification 0.0144382315 0.15390514 -0.15766685 -0.12586206 0.2640442 0.08070455 -0.07107027 -0.20391007 -0.08832652 0.055244375 -0.109967545 0.16139807 0.15080673 0.038398415 0.16406432 0.09075664 -0.009791232 -0.35602772 0.2501236 0.01563534
sodium -0.012718149 0.24324904 -0.24776107 -0.16465318 0.39356712 0.16375016 -0.061594233 -0.26525855 -0.14277877 0.06410259 -0.17084491 0.24496305 0.21853904 0.09430848 0.231924 0.19753502 -0.04828511 -0.5183314 0.41750368 0.058267202
control 0.0032228886 0.22659045 -0.27395895 -0.18093273 0.38817054 0.1457878 -0.07803958 -0.28003776 -0.13727824 0.037636932 -0.15736565 0.2544973 0.23482667 0.0954227 0.21658653 0.18582276 -0.0333891 -0.4807973 0.36537263 0.03911411
activities -0.029077819 0.28766432 -0.3016662 -0.22193275 0.463815 0.14263362 -0.080942236 -0.32641888 -0.16279042 0.060319517 -0.21846847 0.29733348 0.2693876 0.10042696 0.28074455 0.20005015 -0.034933724 -0.6076373 0.45060208 0.06487567
that -0.03462119 0.4591247 -0.45784742 -0.32542604 0.68884945 0.25292966 -0.13155578 -0.49221286 -0.23308931 0.1359253 -0.32091355 0.40366912 0.43861556 0.16713023 0.41676798 0.28434667 -0.04181933 -0.88725275 0.6989055 0.07402045
diabetes -0.02277986 0.19691263 -0.18762892 -0.1336434 0.26303 0.100208305 -0.05731232 -0.1527591 -0.060227133 0.06631156 -0.14152074 0.16405146 0.18284297 0.0796654 0.1492088 0.13745865 -0.04174121 -0.3520753 0.2567803 0.02396582
renal -0.004219171 0.25420728 -0.26600677 -0.15293841 0.40400597 0.15995283 -0.07646281 -0.26749843 -0.1327304 0.07159662 -0.20096602 0.23727994 0.26417488 0.12466507 0.23795511 0.16903812 -0.046133857 -0.5479952 0.4138861 0.044454463
mechanisms -0.021857508 0.26981488 -0.28279525 -0.16146083 0.3758 0.14704348 -0.082197025 -0.2680502 -0.0994766 0.048366327 -0.18146464 0.21861964 0.24599825 0.08226408 0.23031628 0.18453035 -0.01544691 -0.5231398 0.3975782 0.0318127
secretion 0.0006372348 0.31299728 -0.31168362 -0.2174798 0.44989654 0.16923106 -0.066456474 -0.29423344 -0.15885778 0.054185335 -0.22531341 0.2574914 0.28392497 0.13044253 0.26629347 0.20227982 -0.054076392 -0.5931764 0.44936597 0.062161293
primary -0.01109536 0.25973973 -0.2403546 -0.1513794 0.3488443 0.12587781 -0.08139091 -0.2442779 -0.095915236 0.08026245 -0.17299342 0.214159 0.2361183 0.084230155 0.23674184 0.17498744 -0.045655586 -0.4525013 0.3557877 0.03302346
inflammatory -0.010988369 0.29687005 -0.2848208 -0.17952147 0.4271369 0.1303512 -0.098568976 -0.27395362 -0.14569475 0.06222589 -0.20824473 0.248211 0.22659068 0.12672141 0.24611555 0.20667782 -0.023520255 -0.5620848 0.4011008 0.052518547
thyroid -0.0230921 0.24516928 -0.27141222 -0.17899315 0.3966221 0.14269707 -0.07200043 -0.27710953 -0.10433316 0.07384662 -0.20118609 0.23099722 0.25271368 0.08696828 0.23703022 0.15383469 -0.017799333 -0.49208483 0.37626466 0.0694162
Novel -0.011290325 0.23307423 -0.2357803 -0.15982786 0.3334019 0.11278507 -0.049023166 -0.2568109 -0.11993055 0.037047647 -0.18201104 0.23325726 0.20596917 0.105777465 0.19487411 0.17944174 -0.021089254 -0.46737185 0.3571754 0.0523788
resistance -0.004372701 0.3257404 -0.33053106 -0.21002057 0.44815344 0.14653891 -0.09530296 -0.3228141 -0.13931286 0.058843195 -0.2244786 0.29569972 0.30628914 0.13708816 0.3170722 0.2370753 -0.060101993 -0.6032926 0.50029624 0.04378689
calcium 0.00014639864 0.30030966 -0.27882308 -0.17254443 0.40953085 0.1801629 -0.10854043 -0.2855526 -0.14375304 0.07231743 -0.22294694 0.28222898 0.25449258 0.1314356 0.25450045 0.20454378 -0.037877582 -0.5586552 0.4414587 0.050825022
mediated -0.02396663 0.26111826 -0.29875156 -0.18984206 0.41221803 0.1625563 -0.096429884 -0.27225658 -0.11822173 0.07123043 -0.17453623 0.24624792 0.23427653 0.083416365 0.2852205 0.20863417 -0.03423689 -0.5634193 0.42991775 0.065547414
comparison 0.019644577 0.14449084 -0.14079343 -0.11707647 0.22709598 0.05703489 -0.020213628 -0.16388226 -0.07884251 0.01843075 -0.095910564 0.11959466 0.15183838 0.031081704 0.13641623 0.07415349 -0.01037572 -0.30360213 0.20436056 0.0265572
- -0.008571426 0.22743854 -0.25972223 -0.15442401 0.39703634 0.14159378 -0.10018113 -0.2765643 -0.09881685 0.053851444 -0.16028333 0.24997233 0.23555483 0.10913988 0.2462354 0.15288122 -0.009243104 -0.51169986 0.38739374 0.05370051
damage -0.029596157 0.24951562 -0.29130593 -0.1947075 0.38807693 0.1350765 -0.09907366 -0.2918046 -0.14162509 0.08796876 -0.17012005 0.22717811 0.24966446 0.08463589 0.23474629 0.19302751 -0.014747692 -0.52250093 0.4269606 0.032882202
plasma -0.014632626 0.29371637 -0.31431592 -0.23045006 0.47674572 0.1632315 -0.120697804 -0.32538742 -0.14594351 0.087538004 -0.21586862 0.30038887 0.31379506 0.10393456 0.2926713 0.21896875 -0.036457364 -0.60399055 0.4577938 0.066740334
blood -0.025339754 0.325252 -0.3136452 -0.18518351 0.43185768 0.15636416 -0.10147727 -0.34120944 -0.15867093 0.0845082 -0.23669034 0.29377556 0.2849245 0.10842521 0.27572277 0.20480783 -0.03694735 -0.6262881 0.4801978 0.04615256
? -0.030344538 0.26018965 -0.2561108 -0.15823014 0.39379176 0.1430268 -0.05947229 -0.25877887 -0.11630775 0.08806065 -0.17644148 0.2622887 0.22720739 0.09264849 0.27227333 0.17790078 -0.026062105 -0.5016185 0.39656 0.06650693
involved -0.01180722 0.2811565 -0.2644963 -0.19285214 0.40096486 0.13996714 -0.10418065 -0.2805873 -0.11878277 0.08855104 -0.2020296 0.26116675 0.23565148 0.07567971 0.25477505 0.19239478 -0.0372412 -0.5350791 0.3955361 0.07410027
attenuates 0.010402985 0.3559931 -0.38276932 -0.23644716 0.5417775 0.20157944 -0.12719913 -0.4104171 -0.16735469 0.11618283 -0.28298312 0.34479478 0.33341327 0.14527774 0.37118036 0.26639745 -0.03895843 -0.72844774 0.54370767 0.067697234
biological -0.026307922 0.17261848 -0.17338182 -0.116512656 0.22994308 0.06258761 -0.06698501 -0.14599542 -0.05156775 0.043589722 -0.1333222 0.15418258 0.14273466 0.062320203 0.16178924 0.09724701 -0.034432493 -0.293907 0.22619806 0.017807044
hepatic 0.008308853 0.28001213 -0.2555023 -0.1988019 0.4344969 0.13871306 -0.099409096 -0.29524708 -0.15368293 0.0737227 -0.2149854 0.24547558 0.27646697 0.08880994 0.25620922 0.17166768 -0.04267154 -0.5373322 0.4019471 0.04139333
syndrome 0.0027581777 0.20455116 -0.20567122 -0.097175725 0.24925096 0.106661215 -0.059417225 -0.18358526 -0.09208826 0.046857193 -0.1188503 0.17224577 0.17648616 0.07064009 0.14733408 0.12095229 0.00015139626 -0.37371442 0.27783883 0.033314697
enzymes -0.02096164 0.26547313 -0.3137993 -0.2061119 0.4395359 0.16801025 -0.10628187 -0.3070762 -0.15445793 0.07297359 -0.22318466 0.25923544 0.28373072 0.12153573 0.28300068 0.17932178 -0.012183992 -0.57850415 0.452985 0.074035496
injury -0.018504899 0.13379842 -0.15771537 -0.09409434 0.20504384 0.07424427 -0.03037029 -0.16182248 -0.069964565 0.026854014 -0.104029424 0.15272698 0.11224965 0.05316895 0.12606925 0.09954398 -0.011002408 -0.2623836 0.20057203 0.045493927
mutation -0.028974786 0.23270275 -0.20976456 -0.16734803 0.30317062 0.13584687 -0.06328684 -0.22361025 -0.10864854 0.06483371 -0.15877399 0.18794169 0.21468931 0.092283286 0.21911542 0.16126132 -0.009161546 -0.43977377 0.31495008 0.0542604
oxidase -0.011239653 0.1660208 -0.20669684 -0.13493682 0.2774318 0.096487336 -0.039921235 -0.18528163 -0.06812111 0.041056845 -0.13914675 0.16583735 0.17382891 0.087639265 0.1476533 0.12778488 -0.016790595 -0.37825975 0.2712719 0.020382516
enhances -0.03263162 0.30581555 -0.3466618 -0.22565822 0.4816688 0.15449227 -0.11078897 -0.33730307 -0.15052992 0.08801676 -0.24589595 0.2861752 0.29361618 0.10087595 0.30882597 0.21609063 -0.030932857 -0.6149387 0.5026933 0.038546197
chronic -0.004584289 0.25315154 -0.2408798 -0.1651554 0.3652523 0.15000308 -0.07297676 -0.25569677 -0.100326486 0.04686471 -0.1985707 0.220989 0.22455211 0.082000785 0.22984965 0.15495846 -0.05447679 -0.49956027 0.37924144 0.07143993
isolated 0.009295889 0.26010066 -0.2959614 -0.17967764 0.41327786 0.13369663 -0.063337244 -0.31993875 -0.13325965 0.06467444 -0.17589326 0.27045408 0.25027633 0.08953542 0.28090015 0.19611196 -0.045325037 -0.5568736 0.42119986 0.041484006
administration 0.010663342 0.24930522 -0.24108817 -0.13554445 0.36096236 0.1158031 -0.058648534 -0.2729442 -0.13378474 0.08306726 -0.18056375 0.21852116 0.23089117 0.08050763 0.22572787 0.16839015 -0.025180819 -0.46256006 0.35822123 0.06418219
+ -0.020653116 0.18570317 -0.18317156 -0.14015831 0.28972852 0.12676303 -0.079523906 -0.21132952 -0.08989939 0.04973258 -0.13520892 0.17544165 0.17320536 0.07902726 0.17373063 0.1460741 0.0016811469 -0.4157978 0.30212528 0.05053744
protects -0.012750517 0.26601237 -0.24716133 -0.19335951 0.37670514 0.13171409 -0.07115914 -0.27684155 -0.104905225 0.06805666 -0.21035132 0.2489004 0.2650812 0.08986877 0.2702705 0.1574614 -0.026862115 -0.54313195 0.41041717 0.028413499
I 0.004686511 0.2130913 -0.21172978 -0.13469507 0.29259288 0.10471293 -0.053270563 -0.20757046 -0.09055282 0.049107715 -0.114144824 0.16466498 0.18955699 0.06354024 0.16606297 0.11225743 -0.003122503 -0.3751453 0.30543205 0.022912314
structure 0.01765805 0.18567462 -0.18394843 -0.15057154 0.2763594 0.094525285 -0.07566717 -0.21259004 -0.0913628 0.047787853 -0.123869725 0.18717042 0.16933392 0.086408354 0.16100535 0.14563666 -0.036585335 -0.3485705 0.28057042 0.037624132
reduces 0.0015086955 0.34864923 -0.3437997 -0.22932437 0.55276084 0.201386 -0.09632543 -0.35975966 -0.1652985 0.10308365 -0.25722778 0.34349096 0.32547727 0.111081354 0.35505366 0.23167796 -0.040595703 -0.71220714 0.5417493 0.053259436
amino 0.008280777 0.21889985 -0.19818862 -0.11864798 0.30782276 0.110669285 -0.057870794 -0.22787315 -0.0862457 0.03320973 -0.13728127 0.22264944 0.18932454 0.06469656 0.21570136 0.13690685 -0.018142149 -0.39995393 0.30336288 0.031214176
responses -0.007447629 0.28166282 -0.32778606 -0.20528091 0.4512876 0.17374492 -0.103560545 -0.3451873 -0.1358582 0.08354419 -0.22148581 0.26289168 0.280267 0.09056675 0.30415234 0.20281214 -0.057004802 -0.60622394 0.46964228 0.05146256
interactions 0.0041462886 0.2637893 -0.25774464 -0.15193953 0.39928257 0.120777965 -0.09970173 -0.28586203 -0.11067842 0.07097883 -0.18042304 0.25571385 0.25991273 0.092270084 0.23647222 0.17057268 -0.04844337 -0.5288628 0.39923948 0.028254483
or -0.029472522 0.37568086 -0.36671567 -0.265919 0.5821604 0.19523558 -0.12982894 -0.38788265 -0.18986604 0.1091383 -0.2577348 0.34408957 0.3223219 0.12562571 0.37080643 0.27190426 -0.04523992 -0.7425067 0.55293465 0.08353641
transcription -0.012602266 0.2622308 -0.27476868 -0.1869709 0.35237217 0.11888162 -0.0611948 -0.2714311 -0.098669134 0.077405974 -0.19623135 0.22486693 0.22616534 0.07100582 0.24009979 0.18384355 -0.023347972 -0.48890224 0.3748172 0.046012506
but 0.0048771333 0.30758584 -0.3003907 -0.21909599 0.48236346 0.18043473 -0.07694753 -0.3351556 -0.16746408 0.10108665 -0.22655934 0.30255312 0.29506275 0.11986777 0.31590292 0.2039773 -0.048914455 -0.6453344 0.4531787 0.053228777
development -0.008704115 0.22208929 -0.2271907 -0.15836821 0.36964327 0.10219973 -0.06064513 -0.2472654 -0.106592536 0.0638207 -0.17206578 0.19310063 0.19226623 0.07681814 0.21646681 0.17494082 -0.011283367 -0.4637999 0.37095445 0.03334773
C 0.014400558 0.25856638 -0.25484672 -0.18457215 0.35013098 0.14414215 -0.0762148 -0.2710998 -0.118555665 0.07539911 -0.16686717 0.2249279 0.24040659 0.07370629 0.23833211 0.15924595 -0.04506257 -0.46972457 0.3682151 0.05509067
allosteric -0.021904448 0.23890251 -0.25618157 -0.16888475 0.38114825 0.12081097 -0.101299964 -0.2890449 -0.1043056 0.07666268 -0.17382032 0.25325698 0.2174851 0.11825811 0.23921299 0.15296216 -0.04356305 -0.50908875 0.38165706 0.05146094
complex -0.024010107 0.16071007 -0.15997118 -0.09447939 0.24746312 0.09265204 -0.06171526 -0.17226309 -0.07767015 0.05419342 -0.12273923 0.14555366 0.13801312 0.08188313 0.12882964 0.12645762 -0.017517751 -0.3339879 0.24817902 0.052541755
inhibitory -0.019680563 0.20115156 -0.19024538 -0.134466 0.28405884 0.1066606 -0.06775596 -0.22549714 -0.10407067 0.06590407 -0.16109353 0.20395009 0.17366713 0.094620995 0.18501614 0.14743316 -0.00813731 -0.41392642 0.3173357 0.016463727
profile -0.024508249 0.16962343 -0.1956595 -0.10539267 0.25976318 0.10827827 -0.054836962 -0.18741399 -0.08109034 0.06897988 -0.1419092 0.14475092 0.16387486 0.0892276 0.15468575 0.123323254 -0.016818449 -0.35364452 0.27603868 0.059975415
Pharmacological -0.009402814 0.14074022 -0.14986555 -0.09239547 0.23020673 0.065681145 -0.032966584 -0.16759643 -0.093359 0.035913665 -0.12338931 0.15377206 0.13479804 0.032998987 0.15892042 0.11756769 -0.006070998 -0.2824502 0.23405549 0.019071952
monoamine -0.013560484 0.18520936 -0.19916803 -0.11784619 0.3067611 0.101693675 -0.066474035 -0.22474678 -0.084832296 0.02751703 -0.1475758 0.18396217 0.18812697 0.061844524 0.19789964 0.12083061 -0.0030009383 -0.40784287 0.30234626 0.03410202
oxide -0.0052222423 0.26141936 -0.24623418 -0.1664977 0.36769795 0.13036837 -0.07702844 -0.2657276 -0.11862788 0.06354556 -0.19372727 0.22183235 0.21878125 0.10957292 0.24405023 0.14389849 -0.005885376 -0.44908783 0.3873854 0.025284765
pharmacology -0.006030144 0.182299 -0.17796485 -0.13384038 0.2741899 0.10848442 -0.07458583 -0.1966219 -0.057841208 0.033586867 -0.10513379 0.1820995 0.17306775 0.040366963 0.16283187 0.113961115 -0.04084855 -0.35010332 0.27309993 0.016077658
Comparison 0.016856799 0.13116945 -0.1340233 -0.09651292 0.19329731 0.06228326 -0.019466355 -0.1403031 -0.08181793 0.038392298 -0.07842761 0.1265865 0.098676905 0.04847925 0.13254865 0.1011758 0.002181083 -0.24798018 0.19156238 0.016583921
recombinant -0.005125892 0.22172722 -0.19670382 -0.1565161 0.30481958 0.13179243 -0.07519005 -0.2024675 -0.0815101 0.06350439 -0.17018086 0.17819491 0.20121153 0.07261814 0.18224388 0.12685016 -0.0219774 -0.43045506 0.31339228 0.031768523
Molecular -0.021430252 0.16783372 -0.18004641 -0.11561485 0.24477708 0.089663774 -0.033622626 -0.17213617 -0.06562446 0.022207486 -0.09874413 0.13624047 0.14438564 0.08608476 0.14667095 0.124772295 -0.008849811 -0.33683497 0.25202388 0.05541134
domain 0.009273797 0.30779254 -0.2713953 -0.1874649 0.4180431 0.1410475 -0.09284065 -0.3189902 -0.1511848 0.08902632 -0.22564197 0.28230208 0.25137883 0.09359879 0.26047632 0.18423845 -0.053049784 -0.5519635 0.45299107 0.07527777
agonists 0.00615697 0.21912025 -0.23490036 -0.15619445 0.3096387 0.13987991 -0.09326066 -0.23971748 -0.10476676 0.07714579 -0.18087718 0.22504431 0.18690884 0.089004256 0.22438118 0.1606288 -0.034604106 -0.43472877 0.35497963 0.049338106
norepinephrine 0.011640243 0.070305504 -0.115024626 -0.038636677 0.14591232 0.061367963 -0.037713014 -0.09329673 -0.049657162 0.039107073 -0.08361714 0.10722968 0.07639281 0.042493794 0.0797609 0.08522699 -0.024491819 -0.16671759 0.16505595 0.03881188
Human -0.028662888 0.31457448 -0.33833072 -0.19665118 0.49325165 0.19421825 -0.101657465 -0.3466153 -0.14633279 0.064478345 -0.20210086 0.31840074 0.31086138 0.09690062 0.28251076 0.2060488 -0.04036627 -0.65168285 0.46689925 0.05372206
antioxidant 0.005496372 0.22980516 -0.21423736 -0.15948986 0.30846366 0.13319267 -0.044596244 -0.22069727 -0.120860316 0.03452733 -0.13759819 0.19131158 0.17685139 0.082373336 0.21874154 0.1259654 -0.006919041 -0.43233326 0.29711425 0.023666242
inhibit 0.0076504764 0.35328647 -0.3276617 -0.24826531 0.5186964 0.1776914 -0.09364109 -0.33161667 -0.1440305 0.079745345 -0.24580711 0.32967892 0.2941445 0.142293 0.3003737 0.2502732 -0.0397078 -0.676239 0.52245164 0.06292599
analogues -0.025592541 0.15283631 -0.18959217 -0.09127305 0.23324107 0.1010237 -0.034422856 -0.19297466 -0.065780155 0.06428937 -0.12738904 0.15256336 0.16309755 0.05738901 0.15146475 0.092726946 -0.03210797 -0.3562569 0.25429657 0.049782608
neurons -0.0064873253 0.23773926 -0.24609227 -0.16201746 0.33797073 0.104086556 -0.05030389 -0.23948601 -0.09721912 0.059578713 -0.15995993 0.21182783 0.21226956 0.07214212 0.23765963 0.13412042 -0.030219031 -0.45062307 0.3227502 0.059125822
acetylcholinesterase -0.011605694 0.12793176 -0.13207458 -0.07007343 0.18692073 0.064446285 -0.049882982 -0.13596205 -0.08345598 0.04880012 -0.08897805 0.11889456 0.12305998 0.058019288 0.13743667 0.076906435 -0.0007017364 -0.25895473 0.22978638 0.051350825
bone 0.011433417 0.24717297 -0.2834122 -0.14500502 0.35494396 0.12848961 -0.06990555 -0.26223165 -0.13733436 0.06749881 -0.1781482 0.24408588 0.25894055 0.108595185 0.23382473 0.15734607 -0.030956542 -0.52226543 0.4113476 0.046989
formation -0.030880896 0.27462408 -0.28384444 -0.17019777 0.4102543 0.14157152 -0.07862358 -0.3036248 -0.13016015 0.088652715 -0.17443654 0.26473302 0.25839427 0.10616219 0.22619814 0.19113432 -0.0145869665 -0.54304594 0.42162594 0.026283387
Evaluation 0.0050599263 0.09988823 -0.115368254 -0.050930545 0.16232796 0.040841635 -0.038097948 -0.102919415 -0.035619687 0.041293856 -0.09966166 0.12263494 0.098298445 0.06152746 0.12063323 0.09659735 8.622247e-06 -0.1963941 0.15153497 0.023498807
nitric -0.012940138 0.26126772 -0.24643962 -0.17530623 0.35809964 0.1114062 -0.07583037 -0.2517645 -0.08675584 0.07355531 -0.14869022 0.23965335 0.21761784 0.09461343 0.2103793 0.14349504 -0.03508029 -0.46441817 0.37954846 0.03869612
suppression -0.018762285 0.21287645 -0.20953444 -0.14992101 0.29500353 0.093608014 -0.054420378 -0.21777886 -0.08375196 0.06475292 -0.13556495 0.20642759 0.18521509 0.07963645 0.16086829 0.1339849 -0.029962633 -0.39855817 0.27739495 0.03325803
serum -0.0034415505 0.30584905 -0.26810095 -0.17279683 0.42552102 0.1431857 -0.08563857 -0.31152093 -0.12353329 0.05869251 -0.21816412 0.2608362 0.2563481 0.09081484 0.28031975 0.19549952 -0.04783266 -0.54333127 0.45016158 0.030363947
humans -0.025862582 0.14625342 -0.16251138 -0.08917035 0.22168018 0.07739055 -0.06448273 -0.13846391 -0.054352235 0.02086636 -0.12291158 0.14546986 0.15246284 0.046606414 0.15811172 0.11310555 -0.037324205 -0.26043463 0.20076713 0.003983809
-- -0.0059250277 0.3173014 -0.32119396 -0.22467257 0.4871288 0.16363376 -0.11290206 -0.36157906 -0.15748458 0.07153445 -0.20938423 0.3177556 0.32129502 0.13484687 0.32655248 0.24406663 -0.017883321 -0.6206865 0.5107654 0.0653245
enzyme -0.013748024 0.24782002 -0.21184008 -0.14878559 0.3504678 0.12602422 -0.062954284 -0.25729063 -0.09864354 0.03655792 -0.13943188 0.22590955 0.21739846 0.09350254 0.20084226 0.1788741 -0.008484246 -0.47260737 0.35364196 0.024714744
into 0.007661228 0.3039486 -0.3354493 -0.18169884 0.47209975 0.18451223 -0.07109863 -0.32700688 -0.15436018 0.08127588 -0.2294311 0.3083668 0.2734939 0.10096463 0.26820287 0.19306917 -0.05042325 -0.611145 0.46885327 0.07962098
induction -0.014378636 0.10305648 -0.13125788 -0.089993566 0.18916179 0.0669414 -0.022195317 -0.12599726 -0.035899628 0.033193797 -0.05334084 0.12293388 0.11251972 0.018038832 0.10049829 0.078928955 0.005443981 -0.2271728 0.17192839 0.0026856198
death -0.008272079 0.11933013 -0.15687479 -0.10374948 0.22159283 0.053738803 -0.06040185 -0.1401341 -0.046393894 0.040704895 -0.119772136 0.12795061 0.13136542 0.05858706 0.120502464 0.08037455 -0.005407997 -0.25869504 0.22029746 0.02633181
pathways -0.010827264 0.16648307 -0.16766092 -0.08442054 0.22806367 0.09479611 -0.023452457 -0.166586 -0.0636627 0.016865075 -0.12628743 0.13512161 0.13609675 0.05794932 0.13808897 0.08459724 -0.02574987 -0.32375443 0.25886774 0.02175086
two -0.017118298 0.23479329 -0.23728563 -0.14239395 0.34252542 0.113009095 -0.05559019 -0.24177928 -0.13117689 0.054650355 -0.16553314 0.22882824 0.18695503 0.099563494 0.19253789 0.14725903 -0.030949628 -0.47737005 0.34063455 0.053084526
3 -0.010330468 0.18588954 -0.20182201 -0.14713132 0.25285485 0.08052001 -0.035028163 -0.2062671 -0.06865786 0.026698861 -0.12854308 0.18887898 0.193142 0.0748341 0.1851762 0.13452645 -0.035287663 -0.39769542 0.27897865 0.03666311
compounds 0.0030079249 0.23809746 -0.22013324 -0.14015524 0.3583698 0.15330797 -0.054250788 -0.2605707 -0.120426096 0.079860464 -0.17787781 0.20907903 0.22440562 0.11367492 0.21041055 0.18061492 -0.0064603663 -0.5027993 0.35056686 0.053922832
prostate 0.011162292 0.09651844 -0.13076636 -0.0868843 0.14946567 0.048577227 -0.04310622 -0.13566385 -0.057235837 0.030925239 -0.054479115 0.1206756 0.08666463 0.06546644 0.1021354 0.070711136 -0.008653683 -0.20579544 0.14382464 0.04348616
Differential 0.003036265 0.13101502 -0.14264396 -0.084228404 0.20962036 0.05931542 -0.039141737 -0.16974036 -0.058629513 0.050089203 -0.078474425 0.15162612 0.112782285 0.043171387 0.13854742 0.092228785 -0.011739963 -0.30745354 0.2433804 0.035573374
modulates -0.00519321 0.2133847 -0.23396511 -0.15799014 0.36744896 0.14317544 -0.052758496 -0.26853642 -0.10465094 0.06993621 -0.17897598 0.23235783 0.22935313 0.0644809 0.22106501 0.16543396 -0.053084694 -0.48724058 0.33929482 0.067985386
therapeutic 0.020208314 0.20988567 -0.17723672 -0.10075576 0.2622963 0.101392366 -0.06960041 -0.21121189 -0.10769424 0.052643828 -0.11724577 0.16250601 0.15449281 0.06654453 0.15627928 0.12685202 -0.039934017 -0.39181516 0.2623669 0.059236344
suppresses -0.010794663 0.27169746 -0.2511891 -0.19340807 0.36754087 0.1346637 -0.056772884 -0.28894243 -0.13214314 0.08647183 -0.17767537 0.25852123 0.21928601 0.12090904 0.2350464 0.19124891 -0.02484459 -0.5122845 0.381172 0.055623095
healthy -0.029922472 0.17611302 -0.20355198 -0.097816855 0.29343092 0.07590378 -0.04706637 -0.19593407 -0.09614242 0.04828347 -0.13410443 0.15050524 0.1745484 0.064750835 0.17648049 0.11791008 -0.029475017 -0.36635968 0.26049513 0.057909824
cortex -0.0152322715 0.2235771 -0.24969693 -0.15825522 0.3241654 0.11314176 -0.047089066 -0.23150735 -0.103654146 0.08011513 -0.14728244 0.22150543 0.21284443 0.077371545 0.19049233 0.13609022 -0.037783876 -0.45808014 0.35486844 0.032664616
implications 0.006532022 0.13289648 -0.10411329 -0.08145424 0.19298647 0.06181165 -0.05982443 -0.11620965 -0.07252728 0.032661956 -0.09622191 0.1343866 0.09638682 0.029236943 0.095106974 0.09748206 -0.00792551 -0.24515164 0.18569632 0.015512718
increase -0.009316625 0.25332537 -0.30244648 -0.20345974 0.43294585 0.16428715 -0.08745262 -0.31802565 -0.13093819 0.053072397 -0.18988112 0.26536798 0.26239622 0.0908993 0.28243712 0.17620033 -0.042356744 -0.57311237 0.43087637 0.0325737
mRNA -0.0021858206 0.2743142 -0.26030907 -0.19512606 0.3969804 0.13019438 -0.08856828 -0.2628352 -0.1482137 0.081790775 -0.1954067 0.25060725 0.26876974 0.12049365 0.24308363 0.18861213 -0.011761995 -0.5254269 0.42928645 0.06453572
vascular -0.027933605 0.25066572 -0.23773985 -0.17642364 0.32187572 0.13234392 -0.06333643 -0.24047747 -0.09438047 0.06417684 -0.16267903 0.22472496 0.20535964 0.08187206 0.2360627 0.17624721 -0.03656322 -0.43271667 0.32645768 0.01978722
active -0.014948438 0.27151468 -0.26676837 -0.20724452 0.40418154 0.13869989 -0.082863465 -0.2776481 -0.1093432 0.0709647 -0.20195168 0.24627751 0.25984657 0.09288464 0.27151734 0.21251625 -0.010034886 -0.5828102 0.41875583 0.05705485
risk 0.016219927 0.16821325 -0.18497173 -0.13576557 0.26563334 0.10969207 -0.063451365 -0.20657003 -0.075390816 0.059357703 -0.1456499 0.19179061 0.1798684 0.07243764 0.20126769 0.14193463 -0.029636214 -0.37054887 0.27496147 0.053147335
cardiac 0.0023096974 0.17699425 -0.17486347 -0.13309802 0.28322232 0.10610996 -0.06651602 -0.22881861 -0.100271404 0.03242232 -0.1358177 0.20593677 0.15420324 0.05210363 0.18391508 0.13654137 -0.0054800017 -0.38695243 0.31310976 0.060931142
cytochrome -0.02870755 0.19123217 -0.2189738 -0.16098951 0.3024704 0.12809828 -0.08212338 -0.22916643 -0.12463172 0.07679999 -0.16266184 0.2012126 0.2229891 0.09503829 0.19562119 0.15135653 -0.04797471 -0.431141 0.30640635 0.044037174
weight -0.016387535 0.23045054 -0.21817063 -0.15256861 0.30894753 0.13681608 -0.048581086 -0.21559921 -0.101488695 0.059943736 -0.14862673 0.21507613 0.19366747 0.08357795 0.20215788 0.16681398 -0.028862271 -0.3951978 0.32668895 0.051812053
peptide -0.02902792 0.29034725 -0.29512805 -0.15647222 0.41829285 0.14761268 -0.09486085 -0.2850413 -0.14764443 0.05518881 -0.20731032 0.2696993 0.2638055 0.086852744 0.26919556 0.18567416 -0.017045224 -0.538389 0.39180878 0.05997314
cycle -0.009314557 0.084110975 -0.098859325 -0.061280813 0.1816287 0.074997365 -0.03312749 -0.110215366 -0.033954944 0.023784103 -0.100674726 0.09067505 0.10965181 0.041579135 0.09489225 0.058819458 -0.027123585 -0.19005577 0.1541406 0.017485952
differentiation -0.02798724 0.19443016 -0.21495155 -0.133748 0.30762893 0.08860014 -0.054197732 -0.22161674 -0.07310522 0.045536656 -0.1489148 0.17368482 0.1780423 0.0645675 0.19054203 0.12850067 -0.035170093 -0.40667126 0.30485082 0.03991892
4 -0.010964299 0.16639349 -0.14934081 -0.091738775 0.21042727 0.083423935 -0.044654362 -0.18135118 -0.052011825 0.042735584 -0.10415858 0.1470391 0.12432692 0.045336593 0.16349083 0.077953495 -0.0058956356 -0.31999397 0.22047754 0.020082174
transport -0.016702395 0.21690995 -0.23767997 -0.16621481 0.35158372 0.13121614 -0.054371513 -0.2670324 -0.08982239 0.066540346 -0.16173412 0.20655651 0.20347193 0.09358511 0.23961706 0.17555434 -0.010920186 -0.4364662 0.32391575 0.04028968
specific 0.013873208 0.18692696 -0.21406242 -0.11911398 0.28090277 0.13296649 -0.085863166 -0.22021012 -0.11852219 0.072506204 -0.15917453 0.16847505 0.20469908 0.072837874 0.17262883 0.15344302 -0.033646736 -0.37504327 0.2831332 0.027646964
diabetic -0.0077329557 0.17439304 -0.19926247 -0.12723865 0.2361881 0.108959 -0.062159136 -0.18092732 -0.10058199 0.04714294 -0.0967628 0.15702397 0.16420059 0.069469884 0.17645131 0.12400008 -0.005365227 -0.35173124 0.27955255 0.017014842
agent -0.028440768 0.20072885 -0.1989105 -0.14028455 0.3029209 0.08529693 -0.065812066 -0.2278579 -0.11613755 0.0304681 -0.1401087 0.2070537 0.16730559 0.08903201 0.19411653 0.11493583 -0.020699482 -0.3970137 0.315751 0.022646014
Discovery -0.00047944445 0.12789315 -0.11273041 -0.08062715 0.19886458 0.09131681 -0.061718978 -0.11738912 -0.045137547 0.037998445 -0.06755943 0.11613587 0.11679379 0.03219717 0.11591379 0.09156304 -0.0126091875 -0.24227089 0.21942937 0.03415487
murine 0.0056164623 0.197481 -0.2150831 -0.14781412 0.30575716 0.11489086 -0.08210672 -0.22434942 -0.11873395 0.044489436 -0.16887814 0.21968628 0.18438469 0.06391155 0.20047736 0.1535239 -0.04638198 -0.4233137 0.32268998 0.024929443
5-HT 0.016579503 0.10123957 -0.12109598 -0.06698461 0.14157028 0.039152317 -0.016064115 -0.10722597 -0.026385032 0.04398619 -0.09689173 0.12013168 0.079111025 0.053049505 0.07624725 0.093679756 0.0012553708 -0.18853328 0.15534753 0.020682335
surface -0.015086189 0.22362211 -0.2642609 -0.14391644 0.33148646 0.1343836 -0.08916364 -0.2739695 -0.121494554 0.051632848 -0.16642168 0.23915783 0.24201928 0.07851591 0.21083686 0.14872561 -0.015694244 -0.494691 0.37473798 0.028996272
D 0.006831847 0.07405437 -0.07994214 -0.061414685 0.11158908 0.035523605 -0.0065782927 -0.09678185 -0.0476023 -0.002992084 -0.059151992 0.041289315 0.05738106 0.048529066 0.08221115 0.04415169 -0.027110761 -0.1578283 0.09321018 -0.0046894066
synthetase -0.0015984463 0.21558154 -0.21202949 -0.13842805 0.3293092 0.12987658 -0.07455951 -0.21539246 -0.114489056 0.058419943 -0.13477814 0.18281737 0.21023968 0.06928939 0.20660439 0.13218895 -0.034952767 -0.4055068 0.32151482 0.050768893
sites 0.006106272 0.16446175 -0.16097645 -0.12379535 0.25306424 0.066946015 -0.039532773 -0.15392616 -0.055562854 0.05023536 -0.1288307 0.16256267 0.15908077 0.08560923 0.14971027 0.108306825 -0.025699211 -0.34483948 0.24172208 0.045982968
Selective -0.014180147 0.21287541 -0.18140824 -0.14189894 0.27859104 0.079501934 -0.036335677 -0.18577914 -0.11124028 0.04181956 -0.13192898 0.16653733 0.15290435 0.08602076 0.17082502 0.14478026 -0.0011651627 -0.38748536 0.31017944 0.020625595
regulatory 0.0074504204 0.20882878 -0.16614248 -0.13830039 0.29198742 0.0886097 -0.040003877 -0.18880926 -0.10213438 0.029251631 -0.14783947 0.18051164 0.19591616 0.048090655 0.16340739 0.114757806 -0.014053526 -0.3876836 0.26233697 0.022351047
heart -0.020283699 0.15078469 -0.13837902 -0.071133964 0.2049159 0.08802178 -0.03788247 -0.13583454 -0.06769585 0.03356137 -0.10696154 0.12560558 0.13354847 0.052032977 0.14090203 0.11885358 -0.013900686 -0.27072284 0.20603043 0.036936507
reductase 0.005325709 0.2308596 -0.20712632 -0.13538845 0.33961716 0.11964345 -0.08841069 -0.26077273 -0.12243212 0.038744055 -0.18166937 0.23355322 0.22707908 0.08753883 0.20214202 0.1527333 -0.046038494 -0.456365 0.33487153 0.028665783
improves -0.023953775 0.26956308 -0.30172995 -0.17890713 0.41165882 0.16651808 -0.09242257 -0.31001264 -0.15252061 0.09518397 -0.20909886 0.2603225 0.26985645 0.10274121 0.28882173 0.20661132 -0.048379716 -0.5805517 0.4634028 0.05270228
regulates -0.00078924745 0.28058258 -0.26711467 -0.1681864 0.38560173 0.12446152 -0.101573616 -0.28139734 -0.13477296 0.050686594 -0.21260226 0.22898377 0.25639603 0.075326115 0.27518016 0.16752538 -0.045870874 -0.5259534 0.38532233 0.057623196
cholesterol -0.012411382 0.20275436 -0.176584 -0.14762193 0.25773063 0.10843844 -0.04900746 -0.21420664 -0.08514949 0.04717638 -0.11760117 0.15341724 0.18426563 0.05316233 0.19486916 0.12311374 -0.018067636 -0.35693875 0.30880156 0.0282645
dehydrogenase -0.004184151 0.18452929 -0.2004885 -0.11519537 0.27624607 0.07749924 -0.058129966 -0.18066737 -0.07916244 0.047480773 -0.13647865 0.19029872 0.18755381 0.06891896 0.17899784 0.11211133 0.001513072 -0.3350693 0.26838621 0.0106526315
Role -0.02600781 0.12075086 -0.11607762 -0.07569682 0.19147187 0.07951883 -0.048326083 -0.14231049 -0.0792527 0.008262334 -0.10406004 0.14312772 0.09965584 0.067346565 0.11683483 0.06537084 0.00011958746 -0.26447564 0.18157254 0.012349802
lipid -0.020119764 0.18640162 -0.19803391 -0.12082611 0.27966687 0.087472476 -0.031520847 -0.21931715 -0.07061859 0.054304752 -0.1330886 0.18532822 0.1919409 0.07539335 0.19112995 0.1295432 -0.029051032 -0.37670487 0.29354668 0.026646389
fatty -0.011576805 0.19737895 -0.17994055 -0.1317868 0.31380466 0.12291037 -0.07718285 -0.20645788 -0.07606703 0.0398136 -0.16722606 0.19511148 0.18922837 0.058991853 0.17410293 0.14108717 -0.012686949 -0.3778551 0.30197972 0.03557291
carcinoma 0.010773211 0.13757165 -0.14844124 -0.06307802 0.17528014 0.07369846 -0.05426399 -0.12894917 -0.07356906 0.048591454 -0.06685101 0.11021694 0.09750334 0.038296573 0.11189976 0.084308535 -0.03639773 -0.2342605 0.20520666 0.0028833025
anticancer -0.016329484 0.16323328 -0.14459632 -0.080209434 0.20265625 0.09480238 -0.03408365 -0.12805207 -0.0683845 0.010726662 -0.12674685 0.131953 0.14158471 0.06402394 0.14529827 0.11239739 -0.007327606 -0.26720008 0.1984829 0.050899927
T 0.003406791 0.149785 -0.17810202 -0.13455762 0.23404129 0.069498815 -0.034872085 -0.1844306 -0.10046184 0.042891245 -0.111461 0.13768922 0.1306288 0.053067163 0.1442166 0.12821272 0.003979452 -0.34668627 0.26849338 0.0334345
Receptor -0.0118684685 0.27708697 -0.24493846 -0.18373239 0.40169004 0.13651837 -0.10142555 -0.2812076 -0.117143646 0.04452015 -0.20755804 0.23929626 0.21843411 0.07187801 0.26535136 0.19013906 -0.023702018 -0.52749974 0.4121128 0.0345584
dysfunction -0.0144191 0.15017453 -0.17454702 -0.08163055 0.23783676 0.09452973 -0.058735356 -0.16989174 -0.07858346 0.027453275 -0.105103336 0.12738109 0.1479142 0.037271474 0.15629677 0.10713415 -0.025411867 -0.29710653 0.22779217 0.02428145
phosphorylation -0.029581828 0.20495848 -0.22037521 -0.15665574 0.35172585 0.14712197 -0.074122 -0.24895768 -0.08710857 0.035112865 -0.15927562 0.22107032 0.20832916 0.09849944 0.22996224 0.14389111 -0.048194654 -0.4347646 0.34873316 0.019600658
proliferation -0.0123500535 0.20213918 -0.22639857 -0.10852031 0.31237873 0.10655037 -0.07381715 -0.21750095 -0.07746078 0.049407676 -0.15447575 0.16762987 0.19370389 0.057520643 0.18299834 0.14233047 -0.015781637 -0.40254375 0.28923044 0.051213972
glucose 0.0038874915 0.32245293 -0.34674996 -0.24224608 0.5068275 0.19341129 -0.10939802 -0.33257416 -0.14949983 0.077595346 -0.21916482 0.33250472 0.2797635 0.14085312 0.31883445 0.21139276 -0.049949918 -0.65098053 0.49188697 0.07041091
neuronal 0.010539345 0.1846662 -0.2096255 -0.14508756 0.3198339 0.12687504 -0.0831274 -0.20840673 -0.08229267 0.07470018 -0.11722698 0.19824903 0.1870316 0.07838212 0.21308687 0.13667229 -0.011036848 -0.37179548 0.2845189 0.014487822
increases -0.015799645 0.21445768 -0.2624466 -0.1531876 0.36687475 0.10982124 -0.06333723 -0.26097825 -0.08876046 0.036295693 -0.16026303 0.21358055 0.20526026 0.08703415 0.22109395 0.14519228 -0.040509947 -0.46209943 0.35163814 0.054678045
Design 0.010634246 0.09415084 -0.051394284 -0.040424224 0.110499635 0.014141629 -0.01314431 -0.07762319 -0.02290311 0.011853744 -0.056126922 0.06704056 0.09003124 0.029585335 0.046946123 0.042357832 0.008804136 -0.15053624 0.11406388 0.035089005
site -0.023409054 0.18890403 -0.20557685 -0.13358147 0.31223822 0.10590797 -0.052104548 -0.21521853 -0.112397075 0.036627114 -0.14474782 0.17019227 0.19058767 0.08478469 0.15523657 0.10778694 -0.032626696 -0.40695745 0.27753454 0.060248494
Binding -0.0046317293 0.13866259 -0.11613531 -0.09765256 0.22574961 0.049088694 -0.05524647 -0.15408516 -0.07076241 0.056914773 -0.09658605 0.13837814 0.1413083 0.07425502 0.10474836 0.09588115 -0.008497713 -0.27444595 0.21197426 0.043151047
subjects -0.0028508955 0.14357716 -0.12826283 -0.07539816 0.19803593 0.055747427 -0.029493066 -0.11316731 -0.050283097 0.028863152 -0.09281844 0.0997757 0.11916046 0.054874953 0.13051267 0.07725392 -0.03394207 -0.2680229 0.18746877 0.032855246
tissue 0.005536725 0.14928965 -0.15653135 -0.102636695 0.25985122 0.08799357 -0.06648614 -0.14878657 -0.09848701 0.041790143 -0.09077254 0.17069902 0.13802215 0.04924222 0.1684427 0.09885001 -0.009798348 -0.29037365 0.26604268 0.015310241
An -0.009299237 0.17851594 -0.1692605 -0.12292005 0.30609494 0.07919622 -0.049631912 -0.18219031 -0.109377 0.07125067 -0.15128559 0.17571907 0.1560376 0.0670102 0.18164757 0.13799442 -0.029733019 -0.37848645 0.27332354 0.041933052
D2 -0.0028226422 0.13209502 -0.15057588 -0.08650745 0.23707843 0.102695614 -0.056818414 -0.18173443 -0.09837492 0.041645117 -0.12310699 0.14653353 0.15040807 0.032611903 0.1593128 0.12590912 0.003502768 -0.31521815 0.25522113 0.05236166
Protective -0.016613772 0.07645295 -0.07639242 -0.043547682 0.15588386 0.060818445 -0.008897114 -0.07750245 -0.06581439 0.040882614 -0.0606272 0.06640035 0.077001974 0.055649534 0.06941019 0.0846051 -0.035254266 -0.17696652 0.15817003 0.011215471
P450 -0.014337768 0.23789194 -0.20455699 -0.15733464 0.3016234 0.1295047 -0.050156437 -0.20575261 -0.11434278 0.06132671 -0.161397 0.19834082 0.19776893 0.06667575 0.2036577 0.1483424 -0.028274437 -0.41683322 0.32684824 0.030961059
Alzheimer -0.02822018 0.11458362 -0.12654316 -0.10517866 0.18510675 0.07831846 -0.01936221 -0.11226544 -0.033172965 0.034806184 -0.06993038 0.11585167 0.097869486 0.062057544 0.12032975 0.10526789 -0.04003754 -0.25534427 0.18511835 0.007462343
identification 0.017518379 0.09406984 -0.1222874 -0.053893335 0.14728059 0.05478583 -0.043926425 -0.11670051 -0.048339285 0.0059767403 -0.10522116 0.12552334 0.124275215 0.022358742 0.08634307 0.060087413 -0.011991242 -0.22553688 0.15792648 0.010963139
polymorphisms 0.014934528 0.2206042 -0.18680993 -0.14315021 0.2951891 0.11919212 -0.08279394 -0.21422772 -0.109393716 0.07534321 -0.12844905 0.16678514 0.16998534 0.06318998 0.19122337 0.15831594 -0.047695592 -0.39841872 0.30740616 0.05186148
inflammation -0.0062042745 0.1423448 -0.1389265 -0.06324336 0.20806342 0.06699369 -0.052806467 -0.13600585 -0.05552065 0.05009704 -0.07660982 0.13912204 0.12222222 0.025718832 0.11539308 0.11376919 -0.0013736333 -0.28460953 0.20706002 0.034175526
targets 0.011526456 0.19710991 -0.15729119 -0.10268328 0.24273254 0.11388336 -0.03527092 -0.19260211 -0.077020325 0.05187344 -0.13263597 0.18702379 0.15175632 0.07985652 0.15417379 0.10862389 -0.011964094 -0.35691288 0.2919972 0.010811055
polymorphism 0.013986265 0.15153734 -0.14767726 -0.10322702 0.22095458 0.08460507 -0.040668294 -0.15168487 -0.084391735 0.037347622 -0.11878445 0.15436453 0.15856704 0.058680944 0.15921068 0.11593402 -0.029553222 -0.32731882 0.23116188 0.055645313
E -0.019614944 0.18317875 -0.18108861 -0.13714059 0.27192885 0.11158241 -0.07831883 -0.20628141 -0.06716339 0.07215686 -0.13675508 0.19710176 0.19732633 0.049533382 0.16183485 0.15583578 -0.043878112 -0.36791322 0.2763799 0.01949287
prostaglandin -0.0016215409 0.22731012 -0.22369863 -0.16869502 0.35104284 0.14502941 -0.06261561 -0.23009741 -0.12074438 0.06963672 -0.13974859 0.2012635 0.19062644 0.07486004 0.22053805 0.13199145 -0.025740635 -0.44106686 0.37376243 0.061599553
treated 0.0010790981 0.21399929 -0.23525342 -0.12397779 0.32780647 0.13878874 -0.07298733 -0.23758742 -0.11309449 0.05753247 -0.1532385 0.19562483 0.19366688 0.09225635 0.19026165 0.14575642 -0.046763107 -0.42206463 0.3334507 0.032775518
Type 0.010809045 0.30439857 -0.27316254 -0.18124466 0.4130895 0.16656163 -0.085224114 -0.283071 -0.12626682 0.07086968 -0.20113365 0.2532184 0.24251914 0.09409007 0.27627864 0.17874396 -0.017645678 -0.5533097 0.40774512 0.057805527
mutations -0.009799096 0.238144 -0.23391011 -0.13570741 0.33953413 0.13093518 -0.08791957 -0.25540945 -0.08184434 0.07896973 -0.17057936 0.1925402 0.20875207 0.064404204 0.18698514 0.1254132 -0.03986188 -0.42323175 0.3350781 0.04197911
affinity -0.02027794 0.18914153 -0.19352745 -0.15719731 0.33335468 0.1117168 -0.059854876 -0.2405792 -0.08371169 0.0679639 -0.1593026 0.17598851 0.2087682 0.067451365 0.20719752 0.130971 -0.04236258 -0.4036624 0.30461484 0.019815747
design -0.01215413 0.14919503 -0.14481772 -0.106946595 0.23543476 0.0743407 -0.047821973 -0.16858834 -0.072932884 0.06285111 -0.115806095 0.13893245 0.12658472 0.057391737 0.16101159 0.10500171 0.005544497 -0.2999396 0.23619704 0.05274185
genetic -0.001644192 0.13810587 -0.16734004 -0.07575283 0.22142695 0.08799676 -0.04693606 -0.16926356 -0.057013888 0.048115365 -0.0911797 0.115710035 0.11302408 0.032131616 0.12902825 0.07922251 -0.04094194 -0.25983152 0.22619298 0.010319454
based 0.0011344795 0.20325142 -0.2218671 -0.14153294 0.31836367 0.1058739 -0.03924199 -0.20958757 -0.079207174 0.05601647 -0.11614107 0.16964418 0.16065629 0.06335476 0.18814088 0.15639478 -0.020784132 -0.4134579 0.31387055 0.026912663
extract -0.008078995 0.22699487 -0.2118094 -0.13629103 0.3327298 0.109415114 -0.080344416 -0.26655972 -0.12402467 0.07525244 -0.18625101 0.21361347 0.19519109 0.070850044 0.21924767 0.16819243 -0.0016571434 -0.4802767 0.35697928 0.043121602
low -0.024041956 0.1966918 -0.16747318 -0.11036531 0.27365077 0.103254735 -0.07667765 -0.20848215 -0.09046103 0.05109663 -0.12493438 0.1663327 0.174636 0.08582508 0.17922674 0.1369872 -0.0050320444 -0.3596739 0.2858305 0.010994557
transporters -0.006400345 0.14648946 -0.14051591 -0.11241992 0.20000628 0.0643801 -0.03762221 -0.13978423 -0.07382485 0.013560232 -0.09535027 0.12979351 0.13718411 0.06894321 0.15083224 0.10985558 -0.0421907 -0.29247767 0.20273241 0.03059573
different -0.0016030216 0.13062432 -0.16858685 -0.08779078 0.21296719 0.10081485 -0.04173094 -0.17461097 -0.092913866 0.041696407 -0.11938953 0.13818872 0.15534696 0.03276729 0.1654147 0.11608957 -0.043731153 -0.31193975 0.24987616 0.013639106
cyclooxygenase-2 -0.014348499 0.10442822 -0.12511739 -0.054192487 0.16515963 0.06644553 -0.01123364 -0.08518444 -0.027004316 0.009815411 -0.092701845 0.08268385 0.074526 0.049664177 0.09650185 0.07521013 -0.00936917 -0.2139377 0.16372572 0.0020122398
review 0.018249532 0.0844686 -0.04488916 -0.044904858 0.10556064 0.0132497195 -0.018296275 -0.057631448 -0.027047712 -0.011153681 -0.019688204 0.0691003 0.038255427 0.016286964 0.065418355 0.027040416 0.018140974 -0.10506965 0.11129044 0.0046964944
extracellular -0.024645 0.18936922 -0.15794197 -0.13439016 0.25752866 0.06827929 -0.07358251 -0.16792041 -0.07804863 0.031062074 -0.14017531 0.15018283 0.14695124 0.072908446 0.14722717 0.11633134 -0.035801526 -0.33058292 0.26557228 0.01114807
accumulation -0.020374428 0.20868957 -0.22897498 -0.12453284 0.3317233 0.14286618 -0.07802265 -0.22678582 -0.10997985 0.069834605 -0.13688235 0.21425022 0.21898827 0.07209431 0.20404288 0.13635734 -0.030337214 -0.42344904 0.31763157 0.04047745
mitochondrial 0.014100802 0.17472745 -0.20293047 -0.12741168 0.26391557 0.09419745 -0.03925579 -0.1940725 -0.06611952 0.048007887 -0.116477676 0.19960015 0.15863423 0.080741145 0.16343293 0.12768891 -0.0066722822 -0.3947032 0.3048895 0.039598614
membrane -0.024567435 0.16531563 -0.12722577 -0.10069104 0.22997016 0.09093099 -0.06662568 -0.14453512 -0.09249836 0.021081766 -0.12006579 0.15628031 0.12512128 0.047963843 0.1201043 0.08615568 0.0029980713 -0.29909208 0.23447482 0.028884567
peripheral -0.003988284 0.12521568 -0.11378547 -0.08974691 0.19206725 0.057597473 -0.047512114 -0.13275114 -0.08849233 0.02432691 -0.09149394 0.13358237 0.12270059 0.053059224 0.105281234 0.080573164 -0.014862982 -0.24931622 0.21149664 0.021026874
experimental 0.0069648055 0.16912107 -0.15025148 -0.13151354 0.2432356 0.11403533 -0.059207555 -0.16626376 -0.09794422 0.018750107 -0.10255387 0.14231974 0.1623387 0.047074065 0.17543009 0.13446875 0.00033289584 -0.34437984 0.25466958 0.04915661
anhydrase -0.022413095 0.19177954 -0.15681401 -0.10829556 0.24769244 0.09056526 -0.04085366 -0.1638064 -0.058260363 0.067225456 -0.11211 0.17921428 0.14445925 0.083080515 0.17205799 0.14273383 -0.039008718 -0.32202303 0.2810634 0.037813723
antagonism -0.02131281 0.19494638 -0.15981689 -0.114167534 0.26498422 0.084050566 -0.060629424 -0.17372689 -0.10570672 0.06400968 -0.13915023 0.17114013 0.17064072 0.048423856 0.17979513 0.105423294 -0.02505412 -0.34515107 0.26950845 0.022738012
sensitivity 0.013436431 0.15884522 -0.15053195 -0.09019428 0.2335982 0.083017126 -0.044457808 -0.15055743 -0.06903258 0.05549232 -0.105778836 0.1639671 0.16259025 0.07485549 0.15743665 0.09937381 -0.03191244 -0.339809 0.2267447 0.034398474
pancreatic -0.022650762 0.12990646 -0.12935321 -0.077395394 0.21008986 0.050524943 -0.026983675 -0.12425265 -0.055363704 0.014381335 -0.08621726 0.1449057 0.13600877 0.043856096 0.14565797 0.0838177 -0.020228822 -0.2626261 0.1958877 0.00899327
mediates 0.008757487 0.25662574 -0.2652012 -0.20001876 0.4284322 0.1571548 -0.060342554 -0.2783431 -0.1242884 0.053211268 -0.22012068 0.25379828 0.23332143 0.10057271 0.2758325 0.1801259 -0.05136988 -0.5553588 0.4425483 0.0725855
metabolites -0.024596669 0.11101697 -0.14662421 -0.10682897 0.21244736 0.062810525 -0.018759128 -0.13645805 -0.0517124 0.04020454 -0.06977787 0.12397044 0.10828426 0.028302245 0.13808043 0.09005377 0.003538671 -0.23157892 0.18413323 0.03927751
other -0.009636196 0.15951289 -0.17245488 -0.12991838 0.24289572 0.08493506 -0.053189512 -0.18379265 -0.05578699 0.019288607 -0.103180684 0.17037155 0.1607941 0.035866905 0.15024889 0.12089599 -0.042477183 -0.3142356 0.26425764 0.012199649
essential -0.025558395 0.14910397 -0.16349632 -0.10722695 0.23121724 0.07661371 -0.060985092 -0.13454399 -0.04881984 0.040869676 -0.1272429 0.15208974 0.13031162 0.047336318 0.15787354 0.09942563 -0.030216455 -0.30318022 0.23115396 0.010497789
glutathione -0.0020477409 0.23009707 -0.23573822 -0.12770931 0.33469218 0.1293234 -0.07169227 -0.23364094 -0.121019065 0.05468826 -0.14491841 0.21305579 0.19589049 0.10157101 0.22605714 0.14947896 -0.030379651 -0.4307873 0.34224826 0.020300165
required -0.023140848 0.15052873 -0.14811029 -0.07409542 0.19579156 0.05353778 -0.06467685 -0.14312398 -0.043632895 0.013978992 -0.107787155 0.10130355 0.12128904 0.058582418 0.13800529 0.06822515 -0.009730383 -0.24735275 0.21416035 0.013059146
chemical -0.024361078 0.30226743 -0.2924788 -0.21208103 0.42194661 0.14110768 -0.10929123 -0.2917143 -0.1381633 0.064716846 -0.23247987 0.28455868 0.28181648 0.11276327 0.26565054 0.20868206 -0.044702392 -0.56853056 0.46938282 0.04369565
acids -0.004069598 0.1896497 -0.16071309 -0.13353482 0.25971442 0.095780484 -0.027469372 -0.19077617 -0.066290766 0.04428074 -0.12701394 0.146266 0.17120597 0.06830456 0.14698857 0.105721906 -0.025609849 -0.3539198 0.25331435 0.017446013
block -0.005370272 0.27357602 -0.2591855 -0.18173386 0.3930963 0.13093893 -0.08889239 -0.2800865 -0.1346339 0.082756795 -0.18991922 0.22819567 0.21995005 0.116954334 0.23668694 0.16616245 -0.018110331 -0.52147895 0.4188131 0.037067372
Structural -0.011836003 0.11508709 -0.120667845 -0.09394744 0.22802429 0.09335458 -0.039268035 -0.15384182 -0.051167022 0.041203313 -0.07703397 0.10755099 0.13395873 0.052435383 0.14208715 0.1172691 -0.023885105 -0.27402997 0.22423989 0.050618716
structural -0.02623292 0.09829232 -0.106324814 -0.06647127 0.14398216 0.0518311 -0.042439006 -0.11087886 -0.058455355 0.045981307 -0.08733035 0.070667826 0.08776391 0.04856898 0.09685871 0.076684736 -0.033592492 -0.20098253 0.13605109 0.026288053
relationship 0.018502738 0.14256616 -0.16133453 -0.115589246 0.24151038 0.10436542 -0.033568412 -0.15082428 -0.082662426 0.039024953 -0.09932109 0.12603025 0.14899637 0.049889848 0.15830754 0.080124944 -0.032458317 -0.2888995 0.23503287 0.04491828
assessment -0.024748247 0.1729289 -0.15580972 -0.09604974 0.22376943 0.10973119 -0.032704234 -0.15397072 -0.06931436 0.032288343 -0.10483797 0.17899172 0.14370695 0.048858248 0.14526498 0.12314658 -0.018463228 -0.32832712 0.25505963 0.05388295
Activation 0.017252572 0.13661042 -0.12679733 -0.10053574 0.15671644 0.07658747 -0.01455323 -0.13422567 -0.050886583 0.008052651 -0.060154997 0.10929826 0.10494774 0.034175865 0.104192294 0.07766267 -0.028787378 -0.21404345 0.16483285 0.0332753
gastric 0.018668123 0.08992337 -0.09919789 -0.073250525 0.13355362 0.07272728 -0.020180427 -0.11593635 -0.06430865 0.046515293 -0.040807605 0.09022794 0.075851165 0.05221317 0.07787366 0.049031287 -0.007302381 -0.2084786 0.16156779 0.018133828
Cells -0.020004408 0.19665352 -0.18557414 -0.14455126 0.3080477 0.105478086 -0.05061973 -0.20099284 -0.08658414 0.029827312 -0.16861354 0.20012781 0.19208948 0.08533491 0.20909587 0.15246755 -0.022158943 -0.40831336 0.3101428 0.020813756
Protein 0.008419118 0.2778195 -0.26347998 -0.16127335 0.40703496 0.14826353 -0.06335721 -0.24983293 -0.13398483 0.08620398 -0.16564916 0.25593802 0.24556419 0.106001966 0.21802047 0.18396255 -0.052224856 -0.5192328 0.4168339 0.038173087
phase -0.0034653503 0.21296108 -0.19365634 -0.12415204 0.29601032 0.12087307 -0.045299135 -0.18918115 -0.08391683 0.05669581 -0.12310355 0.18600577 0.17478871 0.07127264 0.17080584 0.12689337 -0.04540115 -0.37418023 0.30525598 0.026147066
cardiovascular 0.013599748 0.09360069 -0.116203435 -0.09278062 0.1357171 0.047685493 -0.029338567 -0.10878731 -0.032253537 0.04231269 -0.08397288 0.07320516 0.07553057 0.02191872 0.10366301 0.070607685 -0.036188677 -0.22456165 0.1420434 0.04268378
activator -0.026701668 0.14883968 -0.16840938 -0.11768806 0.24869499 0.08074427 -0.042642806 -0.1579383 -0.053249083 0.042982962 -0.091670915 0.131126 0.15894654 0.03826858 0.16029055 0.098613955 -0.034169417 -0.32266745 0.25029802 0.042042717
platelet -0.0045220973 0.14814958 -0.16107862 -0.112810895 0.20038573 0.06640395 -0.071296774 -0.18001793 -0.047335785 0.044557508 -0.110709876 0.14205235 0.14941233 0.07922736 0.14996408 0.10265799 -0.026148682 -0.30020964 0.23676236 0.010040604
angiotensin 0.008018317 0.16390257 -0.14159241 -0.07888646 0.24787712 0.08788074 -0.024884425 -0.1599128 -0.05667018 0.01541229 -0.09100234 0.13630584 0.12788597 0.0732451 0.118011095 0.08142684 -0.03425973 -0.32143992 0.22379479 0.023150232
profiles -0.0065825908 0.20529373 -0.21250467 -0.11723739 0.2815235 0.12116038 -0.048612278 -0.19665405 -0.07864802 0.039361686 -0.11108989 0.1555312 0.15648559 0.06699357 0.1779596 0.13733439 -0.02737886 -0.3767883 0.28491932 0.044693515
selectivity -0.003347696 0.17090075 -0.15581888 -0.11815755 0.2527278 0.08087126 -0.035171382 -0.18930161 -0.061721653 0.04660256 -0.13280377 0.13012117 0.15263039 0.04701264 0.16322728 0.09079966 -0.012500684 -0.33426073 0.21975982 0.009310087
efficacy -0.016580425 0.10018344 -0.12536427 -0.09225861 0.17793997 0.06798638 -0.041609954 -0.13495514 -0.079308204 0.016558535 -0.059822645 0.08654685 0.08955438 0.04643616 0.12694798 0.08766469 -0.009726532 -0.21077059 0.1592087 0.03520347
modeling 0.013166926 0.09432741 -0.10553621 -0.09644065 0.17770566 0.08483222 -0.04904901 -0.14368138 -0.08094194 0.016114173 -0.1042438 0.10378823 0.12371319 0.051993523 0.09040567 0.08270375 -0.012837472 -0.24446493 0.16484754 0.018346682
pharmacokinetics 0.016131349 0.13913587 -0.13760756 -0.115671225 0.23138826 0.05705036 -0.06330095 -0.13917983 -0.051927682 0.06071783 -0.11747169 0.16282241 0.13957232 0.038312294 0.16157979 0.078953296 -0.03279613 -0.3112151 0.23421967 0.04830106
leukotriene -0.005997341 0.09946878 -0.107660055 -0.045290947 0.1466815 0.07362552 -0.05355066 -0.07477432 -0.053217433 0.028102389 -0.088292696 0.07981936 0.09551055 0.05469344 0.11141321 0.073675364 0.003042741 -0.1623443 0.14241445 -0.004393697
COX-2 -0.016410045 0.14299533 -0.12518024 -0.10667227 0.22449432 0.07303239 -0.047188386 -0.13567859 -0.07920049 0.037996814 -0.09766635 0.14251435 0.11805409 0.044557758 0.1254486 0.0905493 -0.00937221 -0.2753868 0.21820009 0.03265834
kidney -0.02871394 0.1438159 -0.102435715 -0.10276444 0.18924579 0.08935006 -0.019327607 -0.14618126 -0.03266534 0.020702735 -0.07217737 0.093105 0.09951557 0.053745445 0.10641183 0.06390613 -0.038024195 -0.23031712 0.21234918 0.047478355
assay -0.016395027 0.18038496 -0.19804668 -0.12755851 0.271787 0.09275851 -0.06688928 -0.20461245 -0.06771311 0.021906212 -0.13918316 0.18145116 0.18168804 0.056103513 0.16688178 0.11273305 -0.02601762 -0.3415915 0.2583785 0.05456197
failure -0.003493312 0.03764814 -0.05032243 -0.021720752 0.07573909 0.03815857 -0.014226596 -0.07135855 -0.047185823 0.0039637624 -0.05289439 0.059666347 0.07230268 0.029919717 0.06657237 0.050632246 -0.020686323 -0.116470635 0.10469627 0.024055954
combination 0.016922817 0.112014115 -0.14171317 -0.10353284 0.21726435 0.070563436 -0.039703663 -0.1534963 -0.08272609 0.04909903 -0.112941675 0.13554002 0.12157451 0.05399163 0.11657397 0.09223311 -0.017549973 -0.26520613 0.18370861 0.00431381
G -0.021351893 0.17632046 -0.17859447 -0.102823384 0.2520861 0.110927284 -0.07512092 -0.20421876 -0.09597186 0.024397317 -0.1417128 0.1494332 0.13916437 0.0534777 0.16146119 0.12674046 -0.044086985 -0.32978326 0.24966764 0.029873194
ligands -0.00062651205 0.16096352 -0.16443665 -0.1228979 0.22561137 0.10948131 -0.0732192 -0.16459678 -0.057259765 0.036145538 -0.14157805 0.14405344 0.16321708 0.057801176 0.15673403 0.1378517 -0.04073825 -0.31384307 0.2617605 0.019445902
Expression -0.027520249 0.18577465 -0.1612878 -0.12883565 0.24495974 0.082342386 -0.033480357 -0.16531149 -0.063735634 0.0469149 -0.123967886 0.13385229 0.14376418 0.040292513 0.16030952 0.11649312 -0.042330522 -0.30935624 0.2730413 0.04588747
Cell -0.018603556 0.27765393 -0.24621193 -0.16348124 0.41064426 0.14411463 -0.076757126 -0.2641815 -0.13701576 0.07769191 -0.1930835 0.25097564 0.21897088 0.117195 0.26513055 0.16506095 -0.045644563 -0.5116628 0.3873939 0.051263858
cultured -0.022376958 0.18226458 -0.14931452 -0.085957445 0.25664604 0.077505134 -0.023538621 -0.15673864 -0.08282018 0.017382938 -0.12483697 0.17452021 0.16788322 0.068953134 0.1547973 0.08549881 -0.012316881 -0.30506194 0.24439368 0.05404102
glutamate -0.0010758202 0.17917155 -0.23155074 -0.14623332 0.32649192 0.13112158 -0.07952619 -0.22280009 -0.08045977 0.040553637 -0.15802243 0.1678888 0.16201097 0.07139066 0.19812223 0.13142245 -0.04864747 -0.4296237 0.30004883 0.038420107
uptake -0.021153944 0.2018834 -0.15565848 -0.11897267 0.2670574 0.075472 -0.044341426 -0.18771379 -0.10545225 0.025101205 -0.1436379 0.15608363 0.16721675 0.062320895 0.17293552 0.13063419 -0.00016452356 -0.33730334 0.2884091 0.026961004
Cancer 0.0016217538 0.2716634 -0.27257887 -0.17303243 0.4031211 0.13653098 -0.081922054 -0.30126548 -0.11322891 0.043276336 -0.21241558 0.24854362 0.2304808 0.088708 0.26536748 0.1969266 -0.046386585 -0.5131309 0.38026196 0.034924358
skeletal 0.0055243056 0.17834598 -0.16436698 -0.09344588 0.2692453 0.10313615 -0.057353172 -0.17415494 -0.080103844 0.05342681 -0.098701686 0.12837578 0.17485829 0.07162917 0.1549862 0.11918301 0.006294628 -0.32391143 0.24375576 0.040352095
targeting -0.024723642 0.16795045 -0.12923656 -0.09059938 0.1981887 0.06195307 -0.03148365 -0.14957255 -0.08641997 0.041036215 -0.10914546 0.16217913 0.11493309 0.07345026 0.15009126 0.10283608 -0.019624338 -0.2842547 0.2057591 0.009572815
oral -0.0006836547 0.12343578 -0.14624237 -0.08705859 0.2058016 0.061170038 -0.051792167 -0.14758304 -0.08566066 0.015818814 -0.091024354 0.1521664 0.12236102 0.057561386 0.111149214 0.10330898 0.00023162976 -0.26928636 0.1991759 0.02104832
oxytocin 0.0021427313 0.08087123 -0.088916115 -0.060532033 0.14027949 0.047501683 -0.035315573 -0.113155395 -0.0712644 0.045087926 -0.051330537 0.08984844 0.110320225 0.030026102 0.10594233 0.084442616 -0.0059598153 -0.22438735 0.1381396 0.029277362
dual 0.020007161 0.090782404 -0.10763371 -0.09096049 0.16728869 0.033890564 -0.03999329 -0.111901425 -0.026894785 0.038393103 -0.06331378 0.08332913 0.0827846 0.049852077 0.116643175 0.054865435 0.009897063 -0.18845265 0.13673511 0.0077691926
highly 0.0022589602 0.18322921 -0.16180949 -0.10331781 0.2937446 0.11590776 -0.07610274 -0.20135169 -0.06414012 0.04750404 -0.15519966 0.19693384 0.15883024 0.042497896 0.17719966 0.11229254 -0.04572157 -0.3708589 0.265684 0.021510653
cognitive -0.028277028 0.19635394 -0.1931028 -0.14368014 0.29023576 0.0957687 -0.043546014 -0.20471334 -0.11148348 0.069973685 -0.15107387 0.19842425 0.17483638 0.0769336 0.19310115 0.10938924 -0.011440733 -0.39616317 0.27187794 0.05004728
adult -0.012100914 0.10907222 -0.119656086 -0.06378899 0.17747729 0.043369688 -0.023340791 -0.13719597 -0.036664248 0.037512515 -0.08096221 0.12695964 0.11669186 0.028538534 0.09071968 0.09702229 -0.0017026442 -0.24033427 0.18418482 0.0017344772
3H -0.033478707 0.11253653 -0.12388698 -0.08251596 0.16806066 0.060421247 -0.04333045 -0.10886423 -0.039584436 0.008220749 -0.051416934 0.08178213 0.090947375 0.030609574 0.068387166 0.06681868 -0.013432838 -0.22279392 0.12964162 -0.0011584756
does 0.011317267 0.24136542 -0.24107407 -0.1799391 0.3609497 0.14374606 -0.080185674 -0.25014356 -0.10814673 0.038001094 -0.19162625 0.21382706 0.24217086 0.07778007 0.24939261 0.177409 -0.023622744 -0.48375732 0.3741591 0.06597181
opioid -0.016819797 0.13174097 -0.14970675 -0.0751657 0.23574577 0.074737914 -0.043549113 -0.1590589 -0.062472954 0.042950083 -0.0851557 0.14911705 0.1567572 0.040362623 0.15766478 0.08985375 -0.04157266 -0.2844184 0.20113567 0.0049564107
metabolic -0.023199238 0.14457728 -0.15811187 -0.118253425 0.21732874 0.09530925 -0.028296284 -0.13803603 -0.055718873 0.026737308 -0.11539349 0.157548 0.12466218 0.07923221 0.11838678 0.09383395 -0.030226324 -0.30844578 0.20849665 0.029333942
prevents -0.019032236 0.2385379 -0.24039787 -0.18616152 0.36326188 0.111861765 -0.086354576 -0.23696816 -0.10457621 0.08596867 -0.1838494 0.20889242 0.22123545 0.06775601 0.24873419 0.17129165 -0.018853648 -0.49417028 0.38810095 0.06513049
without -0.0046011154 0.22979447 -0.19916837 -0.12703003 0.31559095 0.11291639 -0.040644284 -0.2347627 -0.11060714 0.06989673 -0.12703806 0.18404233 0.1880032 0.088604264 0.17272107 0.16421564 -0.019710142 -0.3912953 0.3100789 0.026251836
vitamin -0.00083089055 0.136584 -0.11883597 -0.07776801 0.15485826 0.05505385 -0.04942925 -0.13895151 -0.027813923 0.0070057954 -0.10483113 0.12540032 0.0884633 0.06492952 0.09290614 0.08274014 -0.0073798145 -0.23754582 0.18505569 0.0038492763
smooth -0.018363882 0.15646656 -0.17389606 -0.11064838 0.24338283 0.09665599 -0.041301236 -0.20053443 -0.061852504 0.04318299 -0.10718801 0.15456446 0.15612786 0.072193965 0.16614424 0.10740862 -0.010141541 -0.31021366 0.22955202 0.035003666
pharmacological 0.009023468 0.15858728 -0.16107452 -0.06804652 0.19037175 0.09621517 -0.061404873 -0.12749304 -0.044361863 0.020482423 -0.10418753 0.12455123 0.114983335 0.05517244 0.10667971 0.09244871 -0.00087245007 -0.26995137 0.21305597 0.030796768
pulmonary 0.0034298757 0.070796534 -0.0964297 -0.031412408 0.11979128 0.02635391 -0.042398464 -0.0976896 -0.022320725 0.00069694937 -0.069375835 0.08595958 0.08229562 0.02296375 0.08933875 0.07294722 -0.0060797012 -0.16426933 0.13922389 0.024033012
approach 0.01329957 0.13409261 -0.15239076 -0.11992355 0.19123657 0.07386495 -0.024520805 -0.1678224 -0.08186954 0.017883977 -0.0874068 0.1197912 0.10831794 0.054718547 0.11156469 0.08167134 -0.035253864 -0.29945153 0.2079998 0.03482924
hypertension -0.024543047 0.10427203 -0.10558531 -0.049857955 0.13606569 0.048776582 -0.026258128 -0.112396255 -0.039000764 0.025466062 -0.075822115 0.08684539 0.09899863 0.055515256 0.07186971 0.042529847 -0.0359151 -0.2011553 0.13596374 0.030438675
tyrosine 0.010021975 0.12972929 -0.081740685 -0.052343614 0.18202296 0.047715925 -0.050494064 -0.129333 -0.036084548 0.020576084 -0.09535945 0.114404574 0.07209603 0.01789616 0.07331924 0.07838869 -0.009484805 -0.21565819 0.15585761 0.013177002
lymphocytes 0.017009813 0.11012115 -0.13379307 -0.095834754 0.15804122 0.057344984 -0.018819219 -0.13237019 -0.030383086 0.05144777 -0.0736373 0.11471234 0.108081385 0.04000605 0.102079175 0.095218316 -0.037036136 -0.23266463 0.18252896 0.03912493
stem -0.024023905 0.10768366 -0.13374211 -0.06671297 0.17243297 0.086565666 -0.041165624 -0.13042243 -0.075532466 0.039852917 -0.058223233 0.09423191 0.123714276 0.04316639 0.13054205 0.07685577 -0.0037079693 -0.21212253 0.17148165 0.042701155
disorder -0.027908124 0.15425599 -0.12311804 -0.09067088 0.19781353 0.076857865 -0.025384648 -0.15264358 -0.048864417 0.053798966 -0.07956552 0.1349114 0.1488464 0.029117178 0.15394029 0.11718931 -0.010375892 -0.253392 0.19470304 0.04700961
case 0.0054442207 0.14873034 -0.12680507 -0.10907776 0.19731525 0.08695385 -0.044764914 -0.13793121 -0.048630286 0.031011337 -0.12581393 0.1184067 0.12680909 0.049814552 0.13950412 0.11263647 -0.008449412 -0.3118019 0.20798601 0.009319646
cyclooxygenase -0.019053465 0.11007196 -0.083176754 -0.05313452 0.13094927 0.07176123 -0.02565961 -0.102554925 -0.039449435 0.042952247 -0.061704915 0.101884305 0.075255774 0.026468756 0.083504334 0.065594144 0.011870322 -0.1708247 0.12836176 0.040367458
be -0.014795034 0.2172369 -0.17690735 -0.14362888 0.2934594 0.1133516 -0.06510546 -0.233729 -0.107318066 0.03991657 -0.13495734 0.17005856 0.15937357 0.060701188 0.17589082 0.14451988 -0.02406665 -0.40272775 0.31935436 0.040916633
cerebral 0.0107848765 0.16542493 -0.17198515 -0.10133493 0.24975258 0.0931092 -0.044406153 -0.17882073 -0.08679842 0.036090784 -0.09737467 0.15826282 0.14101295 0.057849526 0.15060043 0.13090599 -0.022942863 -0.31988922 0.26825404 0.022397146
matrix -0.029160751 0.17777026 -0.18761691 -0.0959506 0.26215965 0.0903404 -0.044743624 -0.16037041 -0.09550524 0.024310958 -0.1404111 0.15050681 0.1396181 0.07560044 0.13829064 0.10161953 -0.008633302 -0.33767048 0.25835502 0.03261684
dependent -0.014751945 0.14339305 -0.14190042 -0.11554187 0.21317936 0.051099956 -0.059870753 -0.12434679 -0.067024544 0.012606787 -0.112463824 0.13684745 0.1266594 0.053704914 0.10510916 0.11885119 -0.020978661 -0.25448805 0.18325934 0.02347534
children 0.015262009 0.1700636 -0.14545584 -0.084174454 0.24733576 0.09422508 -0.07060882 -0.14985092 -0.06464673 0.03427618 -0.12632702 0.14703003 0.16894823 0.052897774 0.15833259 0.10545585 -0.018486425 -0.30554128 0.21603738 0.020461822
lines 0.014922559 0.08328799 -0.05114595 -0.05961796 0.10542225 0.026933974 -0.010236767 -0.058843017 -0.03134687 0.028998781 -0.06270321 0.050242834 0.04322784 0.046930872 0.0397566 0.062050726 0.0073685953 -0.095157966 0.09283848 0.0027224033
Comparative -0.0020754708 0.11339334 -0.07903349 -0.0522254 0.12891638 0.06968428 -0.015247384 -0.101207785 -0.04223386 0.032295834 -0.0907022 0.091436766 0.08827953 0.022674924 0.11267076 0.057252288 -0.0062214537 -0.1619888 0.14918573 -0.0036464913
species -0.023172209 0.1561922 -0.17569274 -0.10256506 0.2639608 0.1072341 -0.059925444 -0.1554935 -0.08700465 0.026463356 -0.1142841 0.14743714 0.15611902 0.074883364 0.17644425 0.10040343 0.0043887137 -0.31484818 0.27404243 0.032561105
Influence 0.0154239135 0.061910246 -0.06099208 -0.058501847 0.09368803 0.028693724 -0.043078728 -0.075701386 -0.044142615 0.042348176 -0.07413533 0.08900576 0.05160348 0.019399773 0.076606594 0.0360385 -0.024025096 -0.16690914 0.12890482 0.0017723163
RNA -0.008273966 0.18737327 -0.16875812 -0.11258341 0.27243805 0.07991064 -0.06714675 -0.17828283 -0.07265196 0.02640884 -0.12489793 0.15244648 0.15847927 0.058905218 0.1704171 0.14437754 -0.031046491 -0.32963547 0.2640294 0.014121027
ligand 0.0023791315 0.13110843 -0.1502244 -0.110150576 0.2164938 0.06513616 -0.06396652 -0.13602512 -0.08269655 0.028271245 -0.13311806 0.14438644 0.15952782 0.07817542 0.15396692 0.11330683 -0.040612873 -0.2826824 0.25296167 0.008753027
ethanol -0.02358042 0.17831115 -0.20060201 -0.12115783 0.26637062 0.09651933 -0.067625836 -0.19380325 -0.09465373 0.027349172 -0.13720667 0.17594978 0.18033043 0.0510223 0.15613247 0.13430433 -0.031757336 -0.38137424 0.2780323 0.01191141
airway 0.00048333936 0.20709465 -0.20286289 -0.11507558 0.27964053 0.08687669 -0.054328494 -0.1925685 -0.103538305 0.04728256 -0.121030845 0.16897844 0.18501714 0.07529718 0.17564228 0.11569565 -0.022232406 -0.41306248 0.2960359 0.0153966835
hippocampal -0.005904069 0.14628652 -0.14802963 -0.09768707 0.19827971 0.10537303 -0.048393913 -0.18352462 -0.05789558 0.03504435 -0.09387693 0.12414581 0.13178764 0.06852495 0.13271599 0.0900216 -0.032308195 -0.2846207 0.21697514 0.02718778
line -0.010624372 0.1117077 -0.112274654 -0.05699954 0.15641451 0.039702903 -0.018108176 -0.13815029 -0.047382925 0.0075701308 -0.10364392 0.08812405 0.12017869 0.068183 0.10697487 0.07470251 0.0018815664 -0.21537593 0.1792162 0.012913633
deficiency 0.013309174 0.12343295 -0.15229324 -0.11187314 0.20011134 0.079685554 -0.021196019 -0.1806508 -0.076136485 0.021751195 -0.10612005 0.13680768 0.11445951 0.037311815 0.11725572 0.10309955 0.00043260976 -0.2737853 0.21137403 0.01898598
nanoparticles -0.0020912809 0.10751452 -0.13488662 -0.113973044 0.19055174 0.08553305 -0.023146875 -0.14489129 -0.03975146 0.04300378 -0.10698004 0.114991486 0.124644965 0.029651701 0.11049413 0.08638193 -0.03851666 -0.23950978 0.20595571 0.03926946
5 -0.017190617 0.18496157 -0.15828992 -0.13001263 0.24032661 0.089125335 -0.05544419 -0.17520244 -0.07200416 0.056628443 -0.14464587 0.14311129 0.13637087 0.06404511 0.15182987 0.104925185 -0.0031915726 -0.3538952 0.28107792 0.050441317
structure-activity -0.025037643 0.13617872 -0.112675294 -0.07954162 0.17791036 0.09356025 -0.023299072 -0.12908217 -0.06470364 0.031049203 -0.09182709 0.13117175 0.12784939 0.047746953 0.123829864 0.095491365 -0.029970516 -0.23575415 0.20625015 0.022229906
direct 0.01649526 0.119166106 -0.096503 -0.08853263 0.13779402 0.07070395 -0.04306487 -0.08256765 -0.040194355 0.031839915 -0.04842761 0.11662308 0.09843096 0.013598584 0.08528268 0.06899515 -0.020496637 -0.21557002 0.17962222 0.008689954
tumors 0.02084164 0.11364703 -0.10256546 -0.0818972 0.15692233 0.06140771 -0.022756552 -0.090082765 -0.06531429 0.044911508 -0.04423343 0.09524362 0.088293776 0.03346187 0.09070919 0.068648376 0.0028858366 -0.16568062 0.11456328 0.031412337
glucocorticoid 0.02022124 0.08909904 -0.09634721 -0.07856456 0.18955052 0.069147095 -0.05867078 -0.11003549 -0.037146606 0.012715627 -0.094632275 0.11026368 0.11456955 0.022152565 0.09644566 0.059955813 -0.035483435 -0.21415545 0.19432051 0.019908657
antipsychotic 0.011999949 0.13906044 -0.13927965 -0.08080999 0.2274715 0.07179279 -0.029987358 -0.14523317 -0.04466809 0.048765983 -0.098345876 0.12615034 0.13766754 0.03142218 0.1372777 0.08141785 -0.019353528 -0.2787214 0.21068649 0.03680952
B 0.014283009 0.066956066 -0.0687582 -0.036684033 0.12019174 0.053564038 -0.009884394 -0.07426396 -0.026365917 0.037437033 -0.046455014 0.097688235 0.101677895 0.033949684 0.08279558 0.06121612 -0.031714983 -0.18640354 0.14411469 0.029445127
biochemical -0.00755525 0.1349974 -0.08968688 -0.07652464 0.14974001 0.05397054 -0.056357674 -0.14218456 -0.076605864 0.0138272 -0.061088342 0.08497566 0.089713596 0.02703533 0.084888645 0.05818777 -0.025790695 -0.2473726 0.16663794 0.023886776
women 0.016639529 0.11830891 -0.094185054 -0.061301835 0.12628265 0.07325781 -0.0042904858 -0.08399958 -0.03245417 0.01231104 -0.0912325 0.11121232 0.097240604 0.02685553 0.080226816 0.058820747 0.011443735 -0.20070079 0.16099584 0.028155832
